{"learner":{"attributes":{},"feature_names":["G count","A count","C count","T count","G at pos 1","A at pos 1","C at pos 1","T at pos 1","G at pos 2","A at pos 2","C at pos 2","T at pos 2","G at pos 3","A at pos 3","C at pos 3","T at pos 3","G at pos 4","A at pos 4","C at pos 4","T at pos 4","G at pos 5","A at pos 5","C at pos 5","T at pos 5","G at pos 6","A at pos 6","C at pos 6","T at pos 6","G at pos 7","A at pos 7","C at pos 7","T at pos 7","G at pos 8","A at pos 8","C at pos 8","T at pos 8","G at pos 9","A at pos 9","C at pos 9","T at pos 9","G at pos 10","A at pos 10","C at pos 10","T at pos 10","G at pos 11","A at pos 11","C at pos 11","T at pos 11","G at pos 12","A at pos 12","C at pos 12","T at pos 12","G at pos 13","A at pos 13","C at pos 13","T at pos 13","G at pos 14","A at pos 14","C at pos 14","T at pos 14","G at pos 15","A at pos 15","C at pos 15","T at pos 15","G at pos 16","A at pos 16","C at pos 16","T at pos 16","G at pos 17","A at pos 17","C at pos 17","T at pos 17","G at pos 18","A at pos 18","C at pos 18","T at pos 18","G at pos 19","A at pos 19","C at pos 19","T at pos 19","G at pos 20","A at pos 20","C at pos 20","T at pos 20","Melting Temperature"],"feature_types":["int","int","int","int","int","int","int","int","int","int","int","int","int","int","int","int","int","int","int","int","int","int","int","int","int","int","int","int","int","int","int","int","int","int","int","int","int","int","int","int","int","int","int","int","int","int","int","int","int","int","int","int","int","int","int","int","int","int","int","int","int","int","int","int","int","int","int","int","int","int","int","int","int","int","int","int","int","int","int","int","int","int","int","int","float"],"gradient_booster":{"model":{"gbtree_model_param":{"num_parallel_tree":"1","num_trees":"100"},"iteration_indptr":[0,1,2,3,4,5,6,7,8,9,10,11,12,13,14,15,16,17,18,19,20,21,22,23,24,25,26,27,28,29,30,31,32,33,34,35,36,37,38,39,40,41,42,43,44,45,46,47,48,49,50,51,52,53,54,55,56,57,58,59,60,61,62,63,64,65,66,67,68,69,70,71,72,73,74,75,76,77,78,79,80,81,82,83,84,85,86,87,88,89,90,91,92,93,94,95,96,97,98,99,100],"tree_info":[0,0,0,0,0,0,0,0,0,0,0,0,0,0,0,0,0,0,0,0,0,0,0,0,0,0,0,0,0,0,0,0,0,0,0,0,0,0,0,0,0,0,0,0,0,0,0,0,0,0,0,0,0,0,0,0,0,0,0,0,0,0,0,0,0,0,0,0,0,0,0,0,0,0,0,0,0,0,0,0,0,0,0,0,0,0,0,0,0,0,0,0,0,0,0,0,0,0,0,0],"trees":[{"base_weights":[-4.6061848E-9,-5.181463E-2,1.2571101E-1,-1.9989666E-1,1.1017285E-2,7.6051556E-2,2.8211892E-1,-3.516728E-1,1.5817937E-1,-4.316918E-2,1.0426425E-1,2.1210104E-2,1.750059E-1,5.5481446E-1,9.767287E-2,-5.290346E-1,4.1668203E-2,5.7450037E-2,5.646179E-1,-9.847957E-3,-1.2736185E-1,5.251731E-2,2.5774595E-1,-2.1887282E-2,1.5249836E-1,-2.9662052E-1,2.0296271E-1,6.135103E-1,-1.5916483E-1,5.5160668E-2,2.1515864E-1,-6.807875E-2,-2.438474E-2,-1.0148078E-2,4.793793E-2,-6.619092E-3,4.332489E-2,6.7711756E-2,-2.7916703E-2,-4.328865E-3,8.480706E-3,-1.5726853E-2,-4.9743187E-3,1.5913518E-3,1.6297298E-2,1.7981885E-2,5.209846E-2,-8.180574E-3,8.790167E-3,2.1742832E-2,-1.0038193E-2,-3.416843E-2,3.7352804E-2,2.5710082E-2,4.1791075E-3,7.0599206E-2,3.1249652E-2,-3.3035744E-2,4.2586103E-2,4.112055E-3,5.6652494E-2,4.3306813E-2,1.7257223E-2],"categories":[],"categories_nodes":[],"categories_segments":[],"categories_sizes":[],"default_left":[0,0,0,0,0,0,0,0,0,0,0,0,0,0,0,0,0,0,0,0,0,0,0,0,0,0,0,0,0,0,0,0,0,0,0,0,0,0,0,0,0,0,0,0,0,0,0,0,0,0,0,0,0,0,0,0,0,0,0,0,0,0,0],"id":0,"left_children":[1,3,5,7,9,11,13,15,17,19,21,23,25,27,29,31,33,35,37,39,41,43,45,47,49,51,53,55,57,59,61,-1,-1,-1,-1,-1,-1,-1,-1,-1,-1,-1,-1,-1,-1,-1,-1,-1,-1,-1,-1,-1,-1,-1,-1,-1,-1,-1,-1,-1,-1,-1,-1],"loss_changes":[2.4544156E2,2.4826828E2,8.5401474E1,4.3206305E2,9.466728E1,4.530464E1,1.3323448E2,3.8951276E2,9.6873215E1,3.3242767E1,5.46765E1,3.0404743E1,3.9312454E1,4.489688E1,7.889556E0,1.6636768E2,1.0882276E2,8.8217606E1,4.4804E1,2.688048E1,7.7917976E0,2.0823395E1,3.5517624E1,2.6623333E1,2.182693E1,5.1709337E0,2.4516708E1,2.7283539E1,8.353159E0,8.326595E0,3.822857E0,0E0,0E0,0E0,0E0,0E0,0E0,0E0,0E0,0E0,0E0,0E0,0E0,0E0,0E0,0E0,0E0,0E0,0E0,0E0,0E0,0E0,0E0,0E0,0E0,0E0,0E0,0E0,0E0,0E0,0E0,0E0,0E0],"parents":[2147483647,0,0,1,1,2,2,3,3,4,4,5,5,6,6,7,7,8,8,9,9,10,10,11,11,12,12,13,13,14,14,15,15,16,16,17,17,18,18,19,19,20,20,21,21,22,22,23,23,24,24,25,25,26,26,27,27,28,28,29,29,30,30],"right_children":[2,4,6,8,10,12,14,16,18,20,22,24,26,28,30,32,34,36,38,40,42,44,46,48,50,52,54,56,58,60,62,-1,-1,-1,-1,-1,-1,-1,-1,-1,-1,-1,-1,-1,-1,-1,-1,-1,-1,-1,-1,-1,-1,-1,-1,-1,-1,-1,-1,-1,-1,-1,-1],"split_conditions":[1E0,1E0,1E0,1E0,1E0,1E0,1E0,1E0,1E0,1E0,1E0,1E0,3E0,9E0,1E0,1E0,1E0,1E0,9E0,1E0,1E0,1E0,1E0,1E0,1E0,1E0,1E0,1E0,1E0,9E0,4E0,-6.807875E-2,-2.438474E-2,-1.0148078E-2,4.793793E-2,-6.619092E-3,4.332489E-2,6.7711756E-2,-2.7916703E-2,-4.328865E-3,8.480706E-3,-1.5726853E-2,-4.9743187E-3,1.5913518E-3,1.6297298E-2,1.7981885E-2,5.209846E-2,-8.180574E-3,8.790167E-3,2.1742832E-2,-1.0038193E-2,-3.416843E-2,3.7352804E-2,2.5710082E-2,4.1791075E-3,7.0599206E-2,3.1249652E-2,-3.3035744E-2,4.2586103E-2,4.112055E-3,5.6652494E-2,4.3306813E-2,1.7257223E-2],"split_indices":[25,4,23,29,26,22,4,21,27,28,22,31,1,3,30,33,33,21,3,34,22,30,30,30,35,33,19,19,74,1,0,0,0,0,0,0,0,0,0,0,0,0,0,0,0,0,0,0,0,0,0,0,0,0,0,0,0,0,0,0,0,0,0],"split_type":[0,0,0,0,0,0,0,0,0,0,0,0,0,0,0,0,0,0,0,0,0,0,0,0,0,0,0,0,0,0,0,0,0,0,0,0,0,0,0,0,0,0,0,0,0,0,0,0,0,0,0,0,0,0,0,0,0,0,0,0,0,0,0],"sum_hessian":[3.7679E4,2.6682E4,1.0997E4,7.948E3,1.8734E4,8.348E3,2.649E3,5.582E3,2.366E3,1.1849E4,6.885E3,5.372E3,2.976E3,1.068E3,1.581E3,3.847E3,1.735E3,1.897E3,4.69E2,8.49E3,3.359E3,5.15E3,1.735E3,4.045E3,1.327E3,1.66E2,2.81E3,9.87E2,8.1E1,1.162E3,4.19E2,2.51E3,1.337E3,1.308E3,4.27E2,1.428E3,4.69E2,4.14E2,5.5E1,6.274E3,2.216E3,2.424E3,9.35E2,3.869E3,1.281E3,1.34E3,3.95E2,2.617E3,1.428E3,1.056E3,2.71E2,1.56E2,1E1,2.103E3,7.07E2,7.54E2,2.33E2,6.3E1,1.8E1,1.132E3,3E1,6.7E1,3.52E2],"tree_param":{"num_deleted":"0","num_feature":"85","num_nodes":"63","size_leaf_vector":"1"}},{"base_weights":[9.856366E-6,-4.6629667E-2,1.1316519E-1,-1.7990425E-1,9.919374E-3,6.8451844E-2,2.5399485E-1,-3.165153E-1,1.4239375E-1,-3.8853653E-2,9.3850605E-2,1.9091388E-2,1.5751643E-1,4.994372E-1,8.798229E-2,-4.7615516E-1,3.7523154E-2,3.8577814E-2,4.7343403E-1,-8.862666E-3,-1.1463182E-1,4.7269057E-2,2.3201172E-1,-1.9698402E-2,1.3725735E-1,-2.669394E-1,1.8267709E-1,5.8501005E-1,7.6378085E-2,4.9696855E-2,1.93787E-1,-6.1273586E-2,-2.194809E-2,-9.134046E-3,4.315534E-2,-5.957646E-3,4.1250814E-2,5.8449354E-2,8.184987E-3,-3.8960464E-3,7.633019E-3,-1.4154814E-2,-4.4774185E-3,1.432258E-3,1.466884E-2,1.6185038E-2,4.690177E-2,-7.3628286E-3,7.911765E-3,1.9570606E-2,-9.038064E-3,-3.0773351E-2,3.3957094E-2,2.3140296E-2,3.7617877E-3,6.645744E-2,2.9464046E-2,1.7672507E-2,-3.790183E-2,3.7012135E-3,5.116999E-2,1.5977843E-2,4.480196E-2],"categories":[],"categories_nodes":[],"categories_segments":[],"categories_sizes":[],"default_left":[0,0,0,0,0,0,0,0,0,0,0,0,0,0,0,0,0,0,0,0,0,0,0,0,0,0,0,0,0,0,0,0,0,0,0,0,0,0,0,0,0,0,0,0,0,0,0,0,0,0,0,0,0,0,0,0,0,0,0,0,0,0,0],"id":1,"left_children":[1,3,5,7,9,11,13,15,17,19,21,23,25,27,29,31,33,35,37,39,41,43,45,47,49,51,53,55,57,59,61,-1,-1,-1,-1,-1,-1,-1,-1,-1,-1,-1,-1,-1,-1,-1,-1,-1,-1,-1,-1,-1,-1,-1,-1,-1,-1,-1,-1,-1,-1,-1,-1],"loss_changes":[1.9886191E2,2.0109955E2,6.923663E1,3.5003528E2,7.669687E1,3.6701447E1,1.0793434E2,3.1556158E2,8.1329025E1,2.6930029E1,4.4305668E1,2.4630564E1,3.1841888E1,3.865561E1,6.3987026E0,1.3476385E2,8.818682E1,6.619983E1,2.452353E1,2.1774893E1,6.311512E0,1.6870087E1,2.8791443E1,2.156752E1,1.768692E1,4.236418E0,1.9859833E1,2.0342834E1,8.338259E0,6.7966847E0,3.5597715E0,0E0,0E0,0E0,0E0,0E0,0E0,0E0,0E0,0E0,0E0,0E0,0E0,0E0,0E0,0E0,0E0,0E0,0E0,0E0,0E0,0E0,0E0,0E0,0E0,0E0,0E0,0E0,0E0,0E0,0E0,0E0,0E0],"parents":[2147483647,0,0,1,1,2,2,3,3,4,4,5,5,6,6,7,7,8,8,9,9,10,10,11,11,12,12,13,13,14,14,15,15,16,16,17,17,18,18,19,19,20,20,21,21,22,22,23,23,24,24,25,25,26,26,27,27,28,28,29,29,30,30],"right_children":[2,4,6,8,10,12,14,16,18,20,22,24,26,28,30,32,34,36,38,40,42,44,46,48,50,52,54,56,58,60,62,-1,-1,-1,-1,-1,-1,-1,-1,-1,-1,-1,-1,-1,-1,-1,-1,-1,-1,-1,-1,-1,-1,-1,-1,-1,-1,-1,-1,-1,-1,-1,-1],"split_conditions":[1E0,1E0,1E0,1E0,1E0,1E0,1E0,1E0,1E0,1E0,1E0,1E0,3E0,8E0,1E0,1E0,1E0,1E0,1E0,1E0,1E0,1E0,1E0,1E0,1E0,1E0,1E0,1E0,1E1,9E0,8E0,-6.1273586E-2,-2.194809E-2,-9.134046E-3,4.315534E-2,-5.957646E-3,4.1250814E-2,5.8449354E-2,8.184987E-3,-3.8960464E-3,7.633019E-3,-1.4154814E-2,-4.4774185E-3,1.432258E-3,1.466884E-2,1.6185038E-2,4.690177E-2,-7.3628286E-3,7.911765E-3,1.9570606E-2,-9.038064E-3,-3.0773351E-2,3.3957094E-2,2.3140296E-2,3.7617877E-3,6.645744E-2,2.9464046E-2,1.7672507E-2,-3.790183E-2,3.7012135E-3,5.116999E-2,1.5977843E-2,4.480196E-2],"split_indices":[25,4,23,29,26,22,4,21,21,28,22,31,1,3,30,33,33,27,33,34,22,30,30,30,35,33,19,19,3,1,2,0,0,0,0,0,0,0,0,0,0,0,0,0,0,0,0,0,0,0,0,0,0,0,0,0,0,0,0,0,0,0,0],"split_type":[0,0,0,0,0,0,0,0,0,0,0,0,0,0,0,0,0,0,0,0,0,0,0,0,0,0,0,0,0,0,0,0,0,0,0,0,0,0,0,0,0,0,0,0,0,0,0,0,0,0,0,0,0,0,0,0,0,0,0,0,0,0,0],"sum_hessian":[3.7679E4,2.6682E4,1.0997E4,7.948E3,1.8734E4,8.348E3,2.649E3,5.582E3,2.366E3,1.1849E4,6.885E3,5.372E3,2.976E3,1.068E3,1.581E3,3.847E3,1.735E3,1.802E3,5.64E2,8.49E3,3.359E3,5.15E3,1.735E3,4.045E3,1.327E3,1.66E2,2.81E3,8.88E2,1.8E2,1.162E3,4.19E2,2.51E3,1.337E3,1.308E3,4.27E2,1.428E3,3.74E2,4.39E2,1.25E2,6.274E3,2.216E3,2.424E3,9.35E2,3.869E3,1.281E3,1.34E3,3.95E2,2.617E3,1.428E3,1.056E3,2.71E2,1.56E2,1E1,2.103E3,7.07E2,6.96E2,1.92E2,1.48E2,3.2E1,1.132E3,3E1,3.71E2,4.8E1],"tree_param":{"num_deleted":"0","num_feature":"85","num_nodes":"63","size_leaf_vector":"1"}},{"base_weights":[1.8146688E-5,-4.1962314E-2,1.01869814E-1,-1.619072E-1,8.930868E-3,6.161159E-2,2.2866757E-1,-2.848726E-1,1.2819745E-1,-3.4969546E-2,8.4477045E-2,2.7225126E-2,1.707578E-1,4.495643E-1,7.925716E-2,-4.2856127E-1,3.3790443E-2,4.4544462E-2,4.6574032E-1,-6.1195455E-2,3.6583155E-2,4.2545278E-2,2.088469E-1,-1.4753803E-2,1.6028294E-1,9.910253E-2,3.6880392E-1,5.26617E-1,6.862852E-2,2.3799269E-1,5.6375924E-2,-5.514867E-2,-1.975492E-2,-8.2213385E-3,3.8849887E-2,-5.3622983E-3,3.429205E-2,5.6723442E-2,-2.9471993E-2,-9.799652E-3,3.3214681E-3,-2.0768724E-3,2.1634752E-2,7.093057E-3,-5.1175924E-3,1.4567742E-2,4.2223435E-2,2.7468656E-3,-1.3008738E-2,2.9967356E-2,5.7817367E-3,3.1652206E-3,2.6709238E-2,5.798601E-2,1.731789E-2,-2.4021607E-2,5.5460304E-2,-4.942892E-3,4.4866007E-2,1.3413027E-2,5.3676736E-2,2.8693897E-3,1.37145E-2],"categories":[],"categories_nodes":[],"categories_segments":[],"categories_sizes":[],"default_left":[0,0,0,0,0,0,0,0,0,0,0,0,0,0,0,0,0,0,0,0,0,0,0,0,0,0,0,0,0,0,0,0,0,0,0,0,0,0,0,0,0,0,0,0,0,0,0,0,0,0,0,0,0,0,0,0,0,0,0,0,0,0,0],"id":2,"left_children":[1,3,5,7,9,11,13,15,17,19,21,23,25,27,29,31,33,35,37,39,41,43,45,47,49,51,53,55,57,59,61,-1,-1,-1,-1,-1,-1,-1,-1,-1,-1,-1,-1,-1,-1,-1,-1,-1,-1,-1,-1,-1,-1,-1,-1,-1,-1,-1,-1,-1,-1,-1,-1],"loss_changes":[1.6111566E2,1.628845E2,5.61269E1,2.8359985E2,6.2137737E1,3.1330414E1,8.742569E1,2.5565048E2,6.681498E1,2.2239172E1,3.590193E1,3.5471077E1,2.8345547E1,3.1341293E1,5.7325087E0,1.091637E2,7.146406E1,5.561235E1,3.6442802E1,3.0133198E1,3.2779415E1,1.3706855E1,2.3339035E1,2.3514326E1,2.1735283E1,1.6648071E1,2.182344E1,1.9211731E1,8.142841E0,6.103264E0,3.0904837E0,0E0,0E0,0E0,0E0,0E0,0E0,0E0,0E0,0E0,0E0,0E0,0E0,0E0,0E0,0E0,0E0,0E0,0E0,0E0,0E0,0E0,0E0,0E0,0E0,0E0,0E0,0E0,0E0,0E0,0E0,0E0,0E0],"parents":[2147483647,0,0,1,1,2,2,3,3,4,4,5,5,6,6,7,7,8,8,9,9,10,10,11,11,12,12,13,13,14,14,15,15,16,16,17,17,18,18,19,19,20,20,21,21,22,22,23,23,24,24,25,25,26,26,27,27,28,28,29,29,30,30],"right_children":[2,4,6,8,10,12,14,16,18,20,22,24,26,28,30,32,34,36,38,40,42,44,46,48,50,52,54,56,58,60,62,-1,-1,-1,-1,-1,-1,-1,-1,-1,-1,-1,-1,-1,-1,-1,-1,-1,-1,-1,-1,-1,-1,-1,-1,-1,-1,-1,-1,-1,-1,-1,-1],"split_conditions":[1E0,1E0,1E0,1E0,1E0,1E0,1E0,1E0,1E0,1E0,1E0,1E0,1E0,8E0,4E0,1E0,1E0,1E0,9E0,1E0,1E0,1E0,1E0,1E0,1E0,1E0,1E0,3E0,1E0,1E0,1E0,-5.514867E-2,-1.975492E-2,-8.2213385E-3,3.8849887E-2,-5.3622983E-3,3.429205E-2,5.6723442E-2,-2.9471993E-2,-9.799652E-3,3.3214681E-3,-2.0768724E-3,2.1634752E-2,7.093057E-3,-5.1175924E-3,1.4567742E-2,4.2223435E-2,2.7468656E-3,-1.3008738E-2,2.9967356E-2,5.7817367E-3,3.1652206E-3,2.6709238E-2,5.798601E-2,1.731789E-2,-2.4021607E-2,5.5460304E-2,-4.942892E-3,4.4866007E-2,1.3413027E-2,5.3676736E-2,2.8693897E-3,1.37145E-2],"split_indices":[25,4,23,29,26,37,4,21,27,30,22,41,40,3,0,33,33,21,3,22,34,15,30,28,4,44,4,1,74,35,30,0,0,0,0,0,0,0,0,0,0,0,0,0,0,0,0,0,0,0,0,0,0,0,0,0,0,0,0,0,0,0,0],"split_type":[0,0,0,0,0,0,0,0,0,0,0,0,0,0,0,0,0,0,0,0,0,0,0,0,0,0,0,0,0,0,0,0,0,0,0,0,0,0,0,0,0,0,0,0,0,0,0,0,0,0,0,0,0,0,0,0,0,0,0,0,0,0,0],"sum_hessian":[3.7679E4,2.6682E4,1.0997E4,7.948E3,1.8734E4,8.348E3,2.649E3,5.582E3,2.366E3,1.1849E4,6.885E3,6.349E3,1.999E3,1.068E3,1.581E3,3.847E3,1.735E3,1.897E3,4.69E2,8.671E3,3.178E3,5.15E3,1.735E3,4.827E3,1.522E3,1.469E3,5.3E2,8.88E2,1.8E2,1.98E2,1.383E3,2.51E3,1.337E3,1.308E3,4.27E2,1.428E3,4.69E2,4.14E2,5.5E1,6.239E3,2.432E3,2.41E3,7.68E2,3.953E3,1.197E3,1.34E3,3.95E2,3.534E3,1.293E3,6.44E2,8.78E2,1.049E3,4.2E2,2.54E2,2.76E2,3.1E1,8.57E2,1.38E2,4.2E1,1.48E2,5E1,1.031E3,3.52E2],"tree_param":{"num_deleted":"0","num_feature":"85","num_nodes":"63","size_leaf_vector":"1"}},{"base_weights":[2.6135387E-5,-1.02417104E-1,3.393626E-2,-3.5554004E-1,-5.632876E-3,-4.464094E-3,1.105019E-1,-4.457083E-1,-5.6087893E-2,-5.45627E-2,1.11253776E-1,-4.784587E-2,9.838424E-2,1.5221485E-1,-1.4913449E-2,-5.039551E-1,-2.1903682E-1,-1.22614786E-1,5.348488E-1,-1.03642926E-1,5.7225563E-2,3.2552242E-2,3.3188537E-1,-1.5829559E-1,-5.374067E-4,1.470413E-1,-4.6240952E-2,2.67321E-1,6.417318E-2,4.338303E-2,-2.1541654E-1,-5.626137E-2,-3.0003538E-2,-3.124839E-2,5.4379046E-2,-1.8873913E-2,4.207864E-2,2.8740523E-2,1.02773786E-1,-9.90872E-3,-4.947466E-2,-3.8973193E-3,2.2641992E-2,-2.0986728E-3,1.6811496E-2,1.3945808E-2,8.413838E-2,-3.0260155E-2,1.2023159E-2,-4.149943E-3,7.236314E-3,9.469527E-3,2.9362885E-2,-1.0118298E-2,1.0552237E-2,1.256987E-2,3.8438138E-2,3.6749092E-3,1.420623E-2,9.263734E-3,-1.171953E-2,-6.0431212E-2,-1.5518494E-2],"categories":[],"categories_nodes":[],"categories_segments":[],"categories_sizes":[],"default_left":[0,0,0,0,0,0,0,0,0,0,0,0,0,0,0,0,0,0,0,0,0,0,0,0,0,0,0,0,0,0,0,0,0,0,0,0,0,0,0,0,0,0,0,0,0,0,0,0,0,0,0,0,0,0,0,0,0,0,0,0,0,0,0],"id":3,"left_children":[1,3,5,7,9,11,13,15,17,19,21,23,25,27,29,31,33,35,37,39,41,43,45,47,49,51,53,55,57,59,61,-1,-1,-1,-1,-1,-1,-1,-1,-1,-1,-1,-1,-1,-1,-1,-1,-1,-1,-1,-1,-1,-1,-1,-1,-1,-1,-1,-1,-1,-1,-1,-1],"loss_changes":[1.3089862E2,2.2957162E2,8.323606E1,6.996179E1,3.878254E1,8.4130875E1,4.9470825E1,2.6189758E1,2.3692804E1,2.6231844E1,3.473465E1,6.929661E1,3.9371983E1,7.18947E1,2.7606188E1,1.8778473E1,2.9325077E1,1.9518654E1,7.1443195E0,5.869995E0,2.3755926E1,1.071617E1,5.145244E1,1.5988446E2,2.7732428E1,3.2092537E1,1.175918E1,5.09301E1,8.585924E0,1.4484648E1,1.2367683E1,0E0,0E0,0E0,0E0,0E0,0E0,0E0,0E0,0E0,0E0,0E0,0E0,0E0,0E0,0E0,0E0,0E0,0E0,0E0,0E0,0E0,0E0,0E0,0E0,0E0,0E0,0E0,0E0,0E0,0E0,0E0,0E0],"parents":[2147483647,0,0,1,1,2,2,3,3,4,4,5,5,6,6,7,7,8,8,9,9,10,10,11,11,12,12,13,13,14,14,15,15,16,16,17,17,18,18,19,19,20,20,21,21,22,22,23,23,24,24,25,25,26,26,27,27,28,28,29,29,30,30],"right_children":[2,4,6,8,10,12,14,16,18,20,22,24,26,28,30,32,34,36,38,40,42,44,46,48,50,52,54,56,58,60,62,-1,-1,-1,-1,-1,-1,-1,-1,-1,-1,-1,-1,-1,-1,-1,-1,-1,-1,-1,-1,-1,-1,-1,-1,-1,-1,-1,-1,-1,-1,-1,-1],"split_conditions":[4E0,1E0,1E0,1E0,1E0,1E0,1E0,1E0,1E0,1E0,1E0,1E0,1E0,1E0,1E0,1E0,1E0,1E0,1E0,6.7306076E1,1E0,1E0,1E0,1E0,6E0,1E0,1E0,6E0,1E0,1E0,4.43207E1,-5.626137E-2,-3.0003538E-2,-3.124839E-2,5.4379046E-2,-1.8873913E-2,4.207864E-2,2.8740523E-2,1.02773786E-1,-9.90872E-3,-4.947466E-2,-3.8973193E-3,2.2641992E-2,-2.0986728E-3,1.6811496E-2,1.3945808E-2,8.413838E-2,-3.0260155E-2,1.2023159E-2,-4.149943E-3,7.236314E-3,9.469527E-3,2.9362885E-2,-1.0118298E-2,1.0552237E-2,1.256987E-2,3.8438138E-2,3.6749092E-3,1.420623E-2,9.263734E-3,-1.171953E-2,-6.0431212E-2,-1.5518494E-2],"split_indices":[1,4,25,25,30,29,21,21,17,22,34,4,33,4,17,29,37,13,8,84,31,26,48,21,2,37,80,1,44,56,84,0,0,0,0,0,0,0,0,0,0,0,0,0,0,0,0,0,0,0,0,0,0,0,0,0,0,0,0,0,0,0,0],"split_type":[0,0,0,0,0,0,0,0,0,0,0,0,0,0,0,0,0,0,0,0,0,0,0,0,0,0,0,0,0,0,0,0,0,0,0,0,0,0,0,0,0,0,0,0,0,0,0,0,0,0,0,0,0,0,0,0,0,0,0,0,0,0,0],"sum_hessian":[3.7679E4,9.37E3,2.8309E4,2.591E3,6.779E3,1.8854E4,9.455E3,1.991E3,6E2,4.779E3,2E3,1.3261E4,5.593E3,7.095E3,2.36E3,1.583E3,4.08E2,5.4E2,6E1,3.321E3,1.458E3,1.475E3,5.25E2,3.976E3,9.285E3,4.185E3,1.408E3,3.074E3,4.021E3,1.829E3,5.31E2,1.228E3,3.55E2,3.64E2,4.4E1,4.82E2,5.8E1,4.1E1,1.9E1,3.284E3,3.7E1,9.3E2,5.28E2,1.058E3,4.17E2,3.82E2,1.43E2,2.619E3,1.357E3,5.945E3,3.34E3,3.085E3,1.1E3,1.034E3,3.74E2,1.392E3,1.682E3,2.975E3,1.046E3,1.4E3,4.29E2,7E1,4.61E2],"tree_param":{"num_deleted":"0","num_feature":"85","num_nodes":"63","size_leaf_vector":"1"}},{"base_weights":[2.8256303E-5,-9.2157915E-2,3.0543149E-2,-3.199507E-1,-5.058944E-3,-4.016404E-3,9.94507E-2,-4.0116918E-1,-5.0221663E-2,-4.911493E-2,1.0018477E-1,-4.3062422E-2,8.855284E-2,6.315976E-2,2.1778078E-1,-5.347245E-1,-3.1257707E-1,-1.0833516E-1,5.172817E-1,-9.3296506E-2,5.151585E-2,1.8394494E-1,-7.781489E-2,-1.4247061E-1,-4.8333209E-4,1.3234647E-1,-4.1616548E-2,1.49615845E-2,1.5705664E-1,4.1854113E-1,7.6588854E-2,-5.6277294E-2,-3.743E-2,-3.919827E-2,-1.6772113E-3,-1.7269613E-2,4.361622E-2,1.380098E-1,3.226978E-2,-8.777275E-3,-3.9730113E-2,-3.508006E-3,2.0382073E-2,8.515498E-3,4.5228064E-2,-5.7291472E-3,-3.6915384E-2,-2.7235297E-2,1.082173E-2,-7.33862E-4,4.1709833E-2,8.522882E-3,2.642926E-2,-4.081322E-2,-2.2439149E-3,4.8921453E-3,-9.363375E-3,2.0303458E-2,4.9980317E-4,5.5416998E-2,2.4905955E-2,6.342151E-3,3.8619127E-2],"categories":[],"categories_nodes":[],"categories_segments":[],"categories_sizes":[],"default_left":[0,0,0,0,0,0,0,0,0,0,0,0,0,0,0,0,0,0,0,0,0,0,0,0,0,0,0,0,0,0,0,0,0,0,0,0,0,0,0,0,0,0,0,0,0,0,0,0,0,0,0,0,0,0,0,0,0,0,0,0,0,0,0],"id":4,"left_children":[1,3,5,7,9,11,13,15,17,19,21,23,25,27,29,31,33,35,37,39,41,43,45,47,49,51,53,55,57,59,61,-1,-1,-1,-1,-1,-1,-1,-1,-1,-1,-1,-1,-1,-1,-1,-1,-1,-1,-1,-1,-1,-1,-1,-1,-1,-1,-1,-1,-1,-1,-1,-1],"loss_changes":[1.0599858E2,1.8592387E2,6.7418236E1,5.6762726E1,3.1441175E1,6.8154465E1,4.059326E1,2.34021E1,1.9876783E1,2.1256813E1,2.9847788E1,5.613414E1,3.1894604E1,3.2754364E1,6.286714E1,3.3575745E0,2.8179718E1,1.9209555E1,8.956496E0,5.543598E0,1.9249872E1,3.6040062E1,3.811563E0,1.2952032E2,2.658556E1,2.6001793E1,9.894444E0,1.764741E1,1.7162735E1,2.091771E1,5.2914486E0,0E0,0E0,0E0,0E0,0E0,0E0,0E0,0E0,0E0,0E0,0E0,0E0,0E0,0E0,0E0,0E0,0E0,0E0,0E0,0E0,0E0,0E0,0E0,0E0,0E0,0E0,0E0,0E0,0E0,0E0,0E0,0E0],"parents":[2147483647,0,0,1,1,2,2,3,3,4,4,5,5,6,6,7,7,8,8,9,9,10,10,11,11,12,12,13,13,14,14,15,15,16,16,17,17,18,18,19,19,20,20,21,21,22,22,23,23,24,24,25,25,26,26,27,27,28,28,29,29,30,30],"right_children":[2,4,6,8,10,12,14,16,18,20,22,24,26,28,30,32,34,36,38,40,42,44,46,48,50,52,54,56,58,60,62,-1,-1,-1,-1,-1,-1,-1,-1,-1,-1,-1,-1,-1,-1,-1,-1,-1,-1,-1,-1,-1,-1,-1,-1,-1,-1,-1,-1,-1,-1,-1,-1],"split_conditions":[4E0,1E0,1E0,1E0,1E0,1E0,1E0,3E0,1E0,1E0,1E0,1E0,1E0,1E0,1E0,1E0,1E0,1E0,5E0,1.2E1,1E0,1E0,6.582315E1,1E0,6.183641E1,1E0,4.32251E1,1E0,1E0,6E0,8E0,-5.6277294E-2,-3.743E-2,-3.919827E-2,-1.6772113E-3,-1.7269613E-2,4.361622E-2,1.380098E-1,3.226978E-2,-8.777275E-3,-3.9730113E-2,-3.508006E-3,2.0382073E-2,8.515498E-3,4.5228064E-2,-5.7291472E-3,-3.6915384E-2,-2.7235297E-2,1.082173E-2,-7.33862E-4,4.1709833E-2,8.522882E-3,2.642926E-2,-4.081322E-2,-2.2439149E-3,4.8921453E-3,-9.363375E-3,2.0303458E-2,4.9980317E-4,5.5416998E-2,2.4905955E-2,6.342151E-3,3.8619127E-2],"split_indices":[1,4,25,25,30,29,23,1,33,22,24,4,33,22,4,17,29,17,2,0,31,34,84,21,84,37,84,15,29,3,2,0,0,0,0,0,0,0,0,0,0,0,0,0,0,0,0,0,0,0,0,0,0,0,0,0,0,0,0,0,0,0,0],"split_type":[0,0,0,0,0,0,0,0,0,0,0,0,0,0,0,0,0,0,0,0,0,0,0,0,0,0,0,0,0,0,0,0,0,0,0,0,0,0,0,0,0,0,0,0,0,0,0,0,0,0,0,0,0,0,0,0,0,0,0,0,0,0,0],"sum_hessian":[3.7679E4,9.37E3,2.8309E4,2.591E3,6.779E3,1.8854E4,9.455E3,1.991E3,6E2,4.779E3,2E3,1.3261E4,5.593E3,7.237E3,2.218E3,7.92E2,1.199E3,5.45E2,5.5E1,3.321E3,1.458E3,1.36E3,6.4E2,3.976E3,9.285E3,4.185E3,1.408E3,4.783E3,2.454E3,9.15E2,1.303E3,6.72E2,1.2E2,9.45E2,2.54E2,4.88E2,5.7E1,9E0,4.6E1,3.263E3,5.8E1,9.3E2,5.28E2,9.95E2,3.65E2,5.99E2,4.1E1,2.619E3,1.357E3,9.136E3,1.49E2,3.085E3,1.1E3,6.9E1,1.339E3,3.644E3,1.139E3,1.884E3,5.7E2,5.07E2,4.08E2,1.251E3,5.2E1],"tree_param":{"num_deleted":"0","num_feature":"85","num_nodes":"63","size_leaf_vector":"1"}},{"base_weights":[3.072767E-5,2.949487E-2,-8.1185855E-2,4.2567953E-2,-1.8211403E-1,-1.596424E-1,-4.8571818E-2,7.170177E-2,-5.782615E-2,-1.3787982E-1,-4.9128765E-1,-3.8606727E-1,-8.860524E-2,-5.6499552E-2,3.6636007E-1,9.986218E-2,-1.311829E-2,-1.0467171E-1,-9.184417E-3,-1.8243323E-1,4.403512E-2,-5.721927E-1,-9.121796E-2,-4.5195407E-1,-1.9497398E-1,-8.139885E-2,-4.0961385E-1,-2.8243348E-2,-1.543625E-1,-1.2232746E-1,6.389449E0,6.7592612E-3,1.8395279E-2,-4.6063135E-3,7.759423E-3,-3.0746607E-2,-5.582608E-3,-3.9753667E-3,1.0654642E-2,-1.1672864E-2,-3.0616967E-2,-6.299087E-3,4.510818E-2,-4.850938E-2,-6.777025E-2,-2.1191934E-2,2.0063145E-1,-5.0783128E-2,-2.6656518E-2,-2.8689867E-2,6.0874294E-2,-1.0580116E-2,-2.5578635E-3,-5.707534E-2,-2.0264074E-2,-6.4296E-3,4.1162567E-3,-2.0645076E-2,-6.689679E-3,-2.0450113E-2,2.2858365E-2,3.336512E0,-3.1508293E-2],"categories":[],"categories_nodes":[],"categories_segments":[],"categories_sizes":[],"default_left":[0,0,0,0,0,0,0,0,0,0,0,0,0,0,0,0,0,0,0,0,0,0,0,0,0,0,0,0,0,0,0,0,0,0,0,0,0,0,0,0,0,0,0,0,0,0,0,0,0,0,0,0,0,0,0,0,0,0,0,0,0,0,0],"id":5,"left_children":[1,3,5,7,9,11,13,15,17,19,21,23,25,27,29,31,33,35,37,39,41,43,45,47,49,51,53,55,57,59,61,-1,-1,-1,-1,-1,-1,-1,-1,-1,-1,-1,-1,-1,-1,-1,-1,-1,-1,-1,-1,-1,-1,-1,-1,-1,-1,-1,-1,-1,-1,-1,-1],"loss_changes":[9.016977E1,7.649818E1,2.5659409E1,7.617345E1,2.193703E1,4.7334885E1,2.3333158E1,4.821454E1,1.3347368E1,1.1427881E1,6.4537086E0,8.763016E0,5.1554184E0,1.922785E1,3.9225494E2,4.1108963E1,1.5041757E1,2.9541203E1,1.0175425E1,9.16748E0,1.2139366E1,1.2059479E0,9.286304E0,5.2720337E0,1.3621067E1,2.987196E0,1.518568E0,1.3509885E1,7.084339E0,3.622366E0,1.8191053E3,0E0,0E0,0E0,0E0,0E0,0E0,0E0,0E0,0E0,0E0,0E0,0E0,0E0,0E0,0E0,0E0,0E0,0E0,0E0,0E0,0E0,0E0,0E0,0E0,0E0,0E0,0E0,0E0,0E0,0E0,0E0,0E0],"parents":[2147483647,0,0,1,1,2,2,3,3,4,4,5,5,6,6,7,7,8,8,9,9,10,10,11,11,12,12,13,13,14,14,15,15,16,16,17,17,18,18,19,19,20,20,21,21,22,22,23,23,24,24,25,25,26,26,27,27,28,28,29,29,30,30],"right_children":[2,4,6,8,10,12,14,16,18,20,22,24,26,28,30,32,34,36,38,40,42,44,46,48,50,52,54,56,58,60,62,-1,-1,-1,-1,-1,-1,-1,-1,-1,-1,-1,-1,-1,-1,-1,-1,-1,-1,-1,-1,-1,-1,-1,-1,-1,-1,-1,-1,-1,-1,-1,-1],"split_conditions":[1E0,8E0,4E0,1E0,1E1,1E0,6.183641E1,1E0,5E0,1E0,1E0,1E0,1.2E1,1E0,1E0,1E0,1E0,1E0,1E0,4.823022E1,1E0,1.1E1,1E0,1E0,1E0,1E0,3E0,1E0,1E0,1E0,7E0,6.7592612E-3,1.8395279E-2,-4.6063135E-3,7.759423E-3,-3.0746607E-2,-5.582608E-3,-3.9753667E-3,1.0654642E-2,-1.1672864E-2,-3.0616967E-2,-6.299087E-3,4.510818E-2,-4.850938E-2,-6.777025E-2,-2.1191934E-2,2.0063145E-1,-5.0783128E-2,-2.6656518E-2,-2.8689867E-2,6.0874294E-2,-1.0580116E-2,-2.5578635E-3,-5.707534E-2,-2.0264074E-2,-6.4296E-3,4.1162567E-3,-2.0645076E-2,-6.689679E-3,-2.0450113E-2,2.2858365E-2,3.336512E0,-3.1508293E-2],"split_indices":[28,3,1,24,3,4,84,56,1,44,40,25,0,20,19,54,22,4,64,84,41,3,81,21,17,22,3,25,25,13,0,0,0,0,0,0,0,0,0,0,0,0,0,0,0,0,0,0,0,0,0,0,0,0,0,0,0,0,0,0,0,0,0],"split_type":[0,0,0,0,0,0,0,0,0,0,0,0,0,0,0,0,0,0,0,0,0,0,0,0,0,0,0,0,0,0,0,0,0,0,0,0,0,0,0,0,0,0,0,0,0,0,0,0,0,0,0,0,0,0,0,0,0,0,0,0,0,0,0],"sum_hessian":[3.7679E4,2.7649E4,1.003E4,2.6041E4,1.608E3,2.944E3,7.086E3,2.0184E4,5.857E3,1.408E3,2E2,7.02E2,2.242E3,6.954E3,1.32E2,1.5153E4,5.031E3,2.983E3,2.874E3,1.131E3,2.77E2,1.66E2,3.4E1,5.21E2,1.81E2,2.194E3,4.8E1,5.397E3,1.557E3,1.23E2,9E0,1.0952E4,4.201E3,3.691E3,1.34E3,5.78E2,2.405E3,2.274E3,6E2,7.4E2,3.91E2,2.2E2,5.7E1,9.4E1,7.2E1,3.3E1,1E0,3.99E2,1.22E2,1.63E2,1.8E1,1.526E3,6.68E2,2.6E1,2.2E1,3.552E3,1.845E3,9.75E2,5.82E2,1E2,2.3E1,1E0,8E0],"tree_param":{"num_deleted":"0","num_feature":"85","num_nodes":"63","size_leaf_vector":"1"}},{"base_weights":[1.1259052E-4,-2.8728204E-2,7.0085205E-2,-1.0966413E-1,5.6133186E-3,3.7393104E-2,1.7305736E-1,-2.0094708E-1,1.14622094E-1,-3.0966507E-2,6.85621E-2,4.6668337E-3,1.3893071E-1,3.458404E-1,5.6193825E-2,-3.0611572E-1,2.3617493E-2,3.0773727E-2,3.7204888E-1,-9.683813E-2,-9.738321E-3,3.371098E-2,1.7193167E-1,-4.477054E-2,9.320638E-2,2.5698557E-1,5.4715894E-2,4.2964435E-1,9.748178E-2,1.931441E-1,3.6461674E-2,-4.1348685E-2,-1.0438557E-2,-7.100161E-3,3.2590363E-2,-6.882619E-3,3.353193E-2,7.265312E-3,4.9642745E-2,-9.378696E-3,-5.7812095E-2,1.2946253E-3,-7.288523E-3,5.829261E-3,-4.744887E-3,1.187577E-2,3.5156388E-2,-2.0809954E-3,-3.214027E-2,1.3765946E-2,-3.5127804E-3,1.603892E-2,5.924355E-2,8.622892E-2,4.574974E-3,5.515123E-2,2.6434511E-2,4.3556336E-4,4.249028E-2,1.402349E-2,7.895284E-2,3.2943394E-3,6.374877E-2],"categories":[],"categories_nodes":[],"categories_segments":[],"categories_sizes":[],"default_left":[0,0,0,0,0,0,0,0,0,0,0,0,0,0,0,0,0,0,0,0,0,0,0,0,0,0,0,0,0,0,0,0,0,0,0,0,0,0,0,0,0,0,0,0,0,0,0,0,0,0,0,0,0,0,0,0,0,0,0,0,0,0,0],"id":6,"left_children":[1,3,5,7,9,11,13,15,17,19,21,23,25,27,29,31,33,35,37,39,41,43,45,47,49,51,53,55,57,59,61,-1,-1,-1,-1,-1,-1,-1,-1,-1,-1,-1,-1,-1,-1,-1,-1,-1,-1,-1,-1,-1,-1,-1,-1,-1,-1,-1,-1,-1,-1,-1,-1],"loss_changes":[7.6042725E1,7.416502E1,3.701693E1,1.6276694E2,4.3142372E1,2.7742634E1,5.348947E1,1.334441E2,4.9633625E1,1.6569328E1,2.4801334E1,2.7645958E1,2.021785E1,2.2207672E1,4.2680335E0,8.3304504E1,5.159262E1,5.268067E1,2.100364E1,4.1867485E0,1.284009E1,1.0279226E1,1.6540096E1,2.6857687E1,1.2914909E1,2.7350521E1,8.569898E0,1.5949799E1,8.261334E0,6.1685686E0,2.9055734E0,0E0,0E0,0E0,0E0,0E0,0E0,0E0,0E0,0E0,0E0,0E0,0E0,0E0,0E0,0E0,0E0,0E0,0E0,0E0,0E0,0E0,0E0,0E0,0E0,0E0,0E0,0E0,0E0,0E0,0E0,0E0,0E0],"parents":[2147483647,0,0,1,1,2,2,3,3,4,4,5,5,6,6,7,7,8,8,9,9,10,10,11,11,12,12,13,13,14,14,15,15,16,16,17,17,18,18,19,19,20,20,21,21,22,22,23,23,24,24,25,25,26,26,27,27,28,28,29,29,30,30],"right_children":[2,4,6,8,10,12,14,16,18,20,22,24,26,28,30,32,34,36,38,40,42,44,46,48,50,52,54,56,58,60,62,-1,-1,-1,-1,-1,-1,-1,-1,-1,-1,-1,-1,-1,-1,-1,-1,-1,-1,-1,-1,-1,-1,-1,-1,-1,-1,-1,-1,-1,-1,-1,-1],"split_conditions":[1E0,1E0,1E0,1E0,1E0,1E0,1E0,1E0,1E0,4E0,1E0,1E0,1E0,1E0,4E0,1E0,1E0,1E0,4.801164E1,1E1,1E0,1E0,1E0,7E0,1E0,1E0,2E0,6E0,1E0,1E0,1.1E1,-4.1348685E-2,-1.0438557E-2,-7.100161E-3,3.2590363E-2,-6.882619E-3,3.353193E-2,7.265312E-3,4.9642745E-2,-9.378696E-3,-5.7812095E-2,1.2946253E-3,-7.288523E-3,5.829261E-3,-4.744887E-3,1.187577E-2,3.5156388E-2,-2.0809954E-3,-3.214027E-2,1.3765946E-2,-3.5127804E-3,1.603892E-2,5.924355E-2,8.622892E-2,4.574974E-3,5.515123E-2,2.6434511E-2,4.3556336E-4,4.249028E-2,1.402349E-2,7.895284E-2,3.2943394E-3,6.374877E-2],"split_indices":[25,4,23,21,26,31,4,29,29,2,22,30,4,19,0,33,17,33,84,3,28,15,30,3,32,33,0,3,12,72,0,0,0,0,0,0,0,0,0,0,0,0,0,0,0,0,0,0,0,0,0,0,0,0,0,0,0,0,0,0,0,0,0],"split_type":[0,0,0,0,0,0,0,0,0,0,0,0,0,0,0,0,0,0,0,0,0,0,0,0,0,0,0,0,0,0,0,0,0,0,0,0,0,0,0,0,0,0,0,0,0,0,0,0,0,0,0,0,0,0,0,0,0,0,0,0,0,0,0],"sum_hessian":[3.7679E4,2.6682E4,1.0997E4,7.948E3,1.8734E4,8.348E3,2.649E3,5.649E3,2.299E3,1.1849E4,6.885E3,6.314E3,2.034E3,1.068E3,1.581E3,3.847E3,1.802E3,1.735E3,5.64E2,2.887E3,8.962E3,5.15E3,1.735E3,4.052E3,2.262E3,8.46E2,1.188E3,7.98E2,2.7E2,1.98E2,1.383E3,2.51E3,1.337E3,1.373E3,4.29E2,1.308E3,4.27E2,1.66E2,3.98E2,2.87E3,1.7E1,6.594E3,2.368E3,3.953E3,1.197E3,1.34E3,3.95E2,3.73E3,3.22E2,1.68E3,5.82E2,6.58E2,1.88E2,1.2E1,1.176E3,4.58E2,3.4E2,2.11E2,5.9E1,1.83E2,1.5E1,1.376E3,7E0],"tree_param":{"num_deleted":"0","num_feature":"85","num_nodes":"63","size_leaf_vector":"1"}},{"base_weights":[1.1350917E-4,-7.4270956E-2,2.4735788E-2,-2.592339E-1,-3.5485055E-3,9.3563064E-4,9.574097E-2,-3.2209054E-1,-5.046573E-2,-4.0095273E-2,8.375639E-2,2.4497928E-2,-6.894502E-2,1.2251412E-1,-1.4267012E-2,-4.3588296E-1,-2.466243E-1,-1.0175806E-1,4.5053568E-1,-7.731139E-2,4.4669665E-2,2.0425133E-2,2.6130995E-1,2.7948225E-2,-5.035347E-1,-1.0340804E-1,-2.1608057E-2,1.1367822E-1,7.2081494E-1,-3.601948E-2,2.3465426E-1,-4.641261E-2,-2.7519276E-2,-3.0985808E-2,-1.1072252E-3,-1.6119568E-2,3.4840018E-2,1.2345209E-1,2.7414447E-2,-7.340579E-3,-4.1290622E-2,-1.6288037E-3,2.1718591E-2,-2.142648E-3,1.2640703E-2,1.4201927E-2,1.07642055E-1,6.0748793E-5,8.436794E-3,-3.153434E-2,-6.132865E-2,-2.2697425E-2,-5.4347534E-3,-7.876709E-3,5.44098E-3,8.114607E-3,2.1172695E-2,-3.4877907E-3,1.5654467E0,-8.0985326E-4,-1.3445415E-2,3.4737635E-2,-2.4227127E-2],"categories":[],"categories_nodes":[],"categories_segments":[],"categories_sizes":[],"default_left":[0,0,0,0,0,0,0,0,0,0,0,0,0,0,0,0,0,0,0,0,0,0,0,0,0,0,0,0,0,0,0,0,0,0,0,0,0,0,0,0,0,0,0,0,0,0,0,0,0,0,0,0,0,0,0,0,0,0,0,0,0,0,0],"id":7,"left_children":[1,3,5,7,9,11,13,15,17,19,21,23,25,27,29,31,33,35,37,39,41,43,45,47,49,51,53,55,57,59,61,-1,-1,-1,-1,-1,-1,-1,-1,-1,-1,-1,-1,-1,-1,-1,-1,-1,-1,-1,-1,-1,-1,-1,-1,-1,-1,-1,-1,-1,-1,-1,-1],"loss_changes":[6.901332E1,1.2258142E2,4.784195E1,3.3997177E1,2.1636383E1,3.4915108E1,2.0933716E1,1.6998795E1,1.5490061E1,1.5082548E1,2.2495289E1,2.8905266E1,8.720726E0,3.0135864E1,7.5456495E0,3.4712067E0,1.7870392E1,1.4665119E1,7.405697E0,4.323839E0,1.5346665E1,6.549526E0,5.099279E1,2.4304476E1,1.934E0,1.8744171E1,9.798158E0,1.7953789E1,9.372221E2,3.519598E0,6.105283E0,0E0,0E0,0E0,0E0,0E0,0E0,0E0,0E0,0E0,0E0,0E0,0E0,0E0,0E0,0E0,0E0,0E0,0E0,0E0,0E0,0E0,0E0,0E0,0E0,0E0,0E0,0E0,0E0,0E0,0E0,0E0,0E0],"parents":[2147483647,0,0,1,1,2,2,3,3,4,4,5,5,6,6,7,7,8,8,9,9,10,10,11,11,12,12,13,13,14,14,15,15,16,16,17,17,18,18,19,19,20,20,21,21,22,22,23,23,24,24,25,25,26,26,27,27,28,28,29,29,30,30],"right_children":[2,4,6,8,10,12,14,16,18,20,22,24,26,28,30,32,34,36,38,40,42,44,46,48,50,52,54,56,58,60,62,-1,-1,-1,-1,-1,-1,-1,-1,-1,-1,-1,-1,-1,-1,-1,-1,-1,-1,-1,-1,-1,-1,-1,-1,-1,-1,-1,-1,-1,-1,-1,-1],"split_conditions":[4E0,1E0,1E0,1E0,1E0,1E0,1E0,3E0,1E0,1E0,1E0,1E1,6E0,6.183641E1,1E0,1E0,1E0,1E0,5E0,6.7306076E1,1E0,1E0,1E0,1E0,1E0,1E0,1E0,1E0,1E0,1E0,1E0,-4.641261E-2,-2.7519276E-2,-3.0985808E-2,-1.1072252E-3,-1.6119568E-2,3.4840018E-2,1.2345209E-1,2.7414447E-2,-7.340579E-3,-4.1290622E-2,-1.6288037E-3,2.1718591E-2,-2.142648E-3,1.2640703E-2,1.4201927E-2,1.07642055E-1,6.0748793E-5,8.436794E-3,-3.153434E-2,-6.132865E-2,-2.2697425E-2,-5.4347534E-3,-7.876709E-3,5.44098E-3,8.114607E-3,2.1172695E-2,-3.4877907E-3,1.5654467E0,-8.0985326E-4,-1.3445415E-2,3.4737635E-2,-2.4227127E-2],"split_indices":[1,4,8,25,30,28,24,1,33,22,34,3,1,84,5,17,29,37,2,84,35,26,61,25,47,4,25,44,59,19,30,0,0,0,0,0,0,0,0,0,0,0,0,0,0,0,0,0,0,0,0,0,0,0,0,0,0,0,0,0,0,0,0],"split_type":[0,0,0,0,0,0,0,0,0,0,0,0,0,0,0,0,0,0,0,0,0,0,0,0,0,0,0,0,0,0,0,0,0,0,0,0,0,0,0,0,0,0,0,0,0,0,0,0,0,0,0,0,0,0,0,0,0,0,0,0,0,0,0],"sum_hessian":[3.7679E4,9.37E3,2.8309E4,2.591E3,6.779E3,2.1203E4,7.106E3,1.991E3,6E2,4.779E3,2E3,1.5857E4,5.346E3,5.715E3,1.391E3,7.92E2,1.199E3,5.45E2,5.5E1,3.321E3,1.458E3,1.475E3,5.25E2,1.5755E4,1.02E2,3.093E3,2.253E3,5.633E3,8.2E1,1.28E3,1.11E2,6.72E2,1.2E2,9.45E2,2.54E2,4.82E2,6.3E1,9E0,4.6E1,3.284E3,3.7E1,1.078E3,3.8E2,1.058E3,4.17E2,4.59E2,6.6E1,1.0613E4,5.142E3,3.9E1,6.3E1,8.78E2,2.215E3,1.286E3,9.67E2,4.231E3,1.402E3,7.9E1,3E0,9.98E2,2.82E2,9E1,2.1E1],"tree_param":{"num_deleted":"0","num_feature":"85","num_nodes":"63","size_leaf_vector":"1"}},{"base_weights":[1.456812E-4,9.437919E-3,-1.6660078E-1,3.3945166E-2,-5.6692757E-2,-1.3339701E-1,-4.1505894E-1,5.764761E-2,-4.77325E-2,-8.5016176E-2,1.0959374E-2,-1.7675197E-1,4.3155976E-2,-4.803984E-1,-1.1365807E-1,8.266698E-2,-1.7710332E-2,-8.695737E-2,-7.0038834E-3,-2.1759067E-1,-3.9622262E-2,-4.6070095E-2,8.891581E-2,-2.3774129E-1,-9.4020136E-2,-4.5070842E-2,3.749261E-1,-4.396148E-1,-6.2912333E-1,-2.0791735E-1,1.9226159E-1,5.334622E-3,1.5907524E-2,-2.200408E-5,-1.5516885E-2,-2.4163758E-2,-4.9697696E-3,-3.7260174E-3,1.02649955E-2,-2.8161509E-2,-2.908909E-3,-5.791226E-3,3.3667132E-3,-1.0888789E-2,5.437232E-3,2.1851106E-2,-2.6781221E-3,-1.4838335E-2,-3.4871828E-2,7.0724405E-2,-1.0330436E-2,2.7607537E-3,-2.1948088E-2,1.7766153E-2,1.5999268E-1,-4.7480416E-2,-2.6430557E-2,-7.4713216E-3,-6.41747E-2,-3.6772244E-2,3.4023117E-2],"categories":[],"categories_nodes":[],"categories_segments":[],"categories_sizes":[],"default_left":[0,0,0,0,0,0,0,0,0,0,0,0,0,0,0,0,0,0,0,0,0,0,0,0,0,0,0,0,0,0,0,0,0,0,0,0,0,0,0,0,0,0,0,0,0,0,0,0,0,0,0,0,0,0,0,0,0,0,0,0,0],"id":8,"left_children":[1,3,5,7,9,11,13,15,17,19,21,23,25,27,29,31,33,35,37,39,41,43,45,47,49,51,53,55,57,59,-1,-1,-1,-1,-1,-1,-1,-1,-1,-1,-1,-1,-1,-1,-1,-1,-1,-1,-1,-1,-1,-1,-1,-1,-1,-1,-1,-1,-1,-1,-1],"loss_changes":[5.8384758E1,5.7847263E1,1.6353382E1,5.0419025E1,1.8493591E1,1.3448835E1,4.553646E0,3.8058426E1,9.3579855E0,4.0932354E1,1.2670222E1,7.092167E0,1.01739435E1,8.8801193E-1,8.653067E0,3.3941757E1,1.2097847E1,1.7185783E1,9.542265E0,2.0930992E1,6.7967567E0,1.0391475E1,1.8058369E1,7.9906807E0,4.5365314E0,3.491915E0,1.7356146E1,8.2453537E-1,2.2499943E-1,3.804181E0,0E0,0E0,0E0,0E0,0E0,0E0,0E0,0E0,0E0,0E0,0E0,0E0,0E0,0E0,0E0,0E0,0E0,0E0,0E0,0E0,0E0,0E0,0E0,0E0,0E0,0E0,0E0,0E0,0E0,0E0,0E0],"parents":[2147483647,0,0,1,1,2,2,3,3,4,4,5,5,6,6,7,7,8,8,9,9,10,10,11,11,12,12,13,13,14,14,15,15,16,16,17,17,18,18,19,19,20,20,21,21,22,22,23,23,24,24,25,25,26,26,27,27,28,28,29,29],"right_children":[2,4,6,8,10,12,14,16,18,20,22,24,26,28,30,32,34,36,38,40,42,44,46,48,50,52,54,56,58,60,-1,-1,-1,-1,-1,-1,-1,-1,-1,-1,-1,-1,-1,-1,-1,-1,-1,-1,-1,-1,-1,-1,-1,-1,-1,-1,-1,-1,-1,-1,-1],"split_conditions":[8E0,1E0,1E1,1E0,6E0,1E0,1E0,1E0,5E0,1E0,1E0,1E0,1E0,1E0,1E0,1E0,1E0,1E0,1E0,1E0,1E0,1E0,1E0,1E0,2E0,1E0,1E0,1E0,2E0,1E0,1.9226159E-1,5.334622E-3,1.5907524E-2,-2.200408E-5,-1.5516885E-2,-2.4163758E-2,-4.9697696E-3,-3.7260174E-3,1.02649955E-2,-2.8161509E-2,-2.908909E-3,-5.791226E-3,3.3667132E-3,-1.0888789E-2,5.437232E-3,2.1851106E-2,-2.6781221E-3,-1.4838335E-2,-3.4871828E-2,7.0724405E-2,-1.0330436E-2,2.7607537E-3,-2.1948088E-2,1.7766153E-2,1.5999268E-1,-4.7480416E-2,-2.6430557E-2,-7.4713216E-3,-6.41747E-2,-3.6772244E-2,3.4023117E-2],"split_indices":[3,28,3,24,1,44,40,56,1,4,25,4,41,53,81,54,7,4,68,37,77,21,4,75,0,37,21,30,1,13,0,0,0,0,0,0,0,0,0,0,0,0,0,0,0,0,0,0,0,0,0,0,0,0,0,0,0,0,0,0,0],"split_type":[0,0,0,0,0,0,0,0,0,0,0,0,0,0,0,0,0,0,0,0,0,0,0,0,0,0,0,0,0,0,0,0,0,0,0,0,0,0,0,0,0,0,0,0,0,0,0,0,0,0,0,0,0,0,0,0,0,0,0,0,0],"sum_hessian":[3.7679E4,3.5691E4,1.988E3,2.6041E4,9.65E3,1.755E3,2.33E2,2.0184E4,5.857E3,6.802E3,2.848E3,1.409E3,3.46E2,1.91E2,4.2E1,1.5153E4,5.031E3,2.983E3,2.874E3,1.734E3,5.068E3,1.645E3,1.203E3,8.1E2,5.99E2,2.74E2,7.2E1,1.53E2,3.8E1,4.1E1,1E0,1.0952E4,4.201E3,4.464E3,5.67E2,5.78E2,2.405E3,2.253E3,6.21E2,1.294E3,4.4E2,4.056E3,1.012E3,1.012E3,6.33E2,5.67E2,6.36E2,4.5E2,3.6E2,6E0,5.93E2,1.94E2,8E1,6.3E1,9E0,1.26E2,2.7E1,1E0,3.7E1,3.2E1,9E0],"tree_param":{"num_deleted":"0","num_feature":"85","num_nodes":"61","size_leaf_vector":"1"}},{"base_weights":[1.3579836E-4,-6.3582726E-2,2.1227503E-2,-2.2272235E-1,-2.734132E-3,4.1231047E-2,-5.15662E-2,-3.5770708E-1,-1.4177728E-1,-3.4685988E-2,7.359401E-2,1.7588012E-2,1.10813685E-1,-8.461268E-2,4.0166114E-2,-4.7827742E-1,-3.256124E-1,-2.1167547E-1,5.685061E-2,-6.811866E-2,4.1460697E-2,3.156893E-2,3.3286148E-1,1.210475E-3,1.2529147E-1,9.4220184E-2,3.258836E-1,-5.677644E-2,-1.6430826E-1,-1.6236177E-2,1.4076681E-1,-3.3551674E-2,-5.5309035E-2,-3.5272177E-2,-1.6148796E-2,-2.7247611E-2,-2.3353507E-5,-1.2748464E-4,4.715779E-2,-6.5499707E-3,-4.9723245E-2,-3.2832425E-3,1.721326E-2,-2.1894942E-3,1.729045E-2,5.0384062E-3,2.5910556E-1,2.1800413E-3,-6.359181E-3,2.0229857E-2,-3.2324276E-3,1.9703157E-2,4.408856E-3,1.9866455E-2,1.4442891E-1,-3.6621478E-3,-1.5715916E-2,-3.043943E-2,-7.776804E-3,-6.421663E-3,1.169468E-2,7.98843E-3,3.8153272E-2],"categories":[],"categories_nodes":[],"categories_segments":[],"categories_sizes":[],"default_left":[0,0,0,0,0,0,0,0,0,0,0,0,0,0,0,0,0,0,0,0,0,0,0,0,0,0,0,0,0,0,0,0,0,0,0,0,0,0,0,0,0,0,0,0,0,0,0,0,0,0,0,0,0,0,0,0,0,0,0,0,0,0,0],"id":9,"left_children":[1,3,5,7,9,11,13,15,17,19,21,23,25,27,29,31,33,35,37,39,41,43,45,47,49,51,53,55,57,59,61,-1,-1,-1,-1,-1,-1,-1,-1,-1,-1,-1,-1,-1,-1,-1,-1,-1,-1,-1,-1,-1,-1,-1,-1,-1,-1,-1,-1,-1,-1,-1,-1],"loss_changes":[5.0640724E1,9.074274E1,4.1225227E1,2.8270386E1,1.6537792E1,3.6533424E1,1.8504221E1,3.601715E0,2.253144E1,1.2171686E1,2.1791862E1,2.9240307E1,2.0068565E1,9.944748E0,9.1773205E0,1.971859E0,3.3690033E0,1.5426903E1,1.019753E1,3.7007875E0,1.4169659E1,1.3023373E1,1.7784044E2,1.9201601E1,2.6563454E1,2.6947266E1,5.7052902E1,6.725463E0,1.405122E1,6.6341257E0,8.4860735E0,0E0,0E0,0E0,0E0,0E0,0E0,0E0,0E0,0E0,0E0,0E0,0E0,0E0,0E0,0E0,0E0,0E0,0E0,0E0,0E0,0E0,0E0,0E0,0E0,0E0,0E0,0E0,0E0,0E0,0E0,0E0,0E0],"parents":[2147483647,0,0,1,1,2,2,3,3,4,4,5,5,6,6,7,7,8,8,9,9,10,10,11,11,12,12,13,13,14,14,15,15,16,16,17,17,18,18,19,19,20,20,21,21,22,22,23,23,24,24,25,25,26,26,27,27,28,28,29,29,30,30],"right_children":[2,4,6,8,10,12,14,16,18,20,22,24,26,28,30,32,34,36,38,40,42,44,46,48,50,52,54,56,58,60,62,-1,-1,-1,-1,-1,-1,-1,-1,-1,-1,-1,-1,-1,-1,-1,-1,-1,-1,-1,-1,-1,-1,-1,-1,-1,-1,-1,-1,-1,-1,-1,-1],"split_conditions":[4E0,1E0,1E0,3E0,1E0,1E0,1E0,2E0,1E0,1E0,1E0,1E0,8E0,1E0,6E0,7E0,1E0,1E0,1E0,1.3E1,1E0,1E0,1E0,1E0,1E0,1E0,6.183641E1,5.464076E1,1E0,1E0,1E0,-3.3551674E-2,-5.5309035E-2,-3.5272177E-2,-1.6148796E-2,-2.7247611E-2,-2.3353507E-5,-1.2748464E-4,4.715779E-2,-6.5499707E-3,-4.9723245E-2,-3.2832425E-3,1.721326E-2,-2.1894942E-3,1.729045E-2,5.0384062E-3,2.5910556E-1,2.1800413E-3,-6.359181E-3,2.0229857E-2,-3.2324276E-3,1.9703157E-2,4.408856E-3,1.9866455E-2,1.4442891E-1,-3.6621478E-3,-1.5715916E-2,-3.043943E-2,-7.776804E-3,-6.421663E-3,1.169468E-2,7.98843E-3,3.8153272E-2],"split_indices":[1,4,43,1,30,8,44,1,25,22,73,6,2,47,1,2,17,21,17,0,31,26,61,20,42,4,84,84,4,17,5,0,0,0,0,0,0,0,0,0,0,0,0,0,0,0,0,0,0,0,0,0,0,0,0,0,0,0,0,0,0,0,0],"split_type":[0,0,0,0,0,0,0,0,0,0,0,0,0,0,0,0,0,0,0,0,0,0,0,0,0,0,0,0,0,0,0,0,0,0,0,0,0,0,0,0,0,0,0,0,0,0,0,0,0,0,0,0,0,0,0,0,0,0,0,0,0,0,0],"sum_hessian":[3.7679E4,9.37E3,2.8309E4,2.591E3,6.779E3,2.2207E4,6.102E3,9.7E2,1.621E3,4.779E3,2E3,1.6576E4,5.631E3,4.486E3,1.616E3,2.01E2,7.69E2,1.199E3,4.22E2,3.321E3,1.458E3,1.722E3,2.78E2,1.4389E4,2.187E3,5.229E3,4.02E2,3.326E3,1.16E3,1.036E3,5.8E2,7.1E1,1.3E2,6.59E2,1.1E2,9.31E2,2.68E2,3.71E2,5.1E1,3.302E3,1.9E1,9.3E2,5.28E2,1.25E3,4.72E2,2.48E2,3E1,1.092E4,3.469E3,1.469E3,7.18E2,1.713E3,3.516E3,3.62E2,4E1,2.771E3,5.55E2,4.42E2,7.18E2,7.62E2,2.74E2,4.64E2,1.16E2],"tree_param":{"num_deleted":"0","num_feature":"85","num_nodes":"63","size_leaf_vector":"1"}},{"base_weights":[1.3048366E-4,-2.2041041E-2,5.3922325E-2,-8.343003E-2,4.0066303E-3,2.406739E-2,1.4796191E-1,-1.6166843E-1,1.0880059E-1,-2.6046418E-2,5.5723827E-2,5.3614583E-2,-6.552744E-2,3.0477208E-1,4.1907534E-2,-2.4975985E-1,2.6427763E-2,3.3837084E-2,3.4332046E-1,-8.346644E-2,-7.542003E-3,2.5659572E-2,1.4489736E-1,8.671796E-2,-4.683556E-2,-1.1107301E-1,7.445932E-2,3.7877667E-1,8.5456826E-2,3.4345035E-2,3.5676476E-1,-3.4511313E-2,-6.194852E-3,-5.1829773E-3,3.2457065E-2,-7.074324E-3,3.4582943E-2,4.4731755E-2,-4.737482E-3,-8.108723E-3,-4.583129E-2,1.5317127E-3,-6.168464E-3,4.69552E-3,-4.464807E-3,9.706822E-3,2.9642954E-2,5.1337597E-3,1.995631E-2,2.9470204E-4,-1.1685889E-2,-1.5510405E-2,2.54604E-3,-7.5163005E-4,2.7257169E-2,3.0494133E-2,6.0437758E-2,2.5630667E-4,3.7692383E-2,6.0161884E-4,1.1179005E-2,1.0102838E-2,1.9732718E-1],"categories":[],"categories_nodes":[],"categories_segments":[],"categories_sizes":[],"default_left":[0,0,0,0,0,0,0,0,0,0,0,0,0,0,0,0,0,0,0,0,0,0,0,0,0,0,0,0,0,0,0,0,0,0,0,0,0,0,0,0,0,0,0,0,0,0,0,0,0,0,0,0,0,0,0,0,0,0,0,0,0,0,0],"id":10,"left_children":[1,3,5,7,9,11,13,15,17,19,21,23,25,27,29,31,33,35,37,39,41,43,45,47,49,51,53,55,57,59,61,-1,-1,-1,-1,-1,-1,-1,-1,-1,-1,-1,-1,-1,-1,-1,-1,-1,-1,-1,-1,-1,-1,-1,-1,-1,-1,-1,-1,-1,-1,-1,-1],"loss_changes":[4.4940132E1,4.2667526E1,3.0873829E1,1.1956911E2,2.91205E1,2.2105616E1,4.40578E1,9.362518E1,4.042337E1,1.2590279E1,1.8457203E1,2.088324E1,1.3212504E1,1.7317856E1,3.7546597E0,6.889024E1,4.208429E1,5.692815E1,2.2652763E1,2.5384617E0,1.1094033E1,7.714405E0,1.255315E1,1.8846336E1,5.4279566E0,9.400251E0,8.268403E0,1.3124901E1,6.546609E0,3.3911395E0,1.5096432E1,0E0,0E0,0E0,0E0,0E0,0E0,0E0,0E0,0E0,0E0,0E0,0E0,0E0,0E0,0E0,0E0,0E0,0E0,0E0,0E0,0E0,0E0,0E0,0E0,0E0,0E0,0E0,0E0,0E0,0E0,0E0,0E0],"parents":[2147483647,0,0,1,1,2,2,3,3,4,4,5,5,6,6,7,7,8,8,9,9,10,10,11,11,12,12,13,13,14,14,15,15,16,16,17,17,18,18,19,19,20,20,21,21,22,22,23,23,24,24,25,25,26,26,27,27,28,28,29,29,30,30],"right_children":[2,4,6,8,10,12,14,16,18,20,22,24,26,28,30,32,34,36,38,40,42,44,46,48,50,52,54,56,58,60,62,-1,-1,-1,-1,-1,-1,-1,-1,-1,-1,-1,-1,-1,-1,-1,-1,-1,-1,-1,-1,-1,-1,-1,-1,-1,-1,-1,-1,-1,-1,-1,-1],"split_conditions":[1E0,1E0,1E0,1E0,1E0,1E0,1E0,1E0,1E0,4E0,1E0,1E0,1E0,1E0,9E0,1E0,1E0,1E0,1E0,1E1,1E0,1E0,1E0,1E0,5.480829E1,1E0,6E0,1E0,1E0,1E0,1E0,-3.4511313E-2,-6.194852E-3,-5.1829773E-3,3.2457065E-2,-7.074324E-3,3.4582943E-2,4.4731755E-2,-4.737482E-3,-8.108723E-3,-4.583129E-2,1.5317127E-3,-6.168464E-3,4.69552E-3,-4.464807E-3,9.706822E-3,2.9642954E-2,5.1337597E-3,1.995631E-2,2.9470204E-4,-1.1685889E-2,-1.5510405E-2,2.54604E-3,-7.5163005E-4,2.7257169E-2,3.0494133E-2,6.0437758E-2,2.5630667E-4,3.7692383E-2,6.0161884E-4,1.1179005E-2,1.0102838E-2,1.9732718E-1],"split_indices":[25,4,23,21,26,15,4,29,37,2,22,56,37,19,1,17,27,41,17,3,10,15,35,31,84,33,2,80,12,30,14,0,0,0,0,0,0,0,0,0,0,0,0,0,0,0,0,0,0,0,0,0,0,0,0,0,0,0,0,0,0,0,0],"split_type":[0,0,0,0,0,0,0,0,0,0,0,0,0,0,0,0,0,0,0,0,0,0,0,0,0,0,0,0,0,0,0,0,0,0,0,0,0,0,0,0,0,0,0,0,0,0,0,0,0,0,0,0,0,0,0,0,0,0,0,0,0,0,0],"sum_hessian":[3.7679E4,2.6682E4,1.0997E4,7.948E3,1.8734E4,8.348E3,2.649E3,5.649E3,2.299E3,1.1849E4,6.885E3,6.278E3,2.07E3,1.068E3,1.581E3,3.847E3,1.802E3,1.743E3,5.56E2,2.887E3,8.962E3,5.15E3,1.735E3,4.722E3,1.556E3,1.562E3,5.08E2,7.98E2,2.7E2,1.545E3,3.6E1,2.551E3,1.296E3,1.428E3,3.74E2,1.306E3,4.37E2,4.39E2,1.17E2,2.87E3,1.7E1,6.302E3,2.66E3,3.953E3,1.197E3,1.32E3,4.15E2,3.596E3,1.126E3,9.1E2,6.46E2,1.181E3,3.81E2,3.6E2,1.48E2,6.03E2,1.95E2,2.11E2,5.9E1,1.132E3,4.13E2,3.2E1,4E0],"tree_param":{"num_deleted":"0","num_feature":"85","num_nodes":"63","size_leaf_vector":"1"}},{"base_weights":[1.2832718E-4,-2.022231E-2,5.673797E-2,-1.0594595E-2,-1.7716187E-1,2.3152832E-2,1.4160208E-1,1.6890632E-2,-5.6073498E-2,-1.5027806E-1,-3.7264892E-1,3.3115868E-2,-1.7744388E-1,2.560801E-1,5.908895E-2,3.7870992E-2,-5.1035088E-2,-1.5858603E-1,-1.757151E-2,-1.8599711E-1,-2.4495982E-2,-3.1296304E-1,-6.078687E-1,2.7189173E-2,4.7487944E-1,-2.0915666E-1,1.43362E-1,3.2487845E-1,8.802824E-2,2.4106143E-2,1.8022746E-1,6.007876E-3,-4.045989E-3,-2.6013174E-3,-1.466006E-2,-2.0550657E-2,3.836853E-4,-4.5051593E-3,3.8293079E-3,-2.2576215E-2,1.5379484E-3,-1.2123814E-2,1.9217974E-2,-3.673723E-2,-1.3163838E-3,-6.8468424E-3,-6.2059652E-2,6.815962E-3,-1.0161967E-3,2.4192413E-2,3.2025033E-1,-1.4790651E-2,-4.078668E-2,-1.9276813E-3,2.5112632E-1,2.703816E-2,5.286343E-2,-8.2304E-3,3.1531036E-2,1.6203976E-3,4.7379315E-2,1.2124136E-2,5.2851766E-2],"categories":[],"categories_nodes":[],"categories_segments":[],"categories_sizes":[],"default_left":[0,0,0,0,0,0,0,0,0,0,0,0,0,0,0,0,0,0,0,0,0,0,0,0,0,0,0,0,0,0,0,0,0,0,0,0,0,0,0,0,0,0,0,0,0,0,0,0,0,0,0,0,0,0,0,0,0,0,0,0,0,0,0],"id":11,"left_children":[1,3,5,7,9,11,13,15,17,19,21,23,25,27,29,31,33,35,37,39,41,43,45,47,49,51,53,55,57,59,61,-1,-1,-1,-1,-1,-1,-1,-1,-1,-1,-1,-1,-1,-1,-1,-1,-1,-1,-1,-1,-1,-1,-1,-1,-1,-1,-1,-1,-1,-1,-1,-1],"loss_changes":[4.34101E1,4.1877655E1,2.8395844E1,3.264589E1,8.363209E0,1.4275539E1,2.6669647E1,2.3201235E1,3.8827168E1,6.3303146E0,2.5193424E0,1.779869E1,3.4686785E0,1.364888E1,6.9583035E0,2.1638998E1,9.183301E0,2.0470718E1,1.098275E1,8.795982E0,6.584304E0,2.5398092E0,2.1839523E-1,1.0275078E1,5.6412537E1,3.6883488E0,1.19869E1,9.173378E0,1.3382097E1,4.5265913E0,7.496217E0,0E0,0E0,0E0,0E0,0E0,0E0,0E0,0E0,0E0,0E0,0E0,0E0,0E0,0E0,0E0,0E0,0E0,0E0,0E0,0E0,0E0,0E0,0E0,0E0,0E0,0E0,0E0,0E0,0E0,0E0,0E0,0E0],"parents":[2147483647,0,0,1,1,2,2,3,3,4,4,5,5,6,6,7,7,8,8,9,9,10,10,11,11,12,12,13,13,14,14,15,15,16,16,17,17,18,18,19,19,20,20,21,21,22,22,23,23,24,24,25,25,26,26,27,27,28,28,29,29,30,30],"right_children":[2,4,6,8,10,12,14,16,18,20,22,24,26,28,30,32,34,36,38,40,42,44,46,48,50,52,54,56,58,60,62,-1,-1,-1,-1,-1,-1,-1,-1,-1,-1,-1,-1,-1,-1,-1,-1,-1,-1,-1,-1,-1,-1,-1,-1,-1,-1,-1,-1,-1,-1,-1,-1],"split_conditions":[1E0,8E0,6E0,5.4425728E1,1E1,6.3916058E1,1E0,1E0,1E0,1E0,1E0,1E1,1E0,1E0,1E0,1E0,1E0,1E0,1E0,1E0,1E0,1E0,2E0,5E0,1E0,6.7306076E1,1E0,1E0,1E0,5.936767E1,1E0,6.007876E-3,-4.045989E-3,-2.6013174E-3,-1.466006E-2,-2.0550657E-2,3.836853E-4,-4.5051593E-3,3.8293079E-3,-2.2576215E-2,1.5379484E-3,-1.2123814E-2,1.9217974E-2,-3.673723E-2,-1.3163838E-3,-6.8468424E-3,-6.2059652E-2,6.815962E-3,-1.0161967E-3,2.4192413E-2,3.2025033E-1,-1.4790651E-2,-4.078668E-2,-1.9276813E-3,2.5112632E-1,2.703816E-2,5.286343E-2,-8.2304E-3,3.1531036E-2,1.6203976E-3,4.7379315E-2,1.2124136E-2,5.2851766E-2],"split_indices":[44,3,1,84,3,84,4,43,4,54,53,2,67,26,8,20,39,37,26,80,25,74,1,3,83,84,33,68,29,84,83,0,0,0,0,0,0,0,0,0,0,0,0,0,0,0,0,0,0,0,0,0,0,0,0,0,0,0,0,0,0,0,0],"split_type":[0,0,0,0,0,0,0,0,0,0,0,0,0,0,0,0,0,0,0,0,0,0,0,0,0,0,0,0,0,0,0,0,0,0,0,0,0,0,0,0,0,0,0,0,0,0,0,0,0,0,0,0,0,0,0,0,0,0,0,0,0,0,0],"sum_hessian":[3.7679E4,2.7716E4,9.963E3,2.6115E4,1.601E3,7.139E3,2.824E3,1.6278E4,9.837E3,1.409E3,1.92E2,6.802E3,3.37E2,1.182E3,1.642E3,1.2437E4,3.841E3,2.685E3,7.152E3,1.097E3,3.12E2,1.55E2,3.7E1,6.713E3,8.9E1,3.07E2,3E1,8.38E2,3.44E2,1.275E3,3.67E2,9.69E3,2.747E3,3.045E3,7.96E2,2.083E3,6.02E2,4.794E3,2.358E3,9.16E2,1.81E2,2.16E2,9.6E1,1.31E2,2.4E1,1E0,3.6E1,3.201E3,3.512E3,8.3E1,6E0,2.36E2,7.1E1,2.9E1,1E0,6.63E2,1.75E2,1.97E2,1.47E2,1.254E3,2.1E1,3.15E2,5.2E1],"tree_param":{"num_deleted":"0","num_feature":"85","num_nodes":"63","size_leaf_vector":"1"}},{"base_weights":[1.3152436E-4,1.9826265E-2,-5.4156154E-2,3.848706E-2,-4.3419216E-2,-6.8315946E-2,3.1058291E-2,4.77322E-2,-9.410738E-2,-1.9946853E-2,-1.3928175E-1,-1.4988586E-1,-3.6908668E-2,-2.940945E-1,4.9272723E-2,8.8553175E-2,4.666498E-3,-2.3477998E-1,-3.2247916E-2,9.6102925E-3,-8.367392E-2,-2.4662194E-1,-7.245053E-2,-8.9970544E-2,-3.2467145E-1,-5.0887346E-2,1.3472983E-2,-3.8897732E-1,4.5547497E-1,1.5746915E-1,-2.439409E-2,5.7883775E-3,1.6672045E-2,-2.019811E-3,6.825117E-3,-1.4493907E-2,-3.8267314E-2,-8.126298E-3,5.730216E-3,3.679333E-3,-7.5722123E-3,-2.6371289E-2,-1.171096E-3,-3.1569E-2,-7.5668143E-3,-1.1296868E-2,3.1725976E-3,-2.4734808E-3,-2.6290152E-2,-9.388882E-3,-4.0582564E-2,-3.1905302E-3,-1.03162285E-2,-3.1001302E-3,1.14686705E-1,-4.526214E-2,1.4493108E-2,-3.9500076E-2,1.2148557E-1,2.502186E-2,-3.183333E-2,-3.233081E-4,-1.2017624E-2],"categories":[],"categories_nodes":[],"categories_segments":[],"categories_sizes":[],"default_left":[0,0,0,0,0,0,0,0,0,0,0,0,0,0,0,0,0,0,0,0,0,0,0,0,0,0,0,0,0,0,0,0,0,0,0,0,0,0,0,0,0,0,0,0,0,0,0,0,0,0,0,0,0,0,0,0,0,0,0,0,0,0,0],"id":12,"left_children":[1,3,5,7,9,11,13,15,17,19,21,23,25,27,29,31,33,35,37,39,41,43,45,47,49,51,53,55,57,59,61,-1,-1,-1,-1,-1,-1,-1,-1,-1,-1,-1,-1,-1,-1,-1,-1,-1,-1,-1,-1,-1,-1,-1,-1,-1,-1,-1,-1,-1,-1,-1,-1],"loss_changes":[4.028784E1,3.2634506E1,1.2105709E1,2.6177702E1,1.4172978E1,2.2031837E1,8.483627E0,3.5088943E1,1.210552E1,9.535538E0,8.870316E0,2.5010132E1,4.3756037E0,5.5823846E0,1.080385E1,2.4555931E1,1.5359289E1,5.591448E0,4.253501E0,8.026262E0,2.0778557E1,5.58465E0,3.232679E0,2.0096731E1,1.1386581E1,4.822193E0,6.808485E1,2.3762465E0,6.292383E0,2.4307253E1,1.6352769E0,0E0,0E0,0E0,0E0,0E0,0E0,0E0,0E0,0E0,0E0,0E0,0E0,0E0,0E0,0E0,0E0,0E0,0E0,0E0,0E0,0E0,0E0,0E0,0E0,0E0,0E0,0E0,0E0,0E0,0E0,0E0,0E0],"parents":[2147483647,0,0,1,1,2,2,3,3,4,4,5,5,6,6,7,7,8,8,9,9,10,10,11,11,12,12,13,13,14,14,15,15,16,16,17,17,18,18,19,19,20,20,21,21,22,22,23,23,24,24,25,25,26,26,27,27,28,28,29,29,30,30],"right_children":[2,4,6,8,10,12,14,16,18,20,22,24,26,28,30,32,34,36,38,40,42,44,46,48,50,52,54,56,58,60,62,-1,-1,-1,-1,-1,-1,-1,-1,-1,-1,-1,-1,-1,-1,-1,-1,-1,-1,-1,-1,-1,-1,-1,-1,-1,-1,-1,-1,-1,-1,-1,-1],"split_conditions":[1E0,1E0,7E0,6.082514E1,1E0,1E0,3E0,5E0,1E0,5.4156925E1,1E0,1E0,1E0,8E0,1E0,1E0,1E0,3E0,1E0,1E0,1E0,1E0,1E0,1E0,5.2486267E1,1E0,6.183641E1,1E0,1E0,1E0,1E0,5.7883775E-3,1.6672045E-2,-2.019811E-3,6.825117E-3,-1.4493907E-2,-3.8267314E-2,-8.126298E-3,5.730216E-3,3.679333E-3,-7.5722123E-3,-2.6371289E-2,-1.171096E-3,-3.1569E-2,-7.5668143E-3,-1.1296868E-2,3.1725976E-3,-2.4734808E-3,-2.6290152E-2,-9.388882E-3,-4.0582564E-2,-3.1905302E-3,-1.03162285E-2,-3.1001302E-3,1.14686705E-1,-4.526214E-2,1.4493108E-2,-3.9500076E-2,1.2148557E-1,2.502186E-2,-3.183333E-2,-3.233081E-4,-1.2017624E-2],"split_indices":[28,43,1,84,47,4,0,3,4,84,4,26,77,2,4,34,25,3,26,39,4,71,54,34,84,20,84,4,21,26,79,0,0,0,0,0,0,0,0,0,0,0,0,0,0,0,0,0,0,0,0,0,0,0,0,0,0,0,0,0,0,0,0],"split_type":[0,0,0,0,0,0,0,0,0,0,0,0,0,0,0,0,0,0,0,0,0,0,0,0,0,0,0,0,0,0,0,0,0,0,0,0,0,0,0,0,0,0,0,0,0,0,0,0,0,0,0,0,0,0,0,0,0,0,0,0,0,0,0],"sum_hessian":[3.7679E4,2.7649E4,1.003E4,2.135E4,6.299E3,8.601E3,1.429E3,1.9959E4,1.391E3,5.061E3,1.238E3,2.39E3,6.211E3,7.5E1,1.354E3,1.0246E4,9.713E3,4.24E2,9.67E2,3.458E3,1.603E3,4.74E2,7.64E2,1.781E3,6.09E2,4.862E3,1.349E3,6.7E1,8E0,5.48E2,8.06E2,7.36E3,2.886E3,6.983E3,2.73E3,2.65E2,1.59E2,6.25E2,3.42E2,2.623E3,8.35E2,4.57E2,1.146E3,3.37E2,1.37E2,5.5E2,2.14E2,1.294E3,4.87E2,1.59E2,4.5E2,3.568E3,1.294E3,1.299E3,5E1,6E1,7E0,4E0,4E0,4.59E2,8.9E1,6.61E2,1.45E2],"tree_param":{"num_deleted":"0","num_feature":"85","num_nodes":"63","size_leaf_vector":"1"}},{"base_weights":[1.1690771E-4,-1.825734E-2,5.1228803E-2,-9.827454E-3,-1.55671E-1,2.2456579E-2,1.2393056E-1,1.4272138E-2,-4.9704198E-2,-1.314965E-1,-3.3147597E-1,4.886037E-2,-4.0467884E-2,2.2670616E-1,4.9854185E-2,1.577667E-2,-8.293288E-2,-1.3612354E-1,-1.7246202E-2,-1.6356184E-1,-1.8591624E-2,-4.4485396E-1,-2.3017313E-1,7.629296E-2,-3.7713833E-2,-6.955906E-2,6.438654E-2,2.757422E-1,3.686768E-2,1.8557182E-2,1.5823767E-1,3.394575E-3,-4.673722E-3,-1.785795E-2,2.0055796E-3,5.0800847E-4,-7.644366E-3,-1.9932028E-2,1.7504378E-3,4.9943994E-3,-3.144898E-2,-5.1096637E-2,-2.3004984E-2,-3.257251E-2,1.8743142E-2,5.0907E-3,1.8241784E-2,1.4003962E-3,-1.0441618E-2,-1.7875334E-2,-2.2323122E-3,5.792693E-4,3.0127382E-2,1.807939E-2,4.324059E-2,-4.444764E-3,3.7864566E-2,1.1552484E-3,4.1729983E-2,8.499655E-3,4.294547E-2],"categories":[],"categories_nodes":[],"categories_segments":[],"categories_sizes":[],"default_left":[0,0,0,0,0,0,0,0,0,0,0,0,0,0,0,0,0,0,0,0,0,0,0,0,0,0,0,0,0,0,0,0,0,0,0,0,0,0,0,0,0,0,0,0,0,0,0,0,0,0,0,0,0,0,0,0,0,0,0,0,0],"id":13,"left_children":[1,3,5,7,9,11,13,15,17,19,21,23,25,27,29,31,-1,33,35,37,39,41,43,45,47,49,51,53,55,57,59,-1,-1,-1,-1,-1,-1,-1,-1,-1,-1,-1,-1,-1,-1,-1,-1,-1,-1,-1,-1,-1,-1,-1,-1,-1,-1,-1,-1,-1,-1],"loss_changes":[3.538783E1,3.210533E1,2.0839827E1,2.5098532E1,6.764908E0,1.1864691E1,2.1496113E1,2.0674795E1,2.7593231E1,5.1016293E0,2.1143112E0,1.1948901E1,6.4437437E0,1.1002296E1,5.570248E0,1.8459795E1,0E0,1.7813751E1,9.454218E0,7.1126537E0,6.36321E0,1.1605625E0,4.210957E0,1.028211E1,4.1790466E0,8.522008E0,6.369238E0,1.3904282E1,6.798025E0,3.559139E0,7.2735386E0,0E0,0E0,0E0,0E0,0E0,0E0,0E0,0E0,0E0,0E0,0E0,0E0,0E0,0E0,0E0,0E0,0E0,0E0,0E0,0E0,0E0,0E0,0E0,0E0,0E0,0E0,0E0,0E0,0E0,0E0],"parents":[2147483647,0,0,1,1,2,2,3,3,4,4,5,5,6,6,7,7,8,8,9,9,10,10,11,11,12,12,13,13,14,14,15,15,17,17,18,18,19,19,20,20,21,21,22,22,23,23,24,24,25,25,26,26,27,27,28,28,29,29,30,30],"right_children":[2,4,6,8,10,12,14,16,18,20,22,24,26,28,30,32,-1,34,36,38,40,42,44,46,48,50,52,54,56,58,60,-1,-1,-1,-1,-1,-1,-1,-1,-1,-1,-1,-1,-1,-1,-1,-1,-1,-1,-1,-1,-1,-1,-1,-1,-1,-1,-1,-1,-1,-1],"split_conditions":[1E0,8E0,6E0,5.4425728E1,1E1,1E0,1E0,1.3E1,1E0,1E0,1E0,1E0,1E0,1E0,1E0,1E0,-8.293288E-2,1E0,1E0,1E0,1E0,1E0,1E0,1E0,5E0,1E0,1E0,1E0,1E0,5.936767E1,1E0,3.394575E-3,-4.673722E-3,-1.785795E-2,2.0055796E-3,5.0800847E-4,-7.644366E-3,-1.9932028E-2,1.7504378E-3,4.9943994E-3,-3.144898E-2,-5.1096637E-2,-2.3004984E-2,-3.257251E-2,1.8743142E-2,5.0907E-3,1.8241784E-2,1.4003962E-3,-1.0441618E-2,-1.7875334E-2,-2.2323122E-3,5.792693E-4,3.0127382E-2,1.807939E-2,4.324059E-2,-4.444764E-3,3.7864566E-2,1.1552484E-3,4.1729983E-2,8.499655E-3,4.294547E-2],"split_indices":[44,3,1,84,3,20,4,1,4,54,55,24,33,11,8,20,0,21,82,80,57,54,40,41,3,4,25,41,79,84,27,0,0,0,0,0,0,0,0,0,0,0,0,0,0,0,0,0,0,0,0,0,0,0,0,0,0,0,0,0,0],"split_type":[0,0,0,0,0,0,0,0,0,0,0,0,0,0,0,0,0,0,0,0,0,0,0,0,0,0,0,0,0,0,0,0,0,0,0,0,0,0,0,0,0,0,0,0,0,0,0,0,0,0,0,0,0,0,0,0,0,0,0,0,0],"sum_hessian":[3.7679E4,2.7716E4,9.963E3,2.6115E4,1.601E3,7.139E3,2.824E3,1.6278E4,9.837E3,1.409E3,1.92E2,5.029E3,2.11E3,1.182E3,1.642E3,1.625E4,2.8E1,2.685E3,7.152E3,1.097E3,3.12E2,8.9E1,1.03E2,3.819E3,1.21E3,1.652E3,4.58E2,9.39E2,2.43E2,1.275E3,3.67E2,1.2591E4,3.659E3,2.111E3,5.74E2,5.194E3,1.958E3,9.16E2,1.81E2,2.54E2,5.8E1,6.7E1,2.2E1,8.4E1,1.9E1,3.083E3,7.36E2,6.82E2,5.28E2,4.98E2,1.154E3,3.68E2,9E1,5.86E2,3.53E2,1.97E2,4.6E1,1.254E3,2.1E1,2.9E2,7.7E1],"tree_param":{"num_deleted":"0","num_feature":"85","num_nodes":"61","size_leaf_vector":"1"}},{"base_weights":[1.0453182E-4,1.7801004E-2,-4.8675004E-2,3.506245E-2,-4.3417342E-2,-2.9897628E-2,-1.0457089E-1,1.40174E-2,9.1927916E-2,-2.3586722E-2,-1.11285806E-1,-5.0682038E-2,2.7820526E-2,-2.222035E-1,-5.1182967E-2,2.7868569E-2,-8.572554E-2,-8.6839214E-2,1.1323457E-1,-4.7716446E-2,3.434165E-2,-3.515101E-1,-1.01010166E-1,-4.6335846E-2,-3.154745E-1,2.3568338E-3,5.6507826E-1,-3.1474888E-1,-3.1229593E-2,-4.509597E-2,-4.497856E-1,4.6206536E-3,-3.0054688E-3,-1.4020043E-2,8.947502E-3,-3.374486E-2,9.914152E-4,7.617122E-3,2.1228673E-2,-3.6816609E-3,-1.4957129E-2,-2.3471888E-3,2.2450093E-2,-4.0895548E-2,1.953606E-2,5.4867465E-2,-1.0389769E-2,-5.5402657E-3,7.3718945E-3,-3.822849E-2,4.087661E-2,3.8988756E-3,-9.945983E-3,-1.3735036E-2,3.822395E-1,-3.7143473E-2,-1.6592847E-2,5.568489E-3,-3.6845893E-2,-6.327418E-3,4.7742744E-4,-4.8091497E-2,1.6422406E-2],"categories":[],"categories_nodes":[],"categories_segments":[],"categories_sizes":[],"default_left":[0,0,0,0,0,0,0,0,0,0,0,0,0,0,0,0,0,0,0,0,0,0,0,0,0,0,0,0,0,0,0,0,0,0,0,0,0,0,0,0,0,0,0,0,0,0,0,0,0,0,0,0,0,0,0,0,0,0,0,0,0,0,0],"id":14,"left_children":[1,3,5,7,9,11,13,15,17,19,21,23,25,27,29,31,33,35,37,39,41,43,45,47,49,51,53,55,57,59,61,-1,-1,-1,-1,-1,-1,-1,-1,-1,-1,-1,-1,-1,-1,-1,-1,-1,-1,-1,-1,-1,-1,-1,-1,-1,-1,-1,-1,-1,-1,-1,-1],"loss_changes":[3.2527206E1,2.9219753E1,1.0525188E1,2.5811121E1,8.182981E0,9.010691E0,1.5827196E1,2.1753613E1,2.2200665E1,6.5824614E0,3.3586254E0,6.340315E0,2.7209312E1,1.3899414E1,4.191761E0,1.4686228E1,1.833709E1,1.5060921E1,1.9096123E1,3.6848025E0,1.5231657E1,1.8391447E0,2.5333023E0,5.919071E0,4.4626884E0,7.090383E0,2.0644792E2,4.4094543E0,7.5825267E0,1.5514121E0,5.759344E-1,0E0,0E0,0E0,0E0,0E0,0E0,0E0,0E0,0E0,0E0,0E0,0E0,0E0,0E0,0E0,0E0,0E0,0E0,0E0,0E0,0E0,0E0,0E0,0E0,0E0,0E0,0E0,0E0,0E0,0E0,0E0,0E0],"parents":[2147483647,0,0,1,1,2,2,3,3,4,4,5,5,6,6,7,7,8,8,9,9,10,10,11,11,12,12,13,13,14,14,15,15,16,16,17,17,18,18,19,19,20,20,21,21,22,22,23,23,24,24,25,25,26,26,27,27,28,28,29,29,30,30],"right_children":[2,4,6,8,10,12,14,16,18,20,22,24,26,28,30,32,34,36,38,40,42,44,46,48,50,52,54,56,58,60,62,-1,-1,-1,-1,-1,-1,-1,-1,-1,-1,-1,-1,-1,-1,-1,-1,-1,-1,-1,-1,-1,-1,-1,-1,-1,-1,-1,-1,-1,-1,-1,-1],"split_conditions":[1E0,1E0,1E0,1E0,1E0,1E0,1E0,1E0,3E0,1E0,3E0,9E0,8E0,1E0,6.7306076E1,1E0,1E0,1E0,1E0,7E0,1E0,1E0,4.1138645E1,8E0,7E0,1E0,1E0,1E0,1E0,1E0,1E0,4.6206536E-3,-3.0054688E-3,-1.4020043E-2,8.947502E-3,-3.374486E-2,9.914152E-4,7.617122E-3,2.1228673E-2,-3.6816609E-3,-1.4957129E-2,-2.3471888E-3,2.2450093E-2,-4.0895548E-2,1.953606E-2,5.4867465E-2,-1.0389769E-2,-5.5402657E-3,7.3718945E-3,-3.822849E-2,4.087661E-2,3.8988756E-3,-9.945983E-3,-1.3735036E-2,3.822395E-1,-3.7143473E-2,-1.6592847E-2,5.568489E-3,-3.6845893E-2,-6.327418E-3,4.7742744E-4,-4.8091497E-2,1.6422406E-2],"split_indices":[28,24,34,8,23,8,4,7,1,74,0,3,2,37,84,64,16,4,54,3,35,64,84,1,0,20,68,41,11,44,69,0,0,0,0,0,0,0,0,0,0,0,0,0,0,0,0,0,0,0,0,0,0,0,0,0,0,0,0,0,0,0,0],"split_type":[0,0,0,0,0,0,0,0,0,0,0,0,0,0,0,0,0,0,0,0,0,0,0,0,0,0,0,0,0,0,0,0,0,0,0,0,0,0,0,0,0,0,0,0,0,0,0,0,0,0,0,0,0,0,0,0,0,0,0,0,0,0,0],"sum_hessian":[3.7679E4,2.7649E4,1.003E4,2.1568E4,6.081E3,7.509E3,2.521E3,1.5743E4,5.825E3,4.707E3,1.374E3,5.521E3,1.988E3,7.86E2,1.735E3,1.3824E4,1.919E3,6.2E2,5.205E3,3.323E3,1.384E3,5.5E1,1.319E3,5.433E3,8.8E1,1.899E3,8.9E1,5.29E2,2.57E2,1.71E3,2.5E1,1.05E4,3.324E3,1.464E3,4.55E2,1.72E2,4.48E2,3.789E3,1.416E3,3.003E3,3.2E2,1.062E3,3.22E2,5E1,5E0,5E0,1.314E3,5.052E3,3.81E2,8.1E1,7E0,1.397E3,5.02E2,7.4E1,1.5E1,3.82E2,1.47E2,2.05E2,5.2E1,1.253E3,4.57E2,2.4E1,1E0],"tree_param":{"num_deleted":"0","num_feature":"85","num_nodes":"63","size_leaf_vector":"1"}},{"base_weights":[1.0102211E-4,-1.7720424E-2,4.3338843E-2,-3.700213E-2,3.9055638E-2,7.15758E-2,-5.4744493E-2,-1.3139927E-1,-2.4017313E-4,9.002586E-3,1.4179154E-1,1.481123E-1,1.4662653E-2,-4.6519446E-3,-2.3531285E-1,-2.1237475E-1,4.388503E-2,-2.9366495E-2,5.665069E-2,-2.3989847E-2,1.1806556E-1,2.138613E-1,-1.337886E-1,2.1014296E-1,-3.9719835E-2,-3.6730728E-1,1.804129E-2,-4.686642E-2,1.1915796E-1,-1.3528132E-1,-4.1278943E-1,-2.9840311E-2,-4.718789E-3,-7.230381E-3,3.7269752E-2,-5.199969E-3,3.0634094E-3,3.6565884E-4,2.2299394E-2,-6.8800948E-3,1.1304509E-2,2.7490437E-2,3.0044247E-3,4.060057E-2,9.277605E-3,-1.9577777E-2,4.4081663E-3,1.4695552E-2,4.141275E-2,-1.0806697E-2,1.6369717E-2,-2.5886977E-2,-5.179253E-2,-2.9907655E-4,7.381802E-3,-5.3340656E-4,-1.813714E-2,6.5225842E-3,3.5813153E-2,-5.5226404E-2,-1.0912412E-2,-5.4220743E-2,-2.50363E-2],"categories":[],"categories_nodes":[],"categories_segments":[],"categories_sizes":[],"default_left":[0,0,0,0,0,0,0,0,0,0,0,0,0,0,0,0,0,0,0,0,0,0,0,0,0,0,0,0,0,0,0,0,0,0,0,0,0,0,0,0,0,0,0,0,0,0,0,0,0,0,0,0,0,0,0,0,0,0,0,0,0,0,0],"id":15,"left_children":[1,3,5,7,9,11,13,15,17,19,21,23,25,27,29,31,33,35,37,39,41,43,45,47,49,51,53,55,57,59,61,-1,-1,-1,-1,-1,-1,-1,-1,-1,-1,-1,-1,-1,-1,-1,-1,-1,-1,-1,-1,-1,-1,-1,-1,-1,-1,-1,-1,-1,-1,-1,-1],"loss_changes":[2.9035488E1,2.9212376E1,3.0463697E1,6.912335E1,2.0885845E1,3.7197495E1,2.224088E1,7.925291E1,2.375838E1,1.8839687E1,3.0435795E1,4.2442574E1,6.3289723E0,1.0071959E1,9.424395E0,5.4256805E1,6.74576E1,1.2879552E1,4.2797035E1,2.4693336E1,1.6778814E1,2.8207077E1,3.5149074E0,3.5229927E1,1.2599879E1,5.6822824E-1,5.6979647E0,8.026559E0,6.2919326E0,3.680872E0,3.900261E0,0E0,0E0,0E0,0E0,0E0,0E0,0E0,0E0,0E0,0E0,0E0,0E0,0E0,0E0,0E0,0E0,0E0,0E0,0E0,0E0,0E0,0E0,0E0,0E0,0E0,0E0,0E0,0E0,0E0,0E0,0E0,0E0],"parents":[2147483647,0,0,1,1,2,2,3,3,4,4,5,5,6,6,7,7,8,8,9,9,10,10,11,11,12,12,13,13,14,14,15,15,16,16,17,17,18,18,19,19,20,20,21,21,22,22,23,23,24,24,25,25,26,26,27,27,28,28,29,29,30,30],"right_children":[2,4,6,8,10,12,14,16,18,20,22,24,26,28,30,32,34,36,38,40,42,44,46,48,50,52,54,56,58,60,62,-1,-1,-1,-1,-1,-1,-1,-1,-1,-1,-1,-1,-1,-1,-1,-1,-1,-1,-1,-1,-1,-1,-1,-1,-1,-1,-1,-1,-1,-1,-1,-1],"split_conditions":[1E0,1E0,1E0,1E0,1E0,1E0,1E0,1E0,1E0,1E0,1E0,1E0,2E0,1E0,5E0,1E0,1E0,1E0,1E0,1E0,1E0,1E0,1E0,1E0,1E0,1E0,1E0,1E0,1E0,4.43207E1,1E0,-2.9840311E-2,-4.718789E-3,-7.230381E-3,3.7269752E-2,-5.199969E-3,3.0634094E-3,3.6565884E-4,2.2299394E-2,-6.8800948E-3,1.1304509E-2,2.7490437E-2,3.0044247E-3,4.060057E-2,9.277605E-3,-1.9577777E-2,4.4081663E-3,1.4695552E-2,4.141275E-2,-1.0806697E-2,1.6369717E-2,-2.5886977E-2,-5.179253E-2,-2.9907655E-4,7.381802E-3,-5.3340656E-4,-1.813714E-2,6.5225842E-3,3.5813153E-2,-5.5226404E-2,-1.0912412E-2,-5.4220743E-2,-2.50363E-2],"split_indices":[25,29,21,4,37,4,17,33,30,21,33,19,1,12,3,21,31,22,34,17,4,4,40,31,13,22,30,48,6,84,4,0,0,0,0,0,0,0,0,0,0,0,0,0,0,0,0,0,0,0,0,0,0,0,0,0,0,0,0,0,0,0,0],"split_type":[0,0,0,0,0,0,0,0,0,0,0,0,0,0,0,0,0,0,0,0,0,0,0,0,0,0,0,0,0,0,0,0,0,0,0,0,0,0,0,0,0,0,0,0,0,0,0,0,0,0,0,0,0,0,0,0,0,0,0,0,0,0,0],"sum_hessian":[3.7679E4,2.6682E4,1.0997E4,1.9918E4,6.764E3,8.539E3,2.458E3,5.582E3,1.4336E4,5.234E3,1.53E3,3.641E3,4.898E3,1.925E3,5.33E2,3.818E3,1.764E3,9.482E3,4.854E3,4.019E3,1.215E3,1.213E3,3.17E2,2.737E3,9.04E2,4.2E1,4.856E3,1.436E3,4.89E2,3.42E2,1.91E2,2.51E3,1.308E3,1.304E3,4.6E2,6.885E3,2.597E3,3.682E3,1.172E3,3.029E3,9.9E2,4.36E2,7.79E2,4.68E2,7.45E2,2.35E2,8.2E1,2.091E3,6.46E2,6.77E2,2.27E2,2.6E1,1.6E1,3.527E3,1.329E3,1.098E3,3.38E2,4E2,8.9E1,1.9E1,3.23E2,1.05E2,8.6E1],"tree_param":{"num_deleted":"0","num_feature":"85","num_nodes":"63","size_leaf_vector":"1"}},{"base_weights":[8.9725014E-5,-1.6429927E-2,4.6042666E-2,-9.21237E-3,-1.3408116E-1,2.1453917E-2,1.081728E-1,6.9553726E-3,-5.8005203E-2,-7.5439826E-2,-1.9814306E-1,2.8025744E-2,-1.8933937E-1,1.9856079E-1,4.3025404E-2,-1.1672334E-2,5.5073127E-2,-8.855647E-2,2.5754115E-2,4.615279E-2,-1.3144436E-1,-3.195583E-1,-7.428933E-2,2.780711E-3,9.493626E-2,-2.2611777E-1,2.544855E-1,2.5716102E-1,5.547625E-2,1.6305666E-2,1.3555627E-1,-1.001627E-3,-6.603416E-2,1.2894548E-2,1.6217682E-3,-1.5913427E-2,-5.4751527E-3,6.791192E-5,4.3216094E-2,-9.438E-3,3.114414E-2,-1.8043375E-2,1.2085601E-3,-3.676654E-2,-1.4487713E-2,-3.1165488E-3,-3.719133E-2,-1.7838286E-3,5.5197473E-3,2.374294E-3,2.7948154E-2,-2.585108E-2,1.1577324E-2,-2.7498405E-3,2.383114E-1,2.0173479E-2,4.367647E-2,-3.2803833E-3,3.8485963E-2,1.0004757E-3,3.7500273E-2,5.783697E-3,3.5828818E-2],"categories":[],"categories_nodes":[],"categories_segments":[],"categories_sizes":[],"default_left":[0,0,0,0,0,0,0,0,0,0,0,0,0,0,0,0,0,0,0,0,0,0,0,0,0,0,0,0,0,0,0,0,0,0,0,0,0,0,0,0,0,0,0,0,0,0,0,0,0,0,0,0,0,0,0,0,0,0,0,0,0,0,0],"id":16,"left_children":[1,3,5,7,9,11,13,15,17,19,21,23,25,27,29,31,33,35,37,39,41,43,45,47,49,51,53,55,57,59,61,-1,-1,-1,-1,-1,-1,-1,-1,-1,-1,-1,-1,-1,-1,-1,-1,-1,-1,-1,-1,-1,-1,-1,-1,-1,-1,-1,-1,-1,-1,-1,-1],"loss_changes":[2.8604645E1,2.3534777E1,1.52197E1,2.0602531E1,6.003248E0,9.896325E0,1.662659E1,1.7583818E1,1.6635477E1,5.712627E0,1.1480122E1,1.1697155E1,3.5833492E0,9.904934E0,4.059943E0,1.5186339E1,1.5713036E1,1.1355228E1,1.7711056E1,9.909056E0,4.03823E0,3.1904411E0,4.865592E0,5.436232E0,2.491689E1,2.2449045E0,1.0269593E1,8.263931E0,1.0044531E1,2.8801587E0,6.349567E0,0E0,0E0,0E0,0E0,0E0,0E0,0E0,0E0,0E0,0E0,0E0,0E0,0E0,0E0,0E0,0E0,0E0,0E0,0E0,0E0,0E0,0E0,0E0,0E0,0E0,0E0,0E0,0E0,0E0,0E0,0E0,0E0],"parents":[2147483647,0,0,1,1,2,2,3,3,4,4,5,5,6,6,7,7,8,8,9,9,10,10,11,11,12,12,13,13,14,14,15,15,16,16,17,17,18,18,19,19,20,20,21,21,22,22,23,23,24,24,25,25,26,26,27,27,28,28,29,29,30,30],"right_children":[2,4,6,8,10,12,14,16,18,20,22,24,26,28,30,32,34,36,38,40,42,44,46,48,50,52,54,56,58,60,62,-1,-1,-1,-1,-1,-1,-1,-1,-1,-1,-1,-1,-1,-1,-1,-1,-1,-1,-1,-1,-1,-1,-1,-1,-1,-1,-1,-1,-1,-1,-1,-1],"split_conditions":[1E0,8E0,6E0,1E0,1E0,6.500816E1,1E0,1E0,1E0,4.452876E1,4E0,1E0,1E0,1E0,1E0,1.2E1,1E0,1E0,7E0,4E0,1E0,1E0,1E0,1E0,5.859447E1,1E0,1E0,1E0,1E0,5.936767E1,1E0,-1.001627E-3,-6.603416E-2,1.2894548E-2,1.6217682E-3,-1.5913427E-2,-5.4751527E-3,6.791192E-5,4.3216094E-2,-9.438E-3,3.114414E-2,-1.8043375E-2,1.2085601E-3,-3.676654E-2,-1.4487713E-2,-3.1165488E-3,-3.719133E-2,-1.7838286E-3,5.5197473E-3,2.374294E-3,2.7948154E-2,-2.585108E-2,1.1577324E-2,-2.7498405E-3,2.383114E-1,2.0173479E-2,4.367647E-2,-3.2803833E-3,3.8485963E-2,1.0004757E-3,3.7500273E-2,5.783697E-3,3.5828818E-2],"split_indices":[44,3,1,56,75,84,4,54,80,84,0,34,67,26,8,1,4,4,3,2,54,66,6,33,84,31,33,59,10,84,32,0,0,0,0,0,0,0,0,0,0,0,0,0,0,0,0,0,0,0,0,0,0,0,0,0,0,0,0,0,0,0,0],"split_type":[0,0,0,0,0,0,0,0,0,0,0,0,0,0,0,0,0,0,0,0,0,0,0,0,0,0,0,0,0,0,0,0,0,0,0,0,0,0,0,0,0,0,0,0,0,0,0,0,0,0,0,0,0,0,0,0,0,0,0,0,0,0,0],"sum_hessian":[3.7679E4,2.7716E4,9.963E3,2.6115E4,1.601E3,7.139E3,2.824E3,1.9616E4,6.499E3,8.37E2,7.64E2,6.924E3,2.15E2,1.182E3,1.642E3,1.4142E4,5.474E3,4.762E3,1.737E3,2.64E2,5.73E2,3.85E2,3.79E2,5.028E3,1.896E3,1.99E2,1.6E1,8.38E2,3.44E2,1.275E3,3.67E2,1.4107E4,3.5E1,1.886E3,3.588E3,1.541E3,3.221E3,1.637E3,1E2,1.73E2,9.1E1,4.27E2,1.46E2,3.01E2,8.4E1,3.32E2,4.7E1,3.609E3,1.419E3,1.369E3,5.27E2,1.82E2,1.7E1,1.5E1,1E0,6.42E2,1.96E2,2.72E2,7.2E1,1.254E3,2.1E1,2.73E2,9.4E1],"tree_param":{"num_deleted":"0","num_feature":"85","num_nodes":"63","size_leaf_vector":"1"}},{"base_weights":[8.9170935E-5,1.472937E-2,-5.0278574E-2,2.1009292E-2,-1.1917677E-1,-3.255848E-2,-1.21675365E-1,2.1229293E-3,7.342397E-2,-1.0508862E-1,-3.370153E-1,-7.6141846E-3,-8.0660515E-2,-2.2629945E-1,-6.341731E-2,2.555732E-2,-4.379566E-2,6.620263E-2,6.154584E-1,-1.5777759E-1,-3.8356237E-2,-4.0898907E-1,1.450944E-1,1.5596844E-2,-7.289489E-2,-2.3848188E-1,-2.466282E-2,-1.7535222E-1,-3.860131E-1,-9.010067E-2,2.9812176E-3,-8.036043E-5,8.764187E-3,-1.3701566E-2,4.3024673E-4,3.8297747E-3,1.3203795E-2,-8.054349E-4,5.490927E-1,-3.5260838E-2,-1.2122673E-2,2.6450478E-3,-1.3539036E-2,-4.3108728E-2,5.468449E-2,7.296187E-2,-6.586864E-3,-1.6912069E-3,7.7765356E-3,-3.8548515E-3,-1.9126993E-2,-1.8549547E-2,-3.772933E-2,-7.226582E-3,7.4433307E-3,-3.2059364E-2,-1.1760454E-2,-4.648092E-2,-1.6755309E-2,-1.2077343E-2,-1.565674E-3,2.289149E-2,-3.795387E-3],"categories":[],"categories_nodes":[],"categories_segments":[],"categories_sizes":[],"default_left":[0,0,0,0,0,0,0,0,0,0,0,0,0,0,0,0,0,0,0,0,0,0,0,0,0,0,0,0,0,0,0,0,0,0,0,0,0,0,0,0,0,0,0,0,0,0,0,0,0,0,0,0,0,0,0,0,0,0,0,0,0,0,0],"id":17,"left_children":[1,3,5,7,9,11,13,15,17,19,21,23,25,27,29,31,33,35,37,39,41,43,45,47,49,51,53,55,57,59,61,-1,-1,-1,-1,-1,-1,-1,-1,-1,-1,-1,-1,-1,-1,-1,-1,-1,-1,-1,-1,-1,-1,-1,-1,-1,-1,-1,-1,-1,-1,-1,-1],"loss_changes":[2.7785742E1,2.4553171E1,1.0732168E1,2.760681E1,3.9787579E0,8.158512E0,1.0268248E1,2.2062792E1,2.8873543E1,4.3187027E0,2.8005838E0,6.7878633E0,2.0515099E1,4.8389015E0,1.9226022E0,2.2216995E1,3.106371E1,1.3389441E1,2.9491614E2,4.8495426E0,3.424505E0,1.6931715E0,1.404502E0,6.6808214E0,4.7698865E0,4.401928E0,8.095502E0,3.8120928E0,2.4181194E0,1.7654605E0,2.8942556E0,0E0,0E0,0E0,0E0,0E0,0E0,0E0,0E0,0E0,0E0,0E0,0E0,0E0,0E0,0E0,0E0,0E0,0E0,0E0,0E0,0E0,0E0,0E0,0E0,0E0,0E0,0E0,0E0,0E0,0E0,0E0,0E0],"parents":[2147483647,0,0,1,1,2,2,3,3,4,4,5,5,6,6,7,7,8,8,9,9,10,10,11,11,12,12,13,13,14,14,15,15,16,16,17,17,18,18,19,19,20,20,21,21,22,22,23,23,24,24,25,25,26,26,27,27,28,28,29,29,30,30],"right_children":[2,4,6,8,10,12,14,16,18,20,22,24,26,28,30,32,34,36,38,40,42,44,46,48,50,52,54,56,58,60,62,-1,-1,-1,-1,-1,-1,-1,-1,-1,-1,-1,-1,-1,-1,-1,-1,-1,-1,-1,-1,-1,-1,-1,-1,-1,-1,-1,-1,-1,-1,-1,-1],"split_conditions":[1E0,6.2272545E1,1E0,1E0,1E0,5.4156925E1,1E0,1E0,6.183641E1,3E0,1E0,1E0,1E0,1E0,1E0,1E0,1E0,1E0,1E0,2E0,1E0,6E0,1E0,1E0,1E0,1E0,1E0,4E0,1E0,1E0,4.753435E1,-8.036043E-5,8.764187E-3,-1.3701566E-2,4.3024673E-4,3.8297747E-3,1.3203795E-2,-8.054349E-4,5.490927E-1,-3.5260838E-2,-1.2122673E-2,2.6450478E-3,-1.3539036E-2,-4.3108728E-2,5.468449E-2,7.296187E-2,-6.586864E-3,-1.6912069E-3,7.7765356E-3,-3.8548515E-3,-1.9126993E-2,-1.8549547E-2,-3.772933E-2,-7.226582E-3,7.4433307E-3,-3.2059364E-2,-1.1760454E-2,-4.648092E-2,-1.6755309E-2,-1.2077343E-2,-1.565674E-3,2.289149E-2,-3.795387E-3],"split_indices":[43,84,47,8,5,84,4,42,84,1,13,15,4,14,54,25,4,25,65,3,20,1,80,25,19,60,30,2,54,30,84,0,0,0,0,0,0,0,0,0,0,0,0,0,0,0,0,0,0,0,0,0,0,0,0,0,0,0,0,0,0,0,0],"split_type":[0,0,0,0,0,0,0,0,0,0,0,0,0,0,0,0,0,0,0,0,0,0,0,0,0,0,0,0,0,0,0,0,0,0,0,0,0,0,0,0,0,0,0,0,0,0,0,0,0,0,0,0,0,0,0,0,0,0,0,0,0,0,0],"sum_hessian":[3.7679E4,2.9194E4,8.485E3,2.7887E4,1.307E3,6.799E3,1.686E3,2.0501E4,7.386E3,1.229E3,7.8E1,4.478E3,2.321E3,6.02E2,1.084E3,1.3574E4,6.927E3,7.29E3,9.6E1,6.86E2,5.43E2,6.8E1,1E1,3.304E3,1.174E3,6.07E2,1.714E3,4.58E2,1.44E2,7.73E2,3.11E2,9.529E3,4.045E3,2.357E3,4.57E3,5.121E3,2.169E3,8.6E1,1E1,1.07E2,5.79E2,3.26E2,2.17E2,6.7E1,1E0,2E0,8E0,2.17E3,1.134E3,9.11E2,2.63E2,4.41E2,1.66E2,1.158E3,5.56E2,1.29E2,3.29E2,1.05E2,3.9E1,5.47E2,2.26E2,4.7E1,2.64E2],"tree_param":{"num_deleted":"0","num_feature":"85","num_nodes":"63","size_leaf_vector":"1"}},{"base_weights":[9.102383E-5,1.5498729E-2,-4.349709E-2,3.5957687E-2,-3.245612E-2,-2.360765E-2,-9.66877E-2,4.601941E-2,-6.1715357E-2,-2.1314735E-2,-1.756273E-1,5.7665296E-2,-3.7512384E-2,-1.6628388E-1,-5.484728E-2,3.382816E-2,1.3106255E-1,-1.857605E-1,-1.1668153E-2,-1.1451681E-3,-8.849322E-2,-9.077792E-2,-2.4644673E-1,-6.2616793E-3,7.374917E-1,5.388414E-2,-5.119249E-2,-2.2039491E-1,-2.398492E-2,-4.180427E-2,-2.736362E-1,3.5056837E-3,-6.7050025E-2,1.9266898E-2,6.4979534E-4,-2.343555E-2,4.196852E-3,-6.039856E-3,7.1157306E-3,2.1051576E-3,-6.876211E-3,-1.7373685E-2,-3.2766142E-3,9.1262144E-4,-2.1431088E-2,-1.4144994E-2,-3.7564512E-2,6.07841E-3,-1.46605065E-2,8.232067E-3,9.896166E-1,1.2525703E-2,-7.834816E-3,-3.3288677E-3,-1.0605477E-2,-2.981618E-2,-2.0540059E-3,-1.1553093E-2,2.44544E-2,-7.2650607E-3,4.7057006E-3,-2.1790316E-2,-5.526367E-2],"categories":[],"categories_nodes":[],"categories_segments":[],"categories_sizes":[],"default_left":[0,0,0,0,0,0,0,0,0,0,0,0,0,0,0,0,0,0,0,0,0,0,0,0,0,0,0,0,0,0,0,0,0,0,0,0,0,0,0,0,0,0,0,0,0,0,0,0,0,0,0,0,0,0,0,0,0,0,0,0,0,0,0],"id":18,"left_children":[1,3,5,7,9,11,13,15,17,19,21,23,25,27,29,31,33,35,37,39,41,43,45,47,49,51,53,55,57,59,61,-1,-1,-1,-1,-1,-1,-1,-1,-1,-1,-1,-1,-1,-1,-1,-1,-1,-1,-1,-1,-1,-1,-1,-1,-1,-1,-1,-1,-1,-1,-1,-1],"loss_changes":[2.530629E1,2.7315165E1,1.0408821E1,1.918138E1,1.3277268E1,8.098047E0,7.7890377E0,1.8339348E1,1.1315221E1,1.0468327E1,3.5890274E0,4.550645E1,7.6521816E0,7.733156E0,4.7655993E0,1.3416296E1,1.701963E1,5.808676E0,5.251252E0,8.921153E0,8.468982E0,3.395856E0,4.382757E0,9.023146E0,5.392302E2,7.531742E0,5.2239723E0,1.1308517E1,6.8622565E0,4.33701E0,1.3412366E0,0E0,0E0,0E0,0E0,0E0,0E0,0E0,0E0,0E0,0E0,0E0,0E0,0E0,0E0,0E0,0E0,0E0,0E0,0E0,0E0,0E0,0E0,0E0,0E0,0E0,0E0,0E0,0E0,0E0,0E0,0E0,0E0],"parents":[2147483647,0,0,1,1,2,2,3,3,4,4,5,5,6,6,7,7,8,8,9,9,10,10,11,11,12,12,13,13,14,14,15,15,16,16,17,17,18,18,19,19,20,20,21,21,22,22,23,23,24,24,25,25,26,26,27,27,28,28,29,29,30,30],"right_children":[2,4,6,8,10,12,14,16,18,20,22,24,26,28,30,32,34,36,38,40,42,44,46,48,50,52,54,56,58,60,62,-1,-1,-1,-1,-1,-1,-1,-1,-1,-1,-1,-1,-1,-1,-1,-1,-1,-1,-1,-1,-1,-1,-1,-1,-1,-1,-1,-1,-1,-1,-1,-1],"split_conditions":[1E0,6E0,1E0,6.0382935E1,9E0,3E0,1E0,1E0,1E0,1E0,1E0,1E0,4.801164E1,1E0,6.3536324E1,1.3E1,5.5339397E1,1E0,1E0,1E0,1E0,4.5269577E1,1E0,6.082514E1,1E0,1E0,1E0,1E0,1E0,7E0,1E0,3.5056837E-3,-6.7050025E-2,1.9266898E-2,6.4979534E-4,-2.343555E-2,4.196852E-3,-6.039856E-3,7.1157306E-3,2.1051576E-3,-6.876211E-3,-1.7373685E-2,-3.2766142E-3,9.1262144E-4,-2.1431088E-2,-1.4144994E-2,-3.7564512E-2,6.07841E-3,-1.46605065E-2,8.232067E-3,9.896166E-1,1.2525703E-2,-7.834816E-3,-3.3288677E-3,-1.0605477E-2,-2.981618E-2,-2.0540059E-3,-1.1553093E-2,2.44544E-2,-7.2650607E-3,4.7057006E-3,-2.1790316E-2,-5.526367E-2],"split_indices":[20,3,82,84,3,3,4,6,4,42,75,59,84,33,84,1,84,13,44,82,4,84,71,84,19,11,15,37,16,2,49,0,0,0,0,0,0,0,0,0,0,0,0,0,0,0,0,0,0,0,0,0,0,0,0,0,0,0,0,0,0,0,0],"split_type":[0,0,0,0,0,0,0,0,0,0,0,0,0,0,0,0,0,0,0,0,0,0,0,0,0,0,0,0,0,0,0,0,0,0,0,0,0,0,0,0,0,0,0,0,0,0,0,0,0,0,0,0,0,0,0,0,0,0,0,0,0,0,0],"sum_hessian":[3.7679E4,2.7839E4,9.84E3,1.9514E4,8.325E3,7.163E3,2.677E3,1.7692E4,1.822E3,7.725E3,6E2,1.046E3,6.117E3,1.004E3,1.673E3,1.5475E4,2.217E3,5.23E2,1.299E3,5.942E3,1.783E3,2.74E2,3.26E2,9.57E2,8.9E1,7.96E2,5.321E3,7.27E2,2.77E2,1.58E3,9.3E1,1.5449E4,2.6E1,1.483E3,7.34E2,4.31E2,9.2E1,8.18E2,4.81E2,4.474E3,1.468E3,7.04E2,1.079E3,1.52E2,1.22E2,1.81E2,1.45E2,6.48E2,3.09E2,8.4E1,5E0,5.17E2,2.79E2,4.013E3,1.308E3,5.23E2,2.04E2,2.07E2,7E1,1.173E3,4.07E2,7.9E1,1.4E1],"tree_param":{"num_deleted":"0","num_feature":"85","num_nodes":"63","size_leaf_vector":"1"}},{"base_weights":[1.0108321E-4,1.43325105E-2,-4.3045457E-2,-3.151754E-3,6.091391E-2,-6.449884E-2,1.5376832E-2,1.2816332E-2,-5.9476193E-2,-7.760854E-2,7.798648E-2,-1.2449963E-1,-3.3324104E-2,7.725161E-2,-4.050962E-2,-7.508603E-3,6.2917404E-2,-8.6637646E-2,1.5171744E-2,-6.02792E-2,-3.8588652E-1,1.1989166E-1,3.176314E-3,-7.874336E-2,-2.4518207E-1,-5.1644344E-2,2.0464689E-2,3.480849E-2,1.1338823E0,-2.6154019E-2,-2.0987478E-1,-2.4963668E-2,-3.1487658E-4,4.49923E-3,2.0838207E-2,-1.6018612E-2,-4.9509495E-3,-2.3334224E-3,1.0317411E-2,-1.769951E-2,-1.7176267E-3,5.1892787E-2,-4.182443E-2,2.2057628E-2,6.316062E-3,-6.4081326E-3,8.02311E-3,-1.2439914E-2,4.6430393E-3,-3.2602664E-2,-3.424881E-3,-3.533081E-3,-9.580508E-3,5.9853173E-3,-1.1778572E-2,1.1250089E-2,-2.4558532E-3,1.6847527E-2,5.698506E-1,-4.945242E-4,-1.1922552E-2,-3.210299E-2,4.1459557E-2],"categories":[],"categories_nodes":[],"categories_segments":[],"categories_sizes":[],"default_left":[0,0,0,0,0,0,0,0,0,0,0,0,0,0,0,0,0,0,0,0,0,0,0,0,0,0,0,0,0,0,0,0,0,0,0,0,0,0,0,0,0,0,0,0,0,0,0,0,0,0,0,0,0,0,0,0,0,0,0,0,0,0,0],"id":19,"left_children":[1,3,5,7,9,11,13,15,17,19,21,23,25,27,29,31,33,35,37,39,41,43,45,47,49,51,53,55,57,59,61,-1,-1,-1,-1,-1,-1,-1,-1,-1,-1,-1,-1,-1,-1,-1,-1,-1,-1,-1,-1,-1,-1,-1,-1,-1,-1,-1,-1,-1,-1,-1,-1],"loss_changes":[2.3137527E1,2.3077389E1,1.1714853E1,1.8530968E1,1.829409E1,1.2782648E1,8.686071E0,1.634726E1,9.228676E0,4.512313E0,2.1583637E1,1.2885555E1,4.435463E0,5.34178E1,3.203878E0,1.2055667E1,1.2071026E1,9.104477E0,4.1195765E0,4.046752E0,1.5345383E0,2.5192875E1,1.2821522E1,9.698257E0,1.0936733E1,2.4150572E0,6.236672E0,5.2931466E0,2.0174902E2,2.4036605E0,7.2826447E0,0E0,0E0,0E0,0E0,0E0,0E0,0E0,0E0,0E0,0E0,0E0,0E0,0E0,0E0,0E0,0E0,0E0,0E0,0E0,0E0,0E0,0E0,0E0,0E0,0E0,0E0,0E0,0E0,0E0,0E0,0E0,0E0],"parents":[2147483647,0,0,1,1,2,2,3,3,4,4,5,5,6,6,7,7,8,8,9,9,10,10,11,11,12,12,13,13,14,14,15,15,16,16,17,17,18,18,19,19,20,20,21,21,22,22,23,23,24,24,25,25,26,26,27,27,28,28,29,29,30,30],"right_children":[2,4,6,8,10,12,14,16,18,20,22,24,26,28,30,32,34,36,38,40,42,44,46,48,50,52,54,56,58,60,62,-1,-1,-1,-1,-1,-1,-1,-1,-1,-1,-1,-1,-1,-1,-1,-1,-1,-1,-1,-1,-1,-1,-1,-1,-1,-1,-1,-1,-1,-1,-1,-1],"split_conditions":[1E0,1E0,1E0,1E0,3E0,1E0,5.43138E1,1E0,1E0,1.1E1,1E0,1E0,1E0,5.4093147E1,1E0,2E0,5.983883E1,1E0,1E0,1E0,2E0,1E0,6E0,1E0,1E0,1E0,1E0,5E0,1E0,1E0,1E0,-2.4963668E-2,-3.1487658E-4,4.49923E-3,2.0838207E-2,-1.6018612E-2,-4.9509495E-3,-2.3334224E-3,1.0317411E-2,-1.769951E-2,-1.7176267E-3,5.1892787E-2,-4.182443E-2,2.2057628E-2,6.316062E-3,-6.4081326E-3,8.02311E-3,-1.2439914E-2,4.6430393E-3,-3.2602664E-2,-3.424881E-3,-3.533081E-3,-9.580508E-3,5.9853173E-3,-1.1778572E-2,1.1250089E-2,-2.4558532E-3,1.6847527E-2,5.698506E-1,-4.945242E-4,-1.1922552E-2,-3.210299E-2,4.1459557E-2],"split_indices":[56,54,80,47,1,4,84,74,80,2,57,42,30,84,7,0,84,4,55,4,0,4,1,67,37,62,46,3,48,35,13,0,0,0,0,0,0,0,0,0,0,0,0,0,0,0,0,0,0,0,0,0,0,0,0,0,0,0,0,0,0,0,0],"split_type":[0,0,0,0,0,0,0,0,0,0,0,0,0,0,0,0,0,0,0,0,0,0,0,0,0,0,0,0,0,0,0,0,0,0,0,0,0,0,0,0,0,0,0,0,0,0,0,0,0,0,0,0,0,0,0,0,0,0,0,0,0,0,0],"sum_hessian":[3.7679E4,2.8334E4,9.345E3,2.0602E4,7.732E3,6.835E3,2.51E3,1.6052E4,4.55E3,8.48E2,6.884E3,2.336E3,4.499E3,1.191E3,1.319E3,1.142E4,4.632E3,3.336E3,1.214E3,8.04E2,4.4E1,4.412E3,2.472E3,1.695E3,6.41E2,3.356E3,1.143E3,1.146E3,4.5E1,1.217E3,1.02E2,2.01E2,1.1219E4,4.125E3,5.07E2,1.118E3,2.218E3,8.45E2,3.69E2,2.16E2,5.88E2,1E0,4.3E1,1.589E3,2.823E3,1.32E3,1.152E3,1.242E3,4.53E2,4.63E2,1.78E2,2.452E3,9.04E2,8.9E2,2.53E2,4.96E2,6.5E2,3.8E1,7E0,9.92E2,2.25E2,8.7E1,1.5E1],"tree_param":{"num_deleted":"0","num_feature":"85","num_nodes":"63","size_leaf_vector":"1"}},{"base_weights":[1.0523836E-4,-1.4464826E-2,4.0634982E-2,-1.2035718E-3,-6.188724E-2,2.1116259E-2,1.01773016E-1,1.2174976E-2,-6.173599E-2,-1.2420713E-1,-3.2557666E-2,3.704026E-2,-3.29987E-2,4.976204E-2,2.728024E-1,3.0060893E-2,-4.1493583E-2,-1.6442232E-1,-2.3682447E-2,-8.46441E-2,-2.8305995E-1,5.736962E-1,-3.625E-2,5.1874086E-2,-5.8491413E-2,-7.119382E-2,8.373638E-2,1.5678975E-1,-1.8261537E-2,1.2727012E-1,7.147657E-1,1.0967834E-3,8.911621E-3,-1.0383463E-3,-1.0487867E-2,-2.1999653E-2,5.374721E-3,-6.711324E-3,5.750204E-3,-3.2712538E-3,-2.2697037E-2,-3.4218576E-2,-1.0088636E-2,3.263689E-2,1.7905726E-1,-6.007695E-3,2.5286062E-3,4.492193E-3,9.006368E-2,-9.506914E-3,1.5763773E-2,-1.2856937E-2,3.2534308E-3,1.1715832E-3,2.2668062E-2,7.9702055E-3,3.7409756E-2,9.2532404E-4,-9.529703E-3,2.701863E-2,-2.7583173E-4,4.5943984E-1,2.7802268E-2],"categories":[],"categories_nodes":[],"categories_segments":[],"categories_sizes":[],"default_left":[0,0,0,0,0,0,0,0,0,0,0,0,0,0,0,0,0,0,0,0,0,0,0,0,0,0,0,0,0,0,0,0,0,0,0,0,0,0,0,0,0,0,0,0,0,0,0,0,0,0,0,0,0,0,0,0,0,0,0,0,0,0,0],"id":20,"left_children":[1,3,5,7,9,11,13,15,17,19,21,23,25,27,29,31,33,35,37,39,41,43,45,47,49,51,53,55,57,59,61,-1,-1,-1,-1,-1,-1,-1,-1,-1,-1,-1,-1,-1,-1,-1,-1,-1,-1,-1,-1,-1,-1,-1,-1,-1,-1,-1,-1,-1,-1,-1,-1],"loss_changes":[2.2251417E1,1.743061E1,1.1888254E1,1.7542608E1,1.10670395E1,6.510704E0,2.143325E1,1.7031034E1,1.5317723E1,1.215579E1,9.243376E0,8.274649E0,7.6660266E0,1.347162E1,3.6056843E1,1.5003286E1,8.744366E0,1.2863901E1,1.0095005E1,1.14711485E1,4.123144E0,6.939782E0,6.0071445E0,2.9775925E1,6.220813E0,7.7113204E0,4.362391E0,1.2014698E1,2.400285E0,7.880009E0,2.3424461E2,0E0,0E0,0E0,0E0,0E0,0E0,0E0,0E0,0E0,0E0,0E0,0E0,0E0,0E0,0E0,0E0,0E0,0E0,0E0,0E0,0E0,0E0,0E0,0E0,0E0,0E0,0E0,0E0,0E0,0E0,0E0,0E0],"parents":[2147483647,0,0,1,1,2,2,3,3,4,4,5,5,6,6,7,7,8,8,9,9,10,10,11,11,12,12,13,13,14,14,15,15,16,16,17,17,18,18,19,19,20,20,21,21,22,22,23,23,24,24,25,25,26,26,27,27,28,28,29,29,30,30],"right_children":[2,4,6,8,10,12,14,16,18,20,22,24,26,28,30,32,34,36,38,40,42,44,46,48,50,52,54,56,58,60,62,-1,-1,-1,-1,-1,-1,-1,-1,-1,-1,-1,-1,-1,-1,-1,-1,-1,-1,-1,-1,-1,-1,-1,-1,-1,-1,-1,-1,-1,-1,-1,-1],"split_conditions":[1E0,1E0,1E0,5.7579742E1,1E0,1E0,1E0,1E0,1E0,5.4156925E1,2E0,6.082514E1,1E0,1E0,1E0,1E0,1E0,1E0,1E0,1E0,1E0,1E0,1E0,1E1,1E0,1E0,1E0,1E0,1E0,7E0,4E0,1.0967834E-3,8.911621E-3,-1.0383463E-3,-1.0487867E-2,-2.1999653E-2,5.374721E-3,-6.711324E-3,5.750204E-3,-3.2712538E-3,-2.2697037E-2,-3.4218576E-2,-1.0088636E-2,3.263689E-2,1.7905726E-1,-6.007695E-3,2.5286062E-3,4.492193E-3,9.006368E-2,-9.506914E-3,1.5763773E-2,-1.2856937E-2,3.2534308E-3,1.1715832E-3,2.2668062E-2,7.9702055E-3,3.7409756E-2,9.2532404E-4,-9.529703E-3,2.701863E-2,-2.7583173E-4,4.5943984E-1,2.7802268E-2],"split_indices":[44,43,41,84,4,19,36,28,4,84,0,84,12,4,73,22,42,37,26,39,80,63,30,2,67,13,43,74,15,0,1,0,0,0,0,0,0,0,0,0,0,0,0,0,0,0,0,0,0,0,0,0,0,0,0,0,0,0,0,0,0,0,0],"split_type":[0,0,0,0,0,0,0,0,0,0,0,0,0,0,0,0,0,0,0,0,0,0,0,0,0,0,0,0,0,0,0,0,0,0,0,0,0,0,0,0,0,0,0,0,0,0,0,0,0,0,0,0,0,0,0,0,0,0,0,0,0,0,0],"sum_hessian":[3.7679E4,2.7716E4,9.963E3,2.166E4,6.056E3,7.553E3,2.41E3,1.774E4,3.92E3,1.937E3,4.119E3,5.836E3,1.717E3,1.849E3,5.61E2,1.3306E4,4.434E3,1.059E3,2.861E3,1.552E3,3.85E2,2.4E1,4.095E3,5.052E3,7.84E2,1.294E3,4.23E2,7.18E2,1.131E3,4.23E2,1.38E2,1.0056E4,3.25E3,2.975E3,1.459E3,8.44E2,2.15E2,1.864E3,9.97E2,1.138E3,4.14E2,2.9E2,9.5E1,2.1E1,3E0,2.952E3,1.143E3,5.012E3,4E1,6.71E2,1.13E2,8.33E2,4.61E2,2.82E2,1.41E2,5.31E2,1.87E2,8.34E2,2.97E2,2.01E2,2.22E2,1.3E1,1.25E2],"tree_param":{"num_deleted":"0","num_feature":"85","num_nodes":"63","size_leaf_vector":"1"}},{"base_weights":[1.1553764E-4,-1.4507692E-2,3.9999954E-2,-6.0195066E-3,-8.616685E-2,-6.257682E-2,5.6074347E-2,9.042788E-3,-4.634799E-2,-3.220689E-2,-1.919745E-1,-2.0379272E-1,-1.9521004E-2,7.6817855E-2,-2.4565645E-2,-6.1611333E-3,4.7711063E-2,-5.33991E-2,5.691333E-2,1.3043324E-2,-1.6458791E-1,-1.3082458E-1,-3.7840897E-1,-1.4629427E-1,-3.3843333E-1,-4.5635313E-2,2.5647208E-1,1.0315379E-1,-1.2569882E-2,-3.8226746E-2,1.5300712E-1,-2.5881229E-3,5.103139E-3,1.4597398E-2,-2.004E-4,-4.2760684E-3,-1.762086E-2,8.4655796E-4,2.7481968E-2,5.7891156E-3,-1.2612392E-2,-2.2605859E-2,1.2465612E-3,-5.1988084E-3,-2.5199616E-2,-4.4193394E-2,-1.9383246E-2,-2.0734344E-2,6.725372E-3,-3.972021E-2,-1.7571187E-2,-4.0915128E-2,-3.4688755E-3,1.2109605E-2,8.8347875E-2,8.4541375E-3,2.7260944E-2,-4.8218165E-3,9.924776E-3,-1.9972248E-3,-9.711984E-3,2.704986E-2,-1.7977811E-2],"categories":[],"categories_nodes":[],"categories_segments":[],"categories_sizes":[],"default_left":[0,0,0,0,0,0,0,0,0,0,0,0,0,0,0,0,0,0,0,0,0,0,0,0,0,0,0,0,0,0,0,0,0,0,0,0,0,0,0,0,0,0,0,0,0,0,0,0,0,0,0,0,0,0,0,0,0,0,0,0,0,0,0],"id":21,"left_children":[1,3,5,7,9,11,13,15,17,19,21,23,25,27,29,31,33,35,37,39,41,43,45,47,49,51,53,55,57,59,61,-1,-1,-1,-1,-1,-1,-1,-1,-1,-1,-1,-1,-1,-1,-1,-1,-1,-1,-1,-1,-1,-1,-1,-1,-1,-1,-1,-1,-1,-1,-1,-1],"loss_changes":[2.1977026E1,1.6770323E1,1.6671827E1,1.4975626E1,1.6665201E1,8.32585E0,1.46217785E1,1.05532675E1,4.884268E0,1.1593318E1,1.1191341E1,2.4278088E0,7.5866485E0,1.6367065E1,4.3456755E0,1.4533564E1,2.4748447E1,8.192049E0,4.5266576E0,9.013569E0,5.368431E0,7.094139E0,2.763565E0,2.9602895E0,8.38686E-1,3.8098636E0,7.617247E0,1.691383E1,6.3147926E0,1.7848165E0,5.053357E0,0E0,0E0,0E0,0E0,0E0,0E0,0E0,0E0,0E0,0E0,0E0,0E0,0E0,0E0,0E0,0E0,0E0,0E0,0E0,0E0,0E0,0E0,0E0,0E0,0E0,0E0,0E0,0E0,0E0,0E0,0E0,0E0],"parents":[2147483647,0,0,1,1,2,2,3,3,4,4,5,5,6,6,7,7,8,8,9,9,10,10,11,11,12,12,13,13,14,14,15,15,16,16,17,17,18,18,19,19,20,20,21,21,22,22,23,23,24,24,25,25,26,26,27,27,28,28,29,29,30,30],"right_children":[2,4,6,8,10,12,14,16,18,20,22,24,26,28,30,32,34,36,38,40,42,44,46,48,50,52,54,56,58,60,62,-1,-1,-1,-1,-1,-1,-1,-1,-1,-1,-1,-1,-1,-1,-1,-1,-1,-1,-1,-1,-1,-1,-1,-1,-1,-1,-1,-1,-1,-1,-1,-1],"split_conditions":[1E0,1E0,3E0,1E0,1E0,1E0,1E0,1E0,8E0,1E0,1E0,1E0,1E0,1E0,1E0,1E0,1E0,1E0,1E0,1E0,1E0,5.1663578E1,1E0,1E0,1E0,2E0,1E1,8E0,1E0,1E0,5.712775E1,-2.5881229E-3,5.103139E-3,1.4597398E-2,-2.004E-4,-4.2760684E-3,-1.762086E-2,8.4655796E-4,2.7481968E-2,5.7891156E-3,-1.2612392E-2,-2.2605859E-2,1.2465612E-3,-5.1988084E-3,-2.5199616E-2,-4.4193394E-2,-1.9383246E-2,-2.0734344E-2,6.725372E-3,-3.972021E-2,-1.7571187E-2,-4.0915128E-2,-3.4688755E-3,1.2109605E-2,8.8347875E-2,8.4541375E-3,2.7260944E-2,-4.8218165E-3,9.924776E-3,-1.9972248E-3,-9.711984E-3,2.704986E-2,-1.7977811E-2],"split_indices":[8,7,1,28,11,4,24,25,1,42,15,60,33,60,5,21,4,5,52,19,62,84,59,71,24,3,0,2,68,75,84,0,0,0,0,0,0,0,0,0,0,0,0,0,0,0,0,0,0,0,0,0,0,0,0,0,0,0,0,0,0,0,0],"split_type":[0,0,0,0,0,0,0,0,0,0,0,0,0,0,0,0,0,0,0,0,0,0,0,0,0,0,0,0,0,0,0,0,0,0,0,0,0,0,0,0,0,0,0,0,0,0,0,0,0,0,0,0,0,0,0,0,0,0,0,0,0,0,0],"sum_hessian":[3.7679E4,2.7571E4,1.0108E4,2.4652E4,2.919E3,1.369E3,8.739E3,1.7949E4,6.703E3,1.934E3,9.85E2,3.19E2,1.05E3,6.951E3,1.788E3,1.2884E4,5.065E3,6.275E3,4.28E2,1.442E3,4.92E2,7.43E2,2.42E2,2.25E2,9.4E1,9.6E2,9E1,5.369E3,1.582E3,1.661E3,1.27E2,9.581E3,3.303E3,1.701E3,3.364E3,5.776E3,4.99E2,3.51E2,7.7E1,1.091E3,3.51E2,3.65E2,1.27E2,4.51E2,2.92E2,1.79E2,6.3E1,1.75E2,5E1,6.8E1,2.6E1,2.7E1,9.33E2,7.5E1,1.5E1,4.839E3,5.3E2,1.2E3,3.82E2,1.269E3,3.92E2,9.4E1,3.3E1],"tree_param":{"num_deleted":"0","num_feature":"85","num_nodes":"63","size_leaf_vector":"1"}},{"base_weights":[1.01970734E-4,1.2123836E-2,-4.1257735E-2,2.6856406E-2,-2.9734073E-2,-2.702407E-2,-9.8606676E-2,4.239326E-2,-1.4665192E-2,3.369627E-1,-3.2892566E-2,-5.948897E-3,-6.766519E-2,-1.8406142E-1,-5.102344E-2,5.927406E-2,-1.3342535E-2,-3.9289396E-2,4.5969132E-2,1.4873691E-1,1.6594795E0,-1.6014626E-2,-9.065841E-2,-2.6982533E-2,6.486604E-2,-1.9814098E-1,-2.1369593E-2,-2.3613574E-1,-4.7820542E-2,-7.3874325E-2,5.8278665E-3,3.9125658E-3,1.0851198E-2,-4.0392145E-3,5.0993864E-3,-1.731416E-2,-2.744001E-3,1.0374426E-2,-6.337085E-3,-3.819683E-2,3.1053994E-2,3.4945663E-2,5.41482E-1,7.626989E-4,-8.445099E-3,-1.19253555E-2,1.4937044E-3,-3.3796273E-4,-8.768268E-3,2.5966156E-3,2.0482408E-2,-2.412878E-2,-4.6621966E-3,-6.1354768E-3,6.1869523E-3,-2.8324766E-2,-6.4047226E-3,-1.5564511E-2,1.9570436E-2,-5.0230953E-3,-1.5821759E-2,2.0541912E-2,-3.03465E-3],"categories":[],"categories_nodes":[],"categories_segments":[],"categories_sizes":[],"default_left":[0,0,0,0,0,0,0,0,0,0,0,0,0,0,0,0,0,0,0,0,0,0,0,0,0,0,0,0,0,0,0,0,0,0,0,0,0,0,0,0,0,0,0,0,0,0,0,0,0,0,0,0,0,0,0,0,0,0,0,0,0,0,0],"id":22,"left_children":[1,3,5,7,9,11,13,15,17,19,21,23,25,27,29,31,33,35,37,39,41,43,45,47,49,51,53,55,57,59,61,-1,-1,-1,-1,-1,-1,-1,-1,-1,-1,-1,-1,-1,-1,-1,-1,-1,-1,-1,-1,-1,-1,-1,-1,-1,-1,-1,-1,-1,-1,-1,-1],"loss_changes":[1.873578E1,1.8004612E1,6.9243345E0,1.393188E1,8.8146305E0,5.823924E0,6.8503113E0,1.4786484E1,8.782562E0,1.5933741E1,7.3468847E0,6.6732006E0,1.4021703E1,4.2667828E0,1.4099567E0,1.1962048E1,6.361022E0,6.6297636E0,1.0739379E1,5.099059E0,3.746441E1,9.439743E0,5.1470394E0,4.9482493E0,5.580586E0,3.9635868E0,5.711883E0,3.516693E0,4.441799E0,1.5355315E0,2.2589011E0,0E0,0E0,0E0,0E0,0E0,0E0,0E0,0E0,0E0,0E0,0E0,0E0,0E0,0E0,0E0,0E0,0E0,0E0,0E0,0E0,0E0,0E0,0E0,0E0,0E0,0E0,0E0,0E0,0E0,0E0,0E0,0E0],"parents":[2147483647,0,0,1,1,2,2,3,3,4,4,5,5,6,6,7,7,8,8,9,9,10,10,11,11,12,12,13,13,14,14,15,15,16,16,17,17,18,18,19,19,20,20,21,21,22,22,23,23,24,24,25,25,26,26,27,27,28,28,29,29,30,30],"right_children":[2,4,6,8,10,12,14,16,18,20,22,24,26,28,30,32,34,36,38,40,42,44,46,48,50,52,54,56,58,60,62,-1,-1,-1,-1,-1,-1,-1,-1,-1,-1,-1,-1,-1,-1,-1,-1,-1,-1,-1,-1,-1,-1,-1,-1,-1,-1,-1,-1,-1,-1,-1,-1],"split_conditions":[1E0,1E0,1E0,1E0,4.290464E1,5.4156925E1,1E0,1E0,1E0,1E0,1E0,1E0,1E0,1E0,1E0,1E0,1E0,4E0,1E0,3E0,1E0,1E0,1E0,1E0,1E0,1E0,1E0,1E0,1E0,1E0,4.753435E1,3.9125658E-3,1.0851198E-2,-4.0392145E-3,5.0993864E-3,-1.731416E-2,-2.744001E-3,1.0374426E-2,-6.337085E-3,-3.819683E-2,3.1053994E-2,3.4945663E-2,5.41482E-1,7.626989E-4,-8.445099E-3,-1.19253555E-2,1.4937044E-3,-3.3796273E-4,-8.768268E-3,2.5966156E-3,2.0482408E-2,-2.412878E-2,-4.6621966E-3,-6.1354768E-3,6.1869523E-3,-2.8324766E-2,-6.4047226E-3,-1.5564511E-2,1.9570436E-2,-5.0230953E-3,-1.5821759E-2,2.0541912E-2,-3.03465E-3],"split_indices":[43,20,47,28,84,84,4,47,25,50,15,22,4,50,54,74,54,0,42,0,10,56,17,61,83,33,30,20,74,64,84,0,0,0,0,0,0,0,0,0,0,0,0,0,0,0,0,0,0,0,0,0,0,0,0,0,0,0,0,0,0,0,0],"split_type":[0,0,0,0,0,0,0,0,0,0,0,0,0,0,0,0,0,0,0,0,0,0,0,0,0,0,0,0,0,0,0,0,0,0,0,0,0,0,0,0,0,0,0,0,0,0,0,0,0,0,0,0,0,0,0,0,0,0,0,0,0,0,0],"sum_hessian":[3.7679E4,2.9194E4,8.485E3,2.1594E4,7.6E3,6.799E3,1.686E3,1.5714E4,5.88E3,6.4E1,7.536E3,4.478E3,2.321E3,6.02E2,1.084E3,1.2061E4,3.653E3,4.182E3,1.698E3,5.7E1,7E0,5.833E3,1.703E3,3.453E3,1.025E3,6.07E2,1.714E3,4.35E2,1.67E2,7.73E2,3.11E2,8.56E3,3.501E3,2.572E3,1.081E3,3.39E2,3.843E3,1.111E3,5.87E2,1.3E1,4.4E1,6E0,1E0,4.336E3,1.497E3,1.34E3,3.63E2,2.487E3,9.66E2,8.03E2,2.22E2,4.72E2,1.35E2,1.158E3,5.56E2,3.41E2,9.4E1,1.16E2,5.1E1,6.05E2,1.68E2,4.7E1,2.64E2],"tree_param":{"num_deleted":"0","num_feature":"85","num_nodes":"63","size_leaf_vector":"1"}},{"base_weights":[1.0509955E-4,1.3628029E-2,-3.5481226E-2,2.7850734E-2,-3.63335E-2,-5.9459943E-2,2.4757536E-2,4.560137E-2,-2.9535105E-2,-2.150902E-2,-8.479866E-2,-4.402664E-2,-1.620699E-1,1.2353913E-1,-7.297711E-2,2.3545487E-2,1.06079295E-1,2.7302295E-2,-5.9412386E-2,-3.0370468E-2,1.2186353E-1,-1.2079545E-1,-2.9981513E-2,-2.410267E-2,-1.0968541E-1,-2.1154094E-1,-9.026423E-3,7.733907E-2,7.4898994E-1,-1.0084671E-1,3.3072855E-2,2.9712168E-3,-1.8119223E-2,8.896172E-3,3.0208558E-2,6.8134735E-3,-6.144234E-3,-1.31886965E-2,-2.8231647E-3,-4.9161077E-3,2.2407328E-3,-2.9898508E-4,4.2923328E-2,-1.4083186E-2,-3.8022578E-3,-4.447496E-4,-1.272783E-2,-1.4448691E-3,-1.3794238E-2,-1.3628929E-2,-3.0217052E-3,-2.5436683E-2,-7.353406E-3,9.055459E-3,-2.8117722E-2,1.1642027E-2,-7.799151E-3,1.3331453E-2,4.0114337E-1,-1.31628355E-2,1.558468E-3,1.9512888E-2,-7.3129083E-3],"categories":[],"categories_nodes":[],"categories_segments":[],"categories_sizes":[],"default_left":[0,0,0,0,0,0,0,0,0,0,0,0,0,0,0,0,0,0,0,0,0,0,0,0,0,0,0,0,0,0,0,0,0,0,0,0,0,0,0,0,0,0,0,0,0,0,0,0,0,0,0,0,0,0,0,0,0,0,0,0,0,0,0],"id":23,"left_children":[1,3,5,7,9,11,13,15,17,19,21,23,25,27,29,31,33,35,37,39,41,43,45,47,49,51,53,55,57,59,61,-1,-1,-1,-1,-1,-1,-1,-1,-1,-1,-1,-1,-1,-1,-1,-1,-1,-1,-1,-1,-1,-1,-1,-1,-1,-1,-1,-1,-1,-1,-1,-1],"loss_changes":[1.8133282E1,1.940362E1,1.4989066E1,2.1652435E1,4.345643E0,1.1746426E1,2.8537722E1,2.1651943E1,8.5297165E0,5.892414E0,2.7924604E0,8.439064E0,7.3421707E0,4.241899E1,4.3953104E0,1.502597E1,1.4527782E1,6.276741E0,7.4355745E0,4.330981E0,1.0362844E1,1.4126396E0,1.3981388E0,5.4402866E0,3.171358E0,4.3135223E0,6.475512E0,8.325669E0,2.0233447E2,4.2203608E0,5.3495755E0,0E0,0E0,0E0,0E0,0E0,0E0,0E0,0E0,0E0,0E0,0E0,0E0,0E0,0E0,0E0,0E0,0E0,0E0,0E0,0E0,0E0,0E0,0E0,0E0,0E0,0E0,0E0,0E0,0E0,0E0,0E0,0E0],"parents":[2147483647,0,0,1,1,2,2,3,3,4,4,5,5,6,6,7,7,8,8,9,9,10,10,11,11,12,12,13,13,14,14,15,15,16,16,17,17,18,18,19,19,20,20,21,21,22,22,23,23,24,24,25,25,26,26,27,27,28,28,29,29,30,30],"right_children":[2,4,6,8,10,12,14,16,18,20,22,24,26,28,30,32,34,36,38,40,42,44,46,48,50,52,54,56,58,60,62,-1,-1,-1,-1,-1,-1,-1,-1,-1,-1,-1,-1,-1,-1,-1,-1,-1,-1,-1,-1,-1,-1,-1,-1,-1,-1,-1,-1,-1,-1,-1,-1],"split_conditions":[1E0,1E0,1E0,1E0,1E0,1E0,5.464076E1,1E0,5.1461864E1,1E0,1E0,1E0,1E0,5.4206684E1,1E0,9E0,8E0,1E0,1E0,1E0,1E0,1E0,1E0,6.066181E1,1E0,1E0,1E0,1E0,7E0,1E0,1E0,2.9712168E-3,-1.8119223E-2,8.896172E-3,3.0208558E-2,6.8134735E-3,-6.144234E-3,-1.31886965E-2,-2.8231647E-3,-4.9161077E-3,2.2407328E-3,-2.9898508E-4,4.2923328E-2,-1.4083186E-2,-3.8022578E-3,-4.447496E-4,-1.272783E-2,-1.4448691E-3,-1.3794238E-2,-1.3628929E-2,-3.0217052E-3,-2.5436683E-2,-7.353406E-3,9.055459E-3,-2.8117722E-2,1.1642027E-2,-7.799151E-3,1.3331453E-2,4.0114337E-1,-1.31628355E-2,1.558468E-3,1.9512888E-2,-7.3129083E-3],"split_indices":[82,24,74,60,23,7,84,8,84,5,80,71,41,84,17,3,2,29,4,18,41,72,19,84,12,67,20,20,0,13,4,0,0,0,0,0,0,0,0,0,0,0,0,0,0,0,0,0,0,0,0,0,0,0,0,0,0,0,0,0,0,0,0],"split_type":[0,0,0,0,0,0,0,0,0,0,0,0,0,0,0,0,0,0,0,0,0,0,0,0,0,0,0,0,0,0,0,0,0,0,0,0,0,0,0,0,0,0,0,0,0,0,0,0,0,0,0,0,0,0,0,0,0,0,0,0,0,0,0],"sum_hessian":[3.7679E4,2.7304E4,1.0375E4,2.1254E4,6.05E3,7.421E3,2.954E3,1.6233E4,5.021E3,4.634E3,1.416E3,6.452E3,9.69E2,1.469E3,1.485E3,1.1896E4,4.337E3,1.73E3,3.291E3,4.365E3,2.69E2,8.54E2,5.62E2,4.951E3,1.501E3,7.32E2,2.37E2,1.369E3,1E2,1.176E3,3.09E2,1.1549E4,3.47E2,3.99E3,3.47E2,1.185E3,5.45E2,9.89E2,2.302E3,3.219E3,1.146E3,1.92E2,7.7E1,6.87E2,1.67E2,4.46E2,1.16E2,4.565E3,3.86E2,1.124E3,3.77E2,5.58E2,1.74E2,1.74E2,6.3E1,1.094E3,2.75E2,8.5E1,1.5E1,9.3E2,2.46E2,1.22E2,1.87E2],"tree_param":{"num_deleted":"0","num_feature":"85","num_nodes":"63","size_leaf_vector":"1"}},{"base_weights":[1.0394996E-4,-1.2945304E-2,3.640323E-2,-1.1663318E-2,-3.668746E-1,1.7066836E-2,8.352105E-2,1.7798135E-4,-4.8249856E-2,-5.0417185E-1,-1.0878581E-1,3.960631E-2,-6.297163E-2,1.672321E-1,2.3024533E-2,1.1819486E-2,-6.3834034E-2,-7.20304E-2,1.8432477E-2,-5.470355E-1,2.8625816E-1,8.723109E-2,-1.6174032E-1,1.1038153E-2,1.2065109E-1,-1.3221394E-1,1.2352364E-1,1.0382518E-1,3.838215E-1,1.7818788E-1,-1.1148299E-2,3.072567E-3,-2.1322712E-3,-1.1345903E-2,-1.5631218E-3,-1.3112833E-2,-4.2263414E-3,8.2257055E-3,-4.8729903E-3,-6.28978E-2,-2.4835054E-2,-1.1805782E-2,7.496031E-2,-9.696438E-3,-6.3951276E-2,-1.3160292E-3,7.3948638E-3,2.1132015E-2,-6.5168734E-3,-2.8633153E-2,-6.6329553E-3,5.6094695E-2,-2.175388E-3,4.1559404E-3,3.20668E-2,2.861997E-2,7.873279E-2,7.221049E-3,4.2545136E-2,8.0926836E-2,-1.6518001E-3],"categories":[],"categories_nodes":[],"categories_segments":[],"categories_sizes":[],"default_left":[0,0,0,0,0,0,0,0,0,0,0,0,0,0,0,0,0,0,0,0,0,0,0,0,0,0,0,0,0,0,0,0,0,0,0,0,0,0,0,0,0,0,0,0,0,0,0,0,0,0,0,0,0,0,0,0,0,0,0,0,0],"id":24,"left_children":[1,3,5,7,9,11,13,15,17,19,21,23,25,27,29,31,33,35,37,39,41,-1,43,45,47,49,51,53,55,57,59,-1,-1,-1,-1,-1,-1,-1,-1,-1,-1,-1,-1,-1,-1,-1,-1,-1,-1,-1,-1,-1,-1,-1,-1,-1,-1,-1,-1,-1,-1],"loss_changes":[1.784868E1,1.2571816E1,9.076664E0,1.19650135E1,3.4886417E0,1.2749734E1,1.4677345E1,1.5550017E1,1.07098465E1,2.358841E0,2.0114136E0,1.2765233E1,2.0070782E1,1.6659798E1,8.931179E0,1.1063774E1,7.679146E0,8.751591E0,7.617028E0,1.3612423E0,8.378475E-1,0E0,1.0211755E0,6.2090592E0,2.4224499E1,1.1485428E1,2.6765816E1,1.2705448E1,1.0607197E1,7.9353952E0,6.0972157E0,0E0,0E0,0E0,0E0,0E0,0E0,0E0,0E0,0E0,0E0,0E0,0E0,0E0,0E0,0E0,0E0,0E0,0E0,0E0,0E0,0E0,0E0,0E0,0E0,0E0,0E0,0E0,0E0,0E0,0E0],"parents":[2147483647,0,0,1,1,2,2,3,3,4,4,5,5,6,6,7,7,8,8,9,9,10,10,11,11,12,12,13,13,14,14,15,15,16,16,17,17,18,18,19,19,20,20,22,22,23,23,24,24,25,25,26,26,27,27,28,28,29,29,30,30],"right_children":[2,4,6,8,10,12,14,16,18,20,22,24,26,28,30,32,34,36,38,40,42,-1,44,46,48,50,52,54,56,58,60,-1,-1,-1,-1,-1,-1,-1,-1,-1,-1,-1,-1,-1,-1,-1,-1,-1,-1,-1,-1,-1,-1,-1,-1,-1,-1,-1,-1,-1,-1],"split_conditions":[1E0,1.1E1,1E0,1E0,4.382803E1,1E0,1E0,7E0,1E0,1E0,4.407061E1,1E0,1E0,1E0,3E0,5.464076E1,1E0,1E0,5.4367798E1,1E0,1E0,8.723109E-2,1E0,1E0,1E0,1E0,1E0,1E0,1E0,1E0,3E0,3.072567E-3,-2.1322712E-3,-1.1345903E-2,-1.5631218E-3,-1.3112833E-2,-4.2263414E-3,8.2257055E-3,-4.8729903E-3,-6.28978E-2,-2.4835054E-2,-1.1805782E-2,7.496031E-2,-9.696438E-3,-6.3951276E-2,-1.3160292E-3,7.3948638E-3,2.1132015E-2,-6.5168734E-3,-2.8633153E-2,-6.6329553E-3,5.6094695E-2,-2.175388E-3,4.1559404E-3,3.20668E-2,2.861997E-2,7.873279E-2,7.221049E-3,4.2545136E-2,8.0926836E-2,-1.6518001E-3],"split_indices":[44,1,25,56,84,31,4,3,80,74,84,34,33,31,3,84,4,4,84,23,11,0,6,8,28,4,4,23,33,69,0,0,0,0,0,0,0,0,0,0,0,0,0,0,0,0,0,0,0,0,0,0,0,0,0,0,0,0,0,0,0],"split_type":[0,0,0,0,0,0,0,0,0,0,0,0,0,0,0,0,0,0,0,0,0,0,0,0,0,0,0,0,0,0,0,0,0,0,0,0,0,0,0,0,0,0,0,0,0,0,0,0,0,0,0,0,0,0,0,0,0,0,0,0,0],"sum_hessian":[3.7679E4,2.7716E4,9.963E3,2.7617E4,9.9E1,7.065E3,2.898E3,2.0865E4,6.752E3,6.4E1,3.5E1,5.513E3,1.552E3,1.215E3,1.683E3,1.7655E4,3.21E3,4.977E3,1.775E3,6.1E1,3E0,1E0,3.4E1,4.077E3,1.436E3,1.132E3,4.2E2,9.41E2,2.74E2,3.03E2,1.38E3,1.1242E4,6.413E3,1.581E3,1.629E3,1.666E3,3.311E3,9.1E2,8.65E2,4.7E1,1.4E1,2E0,1E0,3.1E1,3E0,2.945E3,1.132E3,9.65E2,4.71E2,3.38E2,7.94E2,1.04E2,3.16E2,7.32E2,2.09E2,2.22E2,5.2E1,2.13E2,9E1,8E0,1.372E3],"tree_param":{"num_deleted":"0","num_feature":"85","num_nodes":"61","size_leaf_vector":"1"}},{"base_weights":[1.008541E-4,-1.1967495E-2,3.3016913E-2,-5.04506E-3,-7.0408195E-2,-5.3972572E-2,4.6648785E-2,7.239062E-3,-3.7935115E-2,-3.2092024E-2,-1.8615693E-1,-1.762139E-1,-1.6702164E-2,2.7399944E-2,1.1192632E-1,2.0980017E-2,-3.1071285E-2,-3.0155225E-2,-1.1395946E-1,1.5627727E-2,-1.340301E-1,-2.3081475E-1,-4.9412575E-2,-2.0715418E-1,7.910522E-3,-4.019665E-2,2.3159347E-1,6.9963704E-3,8.556883E-2,8.676085E-2,2.586387E0,-1.4267265E-5,6.924398E-3,-1.0265628E-3,-9.262799E-3,-2.7663289E-3,-2.4695002E-2,-3.7462083E-3,-3.7706144E-2,6.080802E-3,-1.31381E-2,-2.0167327E-2,-3.0005788E-3,-2.824963E-2,-6.116064E-3,4.281496E-3,-3.0393029E-2,-1.5928347E-2,-3.1925004E-2,-4.554326E-3,1.2333923E-1,-3.6926415E-2,-3.0288636E-3,4.183398E-2,-1.620687E-2,-2.6127144E-3,9.082948E-3,3.1196062E-2,5.6377123E-3,1.9396197E-2,3.589966E-3,-4.1188218E-2,2.977675E0],"categories":[],"categories_nodes":[],"categories_segments":[],"categories_sizes":[],"default_left":[0,0,0,0,0,0,0,0,0,0,0,0,0,0,0,0,0,0,0,0,0,0,0,0,0,0,0,0,0,0,0,0,0,0,0,0,0,0,0,0,0,0,0,0,0,0,0,0,0,0,0,0,0,0,0,0,0,0,0,0,0,0,0],"id":25,"left_children":[1,3,5,7,9,11,13,15,17,19,21,23,25,27,29,31,33,35,37,39,41,43,45,47,49,51,53,55,57,59,61,-1,-1,-1,-1,-1,-1,-1,-1,-1,-1,-1,-1,-1,-1,-1,-1,-1,-1,-1,-1,-1,-1,-1,-1,-1,-1,-1,-1,-1,-1,-1,-1],"loss_changes":[1.49684925E1,1.1153952E1,1.1990071E1,9.960714E0,1.29443655E1,6.238756E0,1.0978891E1,9.449904E0,3.9617186E0,1.0679583E1,4.4220657E0,1.8246336E0,6.1404004E0,8.011847E0,1.236948E2,1.3469177E1,6.0684175E0,3.2794414E0,1.2504626E1,9.944267E0,4.9195232E0,4.7788067E0,4.2382503E0,1.4194622E0,3.1349845E0,3.1220658E0,6.7576604E0,1.3883831E1,1.15675745E1,1.0739671E1,1.6427449E3,0E0,0E0,0E0,0E0,0E0,0E0,0E0,0E0,0E0,0E0,0E0,0E0,0E0,0E0,0E0,0E0,0E0,0E0,0E0,0E0,0E0,0E0,0E0,0E0,0E0,0E0,0E0,0E0,0E0,0E0,0E0,0E0],"parents":[2147483647,0,0,1,1,2,2,3,3,4,4,5,5,6,6,7,7,8,8,9,9,10,10,11,11,12,12,13,13,14,14,15,15,16,16,17,17,18,18,19,19,20,20,21,21,22,22,23,23,24,24,25,25,26,26,27,27,28,28,29,29,30,30],"right_children":[2,4,6,8,10,12,14,16,18,20,22,24,26,28,30,32,34,36,38,40,42,44,46,48,50,52,54,56,58,60,62,-1,-1,-1,-1,-1,-1,-1,-1,-1,-1,-1,-1,-1,-1,-1,-1,-1,-1,-1,-1,-1,-1,-1,-1,-1,-1,-1,-1,-1,-1,-1,-1],"split_conditions":[1E0,1E0,3E0,1E0,1E0,1E0,1E0,1E0,1E0,1E0,1E0,1E0,1E0,1E0,6.183641E1,7E0,1E0,1.1E1,1E0,1E0,1E0,1E0,1E0,1E0,1E0,2E0,1E0,1E0,4E0,1E0,1E0,-1.4267265E-5,6.924398E-3,-1.0265628E-3,-9.262799E-3,-2.7663289E-3,-2.4695002E-2,-3.7462083E-3,-3.7706144E-2,6.080802E-3,-1.31381E-2,-2.0167327E-2,-3.0005788E-3,-2.824963E-2,-6.116064E-3,4.281496E-3,-3.0393029E-2,-1.5928347E-2,-3.1925004E-2,-4.554326E-3,1.2333923E-1,-3.6926415E-2,-3.0288636E-3,4.183398E-2,-1.620687E-2,-2.6127144E-3,9.082948E-3,3.1196062E-2,5.6377123E-3,1.9396197E-2,3.589966E-3,-4.1188218E-2,2.977675E0],"split_indices":[8,7,1,28,42,4,59,32,5,82,62,17,33,41,84,2,38,0,26,56,10,59,69,60,37,3,66,37,1,4,19,0,0,0,0,0,0,0,0,0,0,0,0,0,0,0,0,0,0,0,0,0,0,0,0,0,0,0,0,0,0,0,0],"split_type":[0,0,0,0,0,0,0,0,0,0,0,0,0,0,0,0,0,0,0,0,0,0,0,0,0,0,0,0,0,0,0,0,0,0,0,0,0,0,0,0,0,0,0,0,0,0,0,0,0,0,0,0,0,0,0,0,0,0,0,0,0,0,0],"sum_hessian":[3.7679E4,2.7571E4,1.0108E4,2.4652E4,2.919E3,1.369E3,8.739E3,1.7949E4,6.703E3,2.194E3,7.25E2,3.19E2,1.05E3,6.75E3,1.989E3,1.3211E4,4.738E3,6.082E3,6.21E2,1.495E3,6.99E2,5.46E2,1.79E2,2.73E2,4.6E1,9.6E2,9E1,4.998E3,1.752E3,1.97E3,1.9E1,9.19E3,4.021E3,3.542E3,1.196E3,6.014E3,6.8E1,4.82E2,1.39E2,1.144E3,3.51E2,4.23E2,2.76E2,4.18E2,1.28E2,1.32E2,4.7E1,1.93E2,8E1,4.5E1,1E0,2.7E1,9.33E2,6.1E1,2.9E1,3.583E3,1.415E3,1.99E2,1.553E3,6.33E2,1.337E3,1.8E1,1E0],"tree_param":{"num_deleted":"0","num_feature":"85","num_nodes":"63","size_leaf_vector":"1"}},{"base_weights":[1.6763699E-4,1.201523E-2,-3.3348992E-2,-2.42602E-3,5.3297725E-2,-5.0449863E-2,7.2997496E-3,-1.9728027E-2,4.988206E-2,1.23487994E-1,1.6891556E-2,4.4838488E-1,-5.4361213E-2,-2.9454708E-2,1.1635305E-1,-4.0717967E-2,4.0607903E-2,1.252891E-1,5.1470767E-3,1.795068E-1,-7.455541E-2,-9.944647E-3,8.984845E-2,2.763089E-1,2.5302575E0,-7.562119E-2,4.7176457E-3,-8.527455E-4,-1.1922092E-1,2.7864045E-1,5.048043E-3,-1.4059084E-2,6.1301416E-4,1.6398234E-3,1.848269E-2,8.060492E-3,2.4109738E-2,-3.6416699E-3,1.2177504E-2,1.08223995E-2,3.2268487E-2,-1.8473608E-2,1.7964585E-2,9.880058E-3,-2.6071724E-3,5.2734925E-3,1.6689962E-2,1.0108268E-1,1.3648045E-2,5.143382E-1,-5.5244723E-3,-9.897994E-3,-7.369513E-4,-4.734969E-3,1.3710538E-2,3.88796E-3,-1.1557089E-2,-1.66895E-2,2.4704535E-3,3.669726E-2,-9.472198E-3,9.691167E-3,-1.194395E-2],"categories":[],"categories_nodes":[],"categories_segments":[],"categories_sizes":[],"default_left":[0,0,0,0,0,0,0,0,0,0,0,0,0,0,0,0,0,0,0,0,0,0,0,0,0,0,0,0,0,0,0,0,0,0,0,0,0,0,0,0,0,0,0,0,0,0,0,0,0,0,0,0,0,0,0,0,0,0,0,0,0,0,0],"id":26,"left_children":[1,3,5,7,9,11,13,15,17,19,21,23,25,27,29,31,33,35,37,39,41,43,45,47,49,51,53,55,57,59,61,-1,-1,-1,-1,-1,-1,-1,-1,-1,-1,-1,-1,-1,-1,-1,-1,-1,-1,-1,-1,-1,-1,-1,-1,-1,-1,-1,-1,-1,-1,-1,-1],"loss_changes":[1.4962804E1,1.6597525E1,6.8411303E0,1.8668232E1,1.8434824E1,1.3539766E1,1.1687315E1,1.9631592E1,1.729443E1,2.734938E1,9.304768E0,1.8645844E1,8.634205E0,5.5995936E0,1.3275192E1,5.3807693E1,1.3966438E1,9.859261E0,1.5608531E1,1.957106E1,1.5269574E1,6.096831E0,3.6458206E0,5.100074E0,2.7309103E1,8.058323E0,1.2551889E1,7.5480175E0,3.6201425E0,9.89575E0,5.009053E0,0E0,0E0,0E0,0E0,0E0,0E0,0E0,0E0,0E0,0E0,0E0,0E0,0E0,0E0,0E0,0E0,0E0,0E0,0E0,0E0,0E0,0E0,0E0,0E0,0E0,0E0,0E0,0E0,0E0,0E0,0E0,0E0],"parents":[2147483647,0,0,1,1,2,2,3,3,4,4,5,5,6,6,7,7,8,8,9,9,10,10,11,11,12,12,13,13,14,14,15,15,16,16,17,17,18,18,19,19,20,20,21,21,22,22,23,23,24,24,25,25,26,26,27,27,28,28,29,29,30,30],"right_children":[2,4,6,8,10,12,14,16,18,20,22,24,26,28,30,32,34,36,38,40,42,44,46,48,50,52,54,56,58,60,62,-1,-1,-1,-1,-1,-1,-1,-1,-1,-1,-1,-1,-1,-1,-1,-1,-1,-1,-1,-1,-1,-1,-1,-1,-1,-1,-1,-1,-1,-1,-1,-1],"split_conditions":[1E0,1E0,1E0,1E0,1E0,4.290464E1,1E0,1E0,1E0,1E0,1E0,1E0,1E0,1E0,1E0,1E0,1E0,1E0,1E0,1E0,1E0,4E0,1E0,6E0,4E0,1E0,1E0,1E0,1E0,1E0,5.272677E1,-1.4059084E-2,6.1301416E-4,1.6398234E-3,1.848269E-2,8.060492E-3,2.4109738E-2,-3.6416699E-3,1.2177504E-2,1.08223995E-2,3.2268487E-2,-1.8473608E-2,1.7964585E-2,9.880058E-3,-2.6071724E-3,5.2734925E-3,1.6689962E-2,1.0108268E-1,1.3648045E-2,5.143382E-1,-5.5244723E-3,-9.897994E-3,-7.369513E-4,-4.734969E-3,1.3710538E-2,3.88796E-3,-1.1557089E-2,-1.66895E-2,2.4704535E-3,3.669726E-2,-9.472198E-3,9.691167E-3,-1.194395E-2],"split_indices":[20,13,25,41,4,84,31,37,4,17,26,76,38,65,4,4,6,17,30,21,8,0,22,3,0,29,14,39,33,35,84,0,0,0,0,0,0,0,0,0,0,0,0,0,0,0,0,0,0,0,0,0,0,0,0,0,0,0,0,0,0,0,0],"split_type":[0,0,0,0,0,0,0,0,0,0,0,0,0,0,0,0,0,0,0,0,0,0,0,0,0,0,0,0,0,0,0,0,0,0,0,0,0,0,0,0,0,0,0,0,0,0,0,0,0,0,0,0,0,0,0,0,0,0,0,0,0,0,0],"sum_hessian":[3.7679E4,2.7839E4,9.84E3,2.0625E4,7.214E3,6.926E3,2.914E3,1.5499E4,5.126E3,2.463E3,4.751E3,5.3E1,6.873E3,2.18E3,7.34E2,1.1499E4,4E3,1.908E3,3.218E3,1.92E3,5.43E2,3.474E3,1.277E3,5E1,3E0,5.054E3,1.819E3,1.654E3,5.26E2,2.98E2,4.36E2,3.671E3,7.828E3,3.426E3,5.74E2,1.378E3,