{"learner":{"attributes":{},"feature_names":["G count","A count","C count","T count","G at pos 1","A at pos 1","C at pos 1","T at pos 1","G at pos 2","A at pos 2","C at pos 2","T at pos 2","G at pos 3","A at pos 3","C at pos 3","T at pos 3","G at pos 4","A at pos 4","C at pos 4","T at pos 4","G at pos 5","A at pos 5","C at pos 5","T at pos 5","G at pos 6","A at pos 6","C at pos 6","T at pos 6","G at pos 7","A at pos 7","C at pos 7","T at pos 7","G at pos 8","A at pos 8","C at pos 8","T at pos 8","G at pos 9","A at pos 9","C at pos 9","T at pos 9","G at pos 10","A at pos 10","C at pos 10","T at pos 10","G at pos 11","A at pos 11","C at pos 11","T at pos 11","G at pos 12","A at pos 12","C at pos 12","T at pos 12","G at pos 13","A at pos 13","C at pos 13","T at pos 13","G at pos 14","A at pos 14","C at pos 14","T at pos 14","G at pos 15","A at pos 15","C at pos 15","T at pos 15","G at pos 16","A at pos 16","C at pos 16","T at pos 16","G at pos 17","A at pos 17","C at pos 17","T at pos 17","G at pos 18","A at pos 18","C at pos 18","T at pos 18","G at pos 19","A at pos 19","C at pos 19","T at pos 19","G at pos 20","A at pos 20","C at pos 20","T at pos 20","Melting Temperature"],"feature_types":["float","float","float","float","float","float","float","float","float","float","float","float","float","float","float","float","float","float","float","float","float","float","float","float","float","float","float","float","float","float","float","float","float","float","float","float","float","float","float","float","float","float","float","float","float","float","float","float","float","float","float","float","float","float","float","float","float","float","float","float","float","float","float","float","float","float","float","float","float","float","float","float","float","float","float","float","float","float","float","float","float","float","float","float","float"],"gradient_booster":{"model":{"gbtree_model_param":{"num_parallel_tree":"1","num_trees":"100"},"iteration_indptr":[0,1,2,3,4,5,6,7,8,9,10,11,12,13,14,15,16,17,18,19,20,21,22,23,24,25,26,27,28,29,30,31,32,33,34,35,36,37,38,39,40,41,42,43,44,45,46,47,48,49,50,51,52,53,54,55,56,57,58,59,60,61,62,63,64,65,66,67,68,69,70,71,72,73,74,75,76,77,78,79,80,81,82,83,84,85,86,87,88,89,90,91,92,93,94,95,96,97,98,99,100],"tree_info":[0,0,0,0,0,0,0,0,0,0,0,0,0,0,0,0,0,0,0,0,0,0,0,0,0,0,0,0,0,0,0,0,0,0,0,0,0,0,0,0,0,0,0,0,0,0,0,0,0,0,0,0,0,0,0,0,0,0,0,0,0,0,0,0,0,0,0,0,0,0,0,0,0,0,0,0,0,0,0,0,0,0,0,0,0,0,0,0,0,0,0,0,0,0,0,0,0,0,0,0],"trees":[{"base_weights":[1.3371988E-9,-2.6797858E-1,8.356164E-1,-4.493925E-2,-6.9548136E-1,9.2750967E-1,5.212382E-1,-1.3733438E-1,2.570514E-1,-7.28288E-1,-6.109066E-1,8.570208E-1,1.1386678E0,5.576491E-1,-2.7884334E-1,-2.1450443E-2,1.5384232E-4,5.0531782E-2,-1.3531768E-3,-7.405284E-2,-5.1469304E-2,-6.4363115E-2,-5.2200206E-2,9.385366E-2,6.718763E-2,1.2645233E-1,7.660095E-2,6.3693345E-2,2.2967603E-2,1.5220026E-2,-5.577581E-2],"categories":[],"categories_nodes":[],"categories_segments":[],"categories_sizes":[],"default_left":[0,0,0,0,0,0,0,0,0,0,0,0,0,0,0,0,0,0,0,0,0,0,0,0,0,0,0,0,0,0,0],"id":0,"left_children":[1,3,5,7,9,11,13,15,17,19,21,23,25,27,29,-1,-1,-1,-1,-1,-1,-1,-1,-1,-1,-1,-1,-1,-1,-1,-1],"loss_changes":[2.3635527E3,7.620054E2,7.355969E1,1.4660695E2,7.157593E0,2.8524902E1,1.7110138E1,4.3114098E1,8.2701355E1,4.7668457E0,1.9100647E0,2.1856812E1,2.2153625E1,1.4337448E1,3.210726E0,0E0,0E0,0E0,0E0,0E0,0E0,0E0,0E0,0E0,0E0,0E0,0E0,0E0,0E0,0E0,0E0],"parents":[2147483647,0,0,1,1,2,2,3,3,4,4,5,5,6,6,7,7,8,8,9,9,10,10,11,11,12,12,13,13,14,14],"right_children":[2,4,6,8,10,12,14,16,18,20,22,24,26,28,30,-1,-1,-1,-1,-1,-1,-1,-1,-1,-1,-1,-1,-1,-1,-1,-1],"split_conditions":[1E0,1E0,7E0,1E0,1E0,1E0,1E1,1E0,1E0,9E0,1E0,1E0,1E0,1E0,1E0,-2.1450443E-2,1.5384232E-4,5.0531782E-2,-1.3531768E-3,-7.405284E-2,-5.1469304E-2,-6.4363115E-2,-5.2200206E-2,9.385366E-2,6.718763E-2,1.2645233E-1,7.660095E-2,6.3693345E-2,2.2967603E-2,1.5220026E-2,-5.577581E-2],"split_indices":[15,12,3,11,4,8,3,10,13,0,24,82,64,56,71,0,0,0,0,0,0,0,0,0,0,0,0,0,0,0,0],"split_type":[0,0,0,0,0,0,0,0,0,0,0,0,0,0,0,0,0,0,0,0,0,0,0,0,0,0,0,0,0,0,0],"sum_hessian":[1.0553E4,7.991E3,2.562E3,5.252E3,2.739E3,1.981E3,5.81E2,4.022E3,1.23E3,1.968E3,7.71E2,1.489E3,4.92E2,5.56E2,2.5E1,2.585E3,1.437E3,6.41E2,5.89E2,1.859E3,1.09E2,5.59E2,2.12E2,1.031E3,4.58E2,3.66E2,1.26E2,4.47E2,1.09E2,1E1,1.5E1],"tree_param":{"num_deleted":"0","num_feature":"85","num_nodes":"31","size_leaf_vector":"1"}},{"base_weights":[1.8570165E-5,-2.4120753E-1,7.522148E-1,-4.044002E-2,-6.2602156E-1,8.349424E-1,4.6919358E-1,-1.2360623E-1,2.3138621E-1,-6.555229E-1,-5.4996693E-1,7.577477E-1,1.0248392E0,3.488297E-1,7.026518E-1,-1.8753337E-2,2.9836926E-3,4.5486473E-2,-1.2180881E-3,-6.665154E-2,-4.636916E-2,-5.7938304E-2,-4.7004696E-2,8.62069E-2,4.838344E-2,9.355612E-2,1.287342E-1,3.8119715E-2,-5.3844776E-2,8.4847905E-2,3.2959413E-2],"categories":[],"categories_nodes":[],"categories_segments":[],"categories_sizes":[],"default_left":[0,0,0,0,0,0,0,0,0,0,0,0,0,0,0,0,0,0,0,0,0,0,0,0,0,0,0,0,0,0,0],"id":1,"left_children":[1,3,5,7,9,11,13,15,17,19,21,23,25,27,29,-1,-1,-1,-1,-1,-1,-1,-1,-1,-1,-1,-1,-1,-1,-1,-1],"loss_changes":[1.915198E3,6.174218E2,5.961743E1,1.1878189E2,5.7872314E0,2.8277588E1,1.6109055E1,3.9467934E1,6.7011345E1,3.8428955E0,1.5425873E0,3.995935E1,1.2153931E1,1.1290749E1,1.04375305E1,0E0,0E0,0E0,0E0,0E0,0E0,0E0,0E0,0E0,0E0,0E0,0E0,0E0,0E0,0E0,0E0],"parents":[2147483647,0,0,1,1,2,2,3,3,4,4,5,5,6,6,7,7,8,8,9,9,10,10,11,11,12,12,13,13,14,14],"right_children":[2,4,6,8,10,12,14,16,18,20,22,24,26,28,30,-1,-1,-1,-1,-1,-1,-1,-1,-1,-1,-1,-1,-1,-1,-1,-1],"split_conditions":[1E0,1E0,7E0,1E0,1E0,1E0,5E0,1E0,1E0,9E0,1E0,1E0,1E0,1.1E1,1E0,-1.8753337E-2,2.9836926E-3,4.5486473E-2,-1.2180881E-3,-6.665154E-2,-4.636916E-2,-5.7938304E-2,-4.7004696E-2,8.62069E-2,4.838344E-2,9.355612E-2,1.287342E-1,3.8119715E-2,-5.3844776E-2,8.4847905E-2,3.2959413E-2],"split_indices":[15,12,3,11,4,22,0,4,13,0,24,25,8,3,56,0,0,0,0,0,0,0,0,0,0,0,0,0,0,0,0],"split_type":[0,0,0,0,0,0,0,0,0,0,0,0,0,0,0,0,0,0,0,0,0,0,0,0,0,0,0,0,0,0,0],"sum_hessian":[1.0553E4,7.991E3,2.562E3,5.252E3,2.739E3,1.981E3,5.81E2,4.022E3,1.23E3,1.968E3,7.71E2,1.412E3,5.69E2,3.85E2,1.96E2,2.839E3,1.183E3,6.41E2,5.89E2,1.859E3,1.09E2,5.59E2,2.12E2,1.021E3,3.91E2,4.28E2,1.41E2,3.72E2,1.3E1,1.4E2,5.6E1],"tree_param":{"num_deleted":"0","num_feature":"85","num_nodes":"31","size_leaf_vector":"1"}},{"base_weights":[4.2247175E-5,-2.1711047E-1,6.7717236E-1,-3.639059E-2,-5.63499E-1,7.516282E-1,4.2244962E-1,-1.1124952E-1,2.0828354E-1,-5.9002805E-1,-4.9510616E-1,6.8206817E-1,9.227452E-1,3.4779465E-1,7.6625484E-1,-5.7365713E-3,-2.7365033E-2,4.0944908E-2,-1.0964863E-3,-6.1353065E-2,-5.1002033E-2,-5.213825E-2,-4.0768456E-2,7.759464E-2,4.3557435E-2,1.0070842E-1,6.614485E-2,4.3832365E-2,1.2185343E-3,5.9581406E-2,1.3024637E-1],"categories":[],"categories_nodes":[],"categories_segments":[],"categories_sizes":[],"default_left":[0,0,0,0,0,0,0,0,0,0,0,0,0,0,0,0,0,0,0,0,0,0,0,0,0,0,0,0,0,0,0],"id":2,"left_children":[1,3,5,7,9,11,13,15,17,19,21,23,25,27,29,-1,-1,-1,-1,-1,-1,-1,-1,-1,-1,-1,-1,-1,-1,-1,-1],"loss_changes":[1.5520142E3,5.00273E2,4.829126E1,9.623735E1,4.6793213E0,2.2962158E1,1.4671562E1,3.5188656E1,5.4298016E1,3.3895874E0,1.5608215E0,3.2359375E1,1.1895264E1,1.4578205E1,8.637329E0,0E0,0E0,0E0,0E0,0E0,0E0,0E0,0E0,0E0,0E0,0E0,0E0,0E0,0E0,0E0,0E0],"parents":[2147483647,0,0,1,1,2,2,3,3,4,4,5,5,6,6,7,7,8,8,9,9,10,10,11,11,12,12,13,13,14,14],"right_children":[2,4,6,8,10,12,14,16,18,20,22,24,26,28,30,-1,-1,-1,-1,-1,-1,-1,-1,-1,-1,-1,-1,-1,-1,-1,-1],"split_conditions":[1E0,1E0,7E0,1E0,1E0,1E0,1E0,1E0,1E0,1E0,1E0,1E0,1E0,1E0,1E0,-5.7365713E-3,-2.7365033E-2,4.0944908E-2,-1.0964863E-3,-6.1353065E-2,-5.1002033E-2,-5.213825E-2,-4.0768456E-2,7.759464E-2,4.3557435E-2,1.0070842E-1,6.614485E-2,4.3832365E-2,1.2185343E-3,5.9581406E-2,1.3024637E-1],"split_indices":[15,12,3,11,4,22,80,6,13,37,49,25,34,73,41,0,0,0,0,0,0,0,0,0,0,0,0,0,0,0,0],"split_type":[0,0,0,0,0,0,0,0,0,0,0,0,0,0,0,0,0,0,0,0,0,0,0,0,0,0,0,0,0,0,0],"sum_hessian":[1.0553E4,7.991E3,2.562E3,5.252E3,2.739E3,1.981E3,5.81E2,4.022E3,1.23E3,1.968E3,7.71E2,1.412E3,5.69E2,4.79E2,1.02E2,3.021E3,1.001E3,6.41E2,5.89E2,1.516E3,4.52E2,5.89E2,1.82E2,1.021E3,3.91E2,4.28E2,1.41E2,3.77E2,1.02E2,7.9E1,2.3E1],"tree_param":{"num_deleted":"0","num_feature":"85","num_nodes":"31","size_leaf_vector":"1"}},{"base_weights":[6.8757676E-5,-1.9542427E-1,6.0965914E-1,-3.275024E-2,-5.0722396E-1,6.8702364E-1,4.063859E-1,-1.0013279E-1,1.8748757E-1,-5.310823E-1,-4.457159E-1,6.051495E-1,9.1704917E-1,5.0655407E-1,1.11384034E-1,-1.6983587E-2,2.5286055E-3,3.6856797E-2,-9.870235E-4,-5.4102268E-2,-3.58172E-2,-4.7236573E-2,-3.73558E-2,3.778761E-2,6.684587E-2,1.0251708E-1,5.346738E-2,2.3541095E-2,5.979408E-2,1.8798899E-2,-5.9276026E-2],"categories":[],"categories_nodes":[],"categories_segments":[],"categories_sizes":[],"default_left":[0,0,0,0,0,0,0,0,0,0,0,0,0,0,0,0,0,0,0,0,0,0,0,0,0,0,0,0,0,0,0],"id":3,"left_children":[1,3,5,7,9,11,13,15,17,19,21,23,25,27,29,-1,-1,-1,-1,-1,-1,-1,-1,-1,-1,-1,-1,-1,-1,-1,-1],"loss_changes":[1.2578464E3,4.0535135E2,4.0026855E1,7.7974266E1,3.7841187E0,3.4380554E1,2.0894379E1,3.5173683E1,4.3996662E1,3.1905518E0,1.3080902E0,1.9473999E1,1.9503265E1,1.296727E1,9.874743E0,0E0,0E0,0E0,0E0,0E0,0E0,0E0,0E0,0E0,0E0,0E0,0E0,0E0,0E0,0E0,0E0],"parents":[2147483647,0,0,1,1,2,2,3,3,4,4,5,5,6,6,7,7,8,8,9,9,10,10,11,11,12,12,13,13,14,14],"right_children":[2,4,6,8,10,12,14,16,18,20,22,24,26,28,30,-1,-1,-1,-1,-1,-1,-1,-1,-1,-1,-1,-1,-1,-1,-1,-1],"split_conditions":[1E0,1E0,1E0,1E0,1E0,1E0,1E0,1E0,1E0,9E0,1E0,4.89945E1,1E0,4.8754807E1,8E0,-1.6983587E-2,2.5286055E-3,3.6856797E-2,-9.870235E-4,-5.4102268E-2,-3.58172E-2,-4.7236573E-2,-3.73558E-2,3.778761E-2,6.684587E-2,1.0251708E-1,5.346738E-2,2.3541095E-2,5.979408E-2,1.8798899E-2,-5.9276026E-2],"split_indices":[15,12,11,11,4,80,56,10,13,0,24,84,79,84,3,0,0,0,0,0,0,0,0,0,0,0,0,0,0,0,0],"split_type":[0,0,0,0,0,0,0,0,0,0,0,0,0,0,0,0,0,0,0,0,0,0,0,0,0,0,0,0,0,0,0],"sum_hessian":[1.0553E4,7.991E3,2.562E3,5.252E3,2.739E3,1.854E3,7.08E2,4.022E3,1.23E3,1.968E3,7.71E2,1.37E3,4.84E2,5.28E2,1.8E2,2.585E3,1.437E3,6.41E2,5.89E2,1.859E3,1.09E2,5.59E2,2.12E2,3E2,1.07E3,3.76E2,1.08E2,1.34E2,3.94E2,1.63E2,1.7E1],"tree_param":{"num_deleted":"0","num_feature":"85","num_nodes":"31","size_leaf_vector":"1"}},{"base_weights":[7.613E-5,-1.75901E-1,5.488117E-1,-2.9471148E-2,-4.5656526E-1,6.1187404E-1,3.331098E-1,-9.012311E-2,1.6876793E-1,-4.7693086E-1,-3.8774127E-1,5.529419E-1,7.8874415E-1,2.3084E-1,5.318054E-1,-1.45589635E-2,4.2997724E-3,3.3176858E-2,-8.8848936E-4,-4.9930856E-2,-4.1897815E-2,-4.3346208E-2,-2.3692995E-2,6.244188E-2,3.910311E-2,8.405652E-2,1.5930787E-3,2.5934938E-2,-5.4521985E-2,6.871231E-2,2.3372158E-2],"categories":[],"categories_nodes":[],"categories_segments":[],"categories_sizes":[],"default_left":[0,0,0,0,0,0,0,0,0,0,0,0,0,0,0,0,0,0,0,0,0,0,0,0,0,0,0,0,0,0,0],"id":4,"left_children":[1,3,5,7,9,11,13,15,17,19,21,23,25,27,29,-1,-1,-1,-1,-1,-1,-1,-1,-1,-1,-1,-1,-1,-1,-1,-1],"loss_changes":[1.0192425E3,3.2843878E2,3.465979E1,6.3175125E1,3.6556396E0,2.02229E1,1.1703804E1,2.9711086E1,3.5649662E1,2.5271301E0,4.2481766E0,1.699942E1,1.9730225E1,8.681646E0,8.960049E0,0E0,0E0,0E0,0E0,0E0,0E0,0E0,0E0,0E0,0E0,0E0,0E0,0E0,0E0,0E0,0E0],"parents":[2147483647,0,0,1,1,2,2,3,3,4,4,5,5,6,6,7,7,8,8,9,9,10,10,11,11,12,12,13,13,14,14],"right_children":[2,4,6,8,10,12,14,16,18,20,22,24,26,28,30,-1,-1,-1,-1,-1,-1,-1,-1,-1,-1,-1,-1,-1,-1,-1,-1],"split_conditions":[1E0,1E0,7E0,1E0,1E0,1E0,5E0,1E0,1E0,1E0,7E0,1E0,6.0516216E1,1.1E1,1E0,-1.45589635E-2,4.2997724E-3,3.3176858E-2,-8.8848936E-4,-4.9930856E-2,-4.1897815E-2,-4.3346208E-2,-2.3692995E-2,6.244188E-2,3.910311E-2,8.405652E-2,1.5930787E-3,2.5934938E-2,-5.4521985E-2,6.871231E-2,2.3372158E-2],"split_indices":[15,12,3,11,37,8,0,4,13,4,0,82,84,3,31,0,0,0,0,0,0,0,0,0,0,0,0,0,0,0,0],"split_type":[0,0,0,0,0,0,0,0,0,0,0,0,0,0,0,0,0,0,0,0,0,0,0,0,0,0,0,0,0,0,0],"sum_hessian":[1.0553E4,7.991E3,2.562E3,5.252E3,2.739E3,1.981E3,5.81E2,4.022E3,1.23E3,2.109E3,6.3E2,1.489E3,4.92E2,3.85E2,1.96E2,2.839E3,1.183E3,6.41E2,5.89E2,1.516E3,5.93E2,4.82E2,1.48E2,1.031E3,4.58E2,4.61E2,3.1E1,3.72E2,1.3E1,1.28E2,6.8E1],"tree_param":{"num_deleted":"0","num_feature":"85","num_nodes":"31","size_leaf_vector":"1"}},{"base_weights":[7.930761E-5,-1.5832801E-1,4.940283E-1,-2.6519835E-2,-4.1096672E-1,5.6081724E-1,3.185875E-1,-8.1113346E-2,1.5191738E-1,-4.2928126E-1,-3.4907338E-1,4.8968497E-1,7.6073784E-1,4.0975142E-1,5.0387017E-2,-1.4403025E-2,3.2088456E-3,4.708284E-3,3.7701696E-2,-4.494106E-2,-3.771509E-2,-3.996952E-2,-2.1488348E-2,5.506224E-2,2.8449629E-2,8.5786425E-2,4.1782603E-2,3.1294346E-2,6.591915E-2,1.1748932E-2,-5.637888E-2],"categories":[],"categories_nodes":[],"categories_segments":[],"categories_sizes":[],"default_left":[0,0,0,0,0,0,0,0,0,0,0,0,0,0,0,0,0,0,0,0,0,0,0,0,0,0,0,0,0,0,0],"id":5,"left_children":[1,3,5,7,9,11,13,15,17,19,21,23,25,27,29,-1,-1,-1,-1,-1,-1,-1,-1,-1,-1,-1,-1,-1,-1,-1,-1],"loss_changes":[8.258774E2,2.6612146E2,2.9853271E1,5.1184498E1,2.9561157E0,2.6007141E1,1.7314552E1,2.8657658E1,2.903165E1,2.0446167E0,4.2004547E0,1.69859E1,1.5794861E1,1.2567886E1,7.525722E0,0E0,0E0,0E0,0E0,0E0,0E0,0E0,0E0,0E0,0E0,0E0,0E0,0E0,0E0,0E0,0E0],"parents":[2147483647,0,0,1,1,2,2,3,3,4,4,5,5,6,6,7,7,8,8,9,9,10,10,11,11,12,12,13,13,14,14],"right_children":[2,4,6,8,10,12,14,16,18,20,22,24,26,28,30,-1,-1,-1,-1,-1,-1,-1,-1,-1,-1,-1,-1,-1,-1,-1,-1],"split_conditions":[1E0,1E0,1E0,1E0,1E0,1E0,1E0,1E0,5.4544575E1,1E0,1E0,1E0,1E0,1E0,8E0,-1.4403025E-2,3.2088456E-3,4.708284E-3,3.7701696E-2,-4.494106E-2,-3.771509E-2,-3.996952E-2,-2.1488348E-2,5.506224E-2,2.8449629E-2,8.5786425E-2,4.1782603E-2,3.1294346E-2,6.591915E-2,1.1748932E-2,-5.637888E-2],"split_indices":[15,12,11,11,37,80,56,10,84,4,42,29,79,4,3,0,0,0,0,0,0,0,0,0,0,0,0,0,0,0,0],"split_type":[0,0,0,0,0,0,0,0,0,0,0,0,0,0,0,0,0,0,0,0,0,0,0,0,0,0,0,0,0,0,0],"sum_hessian":[1.0553E4,7.991E3,2.562E3,5.252E3,2.739E3,1.854E3,7.08E2,4.022E3,1.23E3,2.109E3,6.3E2,1.37E3,4.84E2,5.28E2,1.8E2,2.585E3,1.437E3,8.4E2,3.9E2,1.516E3,5.93E2,4.56E2,1.74E2,1.055E3,3.15E2,3.76E2,1.08E2,3.82E2,1.46E2,1.63E2,1.7E1],"tree_param":{"num_deleted":"0","num_feature":"85","num_nodes":"31","size_leaf_vector":"1"}},{"base_weights":[8.566121E-5,-1.4250934E-1,4.4472834E-1,-2.3861911E-2,-3.6992264E-1,3.8080388E-1,6.163335E-1,-8.388269E-2,1.2224348E-1,-3.8639233E-1,-3.1426343E-1,1.5153651E-1,4.3821105E-1,5.3648317E-1,8.7524635E-1,-1.2973991E-2,5.034651E-3,4.7172243E-3,3.78042E-2,-4.051342E-2,-3.312886E-2,-3.5552263E-2,-1.7840803E-2,3.1809818E-2,-2.2925211E-2,3.6826883E-2,6.230253E-2,7.291283E-3,6.279917E-2,9.522375E-2,-5.3940635E-2],"categories":[],"categories_nodes":[],"categories_segments":[],"categories_sizes":[],"default_left":[0,0,0,0,0,0,0,0,0,0,0,0,0,0,0,0,0,0,0,0,0,0,0,0,0,0,0,0,0,0,0],"id":6,"left_children":[1,3,5,7,9,11,13,15,17,19,21,23,25,27,29,-1,-1,-1,-1,-1,-1,-1,-1,-1,-1,-1,-1,-1,-1,-1,-1],"loss_changes":[6.692273E2,2.1563133E2,2.7880829E1,4.6075703E1,2.3902893E0,2.4545776E1,1.3878387E1,2.2929155E1,2.936293E1,2.0448914E0,3.473507E0,2.3920645E1,1.9095398E1,2.2564407E1,1.815799E1,0E0,0E0,0E0,0E0,0E0,0E0,0E0,0E0,0E0,0E0,0E0,0E0,0E0,0E0,0E0,0E0],"parents":[2147483647,0,0,1,1,2,2,3,3,4,4,5,5,6,6,7,7,8,8,9,9,10,10,11,11,12,12,13,13,14,14],"right_children":[2,4,6,8,10,12,14,16,18,20,22,24,26,28,30,-1,-1,-1,-1,-1,-1,-1,-1,-1,-1,-1,-1,-1,-1,-1,-1],"split_conditions":[1E0,1E0,1E0,1E0,1E0,4.8328903E1,1E0,1E0,1E0,1E0,7E0,1E0,1E0,3E0,6.2342747E1,-1.2973991E-2,5.034651E-3,4.7172243E-3,3.78042E-2,-4.051342E-2,-3.312886E-2,-3.5552263E-2,-1.7840803E-2,3.1809818E-2,-2.2925211E-2,3.6826883E-2,6.230253E-2,7.291283E-3,6.279917E-2,9.522375E-2,-5.3940635E-2],"split_indices":[15,12,22,4,37,84,8,22,11,22,0,43,44,1,84,0,0,0,0,0,0,0,0,0,0,0,0,0,0,0,0],"split_type":[0,0,0,0,0,0,0,0,0,0,0,0,0,0,0,0,0,0,0,0,0,0,0,0,0,0,0,0,0,0,0],"sum_hessian":[1.0553E4,7.991E3,2.562E3,5.252E3,2.739E3,1.869E3,6.93E2,3.723E3,1.529E3,2.109E3,6.3E2,3.75E2,1.494E3,5.32E2,1.61E2,2.775E3,9.48E2,1.183E3,3.46E2,1.569E3,5.4E2,4.82E2,1.48E2,2.61E2,1.14E2,1.086E3,4.08E2,8.8E1,4.44E2,1.53E2,8E0],"tree_param":{"num_deleted":"0","num_feature":"85","num_nodes":"31","size_leaf_vector":"1"}},{"base_weights":[8.912554E-5,-1.2826997E-1,4.003411E-1,-2.1469135E-2,-3.3297673E-1,4.526744E-1,2.2143236E-1,-6.847722E-2,1.3217424E-1,-3.5017794E-1,-2.826367E-1,3.968343E-1,5.903048E-1,1.5901373E-1,5.101654E-1,-2.3141014E-3,-2.0514144E-2,2.7493445E-2,-2.3392225E-3,-3.333206E-2,-4.1029323E-2,-3.1253736E-2,-1.9659879E-2,4.7989763E-2,1.79264E-2,6.637371E-2,3.6429938E-2,2.375893E-2,-1.3089471E-2,3.6614727E-2,9.689691E-2],"categories":[],"categories_nodes":[],"categories_segments":[],"categories_sizes":[],"default_left":[0,0,0,0,0,0,0,0,0,0,0,0,0,0,0,0,0,0,0,0,0,0,0,0,0,0,0,0,0,0,0],"id":7,"left_children":[1,3,5,7,9,11,13,15,17,19,21,23,25,27,29,-1,-1,-1,-1,-1,-1,-1,-1,-1,-1,-1,-1,-1,-1,-1,-1],"loss_changes":[5.422735E2,1.7472078E2,2.389685E1,3.7948746E1,2.2736206E0,1.4997986E1,1.0407866E1,2.492111E1,2.734534E1,1.9285126E0,1.7470856E0,2.544986E1,9.217987E0,1.0965362E1,6.45105E0,0E0,0E0,0E0,0E0,0E0,0E0,0E0,0E0,0E0,0E0,0E0,0E0,0E0,0E0,0E0,0E0],"parents":[2147483647,0,0,1,1,2,2,3,3,4,4,5,5,6,6,7,7,8,8,9,9,10,10,11,11,12,12,13,13,14,14],"right_children":[2,4,6,8,10,12,14,16,18,20,22,24,26,28,30,-1,-1,-1,-1,-1,-1,-1,-1,-1,-1,-1,-1,-1,-1,-1,-1],"split_conditions":[1E0,1E0,7E0,1E0,1E0,1E0,1E0,1E0,1E0,1E0,1E0,1E0,1E0,1E0,1E0,-2.3141014E-3,-2.0514144E-2,2.7493445E-2,-2.3392225E-3,-3.333206E-2,-4.1029323E-2,-3.1253736E-2,-1.9659879E-2,4.7989763E-2,1.79264E-2,6.637371E-2,3.6429938E-2,2.375893E-2,-1.3089471E-2,3.6614727E-2,9.689691E-2],"split_indices":[15,12,3,11,24,22,80,6,13,83,32,25,34,73,41,0,0,0,0,0,0,0,0,0,0,0,0,0,0,0,0],"split_type":[0,0,0,0,0,0,0,0,0,0,0,0,0,0,0,0,0,0,0,0,0,0,0,0,0,0,0,0,0,0,0],"sum_hessian":[1.0553E4,7.991E3,2.562E3,5.252E3,2.739E3,1.981E3,5.81E2,4.022E3,1.23E3,2.037E3,7.02E2,1.412E3,5.69E2,4.79E2,1.02E2,3.021E3,1.001E3,6.41E2,5.89E2,1.596E3,4.41E2,5.19E2,1.83E2,1.021E3,3.91E2,4.28E2,1.41E2,3.77E2,1.02E2,7.9E1,2.3E1],"tree_param":{"num_deleted":"0","num_feature":"85","num_nodes":"31","size_leaf_vector":"1"}},{"base_weights":[9.820753E-5,-1.1545836E-1,3.6042908E-1,-1.9321779E-2,-2.997248E-1,4.175179E-1,2.105557E-1,-7.191394E-2,1.0869948E-1,-2.8423128E-1,-3.55461E-1,4.749599E-1,2.2663069E-1,2.9331103E-1,-3.247262E-2,-3.0118267E-3,-2.06755E-2,4.477116E-3,3.265163E-2,-3.0120296E-2,-2.3142435E-2,-3.8576134E-2,-2.6754493E-2,4.0211987E-2,6.7637704E-2,2.6934793E-2,-6.2019866E-2,3.813861E-2,4.3450175E-3,4.9384627E-2,-1.0840258E-2],"categories":[],"categories_nodes":[],"categories_segments":[],"categories_sizes":[],"default_left":[0,0,0,0,0,0,0,0,0,0,0,0,0,0,0,0,0,0,0,0,0,0,0,0,0,0,0,0,0,0,0],"id":8,"left_children":[1,3,5,7,9,11,13,15,17,19,21,23,25,27,29,-1,-1,-1,-1,-1,-1,-1,-1,-1,-1,-1,-1,-1,-1,-1,-1],"loss_changes":[4.394954E2,1.4157045E2,2.184137E1,3.5375816E1,2.2650757E0,2.023233E1,1.4268858E1,2.0981398E1,2.1290113E1,1.8562775E0,1.4738083E0,2.0634491E1,1.5758135E1,1.1624874E1,7.286904E0,0E0,0E0,0E0,0E0,0E0,0E0,0E0,0E0,0E0,0E0,0E0,0E0,0E0,0E0,0E0,0E0],"parents":[2147483647,0,0,1,1,2,2,3,3,4,4,5,5,6,6,7,7,8,8,9,9,10,10,11,11,12,12,13,13,14,14],"right_children":[2,4,6,8,10,12,14,16,18,20,22,24,26,28,30,-1,-1,-1,-1,-1,-1,-1,-1,-1,-1,-1,-1,-1,-1,-1,-1],"split_conditions":[1E0,1E0,1E0,1E0,1E0,1E0,1E0,1E0,1E0,1E0,1E0,1E0,9E0,1E0,4E0,-3.0118267E-3,-2.06755E-2,4.477116E-3,3.265163E-2,-3.0120296E-2,-2.3142435E-2,-3.8576134E-2,-2.6754493E-2,4.0211987E-2,6.7637704E-2,2.6934793E-2,-6.2019866E-2,3.813861E-2,4.3450175E-3,4.9384627E-2,-1.0840258E-2],"split_indices":[15,12,11,4,7,79,56,9,11,49,22,80,3,73,2,0,0,0,0,0,0,0,0,0,0,0,0,0,0,0,0],"split_type":[0,0,0,0,0,0,0,0,0,0,0,0,0,0,0,0,0,0,0,0,0,0,0,0,0,0,0,0,0,0,0],"sum_hessian":[1.0553E4,7.991E3,2.562E3,5.252E3,2.739E3,1.854E3,7.08E2,3.723E3,1.529E3,2.148E3,5.91E2,1.424E3,4.3E2,5.28E2,1.8E2,2.843E3,8.8E2,1.183E3,3.46E2,1.622E3,5.26E2,4.37E2,1.54E2,1.048E3,3.76E2,4.1E2,2E1,3.9E2,1.38E2,2.2E1,1.58E2],"tree_param":{"num_deleted":"0","num_feature":"85","num_nodes":"31","size_leaf_vector":"1"}},{"base_weights":[9.2993796E-5,-1.0392569E-1,3.2444617E-1,-1.7387046E-2,-2.697956E-1,2.7451655E-1,4.8351017E-1,-6.472891E-2,9.785379E-2,-2.5470275E-1,-3.2099262E-1,-2.805152E-1,2.8805193E-1,5.880952E-1,1.7470063E-1,-1.0585036E-2,5.5627134E-3,4.029781E-3,2.9395878E-2,-1.8358191E-2,-2.6977396E-2,-3.3993345E-2,-2.4908205E-2,-4.1423876E-2,5.4279644E-2,3.4347545E-2,1.5646301E-2,4.2965137E-3,6.418479E-2,3.0474419E-2,-4.306679E-2],"categories":[],"categories_nodes":[],"categories_segments":[],"categories_sizes":[],"default_left":[0,0,0,0,0,0,0,0,0,0,0,0,0,0,0,0,0,0,0,0,0,0,0,0,0,0,0,0,0,0,0],"id":9,"left_children":[1,3,5,7,9,11,13,15,17,19,21,23,25,27,29,-1,-1,-1,-1,-1,-1,-1,-1,-1,-1,-1,-1,-1,-1,-1,-1],"loss_changes":[3.561129E2,1.1471372E2,2.0222626E1,2.8665207E1,2.0354614E0,1.4752853E1,1.9630646E1,1.8436764E1,1.725729E1,2.223938E0,7.598038E-1,5.3993664E0,1.3854248E1,1.3334213E1,1.2412229E1,0E0,0E0,0E0,0E0,0E0,0E0,0E0,0E0,0E0,0E0,0E0,0E0,0E0,0E0,0E0,0E0],"parents":[2147483647,0,0,1,1,2,2,3,3,4,4,5,5,6,6,7,7,8,8,9,9,10,10,11,11,12,12,13,13,14,14],"right_children":[2,4,6,8,10,12,14,16,18,20,22,24,26,28,30,-1,-1,-1,-1,-1,-1,-1,-1,-1,-1,-1,-1,-1,-1,-1,-1],"split_conditions":[1E0,1E0,1E0,1E0,1E0,4.3862656E1,1E0,1E0,1E0,3E0,1E0,1E0,1E0,4.644529E1,6E0,-1.0585036E-2,5.5627134E-3,4.029781E-3,2.9395878E-2,-1.8358191E-2,-2.6977396E-2,-3.3993345E-2,-2.4908205E-2,-4.1423876E-2,5.4279644E-2,3.4347545E-2,1.5646301E-2,4.2965137E-3,6.418479E-2,3.0474419E-2,-4.306679E-2],"split_indices":[15,12,8,4,21,84,64,22,11,3,5,58,82,84,1,0,0,0,0,0,0,0,0,0,0,0,0,0,0,0,0],"split_type":[0,0,0,0,0,0,0,0,0,0,0,0,0,0,0,0,0,0,0,0,0,0,0,0,0,0,0,0,0,0,0],"sum_hessian":[1.0553E4,7.991E3,2.562E3,5.252E3,2.739E3,1.952E3,6.1E2,3.723E3,1.529E3,2.12E3,6.19E2,4.6E1,1.906E3,4.55E2,1.55E2,2.775E3,9.48E2,1.183E3,3.46E2,3.73E2,1.747E3,4.87E2,1.32E2,4E1,6E0,1.34E3,5.66E2,4.1E1,4.14E2,1.28E2,2.7E1],"tree_param":{"num_deleted":"0","num_feature":"85","num_nodes":"31","size_leaf_vector":"1"}},{"base_weights":[8.776134E-5,-9.3542606E-2,2.920479E-1,-1.5642932E-2,-2.4285409E-1,2.3969878E-1,4.3268302E-1,-5.3583745E-2,1.08363196E-1,-2.601286E-1,-1.9848059E-1,-3.109914E-1,2.568706E-1,1.833788E-1,4.898216E-1,-1.0816902E-2,4.461591E-3,2.3611628E-2,-3.0833154E-3,-2.6864914E-2,-1.1368903E-2,-2.2090172E-2,-1.2510933E-2,-4.02137E-2,7.173502E-2,3.0843282E-2,1.1169841E-2,-3.0295788E-3,6.2137093E-2,3.144316E-2,5.9616175E-2],"categories":[],"categories_nodes":[],"categories_segments":[],"categories_sizes":[],"default_left":[0,0,0,0,0,0,0,0,0,0,0,0,0,0,0,0,0,0,0,0,0,0,0,0,0,0,0,0,0,0,0],"id":10,"left_children":[1,3,5,7,9,11,13,15,17,19,21,23,25,27,29,-1,-1,-1,-1,-1,-1,-1,-1,-1,-1,-1,-1,-1,-1,-1,-1],"loss_changes":[2.8853497E2,9.295367E1,1.8765411E1,2.4720612E1,2.0486755E0,1.7763245E1,9.796143E0,2.1569132E1,2.189786E1,2.4262543E0,1.2423534E0,5.631015E0,1.354406E1,1.2278825E1,1.0331711E1,0E0,0E0,0E0,0E0,0E0,0E0,0E0,0E0,0E0,0E0,0E0,0E0,0E0,0E0,0E0,0E0],"parents":[2147483647,0,0,1,1,2,2,3,3,4,4,5,5,6,6,7,7,8,8,9,9,10,10,11,11,12,12,13,13,14,14],"right_children":[2,4,6,8,10,12,14,16,18,20,22,24,26,28,30,-1,-1,-1,-1,-1,-1,-1,-1,-1,-1,-1,-1,-1,-1,-1,-1],"split_conditions":[1E0,1E0,1E0,1E0,1E0,2E0,3E0,1E0,1E0,9E0,1E0,1E0,1E0,1E0,4E0,-1.0816902E-2,4.461591E-3,2.3611628E-2,-3.0833154E-3,-2.6864914E-2,-1.1368903E-2,-2.2090172E-2,-1.2510933E-2,-4.02137E-2,7.173502E-2,3.0843282E-2,1.1169841E-2,-3.0295788E-3,6.2137093E-2,3.144316E-2,5.9616175E-2],"split_indices":[15,12,22,11,4,0,1,10,13,0,49,44,25,8,0,0,0,0,0,0,0,0,0,0,0,0,0,0,0,0,0],"split_type":[0,0,0,0,0,0,0,0,0,0,0,0,0,0,0,0,0,0,0,0,0,0,0,0,0,0,0,0,0,0,0],"sum_hessian":[1.0553E4,7.991E3,2.562E3,5.252E3,2.739E3,1.869E3,6.93E2,4.022E3,1.23E3,1.968E3,7.71E2,5.6E1,1.813E3,1.3E2,5.63E2,2.585E3,1.437E3,6.41E2,5.89E2,1.859E3,1.09E2,5.89E2,1.82E2,5.2E1,4E0,1.337E3,4.76E2,8.8E1,4.2E1,2.14E2,3.49E2],"tree_param":{"num_deleted":"0","num_feature":"85","num_nodes":"31","size_leaf_vector":"1"}},{"base_weights":[9.462213E-5,-8.419569E-2,2.629304E-1,-1.4075943E-2,-2.1859527E-1,2.153691E-1,3.9835286E-1,-5.6789137E-2,8.989662E-2,-2.3350346E-1,-1.6839734E-1,2.6412147E-1,5.358888E-2,4.6828648E-1,1.4654581E-1,-1.9404454E-3,-1.8375058E-2,4.1943355E-3,2.5325907E-2,-2.4908215E-2,-1.8786201E-2,-2.1396518E-2,-4.843788E-3,2.0865303E-2,4.439878E-2,-3.7200374E-3,2.859872E-2,-1.25893755E-2,4.9603708E-2,1.7189572E-3,4.2738136E-2],"categories":[],"categories_nodes":[],"categories_segments":[],"categories_sizes":[],"default_left":[0,0,0,0,0,0,0,0,0,0,0,0,0,0,0,0,0,0,0,0,0,0,0,0,0,0,0,0,0,0,0],"id":11,"left_children":[1,3,5,7,9,11,13,15,17,19,21,23,25,27,29,-1,-1,-1,-1,-1,-1,-1,-1,-1,-1,-1,-1,-1,-1,-1,-1],"loss_changes":[2.3384082E2,7.531404E1,1.642215E1,2.333368E1,2.0112E0,1.4963585E1,1.16418915E1,1.7672077E1,1.1975034E1,1.4534912E0,3.4388657E0,1.4463669E1,9.315416E0,8.636642E0,5.2965174E0,0E0,0E0,0E0,0E0,0E0,0E0,0E0,0E0,0E0,0E0,0E0,0E0,0E0,0E0,0E0,0E0],"parents":[2147483647,0,0,1,1,2,2,3,3,4,4,5,5,6,6,7,7,8,8,9,9,10,10,11,11,12,12,13,13,14,14],"right_children":[2,4,6,8,10,12,14,16,18,20,22,24,26,28,30,-1,-1,-1,-1,-1,-1,-1,-1,-1,-1,-1,-1,-1,-1,-1,-1],"split_conditions":[1E0,1E0,1E0,1E0,1E0,1E0,1E0,1E0,1E0,1E0,1E0,1E0,1E0,4.5019E1,1E0,-1.9404454E-3,-1.8375058E-2,4.1943355E-3,2.5325907E-2,-2.4908215E-2,-1.8786201E-2,-2.1396518E-2,-4.843788E-3,2.0865303E-2,4.439878E-2,-3.7200374E-3,2.859872E-2,-1.25893755E-2,4.9603708E-2,1.7189572E-3,4.2738136E-2],"split_indices":[15,12,80,4,37,47,20,47,11,22,42,8,58,84,52,0,0,0,0,0,0,0,0,0,0,0,0,0,0,0,0],"split_type":[0,0,0,0,0,0,0,0,0,0,0,0,0,0,0,0,0,0,0,0,0,0,0,0,0,0,0,0,0,0,0],"sum_hessian":[1.0553E4,7.991E3,2.562E3,5.252E3,2.739E3,1.898E3,6.64E2,3.723E3,1.529E3,2.109E3,6.3E2,1.458E3,4.4E2,5.19E2,1.45E2,2.877E3,8.46E2,1.183E3,3.46E2,1.569E3,5.4E2,4.56E2,1.74E2,1.116E3,3.42E2,3.17E2,1.23E2,2.3E1,4.96E2,1E2,4.5E1],"tree_param":{"num_deleted":"0","num_feature":"85","num_nodes":"31","size_leaf_vector":"1"}},{"base_weights":[9.5665535E-5,-7.578372E-2,2.367043E-1,-1.2666596E-2,-1.9676127E-1,2.783188E-1,9.457955E-2,-5.0310075E-2,9.117168E-2,-2.1206854E-1,-1.5210551E-1,3.2096294E-1,1.3811451E-1,1.5464723E-1,-1.5069221E-1,-1.361421E-3,-1.6841251E-2,1.1662705E-2,-2.3000615E-2,-2.2897163E-2,-1.6354246E-2,-1.2457497E-2,-2.2525242E-2,-2.7490154E-2,3.3685055E-2,5.7756104E-2,8.004097E-3,6.7932415E-3,3.5527002E-2,-2.8591586E-2,3.4754954E-2],"categories":[],"categories_nodes":[],"categories_segments":[],"categories_sizes":[],"default_left":[0,0,0,0,0,0,0,0,0,0,0,0,0,0,0,0,0,0,0,0,0,0,0,0,0,0,0,0,0,0,0],"id":12,"left_children":[1,3,5,7,9,11,13,15,17,19,21,23,25,27,29,-1,-1,-1,-1,-1,-1,-1,-1,-1,-1,-1,-1,-1,-1,-1,-1],"loss_changes":[1.895015E2,6.1022457E1,1.51324005E1,2.0537691E1,1.8406906E0,1.1805847E1,8.597855E0,1.6709114E1,1.1456449E1,1.6342087E0,1.3876209E0,1.4472733E1,1.1795152E1,8.117646E0,7.8473864E0,0E0,0E0,0E0,0E0,0E0,0E0,0E0,0E0,0E0,0E0,0E0,0E0,0E0,0E0,0E0,0E0],"parents":[2147483647,0,0,1,1,2,2,3,3,4,4,5,5,6,6,7,7,8,8,9,9,10,10,11,11,12,12,13,13,14,14],"right_children":[2,4,6,8,10,12,14,16,18,20,22,24,26,28,30,-1,-1,-1,-1,-1,-1,-1,-1,-1,-1,-1,-1,-1,-1,-1,-1],"split_conditions":[1E0,1E0,7E0,1E0,1E0,1E0,1E0,1E0,6.321032E1,1E0,1E0,2E0,4E0,5E0,1E0,-1.361421E-3,-1.6841251E-2,1.1662705E-2,-2.3000615E-2,-2.2897163E-2,-1.6354246E-2,-1.2457497E-2,-2.2525242E-2,-2.7490154E-2,3.3685055E-2,5.7756104E-2,8.004097E-3,6.7932415E-3,3.5527002E-2,-2.8591586E-2,3.4754954E-2],"split_indices":[15,12,3,22,24,29,56,56,84,52,38,0,2,0,25,0,0,0,0,0,0,0,0,0,0,0,0,0,0,0,0],"split_type":[0,0,0,0,0,0,0,0,0,0,0,0,0,0,0,0,0,0,0,0,0,0,0,0,0,0,0,0,0,0,0],"sum_hessian":[1.0553E4,7.991E3,2.562E3,5.252E3,2.739E3,1.981E3,5.81E2,3.855E3,1.397E3,2.037E3,7.02E2,1.518E3,4.63E2,4.67E2,1.14E2,2.942E3,9.13E2,1.295E3,1.02E2,1.508E3,5.29E2,5.12E2,1.9E2,3.9E1,1.479E3,5.3E1,4.1E2,3.27E2,1.4E2,9E1,2.4E1],"tree_param":{"num_deleted":"0","num_feature":"85","num_nodes":"31","size_leaf_vector":"1"}},{"base_weights":[8.768371E-5,-6.821833E-2,2.1308088E-1,-1.140556E-2,-1.7711222E-1,1.6678941E-1,3.3750737E-1,2.2096531E-2,-1.2111631E-1,-1.9266866E-1,-1.3720584E-1,1.158878E-1,3.1070364E-1,3.4948617E-1,-6.13045E-1,4.4546905E-3,-1.6968843E-2,1.6274386E-3,-2.1161959E-2,-2.0016989E-2,-6.4078323E-3,-1.5824579E-2,-6.763208E-3,1.3750771E-2,-4.1874867E-2,-3.0195006E-4,3.713079E-2,2.8349847E-2,5.71858E-2,3.5951637E-2,-9.422791E-2],"categories":[],"categories_nodes":[],"categories_segments":[],"categories_sizes":[],"default_left":[0,0,0,0,0,0,0,0,0,0,0,0,0,0,0,0,0,0,0,0,0,0,0,0,0,0,0,0,0,0,0],"id":13,"left_children":[1,3,5,7,9,11,13,15,17,19,21,23,25,27,29,-1,-1,-1,-1,-1,-1,-1,-1,-1,-1,-1,-1,-1,-1,-1,-1],"loss_changes":[1.5356169E2,4.9441E1,1.4706306E1,1.9310284E1,1.6745529E0,1.3662613E1,8.116463E0,1.7337776E1,1.528521E1,1.8864441E0,1.1193724E0,1.6043394E1,9.279446E0,9.904114E0,3.220568E0,0E0,0E0,0E0,0E0,0E0,0E0,0E0,0E0,0E0,0E0,0E0,0E0,0E0,0E0,0E0,0E0],"parents":[2147483647,0,0,1,1,2,2,3,3,4,4,5,5,6,6,7,7,8,8,9,9,10,10,11,11,12,12,13,13,14,14],"right_children":[2,4,6,8,10,12,14,16,18,20,22,24,26,28,30,-1,-1,-1,-1,-1,-1,-1,-1,-1,-1,-1,-1,-1,-1,-1,-1],"split_conditions":[1E0,1E0,1E0,1E0,1E0,1E0,6.432224E1,6.1437923E1,4E0,9E0,1E0,5.9839466E1,4.8328903E1,1E0,1E0,4.4546905E-3,-1.6968843E-2,1.6274386E-3,-2.1161959E-2,-2.0016989E-2,-6.4078323E-3,-1.5824579E-2,-6.763208E-3,1.3750771E-2,-4.1874867E-2,-3.0195006E-4,3.713079E-2,2.8349847E-2,5.71858E-2,3.5951637E-2,-9.422791E-2],"split_indices":[15,12,22,9,4,44,84,84,3,0,65,84,84,8,38,0,0,0,0,0,0,0,0,0,0,0,0,0,0,0,0],"split_type":[0,0,0,0,0,0,0,0,0,0,0,0,0,0,0,0,0,0,0,0,0,0,0,0,0,0,0,0,0,0,0],"sum_hessian":[1.0553E4,7.991E3,2.562E3,5.252E3,2.739E3,1.869E3,6.93E2,4.024E3,1.228E3,1.968E3,7.71E2,1.382E3,4.87E2,6.85E2,8E0,3.603E3,4.21E2,4.88E2,7.4E2,1.859E3,1.09E2,5.91E2,1.8E2,1.329E3,5.3E1,7.9E1,4.08E2,5.3E2,1.55E2,2E0,6E0],"tree_param":{"num_deleted":"0","num_feature":"85","num_nodes":"31","size_leaf_vector":"1"}},{"base_weights":[7.463829E-5,-6.1406646E-2,1.9178683E-1,-1.0271105E-2,-1.594189E-1,2.3726538E-1,7.252803E-2,-4.852604E-2,8.284762E-2,-1.7283566E-1,-1.1430197E-1,2.863083E-1,7.456598E-2,1.3887149E-1,-1.694709E-1,-6.727382E-3,1.7453937E-2,3.2412743E-3,2.2621414E-2,-1.5952677E-2,-2.1906247E-2,-1.5536219E-2,-6.42299E-4,2.2592323E-2,4.41018E-2,1.1035374E-2,-6.294023E-2,2.0229368E-2,-5.7038134E-3,-6.721649E-3,-5.3926833E-2],"categories":[],"categories_nodes":[],"categories_segments":[],"categories_sizes":[],"default_left":[0,0,0,0,0,0,0,0,0,0,0,0,0,0,0,0,0,0,0,0,0,0,0,0,0,0,0,0,0,0,0],"id":14,"left_children":[1,3,5,7,9,11,13,15,17,19,21,23,25,27,29,-1,-1,-1,-1,-1,-1,-1,-1,-1,-1,-1,-1,-1,-1,-1,-1],"loss_changes":[1.2440872E2,4.005355E1,1.3883781E1,1.8716522E1,1.6388321E0,1.4780174E1,1.1406563E1,1.5585442E1,1.1055594E1,1.2631836E0,2.7940378E0,1.3212929E1,1.0927834E1,6.932275E0,5.7492056E0,0E0,0E0,0E0,0E0,0E0,0E0,0E0,0E0,0E0,0E0,0E0,0E0,0E0,0E0,0E0,0E0],"parents":[2147483647,0,0,1,1,2,2,3,3,4,4,5,5,6,6,7,7,8,8,9,9,10,10,11,11,12,12,13,13,14,14],"right_children":[2,4,6,8,10,12,14,16,18,20,22,24,26,28,30,-1,-1,-1,-1,-1,-1,-1,-1,-1,-1,-1,-1,-1,-1,-1,-1],"split_conditions":[1E0,1E0,1E0,1E0,1E0,1E0,1E0,1E1,1E0,1E0,1E0,1E0,9E0,1E0,1E0,-6.727382E-3,1.7453937E-2,3.2412743E-3,2.2621414E-2,-1.5952677E-2,-2.1906247E-2,-1.5536219E-2,-6.42299E-4,2.2592323E-2,4.41018E-2,1.1035374E-2,-6.294023E-2,2.0229368E-2,-5.7038134E-3,-6.721649E-3,-5.3926833E-2],"split_indices":[15,12,11,4,37,79,51,2,68,21,42,30,3,56,55,0,0,0,0,0,0,0,0,0,0,0,0,0,0,0,0],"split_type":[0,0,0,0,0,0,0,0,0,0,0,0,0,0,0,0,0,0,0,0,0,0,0,0,0,0,0,0,0,0,0],"sum_hessian":[1.0553E4,7.991E3,2.562E3,5.252E3,2.739E3,1.854E3,7.08E2,3.723E3,1.529E3,2.109E3,6.3E2,1.424E3,4.3E2,5.56E2,1.52E2,3.435E3,2.88E2,1.132E3,3.97E2,1.641E3,4.68E2,4.56E2,1.74E2,1.026E3,3.98E2,4.1E2,2E1,4.2E2,1.36E2,1.2E2,3.2E1],"tree_param":{"num_deleted":"0","num_feature":"85","num_nodes":"31","size_leaf_vector":"1"}},{"base_weights":[6.2556814E-5,-5.526816E-2,1.7259593E-1,-9.23703E-3,-1.4349672E-1,1.3106258E-1,2.9094064E-1,-4.479706E-2,8.818631E-2,-1.3102707E-1,-1.8852001E-1,8.155351E-2,2.564812E-1,3.521106E-1,7.108233E-2,-1.0414001E-3,-1.4448692E-2,3.742693E-3,2.3324974E-2,-1.4559316E-2,-8.591929E-3,-1.6275657E-2,-2.594822E-2,3.2411888E-3,2.2590213E-2,1.6225684E-2,5.2773666E-2,2.8052494E-2,5.760771E-2,1.9781942E-2,-1.838425E-2],"categories":[],"categories_nodes":[],"categories_segments":[],"categories_sizes":[],"default_left":[0,0,0,0,0,0,0,0,0,0,0,0,0,0,0,0,0,0,0,0,0,0,0,0,0,0,0,0,0,0,0],"id":15,"left_children":[1,3,5,7,9,11,13,15,17,19,21,23,25,27,29,-1,-1,-1,-1,-1,-1,-1,-1,-1,-1,-1,-1,-1,-1,-1,-1],"loss_changes":[1.007622E2,3.245627E1,1.2559662E1,1.820232E1,1.5136032E0,1.1770653E1,8.918369E0,1.3191492E1,1.0336749E1,1.3994789E0,1.040081E0,9.661154E0,1.3639484E1,8.175446E0,4.753398E0,0E0,0E0,0E0,0E0,0E0,0E0,0E0,0E0,0E0,0E0,0E0,0E0,0E0,0E0,0E0,0E0],"parents":[2147483647,0,0,1,1,2,2,3,3,4,4,5,5,6,6,7,7,8,8,9,9,10,10,11,11,12,12,13,13,14,14],"right_children":[2,4,6,8,10,12,14,16,18,20,22,24,26,28,30,-1,-1,-1,-1,-1,-1,-1,-1,-1,-1,-1,-1,-1,-1,-1,-1],"split_conditions":[1E0,1E0,1E0,1E0,1E0,1E0,1E0,1E0,1E0,1E0,1E0,1E0,1E0,1E0,1E0,-1.0414001E-3,-1.4448692E-2,3.742693E-3,2.3324974E-2,-1.4559316E-2,-8.591929E-3,-1.6275657E-2,-2.594822E-2,3.2411888E-3,2.2590213E-2,1.6225684E-2,5.2773666E-2,2.8052494E-2,5.760771E-2,1.9781942E-2,-1.838425E-2],"split_indices":[15,12,80,80,7,4,20,6,22,49,20,22,36,57,25,0,0,0,0,0,0,0,0,0,0,0,0,0,0,0,0],"split_type":[0,0,0,0,0,0,0,0,0,0,0,0,0,0,0,0,0,0,0,0,0,0,0,0,0,0,0,0,0,0,0],"sum_hessian":[1.0553E4,7.991E3,2.562E3,5.252E3,2.739E3,1.898E3,6.64E2,3.848E3,1.404E3,2.148E3,5.91E2,1.362E3,5.36E2,5.19E2,1.45E2,2.862E3,9.86E2,1.041E3,3.63E2,1.622E3,5.26E2,4.36E2,1.55E2,1.017E3,3.45E2,3.99E2,1.37E2,3.95E2,1.24E2,9.7E1,4.8E1],"tree_param":{"num_deleted":"0","num_feature":"85","num_nodes":"31","size_leaf_vector":"1"}},{"base_weights":[6.843906E-5,-4.9748074E-2,1.5540731E-1,-8.3111245E-3,-1.2917091E-1,-2.7883494E-1,1.6610579E-1,2.1655617E-2,-1.1644697E-1,-1.4285593E-1,-8.931423E-2,-3.85829E-1,3.9411122E-1,2.0885491E-1,5.727477E-2,-1.4435762E-3,1.2331412E-2,-1.5032025E-2,1.3472286E-2,-1.2808054E-2,-1.95918E-2,-1.1504554E-2,-1.6109924E-3,-4.7212593E-2,5.543059E-2,-2.8777117E-2,1.3184069E-1,1.5961273E-2,3.435281E-2,1.3473108E-2,-1.7896231E-2],"categories":[],"categories_nodes":[],"categories_segments":[],"categories_sizes":[],"default_left":[0,0,0,0,0,0,0,0,0,0,0,0,0,0,0,0,0,0,0,0,0,0,0,0,0,0,0,0,0,0,0],"id":16,"left_children":[1,3,5,7,9,11,13,15,17,19,21,23,25,27,29,-1,-1,-1,-1,-1,-1,-1,-1,-1,-1,-1,-1,-1,-1,-1,-1],"loss_changes":[8.167924E1,2.6300919E1,1.1953339E1,1.7024757E1,1.4817467E0,4.6161375E0,1.1628418E1,1.5096029E1,9.719312E0,1.5727272E0,1.3223476E0,4.642762E0,6.0517483E0,1.185553E1,1.29608345E1,0E0,0E0,0E0,0E0,0E0,0E0,0E0,0E0,0E0,0E0,0E0,0E0,0E0,0E0,0E0,0E0],"parents":[2147483647,0,0,1,1,2,2,3,3,4,4,5,5,6,6,7,7,8,8,9,9,10,10,11,11,12,12,13,13,14,14],"right_children":[2,4,6,8,10,12,14,16,18,20,22,24,26,28,30,-1,-1,-1,-1,-1,-1,-1,-1,-1,-1,-1,-1,-1,-1,-1,-1],"split_conditions":[1E0,1E0,4.3862656E1,1E0,1E0,1E0,1E0,1E0,9E0,1E0,1E0,1E0,1E0,1E0,1E0,-1.4435762E-3,1.2331412E-2,-1.5032025E-2,1.3472286E-2,-1.2808054E-2,-1.95918E-2,-1.1504554E-2,-1.6109924E-3,-4.7212593E-2,5.543059E-2,-2.8777117E-2,1.3184069E-1,1.5961273E-2,3.435281E-2,1.3473108E-2,-1.7896231E-2],"split_indices":[15,12,84,43,24,58,82,80,2,83,32,42,65,44,56,0,0,0,0,0,0,0,0,0,0,0,0,0,0,0,0],"split_type":[0,0,0,0,0,0,0,0,0,0,0,0,0,0,0,0,0,0,0,0,0,0,0,0,0,0,0,0,0,0,0],"sum_hessian":[1.0553E4,7.991E3,2.562E3,5.252E3,2.739E3,6.1E1,2.501E3,4.113E3,1.139E3,2.037E3,7.02E2,5.3E1,8E0,1.795E3,7.06E2,3.036E3,1.077E3,1.004E3,1.35E2,1.596E3,4.41E2,5.19E2,1.83E2,4.9E1,4E0,5E0,3E0,1.316E3,4.79E2,5.32E2,1.74E2],"tree_param":{"num_deleted":"0","num_feature":"85","num_nodes":"31","size_leaf_vector":"1"}},{"base_weights":[7.3053176E-5,-4.47778E-2,1.399279E-1,-7.4782353E-3,-1.16270445E-1,1.803511E-1,3.396884E-2,-3.9017756E-2,9.560135E-2,-1.0392125E-1,-1.583291E-1,2.231213E-1,3.8523056E-2,9.4237834E-2,-1.8566383E-1,-8.523307E-3,4.4119805E-3,1.3500288E-3,2.7194763E-2,-8.49125E-3,-1.4189928E-2,-1.3343762E-2,-2.1353856E-2,1.6840896E-2,3.6338806E-2,5.754599E-2,-5.981806E-4,3.4059815E-3,2.8967125E-2,-2.9026417E-2,1.2753362E-2],"categories":[],"categories_nodes":[],"categories_segments":[],"categories_sizes":[],"default_left":[0,0,0,0,0,0,0,0,0,0,0,0,0,0,0,0,0,0,0,0,0,0,0,0,0,0,0,0,0,0,0],"id":17,"left_children":[1,3,5,7,9,11,13,15,17,19,21,23,25,27,29,-1,-1,-1,-1,-1,-1,-1,-1,-1,-1,-1,-1,-1,-1,-1,-1],"loss_changes":[6.620738E1,2.1310957E1,1.0971733E1,1.708166E1,1.4066772E0,1.1243866E1,9.402558E0,1.5461044E1,1.7819012E1,1.5191326E0,8.235378E-1,1.0874702E1,1.0302748E1,6.540897E0,5.0493827E0,0E0,0E0,0E0,0E0,0E0,0E0,0E0,0E0,0E0,0E0,0E0,0E0,0E0,0E0,0E0,0E0],"parents":[2147483647,0,0,1,1,2,2,3,3,4,4,5,5,6,6,7,7,8,8,9,9,10,10,11,11,12,12,13,13,14,14],"right_children":[2,4,6,8,10,12,14,16,18,20,22,24,26,28,30,-1,-1,-1,-1,-1,-1,-1,-1,-1,-1,-1,-1,-1,-1,-1,-1],"split_conditions":[1E0,1E0,1E0,1E0,1E0,1E0,1E0,1E0,5.4544575E1,1E0,1E0,1E0,4E0,1E0,1E0,-8.523307E-3,4.4119805E-3,1.3500288E-3,2.7194763E-2,-8.49125E-3,-1.4189928E-2,-1.3343762E-2,-2.1353856E-2,1.6840896E-2,3.6338806E-2,5.754599E-2,-5.981806E-4,3.4059815E-3,2.8967125E-2,-2.9026417E-2,1.2753362E-2],"split_indices":[15,12,11,11,21,79,51,10,84,20,34,30,3,24,45,0,0,0,0,0,0,0,0,0,0,0,0,0,0,0,0],"split_type":[0,0,0,0,0,0,0,0,0,0,0,0,0,0,0,0,0,0,0,0,0,0,0,0,0,0,0,0,0,0,0],"sum_hessian":[1.0553E4,7.991E3,2.562E3,5.252E3,2.739E3,1.854E3,7.08E2,4.022E3,1.23E3,2.12E3,6.19E2,1.424E3,4.3E2,5.56E2,1.52E2,2.585E3,1.437E3,8.4E2,3.9E2,1.415E3,7.05E2,4.29E2,1.9E2,1.026E3,3.98E2,3.2E1,3.98E2,4.26E2,1.3E2,1.14E2,3.8E1],"tree_param":{"num_deleted":"0","num_feature":"85","num_nodes":"31","size_leaf_vector":"1"}},{"base_weights":[7.4588104E-5,-4.0304143E-2,1.2598436E-1,-6.725762E-3,-1.0466433E-1,8.7941594E-2,2.2830999E-1,2.2855626E-2,-1.0963703E-1,-1.1676607E-1,-6.403148E-2,-3.4194547E-1,1.0140114E-1,2.881902E-1,4.0586393E-2,5.3665764E-3,-7.916405E-3,-2.0167708E-2,-5.207175E-3,-1.0353055E-2,-1.5286288E-2,-9.886267E-3,4.93074E-3,-4.2145904E-2,5.6928754E-2,1.4414168E-2,-2.545542E-3,1.3372853E-2,3.856326E-2,-1.143385E-2,4.700314E-2],"categories":[],"categories_nodes":[],"categories_segments":[],"categories_sizes":[],"default_left":[0,0,0,0,0,0,0,0,0,0,0,0,0,0,0,0,0,0,0,0,0,0,0,0,0,0,0,0,0,0,0],"id":18,"left_children":[1,3,5,7,9,11,13,15,17,19,21,23,25,27,29,-1,-1,-1,-1,-1,-1,-1,-1,-1,-1,-1,-1,-1,-1,-1,-1],"loss_changes":[5.3662426E1,1.7270893E1,9.957039E0,1.5993995E1,1.339859E0,1.0854653E1,7.789501E0,1.2831811E1,6.204417E0,9.922466E-1,2.495891E0,4.369889E0,9.8390255E0,7.8653183E0,1.1297603E1,0E0,0E0,0E0,0E0,0E0,0E0,0E0,0E0,0E0,0E0,0E0,0E0,0E0,0E0,0E0,0E0],"parents":[2147483647,0,0,1,1,2,2,3,3,4,4,5,5,6,6,7,7,8,8,9,9,10,10,11,11,12,12,13,13,14,14],"right_children":[2,4,6,8,10,12,14,16,18,20,22,24,26,28,30,-1,-1,-1,-1,-1,-1,-1,-1,-1,-1,-1,-1,-1,-1,-1,-1],"split_conditions":[1E0,1E0,1E0,1E0,1E0,2E0,1E0,1E0,5.1395134E1,1E0,7E0,1E0,1E0,4E0,1E0,5.3665764E-3,-7.916405E-3,-2.0167708E-2,-5.207175E-3,-1.0353055E-2,-1.5286288E-2,-9.886267E-3,4.93074E-3,-4.2145904E-2,5.6928754E-2,1.4414168E-2,-2.545542E-3,1.3372853E-2,3.856326E-2,-1.143385E-2,4.700314E-2],"split_indices":[15,12,22,47,37,0,64,9,84,20,0,44,56,0,49,0,0,0,0,0,0,0,0,0,0,0,0,0,0,0,0],"split_type":[0,0,0,0,0,0,0,0,0,0,0,0,0,0,0,0,0,0,0,0,0,0,0,0,0,0,0,0,0,0,0],"sum_hessian":[1.0553E4,7.991E3,2.562E3,5.252E3,2.739E3,1.869E3,6.93E2,4.08E3,1.172E3,2.109E3,6.3E2,5.6E1,1.813E3,5.25E2,1.68E2,3.134E3,9.46E2,4.5E2,7.22E2,1.546E3,5.63E2,4.82E2,1.48E2,5.2E1,4E0,1.356E3,4.57E2,2.04E2,3.21E2,1.24E2,4.4E1],"tree_param":{"num_deleted":"0","num_feature":"85","num_nodes":"31","size_leaf_vector":"1"}},{"base_weights":[7.2393916E-5,-3.6281057E-2,1.13430455E-1,-6.058501E-3,-9.420909E-2,1.514325E-1,1.4998002E-2,2.5638606E-2,-9.8730735E-2,-8.297855E-2,-1.3481756E-1,2.0273305E-1,-6.6446317E-3,-2.6882237E-1,8.3956085E-2,-1.1359855E-2,5.057702E-3,-4.4981106E-3,-2.7850633E-2,-9.618596E-3,-4.214627E-3,-1.5685147E-2,-7.168421E-3,2.383918E-2,-5.933435E-3,-7.7368305E-3,1.8430581E-2,3.143777E-2,-3.3099543E-2,1.5850829E-2,-1.26926E-2],"categories":[],"categories_nodes":[],"categories_segments":[],"categories_sizes":[],"default_left":[0,0,0,0,0,0,0,0,0,0,0,0,0,0,0,0,0,0,0,0,0,0,0,0,0,0,0,0,0,0,0],"id":19,"left_children":[1,3,5,7,9,11,13,15,17,19,21,23,25,27,29,-1,-1,-1,-1,-1,-1,-1,-1,-1,-1,-1,-1,-1,-1,-1,-1],"loss_changes":[4.3496693E1,1.3991288E1,9.584972E0,1.5432912E1,1.2384033E0,1.4995716E1,1.401634E1,1.360001E1,1.2926059E1,1.1548786E0,8.122721E-1,1.305975E1,6.1454005E0,5.1803646E0,9.075831E0,0E0,0E0,0E0,0E0,0E0,0E0,0E0,0E0,0E0,0E0,0E0,0E0,0E0,0E0,0E0,0E0],"parents":[2147483647,0,0,1,1,2,2,3,3,4,4,5,5,6,6,7,7,8,8,9,9,10,10,11,11,12,12,13,13,14,14],"right_children":[2,4,6,8,10,12,14,16,18,20,22,24,26,28,30,-1,-1,-1,-1,-1,-1,-1,-1,-1,-1,-1,-1,-1,-1,-1,-1],"split_conditions":[1E0,1E0,1E0,1E0,1E0,1E0,4.8681087E1,4.883475E1,1E0,1E0,1E0,8E0,1E0,4E0,6E0,-1.1359855E-2,5.057702E-3,-4.4981106E-3,-2.7850633E-2,-9.618596E-3,-4.214627E-3,-1.5685147E-2,-7.168421E-3,2.383918E-2,-5.933435E-3,-7.7368305E-3,1.8430581E-2,3.143777E-2,-3.3099543E-2,1.5850829E-2,-1.26926E-2],"split_indices":[15,12,6,6,7,64,84,84,8,49,22,3,44,2,0,0,0,0,0,0,0,0,0,0,0,0,0,0,0,0,0],"split_type":[0,0,0,0,0,0,0,0,0,0,0,0,0,0,0,0,0,0,0,0,0,0,0,0,0,0,0,0,0,0,0],"sum_hessian":[1.0553E4,7.991E3,2.562E3,5.252E3,2.739E3,1.848E3,7.14E2,3.914E3,1.338E3,2.148E3,5.91E2,1.395E3,4.53E2,1.39E2,5.75E2,5.94E2,3.32E3,1.031E3,3.07E2,1.622E3,5.26E2,4.37E2,1.54E2,1.228E3,1.67E2,3.31E2,1.22E2,1.3E1,1.26E2,4.25E2,1.5E2],"tree_param":{"num_deleted":"0","num_feature":"85","num_nodes":"31","size_leaf_vector":"1"}},{"base_weights":[6.0863422E-5,-3.266238E-2,1.0209914E-1,-5.6843568E-2,3.417003E-2,6.8953104E-2,2.0788E-1,-3.2740068E-2,-1.3412407E-1,-1.49810705E-2,1.4085762E-1,3.395661E-2,1.8023969E-1,2.9966602E-1,-6.1750107E-2,-4.9220063E-3,8.897695E-3,-1.689961E-2,-3.985466E-3,4.2108004E-3,-1.5960732E-2,-1.305047E-2,1.9910265E-2,2.6463343E-2,1.3513414E-3,2.845862E-2,-1.453647E-2,3.3144873E-2,-4.9212698E-2,5.589814E-3,-6.0156703E-2],"categories":[],"categories_nodes":[],"categories_segments":[],"categories_sizes":[],"default_left":[0,0,0,0,0,0,0,0,0,0,0,0,0,0,0,0,0,0,0,0,0,0,0,0,0,0,0,0,0,0,0],"id":20,"left_children":[1,3,5,7,9,11,13,15,17,19,21,23,25,27,29,-1,-1,-1,-1,-1,-1,-1,-1,-1,-1,-1,-1,-1,-1,-1,-1],"loss_changes":[3.524339E1,1.2917708E1,8.972099E0,1.0927973E1,1.1139968E1,7.600111E0,1.5139698E1,8.9807625E0,4.5791397E0,1.2020042E1,1.0615672E1,7.0087776E0,1.5908011E1,1.1638504E1,9.940954E0,0E0,0E0,0E0,0E0,0E0,0E0,0E0,0E0,0E0,0E0,0E0,0E0,0E0,0E0,0E0,0E0],"parents":[2147483647,0,0,1,1,2,2,3,3,4,4,5,5,6,6,7,7,8,8,9,9,10,10,11,11,12,12,13,13,14,14],"right_children":[2,4,6,8,10,12,14,16,18,20,22,24,26,28,30,-1,-1,-1,-1,-1,-1,-1,-1,-1,-1,-1,-1,-1,-1,-1,-1],"split_conditions":[1E0,1E0,1E0,1E0,1E0,1E0,1E0,9E0,1E0,1E0,4.950133E1,4E0,1E0,6.0516216E1,6E0,-4.9220063E-3,8.897695E-3,-1.689961E-2,-3.985466E-3,4.2108004E-3,-1.5960732E-2,-1.305047E-2,1.9910265E-2,2.6463343E-2,1.3513414E-3,2.845862E-2,-1.453647E-2,3.3144873E-2,-4.9212698E-2,5.589814E-3,-6.0156703E-2],"split_indices":[15,22,8,56,13,57,64,2,80,8,84,2,64,84,1,0,0,0,0,0,0,0,0,0,0,0,0,0,0,0,0],"split_type":[0,0,0,0,0,0,0,0,0,0,0,0,0,0,0,0,0,0,0,0,0,0,0,0,0,0,0,0,0,0,0],"sum_hessian":[1.0553E4,7.991E3,2.562E3,5.868E3,2.123E3,1.952E3,6.1E2,4.474E3,1.394E3,1.454E3,6.69E2,1.486E3,4.66E2,4.55E2,1.55E2,3.941E3,5.33E2,1.017E3,3.77E2,1.043E3,4.11E2,1.18E2,5.51E2,1.2E2,1.366E3,3.53E2,1.13E2,4.38E2,1.7E1,1.28E2,2.7E1],"tree_param":{"num_deleted":"0","num_feature":"85","num_nodes":"31","size_leaf_vector":"1"}},{"base_weights":[4.9973907E-5,-2.9398868E-2,9.187795E-2,-5.462808E-2,3.302359E-2,5.7066187E-2,1.9114962E-1,-6.65489E-2,1.1360986E-1,4.3603566E-2,-2.8596574E-1,9.5631436E-2,-7.065211E-2,2.445565E-1,-3.759324E-4,-9.363422E-3,7.829992E-4,1.9961517E-2,-1.6286945E-2,1.2326185E-2,-9.673713E-4,-4.5793824E-2,-1.3637967E-2,-8.6301E-3,1.3259903E-2,-1.4512575E-2,1.2090648E-2,-2.1893775E-2,2.7038468E-2,-1.1426958E-2,2.4970308E-2],"categories":[],"categories_nodes":[],"categories_segments":[],"categories_sizes":[],"default_left":[0,0,0,0,0,0,0,0,0,0,0,0,0,0,0,0,0,0,0,0,0,0,0,0,0,0,0,0,0,0,0],"id":21,"left_children":[1,3,5,7,9,11,13,15,17,19,21,23,25,27,29,-1,-1,-1,-1,-1,-1,-1,-1,-1,-1,-1,-1,-1,-1,-1,-1],"loss_changes":[2.8543118E1,1.25881605E1,8.846363E0,1.1423059E1,7.7781143E0,9.360259E0,6.8022346E0,1.071022E1,8.997076E0,9.456772E0,1.8411736E0,9.824099E0,6.30888E0,6.2842197E0,4.1869655E0,0E0,0E0,0E0,0E0,0E0,0E0,0E0,0E0,0E0,0E0,0E0,0E0,0E0,0E0,0E0,0E0],"parents":[2147483647,0,0,1,1,2,2,3,3,4,4,5,5,6,6,7,7,8,8,9,9,10,10,11,11,12,12,13,13,14,14],"right_children":[2,4,6,8,10,12,14,16,18,20,22,24,26,28,30,-1,-1,-1,-1,-1,-1,-1,-1,-1,-1,-1,-1,-1,-1,-1,-1],"split_conditions":[1E0,1E0,1E0,1E1,6.711292E1,1E0,1E0,1E0,1E0,4E0,1E0,4.823022E1,1E0,3E0,1E0,-9.363422E-3,7.829992E-4,1.9961517E-2,-1.6286945E-2,1.2326185E-2,-9.673713E-4,-4.5793824E-2,-1.3637967E-2,-8.6301E-3,1.3259903E-2,-1.4512575E-2,1.2090648E-2,-2.1893775E-2,2.7038468E-2,-1.1426958E-2,2.4970308E-2],"split_indices":[15,4,80,2,84,47,20,80,8,3,68,84,58,0,52,0,0,0,0,0,0,0,0,0,0,0,0,0,0,0,0],"split_type":[0,0,0,0,0,0,0,0,0,0,0,0,0,0,0,0,0,0,0,0,0,0,0,0,0,0,0,0,0,0,0],"sum_hessian":[1.0553E4,7.991E3,2.562E3,5.691E3,2.3E3,1.898E3,6.64E2,5.315E3,3.76E2,2.227E3,7.3E1,1.458E3,4.4E2,5.19E2,1.45E2,3.896E3,1.419E3,2.87E2,8.9E1,8.92E2,1.335E3,3.3E1,4E1,2.46E2,1.212E3,3.17E2,1.23E2,2.7E1,4.92E2,1E2,4.5E1],"tree_param":{"num_deleted":"0","num_feature":"85","num_nodes":"31","size_leaf_vector":"1"}},{"base_weights":[4.1938503E-5,-2.6465612E-2,8.2698315E-2,-7.0145624E-3,-9.361388E-2,1.17908895E-1,-7.94434E-3,2.5479216E-2,-6.962084E-2,-6.879947E-2,-1.831261E-1,1.2417672E-1,-7.7540594E-1,-2.4759626E-1,6.5139994E-2,4.4436217E-3,-1.3812971E-2,-5.3132423E-3,-1.2669642E-2,-1.0518532E-2,2.635334E-3,-2.0009732E-2,1.1602817E-1,8.450281E-3,2.3591416E-2,-1.6022634E-3,-1.11112945E-1,-2.833266E-2,7.643438E-2,-3.0921755E-4,3.0509649E-2],"categories":[],"categories_nodes":[],"categories_segments":[],"categories_sizes":[],"default_left":[0,0,0,0,0,0,0,0,0,0,0,0,0,0,0,0,0,0,0,0,0,0,0,0,0,0,0,0,0,0,0],"id":22,"left_children":[1,3,5,7,9,11,13,15,17,19,21,23,25,27,29,-1,-1,-1,-1,-1,-1,-1,-1,-1,-1,-1,-1,-1,-1,-1,-1],"loss_changes":[2.3126194E1,1.0437727E1,8.180958E0,1.26104555E1,3.9744415E0,1.0432299E1,1.2591755E1,1.2663499E1,1.9864893E0,4.8741093E0,9.101076E0,8.110296E0,3.296453E0,6.290929E0,9.022328E0,0E0,0E0,0E0,0E0,0E0,0E0,0E0,0E0,0E0,0E0,0E0,0E0,0E0,0E0,0E0,0E0],"parents":[2147483647,0,0,1,1,2,2,3,3,4,4,5,5,6,6,7,7,8,8,9,9,10,10,11,11,12,12,13,13,14,14],"right_children":[2,4,6,8,10,12,14,16,18,20,22,24,26,28,30,-1,-1,-1,-1,-1,-1,-1,-1,-1,-1,-1,-1,-1,-1,-1,-1],"split_conditions":[1E0,1E0,1E0,1E0,1E0,6.38185E1,4.971774E1,6.1437923E1,1E0,1E0,1.1E1,1E0,1E0,9E0,1E0,4.4436217E-3,-1.3812971E-2,-5.3132423E-3,-1.2669642E-2,-1.0518532E-2,2.635334E-3,-2.0009732E-2,1.1602817E-1,8.450281E-3,2.3591416E-2,-1.6022634E-3,-1.11112945E-1,-2.833266E-2,7.643438E-2,-3.0921755E-4,3.0509649E-2],"split_indices":[15,47,82,12,51,84,84,84,21,4,2,44,46,1,41,0,0,0,0,0,0,0,0,0,0,0,0,0,0,0,0],"split_type":[0,0,0,0,0,0,0,0,0,0,0,0,0,0,0,0,0,0,0,0,0,0,0,0,0,0,0,0,0,0,0],"sum_hessian":[1.0553E4,7.991E3,2.562E3,6.197E3,1.794E3,1.845E3,7.17E2,4.08E3,2.117E3,1.406E3,3.88E2,1.833E3,1.2E1,1.67E2,5.5E2,3.657E3,4.23E2,1.644E3,4.73E2,1.017E3,3.89E2,3.84E2,4E0,1.354E3,4.79E2,4E0,8E0,1.62E2,5E0,4.29E2,1.21E2],"tree_param":{"num_deleted":"0","num_feature":"85","num_nodes":"31","size_leaf_vector":"1"}},{"base_weights":[4.327837E-5,-2.381145E-2,7.4427575E-2,2.4305146E-2,-5.0369054E-2,4.045771E-2,1.6285475E-1,6.0042445E-2,-8.214103E-2,-2.5242543E-2,-1.407571E-1,8.6706825E-2,-7.858472E-2,2.3615165E-1,-5.3076234E-2,1.0682139E-2,-4.492776E-3,1.9514915E-2,-1.1591296E-2,-1.9862773E-4,-1.0719842E-2,-1.0095862E-2,-2.399378E-2,-3.5415597E-2,1.04136625E-2,-1.5672456E-2,1.3828486E-2,-1.9608965E-2,2.6151238E-2,-2.0441886E-2,2.4799809E-2],"categories":[],"categories_nodes":[],"categories_segments":[],"categories_sizes":[],"default_left":[0,0,0,0,0,0,0,0,0,0,0,0,0,0,0,0,0,0,0,0,0,0,0,0,0,0,0,0,0,0,0],"id":23,"left_children":[1,3,5,7,9,11,13,15,17,19,21,23,25,27,29,-1,-1,-1,-1,-1,-1,-1,-1,-1,-1,-1,-1,-1,-1,-1,-1],"loss_changes":[1.872897E1,1.0213893E1,7.6923037E0,1.0819985E1,1.16928E1,1.0208704E1,1.1265581E1,1.0459032E1,6.718327E0,7.682823E0,4.3966866E0,1.0295222E1,8.816727E0,5.872076E0,8.29803E0,0E0,0E0,0E0,0E0,0E0,0E0,0E0,0E0,0E0,0E0,0E0,0E0,0E0,0E0,0E0,0E0],"parents":[2147483647,0,0,1,1,2,2,3,3,4,4,5,5,6,6,7,7,8,8,9,9,10,10,11,11,12,12,13,13,14,14],"right_children":[2,4,6,8,10,12,14,16,18,20,22,24,26,28,30,-1,-1,-1,-1,-1,-1,-1,-1,-1,-1,-1,-1,-1,-1,-1,-1],"split_conditions":[1E0,4E0,1E0,6.1437923E1,1E0,1E0,1E0,1E0,5E0,1E0,1E0,2E0,1E0,2E0,1E0,1.0682139E-2,-4.492776E-3,1.9514915E-2,-1.1591296E-2,-1.9862773E-4,-1.0719842E-2,-1.0095862E-2,-2.399378E-2,-3.5415597E-2,1.04136625E-2,-1.5672456E-2,1.3828486E-2,-1.9608965E-2,2.6151238E-2,-2.0441886E-2,2.4799809E-2],"split_indices":[15,3,4,84,9,11,64,12,0,56,13,0,22,1,30,0,0,0,0,0,0,0,0,0,0,0,0,0,0,0,0],"split_type":[0,0,0,0,0,0,0,0,0,0,0,0,0,0,0,0,0,0,0,0,0,0,0,0,0,0,0,0,0,0,0],"sum_hessian":[1.0553E4,7.991E3,2.562E3,2.842E3,5.149E3,1.852E3,7.1E2,2.128E3,7.14E2,4.03E3,1.119E3,1.334E3,5.18E2,5.3E2,1.8E2,1.472E3,6.56E2,7.7E1,6.37E2,3.14E3,8.9E2,8E2,3.19E2,5E1,1.284E3,3.81E2,1.37E2,2.9E1,5.01E2,1.2E2,6E1],"tree_param":{"num_deleted":"0","num_feature":"85","num_nodes":"31","size_leaf_vector":"1"}},{"base_weights":[3.451058E-5,-2.3880374E-2,6.5726146E-2,1.0490362E-3,-1.1149753E-1,1.0171768E-1,-3.7883233E-2,2.7713118E-2,-8.371463E-2,-5.9258245E-2,-2.8019375E-1,1.4150952E-1,-3.0693475E-2,-1.2168289E-2,-1.14258975E-1,6.3122087E-3,-7.0853024E-3,-1.2981944E-2,3.3048429E-3,-1.12234345E-2,6.7845783E-3,-3.765173E-2,-1.3338427E-2,1.6610967E-2,-2.0169726E-2,-1.1085695E-2,2.9027684E-2,-4.250788E-3,7.103722E-3,-1.9690124E-2,1.15760695E-2],"categories":[],"categories_nodes":[],"categories_segments":[],"categories_sizes":[],"default_left":[0,0,0,0,0,0,0,0,0,0,0,0,0,0,0,0,0,0,0,0,0,0,0,0,0,0,0,0,0,0,0],"id":24,"left_children":[1,3,5,7,9,11,13,15,17,19,21,23,25,27,29,-1,-1,-1,-1,-1,-1,-1,-1,-1,-1,-1,-1,-1,-1,-1,-1],"loss_changes":[1.6581985E1,1.6901794E1,1.0508615E1,1.3619696E1,1.5088144E1,1.1021582E1,1.4264361E0,1.6003208E1,7.767063E0,8.828469E0,5.6769676E0,1.3609749E1,1.2485543E1,1.3788289E0,3.501503E0,0E0,0E0,0E0,0E0,0E0,0E0,0E0,0E0,0E0,0E0,0E0,0E0,0E0,0E0,0E0,0E0],"parents":[2147483647,0,0,1,1,2,2,3,3,4,4,5,5,6,6,7,7,8,8,9,9,10,10,11,11,12,12,13,13,14,14],"right_children":[2,4,6,8,10,12,14,16,18,20,22,24,26,28,30,-1,-1,-1,-1,-1,-1,-1,-1,-1,-1,-1,-1,-1,-1,-1,-1],"split_conditions":[1E0,1E0,1E0,1E0,6E0,1E0,1E0,1E0,1E0,1E0,1E0,6.321032E1,1E0,1E0,1E0,6.3122087E-3,-7.0853024E-3,-1.2981944E-2,3.3048429E-3,-1.12234345E-2,6.7845783E-3,-3.765173E-2,-1.3338427E-2,1.6610967E-2,-2.0169726E-2,-1.1085695E-2,2.9027684E-2,-4.250788E-3,7.103722E-3,-1.9690124E-2,1.15760695E-2],"split_indices":[22,43,12,56,1,9,63,12,44,4,45,84,68,32,66,0,0,0,0,0,0,0,0,0,0,0,0,0,0,0,0],"split_type":[0,0,0,0,0,0,0,0,0,0,0,0,0,0,0,0,0,0,0,0,0,0,0,0,0,0,0,0,0,0,0],"sum_hessian":[1.0553E4,7.737E3,2.816E3,6.024E3,1.713E3,2.09E3,7.26E2,4.583E3,1.441E3,1.309E3,4.04E2,1.607E3,4.83E2,5.44E2,1.82E2,3.372E3,1.211E3,1.033E3,4.08E2,9.24E2,3.85E2,2.43E2,1.61E2,1.5E3,1.07E2,3.87E2,9.6E1,3.99E2,1.45E2,1.34E2,4.8E1],"tree_param":{"num_deleted":"0","num_feature":"85","num_nodes":"31","size_leaf_vector":"1"}},{"base_weights":[2.5683552E-5,-2.298463E-2,6.397342E-2,1.3080398E-3,-9.9959955E-2,9.717717E-2,-3.0871471E-2,2.4687504E-2,-7.559368E-2,-6.1304744E-2,-1.9088078E-1,5.332137E-2,1.9982272E-1,-5.320429E-2,9.5827796E-2,5.0604027E-3,-7.253216E-3,-4.347022E-3,-1.9841202E-2,-2.385971E-3,-1.8758629E-2,-1.3602251E-2,-3.4798276E-2,8.199818E-3,-2.0955464E-2,1.2830223E-2,3.9911743E-2,-8.376554E-3,1.237688E-3,-8.3967514E-4,5.3297814E-2],"categories":[],"categories_nodes":[],"categories_segments":[],"categories_sizes":[],"default_left":[0,0,0,0,0,0,0,0,0,0,0,0,0,0,0,0,0,0,0,0,0,0,0,0,0,0,0,0,0,0,0],"id":25,"left_children":[1,3,5,7,9,11,13,15,17,19,21,23,25,27,29,-1,-1,-1,-1,-1,-1,-1,-1,-1,-1,-1,-1,-1,-1,-1,-1],"loss_changes":[1.5531232E1,1.4514573E1,8.798736E0,1.0611399E1,6.5324154E0,9.30316E0,2.0565238E0,1.140736E1,5.4201765E0,6.1805553E0,4.7358456E0,1.0955469E1,8.771805E0,1.2376541E0,4.9707117E0,0E0,0E0,0E0,0E0,0E0,0E0,0E0,0E0,0E0,0E0,0E0,0E0,0E0,0E0,0E0,0E0],"parents":[2147483647,0,0,1,1,2,2,3,3,4,4,5,5,6,6,7,7,8,8,9,9,10,10,11,11,12,12,13,13,14,14],"right_children":[2,4,6,8,10,12,14,16,18,20,22,24,26,28,30,-1,-1,-1,-1,-1,-1,-1,-1,-1,-1,-1,-1,-1,-1,-1,-1],"split_conditions":[1E0,1E0,1E0,1E0,1E0,1E0,9E0,1E0,1E0,1E0,1E0,6.038221E1,1E0,1E0,1E0,5.0604027E-3,-7.253216E-3,-4.347022E-3,-1.9841202E-2,-2.385971E-3,-1.8758629E-2,-1.3602251E-2,-3.4798276E-2,8.199818E-3,-2.0955464E-2,1.2830223E-2,3.9911743E-2,-8.376554E-3,1.237688E-3,-8.3967514E-4,5.3297814E-2],"split_indices":[80,56,12,47,62,66,0,79,29,71,24,84,24,74,62,0,0,0,0,0,0,0,0,0,0,0,0,0,0,0,0],"split_type":[0,0,0,0,0,0,0,0,0,0,0,0,0,0,0,0,0,0,0,0,0,0,0,0,0,0,0,0,0,0,0],"sum_hessian":[1.0553E4,7.761E3,2.792E3,5.9E3,1.861E3,2.068E3,7.24E2,4.525E3,1.375E3,1.307E3,5.54E2,1.45E3,6.18E2,6.16E2,1.08E2,3.573E3,9.52E2,1.091E3,2.84E2,1.009E3,2.98E2,4.12E2,1.42E2,1.308E3,1.42E2,4.56E2,1.62E2,4.2E2,1.96E2,8.8E1,2E1],"tree_param":{"num_deleted":"0","num_feature":"85","num_nodes":"31","size_leaf_vector":"1"}},{"base_weights":[2.2113385E-5,-2.3033615E-2,5.7787772E-2,-4.642834E-2,4.3093074E-2,9.239593E-2,-4.3762777E-2,-2.596155E-2,-1.18899986E-1,1.1133318E-2,1.637084E-1,5.256022E-2,2.0437422E-1,-9.011344E-2,9.527574E-2,-5.579004E-3,5.498728E-3,-1.536006E-2,-9.7243226E-4,-2.3104933E-3,1.0472946E-2,4.7594584E-3,2.8243486E-2,9.129725E-3,-7.030401E-3,2.8112626E-2,-2.4162845E-3,-1.3992481E-2,5.856804E-3,1.6402591E-2,-1.8765984E-2],"categories":[],"categories_nodes":[],"categories_segments":[],"categories_sizes":[],"default_left":[0,0,0,0,0,0,0,0,0,0,0,0,0,0,0,0,0,0,0,0,0,0,0,0,0,0,0,0,0,0,0],"id":26,"left_children":[1,3,5,7,9,11,13,15,17,19,21,23,25,27,29,-1,-1,-1,-1,-1,-1,-1,-1,-1,-1,-1,-1,-1,-1,-1,-1],"loss_changes":[1.4057458E1,1.1672688E1,1.0586135E1,8.263132E0,7.5999146E0,1.0008068E1,4.9450936E0,1.0499252E1,4.6469517E0,5.0015454E0,5.6800833E0,7.897496E0,1.0338259E1,4.2666616E0,3.7655392E0,0E0,0E0,0E0,0E0,0E0,0E0,0E0,0E0,0E0,0E0,0E0,0E0,0E0,0E0,0E0,0E0],"parents":[2147483647,0,0,1,1,2,2,3,3,4,4,5,5,6,6,7,7,8,8,9,9,10,10,11,11,12,12,13,13,14,14],"right_children":[2,4,6,8,10,12,14,16,18,20,22,24,26,28,30,-1,-1,-1,-1,-1,-1,-1,-1,-1,-1,-1,-1,-1,-1,-1,-1],"split_conditions":[1E0,1E0,1E0,1E0,8E0,1E0,1E0,1E0,1E0,1E0,1E0,1E0,1E0,1E0,1E0,-5.579004E-3,5.498728E-3,-1.536006E-2,-9.7243226E-4,-2.3104933E-3,1.0472946E-2,4.7594584E-3,2.8243486E-2,9.129725E-3,-7.030401E-3,2.8112626E-2,-2.4162845E-3,-1.3992481E-2,5.856804E-3,1.6402591E-2,-1.8765984E-2],"split_indices":[4,80,64,43,2,68,61,50,57,15,42,73,12,23,55,0,0,0,0,0,0,0,0,0,0,0,0,0,0,0,0],"split_type":[0,0,0,0,0,0,0,0,0,0,0,0,0,0,0,0,0,0,0,0,0,0,0,0,0,0,0,0,0,0,0],"sum_hessian":[1.0553E4,7.543E3,3.01E3,5.572E3,1.971E3,2.245E3,7.65E2,4.346E3,1.226E3,1.559E3,4.12E2,1.657E3,5.88E2,5.74E2,1.91E2,3.176E3,1.17E3,9.3E2,2.96E2,1.142E3,4.17E2,2.09E2,2.03E2,1.26E3,3.97E2,4.4E2,1.48E2,4.3E2,1.44E2,1.54E2,3.7E1],"tree_param":{"num_deleted":"0","num_feature":"85","num_nodes":"31","size_leaf_vector":"1"}},{"base_weights":[2.3888682E-5,-2.1392602E-2,5.885271E-2,-4.996353E-2,3.655126E-2,8.985392E-2,-3.0394038E-2,-7.8265436E-2,2.3373792E-2,6.6079125E-2,-8.291358E-2,1.2586233E-1,-2.9962964E-2,-3.5906777E-2,3.0106562E-1,-5.2233E-3,-1.7192436E-2,-1.5221938E-3,1.563087E-2,9.91359E-3,-4.2250627E-3,5.7758125E-3,-1.688397E-2,6.9686356E-3,2.6296532E-2,-1.0019628E-2,2.5127921E-2,1.7955227E-2,-4.493644E-3,7.349871E-2,7.475992E-3],"categories":[],"categories_nodes":[],"categories_segments":[],"categories_sizes":[],"default_left":[0,0,0,0,0,0,0,0,0,0,0,0,0,0,0,0,0,0,0,0,0,0,0,0,0,0,0,0,0,0,0],"id":27,"left_children":[1,3,5,7,9,11,13,15,17,19,21,23,25,27,29,-1,-1,-1,-1,-1,-1,-1,-1,-1,-1,-1,-1,-1,-1,-1,-1],"loss_changes":[1.3298316E1,1.28121605E1,7.796685E0,1.0759591E1,9.021875E0,9.025213E0,1.339222E0,9.109777E0,7.411138E0,7.3453045E0,6.13805E0,1.2366318E1,9.585421E0,1.4010618E0,1.1234392E0,0E0,0E0,0E0,0E0,0E0,0E0,0E0,0E0,0E0,0E0,0E0,0E0,0E0,0E0,0E0,0E0],"parents":[2147483647,0,0,1,1,2,2,3,3,4,4,5,5,6,6,7,7,8,8,9,9,10,10,11,11,12,12,13,13,14,14],"right_children":[2,4,6,8,10,12,14,16,18,20,22,24,26,28,30,-1,-1,-1,-1,-1,-1,-1,-1,-1,-1,-1,-1,-1,-1,-1,-1],"split_conditions":[1E0,1E0,1E0,1E0,1E0,1E0,1.2E1,1E0,1E0,1E0,6E0,1E0,1E0,3E0,1E0,-5.2233E-3,-1.7192436E-2,-1.5221938E-3,1.563087E-2,9.91359E-3,-4.2250627E-3,5.7758125E-3,-1.688397E-2,6.9686356E-3,2.6296532E-2,-1.0019628E-2,2.5127921E-2,1.7955227E-2,-4.493644E-3,7.349871E-2,7.475992E-3],"split_indices":[22,23,12,50,27,9,2,79,5,43,3,74,68,0,34,0,0,0,0,0,0,0,0,0,0,0,0,0,0,0,0],"split_type":[0,0,0,0,0,0,0,0,0,0,0,0,0,0,0,0,0,0,0,0,0,0,0,0,0,0,0,0,0,0,0],"sum_hessian":[1.0553E4,7.737E3,2.816E3,5.182E3,2.555E3,2.09E3,7.26E2,3.739E3,1.443E3,2.049E3,5.06E2,1.607E3,4.83E2,7.15E2,1.1E1,2.927E3,8.12E2,1.119E3,3.24E2,1.57E3,4.79E2,1.92E2,3.14E2,1.141E3,4.66E2,3.87E2,9.6E1,2.8E1,6.87E2,3E0,8E0],"tree_param":{"num_deleted":"0","num_feature":"85","num_nodes":"31","size_leaf_vector":"1"}},{"base_weights":[3.3729546E-5,2.1043314E-2,-5.756576E-2,4.475957E-2,-4.827608E-2,-2.8284032E-2,-1.4848122E-1,6.851375E-2,-4.2119395E-2,-6.124703E-2,-4.5214696E-3,-4.1673876E-2,2.1858965E-1,-3.329793E-1,-9.544068E-2,-1.9721763E-2,8.007547E-3,-9.296573E-3,1.0527554E-2,-7.836679E-3,-2.0712211E-3,-4.640714E-3,1.0789148E-2,-7.418846E-3,5.7708994E-3,4.0774908E-2,-1.2263307E-2,-2.1611134E-2,-5.3728748E-2,-1.472837E-2,9.51798E-3],"categories":[],"categories_nodes":[],"categories_segments":[],"categories_sizes":[],"default_left":[0,0,0,0,0,0,0,0,0,0,0,0,0,0,0,0,0,0,0,0,0,0,0,0,0,0,0,0,0,0,0],"id":28,"left_children":[1,3,5,7,9,11,13,15,17,19,21,23,25,27,29,-1,-1,-1,-1,-1,-1,-1,-1,-1,-1,-1,-1,-1,-1,-1,-1],"loss_changes":[1.2773042E1,1.2716831E1,7.5057564E0,1.1896211E1,1.1189094E0,7.066565E0,6.691119E0,1.3921068E1,9.287968E0,1.0538697E0,2.133245E0,6.5510817E0,7.150008E0,3.5370789E0,5.301071E0,0E0,0E0,0E0,0E0,0E0,0E0,0E0,0E0,0E0,0E0,0E0,0E0,0E0,0E0,0E0,0E0],"parents":[2147483647,0,0,1,1,2,2,3,3,4,4,5,5,6,6,7,7,8,8,9,9,10,10,11,11,12,12,13,13,14,14],"right_children":[2,4,6,8,10,12,14,16,18,20,22,24,26,28,30,-1,-1,-1,-1,-1,-1,-1,-1,-1,-1,-1,-1,-1,-1,-1,-1],"split_conditions":[1E0,1E0,1E0,1E0,1E0,1.1E1,6E0,2E0,1E0,1E0,1E0,1E0,5E0,1E0,1E0,-1.9721763E-2,8.007547E-3,-9.296573E-3,1.0527554E-2,-7.836679E-3,-2.0712211E-3,-4.640714E-3,1.0789148E-2,-7.418846E-3,5.7708994E-3,4.0774908E-2,-1.2263307E-2,-2.1611134E-2,-5.3728748E-2,-1.472837E-2,9.51798E-3],"split_indices":[6,12,21,43,37,2,2,1,22,39,42,24,0,15,81,0,0,0,0,0,0,0,0,0,0,0,0,0,0,0,0],"split_type":[0,0,0,0,0,0,0,0,0,0,0,0,0,0,0,0,0,0,0,0,0,0,0,0,0,0,0,0,0,0,0],"sum_hessian":[1.0553E4,7.733E3,2.82E3,5.762E3,1.971E3,2.134E3,6.86E2,4.525E3,1.237E3,1.52E3,4.51E2,2.025E3,1.09E2,1.52E2,5.34E2,1.88E2,4.337E3,9.2E2,3.17E2,1.068E3,4.52E2,3.29E2,1.22E2,1.526E3,4.99E2,7E1,3.9E1,9.8E1,5.4E1,4.2E2,1.14E2],"tree_param":{"num_deleted":"0","num_feature":"85","num_nodes":"31","size_leaf_vector":"1"}},{"base_weights":[2.3924904E-5,-1.93966E-2,6.0581397E-2,-3.7858434E-2,4.0769618E-2,8.8331066E-2,-3.726105E-2,-6.53943E-2,2.4940683E-2,-3.8358174E-2,1.930456E-1,1.24401174E-1,-2.107545E-2,2.7318805E-2,-2.1861473E-1,-2.7096565E-3,-1.3344201E-2,9.822491E-3,-1.5600057E-2,-1.4686547E-2,1.16306604E-4,4.704449E-2,1.2237319E-2,-2.179647E-2,1.4028844E-2,5.656189E-3,-2.2700196E-2,-2.966424E-3,2.2197323E-2,-1.305951E-3,-6.785958E-2],"categories":[],"categories_nodes":[],"categories_segments":[],"categories_sizes":[],"default_left":[0,0,0,0,0,0,0,0,0,0,0,0,0,0,0,0,0,0,0,0,0,0,0,0,0,0,0,0,0,0,0],"id":29,"left_children":[1,3,5,7,9,11,13,15,17,19,21,23,25,27,29,-1,-1,-1,-1,-1,-1,-1,-1,-1,-1,-1,-1,-1,-1,-1,-1],"loss_changes":[1.241329E1,8.878888E0,6.962082E0,1.0577591E1,2.262387E1,7.8833914E0,6.6465597E0,1.1077408E1,2.4745483E1,5.300563E0,1.2528505E1,8.200342E0,7.942682E0,4.6541333E0,1.4079311E1,0E0,0E0,0E0,0E0,0E0,0E0,0E0,0E0,0E0,0E0,0E0,0E0,0E0,0E0,0E0,0E0],"parents":[2147483647,0,0,1,1,2,2,3,3,4,4,5,5,6,6,7,7,8,8,9,9,10,10,11,11,12,12,13,13,14,14],"right_children":[2,4,6,8,10,12,14,16,18,20,22,24,26,28,30,-1,-1,-1,-1,-1,-1,-1,-1,-1,-1,-1,-1,-1,-1,-1,-1],"split_conditions":[1E0,1E0,1E0,1E0,1E0,1E0,1E0,1E0,1E0,4E0,4E0,2E0,1E0,1E0,5.2738754E1,-2.7096565E-3,-1.3344201E-2,9.822491E-3,-1.5600057E-2,-1.4686547E-2,1.16306604E-4,4.704449E-2,1.2237319E-2,-2.179647E-2,1.4028844E-2,5.656189E-3,-2.2700196E-2,-2.966424E-3,2.2197323E-2,-1.305951E-3,-6.785958E-2],"split_indices":[15,11,29,13,14,56,25,8,9,0,3,0,82,10,84,0,0,0,0,0,0,0,0,0,0,0,0,0,0,0,0],"split_type":[0,0,0,0,0,0,0,0,0,0,0,0,0,0,0,0,0,0,0,0,0,0,0,0,0,0,0,0,0,0,0],"sum_hessian":[1.0553E4,7.991E3,2.562E3,6.115E3,1.876E3,1.996E3,5.66E2,4.251E3,1.864E3,1.235E3,6.41E2,1.501E3,4.95E2,4.18E2,1.48E2,2.721E3,1.53E3,1.327E3,5.37E2,3.29E2,9.06E2,1.29E2,5.12E2,6.6E1,1.435E3,3.6E2,1.35E2,3.24E2,9.4E1,1.03E2,4.5E1],"tree_param":{"num_deleted":"0","num_feature":"85","num_nodes":"31","size_leaf_vector":"1"}},{"base_weights":[1.6617774E-5,-1.994362E-2,5.002659E-2,-4.0734358E-2,3.882247E-2,8.109403E-2,-4.1132025E-2,-2.0941706E-2,-1.12085104E-1,2.9620512E-3,1.24672525E-1,4.5521416E-2,1.8109114E-1,9.3097646E-5,-1.6787785E-1,5.2396016E-4,-1.0235029E-2,-1.4478016E-2,7.34935E-4,-3.6783516E-2,1.3358606E-3,2.0048922E-2,-7.6073236E-3,8.068115E-3,-6.599102E-3,2.451702E-2,-9.781057E-4,4.4742185E-3,-1.9068113E-2,-2.5089458E-2,1.1789704E-2],"categories":[],"categories_nodes":[],"categories_segments":[],"categories_sizes":[],"default_left":[0,0,0,0,0,0,0,0,0,0,0,0,0,0,0,0,0,0,0,0,0,0,0,0,0,0,0,0,0,0,0],"id":30,"left_children":[1,3,5,7,9,11,13,15,17,19,21,23,25,27,29,-1,-1,-1,-1,-1,-1,-1,-1,-1,-1,-1,-1,-1,-1,-1,-1],"loss_changes":[1.0536116E1,9.218767E0,8.530682E0,7.867958E0,6.0706673E0,7.9811363E0,4.002452E0,9.301891E0,4.726014E0,5.3710923E0,8.858003E0,6.505924E0,7.2064056E0,4.940392E0,4.48971E0,0E0,0E0,0E0,0E0,0E0,0E0,0E0,0E0,0E0,0E0,0E0,0E0,0E0,0E0,0E0,0E0],"parents":[2147483647,0,0,1,1,2,2,3,3,4,4,5,5,6,6,7,7,8,8,9,9,10,10,11,11,12,12,13,13,14,14],"right_children":[2,4,6,8,10,12,14,16,18,20,22,24,26,28,30,-1,-1,-1,-1,-1,-1,-1,-1,-1,-1,-1,-1,-1,-1,-1,-1],"split_conditions":[1E0,1E0,1E0,1E0,1E0,1E0,1E0,1E0,1E0,3E0,1E0,1E0,1E0,1E0,1E0,5.2396016E-4,-1.0235029E-2,-1.4478016E-2,7.34935E-4,-3.6783516E-2,1.3358606E-3,2.0048922E-2,-7.6073236E-3,8.068115E-3,-6.599102E-3,2.451702E-2,-9.781057E-4,4.4742185E-3,-1.9068113E-2,-2.5089458E-2,1.1789704E-2],"split_indices":[4,80,64,53,74,68,56,56,37,0,68,73,12,21,44,0,0,0,0,0,0,0,0,0,0,0,0,0,0,0,0],"split_type":[0,0,0,0,0,0,0,0,0,0,0,0,0,0,0,0,0,0,0,0,0,0,0,0,0,0,0,0,0,0,0],"sum_hessian":[1.0553E4,7.543E3,3.01E3,5.572E3,1.971E3,2.245E3,7.65E2,4.363E3,1.209E3,1.391E3,5.8E2,1.657E3,5.88E2,5.78E2,1.87E2,3.302E3,1.061E3,9.49E2,2.6E2,3.7E1,1.354E3,4.21E2,1.59E2,1.26E3,3.97E2,4.4E2,1.48E2,4.69E2,1.09E2,1.45E2,4.2E1],"tree_param":{"num_deleted":"0","num_feature":"85","num_nodes":"31","size_leaf_vector":"1"}},{"base_weights":[1.0277482E-5,-1.747856E-2,5.454433E-2,-3.581131E-2,3.286308E-2,8.501039E-2,-2.5242817E-2,-6.4727105E-2,3.3981334E-2,7.88406E-2,-8.958969E-2,1.1768554E-1,-2.3219537E-2,-8.101647E-2,1.7796746E-1,-4.3193884E-3,-1.2993412E-2,5.847042E-4,1.582153E-2,3.3174914E-3,1.8852573E-2,-1.9942157E-4,-2.3517307E-2,7.053058E-3,2.387644E-2,4.3919574E-2,-6.140622E-3,-9.978077E-4,-2.9253814E-2,6.38261E-3,5.0997484E-2],"categories":[],"categories_nodes":[],"categories_segments":[],"categories_sizes":[],"default_left":[0,0,0,0,0,0,0,0,0,0,0,0,0,0,0,0,0,0,0,0,0,0,0,0,0,0,0,0,0,0,0],"id":31,"left_children":[1,3,5,7,9,11,13,15,17,19,21,23,25,27,29,-1,-1,-1,-1,-1,-1,-1,-1,-1,-1,-1,-1,-1,-1,-1,-1],"loss_changes":[1.0066694E1,7.377E0,6.2322865E0,1.1826305E1,1.2021642E1,6.562809E0,8.050069E0,5.8116493E0,6.0003915E0,7.767476E0,7.434206E0,8.119152E0,7.6376133E0,8.366653E0,5.765503E0,0E0,0E0,0E0,0E0,0E0,0E0,0E0,0E0,0E0,0E0,0E0,0E0,0E0,0E0,0E0,0E0],"parents":[2147483647,0,0,1,1,2,2,3,3,4,4,5,5,6,6,7,7,8,8,9,9,10,10,11,11,12,12,13,13,14,14],"right_children":[2,4,6,8,10,12,14,16,18,20,22,24,26,28,30,-1,-1,-1,-1,-1,-1,-1,-1,-1,-1,-1,-1,-1,-1,-1,-1],"split_conditions":[1E0,1E0,1E0,8E0,1E0,1E0,1E0,1E0,1E0,1E0,1E0,1E0,4E0,1E0,1E0,-4.3193884E-3,-1.2993412E-2,5.847042E-4,1.582153E-2,3.3174914E-3,1.8852573E-2,-1.9942157E-4,-2.3517307E-2,7.053058E-3,2.387644E-2,4.3919574E-2,-6.140622E-3,-9.978077E-4,-2.9253814E-2,6.38261E-3,5.0997484E-2],"split_indices":[15,32,11,2,36,79,49,21,25,13,14,30,3,40,35,0,0,0,0,0,0,0,0,0,0,0,0,0,0,0,0],"split_type":[0,0,0,0,0,0,0,0,0,0,0,0,0,0,0,0,0,0,0,0,0,0,0,0,0,0,0,0,0,0,0],"sum_hessian":[1.0553E4,7.991E3,2.562E3,5.858E3,2.133E3,1.854E3,7.08E2,4.142E3,1.716E3,1.551E3,5.82E2,1.424E3,4.3E2,5.56E2,1.52E2,3.115E3,1.027E3,1.4E3,3.16E2,1.096E3,4.55E2,3.64E2,2.18E2,1.026E3,3.98E2,3.2E1,3.98E2,4.17E2,1.39E2,1.14E2,3.8E1],"tree_param":{"num_deleted":"0","num_feature":"85","num_nodes":"31","size_leaf_vector":"1"}},{"base_weights":[1.809603E-5,1.8365998E-2,-5.028417E-2,3.6261536E-2,-4.339344E-2,-8.2336195E-2,2.4765698E-2,5.892607E-2,-3.0181484E-2,-7.800935E-2,5.49718E-2,-5.2672554E-2,-1.7867759E-1,8.17129E-2,-1.3444002E-1,3.0231352E-3,1.4267002E-2,-1.1426138E-3,-8.154681E-3,-4.223483E-3,-1.840984E-2,1.111219E-2,-1.894324E-2,3.4268327E-2,-6.117371E-3,-3.1005671E-2,-1.2566827E-2,-3.137018E-2,1.05783E-2,-1.982691E-2,4.226677E-3],"categories":[],"categories_nodes":[],"categories_segments":[],"categories_sizes":[],"default_left":[0,0,0,0,0,0,0,0,0,0,0,0,0,0,0,0,0,0,0,0,0,0,0,0,0,0,0,0,0,0,0],"id":32,"left_children":[1,3,5,7,9,11,13,15,17,19,21,23,25,27,29,-1,-1,-1,-1,-1,-1,-1,-1,-1,-1,-1,-1,-1,-1,-1,-1],"loss_changes":[9.741642E0,8.549333E0,6.7879553E0,9.032661E0,5.9221826E0,5.6405315E0,7.672026E0,1.0741942E1,1.4691778E0,4.872962E0,6.237715E0,5.106128E0,3.1994429E0,5.962693E0,2.5236034E0,0E0,0E0,0E0,0E0,0E0,0E0,0E0,0E0,0E0,0E0,0E0,0E0,0E0,0E0,0E0,0E0],"parents":[2147483647,0,0,1,1,2,2,3,3,4,4,5,5,6,6,7,7,8,8,9,9,10,10,11,11,12,12,13,13,14,14],"right_children":[2,4,6,8,10,12,14,16,18,20,22,24,26,28,30,-1,-1,-1,-1,-1,-1,-1,-1,-1,-1,-1,-1,-1,-1,-1,-1],"split_conditions":[1E0,1E0,1E0,1E0,1E0,1E0,1E0,1E0,1E0,1E0,5.8127617E1,4E0,6E0,4.721993E1,1E0,3.0231352E-3,1.4267002E-2,-1.1426138E-3,-8.154681E-3,-4.223483E-3,-1.840984E-2,1.111219E-2,-1.894324E-2,3.4268327E-2,-6.117371E-3,-3.1005671E-2,-1.2566827E-2,-3.137018E-2,1.05783E-2,-1.982691E-2,4.226677E-3],"split_indices":[6,47,54,12,52,21,56,76,40,20,84,2,2,84,24,0,0,0,0,0,0,0,0,0,0,0,0,0,0,0,0],"split_type":[0,0,0,0,0,0,0,0,0,0,0,0,0,0,0,0,0,0,0,0,0,0,0,0,0,0,0,0,0,0,0],"sum_hessian":[1.0553E4,7.733E3,2.82E3,5.996E3,1.737E3,1.976E3,8.44E2,4.471E3,1.525E3,1.285E3,4.52E2,1.512E3,4.64E2,6.22E2,2.22E2,3.331E3,1.14E3,1.118E3,4.07E2,9.62E2,3.23E2,3.68E2,8.4E1,3.1E1,1.481E3,1.32E2,3.32E2,3.5E1,5.87E2,1.63E2,5.9E1],"tree_param":{"num_deleted":"0","num_feature":"85","num_nodes":"31","size_leaf_vector":"1"}},{"base_weights":[9.245469E-6,8.780537E-3,-9.7390324E-2,1.1141945E-1,-3.4896838E-3,1.8471843E-1,-1.2769724E-1,1.6252744E-1,-1.4757489E-2,1.6019333E-2,-6.861909E-2,3.0622616E-1,-2.5347826E-1,-6.538666E-2,-2.4305099E-1,1.0010815E-2,3.4524444E-2,-1.07914945E-2,1.3313673E-2,3.9559156E-3,-6.046903E-3,-1.1136241E-2,5.663276E-3,-1.7875021E-2,5.0191995E-2,-7.869485E-3,-6.190598E-2,1.2708429E-4,-1.607982E-2,-3.7137583E-2,-7.3133907E-3],"categories":[],"categories_nodes":[],"categories_segments":[],"categories_sizes":[],"default_left":[0,0,0,0,0,0,0,0,0,0,0,0,0,0,0,0,0,0,0,0,0,0,0,0,0,0,0,0,0,0,0],"id":33,"left_children":[1,3,5,7,9,11,13,15,17,19,21,23,25,27,29,-1,-1,-1,-1,-1,-1,-1,-1,-1,-1,-1,-1,-1,-1,-1,-1],"loss_changes":[9.017348E0,1.2195179E1,7.4790564E0,6.6703033E0,1.099188E1,4.603386E0,5.648061E0,8.359564E0,4.133825E0,1.198847E1,1.0681547E1,6.4484777E0,1.1653371E0,3.2628305E0,5.990906E0,0E0,0E0,0E0,0E0,0E0,0E0,0E0,0E0,0E0,0E0,0E0,0E0,0E0,0E0,0E0,0E0],"parents":[2147483647,0,0,1,1,2,2,3,3,4,4,5,5,6,6,7,7,8,8,9,9,10,10,11,11,12,12,13,13,14,14],"right_children":[2,4,6,8,10,12,14,16,18,20,22,24,26,28,30,-1,-1,-1,-1,-1,-1,-1,-1,-1,-1,-1,-1,-1,-1,-1,-1],"split_conditions":[6.1754387E1,3E0,5E0,1E0,1E0,1E0,1E0,1E0,1E0,1E0,1E0,6.213738E1,6.411047E1,3E0,1E0,1.0010815E-2,3.4524444E-2,-1.07914945E-2,1.3313673E-2,3.9559156E-3,-6.046903E-3,-1.1136241E-2,5.663276E-3,-1.7875021E-2,5.0191995E-2,-7.869485E-3,-6.190598E-2,1.2708429E-4,-1.607982E-2,-3.7137583E-2,-7.3133907E-3],"split_indices":[84,3,0,29,21,8,14,24,26,9,50,84,84,3,42,0,0,0,0,0,0,0,0,0,0,0,0,0,0,0,0],"split_type":[0,0,0,0,0,0,0,0,0,0,0,0,0,0,0,0,0,0,0,0,0,0,0,0,0,0,0,0,0,0,0],"sum_hessian":[1.0553E4,9.682E3,8.71E2,1.033E3,8.649E3,8.4E1,7.87E2,7.35E2,2.98E2,6.656E3,1.993E3,6.6E1,1.8E1,5.12E2,2.75E2,5.49E2,1.86E2,1.83E2,1.15E2,5.09E3,1.566E3,1.486E3,5.07E2,1.9E1,4.7E1,1.3E1,5E0,3.02E2,2.1E2,1.56E2,1.19E2],"tree_param":{"num_deleted":"0","num_feature":"85","num_nodes":"31","size_leaf_vector":"1"}},{"base_weights":[2.7913723E-6,-1.7241571E-2,4.7926437E-2,-4.067408E-2,3.075262E-2,1.5382964E-2,1.21302E-1,-5.1997658E-2,9.8042406E-2,4.9780365E-2,-1.23481944E-1,3.141907E-2,-1.6041623E-1,7.057365E-2,2.5470227E-1,-7.7941366E-3,1.7126541E-3,-5.789067E-3,2.1064874E-2,1.0173585E-3,1.3703518E-2,-2.1299837E-2,-2.5756906E-3,1.8430802E-3,3.522822E-2,-4.171623E-3,-3.6151096E-2,-1.1752469E-3,2.3972267E-2,1.53322145E-2,4.8349418E-2],"categories":[],"categories_nodes":[],"categories_segments":[],"categories_sizes":[],"default_left":[0,0,0,0,0,0,0,0,0,0,0,0,0,0,0,0,0,0,0,0,0,0,0,0,0,0,0,0,0,0,0],"id":34,"left_children":[1,3,5,7,9,11,13,15,17,19,21,23,25,27,29,-1,-1,-1,-1,-1,-1,-1,-1,-1,-1,-1,-1,-1,-1,-1,-1],"loss_changes":[8.722786E0,8.730584E0,6.667527E0,8.198219E0,7.480919E0,5.4628844E0,5.7882595E0,8.650602E0,6.930461E0,7.836547E0,2.443953E0,7.390743E0,3.85185E0,8.678331E0,5.3998785E0,0E0,0E0,0E0,0E0,0E0,0E0,0E0,0E0,0E0,0E0,0E0,0E0,0E0,0E0,0E0,0E0],"parents":[2147483647,0,0,1,1,2,2,3,3,4,4,5,5,6,6,7,7,8,8,9,9,10,10,11,11,12,12,13,13,14,14],"right_children":[2,4,6,8,10,12,14,16,18,20,22,24,26,28,30,-1,-1,-1,-1,-1,-1,-1,-1,-1,-1,-1,-1,-1,-1,-1,-1],"split_conditions":[1E0,1E0,1E0,1E1,5.970368E1,6.156179E1,1E0,1E0,3E0,1E0,4E0,9E0,1E0,1E0,1E0,-7.7941366E-3,1.7126541E-3,-5.789067E-3,2.1064874E-2,1.0173585E-3,1.3703518E-2,-2.1299837E-2,-2.5756906E-3,1.8430802E-3,3.522822E-2,-4.171623E-3,-3.6151096E-2,-1.1752469E-3,2.3972267E-2,1.53322145E-2,4.8349418E-2],"split_indices":[80,81,66,2,84,84,32,76,1,78,1,2,14,42,68,0,0,0,0,0,0,0,0,0,0,0,0,0,0,0,0],"split_type":[0,0,0,0,0,0,0,0,0,0,0,0,0,0,0,0,0,0,0,0,0,0,0,0,0,0,0,0,0,0,0],"sum_hessian":[1.0553E4,7.761E3,2.792E3,5.215E3,2.546E3,1.935E3,8.57E2,4.822E3,3.93E2,2.267E3,2.79E2,1.774E3,1.61E2,6.22E2,2.35E2,3.506E3,1.316E3,1.65E2,2.28E2,1.56E3,7.07E2,1.45E2,1.34E2,1.706E3,6.8E1,1.02E2,5.9E1,4.19E2,2.03E2,1.64E2,7.1E1],"tree_param":{"num_deleted":"0","num_feature":"85","num_nodes":"31","size_leaf_vector":"1"}},{"base_weights":[1.04010005E-5,-1.806009E-2,4.2644564E-2,8.026482E-3,-8.4725454E-2,7.1844235E-3,1.6543524E-1,1.55542735E-2,-1.728549E-1,-2.0851062E-1,-4.8473086E-2,4.335105E-2,-1.2038504E-1,1.06049344E-1,3.683237E-1,-5.047377E-4,7.776778E-3,-2.5059214E-2,2.8284683E-5,-1.6845277E-2,-3.9979663E-2,2.3899881E-2,-6.80241E-3,-4.736098E-3,1.00827105E-2,-5.8212713E-3,-2.9887944E-2,4.1358187E-3,2.5261575E-2,5.390591E-2,2.6355693E-3],"categories":[],"categories_nodes":[],"categories_segments":[],"categories_sizes":[],"default_left":[0,0,0,0,0,0,0,0,0,0,0,0,0,0,0,0,0,0,0,0,0,0,0,0,0,0,0,0,0,0,0],"id":35,"left_children":[1,3,5,7,9,11,13,15,17,19,21,23,25,27,29,-1,-1,-1,-1,-1,-1,-1,-1,-1,-1,-1,-1,-1,-1,-1,-1],"loss_changes":[8.131786E0,1.2892412E1,1.3679627E1,7.258855E0,9.346341E0,1.1258172E1,8.443235E0,6.558856E0,2.8668914E0,3.5493565E0,9.08753E0,9.916151E0,5.9641075E0,5.166478E0,9.269173E0,0E0,0E0,0E0,0E0,0E0,0E0,0E0,0E0,0E0,0E0,0E0,0E0,0E0,0E0,0E0,0E0],"parents":[2147483647,0,0,1,1,2,2,3,3,4,4,5,5,6,6,7,7,8,8,9,9,10,10,11,11,12,12,13,13,14,14],"right_children":[2,4,6,8,10,12,14,16,18,20,22,24,26,28,30,-1,-1,-1,-1,-1,-1,-1,-1,-1,-1,-1,-1,-1,-1,-1,-1],"split_conditions":[1E0,1E0,1E0,6.2529488E1,5.051734E1,1E0,1E0,1E0,1E0,1E0,3E0,7E0,1E0,1E0,8E0,-5.047377E-4,7.776778E-3,-2.5059214E-2,2.8284683E-5,-1.6845277E-2,-3.9979663E-2,2.3899881E-2,-6.80241E-3,-4.736098E-3,1.00827105E-2,-5.8212713E-3,-2.9887944E-2,4.1358187E-3,2.5261575E-2,5.390591E-2,2.6355693E-3],"split_indices":[74,82,69,84,84,83,15,68,76,64,0,2,38,4,2,0,0,0,0,0,0,0,0,0,0,0,0,0,0,0,0],"split_type":[0,0,0,0,0,0,0,0,0,0,0,0,0,0,0,0,0,0,0,0,0,0,0,0,0,0,0,0,0,0,0],"sum_hessian":[1.0553E4,7.412E3,3.141E3,5.328E3,2.084E3,2.438E3,7.03E2,5.116E3,2.12E2,4.71E2,1.613E3,1.9E3,5.38E2,5.45E2,1.58E2,3.844E3,1.272E3,1.46E2,6.6E1,3.91E2,8E1,1.02E2,1.511E3,7.37E2,1.163E3,4E2,1.38E2,3.79E2,1.66E2,1.05E2,5.3E1],"tree_param":{"num_deleted":"0","num_feature":"85","num_nodes":"31","size_leaf_vector":"1"}},{"base_weights":[9.177924E-6,1.6347041E-2,-4.47824E-2,-2.7676078E-4,6.925745E-2,-7.282363E-2,2.0877104E-2,1.6661365E-2,-6.0457326E-2,1.06133744E-1,-4.4285625E-2,-1.0396637E-1,9.403438E-3,7.132702E-2,-1.2015956E-1,5.034573E-3,-2.2844023E-3,-1.6325007E-3,-1.5182801E-2,6.5999846E-3,2.2634633E-2,-1.1153643E-2,1.2786515E-2,-1.4174934E-2,-4.040135E-3,7.2036237E-3,-1.886071E-2,1.5077862E-3,2.1992086E-2,-1.8588452E-2,3.2388282E-3],"categories":[],"categories_nodes":[],"categories_segments":[],"categories_sizes":[],"default_left":[0,0,0,0,0,0,0,0,0,0,0,0,0,0,0,0,0,0,0,0,0,0,0,0,0,0,0,0,0,0,0],"id":36,"left_children":[1,3,5,7,9,11,13,15,17,19,21,23,25,27,29,-1,-1,-1,-1,-1,-1,-1,-1,-1,-1,-1,-1,-1,-1,-1,-1],"loss_changes":[7.7241354E0,6.8026314E0,5.19547E0,6.000878E0,7.7465515E0,5.063633E0,6.020989E0,6.1144495E0,5.2114143E0,6.7202044E0,5.2703457E0,3.4382753E0,6.7602506E0,5.2038913E0,2.2418633E0,0E0,0E0,0E0,0E0,0E0,0E0,0E0,0E0,0E0,0E0,0E0,0E0,0E0,0E0,0E0,0E0],"parents":[2147483647,0,0,1,1,2,2,3,3,4,4,5,5,6,6,7,7,8,8,9,9,10,10,11,11,12,12,13,13,14,14],"right_children":[2,4,6,8,10,12,14,16,18,20,22,24,26,28,30,-1,-1,-1,-1,-1,-1,-1,-1,-1,-1,-1,-1,-1,-1,-1,-1],"split_conditions":[1E0,1E0,1E0,1E0,1E0,1E0,1E0,5E0,1E0,1E0,1E0,1E0,1E0,1E0,1E0,5.034573E-3,-2.2844023E-3,-1.6325007E-3,-1.5182801E-2,6.5999846E-3,2.2634633E-2,-1.1153643E-2,1.2786515E-2,-1.4174934E-2,-4.040135E-3,7.2036237E-3,-1.886071E-2,1.5077862E-3,2.1992086E-2,-1.8588452E-2,3.2388282E-3],"split_indices":[6,15,54,53,64,44,56,3,7,8,71,46,60,76,50,0,0,0,0,0,0,0,0,0,0,0,0,0,0,0,0],"split_type":[0,0,0,0,0,0,0,0,0,0,0,0,0,0,0,0,0,0,0,0,0,0,0,0,0,0,0,0,0,0,0],"sum_hessian":[1.0553E4,7.733E3,2.82E3,5.885E3,1.848E3,1.976E3,8.44E2,4.593E3,1.292E3,1.395E3,4.53E2,1.433E3,5.43E2,6.22E2,2.22E2,2.479E3,2.114E3,8.72E2,4.2E2,1.047E3,3.48E2,3.26E2,1.27E2,8.98E2,5.35E2,4.13E2,1.3E2,4.52E2,1.7E2,1.55E2,6.7E1],"tree_param":{"num_deleted":"0","num_feature":"85","num_nodes":"31","size_leaf_vector":"1"}},{"base_weights":[7.796578E-6,-1.6194204E-2,4.4512972E-2,-3.967038E-2,3.1416606E-2,6.9547154E-2,-4.1444723E-2,-6.284671E-2,2.0384416E-2,7.451255E-4,1.2842518E-1,1.03478424E-1,-2.1760618E-2,-9.028467E-2,1.0441839E-1,-4.22992E-3,-1.3677077E-2,5.6034806E-3,-8.438808E-3,-3.135554E-2,1.5115647E-3,4.7075413E-3,3.4950987E-2,6.8206093E-3,2.1266503E-2,-3.7775976E-3,3.429787E-2,-1.0027629E-2,7.107705E-2,-4.8606765E-2,1.5994484E-2],"categories":[],"categories_nodes":[],"categories_segments":[],"categories_sizes":[],"default_left":[0,0,0,0,0,0,0,0,0,0,0,0,0,0,0,0,0,0,0,0,0,0,0,0,0,0,0,0,0,0,0],"id":37,"left_children":[1,3,5,7,9,11,13,15,17,19,21,23,25,27,29,-1,-1,-1,-1,-1,-1,-1,-1,-1,-1,-1,-1,-1,-1,-1,-1],"loss_changes":[7.6109242E0,8.650162E0,6.0647297E0,7.2152386E0,7.6050186E0,6.762501E0,4.5402575E0,5.675108E0,5.398329E0,8.780615E0,1.1026452E1,6.112858E0,3.4710824E0,3.8891058E0,5.3237576E0,0E0,0E0,0E0,0E0,0E0,0E0,0E0,0E0,0E0,0E0,0E0,0E0,0E0,0E0,0E0,0E0],"parents":[2147483647,0,0,1,1,2,2,3,3,4,4,5,5,6,6,7,7,8,8,9,9,10,10,11,11,12,12,13,13,14,14],"right_children":[2,4,6,8,10,12,14,16,18,20,22,24,26,28,30,-1,-1,-1,-1,-1,-1,-1,-1,-1,-1,-1,-1,-1,-1,-1,-1],"split_conditions":[1E0,1E0,1E0,1E0,1E0,1E0,1E0,1E0,1E0,4.5512177E1,1E0,1E0,1.2E1,1.2E1,2E0,-4.22992E-3,-1.3677077E-2,5.6034806E-3,-8.438808E-3,-3.135554E-2,1.5115647E-3,4.7075413E-3,3.4950987E-2,6.8206093E-3,2.1266503E-2,-3.7775976E-3,3.429787E-2,-1.0027629E-2,7.107705E-2,-4.8606765E-2,1.5994484E-2],"split_indices":[22,23,79,50,25,34,57,79,33,84,14,61,2,2,0,0,0,0,0,0,0,0,0,0,0,0,0,0,0,0,0],"split_type":[0,0,0,0,0,0,0,0,0,0,0,0,0,0,0,0,0,0,0,0,0,0,0,0,0,0,0,0,0,0,0],"sum_hessian":[1.0553E4,7.737E3,2.816E3,5.182E3,2.555E3,2.181E3,6.35E2,3.739E3,1.443E3,1.942E3,6.13E2,1.59E3,5.91E2,4.76E2,1.59E2,2.927E3,8.12E2,1.077E3,3.66E2,8.4E1,1.858E3,4.49E2,1.64E2,1.203E3,3.87E2,5.67E2,2.4E1,4.71E2,5E0,1.3E1,1.46E2],"tree_param":{"num_deleted":"0","num_feature":"85","num_nodes":"31","size_leaf_vector":"1"}},{"base_weights":[1.4228005E-5,-1.593318E-2,3.9970137E-2,-1.0944824E-3,-6.852945E-2,5.0517306E-2,-1.6884853E-1,2.5460811E-2,-5.586248E-2,-1.091984E-1,5.141834E-2,7.728927E-2,-3.62004E-2,2.758876E-1,-2.2614826E-1,1.9146547E-4,9.813636E-3,-1.48327295E-2,-9.261073E-4,-7.1248016E-3,-2.1994177E-2,1.0830718E-2,-1.5319834E-2,4.100787E-3,1.8599244E-2,-9.348525E-3,1.079413E-2,-6.5436745E-3,1.1081534E-1,-4.3027665E-2,-1.2107283E-3],"categories":[],"categories_nodes":[],"categories_segments":[],"categories_sizes":[],"default_left":[0,0,0,0,0,0,0,0,0,0,0,0,0,0,0,0,0,0,0,0,0,0,0,0,0,0,0,0,0,0,0],"id":38,"left_children":[1,3,5,7,9,11,13,15,17,19,21,23,25,27,29,-1,-1,-1,-1,-1,-1,-1,-1,-1,-1,-1,-1,-1,-1,-1,-1],"loss_changes":[6.7255745E0,5.8877172E0,6.6400933E0,8.56045E0,8.103343E0,6.658835E0,3.7574644E0,6.783127E0,8.280504E0,5.1957445E0,4.917204E0,8.633466E0,5.6001706E0,4.9017477E0,5.6310377E0,0E0,0E0,0E0,0E0,0E0,0E0,0E0,0E0,0E0,0E0,0E0,0E0,0E0,0E0,0E0,0E0],"parents":[2147483647,0,0,1,1,2,2,3,3,4,4,5,5,6,6,7,7,8,8,9,9,10,10,11,11,12,12,13,13,14,14],"right_children":[2,4,6,8,10,12,14,16,18,20,22,24,26,28,30,-1,-1,-1,-1,-1,-1,-1,-1,-1,-1,-1,-1,-1,-1,-1,-1],"split_conditions":[1E0,1E0,6.432224E1,1E0,1E0,1E0,6E0,1E0,4E0,6E0,1E0,1E0,1E0,1E0,1E0,1.9146547E-4,9.813636E-3,-1.48327295E-2,-9.261073E-4,-7.1248016E-3,-2.1994177E-2,1.0830718E-2,-1.5319834E-2,4.100787E-3,1.8599244E-2,-9.348525E-3,1.079413E-2,-6.5436745E-3,1.1081534E-1,-4.3027665E-2,-1.2107283E-3],"split_indices":[4,43,84,40,22,51,0,44,1,1,83,32,78,68,12,0,0,0,0,0,0,0,0,0,0,0,0,0,0,0,0],"split_type":[0,0,0,0,0,0,0,0,0,0,0,0,0,0,0,0,0,0,0,0,0,0,0,0,0,0,0,0,0,0,0],"sum_hessian":[1.0553E4,7.543E3,3.01E3,5.884E3,1.659E3,2.866E3,1.44E2,3.963E3,1.921E3,1.239E3,4.2E2,2.19E3,6.76E2,1.6E1,1.28E2,2.994E3,9.69E2,6.43E2,1.278E3,9.24E2,3.15E2,3.29E2,9.1E1,1.643E3,5.47E2,4.84E2,1.92E2,1.2E1,4E0,6.5E1,6.3E1],"tree_param":{"num_deleted":"0","num_feature":"85","num_nodes":"31","size_leaf_vector":"1"}},{"base_weights":[1.7053251E-5,-1.3968133E-2,4.3625947E-2,-3.100121E-2,4.153973E-2,6.757082E-2,-4.0785935E-2,-5.258822E-2,1.8231487E-2,-2.7740471E-2,1.748556E-1,7.759236E-2,-2.1357583E-1,1.713988E-2,-2.0793599E-1,-1.9478241E-3,-1.1142087E-2,8.027781E-3,-1.3495765E-2,-1.1886216E-2,5.4435385E-4,4.1045047E-2,1.1481236E-2,4.284713E-3,1.9302808E-2,-3.2251023E-2,6.5736264E-2,8.550891E-3,-1.5766116E-2,-1.0476852E-2,-5.7219606E-2],"categories":[],"categories_nodes":[],"categories_segments":[],"categories_sizes":[],"default_left":[0,0,0,0,0,0,0,0,0,0,0,0,0,0,0,0,0,0,0,0,0,0,0,0,0,0,0,0,0,0,0],"id":39,"left_children":[1,3,5,7,9,11,13,15,17,19,21,23,25,27,29,-1,-1,-1,-1,-1,-1,-1,-1,-1,-1,-1,-1,-1,-1,-1,-1],"loss_changes":[6.4372673E0,7.557482E0,5.183174E0,6.5009627E0,1.7341105E1,5.6431637E0,5.49343E0,8.280503E0,1.7737328E1,3.7380428E0,9.034533E0,7.7286406E0,6.758391E0,5.0567927E0,5.426702E0,0E0,0E0,0E0,0E0,0E0,0E0,0E0,0E0,0E0,0E0,0E0,0E0,0E0,0E0,0E0,0E0],"parents":[2147483647,0,0,1,1,2,2,3,3,4,4,5,5,6,6,7,7,8,8,9,9,10,10,11,11,12,12,13,13,14,14],"right_children":[2,4,6,8,10,12,14,16,18,20,22,24,26,28,30,-1,-1,-1,-1,-1,-1,-1,-1,-1,-1,-1,-1,-1,-1,-1,-1],"split_conditions":[1E0,1E0,1E0,1E0,1E0,6.156179E1,1E0,1E0,1E0,4E0,4E0,1E0,1E0,1E0,1E0,-1.9478241E-3,-1.1142087E-2,8.027781E-3,-1.3495765E-2,-1.1886216E-2,5.4435385E-4,4.1045047E-2,1.1481236E-2,4.284713E-3,1.9302808E-2,-3.2251023E-2,6.5736264E-2,8.550891E-3,-1.5766116E-2,-1.0476852E-2,-5.7219606E-2],"split_indices":[15,11,29,13,14,84,51,8,9,0,3,8,69,78,25,0,0,0,0,0,0,0,0,0,0,0,0,0,0,0,0],"split_type":[0,0,0,0,0,0,0,0,0,0,0,0,0,0,0,0,0,0,0,0,0,0,0,0,0,0,0,0,0,0,0],"sum_hessian":[1.0553E4,7.991E3,2.562E3,6.115E3,1.876E3,1.996E3,5.66E2,4.251E3,1.864E3,1.235E3,6.41E2,1.928E3,6.8E1,4.21E2,1.45E2,2.721E3,1.53E3,1.327E3,5.37E2,3.29E2,9.06E2,1.29E2,5.12E2,1.483E3,4.45E2,6.1E1,7E0,3.03E2,1.18E2,1.14E2,3.1E1],"tree_param":{"num_deleted":"0","num_feature":"85","num_nodes":"31","size_leaf_vector":"1"}},{"base_weights":[1.5796331E-5,-1.6052991E-2,3.7927285E-2,7.2222236E-3,-7.553384E-2,6.221532E-3,1.4771764E-1,-1.2000545E-2,6.1230432E-2,-4.1859828E-2,-1.8304382E-1,4.0115297E-2,-1.0784E-1,9.616972E-2,3.238022E-1,-2.6351055E-2,-4.1480167E-4,1.672034E-3,1.8497141E-2,-1.5833711E-2,-2.0158089E-4,-2.3853987E-2,1.436992E-3,7.3316023E-3,-7.8073526E-3,-1.5199532E-2,9.886145E-3,2.3569679E-2,3.925083E-3,4.1951627E-2,-1.8194716E-2],"categories":[],"categories_nodes":[],"categories_segments":[],"categories_sizes":[],"default_left":[0,0,0,0,0,0,0,0,0,0,0,0,0,0,0,0,0,0,0,0,0,0,0,0,0,0,0,0,0,0,0],"id":40,"left_children":[1,3,5,7,9,11,13,15,17,19,21,23,25,27,29,-1,-1,-1,-1,-1,-1,-1,-1,-1,-1,-1,-1,-1,-1,-1,-1],"loss_changes":[6.4300175E0,1.026332E1,1.0936338E1,5.533235E0,7.5406475E0,9.433439E0,6.358924E0,7.7625914E0,7.7022114E0,7.3741074E0,5.4484024E0,7.386683E0,5.117001E0,4.32693E0,7.7730923E0,0E0,0E0,0E0,0E0,0E0,0E0,0E0,0E0,0E0,0E0,0E0,0E0,0E0,0E0,0E0,0E0],"parents":[2147483647,0,0,1,1,2,2,3,3,4,4,5,5,6,6,7,7,8,8,9,9,10,10,11,11,12,12,13,13,14,14],"right_children":[2,4,6,8,10,12,14,16,18,20,22,24,26,28,30,-1,-1,-1,-1,-1,-1,-1,-1,-1,-1,-1,-1,-1,-1,-1,-1],"split_conditions":[1E0,1E0,1E0,1E0,1E0,1E0,1E0,2E0,1E0,5.051734E1,1E0,1E0,9E0,3E0,9E0,-2.6351055E-2,-4.1480167E-4,1.672034E-3,1.8497141E-2,-1.5833711E-2,-2.0158089E-4,-2.3853987E-2,1.436992E-3,7.3316023E-3,-7.8073526E-3,-1.5199532E-2,9.886145E-3,2.3569679E-2,3.925083E-3,4.1951627E-2,-1.8194716E-2],"split_indices":[74,82,69,76,56,21,15,1,44,84,12,83,2,3,2,0,0,0,0,0,0,0,0,0,0,0,0,0,0,0,0],"split_type":[0,0,0,0,0,0,0,0,0,0,0,0,0,0,0,0,0,0,0,0,0,0,0,0,0,0,0,0,0,0,0],"sum_hessian":[1.0553E4,7.412E3,3.141E3,5.328E3,2.084E3,2.438E3,7.03E2,3.93E3,1.398E3,1.588E3,4.96E2,1.88E3,5.58E2,5.45E2,1.58E2,1.18E2,3.812E3,1.029E3,3.69E2,4.04E2,1.184E3,3.87E2,1.09E2,1.468E3,4.12E2,4.6E2,9.8E1,1.57E2,3.88E2,1.33E2,2.5E1],"tree_param":{"num_deleted":"0","num_feature":"85","num_nodes":"31","size_leaf_vector":"1"}},{"base_weights":[1.4254572E-5,1.3332862E-2,-4.1473344E-2,-9.42175E-3,6.871266E-2,-6.783712E-2,2.8314747E-2,-2.8344827E-2,4.96251E-2,1.0017852E-1,-2.325789E-2,-3.3669714E-2,-1.4823914E-1,-2.1290615E-2,1.5790665E-1,-4.9073235E-3,2.7299256E-3,1.0312573E-2,-1.3450812E-2,1.15226945E-2,-1.8260483E-2,-4.663513E-3,3.9369278E-3,-4.121433E-4,-1.3336903E-2,-9.897626E-3,-2.8947923E-2,-1.0102335E-2,2.331137E-2,5.769376E-3,5.3290885E-2],"categories":[],"categories_nodes":[],"categories_segments":[],"categories_sizes":[],"default_left":[0,0,0,0,0,0,0,0,0,0,0,0,0,0,0,0,0,0,0,0,0,0,0,0,0,0,0,0,0,0,0],"id":41,"left_children":[1,3,5,7,9,11,13,15,17,19,21,23,25,27,29,-1,-1,-1,-1,-1,-1,-1,-1,-1,-1,-1,-1,-1,-1,-1,-1],"loss_changes":[5.832241E0,1.0069212E1,4.7212057E0,6.330066E0,6.736511E0,5.110162E0,4.528993E0,4.9494824E0,1.355933E1,7.3999805E0,8.714817E-1,3.8527446E0,3.8329802E0,1.0368568E1,7.297365E0,0E0,0E0,0E0,0E0,0E0,0E0,0E0,0E0,0E0,0E0,0E0,0E0,0E0,0E0,0E0,0E0],"parents":[2147483647,0,0,1,1,2,2,3,3,4,4,5,5,6,6,7,7,8,8,9,9,10,10,11,11,12,12,13,13,14,14],"right_children":[2,4,6,8,10,12,14,16,18,20,22,24,26,28,30,-1,-1,-1,-1,-1,-1,-1,-1,-1,-1,-1,-1,-1,-1,-1,-1],"split_conditions":[1E0,1E0,1E0,1E0,1E0,1E0,1E0,1E0,1E0,8E0,1E0,1E0,1E0,1E0,1E0,-4.9073235E-3,2.7299256E-3,1.0312573E-2,-1.3450812E-2,1.15226945E-2,-1.8260483E-2,-4.663513E-3,3.9369278E-3,-4.121433E-4,-1.3336903E-2,-9.897626E-3,-2.8947923E-2,-1.0102335E-2,2.331137E-2,5.769376E-3,5.3290885E-2],"split_indices":[56,54,80,69,12,62,24,66,73,1,24,71,24,10,69,0,0,0,0,0,0,0,0,0,0,0,0,0,0,0,0],"split_type":[0,0,0,0,0,0,0,0,0,0,0,0,0,0,0,0,0,0,0,0,0,0,0,0,0,0,0,0,0,0,0],"sum_hessian":[1.0553E4,7.989E3,2.564E3,5.663E3,2.326E3,1.861E3,7.03E2,4.289E3,1.374E3,1.733E3,5.93E2,1.307E3,5.54E2,5.09E2,1.94E2,3.125E3,1.164E3,1.065E3,3.09E2,1.646E3,8.7E1,4.32E2,1.61E2,1.009E3,2.98E2,4.12E2,1.42E2,3.88E2,1.21E2,1.54E2,4E1],"tree_param":{"num_deleted":"0","num_feature":"85","num_nodes":"31","size_leaf_vector":"1"}},{"base_weights":[1.3481705E-5,1.404186E-2,-3.8446456E-2,2.8723646E-2,-3.662599E-2,-6.088007E-2,3.2413155E-2,3.2294635E-2,-2.9266772E-1,-6.74468E-2,5.0950594E-2,-3.9762616E-2,-1.3763045E-1,7.155766E-2,-9.711752E-2,1.4138516E-3,9.166765E-3,-4.6759345E-2,-5.3362674E-3,-3.626827E-3,-1.5990816E-2,-1.9628538E-3,2.3227679E-2,-9.5429237E-4,-1.3319251E-2,-6.2671164E-3,-3.26553E-2,1.191016E-1,6.4961645E-3,-1.899392E-2,1.0135027E-2],"categories":[],"categories_nodes":[],"categories_segments":[],"categories_sizes":[],"default_left":[0,0,0,0,0,0,0,0,0,0,0,0,0,0,0,0,0,0,0,0,0,0,0,0,0,0,0,0,0,0,0],"id":42,"left_children":[1,3,5,7,9,11,13,15,17,19,21,23,25,27,29,-1,-1,-1,-1,-1,-1,-1,-1,-1,-1,-1,-1,-1,-1,-1,-1],"loss_changes":[5.6947455E0,5.7543316E0,4.486339E0,6.892119E0,4.6946135E0,3.4678426E0,3.449761E0,6.393301E0,2.7378483E0,3.7014942E0,5.801983E0,4.747726E0,6.522146E0,3.7770638E0,2.9299433E0,0E0,0E0,0E0,0E0,0E0,0E0,0E0,0E0,0E0,0E0,0E0,0E0,0E0,0E0,0E0,0E0],"parents":[2147483647,0,0,1,1,2,2,3,3,4,4,5,5,6,6,7,7,8,8,9,9,10,10,11,11,12,12,13,13,14,14],"right_children":[2,4,6,8,10,12,14,16,18,20,22,24,26,28,30,-1,-1,-1,-1,-1,-1,-1,-1,-1,-1,-1,-1,-1,-1,-1,-1],"split_conditions":[1E0,1E0,1E0,9E0,1E0,1E0,1E0,1E0,4.912471E1,1E0,1E0,1E0,1E0,2E0,1E0,1.4138516E-3,9.166765E-3,-4.6759345E-2,-5.3362674E-3,-3.626827E-3,-1.5990816E-2,-1.9628538E-3,2.3227679E-2,-9.5429237E-4,-1.3319251E-2,-6.2671164E-3,-3.26553E-2,1.191016E-1,6.4961645E-3,-1.899392E-2,1.0135027E-2],"split_indices":[6,47,24,3,52,8,21,15,84,20,36,40,14,0,34,0,0,0,0,0,0,0,0,0,0,0,0,0,0,0,0],"split_type":[0,0,0,0,0,0,0,0,0,0,0,0,0,0,0,0,0,0,0,0,0,0,0,0,0,0,0,0,0,0,0],"sum_hessian":[1.0553E4,7.733E3,2.82E3,5.996E3,1.737E3,2.142E3,6.78E2,5.931E3,6.5E1,1.285E3,4.52E2,1.681E3,4.61E2,5.21E2,1.57E2,4.543E3,1.388E3,3.7E1,2.8E1,9.62E2,3.23E2,3.26E2,1.26E2,1.271E3,4.1E2,3.31E2,1.3E2,2E0,5.19E2,1.07E2,5E1],"tree_param":{"num_deleted":"0","num_feature":"85","num_nodes":"31","size_leaf_vector":"1"}},{"base_weights":[1.4379618E-5,1.2602934E-2,-4.1652765E-2,-7.1929866E-3,5.9782356E-2,-7.0129804E-2,3.422057E-2,1.4097319E-2,-6.257546E-2,8.849271E-2,-4.049323E-2,-4.6459194E-2,-1.5121268E-1,9.425055E-2,-1.5892121E-1,2.2927204E-3,-1.6793683E-2,-7.295776E-3,2.7894203E-2,1.2477226E-2,-2.4705806E-3,-1.05685005E-2,1.3348001E-2,-8.020203E-3,3.1123294E-3,-9.099515E-3,-3.3215966E-2,1.3969529E-3,3.3688005E-2,-4.0645905E-2,-7.22996E-3],"categories":[],"categories_nodes":[],"categories_segments":[],"categories_sizes":[],"default_left":[0,0,0,0,0,0,0,0,0,0,0,0,0,0,0,0,0,0,0,0,0,0,0,0,0,0,0,0,0,0,0],"id":43,"left_children":[1,3,5,7,9,11,13,15,17,19,21,23,25,27,29,-1,-1,-1,-1,-1,-1,-1,-1,-1,-1,-1,-1,-1,-1,-1,-1],"loss_changes":[5.536405E0,7.5711107E0,5.293827E0,6.7347784E0,6.90154E0,3.4112139E0,7.771564E0,6.635738E0,5.643891E0,7.6540327E0,6.0705347E0,3.615132E0,4.3500404E0,9.94883E0,3.379911E0,0E0,0E0,0E0,0E0,0E0,0E0,0E0,0E0,0E0,0E0,0E0,0E0,0E0,0E0,0E0,0E0],"parents":[2147483647,0,0,1,1,2,2,3,3,4,4,5,5,6,6,7,7,8,8,9,9,10,10,11,11,12,12,13,13,14,14],"right_children":[2,4,6,8,10,12,14,16,18,20,22,24,26,28,30,-1,-1,-1,-1,-1,-1,-1,-1,-1,-1,-1,-1,-1,-1,-1,-1],"split_conditions":[1E0,1E0,1E0,1E0,1E0,1E0,1E0,6.2529488E1,1.1E1,5.9839466E1,1E0,1E0,1E0,1E0,4.9589325E1,2.2927204E-3,-1.6793683E-2,-7.295776E-3,2.7894203E-2,1.2477226E-2,-2.4705806E-3,-1.05685005E-2,1.3348001E-2,-8.020203E-3,3.1123294E-3,-9.099515E-3,-3.3215966E-2,1.3969529E-3,3.3688005E-2,-4.0645905E-2,-7.22996E-3],"split_indices":[21,74,50,82,9,25,71,84,2,84,78,78,33,46,84,0,0,0,0,0,0,0,0,0,0,0,0,0,0,0,0],"split_type":[0,0,0,0,0,0,0,0,0,0,0,0,0,0,0,0,0,0,0,0,0,0,0,0,0,0,0,0,0,0,0],"sum_hessian":[1.0553E4,8.105E3,2.448E3,5.71E3,2.395E3,1.78E3,6.68E2,4.125E3,1.585E3,1.862E3,5.33E2,1.379E3,4.01E2,5.1E2,1.58E2,3.935E3,1.9E2,1.539E3,4.6E1,1.41E3,4.52E2,3.88E2,1.45E2,9.61E2,4.18E2,3.02E2,9.9E1,3.84E2,1.26E2,4E1,1.18E2],"tree_param":{"num_deleted":"0","num_feature":"85","num_nodes":"31","size_leaf_vector":"1"}},{"base_weights":[9.048639E-6,-1.3127395E-2,3.6093462E-2,2.6993381E-3,-6.8753384E-2,5.786586E-2,-3.866042E-2,-1.6057534E-2,6.281631E-2,-2.7566148E-2,-2.0180652E-1,8.7510854E-2,-2.190281E-2,2.0045002E-3,-1.8143447E-1,-3.4512484E-3,3.8715575E-3,9.9136215E-3,-6.4329505E-3,3.1526334E-4,-1.4109381E-2,-2.8307423E-2,-7.815758E-3,5.6683836E-3,1.8294442E-2,-6.960199E-3,9.308489E-3,6.119536E-3,-1.4170024E-2,-1.2981499E-2,-6.79702E-2],"categories":[],"categories_nodes":[],"categories_segments":[],"categories_sizes":[],"default_left":[0,0,0,0,0,0,0,0,0,0,0,0,0,0,0,0,0,0,0,0,0,0,0,0,0,0,0,0,0,0,0],"id":44,"left_children":[1,3,5,7,9,11,13,15,17,19,21,23,25,27,29,-1,-1,-1,-1,-1,-1,-1,-1,-1,-1,-1,-1,-1,-1,-1,-1],"loss_changes":[5.0032897E0,6.8125477E0,4.5871053E0,6.794837E0,9.387312E0,5.1617837E0,3.6929126E0,4.6441007E0,6.6238623E0,4.5689797E0,4.0475845E0,4.670244E0,3.2534914E0,4.227651E0,3.5383291E0,0E0,0E0,0E0,0E0,0E0,0E0,0E0,0E0,0E0,0E0,0E0,0E0,0E0,0E0,0E0,0E0],"parents":[2147483647,0,0,1,1,2,2,3,3,4,4,5,5,6,6,7,7,8,8,9,9,10,10,11,11,12,12,13,13,14,14],"right_children":[2,4,6,8,10,12,14,16,18,20,22,24,26,28,30,-1,-1,-1,-1,-1,-1,-1,-1,-1,-1,-1,-1,-1,-1,-1,-1],"split_conditions":[1E0,1E0,1E0,1E0,6E0,1E0,1E0,1E0,1E0,1E0,1E0,1E0,1E0,1E0,1E0,-3.4512484E-3,3.8715575E-3,9.9136215E-3,-6.4329505E-3,3.1526334E-4,-1.4109381E-2,-2.8307423E-2,-7.815758E-3,5.6683836E-3,1.8294442E-2,-6.960199E-3,9.308489E-3,6.119536E-3,-1.4170024E-2,-1.2981499E-2,-6.79702E-2],"split_indices":[22,43,79,69,1,34,60,44,73,13,45,61,46,14,83,0,0,0,0,0,0,0,0,0,0,0,0,0,0,0,0],"split_type":[0,0,0,0,0,0,0,0,0,0,0,0,0,0,0,0,0,0,0,0,0,0,0,0,0,0,0,0,0,0,0],"sum_hessian":[1.0553E4,7.737E3,2.816E3,6.024E3,1.713E3,2.181E3,6.35E2,4.592E3,1.432E3,1.309E3,4.04E2,1.59E3,5.91E2,4.95E2,1.4E2,3.435E3,1.157E3,1.114E3,3.18E2,1.031E3,2.78E2,2.43E2,1.61E2,1.203E3,3.87E2,4.18E2,1.73E2,3.51E2,1.44E2,1.28E2,1.2E1],"tree_param":{"num_deleted":"0","num_feature":"85","num_nodes":"31","size_leaf_vector":"1"}},{"base_weights":[-2.1597275E-6,8.946783E-3,-5.457446E-2,2.4759464E-2,-4.3598093E-2,-1.1362193E-1,3.145597E-2,1.2783176E-1,1.5402975E-2,-3.7194345E-2,-4.4319034E-1,-7.104701E-2,-2.1745339E-1,1.11809924E-1,-1.0414719E-1,1.9235237E-2,-1.4319652E-3,2.761605E-3,-4.489424E-3,-6.3364925E-3,3.4522563E-3,-4.932184E-2,5.7885434E-2,-1.7071583E-3,-1.6943878E-2,-3.3013437E-2,-5.4884744E-3,7.491592E-3,5.4097265E-2,6.152458E-3,-3.211626E-2],"categories":[],"categories_nodes":[],"categories_segments":[],"categories_sizes":[],"default_left":[0,0,0,0,0,0,0,0,0,0,0,0,0,0,0,0,0,0,0,0,0,0,0,0,0,0,0,0,0,0,0],"id":45,"left_children":[1,3,5,7,9,11,13,15,17,19,21,23,25,27,29,-1,-1,-1,-1,-1,-1,-1,-1,-1,-1,-1,-1,-1,-1,-1,-1],"loss_changes":[5.1546865E0,7.5354576E0,7.5573535E0,6.7208266E0,5.352062E0,3.8835344E0,6.614773E0,5.322337E0,4.7084002E0,3.879807E0,1.9728227E0,3.3269403E0,4.6713877E0,5.9920497E0,8.145211E0,0E0,0E0,0E0,0E0,0E0,0E0,0E0,0E0,0E0,0E0,0E0,0E0,0E0,0E0,0E0,0E0],"parents":[2147483647,0,0,1,1,2,2,3,3,4,4,5,5,6,6,7,7,8,8,9,9,10,10,11,11,12,12,13,13,14,14],"right_children":[2,4,6,8,10,12,14,16,18,20,22,24,26,28,30,-1,-1,-1,-1,-1,-1,-1,-1,-1,-1,-1,-1,-1,-1,-1,-1],"split_conditions":[5.9839466E1,1E0,1E0,3E0,1E1,4E0,1E0,1E0,7E0,1E0,9E0,1E0,1E0,1.2E1,1E0,1.9235237E-2,-1.4319652E-3,2.761605E-3,-4.489424E-3,-6.3364925E-3,3.4522563E-3,-4.932184E-2,5.7885434E-2,-1.7071583E-3,-1.6943878E-2,-3.3013437E-2,-5.4884744E-3,7.491592E-3,5.4097265E-2,6.152458E-3,-3.211626E-2],"split_indices":[84,53,42,3,1,3,8,29,3,22,2,14,12,2,14,0,0,0,0,0,0,0,0,0,0,0,0,0,0,0,0],"split_type":[0,0,0,0,0,0,0,0,0,0,0,0,0,0,0,0,0,0,0,0,0,0,0,0,0,0,0,0,0,0,0],"sum_hessian":[1.0553E4,9.067E3,1.486E3,6.97E3,2.097E3,8.81E2,6.05E2,5.79E2,6.391E3,2.065E3,3.2E1,6.26E2,2.55E2,3.8E2,2.25E2,3.98E2,1.81E2,5.315E3,1.076E3,1.513E3,5.52E2,3.1E1,1E0,4.05E2,2.21E2,1.5E2,1.05E2,3.51E2,2.9E1,1.28E2,9.7E1],"tree_param":{"num_deleted":"0","num_feature":"85","num_nodes":"31","size_leaf_vector":"1"}},{"base_weights":[-1.9218628E-6,-1.3467768E-2,3.3736486E-2,-2.784576E-2,2.9650487E-2,9.040455E-3,1.051008E-1,-4.736783E-2,3.3115227E-2,7.3818974E-2,-1.0180155E-1,1.3857886E-2,-5.002025E-1,4.52129E-2,2.756011E-1,-6.330367E-3,3.5488717E-3,-1.423448E-4,1.2994227E-2,1.0914786E-2,-6.336545E-3,-4.7854795E-3,-2.5923377E-2,1.9335501E-3,-3.1868353E-2,-2.2597006E-3,-6.480419E-2,1.0742494E-2,-1.5788717E-2,3.3180002E-2,-1.3331122E-2],"categories":[],"categories_nodes":[],"categories_segments":[],"categories_sizes":[],"default_left":[0,0,0,0,0,0,0,0,0,0,0,0,0,0,0,0,0,0,0,0,0,0,0,0,0,0,0,0,0,0,0],"id":46,"left_children":[1,3,5,7,9,11,13,15,17,19,21,23,25,27,29,-1,-1,-1,-1,-1,-1,-1,-1,-1,-1,-1,-1,-1,-1,-1,-1],"loss_changes":[4.7953076E0,4.6777577E0,5.305682E0,6.735068E0,1.0963507E1,5.497289E0,7.8907804E0,5.661435E0,4.5918775E0,6.8551226E0,4.021749E0,4.046324E0,1.468143E0,7.2696056E0,4.6633005E0,0E0,0E0,0E0,0E0,0E0,0E0,0E0,0E0,0E0,0E0,0E0,0E0,0E0,0E0,0E0,0E0],"parents":[2147483647,0,0,1,1,2,2,3,3,4,4,5,5,6,6,7,7,8,8,9,9,10,10,11,11,12,12,13,13,14,14],"right_children":[2,4,6,8,10,12,14,16,18,20,22,24,26,28,30,-1,-1,-1,-1,-1,-1,-1,-1,-1,-1,-1,-1,-1,-1,-1,-1],"split_conditions":[1E0,1E0,1E0,1E0,1E0,9E0,1E0,9E0,1E0,1E0,1E0,6.711292E1,3E0,5.870421E1,6.63439E1,-6.330367E-3,3.5488717E-3,-1.423448E-4,1.2994227E-2,1.0914786E-2,-6.336545E-3,-4.7854795E-3,-2.5923377E-2,1.9335501E-3,-3.1868353E-2,-2.2597006E-3,-6.480419E-2,1.0742494E-2,-1.5788717E-2,3.3180002E-2,-1.3331122E-2],"split_indices":[4,57,68,24,61,3,66,2,54,53,51,84,0,84,84,0,0,0,0,0,0,0,0,0,0,0,0,0,0,0,0],"split_type":[0,0,0,0,0,0,0,0,0,0,0,0,0,0,0,0,0,0,0,0,0,0,0,0,0,0,0,0,0,0,0],"sum_hessian":[1.0553E4,7.543E3,3.01E3,5.657E3,1.886E3,2.237E3,7.73E2,4.285E3,1.372E3,1.412E3,4.74E2,2.217E3,2E1,5.73E2,2E2,3.594E3,6.91E2,1.012E3,3.6E2,1.123E3,2.89E2,3.54E2,1.2E2,2.182E3,3.5E1,5E0,1.5E1,4.39E2,1.34E2,1.76E2,2.4E1],"tree_param":{"num_deleted":"0","num_feature":"85","num_nodes":"31","size_leaf_vector":"1"}},{"base_weights":[-1.1040889E-5,-1.2850847E-2,3.567195E-2,-2.9318683E-2,3.8615778E-2,1.552588E-2,1.1798935E-1,-1.3690715E-2,-8.226862E-2,5.835808E-2,-1.2678306E-1,4.275812E-2,-5.59179E-2,7.0072494E-2,2.734545E-1,4.7839386E-4,-7.185228E-3,-5.805081E-3,-1.758465E-2,9.502008E-3,-5.308663E-3,-4.1338336E-4,-2.9411454E-2,1.291178E-3,1.28429E-2,-6.442736E-4,-1.9932425E-2,-1.8569472E-3,1.7488565E-2,3.7992384E-2,-3.2579962E-2],"categories":[],"categories_nodes":[],"categories_segments":[],"categories_sizes":[],"default_left":[0,0,0,0,0,0,0,0,0,0,0,0,0,0,0,0,0,0,0,0,0,0,0,0,0,0,0,0,0,0,0],"id":47,"left_children":[1,3,5,7,9,11,13,15,17,19,21,23,25,27,29,-1,-1,-1,-1,-1,-1,-1,-1,-1,-1,-1,-1,-1,-1,-1,-1],"loss_changes":[4.835907E0,6.579768E0,4.6300006E0,4.865401E0,6.152794E0,4.3702044E0,4.0705585E0,4.8807898E0,3.0265684E0,6.877336E0,4.1239223E0,4.155962E0,4.397648E0,3.914693E0,8.354262E0,0E0,0E0,0E0,0E0,0E0,0E0,0E0,0E0,0E0,0E0,0E0,0E0,0E0,0E0,0E0,0E0],"parents":[2147483647,0,0,1,1,2,2,3,3,4,4,5,5,6,6,7,7,8,8,9,9,10,10,11,11,12,12,13,13,14,14],"right_children":[2,4,6,8,10,12,14,16,18,20,22,24,26,28,30,-1,-1,-1,-1,-1,-1,-1,-1,-1,-1,-1,-1,-1,-1,-1,-1],"split_conditions":[1E0,1E0,8E0,1E0,7E0,1E0,1E0,1E0,5.6869987E1,1E0,1E0,1E0,1E0,1E0,1E0,4.7839386E-4,-7.185228E-3,-5.805081E-3,-1.758465E-2,9.502008E-3,-5.308663E-3,-4.1338336E-4,-2.9411454E-2,1.291178E-3,1.28429E-2,-6.442736E-4,-1.9932425E-2,-1.8569472E-3,1.7488565E-2,3.7992384E-2,-3.2579962E-2],"split_indices":[80,65,2,47,3,20,63,71,84,9,79,69,36,42,55,0,0,0,0,0,0,0,0,0,0,0,0,0,0,0,0],"split_type":[0,0,0,0,0,0,0,0,0,0,0,0,0,0,0,0,0,0,0,0,0,0,0,0,0,0,0,0,0,0,0],"sum_hessian":[1.0553E4,7.761E3,2.792E3,5.88E3,1.881E3,2.244E3,5.48E2,4.541E3,1.339E3,1.681E3,2E2,1.625E3,6.19E2,4.2E2,1.28E2,3.447E3,1.094E3,1.065E3,2.74E2,1.265E3,4.16E2,1.16E2,8.4E1,1.206E3,4.19E2,4.61E2,1.58E2,2.28E2,1.92E2,1.09E2,1.9E1],"tree_param":{"num_deleted":"0","num_feature":"85","num_nodes":"31","size_leaf_vector":"1"}},{"base_weights":[-1.38309515E-5,1.2397056E-2,-3.403928E-2,1.3563904E-2,-4.8854524E-1,-1.4165394E-2,-9.671336E-2,2.7319089E-2,-2.8416384E-2,-5.149271E-1,-2.0026788E-3,1.1552521E-2,-8.849293E-2,-2.5932506E-1,-6.0273487E-2,4.6151914E-3,-3.5216112E-3,2.289813E-2,-3.8360157E-3,-5.348378E-2,-9.817841E-3,3.664894E-3,-7.833741E-3,-1.3144406E-2,9.096261E-3,-1.4090453E-2,-4.2058226E-2,-1.16116535E-2,3.8164898E-3],"categories":[],"categories_nodes":[],"categories_segments":[],"categories_sizes":[],"default_left":[0,0,0,0,0,0,0,0,0,0,0,0,0,0,0,0,0,0,0,0,0,0,0,0,0,0,0,0,0],"id":48,"left_children":[1,3,5,7,9,11,13,15,17,19,-1,21,23,25,27,-1,-1,-1,-1,-1,-1,-1,-1,-1,-1,-1,-1,-1,-1],"loss_changes":[4.4572287E0,4.527331E0,3.5124035E0,4.4569316E0,2.1217489E-1,4.0974727E0,4.0078177E0,6.84768E0,4.8846383E0,8.855152E-2,0E0,3.596544E0,4.2589636E0,2.3086624E0,3.060819E0,0E0,0E0,0E0,0E0,0E0,0E0,0E0,0E0,0E0,0E0,0E0,0E0,0E0,0E0],"parents":[2147483647,0,0,1,1,2,2,3,3,4,4,5,5,6,6,7,7,8,8,9,9,11,11,12,12,13,13,14,14],"right_children":[2,4,6,8,10,12,14,16,18,20,-1,22,24,26,28,-1,-1,-1,-1,-1,-1,-1,-1,-1,-1,-1,-1,-1,-1],"split_conditions":[1E0,1.1E1,1E0,1E0,1E0,1E0,4.9064457E1,1E0,4.6915974E1,1E0,-2.0026788E-3,1E0,1E0,1E0,1E0,4.6151914E-3,-3.5216112E-3,2.289813E-2,-3.8360157E-3,-5.348378E-2,-9.817841E-3,3.664894E-3,-7.833741E-3,-1.3144406E-2,9.096261E-3,-1.4090453E-2,-4.2058226E-2,-1.16116535E-2,3.8164898E-3],"split_indices":[6,3,45,64,42,40,84,9,84,26,0,8,33,15,54,0,0,0,0,0,0,0,0,0,0,0,0,0,0],"split_type":[0,0,0,0,0,0,0,0,0,0,0,0,0,0,0,0,0,0,0,0,0,0,0,0,0,0,0,0,0],"sum_hessian":[1.0553E4,7.733E3,2.82E3,7.716E3,1.7E1,2.142E3,6.78E2,5.812E3,1.904E3,1.6E1,1E0,1.592E3,5.5E2,1.23E2,5.55E2,4.467E3,1.345E3,7E1,1.834E3,1.5E1,1E0,1.245E3,3.47E2,4.44E2,1.06E2,7.2E1,5.1E1,3.54E2,2.01E2],"tree_param":{"num_deleted":"0","num_feature":"85","num_nodes":"29","size_leaf_vector":"1"}},{"base_weights":[-2.3560131E-5,1.1458709E-2,-3.579093E-2,-7.1433964E-3,5.6731965E-2,1.1710549E-2,-6.660115E-2,-2.377535E-2,3.537541E-2,8.5324615E-2,-2.683099E-2,-1.9762248E-2,1.4942545E-1,-1.1917521E-1,1.0657454E-2,-4.9322355E-3,2.1768308E-3,6.8227933E-3,-7.7334004E-3,9.879907E-3,-1.6783154E-2,4.312962E-3,-4.371742E-3,-2.7596751E-2,-9.0485497E-4,9.62653E-3,1.0860496E-1,3.3735346E-2,-1.2604512E-2,-4.879385E-3,1.438347E-2],"categories":[],"categories_nodes":[],"categories_segments":[],"categories_sizes":[],"default_left":[0,0,0,0,0,0,0,0,0,0,0,0,0,0,0,0,0,0,0,0,0,0,0,0,0,0,0,0,0,0,0],"id":49,"left_children":[1,3,5,7,9,11,13,15,17,19,21,23,25,27,29,-1,-1,-1,-1,-1,-1,-1,-1,-1,-1,-1,-1,-1,-1,-1,-1],"loss_changes":[4.3348384E0,6.7294073E0,3.7547371E0,4.0062566E0,5.5621586E0,4.380569E0,6.3214283E0,4.7388625E0,5.9038177E0,5.9314976E0,7.036281E-1,2.2565606E0,9.256172E0,2.9467459E0,5.0029993E0,0E0,0E0,0E0,0E0,0E0,0E0,0E0,0E0,0E0,0E0,0E0,0E0,0E0,0E0,0E0,0E0],"parents":[2147483647,0,0,1,1,2,2,3,3,4,4,5,5,6,6,7,7,8,8,9,9,10,10,11,11,12,12,13,13,14,14],"right_children":[2,4,6,8,10,12,14,16,18,20,22,24,26,28,30,-1,-1,-1,-1,-1,-1,-1,-1,-1,-1,-1,-1,-1,-1,-1,-1],"split_conditions":[1E0,1E0,6E0,1E0,1E0,1E0,1E0,1E0,1E0,8E0,5.2433098E1,2E0,6.025086E1,4.762598E1,1E0,-4.9322355E-3,2.1768308E-3,6.8227933E-3,-7.7334004E-3,9.879907E-3,-1.6783154E-2,4.312962E-3,-4.371742E-3,-2.7596751E-2,-9.0485497E-4,9.62653E-3,1.0860496E-1,3.3735346E-2,-1.2604512E-2,-4.879385E-3,1.438347E-2],"split_indices":[56,54,2,66,12,42,74,52,60,1,84,1,84,84,10,0,0,0,0,