{"learner":{"attributes":{},"feature_names":["G count","A count","C count","T count","G at pos 1","A at pos 1","C at pos 1","T at pos 1","G at pos 2","A at pos 2","C at pos 2","T at pos 2","G at pos 3","A at pos 3","C at pos 3","T at pos 3","G at pos 4","A at pos 4","C at pos 4","T at pos 4","G at pos 5","A at pos 5","C at pos 5","T at pos 5","G at pos 6","A at pos 6","C at pos 6","T at pos 6","G at pos 7","A at pos 7","C at pos 7","T at pos 7","G at pos 8","A at pos 8","C at pos 8","T at pos 8","G at pos 9","A at pos 9","C at pos 9","T at pos 9","G at pos 10","A at pos 10","C at pos 10","T at pos 10","G at pos 11","A at pos 11","C at pos 11","T at pos 11","G at pos 12","A at pos 12","C at pos 12","T at pos 12","G at pos 13","A at pos 13","C at pos 13","T at pos 13","G at pos 14","A at pos 14","C at pos 14","T at pos 14","G at pos 15","A at pos 15","C at pos 15","T at pos 15","G at pos 16","A at pos 16","C at pos 16","T at pos 16","G at pos 17","A at pos 17","C at pos 17","T at pos 17","G at pos 18","A at pos 18","C at pos 18","T at pos 18","G at pos 19","A at pos 19","C at pos 19","T at pos 19","G at pos 20","A at pos 20","C at pos 20","T at pos 20","Melting Temperature"],"feature_types":["float","float","float","float","float","float","float","float","float","float","float","float","float","float","float","float","float","float","float","float","float","float","float","float","float","float","float","float","float","float","float","float","float","float","float","float","float","float","float","float","float","float","float","float","float","float","float","float","float","float","float","float","float","float","float","float","float","float","float","float","float","float","float","float","float","float","float","float","float","float","float","float","float","float","float","float","float","float","float","float","float","float","float","float","float"],"gradient_booster":{"model":{"gbtree_model_param":{"num_parallel_tree":"1","num_trees":"100"},"iteration_indptr":[0,1,2,3,4,5,6,7,8,9,10,11,12,13,14,15,16,17,18,19,20,21,22,23,24,25,26,27,28,29,30,31,32,33,34,35,36,37,38,39,40,41,42,43,44,45,46,47,48,49,50,51,52,53,54,55,56,57,58,59,60,61,62,63,64,65,66,67,68,69,70,71,72,73,74,75,76,77,78,79,80,81,82,83,84,85,86,87,88,89,90,91,92,93,94,95,96,97,98,99,100],"tree_info":[0,0,0,0,0,0,0,0,0,0,0,0,0,0,0,0,0,0,0,0,0,0,0,0,0,0,0,0,0,0,0,0,0,0,0,0,0,0,0,0,0,0,0,0,0,0,0,0,0,0,0,0,0,0,0,0,0,0,0,0,0,0,0,0,0,0,0,0,0,0,0,0,0,0,0,0,0,0,0,0,0,0,0,0,0,0,0,0,0,0,0,0,0,0,0,0,0,0,0,0],"trees":[{"base_weights":[1.04170965E-8,1.9044085E-1,-5.408574E-1,6.6439405E-2,4.3982092E-1,-6.60027E-1,-3.0002257E-1,-1.4543194E-2,2.6721603E-1,2.1520571E-1,5.191286E-1,-7.929675E-1,-3.5441148E-1,-2.3780666E-1,-4.7968796E-1,-9.719207E-3,1.7206607E-2,-5.254442E-3,3.446743E-2,2.5961105E-2,-3.1588737E-2,6.420381E-2,4.248217E-2,-8.40711E-2,-6.7478254E-2,-2.4509007E-2,-6.1148282E-2,-3.973956E-2,-1.1271094E-2,-3.511248E-2,-6.0854405E-2],"categories":[],"categories_nodes":[],"categories_segments":[],"categories_sizes":[],"default_left":[0,0,0,0,0,0,0,0,0,0,0,0,0,0,0,0,0,0,0,0,0,0,0,0,0,0,0,0,0,0,0],"id":0,"left_children":[1,3,5,7,9,11,13,15,17,19,21,23,25,27,29,-1,-1,-1,-1,-1,-1,-1,-1,-1,-1,-1,-1,-1,-1,-1,-1],"loss_changes":[1.1126204E3,2.470185E2,8.053558E1,8.678038E1,4.714807E1,7.614148E1,1.0315041E1,5.8685986E1,3.8012337E1,1.644886E1,2.2446045E1,6.824463E0,1.592527E1,1.3830112E1,3.7456322E0,0E0,0E0,0E0,0E0,0E0,0E0,0E0,0E0,0E0,0E0,0E0,0E0,0E0,0E0,0E0,0E0],"parents":[2147483647,0,0,1,1,2,2,3,3,4,4,5,5,6,6,7,7,8,8,9,9,10,10,11,11,12,12,13,13,14,14],"right_children":[2,4,6,8,10,12,14,16,18,20,22,24,26,28,30,-1,-1,-1,-1,-1,-1,-1,-1,-1,-1,-1,-1,-1,-1,-1,-1],"split_conditions":[1E0,1E0,1E0,1E0,4.9740913E1,1E0,1E0,1E0,5.032577E1,9E0,5E0,1E0,1E0,4E0,4E0,-9.719207E-3,1.7206607E-2,-5.254442E-3,3.446743E-2,2.5961105E-2,-3.1588737E-2,6.420381E-2,4.248217E-2,-8.40711E-2,-6.7478254E-2,-2.4509007E-2,-6.1148282E-2,-3.973956E-2,-1.1271094E-2,-3.511248E-2,-6.0854405E-2],"split_indices":[16,19,4,4,84,5,38,5,84,3,3,26,38,1,1,0,0,0,0,0,0,0,0,0,0,0,0,0,0,0,0],"split_type":[0,0,0,0,0,0,0,0,0,0,0,0,0,0,0,0,0,0,0,0,0,0,0,0,0,0,0,0,0,0,0],"sum_hessian":[1.08E4,7.988E3,2.812E3,5.336E3,2.652E3,1.88E3,9.32E2,3.803E3,1.533E3,6.93E2,1.959E3,1.309E3,5.71E2,6.94E2,2.38E2,2.636E3,1.167E3,2.99E2,1.234E3,6.4E2,5.3E1,8.48E2,1.111E3,9.28E2,3.81E2,4.02E2,1.69E2,3.04E2,3.9E2,1.21E2,1.17E2],"tree_param":{"num_deleted":"0","num_feature":"85","num_nodes":"31","size_leaf_vector":"1"}},{"base_weights":[-2.281713E-5,1.71414E-1,-4.8690823E-1,5.9802327E-2,3.9587688E-1,-5.941504E-1,-2.7017784E-1,-1.3086921E-2,2.4051347E-1,1.9126841E-1,4.6643832E-1,-7.137864E-1,-3.1912008E-1,-2.140994E-1,-4.321207E-1,-8.747656E-3,1.5487418E-2,-4.7307503E-3,3.1023476E-2,2.3184225E-2,-2.8488362E-2,5.792169E-2,3.8048375E-2,-6.7153834E-2,-8.377194E-2,-2.2064188E-2,-5.5069417E-2,-3.5778634E-2,-1.01468675E-2,-5.0932493E-2,-2.304847E-2],"categories":[],"categories_nodes":[],"categories_segments":[],"categories_sizes":[],"default_left":[0,0,0,0,0,0,0,0,0,0,0,0,0,0,0,0,0,0,0,0,0,0,0,0,0,0,0,0,0,0,0],"id":1,"left_children":[1,3,5,7,9,11,13,15,17,19,21,23,25,27,29,-1,-1,-1,-1,-1,-1,-1,-1,-1,-1,-1,-1,-1,-1,-1,-1],"loss_changes":[9.016438E2,2.001222E2,6.522107E1,7.0301575E1,3.821338E1,6.1663757E1,8.380524E0,4.7542873E1,3.0797836E1,1.3241821E1,1.8895813E1,6.296509E0,1.2922947E1,1.1211273E1,3.6031609E0,0E0,0E0,0E0,0E0,0E0,0E0,0E0,0E0,0E0,0E0,0E0,0E0,0E0,0E0,0E0,0E0],"parents":[2147483647,0,0,1,1,2,2,3,3,4,4,5,5,6,6,7,7,8,8,9,9,10,10,11,11,12,12,13,13,14,14],"right_children":[2,4,6,8,10,12,14,16,18,20,22,24,26,28,30,-1,-1,-1,-1,-1,-1,-1,-1,-1,-1,-1,-1,-1,-1,-1,-1],"split_conditions":[1E0,1E0,1E0,1E0,4.968144E1,1E0,1E0,1E0,5.032577E1,9E0,5E0,1E0,1E0,4E0,1E0,-8.747656E-3,1.5487418E-2,-4.7307503E-3,3.1023476E-2,2.3184225E-2,-2.8488362E-2,5.792169E-2,3.8048375E-2,-6.7153834E-2,-8.377194E-2,-2.2064188E-2,-5.5069417E-2,-3.5778634E-2,-1.01468675E-2,-5.0932493E-2,-2.304847E-2],"split_indices":[16,19,4,4,84,5,38,5,84,3,3,25,38,1,52,0,0,0,0,0,0,0,0,0,0,0,0,0,0,0,0],"split_type":[0,0,0,0,0,0,0,0,0,0,0,0,0,0,0,0,0,0,0,0,0,0,0,0,0,0,0,0,0,0,0],"sum_hessian":[1.08E4,7.988E3,2.812E3,5.336E3,2.652E3,1.88E3,9.32E2,3.803E3,1.533E3,6.81E2,1.971E3,1.309E3,5.71E2,6.94E2,2.38E2,2.636E3,1.167E3,2.99E2,1.234E3,6.28E2,5.3E1,8.5E2,1.121E3,9.81E2,3.28E2,4.02E2,1.69E2,3.04E2,3.9E2,1.71E2,6.7E1],"tree_param":{"num_deleted":"0","num_feature":"85","num_nodes":"31","size_leaf_vector":"1"}},{"base_weights":[-4.1299325E-5,1.5428808E-1,-4.383411E-1,5.3828277E-2,3.563234E-1,-5.348566E-1,-2.4328859E-1,-1.177646E-2,2.1647924E-1,1.7834159E-2,3.9091024E-1,-6.42523E-1,-2.8734294E-1,-2.941936E-1,-7.697284E-2,-7.873222E-3,1.3940001E-2,-4.2592525E-3,2.7923638E-2,9.707909E-3,-4.3455813E-2,5.9589215E-2,3.4652952E-2,-6.024784E-2,-7.5021625E-2,-1.9863246E-2,-4.9594875E-2,-3.642192E-2,-1.4038588E-2,-4.0309776E-2,7.4720643E-3],"categories":[],"categories_nodes":[],"categories_segments":[],"categories_sizes":[],"default_left":[0,0,0,0,0,0,0,0,0,0,0,0,0,0,0,0,0,0,0,0,0,0,0,0,0,0,0,0,0,0,0],"id":2,"left_children":[1,3,5,7,9,11,13,15,17,19,21,23,25,27,29,-1,-1,-1,-1,-1,-1,-1,-1,-1,-1,-1,-1,-1,-1,-1,-1],"loss_changes":[7.306747E2,1.62129E2,5.2826294E1,5.6951935E1,3.1052399E1,4.9941956E1,7.876419E0,3.851558E1,2.495259E1,8.897086E0,2.1690552E1,5.1973877E0,1.0486645E1,7.6389847E0,1.0913745E1,0E0,0E0,0E0,0E0,0E0,0E0,0E0,0E0,0E0,0E0,0E0,0E0,0E0,0E0,0E0,0E0],"parents":[2147483647,0,0,1,1,2,2,3,3,4,4,5,5,6,6,7,7,8,8,9,9,10,10,11,11,12,12,13,13,14,14],"right_children":[2,4,6,8,10,12,14,16,18,20,22,24,26,28,30,-1,-1,-1,-1,-1,-1,-1,-1,-1,-1,-1,-1,-1,-1,-1,-1],"split_conditions":[1E0,1E0,1E0,1E0,4.670367E1,1E0,1E0,1E0,5.032577E1,1E0,4E0,1E0,1E0,1E0,3E0,-7.873222E-3,1.3940001E-2,-4.2592525E-3,2.7923638E-2,9.707909E-3,-4.3455813E-2,5.9589215E-2,3.4652952E-2,-6.024784E-2,-7.5021625E-2,-1.9863246E-2,-4.9594875E-2,-3.642192E-2,-1.4038588E-2,-4.0309776E-2,7.4720643E-3],"split_indices":[16,19,4,4,84,5,36,5,84,10,3,38,38,32,1,0,0,0,0,0,0,0,0,0,0,0,0,0,0,0,0],"split_type":[0,0,0,0,0,0,0,0,0,0,0,0,0,0,0,0,0,0,0,0,0,0,0,0,0,0,0,0,0,0,0],"sum_hessian":[1.08E4,7.988E3,2.812E3,5.336E3,2.652E3,1.88E3,9.32E2,3.803E3,1.533E3,2.46E2,2.406E3,1.309E3,5.71E2,7.13E2,2.19E2,2.636E3,1.167E3,2.99E2,1.234E3,2.1E2,3.6E1,4.26E2,1.98E3,9.59E2,3.5E2,4.02E2,1.69E2,4.89E2,2.24E2,6.9E1,1.5E2],"tree_param":{"num_deleted":"0","num_feature":"85","num_nodes":"31","size_leaf_vector":"1"}},{"base_weights":[-5.5480603E-5,1.3887057E-1,-3.946094E-1,4.8451025E-2,3.2071385E-1,-4.814798E-1,-2.19049E-1,-1.0597221E-2,1.9484676E-1,1.5054421E-1,3.8080415E-1,-5.7837397E-1,-2.5873008E-1,-1.9813612E-1,-5.922908E-1,-7.086199E-3,1.2547194E-2,2.127657E-2,-5.786745E-2,1.85885E-2,-2.7175182E-2,3.176311E-2,5.1335465E-2,-6.1976593E-2,-4.7619723E-2,-1.788185E-2,-4.4664558E-2,-2.5069354E-2,-1.4511696E-3,-6.257736E-2,1.29702035E-2],"categories":[],"categories_nodes":[],"categories_segments":[],"categories_sizes":[],"default_left":[0,0,0,0,0,0,0,0,0,0,0,0,0,0,0,0,0,0,0,0,0,0,0,0,0,0,0,0,0,0,0],"id":3,"left_children":[1,3,5,7,9,11,13,15,17,19,21,23,25,27,29,-1,-1,-1,-1,-1,-1,-1,-1,-1,-1,-1,-1,-1,-1,-1,-1],"loss_changes":[5.920988E2,1.313411E2,4.2795624E1,4.6137287E1,2.7071045E1,4.0448273E1,7.1652374E0,3.1202362E1,2.1385395E1,1.0407959E1,1.6249268E1,5.2452393E0,8.50964E0,8.537342E0,1.2657051E0,0E0,0E0,0E0,0E0,0E0,0E0,0E0,0E0,0E0,0E0,0E0,0E0,0E0,0E0,0E0,0E0],"parents":[2147483647,0,0,1,1,2,2,3,3,4,4,5,5,6,6,7,7,8,8,9,9,10,10,11,11,12,12,13,13,14,14],"right_children":[2,4,6,8,10,12,14,16,18,20,22,24,26,28,30,-1,-1,-1,-1,-1,-1,-1,-1,-1,-1,-1,-1,-1,-1,-1,-1],"split_conditions":[1E0,1E0,1E0,1E0,4.9740913E1,1E0,6.692101E1,1E0,6.692101E1,9E0,1E0,1E0,1E0,1E0,1E0,-7.086199E-3,1.2547194E-2,2.127657E-2,-5.786745E-2,1.85885E-2,-2.7175182E-2,3.176311E-2,5.1335465E-2,-6.1976593E-2,-4.7619723E-2,-1.788185E-2,-4.4664558E-2,-2.5069354E-2,-1.4511696E-3,-6.257736E-2,1.29702035E-2],"split_indices":[16,19,4,4,84,5,84,5,84,3,26,26,38,36,13,0,0,0,0,0,0,0,0,0,0,0,0,0,0,0,0],"split_type":[0,0,0,0,0,0,0,0,0,0,0,0,0,0,0,0,0,0,0,0,0,0,0,0,0,0,0,0,0,0,0],"sum_hessian":[1.08E4,7.988E3,2.812E3,5.336E3,2.652E3,1.88E3,9.32E2,3.803E3,1.533E3,6.93E2,1.959E3,1.309E3,5.71E2,8.84E2,4.8E1,2.636E3,1.167E3,1.499E3,3.4E1,6.4E2,5.3E1,1.329E3,6.3E2,9.28E2,3.81E2,4.02E2,1.69E2,6.87E2,1.97E2,4.6E1,2E0],"tree_param":{"num_deleted":"0","num_feature":"85","num_nodes":"31","size_leaf_vector":"1"}},{"base_weights":[-6.889954E-5,1.2498894E-1,-3.552367E-1,4.36001E-2,2.8867054E-1,-4.3342334E-1,-1.9722569E-1,-9.536043E-3,1.7533822E-1,2.2678623E-1,4.294467E-1,-5.206202E-1,-2.3296641E-1,-1.6175108E-1,-3.8132486E-1,-6.4078816E-3,1.1975183E-2,-5.9553124E-3,2.3225488E-2,-3.4511536E-2,2.4786416E-2,4.1954923E-2,1.5034771E-1,-4.8306815E-2,-6.334083E-2,-3.032416E-2,-5.926181E-3,-9.61681E-3,-3.3824775E-2,-4.6396118E-2,-4.6966094E-4],"categories":[],"categories_nodes":[],"categories_segments":[],"categories_sizes":[],"default_left":[0,0,0,0,0,0,0,0,0,0,0,0,0,0,0,0,0,0,0,0,0,0,0,0,0,0,0,0,0,0,0],"id":4,"left_children":[1,3,5,7,9,11,13,15,17,19,21,23,25,27,29,-1,-1,-1,-1,-1,-1,-1,-1,-1,-1,-1,-1,-1,-1,-1,-1],"loss_changes":[4.7978723E2,1.0641574E2,3.4667267E1,3.736097E1,2.301509E1,3.275714E1,6.031601E0,2.6832413E1,2.0522228E1,2.2326103E1,7.96904E0,5.2424316E0,6.9644985E0,9.042412E0,4.666296E0,0E0,0E0,0E0,0E0,0E0,0E0,0E0,0E0,0E0,0E0,0E0,0E0,0E0,0E0,0E0,0E0],"parents":[2147483647,0,0,1,1,2,2,3,3,4,4,5,5,6,6,7,7,8,8,9,9,10,10,11,11,12,12,13,13,14,14],"right_children":[2,4,6,8,10,12,14,16,18,20,22,24,26,28,30,-1,-1,-1,-1,-1,-1,-1,-1,-1,-1,-1,-1,-1,-1,-1,-1],"split_conditions":[1E0,1E0,1E0,1E0,1E0,1E0,6E0,1E0,5.032577E1,4.4276886E1,6.559671E1,1E0,1E0,1E0,1E0,-6.4078816E-3,1.1975183E-2,-5.9553124E-3,2.3225488E-2,-3.4511536E-2,2.4786416E-2,4.1954923E-2,1.5034771E-1,-4.8306815E-2,-6.334083E-2,-3.032416E-2,-5.926181E-3,-9.61681E-3,-3.3824775E-2,-4.6396118E-2,-4.6966094E-4],"split_indices":[16,19,4,4,26,5,3,26,84,84,84,35,40,38,14,0,0,0,0,0,0,0,0,0,0,0,0,0,0,0,0],"split_type":[0,0,0,0,0,0,0,0,0,0,0,0,0,0,0,0,0,0,0,0,0,0,0,0,0,0,0,0,0,0,0],"sum_hessian":[1.08E4,7.988E3,2.812E3,5.336E3,2.652E3,1.88E3,9.32E2,3.803E3,1.533E3,1.844E3,8.08E2,1.309E3,5.71E2,7.83E2,1.49E2,2.675E3,1.128E3,2.99E2,1.234E3,6.5E1,1.779E3,8.02E2,6E0,9.86E2,3.23E2,4.06E2,1.65E2,5.72E2,2.11E2,1.22E2,2.7E1],"tree_param":{"num_deleted":"0","num_feature":"85","num_nodes":"31","size_leaf_vector":"1"}},{"base_weights":[-6.504596E-5,1.1251576E-1,-3.1979772E-1,3.9244365E-2,2.5987232E-1,-3.9015964E-1,-1.7759992E-1,8.6695634E-2,-9.621709E-2,1.1187712E-1,3.121421E-1,-4.6864343E-1,-2.0973314E-1,-1.5875827E-1,-5.1427877E-1,1.1903539E-2,-1.6722435E-2,-1.7839167E-2,1.1923283E-2,6.297069E-3,3.7377886E-2,3.6641635E-2,1.931308E-2,-5.083382E-2,-3.6368668E-2,-2.7979588E-2,-3.9583463E-3,-9.381527E-3,-2.7539989E-2,-5.4532923E-2,1.4360507E-2],"categories":[],"categories_nodes":[],"categories_segments":[],"categories_sizes":[],"default_left":[0,0,0,0,0,0,0,0,0,0,0,0,0,0,0,0,0,0,0,0,0,0,0,0,0,0,0,0,0,0,0],"id":5,"left_children":[1,3,5,7,9,11,13,15,17,19,21,23,25,27,29,-1,-1,-1,-1,-1,-1,-1,-1,-1,-1,-1,-1,-1,-1,-1,-1],"loss_changes":[3.8882623E2,8.62472E1,2.8075653E1,3.4313606E1,2.0487839E1,2.653772E1,5.83692E0,3.24808E1,2.4542015E1,8.865684E0,1.2589355E1,5.272888E0,6.807825E0,6.678089E0,1.0792665E0,0E0,0E0,0E0,0E0,0E0,0E0,0E0,0E0,0E0,0E0,0E0,0E0,0E0,0E0,0E0,0E0],"parents":[2147483647,0,0,1,1,2,2,3,3,4,4,5,5,6,6,7,7,8,8,9,9,10,10,11,11,12,12,13,13,14,14],"right_children":[2,4,6,8,10,12,14,16,18,20,22,24,26,28,30,-1,-1,-1,-1,-1,-1,-1,-1,-1,-1,-1,-1,-1,-1,-1,-1],"split_conditions":[1E0,1E0,1E0,1E0,4.9740913E1,1E0,6.692101E1,7E0,1E0,1E0,6E0,1E0,1E0,5E0,1E0,1.1903539E-2,-1.6722435E-2,-1.7839167E-2,1.1923283E-2,6.297069E-3,3.7377886E-2,3.6641635E-2,1.931308E-2,-5.083382E-2,-3.6368668E-2,-2.7979588E-2,-3.9583463E-3,-9.381527E-3,-2.7539989E-2,-5.4532923E-2,1.4360507E-2],"split_indices":[16,19,4,6,84,5,84,3,15,68,3,28,81,3,13,0,0,0,0,0,0,0,0,0,0,0,0,0,0,0,0],"split_type":[0,0,0,0,0,0,0,0,0,0,0,0,0,0,0,0,0,0,0,0,0,0,0,0,0,0,0,0,0,0,0],"sum_hessian":[1.08E4,7.988E3,2.812E3,5.336E3,2.652E3,1.88E3,9.32E2,3.952E3,1.384E3,6.93E2,1.959E3,1.309E3,5.71E2,8.84E2,4.8E1,3.506E3,4.46E2,1.002E3,3.82E2,5.85E2,1.08E2,1.344E3,6.15E2,9.47E2,3.62E2,4.04E2,1.67E2,5.69E2,3.15E2,4.6E1,2E0],"tree_param":{"num_deleted":"0","num_feature":"85","num_nodes":"31","size_leaf_vector":"1"}},{"base_weights":[-6.847985E-5,1.0127531E-1,-2.8788772E-1,3.531792E-2,2.3392263E-1,-3.5120702E-1,-1.5992257E-1,-1.1633583E-2,1.6287324E-1,1.788577E-1,3.592142E-1,-4.2184564E-1,-1.8881567E-1,-2.0671217E-1,-4.8937295E-2,3.3996736E-3,-1.709325E-2,2.2496033E-2,-1.2127248E-3,-3.19683E-2,1.9724244E-2,3.9537624E-2,1.0468543E-2,-3.8543466E-2,-5.2924305E-2,-1.1796326E-2,-3.5566688E-2,-2.62303E-2,-4.236357E-3,-1.5098333E-3,-5.6757677E-2],"categories":[],"categories_nodes":[],"categories_segments":[],"categories_sizes":[],"default_left":[0,0,0,0,0,0,0,0,0,0,0,0,0,0,0,0,0,0,0,0,0,0,0,0,0,0,0,0,0,0,0],"id":6,"left_children":[1,3,5,7,9,11,13,15,17,19,21,23,25,27,29,-1,-1,-1,-1,-1,-1,-1,-1,-1,-1,-1,-1,-1,-1,-1,-1],"loss_changes":[3.150802E2,6.988806E1,2.2736618E1,3.196473E1,1.8239258E1,2.1497482E1,4.8349113E0,2.8368904E1,1.5605259E1,1.6973476E1,7.404869E0,4.918701E0,6.7201214E0,5.9822845E0,4.870392E0,0E0,0E0,0E0,0E0,0E0,0E0,0E0,0E0,0E0,0E0,0E0,0E0,0E0,0E0,0E0,0E0],"parents":[2147483647,0,0,1,1,2,2,3,3,4,4,5,5,6,6,7,7,8,8,9,9,10,10,11,11,12,12,13,13,14,14],"right_children":[2,4,6,8,10,12,14,16,18,20,22,24,26,28,30,-1,-1,-1,-1,-1,-1,-1,-1,-1,-1,-1,-1,-1,-1,-1,-1],"split_conditions":[1E0,1E0,1E0,1E0,1E0,1E0,1E0,1E0,1E0,4.4276886E1,5.873982E1,1E0,1E0,1E0,1.1E1,3.3996736E-3,-1.709325E-2,2.2496033E-2,-1.2127248E-3,-3.19683E-2,1.9724244E-2,3.9537624E-2,1.0468543E-2,-3.8543466E-2,-5.2924305E-2,-1.1796326E-2,-3.5566688E-2,-2.62303E-2,-4.236357E-3,-1.5098333E-3,-5.6757677E-2],"split_indices":[16,19,4,80,26,5,32,79,6,84,84,25,38,36,0,0,0,0,0,0,0,0,0,0,0,0,0,0,0,0,0],"split_type":[0,0,0,0,0,0,0,0,0,0,0,0,0,0,0,0,0,0,0,0,0,0,0,0,0,0,0,0,0,0,0],"sum_hessian":[1.08E4,7.988E3,2.812E3,5.336E3,2.652E3,1.88E3,9.32E2,3.901E3,1.435E3,1.844E3,8.08E2,1.309E3,5.71E2,6.55E2,2.77E2,3.033E3,8.68E2,1.059E3,3.76E2,6.5E1,1.779E3,7.07E2,1.01E2,9.81E2,3.28E2,4.02E2,1.69E2,4.89E2,1.66E2,2.61E2,1.6E1],"tree_param":{"num_deleted":"0","num_feature":"85","num_nodes":"31","size_leaf_vector":"1"}},{"base_weights":[-7.8502584E-5,9.115346E-2,-2.5917983E-1,3.178755E-2,2.105446E-1,-3.161601E-1,-1.4402542E-1,9.48159E-2,-5.6206156E-2,3.9909288E-1,1.7409617E-1,-3.797309E-1,-1.700169E-1,-1.2745793E-1,-4.403151E-1,1.4989738E-2,-7.779622E-3,-1.19934315E-2,6.4141178E-3,-7.953787E-2,4.1505452E-2,1.9394647E-2,-1.3710462E-2,-3.2027856E-2,-4.4457715E-2,-1.1421005E-2,-3.588817E-2,-1.7487928E-2,2.1911995E-4,-4.6819735E-2,1.4327811E-2],"categories":[],"categories_nodes":[],"categories_segments":[],"categories_sizes":[],"default_left":[0,0,0,0,0,0,0,0,0,0,0,0,0,0,0,0,0,0,0,0,0,0,0,0,0,0,0,0,0,0,0],"id":7,"left_children":[1,3,5,7,9,11,13,15,17,19,21,23,25,27,29,-1,-1,-1,-1,-1,-1,-1,-1,-1,-1,-1,-1,-1,-1,-1,-1],"loss_changes":[2.5534116E2,5.6617455E1,1.8412048E1,2.9604858E1,1.8162704E1,1.7410767E1,4.5237656E0,2.9580702E1,1.709537E1,8.5093155E0,1.3771362E1,4.9080048E0,5.9878616E0,5.4414845E0,8.644037E-1,0E0,0E0,0E0,0E0,0E0,0E0,0E0,0E0,0E0,0E0,0E0,0E0,0E0,0E0,0E0,0E0],"parents":[2147483647,0,0,1,1,2,2,3,3,4,4,5,5,6,6,7,7,8,8,9,9,10,10,11,11,12,12,13,13,14,14],"right_children":[2,4,6,8,10,12,14,16,18,20,22,24,26,28,30,-1,-1,-1,-1,-1,-1,-1,-1,-1,-1,-1,-1,-1,-1,-1,-1],"split_conditions":[1E0,1E0,1E0,5E0,4E0,1E0,6.692101E1,1E0,1E0,4.691492E1,5.873982E1,5E0,1E0,1E0,1E0,1.4989738E-2,-7.779622E-3,-1.19934315E-2,6.4141178E-3,-7.953787E-2,4.1505452E-2,1.9394647E-2,-1.3710462E-2,-3.2027856E-2,-4.4457715E-2,-1.1421005E-2,-3.588817E-2,-1.7487928E-2,2.1911995E-4,-4.6819735E-2,1.4327811E-2],"split_indices":[16,19,4,3,3,5,84,9,15,84,84,3,25,26,13,0,0,0,0,0,0,0,0,0,0,0,0,0,0,0,0],"split_type":[0,0,0,0,0,0,0,0,0,0,0,0,0,0,0,0,0,0,0,0,0,0,0,0,0,0,0,0,0,0,0],"sum_hessian":[1.08E4,7.988E3,2.812E3,5.336E3,2.652E3,1.88E3,9.32E2,3.109E3,2.227E3,4.28E2,2.224E3,1.309E3,5.71E2,8.84E2,4.8E1,2.357E3,7.52E2,1.456E3,7.71E2,5E0,4.23E2,2.091E3,1.33E2,6.86E2,6.23E2,4.42E2,1.29E2,6.47E2,2.37E2,4.6E1,2E0],"tree_param":{"num_deleted":"0","num_feature":"85","num_nodes":"31","size_leaf_vector":"1"}},{"base_weights":[-8.95649E-5,8.203427E-2,-2.3332354E-1,2.8609097E-2,1.8947795E-1,-2.846099E-1,-1.296762E-1,-1.5967784E-2,1.3913181E-1,2.9454228E-1,1.3231541E-1,-3.4181622E-1,-1.5309793E-1,-8.889383E-2,-2.477267E-1,-6.4445883E-3,9.895105E-3,1.5574223E-2,-5.7671815E-2,3.4711E-2,1.0939181E-2,1.500372E-2,-2.5300885E-2,-3.0605083E-2,-4.3866217E-2,-2.152923E-2,9.804995E-4,-2.0832159E-2,4.4932737E-4,-1.2789865E-2,-3.6951732E-2],"categories":[],"categories_nodes":[],"categories_segments":[],"categories_sizes":[],"default_left":[0,0,0,0,0,0,0,0,0,0,0,0,0,0,0,0,0,0,0,0,0,0,0,0,0,0,0,0,0,0,0],"id":8,"left_children":[1,3,5,7,9,11,13,15,17,19,21,23,25,27,29,-1,-1,-1,-1,-1,-1,-1,-1,-1,-1,-1,-1,-1,-1,-1,-1],"loss_changes":[2.0690222E2,4.5853012E1,1.4916153E1,2.6296331E1,1.5894264E1,1.409903E1,4.4697943E0,2.1198639E1,1.832994E1,9.052589E0,1.1783207E1,4.4032288E0,5.797411E0,7.7522798E0,3.440689E0,0E0,0E0,0E0,0E0,0E0,0E0,0E0,0E0,0E0,0E0,0E0,0E0,0E0,0E0,0E0,0E0],"parents":[2147483647,0,0,1,1,2,2,3,3,4,4,5,5,6,6,7,7,8,8,9,9,10,10,11,11,12,12,13,13,14,14],"right_children":[2,4,6,8,10,12,14,16,18,20,22,24,26,28,30,-1,-1,-1,-1,-1,-1,-1,-1,-1,-1,-1,-1,-1,-1,-1,-1],"split_conditions":[1E0,1E0,1E0,1E0,5E0,1E0,1E0,1E0,6.692101E1,1E0,9E0,1E0,1E0,4E0,4E0,-6.4445883E-3,9.895105E-3,1.5574223E-2,-5.7671815E-2,3.4711E-2,1.0939181E-2,1.500372E-2,-2.5300885E-2,-3.0605083E-2,-4.3866217E-2,-2.152923E-2,9.804995E-4,-2.0832159E-2,4.4932737E-4,-1.2789865E-2,-3.6951732E-2],"split_indices":[16,19,4,4,3,5,38,26,84,72,3,38,8,1,1,0,0,0,0,0,0,0,0,0,0,0,0,0,0,0,0],"split_type":[0,0,0,0,0,0,0,0,0,0,0,0,0,0,0,0,0,0,0,0,0,0,0,0,0,0,0,0,0,0,0],"sum_hessian":[1.08E4,7.988E3,2.812E3,5.336E3,2.652E3,1.88E3,9.32E2,3.803E3,1.533E3,9.33E2,1.719E3,1.309E3,5.71E2,6.94E2,2.38E2,2.675E3,1.128E3,1.499E3,3.4E1,7.26E2,2.07E2,1.644E3,7.5E1,9.59E2,3.5E2,4.13E2,1.58E2,3.04E2,3.9E2,1.21E2,1.17E2],"tree_param":{"num_deleted":"0","num_feature":"85","num_nodes":"31","size_leaf_vector":"1"}},{"base_weights":[-9.620323E-5,7.3830426E-2,-2.100499E-1,3.0579517E-2,1.90238E-1,-2.5619945E-1,-1.16783746E-1,-1.8473275E-1,5.19831E-2,2.3820661E-1,3.735275E-2,-3.0769145E-1,-1.3782406E-1,-8.707073E-2,-2.7130517E-1,-8.220155E-3,-3.4158494E-2,2.8363973E-4,1.5542849E-2,1.6570047E-2,3.8134594E-2,-6.462969E-3,2.4110172E-2,-2.7465267E-2,-4.073877E-2,-2.0071208E-2,1.7195529E-3,-3.4424604E-3,-2.2895357E-2,-1.7369494E-2,-5.6471765E-2],"categories":[],"categories_nodes":[],"categories_segments":[],"categories_sizes":[],"default_left":[0,0,0,0,0,0,0,0,0,0,0,0,0,0,0,0,0,0,0,0,0,0,0,0,0,0,0,0,0,0,0],"id":9,"left_children":[1,3,5,7,9,11,13,15,17,19,21,23,25,27,29,-1,-1,-1,-1,-1,-1,-1,-1,-1,-1,-1,-1,-1,-1,-1,-1],"loss_changes":[1.6765965E2,4.0216663E1,1.2077766E1,2.6858456E1,1.5861214E1,1.1423012E1,4.2600555E0,8.447264E0,2.6944756E1,1.7030167E1,1.077901E1,4.203041E0,5.579808E0,5.8482714E0,4.197921E0,0E0,0E0,0E0,0E0,0E0,0E0,0E0,0E0,0E0,0E0,0E0,0E0,0E0,0E0,0E0,0E0],"parents":[2147483647,0,0,1,1,2,2,3,3,4,4,5,5,6,6,7,7,8,8,9,9,10,10,11,11,12,12,13,13,14,14],"right_children":[2,4,6,8,10,12,14,16,18,20,22,24,26,28,30,-1,-1,-1,-1,-1,-1,-1,-1,-1,-1,-1,-1,-1,-1,-1,-1],"split_conditions":[1E0,1E0,1E0,4.691492E1,1E0,1E0,6E0,1E0,1E0,1E0,1E0,1E0,1E0,1E0,1E0,-8.220155E-3,-3.4158494E-2,2.8363973E-4,1.5542849E-2,1.6570047E-2,3.8134594E-2,-6.462969E-3,2.4110172E-2,-2.7465267E-2,-4.073877E-2,-2.0071208E-2,1.7195529E-3,-3.4424604E-3,-2.2895357E-2,-1.7369494E-2,-5.6471765E-2],"split_indices":[16,80,4,84,64,5,3,17,19,74,8,35,40,38,48,0,0,0,0,0,0,0,0,0,0,0,0,0,0,0,0],"split_type":[0,0,0,0,0,0,0,0,0,0,0,0,0,0,0,0,0,0,0,0,0,0,0,0,0,0,0,0,0,0,0],"sum_hessian":[1.08E4,7.988E3,2.812E3,5.825E3,2.163E3,1.88E3,9.32E2,5.26E2,5.299E3,1.646E3,5.17E2,1.309E3,5.71E2,7.83E2,1.49E2,3.19E2,2.07E2,3.593E3,1.706E3,1.094E3,5.52E2,3.45E2,1.72E2,9.86E2,3.23E2,4.06E2,1.65E2,5.72E2,2.11E2,1.13E2,3.6E1],"tree_param":{"num_deleted":"0","num_feature":"85","num_nodes":"31","size_leaf_vector":"1"}},{"base_weights":[-9.9629084E-5,6.645312E-2,-1.8911129E-1,2.7517011E-2,1.7124763E-1,-1.534816E-1,-3.0487773E-1,-8.333051E-2,6.2269352E-2,2.1441917E-1,3.3651542E-2,-1.0753303E-1,-2.9720625E-1,-2.532138E-1,-4.316172E-1,-5.7377326E-3,-4.8141852E-2,2.3334099E-3,2.0155232E-2,2.801545E-2,8.135184E-3,-5.81854E-3,2.1713091E-2,-5.8462536E-3,-2.3291495E-2,-3.638444E-2,-9.188845E-3,-2.0051043E-2,-4.4726517E-2,-2.066171E-3,-4.6418946E-2],"categories":[],"categories_nodes":[],"categories_segments":[],"categories_sizes":[],"default_left":[0,0,0,0,0,0,0,0,0,0,0,0,0,0,0,0,0,0,0,0,0,0,0,0,0,0,0,0,0,0,0],"id":10,"left_children":[1,3,5,7,9,11,13,15,17,19,21,23,25,27,29,-1,-1,-1,-1,-1,-1,-1,-1,-1,-1,-1,-1,-1,-1,-1,-1],"loss_changes":[1.35881E2,3.2592724E1,1.1556046E1,2.244817E1,1.284745E1,1.4186321E1,4.2188416E0,1.4343705E1,2.4051802E1,1.4383896E1,8.74103E0,1.0033501E1,7.0948944E0,4.7375374E0,2.5337029E0,0E0,0E0,0E0,0E0,0E0,0E0,0E0,0E0,0E0,0E0,0E0,0E0,0E0,0E0,0E0,0E0],"parents":[2147483647,0,0,1,1,2,2,3,3,4,4,5,5,6,6,7,7,8,8,9,9,10,10,11,11,12,12,13,13,14,14],"right_children":[2,4,6,8,10,12,14,16,18,20,22,24,26,28,30,-1,-1,-1,-1,-1,-1,-1,-1,-1,-1,-1,-1,-1,-1,-1,-1],"split_conditions":[1E0,1E0,1E0,4.9870262E1,1E0,6E0,1E0,9E0,1E0,1E0,1E0,1E0,1E0,1E0,4.8799095E1,-5.7377326E-3,-4.8141852E-2,2.3334099E-3,2.0155232E-2,2.801545E-2,8.135184E-3,-5.81854E-3,2.1713091E-2,-5.8462536E-3,-2.3291495E-2,-3.638444E-2,-9.188845E-3,-2.0051043E-2,-4.4726517E-2,-2.066171E-3,-4.6418946E-2],"split_indices":[16,80,25,84,64,3,38,3,57,17,8,38,80,11,84,0,0,0,0,0,0,0,0,0,0,0,0,0,0,0,0],"split_type":[0,0,0,0,0,0,0,0,0,0,0,0,0,0,0,0,0,0,0,0,0,0,0,0,0,0,0,0,0,0,0],"sum_hessian":[1.08E4,7.988E3,2.812E3,5.825E3,2.163E3,2.152E3,6.6E2,1.39E3,4.435E3,1.646E3,5.17E2,1.632E3,5.2E2,4.71E2,1.89E2,1.306E3,8.4E1,3.467E3,9.68E2,1.101E3,5.45E2,3.45E2,1.72E2,1.174E3,4.58E2,3.92E2,1.28E2,3.72E2,9.9E1,1.4E1,1.75E2],"tree_param":{"num_deleted":"0","num_feature":"85","num_nodes":"31","size_leaf_vector":"1"}},{"base_weights":[-1.05154635E-4,5.9810396E-2,-1.7026699E-1,1.5822668E-2,1.482773E-1,-1.3816814E-1,-2.745613E-1,5.2925836E-2,-1.0797793E-1,1.0067757E-1,2.5664964E-1,-9.679757E-2,-2.675731E-1,-2.2802964E-1,-3.8871065E-1,5.9345126E-4,1.7870752E-2,-1.5651679E-2,1.7129167E-3,4.1065807E-3,2.2399865E-2,2.4779025E-2,1.2362839E-1,-5.2621257E-3,-2.096742E-2,-3.2755252E-2,-8.277084E-3,-1.8051313E-2,-4.0298592E-2,-4.597137E-2,-2.1497173E-2],"categories":[],"categories_nodes":[],"categories_segments":[],"categories_sizes":[],"default_left":[0,0,0,0,0,0,0,0,0,0,0,0,0,0,0,0,0,0,0,0,0,0,0,0,0,0,0,0,0,0,0],"id":11,"left_children":[1,3,5,7,9,11,13,15,17,19,21,23,25,27,29,-1,-1,-1,-1,-1,-1,-1,-1,-1,-1,-1,-1,-1,-1,-1,-1],"loss_changes":[1.1013004E2,3.1086512E1,9.379219E0,2.452066E1,1.3659649E1,1.1500309E1,3.4223022E0,2.4273968E1,7.477997E0,1.3554108E1,6.714943E0,8.131875E0,5.7478256E0,3.851141E0,2.2450123E0,0E0,0E0,0E0,0E0,0E0,0E0,0E0,0E0,0E0,0E0,0E0,0E0,0E0,0E0,0E0,0E0],"parents":[2147483647,0,0,1,1,2,2,3,3,4,4,5,5,6,6,7,7,8,8,9,9,10,10,11,11,12,12,13,13,14,14],"right_children":[2,4,6,8,10,12,14,16,18,20,22,24,26,28,30,-1,-1,-1,-1,-1,-1,-1,-1,-1,-1,-1,-1,-1,-1,-1,-1],"split_conditions":[1E0,1E0,1E0,1E0,1E0,6E0,1E0,1E0,1E0,1E0,6.559671E1,1E0,1E0,1E0,1E0,5.9345126E-4,1.7870752E-2,-1.5651679E-2,1.7129167E-3,4.1065807E-3,2.2399865E-2,2.4779025E-2,1.2362839E-1,-5.2621257E-3,-2.096742E-2,-3.2755252E-2,-8.277084E-3,-1.8051313E-2,-4.0298592E-2,-4.597137E-2,-2.1497173E-2],"split_indices":[16,19,25,79,26,3,38,8,74,74,84,38,80,11,63,0,0,0,0,0,0,0,0,0,0,0,0,0,0,0,0],"split_type":[0,0,0,0,0,0,0,0,0,0,0,0,0,0,0,0,0,0,0,0,0,0,0,0,0,0,0,0,0,0,0],"sum_hessian":[1.08E4,7.988E3,2.812E3,5.336E3,2.652E3,2.152E3,6.6E2,4.106E3,1.23E3,1.844E3,8.08E2,1.632E3,5.2E2,4.71E2,1.89E2,2.99E3,1.116E3,8.86E2,3.44E2,1.244E3,6E2,8.02E2,6E0,1.174E3,4.58E2,3.92E2,1.28E2,3.72E2,9.9E1,1.33E2,5.6E1],"tree_param":{"num_deleted":"0","num_feature":"85","num_nodes":"31","size_leaf_vector":"1"}},{"base_weights":[-9.59027E-5,5.3851817E-2,-1.5330893E-1,8.872309E-2,-4.903042E-2,-1.9265164E-1,-7.382664E-2,4.52187E-2,1.9780277E-1,-3.0131063E-1,-2.4977202E-2,-2.3831871E-1,-8.7727666E-2,-3.4933195E-2,-1.9463651E-1,3.1081573E-3,3.534989E-2,2.3299608E-2,-1.4736353E-2,-5.929288E-2,-2.1118082E-2,-8.287217E-3,1.0630234E-2,-2.7216498E-2,-1.4927032E-2,-1.4934934E-2,6.1346754E-3,1.0642806E-3,-2.000296E-2,-7.7163847E-3,-4.800295E-2],"categories":[],"categories_nodes":[],"categories_segments":[],"categories_sizes":[],"default_left":[0,0,0,0,0,0,0,0,0,0,0,0,0,0,0,0,0,0,0,0,0,0,0,0,0,0,0,0,0,0,0],"id":12,"left_children":[1,3,5,7,9,11,13,15,17,19,21,23,25,27,29,-1,-1,-1,-1,-1,-1,-1,-1,-1,-1,-1,-1,-1,-1,-1,-1],"loss_changes":[8.9283844E1,2.8665966E1,8.782166E0,2.8307121E1,1.2268344E1,8.992035E0,4.3770995E0,1.8585438E1,2.0697311E1,4.500678E0,1.4054394E1,3.9076538E0,5.2636766E0,5.3219028E0,7.573332E0,0E0,0E0,0E0,0E0,0E0,0E0,0E0,0E0,0E0,0E0,0E0,0E0,0E0,0E0,0E0,0E0],"parents":[2147483647,0,0,1,1,2,2,3,3,4,4,5,5,6,6,7,7,8,8,9,9,10,10,11,11,12,12,13,13,14,14],"right_children":[2,4,6,8,10,12,14,16,18,20,22,24,26,28,30,-1,-1,-1,-1,-1,-1,-1,-1,-1,-1,-1,-1,-1,-1,-1,-1],"split_conditions":[1E0,1E0,1E0,1E0,4.7154522E1,1E0,1E0,1E1,6.121466E1,2E0,1E0,1E0,1E0,1E0,1E0,3.1081573E-3,3.534989E-2,2.3299608E-2,-1.4736353E-2,-5.929288E-2,-2.1118082E-2,-8.287217E-3,1.0630234E-2,-2.7216498E-2,-1.4927032E-2,-1.4934934E-2,6.1346754E-3,1.0642806E-3,-2.000296E-2,-7.7163847E-3,-4.800295E-2],"split_indices":[16,6,4,8,84,5,12,2,84,0,19,28,81,56,64,0,0,0,0,0,0,0,0,0,0,0,0,0,0,0,0],"split_type":[0,0,0,0,0,0,0,0,0,0,0,0,0,0,0,0,0,0,0,0,0,0,0,0,0,0,0,0,0,0,0],"sum_hessian":[1.08E4,7.988E3,2.812E3,5.966E3,2.022E3,1.88E3,9.32E2,4.266E3,1.7E3,1.75E2,1.847E3,1.309E3,5.71E2,7.06E2,2.26E2,4.08E3,1.86E2,1.543E3,1.57E2,4E1,1.35E2,1.282E3,5.65E2,9.47E2,3.62E2,4.04E2,1.67E2,5.54E2,1.52E2,1.61E2,6.5E1],"tree_param":{"num_deleted":"0","num_feature":"85","num_nodes":"31","size_leaf_vector":"1"}},{"base_weights":[-1.0081407E-4,4.846275E-2,-1.3802268E-1,1.0444387E-2,1.3747E-1,-1.9224915E-1,-8.5219495E-2,5.7173003E-2,-9.159942E-2,8.946462E-2,2.8892794E-1,-2.5153875E-1,-7.528615E-2,-2.9653748E-2,-1.9375864E-1,-1.0074861E-2,8.860148E-3,-6.511537E-4,-1.998747E-2,1.5434104E-2,-3.361248E-3,-5.6326627E-3,3.345744E-2,-2.8558526E-2,-1.0181578E-2,-1.0514691E-3,-2.9109368E-2,3.6743768E-3,-1.5945122E-2,3.934882E-2,-2.1083886E-2],"categories":[],"categories_nodes":[],"categories_segments":[],"categories_sizes":[],"default_left":[0,0,0,0,0,0,0,0,0,0,0,0,0,0,0,0,0,0,0,0,0,0,0,0,0,0,0,0,0,0,0],"id":13,"left_children":[1,3,5,7,9,11,13,15,17,19,21,23,25,27,29,-1,-1,-1,-1,-1,-1,-1,-1,-1,-1,-1,-1,-1,-1,-1,-1],"loss_changes":[7.235154E1,2.7032621E1,8.03817E0,2.670332E1,1.7358627E1,9.599476E0,8.600574E0,1.9072708E1,1.6204212E1,1.4513574E1,9.080639E0,4.66066E0,6.538722E0,8.150085E0,4.927597E0,0E0,0E0,0E0,0E0,0E0,0E0,0E0,0E0,0E0,0E0,0E0,0E0,0E0,0E0,0E0,0E0],"parents":[2147483647,0,0,1,1,2,2,3,3,4,4,5,5,6,6,7,7,8,8,9,9,10,10,11,11,12,12,13,13,14,14],"right_children":[2,4,6,8,10,12,14,16,18,20,22,24,26,28,30,-1,-1,-1,-1,-1,-1,-1,-1,-1,-1,-1,-1,-1,-1,-1,-1],"split_conditions":[1E0,1E0,6E0,1E0,1E0,1E0,1E0,3E0,5E0,1E0,5E0,1E0,6E0,1E0,5.000367E1,-1.0074861E-2,8.860148E-3,-6.511537E-4,-1.998747E-2,1.5434104E-2,-3.361248E-3,-5.6326627E-3,3.345744E-2,-2.8558526E-2,-1.0181578E-2,-1.0514691E-3,-2.9109368E-2,3.6743768E-3,-1.5945122E-2,3.934882E-2,-2.1083886E-2],"split_indices":[16,26,0,17,57,26,56,1,3,18,2,80,3,12,84,0,0,0,0,0,0,0,0,0,0,0,0,0,0,0,0],"split_type":[0,0,0,0,0,0,0,0,0,0,0,0,0,0,0,0,0,0,0,0,0,0,0,0,0,0,0,0,0,0,0],"sum_hessian":[1.08E4,7.988E3,2.812E3,5.598E3,2.39E3,1.386E3,1.426E3,3.84E3,1.758E3,1.816E3,5.74E2,9.19E2,4.67E2,9.44E2,4.82E2,6.37E2,3.203E3,9.85E2,7.73E2,1.189E3,6.27E2,6.7E1,5.07E2,7.48E2,1.71E2,3.6E2,1.07E2,6.25E2,3.19E2,1.3E1,4.69E2],"tree_param":{"num_deleted":"0","num_feature":"85","num_nodes":"31","size_leaf_vector":"1"}},{"base_weights":[-9.488388E-5,4.3618735E-2,-1.2424277E-1,8.50856E-3,1.3812347E-1,-1.545005E-1,-3.7692957E-2,2.2678036E-2,-2.0733325E-1,1.7667933E-1,1.5267043E-2,-1.8958811E-1,-5.1001802E-2,-8.153426E-2,1.0610133E-1,-1.4855388E-3,1.1231166E-2,-5.8890015E-2,-1.4937485E-2,1.1568355E-2,2.971381E-2,8.410708E-3,-2.041449E-2,-1.6166938E-2,-2.8568048E-2,3.434538E-4,-2.1982327E-2,-1.5435125E-2,8.224915E-3,2.4161046E-2,-1.4222023E-2],"categories":[],"categories_nodes":[],"categories_segments":[],"categories_sizes":[],"default_left":[0,0,0,0,0,0,0,0,0,0,0,0,0,0,0,0,0,0,0,0,0,0,0,0,0,0,0,0,0,0,0],"id":14,"left_children":[1,3,5,7,9,11,13,15,17,19,21,23,25,27,29,-1,-1,-1,-1,-1,-1,-1,-1,-1,-1,-1,-1,-1,-1,-1,-1],"loss_changes":[5.8621944E1,2.6506945E1,7.3608665E0,1.7822739E1,1.0247818E1,7.558422E0,4.610665E0,1.8397425E1,7.8513203E0,1.2066921E1,7.841211E0,4.128212E0,4.862277E0,6.6913757E0,5.7884846E0,0E0,0E0,0E0,0E0,0E0,0E0,0E0,0E0,0E0,0E0,0E0,0E0,0E0,0E0,0E0,0E0],"parents":[2147483647,0,0,1,1,2,2,3,3,4,4,5,5,6,6,7,7,8,8,9,9,10,10,11,11,12,12,13,13,14,14],"right_children":[2,4,6,8,10,12,14,16,18,20,22,24,26,28,30,-1,-1,-1,-1,-1,-1,-1,-1,-1,-1,-1,-1,-1,-1,-1,-1],"split_conditions":[1E0,1E0,1E0,8E0,1E0,1E0,1E0,1E0,2E0,1E0,5.873982E1,1E0,6.0752968E1,1E0,1E0,-1.4855388E-3,1.1231166E-2,-5.8890015E-2,-1.4937485E-2,1.1568355E-2,2.971381E-2,8.410708E-3,-2.041449E-2,-1.6166938E-2,-2.8568048E-2,3.434538E-4,-2.1982327E-2,-1.5435125E-2,8.224915E-3,2.4161046E-2,-1.4222023E-2],"split_indices":[16,80,32,3,64,36,37,4,0,74,84,53,84,8,54,0,0,0,0,0,0,0,0,0,0,0,0,0,0,0,0],"split_type":[0,0,0,0,0,0,0,0,0,0,0,0,0,0,0,0,0,0,0,0,0,0,0,0,0,0,0,0,0,0,0],"sum_hessian":[1.08E4,7.988E3,2.812E3,5.825E3,2.163E3,2.083E3,7.29E2,5.467E3,3.58E2,1.646E3,5.17E2,1.555E3,5.28E2,5.59E2,1.7E2,3.854E3,1.613E3,4.6E1,3.12E2,1.094E3,5.52E2,3.94E2,1.23E2,1.207E3,3.48E2,4E2,1.28E2,3.87E2,1.72E2,1.1E2,6E1],"tree_param":{"num_deleted":"0","num_feature":"85","num_nodes":"31","size_leaf_vector":"1"}},{"base_weights":[-9.45125E-5,3.9252505E-2,-1.1184112E-1,5.0210673E-3,1.1939577E-1,-1.4414775E-1,-3.4876805E-2,4.714859E-2,-8.697259E-2,7.625473E-2,2.5551382E-1,-2.1178834E-1,-8.541566E-2,-9.36687E-2,9.875215E-2,6.0775033E-3,-2.6268145E-2,-1.4316231E-2,5.5594505E-3,1.2475575E-2,-7.3116655E-3,-5.5561694E-3,2.9665086E-2,-2.6659492E-2,-1.2460993E-2,2.514406E-2,-1.0548143E-2,-2.7392323E-3,-2.6121324E-2,1.7627396E-2,-1.1277439E-2],"categories":[],"categories_nodes":[],"categories_segments":[],"categories_sizes":[],"default_left":[0,0,0,0,0,0,0,0,0,0,0,0,0,0,0,0,0,0,0,0,0,0,0,0,0,0,0,0,0,0,0],"id":15,"left_children":[1,3,5,7,9,11,13,15,17,19,21,23,25,27,29,-1,-1,-1,-1,-1,-1,-1,-1,-1,-1,-1,-1,-1,-1,-1,-1],"loss_changes":[4.7495262E1,2.1916573E1,6.9893723E0,2.1702826E1,1.4021122E1,7.85178E0,6.553547E0,1.6232214E1,1.4098967E1,1.3172676E1,7.3746033E0,4.3624916E0,7.204874E0,6.422202E0,4.2013493E0,0E0,0E0,0E0,0E0,0E0,0E0,0E0,0E0,0E0,0E0,0E0,0E0,0E0,0E0,0E0,0E0],"parents":[2147483647,0,0,1,1,2,2,3,3,4,4,5,5,6,6,7,7,8,8,9,9,10,10,11,11,12,12,13,13,14,14],"right_children":[2,4,6,8,10,12,14,16,18,20,22,24,26,28,30,-1,-1,-1,-1,-1,-1,-1,-1,-1,-1,-1,-1,-1,-1,-1,-1],"split_conditions":[1E0,1E0,1E0,1E0,1E0,6E0,1E0,6.3269077E1,1E0,1E0,5E0,1E0,5.0705788E1,1E0,1E0,6.0775033E-3,-2.6268145E-2,-1.4316231E-2,5.5594505E-3,1.2475575E-2,-7.3116655E-3,-5.5561694E-3,2.9665086E-2,-2.6659492E-2,-1.2460993E-2,2.514406E-2,-1.0548143E-2,-2.7392323E-3,-2.6121324E-2,1.7627396E-2,-1.1277439E-2],"split_indices":[16,26,26,17,57,0,74,84,8,35,2,27,84,12,66,0,0,0,0,0,0,0,0,0,0,0,0,0,0,0,0],"split_type":[0,0,0,0,0,0,0,0,0,0,0,0,0,0,0,0,0,0,0,0,0,0,0,0,0,0,0,0,0,0,0],"sum_hessian":[1.08E4,7.988E3,2.812E3,5.598E3,2.39E3,1.98E3,8.32E2,3.84E3,1.758E3,1.816E3,5.74E2,9.19E2,1.061E3,5.78E2,2.54E2,3.679E3,1.61E2,1.261E3,4.97E2,1.371E3,4.45E2,6.7E1,5.07E2,5.63E2,3.56E2,5.9E1,1.002E3,4.15E2,1.63E2,1.86E2,6.8E1],"tree_param":{"num_deleted":"0","num_feature":"85","num_nodes":"31","size_leaf_vector":"1"}},{"base_weights":[-8.9385205E-5,3.5327297E-2,-1.00673735E-1,6.56026E-2,-5.3989604E-2,-7.043682E-2,-1.7883733E-1,2.7501298E-2,1.611421E-1,-1.5177216E-2,-1.7737202E-1,-3.1838413E-2,-1.6805221E-1,-2.1576686E-1,-5.097297E-2,6.7096413E-3,-6.1142924E-3,1.9165969E-2,-1.3810046E-2,-6.7846724E-3,1.351005E-2,-2.4016937E-2,5.1583885E-3,-6.47561E-3,7.315458E-3,-2.1459483E-2,-4.9481787E-5,-1.7445384E-2,-3.75614E-2,-1.3583195E-2,1.7347155E-2],"categories":[],"categories_nodes":[],"categories_segments":[],"categories_sizes":[],"default_left":[0,0,0,0,0,0,0,0,0,0,0,0,0,0,0,0,0,0,0,0,0,0,0,0,0,0,0,0,0,0,0],"id":16,"left_children":[1,3,5,7,9,11,13,15,17,19,21,23,25,27,29,-1,-1,-1,-1,-1,-1,-1,-1,-1,-1,-1,-1,-1,-1,-1,-1],"loss_changes":[3.8480648E1,2.1606571E1,6.635721E0,2.1716518E1,9.684982E0,7.643282E0,3.6910248E0,1.498075E1,1.5560276E1,1.2198348E1,6.971257E0,5.0368576E0,4.484066E0,3.949562E0,3.3947287E0,0E0,0E0,0E0,0E0,0E0,0E0,0E0,0E0,0E0,0E0,0E0,0E0,0E0,0E0,0E0,0E0],"parents":[2147483647,0,0,1,1,2,2,3,3,4,4,5,5,6,6,7,7,8,8,9,9,10,10,11,11,12,12,13,13,14,14],"right_children":[2,4,6,8,10,12,14,16,18,20,22,24,26,28,30,-1,-1,-1,-1,-1,-1,-1,-1,-1,-1,-1,-1,-1,-1,-1,-1],"split_conditions":[1E0,1E0,1E0,1E0,6E0,1E0,1E0,1E0,6.121466E1,1E0,1E0,1E0,1E0,1E0,1E0,6.7096413E-3,-6.1142924E-3,1.9165969E-2,-1.3810046E-2,-6.7846724E-3,1.351005E-2,-2.4016937E-2,5.1583885E-3,-6.47561E-3,7.315458E-3,-2.1459483E-2,-4.9481787E-5,-1.7445384E-2,-3.75614E-2,-1.3583195E-2,1.7347155E-2],"split_indices":[16,6,82,8,3,83,36,7,84,19,81,57,31,72,59,0,0,0,0,0,0,0,0,0,0,0,0,0,0,0,0],"split_type":[0,0,0,0,0,0,0,0,0,0,0,0,0,0,0,0,0,0,0,0,0,0,0,0,0,0,0,0,0,0,0],"sum_hessian":[1.08E4,7.988E3,2.812E3,5.966E3,2.022E3,2.029E3,7.83E2,4.266E3,1.7E3,1.539E3,4.83E2,1.455E3,5.74E2,6.07E2,1.76E2,2.949E3,1.317E3,1.543E3,1.57E2,1.14E3,3.99E2,3.79E2,1.04E2,1.108E3,3.47E2,4.49E2,1.25E2,4.84E2,1.23E2,1.28E2,4.8E1],"tree_param":{"num_deleted":"0","num_feature":"85","num_nodes":"31","size_leaf_vector":"1"}},{"base_weights":[-8.767538E-5,-3.1800658E-2,9.7322494E-2,-1.43648805E-2,-1.7937043E-1,1.3828757E-1,-1.5846506E-2,1.7933933E-2,-1.0361691E-1,-1.3809977E-1,-3.709678E-1,1.753304E-1,5.5305287E-3,6.279711E-2,-3.2321113E-1,-1.763678E-3,1.0553765E-2,-1.6162543E-2,6.5237726E-3,-1.8902076E-2,5.65396E-3,-4.3418862E-2,2.496127E-4,2.3533069E-2,4.28606E-3,1.0017709E-2,-3.4892973E-2,-1.3079089E-3,2.8998032E-2,-4.3168243E-2,-4.01812E-3],"categories":[],"categories_nodes":[],"categories_segments":[],"categories_sizes":[],"default_left":[0,0,0,0,0,0,0,0,0,0,0,0,0,0,0,0,0,0,0,0,0,0,0,0,0,0,0,0,0,0,0],"id":17,"left_children":[1,3,5,7,9,11,13,15,17,19,21,23,25,27,29,-1,-1,-1,-1,-1,-1,-1,-1,-1,-1,-1,-1,-1,-1,-1,-1],"loss_changes":[3.3369186E1,2.0964748E1,1.2301441E1,2.101411E1,6.756998E0,9.578705E0,1.7085917E1,1.6682486E1,1.8983477E1,7.047662E0,3.5899086E0,1.2095062E1,1.43265915E1,9.708672E0,4.4035463E0,0E0,0E0,0E0,0E0,0E0,0E0,0E0,0E0,0E0,0E0,0E0,0E0,0E0,0E0,0E0,0E0],"parents":[2147483647,0,0,1,1,2,2,3,3,4,4,5,5,6,6,7,7,8,8,9,9,10,10,11,11,12,12,13,13,14,14],"right_children":[2,4,6,8,10,12,14,16,18,20,22,24,26,28,30,-1,-1,-1,-1,-1,-1,-1,-1,-1,-1,-1,-1,-1,-1,-1,-1],"split_conditions":[1E0,7E0,1E0,1E0,1E0,1E0,1E0,1E0,1E0,1E0,1E0,1E0,1E0,1E0,1E0,-1.763678E-3,1.0553765E-2,-1.6162543E-2,6.5237726E-3,-1.8902076E-2,5.65396E-3,-4.3418862E-2,2.496127E-4,2.3533069E-2,4.28606E-3,1.0017709E-2,-3.4892973E-2,-1.3079089E-3,2.8998032E-2,-4.3168243E-2,-4.01812E-3],"split_indices":[19,3,15,6,13,33,11,8,15,80,36,35,72,44,60,0,0,0,0,0,0,0,0,0,0,0,0,0,0,0,0],"split_type":[0,0,0,0,0,0,0,0,0,0,0,0,0,0,0,0,0,0,0,0,0,0,0,0,0,0,0,0,0,0,0],"sum_hessian":[1.08E4,8.148E3,2.652E3,7.288E3,8.6E2,1.947E3,7.05E2,5.352E3,1.936E3,7.09E2,1.51E2,1.522E3,4.25E2,5.62E2,1.43E2,3.807E3,1.545E3,1.441E3,4.95E2,5.62E2,1.47E2,1.29E2,2.2E1,1.047E3,4.75E2,3.36E2,8.9E1,4.22E2,1.4E2,1.03E2,4E1],"tree_param":{"num_deleted":"0","num_feature":"85","num_nodes":"31","size_leaf_vector":"1"}},{"base_weights":[-8.574529E-5,3.0632123E-2,-8.7325335E-2,-4.0025628E-4,1.1416448E-1,-5.8674518E-2,-1.6492264E-1,8.68793E-2,-3.2673493E-2,1.4857376E-1,4.5385035E-3,-2.2078088E-2,-1.6870612E-1,-1.118578E-1,-3.2521573E-1,1.0803632E-2,-4.8817854E-2,-1.6475797E-3,-1.982397E-2,9.491722E-3,2.5455087E-2,6.464701E-3,-1.8697279E-2,-6.0492973E-3,1.2919736E-2,-2.0867225E-2,-1.6901015E-3,-1.3852246E-2,3.270546E-2,-3.828872E-2,-4.273201E-3],"categories":[],"categories_nodes":[],"categories_segments":[],"categories_sizes":[],"default_left":[0,0,0,0,0,0,0,0,0,0,0,0,0,0,0,0,0,0,0,0,0,0,0,0,0,0,0,0,0,0,0],"id":18,"left_children":[1,3,5,7,9,11,13,15,17,19,21,23,25,27,29,-1,-1,-1,-1,-1,-1,-1,-1,-1,-1,-1,-1,-1,-1,-1,-1],"loss_changes":[2.894735E1,2.0709194E1,6.244257E0,1.641348E1,8.162262E0,8.275302E0,6.4111156E0,1.9190662E1,1.1405072E1,9.341282E0,5.975023E0,8.980352E0,3.1088762E0,6.7279735E0,3.0463924E0,0E0,0E0,0E0,0E0,0E0,0E0,0E0,0E0,0E0,0E0,0E0,0E0,0E0,0E0,0E0,0E0],"parents":[2147483647,0,0,1,1,2,2,3,3,4,4,5,5,6,6,7,7,8,8,9,9,10,10,11,11,12,12,13,13,14,14],"right_children":[2,4,6,8,10,12,14,16,18,20,22,24,26,28,30,-1,-1,-1,-1,-1,-1,-1,-1,-1,-1,-1,-1,-1,-1,-1,-1],"split_conditions":[1E0,1E0,1E0,4E0,1E0,6E0,1E0,6.692101E1,5.807836E1,1E0,5.873982E1,1E0,1E0,9E0,1E0,1.0803632E-2,-4.8817854E-2,-1.6475797E-3,-1.982397E-2,9.491722E-3,2.5455087E-2,6.464701E-3,-1.8697279E-2,-6.0492973E-3,1.2919736E-2,-2.0867225E-2,-1.6901015E-3,-1.3852246E-2,3.270546E-2,-3.828872E-2,-4.273201E-3],"split_indices":[16,80,38,3,64,3,12,84,84,74,84,59,8,0,9,0,0,0,0,0,0,0,0,0,0,0,0,0,0,0,0],"split_type":[0,0,0,0,0,0,0,0,0,0,0,0,0,0,0,0,0,0,0,0,0,0,0,0,0,0,0,0,0,0,0],"sum_hessian":[1.08E4,7.988E3,2.812E3,5.825E3,2.163E3,2.055E3,7.57E2,1.572E3,4.253E3,1.646E3,5.17E2,1.543E3,5.12E2,5.7E2,1.87E2,1.517E3,5.5E1,3.875E3,3.78E2,1.094E3,5.52E2,3.94E2,1.23E2,1.231E3,3.12E2,4.05E2,1.07E2,5.38E2,3.2E1,1.55E2,3.2E1],"tree_param":{"num_deleted":"0","num_feature":"85","num_nodes":"31","size_leaf_vector":"1"}},{"base_weights":[-8.42231E-5,-2.7783232E-2,8.499655E-2,-5.5931717E-2,5.2039076E-2,1.2081155E-1,-1.971725E-2,-2.5255939E-2,-1.5252611E-1,8.709609E-2,-1.7927267E-1,1.5985176E-1,-1.7946731E-2,-5.2441573E-1,2.053942E-3,7.202997E-4,-1.0485314E-2,-1.835599E-2,2.631893E-4,1.3765501E-2,-3.5116568E-3,-2.7207544E-2,-6.854681E-4,1.0575986E-2,3.2570194E-2,-3.918584E-2,6.2301583E-3,-6.4386316E-2,1.5381478E-2,6.0902885E-3,-1.5313463E-2],"categories":[],"categories_nodes":[],"categories_segments":[],"categories_sizes":[],"default_left":[0,0,0,0,0,0,0,0,0,0,0,0,0,0,0,0,0,0,0,0,0,0,0,0,0,0,0,0,0,0,0],"id":19,"left_children":[1,3,5,7,9,11,13,15,17,19,21,23,25,27,29,-1,-1,-1,-1,-1,-1,-1,-1,-1,-1,-1,-1,-1,-1,-1,-1],"loss_changes":[2.5456572E1,1.831271E1,9.951994E0,1.7848875E1,1.724745E1,1.0712574E1,7.4398775E0,1.1818326E1,6.9920654E0,1.1411158E1,4.4783792E0,1.3808044E1,1.3076928E1,2.3673954E0,5.9455695E0,0E0,0E0,0E0,0E0,0E0,0E0,0E0,0E0,0E0,0E0,0E0,0E0,0E0,0E0,0E0,0E0],"parents":[2147483647,0,0,1,1,2,2,3,3,4,4,5,5,6,6,7,7,8,8,9,9,10,10,11,11,12,12,13,13,14,14],"right_children":[2,4,6,8,10,12,14,16,18,20,22,24,26,28,30,-1,-1,-1,-1,-1,-1,-1,-1,-1,-1,-1,-1,-1,-1,-1,-1],"split_conditions":[1E0,1E0,1E0,6E0,6.2118874E1,1E0,4.390919E1,1E0,1E0,1E0,1E0,1E0,4E0,1E0,1E0,7.202997E-4,-1.0485314E-2,-1.835599E-2,2.631893E-4,1.3765501E-2,-3.5116568E-3,-2.7207544E-2,-6.854681E-4,1.0575986E-2,3.2570194E-2,-3.918584E-2,6.2301583E-3,-6.4386316E-2,1.5381478E-2,6.0902885E-3,-1.5313463E-2],"split_indices":[19,32,55,3,84,33,84,38,72,82,50,30,1,14,15,0,0,0,0,0,0,0,0,0,0,0,0,0,0,0,0],"split_type":[0,0,0,0,0,0,0,0,0,0,0,0,0,0,0,0,0,0,0,0,0,0,0,0,0,0,0,0,0,0,0],"sum_hessian":[1.08E4,8.148E3,2.652E3,6.024E3,2.124E3,1.976E3,6.76E2,4.573E3,1.451E3,1.845E3,2.79E2,1.542E3,4.34E2,2.7E1,6.49E2,3.249E3,1.324E3,1.209E3,2.42E2,1.305E3,5.4E2,1.81E2,9.8E1,1.164E3,3.78E2,7.6E1,3.58E2,2.3E1,4E0,4.71E2,1.78E2],"tree_param":{"num_deleted":"0","num_feature":"85","num_nodes":"31","size_leaf_vector":"1"}},{"base_weights":[-8.446074E-5,-3.0354517E-2,7.109669E-2,-6.209328E-2,4.166273E-2,1.0539191E-1,-3.90453E-2,-9.361887E-2,9.072804E-3,9.197246E-2,-9.7573385E-2,1.4369445E-1,1.3457827E-2,2.8072514E-2,-2.0681478E-1,-1.2636763E-2,9.614549E-4,-1.1094674E-2,5.7072765E-3,-5.8366E-3,1.2650782E-2,-1.7393425E-2,1.1394519E-2,1.8677345E-3,1.9911494E-2,-3.7567278E-3,1.7374555E-2,-8.901248E-3,1.1114824E-2,-9.556624E-3,-4.6891805E-2],"categories":[],"categories_nodes":[],"categories_segments":[],"categories_sizes":[],"default_left":[0,0,0,0,0,0,0,0,0,0,0,0,0,0,0,0,0,0,0,0,0,0,0,0,0,0,0,0,0,0,0],"id":20,"left_children":[1,3,5,7,9,11,13,15,17,19,21,23,25,27,29,-1,-1,-1,-1,-1,-1,-1,-1,-1,-1,-1,-1,-1,-1,-1,-1],"loss_changes":[2.3274612E1,1.7326199E1,1.2178497E1,1.180418E1,1.625341E1,8.65344E0,8.631212E0,1.2327486E1,9.316001E0,8.854539E0,9.969293E0,1.2017246E1,5.927904E0,5.3402452E0,6.3409224E0,0E0,0E0,0E0,0E0,0E0,0E0,0E0,0E0,0E0,0E0,0E0,0E0,0E0,0E0,0E0,0E0],"parents":[2147483647,0,0,1,1,2,2,3,3,4,4,5,5,6,6,7,7,8,8,9,9,10,10,11,11,12,12,13,13,14,14],"right_children":[2,4,6,8,10,12,14,16,18,20,22,24,26,28,30,-1,-1,-1,-1,-1,-1,-1,-1,-1,-1,-1,-1,-1,-1,-1,-1],"split_conditions":[1E0,1E0,1E0,1E0,1E0,1E0,5.873982E1,1E0,4E0,5.000367E1,1E0,4E0,1E0,5E0,1E0,-1.2636763E-2,9.614549E-4,-1.1094674E-2,5.7072765E-3,-5.8366E-3,1.2650782E-2,-1.7393425E-2,1.1394519E-2,1.8677345E-3,1.9911494E-2,-3.7567278E-3,1.7374555E-2,-8.901248E-3,1.1114824E-2,-9.556624E-3,-4.6891805E-2],"split_indices":[26,4,56,5,64,82,84,19,0,84,42,0,19,0,30,0,0,0,0,0,0,0,0,0,0,0,0,0,0,0,0],"split_type":[0,0,0,0,0,0,0,0,0,0,0,0,0,0,0,0,0,0,0,0,0,0,0,0,0,0,0,0,0,0,0],"sum_hessian":[1.08E4,7.578E3,3.222E3,5.26E3,2.318E3,2.457E3,7.65E2,3.645E3,1.615E3,1.703E3,6.15E2,1.734E3,7.23E2,5.47E2,2.18E2,2.767E3,8.78E2,4.61E2,1.154E3,3.18E2,1.385E3,4.52E2,1.63E2,5.33E2,1.201E3,5.49E2,1.74E2,2.27E2,3.2E2,1.54E2,6.4E1],"tree_param":{"num_deleted":"0","num_feature":"85","num_nodes":"31","size_leaf_vector":"1"}},{"base_weights":[-7.926139E-5,2.6277915E-2,-7.493436E-2,-3.9925618E-4,9.808703E-2,-1.03798136E-1,-1.0245094E-2,7.7566475E-2,-2.9228523E-2,1.2866628E-1,-1.9993303E-2,-1.319784E-1,-1.8460667E-2,-5.8417477E-2,1.0597553E-1,9.614E-3,-4.2729378E-2,1.10434245E-4,-1.1188787E-2,7.98891E-3,2.286779E-2,-2.6374523E-2,3.8968946E-3,-9.823597E-3,-2.2578312E-2,-7.3226043E-3,1.4464009E-2,-1.3435252E-2,8.435293E-4,-3.058627E-3,2.1314692E-2],"categories":[],"categories_nodes":[],"categories_segments":[],"categories_sizes":[],"default_left":[0,0,0,0,0,0,0,0,0,0,0,0,0,0,0,0,0,0,0,0,0,0,0,0,0,0,0,0,0,0,0],"id":21,"left_children":[1,3,5,7,9,11,13,15,17,19,21,23,25,27,29,-1,-1,-1,-1,-1,-1,-1,-1,-1,-1,-1,-1,-1,-1,-1,-1],"loss_changes":[2.1312008E1,1.5304279E1,5.251302E0,1.3097338E1,7.8163605E0,4.674963E0,4.8713956E0,1.4791153E1,1.0666157E1,8.367504E0,6.4202623E0,4.605341E0,4.3338127E0,3.123161E0,3.7385764E0,0E0,0E0,0E0,0E0,0E0,0E0,0E0,0E0,0E0,0E0,0E0,0E0,0E0,0E0,0E0,0E0],"parents":[2147483647,0,0,1,1,2,2,3,3,4,4,5,5,6,6,7,7,8,8,9,9,10,10,11,11,12,12,13,13,14,14],"right_children":[2,4,6,8,10,12,14,16,18,20,22,24,26,28,30,-1,-1,-1,-1,-1,-1,-1,-1,-1,-1,-1,-1,-1,-1,-1,-1],"split_conditions":[1E0,1E0,1E0,4E0,1E0,1E0,1E0,6.692101E1,1E0,1E0,4E0,1E0,1E0,5.6310665E1,4E0,9.614E-3,-4.2729378E-2,1.10434245E-4,-1.1188787E-2,7.98891E-3,2.286779E-2,-2.6374523E-2,3.8968946E-3,-9.823597E-3,-2.2578312E-2,-7.3226043E-3,1.4464009E-2,-1.3435252E-2,8.435293E-4,-3.058627E-3,2.1314692E-2],"split_indices":[16,80,74,3,47,27,26,84,70,74,0,12,68,84,1,0,0,0,0,0,0,0,0,0,0,0,0,0,0,0,0],"split_type":[0,0,0,0,0,0,0,0,0,0,0,0,0,0,0,0,0,0,0,0,0,0,0,0,0,0,0,0,0,0,0],"sum_hessian":[1.08E4,7.988E3,2.812E3,5.825E3,2.163E3,1.944E3,8.68E2,1.572E3,4.253E3,1.718E3,4.45E2,1.461E3,4.83E2,6.14E2,2.54E2,1.517E3,5.5E1,3.112E3,1.141E3,1.156E3,5.62E2,8.6E1,3.59E2,1.076E3,3.85E2,3.62E2,1.21E2,2.87E2,3.27E2,1.12E2,1.42E2],"tree_param":{"num_deleted":"0","num_feature":"85","num_nodes":"31","size_leaf_vector":"1"}},{"base_weights":[-7.646618E-5,-2.7086377E-2,6.3438326E-2,-5.5463552E-2,3.730319E-2,3.2159716E-2,1.6338213E-1,-3.2448754E-2,-1.3826029E-1,8.231778E-2,-8.7278225E-2,6.7823194E-2,-7.802927E-2,1.986351E-2,2.1320112E-1,-6.463017E-3,7.052547E-3,-7.51224E-3,-2.8366178E-2,1.181349E-2,-3.946951E-3,-2.1200862E-3,-2.8709928E-2,2.6415235E-3,1.9415924E-2,-1.5667338E-2,5.503102E-3,1.28924465E-2,-1.9213516E-2,2.8886048E-2,5.162175E-3],"categories":[],"categories_nodes":[],"categories_segments":[],"categories_sizes":[],"default_left":[0,0,0,0,0,0,0,0,0,0,0,0,0,0,0,0,0,0,0,0,0,0,0,0,0,0,0,0,0,0,0],"id":22,"left_children":[1,3,5,7,9,11,13,15,17,19,21,23,25,27,29,-1,-1,-1,-1,-1,-1,-1,-1,-1,-1,-1,-1,-1,-1,-1,-1],"loss_changes":[1.8531147E1,1.3850372E1,1.0070179E1,1.0020613E1,1.3012091E1,9.656691E0,5.486929E0,1.3651014E1,1.0481003E1,7.4376287E0,8.127359E0,9.704198E0,6.2977314E0,4.6258054E0,6.953333E0,0E0,0E0,0E0,0E0,0E0,0E0,0E0,0E0,0E0,0E0,0E0,0E0,0E0,0E0,0E0,0E0],"parents":[2147483647,0,0,1,1,2,2,3,3,4,4,5,5,6,6,7,7,8,8,9,9,10,10,11,11,12,12,13,13,14,14],"right_children":[2,4,6,8,10,12,14,16,18,20,22,24,26,28,30,-1,-1,-1,-1,-1,-1,-1,-1,-1,-1,-1,-1,-1,-1,-1,-1],"split_conditions":[1E0,1E0,1E0,1E0,1E0,1E0,5.0586323E1,1E0,1E0,1E0,1E0,1E0,1E0,1E0,1E0,-6.463017E-3,7.052547E-3,-7.51224E-3,-2.8366178E-2,1.181349E-2,-3.946951E-3,-2.1200862E-3,-2.8709928E-2,2.6415235E-3,1.9415924E-2,-1.5667338E-2,5.503102E-3,1.28924465E-2,-1.9213516E-2,2.8886048E-2,5.162175E-3],"split_indices":[26,4,57,47,64,35,84,19,38,51,56,61,59,51,82,0,0,0,0,0,0,0,0,0,0,0,0,0,0,0,0],"split_type":[0,0,0,0,0,0,0,0,0,0,0,0,0,0,0,0,0,0,0,0,0,0,0,0,0,0,0,0,0,0,0],"sum_hessian":[1.08E4,7.578E3,3.222E3,5.26E3,2.318E3,2.455E3,7.67E2,4.117E3,1.143E3,1.703E3,6.15E2,1.855E3,6E2,1.98E2,5.69E2,3.137E3,9.8E2,7.98E2,3.45E2,1.316E3,3.87E2,4.63E2,1.52E2,1.398E3,4.57E2,3.77E2,2.23E2,1.31E2,6.7E1,3.87E2,1.82E2],"tree_param":{"num_deleted":"0","num_feature":"85","num_nodes":"31","size_leaf_vector":"1"}},{"base_weights":[-7.0545E-5,2.3275992E-2,-6.637535E-2,1.2789955E-2,1.9487725E-1,-4.447588E-2,-1.3760558E-1,-1.7879501E-2,9.364096E-2,-1.8281842E-2,3.3704957E-1,-7.264875E-2,3.857623E-2,-1.69806E-1,-4.2857554E-2,-5.906433E-4,-1.8697856E-2,3.601523E-3,2.602763E-2,9.407825E-3,-4.0308114E-2,2.5948284E-2,7.094602E-2,-1.0353713E-2,1.4127298E-3,-1.0537463E-3,1.6950693E-2,-2.1213228E-2,-6.156809E-3,6.0685845E-3,-2.8361848E-2],"categories":[],"categories_nodes":[],"categories_segments":[],"categories_sizes":[],"default_left":[0,0,0,0,0,0,0,0,0,0,0,0,0,0,0,0,0,0,0,0,0,0,0,0,0,0,0,0,0,0,0],"id":23,"left_children":[1,3,5,7,9,11,13,15,17,19,21,23,25,27,29,-1,-1,-1,-1,-1,-1,-1,-1,-1,-1,-1,-1,-1,-1,-1,-1],"loss_changes":[1.672136E1,1.4373051E1,4.3818903E0,1.8673487E1,1.3946611E1,5.0404267E0,2.009385E0,1.10534E1,1.9877365E1,8.036597E0,7.7886295E0,4.3114996E0,3.5128338E0,2.2455235E0,4.2302465E0,0E0,0E0,0E0,0E0,0E0,0E0,0E0,0E0,0E0,0E0,0E0,0E0,0E0,0E0,0E0,0E0],"parents":[2147483647,0,0,1,1,2,2,3,3,4,4,5,5,6,6,7,7,8,8,9,9,10,10,11,11,12,12,13,13,14,14],"right_children":[2,4,6,8,10,12,14,16,18,20,22,24,26,28,30,-1,-1,-1,-1,-1,-1,-1,-1,-1,-1,-1,-1,-1,-1,-1,-1],"split_conditions":[1E0,1E1,1E0,1E0,3E0,1E0,1E0,5.990839E1,1E0,6E0,1E0,1E0,5E0,1E0,1E0,-5.906433E-4,-1.8697856E-2,3.601523E-3,2.602763E-2,9.407825E-3,-4.0308114E-2,2.5948284E-2,7.094602E-2,-1.0353713E-2,1.4127298E-3,-1.0537463E-3,1.6950693E-2,-2.1213228E-2,-6.156809E-3,6.0685845E-3,-2.8361848E-2],"split_indices":[16,2,25,8,1,32,37,84,15,0,68,36,1,81,70,0,0,0,0,0,0,0,0,0,0,0,0,0,0,0,0],"split_type":[0,0,0,0,0,0,0,0,0,0,0,0,0,0,0,0,0,0,0,0,0,0,0,0,0,0,0,0,0,0,0],"sum_hessian":[1.08E4,7.988E3,2.812E3,7.529E3,4.59E2,2.152E3,6.6E2,5.459E3,2.07E3,1.84E2,2.75E2,1.607E3,5.45E2,4.92E2,1.68E2,5.099E3,3.6E2,1.539E3,5.31E2,1.43E2,4.1E1,2.29E2,4.6E1,1.185E3,4.22E2,3.97E2,1.48E2,3.53E2,1.39E2,1.18E2,5E1],"tree_param":{"num_deleted":"0","num_feature":"85","num_nodes":"31","size_leaf_vector":"1"}},{"base_weights":[-6.0378523E-5,-2.5262034E-2,5.7431873E-2,1.0633739E-2,-1.1452313E-1,9.7824946E-2,-6.666432E-2,-2.6838548E-2,1.1677081E-1,-7.43566E-2,-2.3563334E-1,5.3773038E-2,2.4632789E-1,-1.1791257E-1,1.1967455E-1,-6.1623673E-3,7.1526775E-3,1.6152715E-2,7.3972106E-4,-1.3464752E-2,2.1246641E-3,-1.7944425E-2,-3.831035E-2,9.396602E-3,-7.2651515E-3,2.026606E-2,6.26805E-2,-2.0214844E-2,6.3653174E-3,2.131189E-2,-2.0102806E-2],"categories":[],"categories_nodes":[],"categories_segments":[],"categories_sizes":[],"default_left":[0,0,0,0,0,0,0,0,0,0,0,0,0,0,0,0,0,0,0,0,0,0,0,0,0,0,0,0,0,0,0],"id":24,"left_children":[1,3,5,7,9,11,13,15,17,19,21,23,25,27,29,-1,-1,-1,-1,-1,-1,-1,-1,-1,-1,-1,-1,-1,-1,-1,-1],"loss_changes":[1.5651019E1,2.4063978E1,1.6508087E1,2.1308989E1,1.0460775E1,1.6236683E1,7.73969E0,1.3554141E1,6.8422394E0,9.334789E0,4.3726635E0,9.747831E0,9.309952E0,9.724778E0,5.2872157E0,0E0,0E0,0E0,0E0,0E0,0E0,0E0,0E0,0E0,0E0,0E0,0E0,0E0,0E0,0E0,0E0],"parents":[2147483647,0,0,1,1,2,2,3,3,4,4,5,5,6,6,7,7,8,8,9,9,10,10,11,11,12,12,13,13,14,14],"right_children":[2,4,6,8,10,12,14,16,18,20,22,24,26,28,30,-1,-1,-1,-1,-1,-1,-1,-1,-1,-1,-1,-1,-1,-1,-1,-1],"split_conditions":[1E0,1E0,1E0,1E0,1E0,1E0,1E0,1E0,1E0,1E0,1E0,1E0,5.9437046E1,1E0,1E0,-6.1623673E-3,7.1526775E-3,1.6152715E-2,7.3972106E-4,-1.3464752E-2,2.1246641E-3,-1.7944425E-2,-3.831035E-2,9.396602E-3,-7.2651515E-3,2.026606E-2,6.26805E-2,-2.0214844E-2,6.3653174E-3,2.131189E-2,-2.0102806E-2],"split_indices":[74,82,64,76,79,69,61,32,70,75,4,76,84,50,17,0,0,0,0,0,0,0,0,0,0,0,0,0,0,0,0],"split_type":[0,0,0,0,0,0,0,0,0,0,0,0,0,0,0,0,0,0,0,0,0,0,0,0,0,0,0,0,0,0,0],"sum_hessian":[1.08E4,7.509E3,3.291E3,5.356E3,2.153E3,2.483E3,8.08E2,3.959E3,1.397E3,1.618E3,5.35E2,1.916E3,5.67E2,6.34E2,1.74E2,2.925E3,1.034E3,9.91E2,4.06E2,9.92E2,6.26E2,3.89E2,1.46E2,1.454E3,4.62E2,5.1E2,5.7E1,4.33E2,2.01E2,1.35E2,3.9E1],"tree_param":{"num_deleted":"0","num_feature":"85","num_nodes":"31","size_leaf_vector":"1"}},{"base_weights":[-5.223846E-5,2.144265E-2,-6.3795134E-2,-7.3606954E-3,9.496155E-2,-1.0482594E-1,3.62494E-2,1.8551854E-2,-8.852352E-2,1.15681455E-1,-1.1472222E-1,-6.7243986E-2,-2.4246404E-1,-2.7374966E-2,2.2008336E-1,7.792159E-4,2.5438402E-2,-1.394464E-2,7.3271915E-3,-1.2712808E-3,1.593188E-2,-2.4421686E-2,1.4405295E-2,-1.0233553E-2,3.3905262E-3,-2.5214253E-2,1.16753556E-1,3.8442418E-3,-2.372363E-2,-7.1135163E-3,3.5677645E-2],"categories":[],"categories_nodes":[],"categories_segments":[],"categories_sizes":[],"default_left":[0,0,0,0,0,0,0,0,0,0,0,0,0,0,0,0,0,0,0,0,0,0,0,0,0,0,0,0,0,0,0],"id":25,"left_children":[1,3,5,7,9,11,13,15,17,19,21,23,25,27,29,-1,-1,-1,-1,-1,-1,-1,-1,-1,-1,-1,-1,-1,-1,-1,-1],"loss_changes":[1.4800319E1,1.7106592E1,1.118557E1,1.2210346E1,9.892958E0,9.977371E0,9.281206E0,1.1165478E1,1.1586134E1,1.15997925E1,6.904728E0,5.3951354E0,5.9441013E0,8.158509E0,8.146123E0,0E0,0E0,0E0,0E0,0E0,0E0,0E0,0E0,0E0,0E0,0E0,0E0,0E0,0E0,0E0,0E0],"parents":[2147483647,0,0,1,1,2,2,3,3,4,4,5,5,6,6,7,7,8,8,9,9,10,10,11,11,12,12,13,13,14,14],"right_children":[2,4,6,8,10,12,14,16,18,20,22,24,26,28,30,-1,-1,-1,-1,-1,-1,-1,-1,-1,-1,-1,-1,-1,-1,-1,-1],"split_conditions":[1E0,1E0,1E0,1E0,6.2118874E1,1E0,1E0,1E1,1E0,5.1378292E1,1E0,1E0,9E0,5.873982E1,3E0,7.792159E-4,2.5438402E-2,-1.394464E-2,7.3271915E-3,-1.2712808E-3,1.593188E-2,-2.4421686E-2,1.4405295E-2,-1.0233553E-2,3.3905262E-3,-2.5214253E-2,1.16753556E-1,3.8442418E-3,-2.372363E-2,-7.1135163E-3,3.5677645E-2],"split_indices":[6,8,54,56,84,47,68,2,69,84,74,76,0,84,1,0,0,0,0,0,0,0,0,0,0,0,0,0,0,0,0],"split_type":[0,0,0,0,0,0,0,0,0,0,0,0,0,0,0,0,0,0,0,0,0,0,0,0,0,0,0,0,0,0,0],"sum_hessian":[1.08E4,8.077E3,2.723E3,5.804E3,2.273E3,1.931E3,7.92E2,4.4E3,1.404E3,2.069E3,2.04E2,1.518E3,4.13E2,5.89E2,2.03E2,4.209E3,1.91E2,1.068E3,3.36E2,5.25E2,1.544E3,1.36E2,6.8E1,1.127E3,3.91E2,4.11E2,2E0,4.49E2,1.4E2,6.5E1,1.38E2],"tree_param":{"num_deleted":"0","num_feature":"85","num_nodes":"31","size_leaf_vector":"1"}},{"base_weights":[-3.6123492E-5,-2.3934698E-2,5.616224E-2,-4.907064E-2,3.3100292E-2,8.650366E-2,-3.0573968E-2,-7.534982E-2,1.0250502E-2,6.979574E-2,-8.676042E-2,6.622926E-2,3.0440181E-1,3.0985442E-1,-5.262393E-2,-3.8867034E-3,-1.3586002E-2,-9.548731E-3,5.2536754E-3,-5.1405444E-3,1.0831616E-2,-1.3838961E-2,7.2242245E-3,2.8691841E-3,1.5848316E-2,4.235766E-2,7.1918624E-3,-3.6123175E-2,6.868478E-2,-8.770558E-3,1.3183318E-2],"categories":[],"categories_nodes":[],"categories_segments":[],"categories_sizes":[],"default_left":[0,0,0,0,0,0,0,0,0,0,0,0,0,0,0,0,0,0,0,0,0,0,0,0,0,0,0,0,0,0,0],"id":26,"left_children":[1,3,5,7,9,11,13,15,17,19,21,23,25,27,29,-1,-1,-1,-1,-1,-1,-1,-1,-1,-1,-1,-1,-1,-1,-1,-1],"loss_changes":[1.4507744E1,1.0867094E1,8.484611E0,8.202205E0,1.0205814E1,1.0529436E1,6.291685E0,8.04356E0,7.2305665E0,8.297214E0,4.4757905E0,7.5655136E0,5.5938797E0,1.315086E1,5.0978155E0,0E0,0E0,0E0,0E0,0E0,0E0,0E0,0E0,0E0,0E0,0E0,0E0,0E0,0E0,0E0,0E0],"parents":[2147483647,0,0,1,1,2,2,3,3,4,4,5,5,6,6,7,7,8,8,9,9,10,10,11,11,12,12,13,13,14,14],"right_children":[2,4,6,8,10,12,14,16,18,20,22,24,26,28,30,-1,-1,-1,-1,-1,-1,-1,-1,-1,-1,-1,-1,-1,-1,-1,-1],"split_conditions":[1E0,1E0,5.8228745E1,1E0,1E0,5.720394E1,4E0,1E0,4E0,5E0,1E0,1E0,1E0,1E0,1E0,-3.8867034E-3,-1.3586002E-2,-9.548731E-3,5.2536754E-3,-5.1405444E-3,1.0831616E-2,-1.3838961E-2,7.2242245E-3,2.8691841E-3,1.5848316E-2,4.235766E-2,7.1918624E-3,-3.6123175E-2,6.868478E-2,-8.770558E-3,1.3183318E-2],"split_indices":[26,4,84,5,55,84,0,25,0,2,69,19,58,78,15,0,0,0,0,0,0,0,0,0,0,0,0,0,0,0,0],"split_type":[0,0,0,0,0,0,0,0,0,0,0,0,0,0,0,0,0,0,0,0,0,0,0,0,0,0,0,0,0,0,0],"sum_hessian":[1.08E4,7.578E3,3.222E3,5.26E3,2.318E3,2.387E3,8.35E2,3.645E3,1.615E3,1.775E3,5.43E2,2.185E3,2.02E2,5E1,7.85E2,2.275E3,1.37E3,4.61E2,1.154E3,4.28E2,1.347E3,4.1E2,1.33E2,1.554E3,6.31E2,1.33E2,6.9E1,1.8E1,3.2E1,6.6E2,1.25E2],"tree_param":{"num_deleted":"0","num_feature":"85","num_nodes":"31","size_leaf_vector":"1"}},{"base_weights":[-2.487003E-5,-2.1539938E-2,5.7429068E-2,-4.4492252E-2,4.952897E-2,8.369327E-2,-2.5138311E-2,-7.280722E-2,2.2112148E-2,1.0354096E-1,-8.859337E-2,4.6425898E-2,1.6004834E-1,-8.756917E-2,1.80358E-1,-4.46355E-3,-1.6939988E-2,-1.8485729E-3,1.1970721E-2,1.55550735E-2,-7.951154E-3,2.2866998E-3,-2.5849497E-2,-1.1060393E-2,6.952539E-3,2.2285819E-2,-8.720668E-3,-3.4218617E-3,-2.7467465E-2,8.718839E-3,5.832841E-2],"categories":[],"categories_nodes":[],"categories_segments":[],"categories_sizes":[],"default_left":[0,0,0,0,0,0,0,0,0,0,0,0,0,0,0,0,0,0,0,0,0,0,0,0,0,0,0,0,0,0,0],"id":27,"left_children":[1,3,5,7,9,11,13,15,17,19,21,23,25,27,29,-1,-1,-1,-1,-1,-1,-1,-1,-1,-1,-1,-1,-1,-1,-1,-1],"loss_changes":[1.3352627E1,1.2821774E1,6.3841944E0,1.1205751E1,1.4325414E1,6.346689E0,9.137433E0,1.1337042E1,7.0271087E0,1.3150687E1,1.0232052E1,5.4559083E0,1.138743E1,5.440872E0,6.1808624E0,0E0,0E0,0E0,0E0,0E0,0E0,0E0,0E0,0E0,0E0,0E0,0E0,0E0,0E0,0E0,0E0],"parents":[2147483647,0,0,1,1,2,2,3,3,4,4,5,5,6,6,7,7,8,8,9,9,10,10,11,11,12,12,13,13,14,14],"right_children":[2,4,6,8,10,12,14,16,18,20,22,24,26,28,30,-1,-1,-1,-1,-1,-1,-1,-1,-1,-1,-1,-1,-1,-1,-1,-1],"split_conditions":[1E0,1E0,1E0,1E0,1E0,1E0,1E0,1E0,1E0,1E0,5.757331E1,4E0,1E0,1E0,1E0,-4.46355E-3,-1.6939988E-2,-1.8485729E-3,1.1970721E-2,1.55550735E-2,-7.951154E-3,2.2866998E-3,-2.5849497E-2,-1.1060393E-2,6.952539E-3,2.2285819E-2,-8.720668E-3,-3.4218617E-3,-2.7467465E-2,8.718839E-3,5.832841E-2],"split_indices":[80,68,64,74,56,74,27,79,69,55,84,0,47,35,5,0,0,0,0,0,0,0,0,0,0,0,0,0,0,0,0],"split_type":[0,0,0,0,0,0,0,0,0,0,0,0,0,0,0,0,0,0,0,0,0,0,0,0,0,0,0,0,0,0,0],"sum_hessian":[1.08E4,7.858E3,2.942E3,5.94E3,1.918E3,2.232E3,7.1E2,4.168E3,1.772E3,1.379E3,5.39E2,1.501E3,7.31E2,5.45E2,1.65E2,3.228E3,9.4E2,1.252E3,5.2E2,1.074E3,3.05E2,3.26E2,2.13E2,1.92E2,1.309E3,5.83E2,1.48E2,4.25E2,1.2E2,1.35E2,3E1],"tree_param":{"num_deleted":"0","num_feature":"85","num_nodes":"31","size_leaf_vector":"1"}},{"base_weights":[-2.0680465E-5,2.0824078E-2,-5.922038E-2,2.6092505E-2,-2.9540023E-1,-3.629998E-2,-1.2131158E-1,4.705332E-2,-3.8723927E-2,-3.9675796E-1,2.86973E-1,6.666725E-3,-9.149573E-2,-7.538968E-2,-2.6014185E-1,7.4361735E-3,-3.373889E-3,-3.6795635E-2,-2.936703E-3,-4.3194376E-2,1.02564074E-1,7.481617E-2,-3.598312E-2,-3.7542188E-3,2.0855037E-2,-1.2513413E-2,4.565062E-3,-9.909799E-3,3.1413052E-2,-3.1069601E-2,-1.3275566E-3],"categories":[],"categories_nodes":[],"categories_segments":[],"categories_sizes":[],"default_left":[0,0,0,0,0,0,0,0,0,0,0,0,0,0,0,0,0,0,0,0,0,0,0,0,0,0,0,0,0,0,0],"id":28,"left_children":[1,3,5,7,9,11,13,15,17,19,21,23,25,27,29,-1,-1,-1,-1,-1,-1,-1,-1,-1,-1,-1,-1,-1,-1,-1,-1],"loss_changes":[1.3329705E1,1.3317418E1,3.9989328E0,1.06791E1,7.846529E0,4.8765774E0,4.8129025E0,1.3105766E1,5.907015E0,6.048424E0,6.2351875E0,1.0334121E1,4.1577563E0,5.304237E0,2.3421364E0,0E0,0E0,0E0,0E0,0E0,0E0,0E0,0E0,0E0,0E0,0E0,0E0,0E0,0E0,0E0,0E0],"parents":[2147483647,0,0,1,1,2,2,3,3,4,4,5,5,6,6,7,7,8,8,9,9,10,10,11,11,12,12,13,13,14,14],"right_children":[2,4,6,8,10,12,14,16,18,20,22,24,26,28,30,-1,-1,-1,-1,-1,-1,-1,-1,-1,-1,-1,-1,-1,-1,-1,-1],"split_conditions":[1E0,9E0,1E0,1E0,1E0,5E0,1E0,1E0,4.390919E1,5.3554325E1,5E0,1E0,1E0,9E0,1E0,7.4361735E-3,-3.373889E-3,-3.6795635E-2,-2.936703E-3,-4.3194376E-2,1.02564074E-1,7.481617E-2,-3.598312E-2,-3.7542188E-3,2.0855037E-2,-1.2513413E-2,4.565062E-3,-9.909799E-3,3.1413052E-2,-3.1069601E-2,-1.3275566E-3],"split_indices":[16,3,38,55,12,3,12,56,84,84,2,59,5,0,9,0,0,0,0,0,0,0,0,0,0,0,0,0,0,0,0],"split_type":[0,0,0,0,0,0,0,0,0,0,0,0,0,0,0,0,0,0,0,0,0,0,0,0,0,0,0,0,0,0,0],"sum_hessian":[1.08E4,7.988E3,2.812E3,7.858E3,1.3E2,2.055E3,7.57E2,5.938E3,1.92E3,1.11E2,1.9E1,1.156E3,8.99E2,5.7E2,1.87E2,4.438E3,1.5E3,5.2E1,1.868E3,1.09E2,2E0,1.1E1,8E0,9.49E2,2.07E2,7.22E2,1.77E2,5.38E2,3.2E1,1.55E2,3.2E1],"tree_param":{"num_deleted":"0","num_feature":"85","num_nodes":"31","size_leaf_vector":"1"}},{"base_weights":[-1.2985757E-5,-1.928217E-2,5.9174575E-2,-4.1627247E-2,4.4081766E-2,9.495398E-2,-3.9632004E-2,-6.64815E-2,3.1950414E-2,6.780275E-2,-1.760373E-1,1.300289E-1,-3.153982E-3,2.7130663E-2,-3.0038026E-1,-4.7702766E-3,-1.9811513E-2,7.781104E-3,-1.2014274E-2,1.0969627E-2,-6.342925E-3,-1.1738453E-2,-6.1837364E-2,1.8733118E-2,-1.4175132E-3,5.8372947E-3,-3.4782212E-2,-5.0011817E-3,2.418085E-2,-4.1261446E-2,-4.4295825E-3],"categories":[],"categories_nodes":[],"categories_segments":[],"categories_sizes":[],"default_left":[0,0,0,0,0,0,0,0,0,0,0,0,0,0,0,0,0,0,0,0,0,0,0,0,0,0,0,0,0,0,0],"id":29,"left_children":[1,3,5,7,9,11,13,15,17,19,21,23,25,27,29,-1,-1,-1,-1,-1,-1,-1,-1,-1,-1,-1,-1,-1,-1,-1,-1],"loss_changes":[1.2319639E1,1.1539776E1,9.382755E0,1.1020151E1,1.1107496E1,6.7037315E0,1.2298373E1,1.1124046E1,1.0625431E1,1.0557181E1,5.2978725E0,1.1860374E1,1.0920378E1,9.3358135E0,4.120489E0,0E0,0E0,0E0,0E0,0E0,0E0,0E0,0E0,0E0,0E0,0E0,0E0,0E0,0E0,0E0,0E0],"parents":[2147483647,0,0,1,1,2,2,3,3,4,4,5,5,6,6,7,7,8,8,9,9,10,10,11,11,12,12,13,13,14,14],"right_children":[2,4,6,8,10,12,14,16,18,20,22,24,26,28,30,-1,-1,-1,-1,-1,-1,-1,-1,-1,-1,-1,-1,-1,-1,-1,-1],"split_conditions":[1E0,1E0,1E0,1E0,6.3269077E1,1E0,1E0,7E0,1E0,1E0,4E0,1E0,5.8665924E1,1E0,1E0,-4.7702766E-3,-1.9811513E-2,7.781104E-3,-1.2014274E-2,1.0969627E-2,-6.342925E-3,-1.1738453E-2,-6.1837364E-2,1.8733118E-2,-1.4175132E-3,5.8372947E-3,-3.4782212E-2,-5.0011817E-3,2.418085E-2,-4.1261446E-2,-4.4295825E-3],"split_indices":[19,32,15,36,84,64,11,3,55,9,3,10,84,42,81,0,0,0,0,0,0,0,0,0,0,0,0,0,0,0,0],"split_type":[0,0,0,0,0,0,0,0,0,0,0,0,0,0,0,0,0,0,0,0,0,0,0,0,0,0,0,0,0,0,0],"sum_hessian":[1.08E4,8.148E3,2.652E3,6.024E3,2.124E3,1.947E3,7.05E2,4.503E3,1.521E3,1.918E3,2.06E2,1.434E3,5.13E2,5.62E2,1.43E2,3.942E3,5.61E2,1.169E3,3.52E2,1.454E3,4.64E2,1.83E2,2.3E1,1.026E3,4.08E2,4.36E2,7.7E1,4.14E2,1.48E2,9.9E1,4.4E1],"tree_param":{"num_deleted":"0","num_feature":"85","num_nodes":"31","size_leaf_vector":"1"}},{"base_weights":[-2.4269619E-5,-2.1662712E-2,5.0859313E-2,-4.4108637E-2,3.4560695E-2,2.4400769E-2,1.354053E-1,-2.2615192E-2,-1.0929231E-1,-1.3785958E-1,6.1650004E-2,-5.3755906E-3,1.159115E-1,1.7673956E-1,-2.5943962E-3,-2.7924252E-3,2.5340496E-2,-1.4549041E-2,1.7041361E-3,-2.4083985E-2,7.3768734E-3,-1.3447614E-2,7.908054E-3,-4.081936E-3,8.938572E-3,2.6323951E-3,3.5962623E-2,2.2329595E-2,-7.179043E-3,-1.3719663E-2,4.2318463E-2],"categories":[],"categories_nodes":[],"categories_segments":[],"categories_sizes":[],"default_left":[0,0,0,0,0,0,0,0,0,0,0,0,0,0,0,0,0,0,0,0,0,0,0,0,0,0,0,0,0,0,0],"id":30,"left_children":[1,3,5,7,9,11,13,15,17,19,21,23,25,27,29,-1,-1,-1,-1,-1,-1,-1,-1,-1,-1,-1,-1,-1,-1,-1,-1],"loss_changes":[1.189345E1,9.566119E0,7.2064304E0,7.5868635E0,1.0111322E1,6.69287E0,4.381219E0,5.9786124E0,6.144068E0,6.4250655E0,6.4033847E0,6.2306743E0,1.3156318E1,6.854288E0,1.0259384E1,0E0,0E0,0E0,0E0,0E0,0E0,0E0,0E0,0E0,0E0,0E0,0E0,0E0,0E0,0E0,0E0],"parents":[2147483647,0,0,1,1,2,2,3,3,4,4,5,5,6,6,7,7,8,8,9,9,10,10,11,11,12,12,13,13,14,14],"right_children":[2,4,6,8,10,12,14,16,18,20,22,24,26,28,30,-1,-1,-1,-1,-1,-1,-1,-1,-1,-1,-1,-1,-1,-1,-1,-1],"split_conditions":[1E0,1E0,1E0,1E0,4.9606003E1,1E0,1E0,1E1,1E0,1E0,2E0,1E0,1E0,5.891424E1,5.6270706E1,-2.7924252E-3,2.5340496E-2,-1.4549041E-2,1.7041361E-3,-2.4083985E-2,7.3768734E-3,-1.3447614E-2,7.908054E-3,-4.081936E-3,8.938572E-3,2.6323951E-3,3.5962623E-2,2.2329595E-2,-7.179043E-3,-1.3719663E-2,4.2318463E-2],"split_indices":[26,54,57,6,84,61,53,2,69,65,1,80,32,84,84,0,0,0,0,0,0,0,0,0,0,0,0,0,0,0,0],"split_type":[0,0,0,0,0,0,0,0,0,0,0,0,0,0,0,0,0,0,0,0,0,0,0,0,0,0,0,0,0,0,0],"sum_hessian":[1.08E4,7.578E3,3.222E3,5.416E3,2.162E3,2.455E3,7.67E2,4.074E3,1.342E3,2.93E2,1.869E3,1.853E3,6.02E2,5.9E2,1.77E2,3.998E3,7.6E1,1.043E3,2.99E2,1.97E2,9.6E1,1.52E2,1.717E3,1.349E3,5.04E2,4.41E2,1.61E2,4.97E2,9.3E1,1.35E2,4.2E1],"tree_param":{"num_deleted":"0","num_feature":"85","num_nodes":"31","size_leaf_vector":"1"}},{"base_weights":[-1.4931405E-5,1.99278E-2,-4.867773E-2,-1.6901139E-3,8.129493E-2,-9.6912995E-2,5.6638815E-2,2.807022E-2,-7.3544174E-2,9.989969E-2,-1.153315E-1,-1.0696901E-1,2.3314999E-1,3.8676918E-3,1.7922537E-1,5.2337563E-3,-4.8822346E-3,-1.2462073E-2,6.9241608E-3,1.3277136E-2,1.8547993E-4,-1.7258769E-2,3.8729604E-2,-7.5907945E-3,-1.9947512E-2,6.962841E-2,-1.2363123E-2,-5.4821568E-3,1.5558827E-2,2.5281882E-2,-9.813468E-3],"categories":[],"categories_nodes":[],"categories_segments":[],"categories_sizes":[],"default_left":[0,0,0,0,0,0,0,0,0,0,0,0,0,0,0,0,0,0,0,0,0,0,0,0,0,0,0,0,0,0,0],"id":31,"left_children":[1,3,5,7,9,11,13,15,17,19,21,23,25,27,29,-1,-1,-1,-1,-1,-1,-1,-1,-1,-1,-1,-1,-1,-1,-1,-1],"loss_changes":[1.04830065E1,1.0164771E1,1.5956598E1,1.2120381E1,7.313263E0,7.1743183E0,6.38424E0,7.4813957E0,1.2115018E1,5.8783207E0,5.0455284E0,5.9930077E0,1.0661284E1,6.161448E0,6.087138E0,0E0,0E0,0E0,0E0,0E0,0E0,0E0,0E0,0E0,0E0,0E0,0E0,0E0,0E0,0E0,0E0],"parents":[2147483647,0,0,1,1,2,2,3,3,4,4,5,5,6,6,7,7,8,8,9,9,10,10,11,11,12,12,13,13,14,14],"right_children":[2,4,6,8,10,12,14,16,18,20,22,24,26,28,30,-1,-1,-1,-1,-1,-1,-1,-1,-1,-1,-1,-1,-1,-1,-1,-1],"split_conditions":[1E0,1E0,1E0,1E0,6.2118874E1,1.1E1,1E0,1E0,1E0,1E0,1E0,1E0,6.2682858E1,1E0,6E0,5.2337563E-3,-4.8822346E-3,-1.2462073E-2,6.9241608E-3,1.3277136E-2,1.8547993E-4,-1.7258769E-2,3.8729604E-2,-7.5907945E-3,-1.9947512E-2,6.962841E-2,-1.2363123E-2,-5.4821568E-3,1.5558827E-2,2.5281882E-2,-9.813468E-3],"split_indices":[82,32,74,83,84,2,78,56,76,9,57,79,84,8,0,0,0,0,0,0,0,0,0,0,0,0,0,0,0,0,0],"split_type":[0,0,0,0,0,0,0,0,0,0,0,0,0,0,0,0,0,0,0,0,0,0,0,0,0,0,0,0,0,0,0],"sum_hessian":[1.08E4,7.661E3,3.139E3,5.666E3,1.995E3,2.153E3,9.86E2,4.007E3,1.659E3,1.823E3,1.72E2,2.09E3,6.3E1,6.9E2,2.96E2,3.046E3,9.61E2,1.222E3,4.37E2,1.365E3,4.58E2,1.55E2,1.7E1,1.566E3,5.24E2,2.7E1,3.6E1,4.98E2,1.92E2,2.34E2,6.2E1],"tree_param":{"num_deleted":"0","num_feature":"85","num_nodes":"31","size_leaf_vector":"1"}},{"base_weights":[-5.5676032E-6,-2.013098E-2,4.588624E-2,2.5826395E-3,-8.382017E-2,5.5043034E-2,-3.003494E-1,2.4089018E-2,-6.1336663E-2,-9.8102316E-2,2.555358E-1,8.599582E-2,-4.6202965E-2,-1.8036409E-1,-4.7502258E-1,-2.8810085E-4,1.106756E-2,-1.6501365E-3,-1.6927375E-2,-1.3966222E-2,1.8129162E-3,-3.4358483E-2,3.0875621E-2,5.0863116E-3,1.9096917E-2,6.694677E-4,-2.1311594E-2,5.8881875E-2,-2.3947364E-2,-5.2005883E-2,1.6370464E-2],"categories":[],"categories_nodes":[],"categories_segments":[],"categories_sizes":[],"default_left":[0,0,0,0,0,0,0,0,0,0,0,0,0,0,0,0,0,0,0,0,0,0,0,0,0,0,0,0,0,0,0],"id":32,"left_children":[1,3,5,7,9,11,13,15,17,19,21,23,25,27,29,-1,-1,-1,-1,-1,-1,-1,-1,-1,-1,-1,-1,-1,-1,-1,-1],"loss_changes":[9.976637E0,1.0862827E1,1.0456686E1,7.611665E0,9.592511E0,1.0060484E1,1.6957717E0,9.675227E0,6.743318E0,9.156464E0,2.6569195E0,9.055382E0,6.6410637E0,2.5052404E0,1.0631752E0,0E0,0E0,0E0,0E0,0E0,0E0,0E0,0E0,0E0,0E0,0E0,0E0,0E0,0E0,0E0,0E0],"parents":[2147483647,0,0,1,1,2,2,3,3,4,4,5,5,6,6,7,7,8,8,9,9,10,10,11,11,12,12,13,13,14,14],"right_children":[2,4,6,8,10,12,14,16,18,20,22,24,26,28,30,-1,-1,-1,-1,-1,-1,-1,-1,-1,-1,-1,-1,-1,-1,-1,-1],"split_conditions":[1E0,1E0,6.692101E1,1E0,1E1,1E0,1E0,1E0,5.8133774E1,1E0,5.2248627E1,1E0,1E0,1E0,1E0,-2.8810085E-4,1.106756E-2,-1.6501365E-3,-1.6927375E-2,-1.3966222E-2,1.8129162E-3,-3.4358483E-2,3.0875621E-2,5.0863116E-3,1.9096917E-2,6.694677E-4,-2.1311594E-2,5.8881875E-2,-2.3947364E-2,-5.2005883E-2,1.6370464E-2],"split_indices":[4,25,84,56,2,55,18,19,84,15,84,68,31,16,31,0,0,0,0,0,0,0,0,0,0,0,0,0,0,0,0],"split_type":[0,0,0,0,0,0,0,0,0,0,0,0,0,0,0,0,0,0,0,0,0,0,0,0,0,0,0,0,0,0,0],"sum_hessian":[1.08E4,7.508E3,3.292E3,5.535E3,1.973E3,3.208E3,8.4E1,4.142E3,1.393E3,1.894E3,7.9E1,2.457E3,7.51E2,5.1E1,3.3E1,3.159E3,9.83E2,9.85E2,4.08E2,1.395E3,4.99E2,6E0,7.3E1,1.842E3,6.15E2,5.71E2,1.8E2,3E0,4.8E1,3.1E1,2E0],"tree_param":{"num_deleted":"0","num_feature":"85","num_nodes":"31","size_leaf_vector":"1"}},{"base_weights":[-6.917041E-6,-1.8499E-2,4.9259305E-2,-4.273395E-2,5.1562253E-2,3.6825677E-3,1.75494E-1,-6.171594E-2,1.930789E-2,2.9015662E-2,2.358E-1,4.1255377E-2,-1.2398099E-1,1.0122039E-1,4.4228357E-1,-4.012993E-3,-1.5575073E-2,7.500708E-3,-1.2465652E-2,-7.1432313E-4,1.238289E-2,1.5247782E-2,7.5842455E-2,5.9140935E-3,-2.112866E-2,-1.982865E-2,5.3979936E-3,1.6248E-2,-1.2541786E-2,2.604965E-2,8.076984E-2],"categories":[],"categories_nodes":[],"categories_segments":[],"categories_sizes":[],"default_left":[0,0,0,0,0,0,0,0,0,0,0,0,0,0,0,0,0,0,0,0,0,0,0,0,0,0,0,0,0,0,0],"id":33,"left_children":[1,3,5,7,9,11,13,15,17,19,21,23,25,27,29,-1,-1,-1,-1,-1,-1,-1,-1,-1,-1,-1,-1,-1,-1,-1,-1],"loss_changes":[9.841001E0,1.3337753E1,1.6960274E1,6.874118E0,8.379948E0,1.0399517E1,1.5450893E1,9.065086E0,1.0978933E1,6.1719E0,9.464524E0,7.578228E0,6.529877E0,8.531128E0,1.1082302E1,0E0,0E0,0E0,0E0,0E0,0E0,0E0,0E0,0E0,0E0,0E0,0E0,0E0,0E0,0E0,0E0],"parents":[2147483647,0,0,1,1,2,2,3,3,4,4,5,5,6,6,7,7,8,8,9,9,10,10,11,11,12,12,13,13,14,14],"right_children":[2,4,6,8,10,12,14,16,18,20,22,24,26,28,30,-1,-1,-1,-1,-1,-1,-1,-1,-1,-1,-1,-1,-1,-1,-1,-1],"split_conditions":[1E0,1E0,1E0,1E0,1E1,1E0,1E0,5.8133774E1,1E0,1E0,1E0,7E0,1E0,1E0,1E0,-4.012993E-3,-1.5575073E-2,7.500708E-3,-1.2465652E-2,-7.1432313E-4,1.238289E-2,1.5247782E-2,7.5842455E-2,5.9140935E-3,-2.112866E-2,-1.982865E-2,5.3979936E-3,1.6248E-2,-1.2541786E-2,2.604965E-2,8.076984E-2],"split_indices":[8,14,15,57,2,6,18,84,38,32,49,3,50,47,66,0,0,0,0,0,0,0,0,0,0,0,0,0,0,0,0],"split_type":[0,0,0,0,0,0,0,0,0,0,0,0,0,0,0,0,0,0,0,0,0,0,0,0,0,0,0,0,0,0,0],"sum_hessian":[1.08E4,7.853E3,2.947E3,5.835E3,2.018E3,2.166E3,7.81E2,4.468E3,1.367E3,1.799E3,2.19E2,1.674E3,4.92E2,6.12E2,1.69E2,3.635E3,8.33E2,9.86E2,3.81E2,1.303E3,4.96E2,1.9E2,2.9E1,1.564E3,1.1E2,3.47E2,1.45E2,4.82E2,1.3E2,1.14E2,5.5E1],"tree_param":{"num_deleted":"0","num_feature":"85","num_nodes":"31","size_leaf_vector":"1"}},{"base_weights":[8.504821E-6,1.710417E-2,-4.854367E-2,2.1523317E-2,-2.4814163E-1,-7.0520416E-2,9.857652E-3,1.4224495E-3,7.368746E-2,-3.382258E-1,2.687368E-1,-1.1447163E-1,-2.9851925E-2,-8.439054E-2,8.0735594E-2,1.2151357E-3,-1.6960379E-2,1.1877137E-2,-6.395496E-3,-3.706288E-2,9.626249E-2,-5.1097363E-2,5.627052E-2,-8.820416E-3,-2.8294995E-2,8.113646E-2,-3.4594312E-3,-1.5199566E-2,2.8238648E-3,1.5690695E-2,-1.2605359E-2],"categories":[],"categories_nodes":[],"categories_segments":[],"categories_sizes":[],"default_left":[0,0,0,0,0,0,0,0,0,0,0,0,0,0,0,0,0,0,0,0,0,0,0,0,0,0,0,0,0,0,0],"id":34,"left_children":[1,3,5,7,9,11,13,15,17,19,21,23,25,27,29,-1,-1,-1,-1,-1,-1,-1,-1,-1,-1,-1,-1,-1,-1,-1,-1],"loss_changes":[8.9660015E0,9.369734E0,3.6110997E0,8.240406E0,6.190591E0,3.6500883E0,5.150504E0,1.0413423E1,1.3572731E1,5.077735E0,4.871732E0,4.320881E0,4.268775E0,2.5246284E0,6.9504004E0,0E0,0E0,0E0,0E0,0E0,0E0,0E0,0E0,0E0,0E0,0E0,0E0,0E0,0E0,0E0,0E0],"parents":[2147483647,0,0,1,1,2,2,3,3,4,4,5,5,6,6,7,7,8,8,9,9,10,10,11,11,12,12,13,13,14,14],"right_children":[2,4,6,8,10,12,14,16,18,20,22,24,26,28,30,-1,-1,-1,-1,-1,-1,-1,-1,-1,-1,-1,-1,-1,-1,-1,-1],"split_conditions":[1E0,9E0,1E0,1E0,1E0,6E0,4E0,6.121466E1,1E0,5.3554325E1,1E0,1E0,4.638853E1,1E0,1E0,1.2151357E-3,-1.6960379E-2,1.1877137E-2,-6.395496E-3,-3.706288E-2,9.626249E-2,-5.1097363E-2,5.627052E-2,-8.820416E-3,-2.8294995E-2,8.113646E-2,-3.4594312E-3,-1.5199566E-2,2.8238648E-3,1.5690695E-2,-1.2605359E-2],"split_indices":[16,3,50,66,12,0,1,84,60,84,35,24,84,66,38,0,0,0,0,0,0,0,0,0,0,0,0,0,0,0,0],"split_type":[0,0,0,0,0,0,0,0,0,0,0,0,0,0,0,0,0,0,0,0,0,0,0,0,0,0,0,0,0,0,0],"sum_hessian":[1.08E4,7.988E3,2.812E3,7.858E3,1.3E2,2.043E3,7.69E2,5.673E3,2.185E3,1.11E2,1.9E1,9.81E2,1.062E3,3.3E2,4.39E2,5.339E3,3.34E2,1.646E3,5.39E2,1.09E2,2E0,5E0,1.4E1,8.5E2,1.31E2,5E0,1.057E3,2.06E2,1.24E2,3.21E2,1.18E2],"tree_param":{"num_deleted":"0","num_feature":"85","num_nodes":"31","size_leaf_vector":"1"}},{"base_weights":[1.5560126E-5,-1.870959E-2,4.4048417E-2,-3.855443E-2,3.0998314E-2,6.868057E-2,-2.5130652E-2,-1.9474497E-2,-1.0109892E-1,-1.2167042E-1,5.49842E-2,5.0854944E-2,2.7127504E-1,2.5806E-1,-4.322048E-2,1.0406543E-3,-7.9244105E-3,-1.4686786E-2,1.4494217E-3,-2.1371432E-2,6.746734E-3,2.2382687E-3,1.400322E-2,6.2466017E-3,-1.5316339E-2,1.6995963E-2,4.7125023E-2,-3.397128E-2,5.944122E-2,-1.0170109E-2,6.754073E-3],"categories":[],"categories_nodes":[],"categories_segments":[],"categories_sizes":[],"default_left":[0,0,0,0,0,0,0,0,0,0,0,0,0,0,0,0,0,0,0,0,0,0,0,0,0,0,0,0,0,0,0],"id":35,"left_children":[1,3,5,7,9,11,13,15,17,19,21,23,25,27,29,-1,-1,-1,-1,-1,-1,-1,-1,-1,-1,-1,-1,-1,-1,-1,-1],"loss_changes":[8.906485E0,7.4774637E0,5.493813E0,6.4623775E0,7.927368E0,8.5704365E0,4.3502245E0,7.416205E0,6.699997E0,5.1326575E0,5.1818037E0,5.18792E0,3.8099365E0,1.0456101E1,5.169342E0,0E0,0E0,0E0,0E0,0E0,0E0,0E0,0E0,0E0,0E0,0E0,0E0,0E0,0E0,0E0,0E0],"parents":[2147483647,0,0,1,1,2,2,3,3,4,4,5,5,6,6,7,7,8,8,9,9,10,10,11,11,12,12,13,13,14,14],"right_children":[2,4,6,8,10,12,14,16,18,20,22,24,26,28,30,-1,-1,-1,-1,-1,-1,-1,-1,-1,-1,-1,-1,-1,-1,-1,-1],"split_conditions":[1E0,1E0,5.8133774E1,1E0,4.9606003E1,5.720394E1,4E0,1E0,1E0,1E0,1E0,8E0,1E0,1E0,1E0,1.0406543E-3,-7.9244105E-3,-1.4686786E-2,1.4494217E-3,-2.1371432E-2,6.746734E-3,2.2382687E-3,1.400322E-2,6.2466017E-3,-1.5316339E-2,1.6995963E-2,4.7125023E-2,-3.397128E-2,5.944122E-2,-1.0170109E-2,6.754073E-3],"split_indices":[26,54,84,17,84,84,0,16,78,65,68,3,76,78,76,0,0,0,0,0,0,0,0,0,0,0,0,0,0,0,0],"split_type":[0,0,0,0,0,0,0,0,0,0,0,0,0,0,0,0,0,0,0,0,0,0,0,0,0,0,0,0,0,0,0],"sum_hessian":[1.08E4,7.578E3,3.222E3,5.416E3,2.162E3,2.376E3,8.46E2,4.151E3,1.265E3,2.93E2,1.869E3,2.185E3,1.91E2,5E1,7.96E2,2.768E3,1.383E3,9.06E2,3.59E2,1.97E2,9.6E1,1.352E3,5.17E2,2.068E3,1.17E2,1.28E2,6.3E1,1.8E1,3.2E1,5.21E2,2.75E2],"tree_param":{"num_deleted":"0","num_feature":"85","num_nodes":"31","size_leaf_vector":"1"}},{"base_weights":[1.9429002E-5,1.783341E-2,-4.344896E-2,3.58757E-2,-3.8546212E-2,-8.687261E-2,5.136157E-2,6.313921E-2,-3.0879673E-2,-5.474349E-1,-2.9611902E-2,-9.5693335E-2,2.0267433E-1,5.132093E-3,1.587461E-1,3.3569073E-3,1.2484588E-2,-6.87492E-3,8.253287E-3,-7.826964E-2,-3.209707E-2,-3.1095962E-5,-1.2961655E-2,-6.8097743E-3,-1.7787732E-2,6.0871847E-2,-1.1007999E-2,-4.667414E-3,1.3905011E-2,2.324526E-2,-1.027487E-2],"categories":[],"categories_nodes":[],"categories_segments":[],"categories_sizes":[],"default_left":[0,0,0,0,0,0,0,0,0,0,0,0,0,0,0,0,0,0,0,0,0,0,0,0,0,0,0,0,0,0,0],"id":36,"left_children":[1,3,5,7,9,11,13,15,17,19,21,23,25,27,29,-1,-1,-1,-1,-1,-1,-1,-1,-1,-1,-1,-1,-1,-1,-1,-1],"loss_changes":[8.364476E0,7.7953043E0,1.29319E1,1.0566965E1,8.431316E0,5.5207424E0,4.898979E0,7.5171185E0,7.2382507E0,1.4536829E0,5.35349E0,4.730097E0,8.194499E0,4.8005013E0,5.748224E0,0E0,0E0,0E0,0E0,0E0,0E0,0E0,0E0,0E0,0E0,0E0,0E0,0E0,0E0,0E0,0E0],"parents":[2147483647,0,0,1,1,2,2,3,3,4,4,5,5,6,6,7,7,8,8,9,9,10,10,11,11,12,12,13,13,14,14],"right_children":[2,4,6,8,10,12,14,16,18,20,22,24,26,28,30,-1,-1,-1,-1,-1,-1,-1,-1,-1,-1,-1,-1,-1,-1,-1,-1],"split_conditions":[1E0,1E0,1E0,1E0,4.26017E1,1.1E1,1E0,1E0,1E0,1E0,1E0,1E0,6.2682858E1,1E0,1E0,3.3569073E-3,1.2484588E-2,-6.87492E-3,8.253287E-3,-7.826964E-2,-3.209707E-2,-3.1095962E-5,-1.2961655E-2,-6.8097743E-3,-1.7787732E-2,6.0871847E-2,-1.1007999E-2,-4.667414E-3,1.3905011E-2,2.324526E-2,-1.027487E-2],"split_indices":[82,55,74,83,84,2,78,4,46,25,59,79,84,8,67,0,0,0,0,0,0,0,0,0,0,0,0,0,0,0,0],"split_type":[0,0,0,0,0,0,0,0,0,0,0,0,0,0,0,0,0,0,0,0,0,0,0,0,0,0,0,0,0,0,0],"sum_hessian":[1.08E4,7.661E3,3.139E3,5.804E3,1.857E3,2.153E3,9.86E2,4.121E3,1.683E3,3.1E1,1.826E3,2.09E3,6.3E1,6.9E2,2.96E2,2.787E3,1.334E3,1.262E3,4.21E2,1.4E1,1.7E1,1.413E3,4.13E2,1.566E3,5.24E2,2.7E1,3.6E1,4.98E2,1.92E2,2.31E2,6.5E1],"tree_param":{"num_deleted":"0","num_feature":"85","num_nodes":"31","size_leaf_vector":"1"}},{"base_weights":[1.20527175E-5,3.7245024E-3,-2.073381E-1,1.8717654E-2,-4.5810346E-2,-1.3646509E-1,-5.1730525E-1,3.679627E-2,-3.697603E-2,-1.2726754E-2,-1.6663508E-1,-3.0027965E-1,2.7003253E-2,-6.206407E-1,-1.5300453E-2,1.5746582E-3,1.0577502E-2,-7.2189057E-3,5.174158E-3,3.2612276E-3,-1.4380202E-2,-2.3287866E-2,2.3222629E-3,-2.2034476E-2,-8.218023E-2,1.0805275E-2,-8.2208484E-2,-7.1170755E-2,1.2645376E-2,7.289963E-2,-2.608493E-2],"categories":[],"categories_nodes":[],"categories_segments":[],"categories_sizes":[],"default_left":[0,0,0,0,0,0,0,0,0,0,0,0,0,0,0,0,0,0,0,0,0,0,0,0,0,0,0,0,0,0,0],"id":37,"left_children":[1,3,5,7,9,11,13,15,17,19,21,23,25,27,29,-1,-1,-1,-1,-1,-1,-1,-1,-1,-1,-1,-1,-1,-1,-1,-1],"loss_changes":[8.315134E0,7.882215E0,4.103383E0,8.204288E0,9.855261E0,4.1855536E0,1.8061256E0,8.929469E0,6.2423944E0,1.1515942E1,6.6711416E0,3.0705724E0,5.525464E0,2.0630274E0,1.4694865E0,0E0,0E0,0E0,0E0,0E0,0E0,0E0,0E0,0E0,0E0,0E0,0E0,0E0,0E0,0E0,0E0],"parents":[2147483647,0,0,1,1,2,2,3,3,4,4,5,5,6,6,7,7,8,8,9,9,10,10,11,11,12,12,13,13,14,14],"right_children":[2,4,6,8,10,12,14,16,18,20,22,24,26,28,30,-1,-1,-1,-1,-1,-1,-1,-1,-1,-1,-1,-1,-1,-1,-1,-1],"split_conditions":[9E0,1E0,1E0,1E0,1E0,1E0,4.865265E1,1E0,1E0,1E0,1E0,1E0,5.3062077E1,1E0,1E0,1.5746582E-3,1.0577502E-2,-7.2189057E-3,5.174158E-3,3.2612276E-3,-1.4380202E-2,-2.3287866E-2,2.3222629E-3,-2.2034476E-2,-8.218023E-2,1.0805275E-2,-8.2208484E-2,-7.1170755E-2,1.2645376E-2,7.289963E-2,-2.608493E-2],"split_indices":[1,35,39,55,53,73,84,61,28,48,36,40,84,74,13,0,0,0,0,0,0,0,0,0,0,0,0,0,0,0,0],"split_type":[0,0,0,0,0,0,0,0,0,0,0,0,0,0,0,0,0,0,0,0,0,0,0,0,0,0,0,0,0,0,0],"sum_hessian":[1.08E4,1.0611E4,1.89E2,8.146E3,2.465E3,1.55E2,3.4E1,6.15E3,1.996E3,1.936E3,5.29E2,7.7E1,7.8E1,2.8E1,6E0,4.713E3,1.437E3,1.429E3,5.67E2,1.439E3,4.97E2,3.92E2,1.37E2,6.8E1,9E0,7.2E1,6E0,2.5E1,3E0,1E0,5E0],"tree_param":{"num_deleted":"0","num_feature":"85","num_nodes":"31","size_leaf_vector":"1"}},{"base_weights":[-8.529916E-6,1.6884489E-2,-4.2400233E-2,-2.121242E-3,7.026652E-2,-7.690012E-2,1.2852876E-2,1.6843002E-2,-6.864445E-2,1.0152244E-1,-3.5601806E-2,-1.2097896E-1,2.6813235E-2,1.1243793E-1,-8.862024E-2,3.906334E-3,-5.0134887E-3,1.1713464E-2,-9.606129E-3,5.8908667E-3,2.1253599E-2,3.6330596E-3,-2.8425625E-2,-8.922874E-3,-2.1615213E-2,-4.601513E-3,1.8072592E-2,1.8825892E-2,-4.2853816E-3,-1.369024E-2,1.5974894E-2],"categories":[],"categories_nodes":[],"categories_segments":[],"categories_sizes":[],"default_left":[0,0,0,0,0,0,0,0,0,0,0,0,0,0,0,0,0,0,0,0,0,0,0,0,0,0,0,0,0,0,0],"id":38,"left_children":[1,3,5,7,9,11,13,15,17,19,21,23,25,27,29,-1,-1,-1,-1,-1,-1,-1,-1,-1,-1,-1,-1,-1,-1,-1,-1],"loss_changes":[7.735569E0,7.836645E0,5.8683524E0,7.188277E0,6.7142906E0,8.666359E0,1.1974527E1,6.600953E0,6.4494023E0,7.395767E0,8.291689E0,3.9996643E0,6.352728E0,7.0491433E0,7.0610557E0,0E0,0E0,0E0,0E0,0E0,0E0,0E0,0E0,0E0,0E0,0E0,0E0,0E0,0E0,0E0,0E0],"parents":[2147483647,0,0,1,1,2,2,3,3,4,4,5,5,6,6,7,7,8,8,9,9,10,10,11,11,12,12,13,13,14,14],"right_children":[2,4,6,8,10,12,14,16,18,20,22,24,26,28,30,-1,-1,-1,-1,-1,-1,-1,-1,-1,-1,-1,-1,-1,-1,-1,-1],"split_conditions":[1E0,1E0,8E0,1E0,1E0,1E0,5.8228745E1,1E0,4E0,1E0,1E0,1E0,1E0,1E0,1E0,3.906334E-3,-5.0134887E-3,1.1713464E-2,-9.606129E-3,5.8908667E-3,2.1253599E-2,3.6330596E-3,-2.8425625E-2,-8.922874E-3,-2.1615213E-2,-4.601513E-3,1.8072592E-2,1.8825892E-2,-4.2853816E-3,-1.369024E-2,1.5974894E-2],"split_indices":[70,32,2,47,79,80,84,56,3,8,67,79,8,42,57,0,0,0,0,0,0,0,0,0,0,0,0,0,0,0,0],"split_type":[0,0,0,0,0,0,0,0,0,0,0,0,0,0,0,0,0,0,0,0,0,0,0,0,0,0,0,0,0,0,0],"sum_hessian":[1.08E4,7.723E3,3.077E3,5.696E3,2.027E3,1.894E3,1.183E3,4.433E3,1.263E3,1.565E3,4.62E2,1.329E3,5.65E2,5.97E2,5.86E2,3.329E3,1.104E3,1.62E2,1.101E3,1.132E3,4.33E2,3.59E2,1.03E2,9.98E2,3.31E2,3.84E2,1.81E2,4.01E2,1.96E2,4.91E2,9.5E1],"tree_param":{"num_deleted":"0","num_feature":"85","num_nodes":"31","size_leaf_vector":"1"}},{"base_weights":[-7.3883007E-6,-1.4828237E-2,4.5516584E-2,-3.51288E-2,4.3814145E-2,7.784035E-2,-4.373584E-2,-8.188381E-3,-1.06731646E-1,-2.7045347E-2,1.8700154E-1,4.3004785E-2,1.7096077E-1,-1.12329565E-1,1.5884082E-1,-3.8772486E-3,7.797412E-3,-1.600779E-2,-1.7878329E-3,-7.6713124E-3,9.725347E-3,2.545965E-2,-2.6150488E-3,8.481721E-3,-6.9111916E-3,2.5288453E-2,4.2920704E-3,-5.0103795E-3,-3.5958588E-2,2.5219658E-2,-2.6183E-2],"categories":[],"categories_nodes":[],"categories_segments":[],"categories_sizes":[],"default_left":[0,0,0,0,0,0,0,0,0,0,0,0,0,0,0,0,0,0,0,0,0,0,0,0,0,0,0,0,0,0,0],"id":39,"left_children":[1,3,5,7,9,11,13,15,17,19,21,23,25,27,29,-1,-1,-1,-1,-1,-1,-1,-1,-1,-1,-1,-1,-1,-1,-1,-1],"loss_changes":[7.2881517E0,9.702706E0,7.657241E0,1.1677355E1,2.1271465E1,6.3117695E0,9.828057E0,1.1597917E1,7.8418255E0,8.669086E0,1.0005814E1,6.6579494E0,5.5485935E0,8.105641E0,7.095729E0,0E0,0E0,0E0,0E0,0E0,0E0,0E0,0E0,0E0,0E0,0E0,0E0,0E0,0E0,0E0,0E0],"parents":[2147483647,0,0,1,1,2,2,3,3,4,4,5,5,6,6,7,7,8,8,9,9,10,10,11,11,12,12,13,13,14,14],"right_children":[2,4,6,8,10,12,14,16,18,20,22,24,26,28,30,-1,-1,-1,-1,-1,-1,-1,-1,-1,-1,-1,-1,-1,-1,-1,-1],"split_conditions":[1E0,1E0,1E0,1E0,1E0,1E0,1E0,1E0,1E0,1E0,1E0,1E0,5.5186077E1,1E0,1E0,-3.8772486E-3,7.797412E-3,-1.600779E-2,-1.7878329E-3,-7.6713124E-3,9.725347E-3,2.545965E-2,-2.6150488E-3,8.481721E-3,-6.9111916E-3,2.5288453E-2,4.2920704E-3,-5.0103795E-3,-3.5958588E-2,2.5219658E-2,-2.6183E-2],"split_indices":[19,15,15,38,18,34,44,32,14,8,64,64,84,11,27,0,0,0,0,0,0,0,0,0,0,0,0,0,0,0,0],"split_type":[0,0,0,0,0,0,0,0,0,0,0,0,0,0,0,0,0,0,0,0,0,0,0,0,0,0,0,0,0,0,0],"sum_hessian":[1.08E4,8.148E3,2.652E3,6.053E3,2.095E3,1.947E3,7.05E2,4.399E3,1.654E3,1.402E3,6.93E2,1.418E3,5.29E2,5.27E2,1.78E2,3.247E3,1.152E3,1.033E3,6.21E2,1.002E3,4E2,5.26E2,1.67E2,1.033E3,3.85E2,3.22E2,2.07E2,4.22E2,1.05E2,1.46E2,3.2E1],"tree_param":{"num_deleted":"0","num_feature":"85","num_nodes":"31","size_leaf_vector":"1"}},{"base_weights":[-6.628692E-6,-1.6991902E-2,3.8741674E-2,-4.144203E-2,5.0711453E-2,6.992634E-2,-5.7057403E-2,-2.9161893E-2,-1.6517119E-1,9.474294E-2,-5.2655548E-2,3.5329092E-2,1.8656895E-1,-6.855467E-2,5.170605E-1,-8.8415425E-3,-2.9226366E-4,1.2395145E-2,-1.9628638E-2,1.0255146E-2,-3.0555457E-2,2.7174535E-3,-3.1531397E-2,7.2038546E-3,-8.010846E-3,1.4718468E-2,5.3034104E-2,-1.054055E-2,6.5321014E-3,1.1427345E-1,1.2877824E-2],"categories":[],"categories_nodes":[],"categories_segments":[],"categories_sizes":[],"default_left":[0,0,0,0,0,0,0,0,0,0,0,0,0,0,0,0,0,0,0,0,0,0,0,0,0,0,0,0,0,0,0],"id":40,"left_children":[1,3,5,7,9,11,13,15,17,19,21,23,25,27,29,-1,-1,-1,-1,-1,-1,-1,-1,-1,-1,-1,-1,-1,-1,-1,-1],"loss_changes":[7.109342E0,1.2433823E1,9.8387165E0,8.3792925E0,9.075934E0,1.0017622E1,5.3754835E0,7.8062325E0,4.5043917E0,4.401107E0,1.2505523E1,8.129346E0,7.612211E0,3.9240272E0,3.739851E0,0E0,0E0,0E0,0E0,0E0,0E0,0E0,0E0,0E0,0E0,0E0,0E0,0E0,0E0,0E0,0E0],"parents":[2147483647,0,0,1,1,2,2,3,3,4,4,5,5,6,6,7,7,8,8,9,9,10,10,11,11,12,12,13,13,14,14],"right_children":[2,4,6,8,10,12,14,16,18,20,22,24,26,28,30,-1,-1,-1,-1,-1,-1,-1,-1,-1,-1,-1,-1,-1,-1,-1,-1],"split_conditions":[1E0,1E0,1E0,6.0317944E1,1E0,1E0,1.2E1,4E0,5E0,6.692101E1,1E0,1E0,5.9437046E1,1E0,6.559671E1,-8.8415425E-3,-2.9226366E-4,1.2395145E-2,-1.9628638E-2,1.0255146E-2,-3.0555457E-2,2.7174535E-3,-3.1531397E-2,7.2038546E-3,-8.010846E-3,1.4718468E-2,5.3034104E-2,-1.054055E-2,6.5321014E-3,1.1427345E-1,1.2877824E-2],"split_indices":[74,76,64,84,82,69,2,0,0,84,55,76,84,61,84,0,0,0,0,0,0,0,0,0,0,0,0,0,0,0,0],"split_type":[0,0,0,0,0,0,0,0,0,0,0,0,0,0,0,0,0,0,0,0,0,0,0,0,0,0,0,0,0,0,0],"sum_hessian":[1.08E4,7.509E3,3.291E3,5.517E3,1.992E3,2.483E3,8.08E2,5.02E3,4.97E2,1.397E3,5.95E2,1.916E3,5.67E2,7.93E2,1.5E1,1.54E3,3.48E3,4.8E1,4.49E2,1.371E3,2.6E1,4.57E2,1.38E2,1.454E3,4.62E2,5.1E2,5.7E1,6.22E2,1.71E2,5E0,1E1],"tree_param":{"num_deleted":"0","num_feature":"85","num_nodes":"31","size_leaf_vector":"1"}},{"base_weights":[5.5683176E-6,-1.6585782E-2,3.902072E-2,-2.2070201E-2,1.1795839E-1,6.1698213E-2,-2.783821E-2,-4.3304926E-3,-6.8702176E-2,2.3007369E-1,-8.037371E-2,4.5094896E-2,2.56307E-1,3.834281E-2,-2.3913532E-1,1.6542407E-3,-6.634911E-3,-1.0332308E-2,2.027809E-3,1.6119396E-2,9.2154436E-2,-1.3555295E-2,8.802654E-2,7.1329945E-3,-3.03924E-3,3.1964473E-2,-4.9972035E-2,9.056005E-3,-1.002113E-2,-1.1256484E-2,-5.220429E-2],"categories":[],"categories_nodes":[],"categories_segments":[],"categories_sizes":[],"default_left":[0,0,0,0,0,0,0,0,0,0,0,0,0,0,0,0,0,0,0,0,0,0,0,0,0,0,0,0,0,0,0],"id":41,"left_children":[1,3,5,7,9,11,13,15,17,19,21,23,25,27,29,-1,-1,-1,-1,-1,-1,-1,-1,-1,-1,-1,-1,-1,-1,-1,-1],"loss_changes":[6.992286E0,5.5951233E0,4.8884077E0,6.024475E0,6.6226025E0,7.7658224E0,1.1433981E1,6.8322186E0,6.1848125E0,8.900833E0,5.844114E0,4.396704E0,9.210008E0,4.516425E0,6.923747E0,0E0,0E0,0E0,0E0,0E0,0E0,0E0,0E0,0E0,0E0,0E0,0E0,0E0,0E0,0E0,0E0],"parents":[2147483647,0,0,1,1,2,2,3,3,4,4,5,5,6,6,7,7,8,8,9,9,10,10,11,11,12,12,13,13,14,14],"right_children":[2,4,6,8,10,12,14,16,18,20,22,24,26,28,30,-1,-1,-1,-1,-1,-1,-1,-1,-1,-1,-1,-1,-1,-1,-1,-1],"split_conditions":[1E0,1E1,1E0,1E0,5E0,7E0,1E0,1E0,1E0,1E0,1E0,1E0,9E0,1E0,1E0,1.6542407E-3,-6.634911E-3,-1.0332308E-2,2.027809E-3,1.6119396E-2,9.2154436E-2,-1.3555295E-2,8.802654E-2,7.1329945E-3,-3.03924E-3,3.1964473E-2,-4.9972035E-2,9.056005E-3,-1.002113E-2,-1.1256484E-2,-5.220429E-2],"split_indices":[26,2,73,70,0,1,77,13,80,80,69,64,1,45,48,0,0,0,0,0,0,0,0,0,0,0,0,0,0,0,0],"split_type":[0,0,0,0,0,0,0,0,0,0,0,0,0,0,0,0,0,0,0,0,0,0,0,0,0,0,0,0,0,0,0],"sum_hessian":[1.08E4,7.578E3,3.222E3,7.282E3,2.96E2,2.406E3,8.16E2,5.276E3,2.006E3,1.89E2,1.07E2,2.218E3,1.88E2,6.22E2,1.94E2,3.948E3,1.328E3,1.444E3,5.62E2,1.73E2,1.6E1,1.02E2,5E0,1.646E3,5.72E2,1.74E2,1.4E1,4.52E2,1.7E2,1.35E2,5.9E1],"tree_param":{"num_deleted":"0","num_feature":"85","num_nodes":"31","size_leaf_vector":"1"}},{"base_weights":[1.3444618E-5,-1.633543E-2,3.729364E-2,3.1070542E-3,-7.085279E-2,-5.3732067E-2,6.2066074E-2,-1.5587904E-2,5.9528843E-2,-8.230002E-2,2.0118941E-1,1.169528E-2,-1.8547556E-1,9.098169E-2,-7.669955E-2,-3.878494E-3,5.990142E-3,2.1533517E-3,1.719244E-2,-1.1723567E-2,1.5404889E-3,-3.5022825E-2,2.5063178E-2,-5.8612384E-2,2.5903755E-3,-3.0823369E-2,7.378787E-3,1.189292E-2,-6.3535664E-4,-4.116328E-3,-3.6450103E-2],"categories":[],"categories_nodes":[],"categories_segments":[],"categories_sizes":[],"default_left":[0,0,0,0,0,0,0,0,0,0,0,0,0,0,0,0,0,0,0,0,0,0,0,0,0,0,0,0,0,0,0],"id":42,"left_children":[1,3,5,7,9,11,13,15,17,19,21,23,25,27,29,-1,-1,-1,-1,-1,-1,-1,-1,-1,-1,-1,-1,-1,-1,-1,-1],"loss_changes":[6.583703E0,7.959405E0,7.428814E0,5.8403172E0,6.1638556E0,6.079006E0,1.0395324E1,7.2852664E0,5.8810544E0,6.470169E0,2.2688498E0,4.024397E0,7.470191E0,5.8303127E0,4.5566397E0,0E0,0E0,0E0,0E0,0E0,0E0,0E0,0E0,0E0,0E0,0E0,0E0,0E0,0E0,0E0,0E0],"parents":[2147483647,0,0,1,1,2,2,3,3,4,4,5,5,6,6,7,7,8,8,9,9,10,10,11,11,12,12,13,13,14,14],"right_children":[2,4,6,8,10,12,14,16,18,20,22,24,26,28,30,-1,-1,-1,-1,-1,-1,-1,-1,-1,-1,-1,-1,-1,-1,-1,-1],"split_conditions":[1E0,1E0,5E0,1E0,1E1,1E0,6.0752968E1,1E0,1E0,1E0,5.2248627E1,4.344763E1,1E0,1E0,1E0,-3.878494E-3,5.990142E-3,2.1533517E-3,1.719244E-2,-1.1723567E-2,1.5404889E-3,-3.5022825E-2,2.5063178E-2,-5.8612384E-2,2.5903755E-3,-3.0823369E-2,7.378787E-3,1.189292E-2,-6.3535664E-4,-4.116328E-3,-3.6450103E-2],"split_indices":[4,25,2,76,2,39,84,49,32,15,84,84,32,79,29,0,0,0,0,0,0,0,0,0,0,0,0,0,0,0,0],"split_type":[0,0,0,0,0,0,0,0,0,0,0,0,0,0,0,0,0,0,0,0,0,0,0,0,0,0,0,0,0,0,0],"sum_hessian":[1.08E4,7.508E3,3.292E3,5.535E3,1.973E3,7.04E2,2.588E3,4.158E3,1.377E3,1.894E3,7.9E1,4.71E2,2.33E2,2.142E3,4.46E2,3.181E3,9.77E2,1.03E3,3.47E2,1.395E3,4.99E2,6E0,7.3E1,1E1,4.61E2,1.58E2,7.5E1,1.664E3,4.78E2,3.98E2,4.8E1],"tree_param":{"num_deleted":"0","num_feature":"85","num_nodes":"31","size_leaf_vector":"1"}},{"base_weights":[2.1522562E-6,-1.4830263E-2,3.9518364E-2,-3.5232875E-2,4.415165E-2,2.380947E-3,1.4237931E-1,-5.2915994E-2,2.0416096E-2,2.620534E-2,1.907844E-1,3.4714714E-2,-1.0747998E-1,7.957328E-2,3.6801296E-1,-8.054073E-3,-2.6091607E-4,5.6277458E-3,-1.1743071E-2,1.3677469E-2,-1.7243413E-4,1.1691065E-2,6.547544E-2,4.510972E-3,-2.781635E-2,-1.6156333E-2,1.0142346E-2,1.3292968E-2,-1.177604E-2,2.119823E-2,6.818614E-2],"categories":[],"categories_nodes":[],"categories_segments":[],"categories_sizes":[],"default_left":[0,0,0,0,0,0,0,0,0,0,0,0,0,0,0,0,0,0,0,0,0,0,0,0,0,0,0,0,0,0,0],"id":43,"left_children":[1,3,5,7,9,11,13,15,17,19,21,23,25,27,29,-1,-1,-1,-1,-1,-1,-1,-1,-1,-1,-1,-1,-1,-1,-1,-1],"loss_changes":[6.331278E0,9.452942E0,1.1260992E1,5.7439804E0,5.308032E0,7.701386E0,1.1052558E1,6.154827E0,6.9668794E0,5.558936E0,7.463996E0,5.4602714E0,5.586397E0,6.46994E0,8.180355E0,0E0,0E0,0E0,0E0,0E0,0E0,0E0,0E0,0E0,0E0,0E0,0E0,0E0,0E0,0E0,0E0],"parents":[2147483647,0,0,1,1,2,2,3,3,4,4,5,5,6,6,7,7,8,8,9,9,10,10,11,11,12,12,13,13,14,14],"right_children":[2,4,6,8,10,12,14,16,18,20,22,24,26,28,30,-1,-1,-1,-1,-1,-1,-1,-1,-1,-1,-1,-1,-1,-1,-1,-1],"split_conditions":[1E0,1E0,1E0,1E0,1E1,1E0,1E0,1E0,1E0,6E0,1E0,1E1,1E0,1E0,1E0,-8.054073E-3,-2.6091607E-4,5.6277458E-3,-1.1743071E-2,1.3677469E-2,-1.7243413E-4,1.1691065E-2,6.547544E-2,4.510972E-3,-2.781635E-2,-1.6156333E-2,1.0142346E-2,1.3292968E-2,-1.177604E-2,2.119823E-2,6.818614E-2],"split_indices":[8,14,15,81,2,6,18,80,77,2,49,0,19,47,66,0,0,0,0,0,0,0,0,0,0,0,0,0,0,0,0],"split_type":[0,0,0,0,0,0,0,0,0,0,0,0,0,0,0,0,0,0,0,0,0,0,0,0,0,0,0,0,0,0,0],"sum_hessian":[1.08E4,7.853E3,2.947E3,5.835E3,2.018E3,2.166E3,7.81E2,4.428E3,1.407E3,1.799E3,2.19E2,1.674E3,4.92E2,6.12E2,1.69E2,2.858E3,1.57E3,1.117E3,2.9E2,3.62E2,1.437E3,1.9E2,2.9E1,1.621E3,5.3E1,3.91E2,1.01E2,4.82E2,1.3E2,1.14E2,5.5E1],"tree_param":{"num_deleted":"0","num_feature":"85","num_nodes":"31","size_leaf_vector":"1"}},{"base_weights":[1.4696027E-5,3.1041994E-3,-1.7254227E-1,2.6320547E-2,-2.201178E-2,-1.0903416E-1,-4.5067725E-1,6.403993E-2,-3.3151306E-2,-4.1538954E-2,3.871171E-2,-2.5365975E-1,3.514091E-2,-5.44585E-1,2.7515292E-3,3.6636486E-3,1.5219897E-2,2.6918957E-2,-4.9973074E-3,-3.63026E-3,-3.3728104E-2,-7.2413E-5,2.1022676E-2,-1.54848965E-2,-5.744263E-2,1.0769895E-2,-7.2655596E-2,-6.256575E-2,1.1853287E-2,4.068752E-2,-4.0206E-2],"categories":[],"categories_nodes":[],"categories_segments":[],"categories_sizes":[],"default_left":[0,0,0,0,0,0,0,0,0,0,0,0,0,0,0,0,0,0,0,0,0,0,0,0,0,0,0,0,0,0,0],"id":44,"left_children":[1,3,5,7,9,11,13,15,17,19,21,23,25,27,29,-1,-1,-1,-1,-1,-1,-1,-1,-1,-1,-1,-1,-1,-1,-1,-1],"loss_changes":[5.758714E0,6.18845E0,3.3069878E0,1.23736E1,6.046604E0,3.2617328E0,1.4918151E0,8.147958E0,1.0902381E1,5.9622965E0,8.394078E0,2.383276E0,4.444361E0,1.6332207E0,1.3087456E0,0E0,0E0,0E0,0E0,0E0,0E0,0E0,0E0,0E0,0E0,0E0,0E0,0E0,0E0,0E0,0E0],"parents":[2147483647,0,0,1,1,2,2,3,3,4,4,5,5,6,6,7,7,8,8,9,9,10,10,11,11,12,12,13,13,14,14],"right_children":[2,4,6,8,10,12,14,16,18,20,22,24,26,28,30,-1,-1,-1,-1,-1,-1,-1,-1,-1,-1,-1,-1,-1,-1,-1,-1],"split_conditions":[9E0,5E0,1E0,5.8016956E1,1E0,1E0,4.865265E1,1E0,4E0,8E0,1E0,1E0,5.3062077E1,1E0,1E0,3.6636486E-3,1.5219897E-2,2.6918957E-2,-4.9973074E-3,-3.63026E-3,-3.3728104E-2,-7.2413E-5,2.1022676E-2,-1.54848965E-2,-5.744263E-2,1.0769895E-2,-7.2655596E-2,-6.256575E-2,1.1853287E-2,4.068752E-2,-4.0206E-2],"split_indices":[1,3,39,84,44,73,84,36,0,1,5,36,84,74,17,0,0,0,0,0,0,0,0,0,0,0,0,0,0,0,0],"split_type":[0,0,0,0,0,0,0,0,0,0,0,0,0,0,0,0,0,0,0,0,0,0,0,0,0,0,0,0,0,0,0],"sum_hessian":[1.08E4,1.0611E4,1.89E2,5.514E3,5.097E3,1.55E2,3.4E1,3.374E3,2.14E3,3.857E3,1.24E3,7.7E1,7.8E1,2.8E1,6E0,2.575E3,7.99E2,1.12E2,2.028E3,3.791E3,6.6E1,1.009E3,2.31E2,6E1,1.7E1,7.2E1,6E0,2.5E1,3E0,3E0,3E0],"tree_param":{"num_deleted":"0","num_feature":"85","num_nodes":"31","size_leaf_vector":"1"}},{"base_weights":[-1.6463766E-6,-1.30730625E-2,4.014874E-2,-3.0087683E-2,4.657469E-2,1.2433163E-2,1.3334927E-1,-5.185643E-2,3.488193E-2,-6.9527656E-2,7.6374196E-2,-1.8138718E-2,9.708818E-2,6.341729E-2,3.6885053E-1,-2.714081E-3,-1.2577278E-2,-3.3996557E-3,1.7899092E-2,-1.32429525E-2,1.0163169E-2,9.150906E-3,-1.7217409E-2,-6.482129E-4,-3.5011016E-2,2.0841083E-3,3.3672914E-2,1.4552206E-2,-1.8273864E-2,4.7498103E-2,-1.1067744E-2],"categories":[],"categories_nodes":[],"categories_segments":[],"categories_sizes":[],"default_left":[0,0,0,0,0,0,0,0,0,0,0,0,0,0,0,0,0,0,0,0,0,0,0,0,0,0,0,0,0,0,0],"id":45,"left_children":[1,3,5,7,9,11,13,15,17,19,21,23,25,27,29,-1,-1,-1,-1,-1,-1,-1,-1,-1,-1,-1,-1,-1,-1,-1,-1],"loss_changes":[5.6691313E0,8.271689E0,6.8513227E0,8.969929E0,6.2640753E0,5.2969384E0,9.989803E0,8.674307E0,1.5808292E1,3.9969692E0,5.432665E0,5.817691E0,9.914639E0,9.525562E0,7.1266346E0,0E0,0E0,0E0,0E0,0E0,0E0,0E0,0E0,0E0,0E0,0E0,0E0,0E0,0E0,0E0,0E0],"parents":[2147483647,0,0,1,1,2,2,3,3,4,4,5,5,6,6,7,7,8,8,9,9,10,10,11,11,12,12,13,13,14,14],"right_children":[2,4,6,8,10,12,14,16,18,20,22,24,26,28,30,-1,-1,-1,-1,-1,-1,-1,-1,-1,-1,-1,-1,-1,-1,-1,-1],"split_conditions":[1E0,1E0,1E0,1E0,5E0,1E0,1E0,1E0,1E0,1E0,7E0,9E0,1E0,1E0,1E0,-2.714081E-3,-1.2577278E-2,-3.3996557E-3,1.7899092E-2,-1.32429525E-2,1.0163169E-2,9.150906E-3,-1.7217409E-2,-6.482129E-4,-3.5011016E-2,2.0841083E-3,3.3672914E-2,1.4552206E-2,-1.8273864E-2,4.7498103E-2,-1.1067744E-2],"split_indices":[19,41,12,15,2,38,43,6,18,27,3,3,44,51,47,0,0,0,0,0,0,0,0,0,0,0,0,0,0,0,0],"split_type":[0,0,0,0,0,0,0,0,0,0,0,0,0,0,0,0,0,0,0,0,0,0,0,0,0,0,0,0,0,0,0],"sum_hessian":[1.08E4,8.148E3,2.652E3,6.34E3,1.808E3,2.045E3,6.07E2,4.749E3,1.591E3,3.69E2,1.439E3,1.503E3,5.42E2,4.69E2,1.38E2,3.56E3,1.189E3,1.077E3,5.14E2,2.7E2,9.9E1,1.357E3,8.2E1,1.453E3,5E1,4.12E2,1.3E2,3.52E2,1.17E2,1.13E2,2.5E1],"tree_param":{"num_deleted":"0","num_feature":"85","num_nodes":"31","size_leaf_vector":"1"}},{"base_weights":[4.4998984E-7,1.4269114E-2,-3.4816906E-2,-3.4803998E-2,2.9049454E-2,-7.008356E-2,4.218329E-2,-2.3702368E-1,-1.3223965E-2,8.165589E-3,8.1981264E-2,-7.774407E-2,1.8129465E-1,1.0241077E-1,-2.3215666E-2,-1.6493808E-2,-7.4406676E-2,-4.249308E-3,1.4775042E-2,-1.6428892E-3,6.8390304E-3,1.2644388E-2,-1.570393E-3,-3.2941215E-2,-7.0910747E-3,5.1882353E-2,-7.903243E-3,6.7491382E-3,6.0934212E-2,4.151002E-3,-1.6891113E-2],"categories":[],"categories_nodes":[],"categories_segments":[],"categories_sizes":[],"default_left":[0,0,0,0,0,0,0,0,0,0,0,0,0,0,0,0,0,0,0,0,0,0,0,0,0,0,0,0,0,0,0],"id":46,"left_children":[1,3,5,7,9,11,13,15,17,19,21,23,25,27,29,-1,-1,-1,-1,-1,-1,-1,-1,-1,-1,-1,-1,-1,-1,-1,-1],"loss_changes":[5.3664026E0,5.5583916E0,8.52975E0,7.7384367E0,6.5091543E0,4.162019E0,3.8899865E0,6.127412E0,7.563648E0,6.2576933E0,7.2379885E0,3.5725985E0,5.66455E0,9.057566E0,4.476944E0,0E0,0E0,0E0,0E0,0E0,0E0,0E0,0E0,0E0,0E0,0E0,0E0,0E0,0E0,0E0,0E0],"parents":[2147483647,0,0,1,1,2,2,3,3,4,4,5,5,6,6,7,7,8,8,9,9,10,10,11,11,12,12,13,13,14,14],"right_children":[2,4,6,8,10,12,14,16,18,20,22,24,26,28,30,-1,-1,-1,-1,-1,-1,-1,-1,-1,-1,-1,-1,-1,-1,-1,-1],"split_conditions":[1E0,4E0,1E0,5E0,1E0,1.1E1,5.5928368E1,1E0,1E0,1E0,5.8133774E1,4E0,6.2682858E1,5.550663E1,1E0,-1.6493808E-2,-7.4406676E-2,-4.249308E-3,1.4775042E-2,-1.6428892E-3,6.8390304E-3,1.2644388E-2,-1.570393E-3,-3.2941215E-2,-7.0910747E-3,5.1882353E-2,-7.903243E-3,6.7491382E-3,6.0934212E-2,4.151002E-3,-1.6891113E-2],"split_indices":[82,0,74,2,26,2,84,10,4,27,84,2,84,84,12,0,0,0,0,0,0,0,0,0,0,0,0,0,0,0,0],"split_type":[0,0,0,0,0,0,0,0,0,0,0,0,0,0,0,0,0,0,0,0,0,0,0,0,0,0,0,0,0,0,0],"sum_hessian":[1.08E4,7.661E3,3.139E3,1.773E3,5.888E3,2.153E3,9.86E2,1.7E2,1.603E3,4.223E3,1.665E3,2.09E3,6.3E1,5.13E2,4.73E2,1.5E2,2E1,1.357E3,2.46E2,2.999E3,1.224E3,1.144E3,5.21E2,5.4E1,2.036E3,2.7E1,3.6E1,4.81E2,3.2E1,3.28E2,1.45E2],"tree_param":{"num_deleted":"0","num_feature":"85","num_nodes":"31","size_leaf_vector":"1"}},{"base_weights":[-8.0256704E-8,-1.3459226E-2,3.5857495E-2,-3.203406E-2,4.0238738E-2,3.6921478E-3,1.2494503E-1,-1.4492146E-2,-8.503668E-2,1.2521458E-2,1.3080616E-1,3.0960662E-2,-8.8961914E-2,6.6110454E-2,3.117924E-1,4.046102E-4,-8.824992E-3,-4.917464E-3,-2.0670993E-2,-2.5830925E-3,1.1823938E-2,7.13842E-3,3.6040697E-2,4.5895944E-3,-1.7989231E-2,-1.571319E-2,7.413478E-3,1.1699923E-2,-1.3672334E-2,2.2866648E-2,5.690195E-2],"categories":[],"categories_nodes":[],"categories_segments":[],"categories_sizes":[],"default_left":[0,0,0,0,0,0,0,0,0,0,0,0,0,0,0,0,0,0,0,0,0,0,0,0,0,0,0,0,0,0,0],"id":47,"left_children":[1,3,5,7,9,11,13,15,17,19,21,23,25,27,29,-1,-1,-1,-1,-1,-1,-1,-1,-1,-1,-1,-1,-1,-1,-1,-1],"loss_changes":[5.2131786E0,7.8351107E0,8.4471245E0,5.4248905E0,5.0666227E0,5.4777637E0,8.575982E0,5.9975095E0,6.321203E0,6.2754188E0,6.4275684E0,5.28308E0,5.4929705E0,6.1678863E0,3.8683624E0,0E0,0E0,0E0,0E0,0E0,0E0,0E0,0E0,0E0,0E0,0E0,0E0,0E0,0E0,0E0,0E0],"parents":[2147483647,0,0,1,1,2,2,3,3,4,4,5,5,6,6,7,7,8,8,9,9,10,10,11,11,12,12,13,13,14,14],"right_children":[2,4,6,8,10,12,14,16,18,20,22,24,26,28,30,-1,-1,-1,-1,-1,-1,-1,-1,-1,-1,-1,-1,-1,-1,-1,-1],"split_conditions":[1E0,1E0,1E0,1E0,1E0,1E0,1E0,1E0,5.8016956E1,1E0,1E0,7E0,1E0,1E0,1E0,4.046102E-4,-8.824992E-3,-4.917464E-3,-2.0670993E-2,-2.5830925E-3,1.1823938E-2,7.13842E-3,3.6040697E-2,4.5895944E-3,-1.7989231E-2,-1.571319E-2,7.413478E-3,1.1699923E-2,-1.3672334E-2,2.2866648E-2,5.690195E-2],"split_indices":[8,14,15,56,59,6,52,83,84,32,37,3,50,72,40,0,0,0,0,0,0,0,0,0,0,0,0,0,0,0,0],"split_type":[0,0,0,0,0,0,0,0,0,0,0,0,0,0,0,0,0,0,0,0,0,0,0,0,0,0,0,0,0,0,0],"sum_hessian":[1.08E4,7.853E3,2.947E3,5.835E3,2.018E3,2.166E3,7.81E2,4.385E3,1.45E3,1.546E3,4.72E2,1.674E3,4.92E2,5.95E2,1.86E2,3.505E3,8.8E2,1.121E3,3.29E2,1.135E3,4.11E2,3.76E2,9.6E1,1.564E3,1.1E2,3.47E2,1.45E2,4.76E2,1.19E2,1.42E2,4.4E1],"tree_param":{"num_deleted":"0","num_feature":"85","num_nodes":"31","size_leaf_vector":"1"}},{"base_weights":[6.8266168E-6,1.36977015E-2,-3.4349352E-2,3.291593E-2,-2.6784318E-2,-6.5633625E-2,1.5750347E-2,5.8101784E-3,1.0160918E-1,1.0429195E-2,-1.1567494E-1,-9.86691E-2,1.3899821E-2,9.876756E-2,-6.884939E-2,-2.394459E-3,9.132615E-3,5.9912363E-3,2.2068E-2,-2.9373378E-3,1.1374771E-2,-1.720693E-2,5.0206226E-3,-7.032148E-3,-2.1222088E-2,7.084758E-3,-1.3968718E-2,3.8647533E-3,2.645163E-2,-1.1077107E-2,1.4671638E-2],"categories":[],"categories_nodes":[],"categories_segments":[],"categories_sizes":[],"default_left":[0,0,0,0,0,0,0,0,0,0,0,0,0,0,0,0,0,0,0,0,0,0,0,0,0,0,0,0,0,0,0],"id":48,"left_children":[1,3,5,7,9,11,13,15,17,19,21,23,25,27,29,-1,-1,-1,-1,-1,-1,-1,-1,-1,-1,-1,-1,-1,-1,-1,-1],"loss_changes":[5.080896E0,6.0100975E0,4.825284E0,9.752472E0,8.228035E0,4.980341E0,8.32231E0,9.561902E0,7.3447227E0,7.2163897E0,6.8750343E0,4.2952137E0,4.881661E0,5.9487395E0,5.320899E0,0E0,0E0,0E0,0E0,0E0,0E0,0E0,0E0,0E0,0E0,0E0,0E0,0E0,0E0,0E0,0E0],"parents":[2147483647,0,0,1,1,2,2,3,3,4,4,5,5,6,6,7,7,8,8,9,9,10,10,11,11,12,12,13,13,14,14],"right_children":[2,4,6,8,10,12,14,16,18,20,22,24,26,28,30,-1,-1,-1,-1,-1,-1,-1,-1,-1,-1,-1,-1,-1,-1,-1,-1],"split_conditions":[1E0,1E0,8E0,1E0,1E0,1E0,5.8228745E1,1E0,1E0,1E0,1E0,1E0,1E0,1E0,1E0,-2.394459E-3,9.132615E-3,5.9912363E-3,2.2068E-2,-2.9373378E-3,1.1374771E-2,-1.720693E-2,5.0206226E-3,-7.032148E-3,-2.1222088E-2,7.084758E-3,-1.3968718E-2,3.8647533E-3,2.645163E-2,-1.1077107E-2,1.4671638E-2],"split_indices":[70,71,2,66,82,44,84,75,59,15,36,82,37,19,57,0,0,0,0,0,0,0,0,0,0,0,0,0,0,0,0],"split_type":[0,0,0,0,0,0,0,0,0,0,0,0,0,0,0,0,0,0,0,0,0,0,0,0,0,0,0,0,0,0,0],"sum_hessian":[1.08E4,7.723E3,3.077E3,5.237E3,2.486E3,1.894E3,1.183E3,3.756E3,1.481E3,1.753E3,7.33E2,1.338E3,5.56E2,5.97E2,5.86E2,2.787E3,9.69E2,1.098E3,3.83E2,1.266E3,4.87E2,5.47E2,1.86E2,1.072E3,2.66E2,4.06E2,1.5E2,4.39E2,1.58E2,4.91E2,9.5E1],"tree_param":{"num_deleted":"0","num_feature":"85","num_nodes":"31","size_leaf_vector":"1"}},{"base_weights":[8.903149E-6,-5.037766E-3,8.830831E-2,-1.920705E-2,3.241539E-2,1.4060953E-1,-1.2855296E-1,-7.884999E-3,-7.4605025E-2,6.057188E-2,-5.299066E-2,3.423621E-2,2.4911863E-1,-1.995146E-1,3.5309485E-1,-1.1050755E-3,3.1399276E-2,-1.173413E-2,-4.6587767E-5,9.238238E-3,-5.43699E-3,-6.430522E-4,-1.8251436E-2,1.3618784E-2,-3.5386473E-2,3.4182925E-2,-1.9337574E-2,-2.4982082E-2,1.9021599E-2,2.6512214E-3,1.24456905E-1],"categories":[],"categories_nodes":[],"categories_segments":[],"categories_sizes":[],"default_left":[0,0,0,0,0,0,0,0,0,0,0,0,0,0,0,0,0,0,0,0,0,0,0,0,0,0,0,0,0,0,0],"id":49,"left_children":[1,3,5,7,9,11,13,15,17,19,21,23,25,27,29,-1,-1,-1,-1,-1,-1,-1,-1,-1,-1,-1,-1,-1,-1,-1,-1],"loss_changes":[4.8135643E0,5.4231553E0,6.641868E0,4.6496115E0,6.7484903E0,5.4279757E0,3.9667988E0,6.2773685E0,3.9858313E0,7.719934E0,4.1961527E0,9.50483E0,9.624676E0,2.0081067E0,4.334103E0,0E0,0E0,0E0,0E0,0E0,0E0,0E0,0E0,0E0,0E0,0E0,0E0,0E0,0E0,0E0,0E0],"parents":[2147483647,0,0,1,1,2,2,3,3,4,4,5,5,6,6,7,7,8,8,9,9,10,10,11,11,12,12,13,13,14,14],"right_children":[2,4,6,8,10,12,14,16,18,20,22,24,26,28,30,-1,-1,-1,-1,-1,-1,-1,-1,-1,-1,-1,-1,-1,-1,-1,-1],"split_conditions":[1E1,1E0,1E0,