{"learner":{"attributes":{},"feature_names":["G count","A count","C count","T count","G at pos 1","A at pos 1","C at pos 1","T at pos 1","G at pos 2","A at pos 2","C at pos 2","T at pos 2","G at pos 3","A at pos 3","C at pos 3","T at pos 3","G at pos 4","A at pos 4","C at pos 4","T at pos 4","G at pos 5","A at pos 5","C at pos 5","T at pos 5","G at pos 6","A at pos 6","C at pos 6","T at pos 6","G at pos 7","A at pos 7","C at pos 7","T at pos 7","G at pos 8","A at pos 8","C at pos 8","T at pos 8","G at pos 9","A at pos 9","C at pos 9","T at pos 9","G at pos 10","A at pos 10","C at pos 10","T at pos 10","G at pos 11","A at pos 11","C at pos 11","T at pos 11","G at pos 12","A at pos 12","C at pos 12","T at pos 12","G at pos 13","A at pos 13","C at pos 13","T at pos 13","G at pos 14","A at pos 14","C at pos 14","T at pos 14","G at pos 15","A at pos 15","C at pos 15","T at pos 15","G at pos 16","A at pos 16","C at pos 16","T at pos 16","G at pos 17","A at pos 17","C at pos 17","T at pos 17","G at pos 18","A at pos 18","C at pos 18","T at pos 18","G at pos 19","A at pos 19","C at pos 19","T at pos 19","G at pos 20","A at pos 20","C at pos 20","T at pos 20","Melting Temperature"],"feature_types":["float","float","float","float","float","float","float","float","float","float","float","float","float","float","float","float","float","float","float","float","float","float","float","float","float","float","float","float","float","float","float","float","float","float","float","float","float","float","float","float","float","float","float","float","float","float","float","float","float","float","float","float","float","float","float","float","float","float","float","float","float","float","float","float","float","float","float","float","float","float","float","float","float","float","float","float","float","float","float","float","float","float","float","float","float"],"gradient_booster":{"model":{"gbtree_model_param":{"num_parallel_tree":"1","num_trees":"100"},"iteration_indptr":[0,1,2,3,4,5,6,7,8,9,10,11,12,13,14,15,16,17,18,19,20,21,22,23,24,25,26,27,28,29,30,31,32,33,34,35,36,37,38,39,40,41,42,43,44,45,46,47,48,49,50,51,52,53,54,55,56,57,58,59,60,61,62,63,64,65,66,67,68,69,70,71,72,73,74,75,76,77,78,79,80,81,82,83,84,85,86,87,88,89,90,91,92,93,94,95,96,97,98,99,100],"tree_info":[0,0,0,0,0,0,0,0,0,0,0,0,0,0,0,0,0,0,0,0,0,0,0,0,0,0,0,0,0,0,0,0,0,0,0,0,0,0,0,0,0,0,0,0,0,0,0,0,0,0,0,0,0,0,0,0,0,0,0,0,0,0,0,0,0,0,0,0,0,0,0,0,0,0,0,0,0,0,0,0,0,0,0,0,0,0,0,0,0,0,0,0,0,0,0,0,0,0,0,0],"trees":[{"base_weights":[1.4313551E-8,-3.4431517E-1,1.0462931E0,-4.6998394E-1,-1.23999074E-1,1.109906E0,4.2938942E-1,-3.9704952E-1,-5.37967E-1,-2.6698425E-1,2.8391537E-1,1.0141218E0,1.5006347E0,6.1449796E-1,4.2648762E-2,-3.7902225E-2,-4.662536E-2,-5.425427E-2,-4.484344E-2,-3.8471665E-2,-7.9266116E-4,3.563469E-2,3.8923211E-3,8.701445E-2,1.2667406E-1,1.0251933E-1,1.6054092E-1,3.8927455E-2,1.0502129E-1,-9.434389E-3,6.1363995E-2],"categories":[],"categories_nodes":[],"categories_segments":[],"categories_sizes":[],"default_left":[0,0,0,0,0,0,0,0,0,0,0,0,0,0,0,0,0,0,0,0,0,0,0,0,0,0,0,0,0,0,0],"id":0,"left_children":[1,3,5,7,9,11,13,15,17,19,21,23,25,27,29,-1,-1,-1,-1,-1,-1,-1,-1,-1,-1,-1,-1,-1,-1,-1,-1],"loss_changes":[3.865892E3,2.2348541E2,1.0379175E2,2.52771E1,1.7120346E2,8.859912E1,1.7871044E1,2.9222107E0,8.4552E-1,6.627234E1,1.3507931E1,6.9349E1,2.1866333E1,1.6175694E1,6.472064E0,0E0,0E0,0E0,0E0,0E0,0E0,0E0,0E0,0E0,0E0,0E0,0E0,0E0,0E0,0E0,0E0],"parents":[2147483647,0,0,1,1,2,2,3,3,4,4,5,5,6,6,7,7,8,8,9,9,10,10,11,11,12,12,13,13,14,14],"right_children":[2,4,6,8,10,12,14,16,18,20,22,24,26,28,30,-1,-1,-1,-1,-1,-1,-1,-1,-1,-1,-1,-1,-1,-1,-1,-1],"split_conditions":[1E0,1E0,8E0,1E0,1E0,1E0,9E0,1E0,6.477225E1,1E0,1E0,1E0,4.811E1,1E0,1E0,-3.7902225E-2,-4.662536E-2,-5.425427E-2,-4.484344E-2,-3.8471665E-2,-7.9266116E-4,3.563469E-2,3.8923211E-3,8.701445E-2,1.2667406E-1,1.0251933E-1,1.6054092E-1,3.8927455E-2,1.0502129E-1,-9.434389E-3,6.1363995E-2],"split_indices":[39,38,3,36,35,31,3,33,84,34,25,30,84,67,49,0,0,0,0,0,0,0,0,0,0,0,0,0,0,0,0],"split_type":[0,0,0,0,0,0,0,0,0,0,0,0,0,0,0,0,0,0,0,0,0,0,0,0,0,0,0,0,0,0,0],"sum_hessian":[1.0729E4,8.073E3,2.656E3,5.14E3,2.933E3,2.407E3,2.49E2,2.483E3,2.657E3,2.172E3,7.61E2,1.936E3,4.71E2,1.68E2,8.1E1,1.975E3,5.08E2,2.523E3,1.34E2,1.493E3,6.79E2,5.87E2,1.74E2,1.236E3,7E2,8.7E1,3.84E2,1.12E2,5.6E1,6.6E1,1.5E1],"tree_param":{"num_deleted":"0","num_feature":"85","num_nodes":"31","size_leaf_vector":"1"}},{"base_weights":[4.559183E-5,-3.0990636E-1,9.4191694E-1,-4.2302126E-1,-1.1159909E-1,9.9911326E-1,3.8723397E-1,-3.5737863E-1,-4.8420763E-1,-2.4030392E-1,2.555757E-1,9.128199E-1,1.3511285E0,5.5389994E-1,3.901717E-2,-3.411392E-2,-4.197199E-2,-4.8830993E-2,-4.0392313E-2,-3.4627076E-2,-7.135132E-4,1.7955411E-2,4.8510388E-2,8.7316565E-2,1.7992285E-1,1.2073963E-1,1.6902529E-1,3.5069156E-2,9.47034E-2,-8.5050315E-3,5.5611122E-2],"categories":[],"categories_nodes":[],"categories_segments":[],"categories_sizes":[],"default_left":[0,0,0,0,0,0,0,0,0,0,0,0,0,0,0,0,0,0,0,0,0,0,0,0,0,0,0,0,0,0,0],"id":1,"left_children":[1,3,5,7,9,11,13,15,17,19,21,23,25,27,29,-1,-1,-1,-1,-1,-1,-1,-1,-1,-1,-1,-1,-1,-1,-1,-1],"loss_changes":[3.132753E3,1.8106488E2,8.390869E1,2.0475403E1,1.3871396E2,7.1913574E1,1.4487362E1,2.371582E0,6.781616E-1,5.3688385E1,1.3209106E1,6.651416E1,2.0965881E1,1.3168976E1,5.3079715E0,0E0,0E0,0E0,0E0,0E0,0E0,0E0,0E0,0E0,0E0,0E0,0E0,0E0,0E0,0E0,0E0],"parents":[2147483647,0,0,1,1,2,2,3,3,4,4,5,5,6,6,7,7,8,8,9,9,10,10,11,11,12,12,13,13,14,14],"right_children":[2,4,6,8,10,12,14,16,18,20,22,24,26,28,30,-1,-1,-1,-1,-1,-1,-1,-1,-1,-1,-1,-1,-1,-1,-1,-1],"split_conditions":[1E0,1E0,8E0,1E0,1E0,1E0,9E0,1E0,6.477225E1,1E0,1E0,1E1,1E0,1E0,1E0,-3.411392E-2,-4.197199E-2,-4.8830993E-2,-4.0392313E-2,-3.4627076E-2,-7.135132E-4,1.7955411E-2,4.8510388E-2,8.7316565E-2,1.7992285E-1,1.2073963E-1,1.6902529E-1,3.5069156E-2,9.47034E-2,-8.5050315E-3,5.5611122E-2],"split_indices":[39,38,3,36,35,31,3,33,84,34,68,2,34,67,49,0,0,0,0,0,0,0,0,0,0,0,0,0,0,0,0],"split_type":[0,0,0,0,0,0,0,0,0,0,0,0,0,0,0,0,0,0,0,0,0,0,0,0,0,0,0,0,0,0,0],"sum_hessian":[1.0729E4,8.073E3,2.656E3,5.14E3,2.933E3,2.407E3,2.49E2,2.483E3,2.657E3,2.172E3,7.61E2,1.936E3,4.71E2,1.68E2,8.1E1,1.975E3,5.08E2,2.523E3,1.34E2,1.493E3,6.79E2,5.73E2,1.88E2,1.855E3,8.1E1,3.34E2,1.37E2,1.12E2,5.6E1,6.6E1,1.5E1],"tree_param":{"num_deleted":"0","num_feature":"85","num_nodes":"31","size_leaf_vector":"1"}},{"base_weights":[9.6926575E-5,-2.7893236E-1,8.480015E-1,-3.807513E-1,-1.00428574E-1,6.879294E-1,1.021753E0,-3.216714E-1,-4.3582043E-1,-2.1628979E-1,2.3010536E-1,4.8330638E-1,8.3809865E-1,9.408335E-1,1.4311635E0,-3.0704254E-2,-3.7783034E-2,-4.3824475E-2,-3.235449E-2,-3.1166688E-2,-6.4226676E-4,1.5111128E-2,4.4257917E-2,5.329585E-2,-1.287765E-2,7.15807E-2,1.1482755E-1,8.876484E-2,1.6729228E-1,1.3007799E-1,2.107625E-1],"categories":[],"categories_nodes":[],"categories_segments":[],"categories_sizes":[],"default_left":[0,0,0,0,0,0,0,0,0,0,0,0,0,0,0,0,0,0,0,0,0,0,0,0,0,0,0,0,0,0,0],"id":2,"left_children":[1,3,5,7,9,11,13,15,17,19,21,23,25,27,29,-1,-1,-1,-1,-1,-1,-1,-1,-1,-1,-1,-1,-1,-1,-1,-1],"loss_changes":[2.5388496E3,1.4670728E2,7.3195435E1,1.6585999E1,1.12410416E2,4.2184082E1,4.0793945E1,1.9247131E0,5.8169556E-1,4.349388E1,1.272266E1,1.7969055E1,2.9447815E1,3.9982117E1,1.5603943E1,0E0,0E0,0E0,0E0,0E0,0E0,0E0,0E0,0E0,0E0,0E0,0E0,0E0,0E0,0E0,0E0],"parents":[2147483647,0,0,1,1,2,2,3,3,4,4,5,5,6,6,7,7,8,8,9,9,10,10,11,11,12,12,13,13,14,14],"right_children":[2,4,6,8,10,12,14,16,18,20,22,24,26,28,30,-1,-1,-1,-1,-1,-1,-1,-1,-1,-1,-1,-1,-1,-1,-1,-1],"split_conditions":[1E0,1E0,5.3155827E1,1E0,1E0,4E0,1E0,1E0,6.741163E1,1E0,1E0,9E0,1E0,1E1,1E0,-3.0704254E-2,-3.7783034E-2,-4.3824475E-2,-3.235449E-2,-3.1166688E-2,-6.4226676E-4,1.5111128E-2,4.4257917E-2,5.329585E-2,-1.287765E-2,7.15807E-2,1.1482755E-1,8.876484E-2,1.6729228E-1,1.3007799E-1,2.107625E-1],"split_indices":[39,38,84,36,35,0,31,33,84,34,80,3,67,2,49,0,0,0,0,0,0,0,0,0,0,0,0,0,0,0,0],"split_type":[0,0,0,0,0,0,0,0,0,0,0,0,0,0,0,0,0,0,0,0,0,0,0,0,0,0,0,0,0,0,0],"sum_hessian":[1.0729E4,8.073E3,2.656E3,5.14E3,2.933E3,1.385E3,1.271E3,2.483E3,2.657E3,2.172E3,7.61E2,5.88E2,7.97E2,1.064E3,2.07E2,1.975E3,5.08E2,2.598E3,5.9E1,1.493E3,6.79E2,5.56E2,2.05E2,5.44E2,4.4E1,5.74E2,2.23E2,9.94E2,7E1,1.76E2,3.1E1],"tree_param":{"num_deleted":"0","num_feature":"85","num_nodes":"31","size_leaf_vector":"1"}},{"base_weights":[1.5308941E-4,-2.5105363E-1,7.635113E-1,-3.427043E-1,-9.0376325E-2,8.5427934E-1,4.8193333E-1,-2.895318E-1,-3.9226702E-1,-1.9467546E-1,2.0717274E-1,7.0048016E-1,1.0028632E0,-4.673391E-3,6.001049E-1,-2.728548E-2,-3.3786714E-2,-4.0115397E-2,-3.6183704E-2,-2.8052106E-2,-5.7813496E-4,1.333E-2,4.3043077E-2,6.1391205E-2,1.0351425E-1,1.1034878E-1,7.765476E-2,-1.7445093E-2,3.7319846E-2,5.10915E-2,1.0292905E-1],"categories":[],"categories_nodes":[],"categories_segments":[],"categories_sizes":[],"default_left":[0,0,0,0,0,0,0,0,0,0,0,0,0,0,0,0,0,0,0,0,0,0,0,0,0,0,0,0,0,0,0],"id":3,"left_children":[1,3,5,7,9,11,13,15,17,19,21,23,25,27,29,-1,-1,-1,-1,-1,-1,-1,-1,-1,-1,-1,-1,-1,-1,-1,-1],"loss_changes":[2.0577842E3,1.18868195E2,6.749658E1,1.34348755E1,9.1094406E1,4.518457E1,3.737979E1,1.910141E0,5.736389E-1,3.5235153E1,1.2510048E1,2.8045929E1,2.2348633E1,8.276835E0,1.9494034E1,0E0,0E0,0E0,0E0,0E0,0E0,0E0,0E0,0E0,0E0,0E0,0E0,0E0,0E0,0E0,0E0],"parents":[2147483647,0,0,1,1,2,2,3,3,4,4,5,5,6,6,7,7,8,8,9,9,10,10,11,11,12,12,13,13,14,14],"right_children":[2,4,6,8,10,12,14,16,18,20,22,24,26,28,30,-1,-1,-1,-1,-1,-1,-1,-1,-1,-1,-1,-1,-1,-1,-1,-1],"split_conditions":[1E0,1E0,1E0,1E0,1E0,5.3155827E1,4.7777065E1,1E0,5.9767586E1,1E0,1E0,1E0,1E0,1E0,1E0,-2.728548E-2,-3.3786714E-2,-4.0115397E-2,-3.6183704E-2,-2.8052106E-2,-5.7813496E-4,1.333E-2,4.3043077E-2,6.1391205E-2,1.0351425E-1,1.1034878E-1,7.765476E-2,-1.7445093E-2,3.7319846E-2,5.10915E-2,1.0292905E-1],"split_indices":[39,38,51,36,35,84,84,51,84,34,48,68,56,53,31,0,0,0,0,0,0,0,0,0,0,0,0,0,0,0,0],"split_type":[0,0,0,0,0,0,0,0,0,0,0,0,0,0,0,0,0,0,0,0,0,0,0,0,0,0,0,0,0,0,0],"sum_hessian":[1.0729E4,8.073E3,2.656E3,5.14E3,2.933E3,2.007E3,6.49E2,2.483E3,2.657E3,2.172E3,7.61E2,9.89E2,1.018E3,1.27E2,5.22E2,1.851E3,6.32E2,2.047E3,6.1E2,1.493E3,6.79E2,5.73E2,1.88E2,7.88E2,2.01E2,7.02E2,3.16E2,8.8E1,3.9E1,4.34E2,8.8E1],"tree_param":{"num_deleted":"0","num_feature":"85","num_nodes":"31","size_leaf_vector":"1"}},{"base_weights":[1.7666367E-4,-2.2596183E-1,6.8735844E-1,-3.084606E-1,-8.132923E-2,7.626983E-1,3.885072E-1,-2.6060322E-1,-3.53069E-1,-1.7522107E-1,1.8652944E-1,6.792562E-1,9.9806523E-1,2.857231E-1,7.848989E-1,-2.7541978E-2,-2.073836E-2,-3.417309E-2,-3.766606E-2,-2.5047263E-2,3.7858523E-3,-4.6988726E-3,2.5064979E-2,5.69682E-2,8.905663E-2,1.1525054E-1,5.7545263E-2,3.6656823E-2,-1.5534653E-2,9.600865E-2,-3.043342E-2],"categories":[],"categories_nodes":[],"categories_segments":[],"categories_sizes":[],"default_left":[0,0,0,0,0,0,0,0,0,0,0,0,0,0,0,0,0,0,0,0,0,0,0,0,0,0,0,0,0,0,0],"id":4,"left_children":[1,3,5,7,9,11,13,15,17,19,21,23,25,27,29,-1,-1,-1,-1,-1,-1,-1,-1,-1,-1,-1,-1,-1,-1,-1,-1],"loss_changes":[1.6675787E3,9.6313934E1,5.9526978E1,1.0883209E1,7.382204E1,4.097754E1,2.1654602E1,1.9015961E0,5.822754E-1,3.48526E1,1.1421406E1,3.5821472E1,3.5430237E1,1.5318714E1,2.128241E1,0E0,0E0,0E0,0E0,0E0,0E0,0E0,0E0,0E0,0E0,0E0,0E0,0E0,0E0,0E0,0E0],"parents":[2147483647,0,0,1,1,2,2,3,3,4,4,5,5,6,6,7,7,8,8,9,9,10,10,11,11,12,12,13,13,14,14],"right_children":[2,4,6,8,10,12,14,16,18,20,22,24,26,28,30,-1,-1,-1,-1,-1,-1,-1,-1,-1,-1,-1,-1,-1,-1,-1,-1],"split_conditions":[1E0,1E0,7E0,1E0,1E0,1E0,1E0,1E0,1E0,1E0,5.003919E1,1E0,1E0,9E0,1E0,-2.7541978E-2,-2.073836E-2,-3.417309E-2,-3.766606E-2,-2.5047263E-2,3.7858523E-3,-4.6988726E-3,2.5064979E-2,5.69682E-2,8.905663E-2,1.1525054E-1,5.7545263E-2,3.6656823E-2,-1.5534653E-2,9.600865E-2,-3.043342E-2],"split_indices":[39,38,3,36,35,34,49,24,26,31,84,54,28,3,6,0,0,0,0,0,0,0,0,0,0,0,0,0,0,0,0],"split_type":[0,0,0,0,0,0,0,0,0,0,0,0,0,0,0,0,0,0,0,0,0,0,0,0,0,0,0,0,0,0,0],"sum_hessian":[1.0729E4,8.073E3,2.656E3,5.14E3,2.933E3,2.12E3,5.36E2,2.483E3,2.657E3,2.172E3,7.61E2,1.568E3,5.52E2,4.27E2,1.09E2,1.939E3,5.44E2,1.805E3,8.52E2,1.605E3,5.67E2,1.64E2,5.97E2,1.035E3,5.33E2,4.03E2,1.49E2,3.61E2,6.6E1,9.4E1,1.5E1],"tree_param":{"num_deleted":"0","num_feature":"85","num_nodes":"31","size_leaf_vector":"1"}},{"base_weights":[1.8551099E-4,-2.0338064E-1,6.1877525E-1,-2.776379E-1,-7.319661E-2,6.976318E-1,3.742173E-1,-2.3456234E-1,-3.1778917E-1,-1.5770875E-1,1.6790323E-1,7.690838E-1,4.4420812E-1,-4.319723E-2,4.756606E-1,-2.5024477E-2,-1.8781578E-2,-2.8704038E-2,-3.2502696E-2,-2.3506112E-2,1.2470883E-3,2.3227103E-2,-4.933205E-3,6.825511E-2,1.01199165E-1,5.404244E-2,1.3612116E-2,-1.3622622E-2,5.328814E-2,3.7677724E-2,8.657222E-2],"categories":[],"categories_nodes":[],"categories_segments":[],"categories_sizes":[],"default_left":[0,0,0,0,0,0,0,0,0,0,0,0,0,0,0,0,0,0,0,0,0,0,0,0,0,0,0,0,0,0,0],"id":5,"left_children":[1,3,5,7,9,11,13,15,17,19,21,23,25,27,29,-1,-1,-1,-1,-1,-1,-1,-1,-1,-1,-1,-1,-1,-1,-1,-1],"loss_changes":[1.3512896E3,7.803195E1,5.0979187E1,8.816986E0,5.9809265E1,3.6018494E1,2.7544083E1,1.7740326E0,4.982605E-1,2.8607864E1,1.06664715E1,3.2204712E1,1.3087921E1,6.9323707E0,1.984623E1,0E0,0E0,0E0,0E0,0E0,0E0,0E0,0E0,0E0,0E0,0E0,0E0,0E0,0E0,0E0,0E0],"parents":[2147483647,0,0,1,1,2,2,3,3,4,4,5,5,6,6,7,7,8,8,9,9,10,10,11,11,12,12,13,13,14,14],"right_children":[2,4,6,8,10,12,14,16,18,20,22,24,26,28,30,-1,-1,-1,-1,-1,-1,-1,-1,-1,-1,-1,-1,-1,-1,-1,-1],"split_conditions":[1E0,1E0,1E0,1E0,1E0,1E0,4.7777065E1,1E0,3E0,1E0,1E0,1E0,1E0,1E0,1E0,-2.5024477E-2,-1.8781578E-2,-2.8704038E-2,-3.2502696E-2,-2.3506112E-2,1.2470883E-3,2.3227103E-2,-4.933205E-3,6.825511E-2,1.01199165E-1,5.404244E-2,1.3612116E-2,-1.3622622E-2,5.328814E-2,3.7677724E-2,8.657222E-2],"split_indices":[39,38,51,36,35,9,84,35,1,34,25,68,29,34,53,0,0,0,0,0,0,0,0,0,0,0,0,0,0,0,0],"split_type":[0,0,0,0,0,0,0,0,0,0,0,0,0,0,0,0,0,0,0,0,0,0,0,0,0,0,0,0,0,0,0],"sum_hessian":[1.0729E4,8.073E3,2.656E3,5.14E3,2.933E3,2.007E3,6.49E2,2.483E3,2.657E3,2.172E3,7.61E2,1.564E3,4.43E2,1.27E2,5.22E2,1.856E3,6.27E2,5.14E2,2.143E3,1.493E3,6.79E2,5.87E2,1.74E2,1.156E3,4.08E2,3.37E2,1.06E2,1.1E2,1.7E1,4.18E2,1.04E2],"tree_param":{"num_deleted":"0","num_feature":"85","num_nodes":"31","size_leaf_vector":"1"}},{"base_weights":[1.9417728E-4,-1.8305607E-1,5.570486E-1,-2.4989453E-1,-6.58783E-2,6.599728E-1,3.877489E-1,-2.1112373E-1,-2.8603327E-1,-1.4194812E-1,1.511369E-1,5.690415E-1,8.681586E-1,2.577002E-1,7.022626E-1,-2.1987397E-2,-1.2801016E-2,-2.7577562E-2,-3.0741576E-2,-2.0974843E-2,5.0004795E-3,8.299948E-3,3.572732E-2,4.6728775E-2,9.1633774E-2,7.4328184E-2,1.3253112E-1,3.6219243E-2,6.586975E-3,2.8742244E-2,9.1786586E-2],"categories":[],"categories_nodes":[],"categories_segments":[],"categories_sizes":[],"default_left":[0,0,0,0,0,0,0,0,0,0,0,0,0,0,0,0,0,0,0,0,0,0,0,0,0,0,0,0,0,0,0],"id":6,"left_children":[1,3,5,7,9,11,13,15,17,19,21,23,25,27,29,-1,-1,-1,-1,-1,-1,-1,-1,-1,-1,-1,-1,-1,-1,-1,-1],"loss_changes":[1.095031E3,6.3218964E1,4.604242E1,7.1427917E0,4.8456825E1,3.0760437E1,4.1007446E1,1.7783737E0,4.9822998E-1,2.8290928E1,1.0673092E1,4.0281982E1,2.7558777E1,1.4288124E1,2.60318E1,0E0,0E0,0E0,0E0,0E0,0E0,0E0,0E0,0E0,0E0,0E0,0E0,0E0,0E0,0E0,0E0],"parents":[2147483647,0,0,1,1,2,2,3,3,4,4,5,5,6,6,7,7,8,8,9,9,10,10,11,11,12,12,13,13,14,14],"right_children":[2,4,6,8,10,12,14,16,18,20,22,24,26,28,30,-1,-1,-1,-1,-1,-1,-1,-1,-1,-1,-1,-1,-1,-1,-1,-1],"split_conditions":[1E0,1E0,6E0,1E0,1E0,1E0,1E0,9E0,1E0,1E0,1E0,1E0,1E0,1E0,4.7777065E1,-2.1987397E-2,-1.2801016E-2,-2.7577562E-2,-3.0741576E-2,-2.0974843E-2,5.0004795E-3,8.299948E-3,3.572732E-2,4.6728775E-2,9.1633774E-2,7.4328184E-2,1.3253112E-1,3.6219243E-2,6.586975E-3,2.8742244E-2,9.1786586E-2],"split_indices":[39,38,3,36,35,30,31,2,26,31,68,31,34,51,84,0,0,0,0,0,0,0,0,0,0,0,0,0,0,0,0],"split_type":[0,0,0,0,0,0,0,0,0,0,0,0,0,0,0,0,0,0,0,0,0,0,0,0,0,0,0,0,0,0,0],"sum_hessian":[1.0729E4,8.073E3,2.656E3,5.14E3,2.933E3,1.65E3,1.006E3,2.483E3,2.657E3,2.172E3,7.61E2,1.151E3,4.99E2,7.13E2,2.93E2,2.245E3,2.38E2,1.805E3,8.52E2,1.605E3,5.67E2,5.73E2,1.88E2,8.92E2,2.59E2,3.94E2,1.05E2,4.61E2,2.52E2,1.01E2,1.92E2],"tree_param":{"num_deleted":"0","num_feature":"85","num_nodes":"31","size_leaf_vector":"1"}},{"base_weights":[2.1608874E-4,-1.6475852E-1,5.015352E-1,-2.249232E-1,-5.9280906E-2,5.406082E-1,1.23177424E-1,-1.9002537E-1,-2.574519E-1,8.819762E-3,-2.5975037E-1,4.7486097E-1,8.092773E-1,3.264305E-2,5.707609E-1,-1.9673903E-2,-8.645522E-3,-2.6546298E-2,-2.3063434E-2,-6.4929747E-3,2.3331767E-2,-2.7644439E-2,-1.6974883E-2,3.6366846E-2,6.703963E-2,9.2864044E-2,4.9805384E-2,-1.0368338E-2,2.7759537E-2,-2.7860638E-3,9.78938E-2],"categories":[],"categories_nodes":[],"categories_segments":[],"categories_sizes":[],"default_left":[0,0,0,0,0,0,0,0,0,0,0,0,0,0,0,0,0,0,0,0,0,0,0,0,0,0,0,0,0,0,0],"id":7,"left_children":[1,3,5,7,9,11,13,15,17,19,21,23,25,27,29,-1,-1,-1,-1,-1,-1,-1,-1,-1,-1,-1,-1,-1,-1,-1,-1],"loss_changes":[8.875065E2,5.1224487E1,3.921338E1,5.787018E0,4.005757E1,4.2151245E1,1.0111792E1,1.7102051E0,5.0982666E-1,3.6290688E1,1.070919E0,4.1870575E1,1.7071625E1,7.0080185E0,1.0289703E1,0E0,0E0,0E0,0E0,0E0,0E0,0E0,0E0,0E0,0E0,0E0,0E0,0E0,0E0,0E0,0E0],"parents":[2147483647,0,0,1,1,2,2,3,3,4,4,5,5,6,6,7,7,8,8,9,9,10,10,11,11,12,12,13,13,14,14],"right_children":[2,4,6,8,10,12,14,16,18,20,22,24,26,28,30,-1,-1,-1,-1,-1,-1,-1,-1,-1,-1,-1,-1,-1,-1,-1,-1],"split_conditions":[1E0,1E0,8E0,1E0,1E0,1E0,1E0,8E0,1E0,1E0,6.2536594E1,1E0,1E0,1E0,4E0,-1.9673903E-2,-8.645522E-3,-2.6546298E-2,-2.3063434E-2,-6.4929747E-3,2.3331767E-2,-2.7644439E-2,-1.6974883E-2,3.6366846E-2,6.703963E-2,9.2864044E-2,4.9805384E-2,-1.0368338E-2,2.7759537E-2,-2.7860638E-3,9.78938E-2],"split_indices":[39,38,3,36,32,31,53,0,35,31,84,30,50,67,0,0,0,0,0,0,0,0,0,0,0,0,0,0,0,0,0],"split_type":[0,0,0,0,0,0,0,0,0,0,0,0,0,0,0,0,0,0,0,0,0,0,0,0,0,0,0,0,0,0,0],"sum_hessian":[1.0729E4,8.073E3,2.656E3,5.14E3,2.933E3,2.407E3,2.49E2,2.483E3,2.657E3,2.19E3,7.43E2,1.936E3,4.71E2,2.08E2,4.1E1,2.331E3,1.52E2,2.039E3,6.18E2,1.649E3,5.41E2,6.25E2,1.18E2,1.236E3,7E2,3.39E2,1.32E2,1.34E2,7.4E1,1.7E1,2.4E1],"tree_param":{"num_deleted":"0","num_feature":"85","num_nodes":"31","size_leaf_vector":"1"}},{"base_weights":[2.1804898E-4,-1.4829576E-1,4.5151663E-1,-2.0244603E-1,-5.3362288E-2,1.643218E-1,5.001107E-1,-1.7103423E-1,-2.3172536E-1,-1.1977853E-1,1.3610734E-1,2.9383597E-1,-9.902579E-2,4.4267097E-1,7.451368E-1,-1.5621866E-2,-2.141107E-2,-2.3953192E-2,-2.0517943E-2,-1.8534767E-2,2.4456861E-3,6.5060616E-3,3.275487E-2,4.1073944E-2,-2.030353E-2,-2.5166137E-2,2.3099754E-2,4.1184757E-2,1.09960034E-1,8.69505E-2,4.6087474E-2],"categories":[],"categories_nodes":[],"categories_segments":[],"categories_sizes":[],"default_left":[0,0,0,0,0,0,0,0,0,0,0,0,0,0,0,0,0,0,0,0,0,0,0,0,0,0,0,0,0,0,0],"id":8,"left_children":[1,3,5,7,9,11,13,15,17,19,21,23,25,27,29,-1,-1,-1,-1,-1,-1,-1,-1,-1,-1,-1,-1,-1,-1,-1,-1],"loss_changes":[7.192352E2,4.1494995E1,3.699878E1,4.688614E0,3.6937347E1,1.3194494E1,3.164685E1,1.5518494E0,5.0167847E-1,2.0555443E1,1.0342864E1,1.5127663E1,6.5059156E0,3.686566E1,1.4801132E1,0E0,0E0,0E0,0E0,0E0,0E0,0E0,0E0,0E0,0E0,0E0,0E0,0E0,0E0,0E0,0E0],"parents":[2147483647,0,0,1,1,2,2,3,3,4,4,5,5,6,6,7,7,8,8,9,9,10,10,11,11,12,12,13,13,14,14],"right_children":[2,4,6,8,10,12,14,16,18,20,22,24,26,28,30,-1,-1,-1,-1,-1,-1,-1,-1,-1,-1,-1,-1,-1,-1,-1,-1],"split_conditions":[1E0,1E0,4.7777065E1,1E0,1E0,1E0,1E0,1E0,5.9767586E1,1E0,1E0,1E0,1E0,1E1,1E0,-1.5621866E-2,-2.141107E-2,-2.3953192E-2,-2.0517943E-2,-1.8534767E-2,2.4456861E-3,6.5060616E-3,3.275487E-2,4.1073944E-2,-2.030353E-2,-2.5166137E-2,2.3099754E-2,4.1184757E-2,1.09960034E-1,8.69505E-2,4.6087474E-2],"split_indices":[39,38,84,36,35,51,31,51,84,34,80,70,59,2,50,0,0,0,0,0,0,0,0,0,0,0,0,0,0,0,0],"split_type":[0,0,0,0,0,0,0,0,0,0,0,0,0,0,0,0,0,0,0,0,0,0,0,0,0,0,0,0,0,0,0],"sum_hessian":[1.0729E4,8.073E3,2.656E3,5.14E3,2.933E3,3.85E2,2.271E3,2.483E3,2.657E3,2.172E3,7.61E2,2.58E2,1.27E2,1.842E3,4.29E2,1.851E3,6.32E2,2.047E3,6.1E2,1.493E3,6.79E2,5.56E2,2.05E2,2.09E2,4.9E1,8.7E1,4E1,1.761E3,8.1E1,2.97E2,1.32E2],"tree_param":{"num_deleted":"0","num_feature":"85","num_nodes":"31","size_leaf_vector":"1"}},{"base_weights":[2.1903466E-4,-1.3347341E-1,4.0647894E-1,-1.8221729E-1,-4.801816E-2,3.341574E-1,5.965708E-1,-1.5394571E-1,-2.0856956E-1,-1.0780808E-1,1.22548126E-1,2.7263665E-1,5.625334E-1,6.941531E-1,2.6542205E-1,-1.6714469E-2,-1.0667975E-2,-2.111649E-2,-1.3632717E-2,-1.6379908E-2,5.0694277E-3,4.928933E-3,3.075019E-2,1.8464485E-2,5.2799422E-2,6.609428E-2,5.180856E-3,7.228464E-2,-4.847178E-2,1.5069181E-2,6.4105056E-2],"categories":[],"categories_nodes":[],"categories_segments":[],"categories_sizes":[],"default_left":[0,0,0,0,0,0,0,0,0,0,0,0,0,0,0,0,0,0,0,0,0,0,0,0,0,0,0,0,0,0,0],"id":9,"left_children":[1,3,5,7,9,11,13,15,17,19,21,23,25,27,29,-1,-1,-1,-1,-1,-1,-1,-1,-1,-1,-1,-1,-1,-1,-1,-1],"loss_changes":[5.828423E2,3.3622833E1,3.632834E1,3.7980347E0,2.9934566E1,2.6920715E1,2.343747E1,1.5318451E0,4.6957397E-1,1.9293034E1,1.0309556E1,3.405597E1,2.0471893E1,1.94281E1,7.1435184E0,0E0,0E0,0E0,0E0,0E0,0E0,0E0,0E0,0E0,0E0,0E0,0E0,0E0,0E0,0E0,0E0],"parents":[2147483647,0,0,1,1,2,2,3,3,4,4,5,5,6,6,7,7,8,8,9,9,10,10,11,11,12,12,13,13,14,14],"right_children":[2,4,6,8,10,12,14,16,18,20,22,24,26,28,30,-1,-1,-1,-1,-1,-1,-1,-1,-1,-1,-1,-1,-1,-1,-1,-1],"split_conditions":[1E0,1E0,1E0,1E0,1E0,1E0,1E0,1E0,1E1,1E0,1E0,1E0,1E0,9E0,1E0,-1.6714469E-2,-1.0667975E-2,-2.111649E-2,-1.3632717E-2,-1.6379908E-2,5.0694277E-3,4.928933E-3,3.075019E-2,1.8464485E-2,5.2799422E-2,6.609428E-2,5.180856E-3,7.228464E-2,-4.847178E-2,1.5069181E-2,6.4105056E-2],"split_indices":[39,38,80,36,35,31,9,24,0,31,30,58,35,3,24,0,0,0,0,0,0,0,0,0,0,0,0,0,0,0,0],"split_type":[0,0,0,0,0,0,0,0,0,0,0,0,0,0,0,0,0,0,0,0,0,0,0,0,0,0,0,0,0,0,0],"sum_hessian":[1.0729E4,8.073E3,2.656E3,5.14E3,2.933E3,1.926E3,7.3E2,2.483E3,2.657E3,2.172E3,7.61E2,1.519E3,4.07E2,5.63E2,1.67E2,1.939E3,5.44E2,2.563E3,9.4E1,1.605E3,5.67E2,5.46E2,2.15E2,1.131E3,3.88E2,3.41E2,6.6E1,5.5E2,1.3E1,1.29E2,3.8E1],"tree_param":{"num_deleted":"0","num_feature":"85","num_nodes":"31","size_leaf_vector":"1"}},{"base_weights":[2.1649401E-4,-1.2013075E-1,3.6592346E-1,-1.6400763E-1,-4.320804E-2,3.001703E-1,5.6243485E-1,-1.3856217E-1,-1.8772566E-1,1.157294E-2,-2.0447406E-1,3.975828E-1,1.4361328E-1,6.0569865E-1,-4.710423E-2,-1.5299129E-2,-9.639551E-3,-1.962006E-2,-1.657821E-2,-5.26491E-3,2.0706149E-2,-2.2001568E-2,-1.2099901E-2,2.798332E-2,6.170217E-2,2.3165394E-2,-1.2079815E-2,7.170491E-2,3.0364284E-2,-2.5866821E-2,1.1383386E-1],"categories":[],"categories_nodes":[],"categories_segments":[],"categories_sizes":[],"default_left":[0,0,0,0,0,0,0,0,0,0,0,0,0,0,0,0,0,0,0,0,0,0,0,0,0,0,0,0,0,0,0],"id":10,"left_children":[1,3,5,7,9,11,13,15,17,19,21,23,25,27,29,-1,-1,-1,-1,-1,-1,-1,-1,-1,-1,-1,-1,-1,-1,-1,-1],"loss_changes":[4.7229083E2,2.7243698E1,3.4162903E1,3.0766754E0,2.5922232E1,3.0337357E1,1.7565247E1,1.4965858E0,4.6177673E-1,2.7518188E1,9.3860054E-1,3.1557434E1,1.7859665E1,2.0669022E1,1.1580316E1,0E0,0E0,0E0,0E0,0E0,0E0,0E0,0E0,0E0,0E0,0E0,0E0,0E0,0E0,0E0,0E0],"parents":[2147483647,0,0,1,1,2,2,3,3,4,4,5,5,6,6,7,7,8,8,9,9,10,10,11,11,12,12,13,13,14,14],"right_children":[2,4,6,8,10,12,14,16,18,20,22,24,26,28,30,-1,-1,-1,-1,-1,-1,-1,-1,-1,-1,-1,-1,-1,-1,-1,-1],"split_conditions":[1E0,1E0,1E0,1E0,1E0,6E0,8E0,1E0,1E0,1E0,6.2536594E1,1E0,1E0,1E0,1E0,-1.5299129E-2,-9.639551E-3,-1.962006E-2,-1.657821E-2,-5.26491E-3,2.0706149E-2,-2.2001568E-2,-1.2099901E-2,2.798332E-2,6.170217E-2,2.3165394E-2,-1.2079815E-2,7.170491E-2,3.0364284E-2,-2.5866821E-2,1.1383386E-1],"split_indices":[39,38,34,36,32,3,3,20,66,31,84,54,82,56,4,0,0,0,0,0,0,0,0,0,0,0,0,0,0,0,0],"split_type":[0,0,0,0,0,0,0,0,0,0,0,0,0,0,0,0,0,0,0,0,0,0,0,0,0,0,0,0,0,0,0],"sum_hessian":[1.0729E4,8.073E3,2.656E3,5.14E3,2.933E3,1.992E3,6.64E2,2.483E3,2.657E3,2.19E3,7.43E2,1.227E3,7.65E2,6.2E2,4.4E1,1.848E3,6.35E2,1.911E3,7.46E2,1.649E3,5.41E2,6.25E2,1.18E2,8E2,4.27E2,5.74E2,1.91E2,4.52E2,1.68E2,3.8E1,6E0],"tree_param":{"num_deleted":"0","num_feature":"85","num_nodes":"31","size_leaf_vector":"1"}},{"base_weights":[2.1451045E-4,-1.0812755E-1,3.2944056E-1,-1.4761876E-1,-3.8893595E-2,3.908096E-1,1.3935058E-1,-1.24715984E-1,-1.6896673E-1,-9.107886E-2,1.0997448E-1,4.5108342E-1,1.7747773E-1,4.9959764E-2,4.5311302E-1,-1.1217815E-2,-1.7314438E-2,-1.5972158E-2,-1.8834278E-2,-1.4683904E-2,3.1563458E-3,1.7020626E-2,-1.0400098E-2,3.7579756E-2,6.629532E-2,7.553791E-3,4.2855155E-2,1.6061056E-2,-1.7033394E-2,2.4014834E-2,9.8226465E-2],"categories":[],"categories_nodes":[],"categories_segments":[],"categories_sizes":[],"default_left":[0,0,0,0,0,0,0,0,0,0,0,0,0,0,0,0,0,0,0,0,0,0,0,0,0,0,0,0,0,0,0],"id":11,"left_children":[1,3,5,7,9,11,13,15,17,19,21,23,25,27,29,-1,-1,-1,-1,-1,-1,-1,-1,-1,-1,-1,-1,-1,-1,-1,-1],"loss_changes":[3.8276428E2,2.2069641E1,3.0941162E1,2.4925003E0,2.2803444E1,2.5739471E1,1.8208225E1,1.4888306E0,4.4606018E-1,1.48648205E1,9.8384495E0,2.4713867E1,1.133155E1,1.2385822E1,1.5991562E1,0E0,0E0,0E0,0E0,0E0,0E0,0E0,0E0,0E0,0E0,0E0,0E0,0E0,0E0,0E0,0E0],"parents":[2147483647,0,0,1,1,2,2,3,3,4,4,5,5,6,6,7,7,8,8,9,9,10,10,11,11,12,12,13,13,14,14],"right_children":[2,4,6,8,10,12,14,16,18,20,22,24,26,28,30,-1,-1,-1,-1,-1,-1,-1,-1,-1,-1,-1,-1,-1,-1,-1,-1],"split_conditions":[1E0,1E0,1E0,1E0,1E0,1E0,1E0,1E0,1E0,1E0,1E0,1E0,1E0,7E0,1E0,-1.1217815E-2,-1.7314438E-2,-1.5972158E-2,-1.8834278E-2,-1.4683904E-2,3.1563458E-3,1.7020626E-2,-1.0400098E-2,3.7579756E-2,6.629532E-2,7.553791E-3,4.2855155E-2,1.6061056E-2,-1.7033394E-2,2.4014834E-2,9.8226465E-2],"split_indices":[39,38,51,36,35,9,53,33,26,34,19,68,12,3,20,0,0,0,0,0,0,0,0,0,0,0,0,0,0,0,0],"split_type":[0,0,0,0,0,0,0,0,0,0,0,0,0,0,0,0,0,0,0,0,0,0,0,0,0,0,0,0,0,0,0],"sum_hessian":[1.0729E4,8.073E3,2.656E3,5.14E3,2.933E3,2.007E3,6.49E2,2.483E3,2.657E3,2.172E3,7.61E2,1.564E3,4.43E2,5.06E2,1.43E2,1.975E3,5.08E2,1.805E3,8.52E2,1.493E3,6.79E2,5.94E2,1.67E2,1.156E3,4.08E2,3.16E2,1.27E2,3.37E2,1.69E2,1.03E2,4E1],"tree_param":{"num_deleted":"0","num_feature":"85","num_nodes":"31","size_leaf_vector":"1"}},{"base_weights":[2.1237582E-4,-9.7323254E-2,2.966002E-1,-1.328692E-1,-3.5005912E-2,2.3385055E-1,4.6160972E-1,-1.12255886E-1,-1.5208313E-1,1.4541275E-2,-1.6628706E-1,2.105315E-1,7.766743E-1,5.451947E-1,1.782554E-1,-1.2013006E-2,-3.778866E-3,-1.5938334E-2,-1.2777859E-2,7.3627285E-3,-1.6142106E-2,-2.1885103E-2,-2.4877172E-3,1.4770498E-2,4.4068113E-2,5.978592E-2,1.8277259E-1,5.700938E-2,-4.7370743E-2,2.6810456E-2,-2.6164595E-2],"categories":[],"categories_nodes":[],"categories_segments":[],"categories_sizes":[],"default_left":[0,0,0,0,0,0,0,0,0,0,0,0,0,0,0,0,0,0,0,0,0,0,0,0,0,0,0,0,0,0,0],"id":12,"left_children":[1,3,5,7,9,11,13,15,17,19,21,23,25,27,29,-1,-1,-1,-1,-1,-1,-1,-1,-1,-1,-1,-1,-1,-1,-1,-1],"loss_changes":[3.102157E2,1.7880302E1,2.7403397E1,2.0190887E0,1.9086952E1,2.4228722E1,1.7215942E1,1.4520035E0,4.5123672E-1,2.2167704E1,5.9707394E0,2.6670532E1,1.3754841E1,1.4578613E1,6.7103086E0,0E0,0E0,0E0,0E0,0E0,0E0,0E0,0E0,0E0,0E0,0E0,0E0,0E0,0E0,0E0,0E0],"parents":[2147483647,0,0,1,1,2,2,3,3,4,4,5,5,6,6,7,7,8,8,9,9,10,10,11,11,12,12,13,13,14,14],"right_children":[2,4,6,8,10,12,14,16,18,20,22,24,26,28,30,-1,-1,-1,-1,-1,-1,-1,-1,-1,-1,-1,-1,-1,-1,-1,-1],"split_conditions":[1E0,1E0,1E0,1E0,1E0,1E1,1E0,9E0,1E0,1E0,1E0,1E0,1E0,9E0,1E0,-1.2013006E-2,-3.778866E-3,-1.5938334E-2,-1.2777859E-2,7.3627285E-3,-1.6142106E-2,-2.1885103E-2,-2.4877172E-3,1.4770498E-2,4.4068113E-2,5.978592E-2,1.8277259E-1,5.700938E-2,-4.7370743E-2,2.6810456E-2,-2.6164595E-2],"split_indices":[39,38,80,36,28,2,9,2,35,32,58,31,64,3,75,0,0,0,0,0,0,0,0,0,0,0,0,0,0,0,0],"split_type":[0,0,0,0,0,0,0,0,0,0,0,0,0,0,0,0,0,0,0,0,0,0,0,0,0,0,0,0,0,0,0],"sum_hessian":[1.0729E4,8.073E3,2.656E3,5.14E3,2.933E3,1.926E3,7.3E2,2.483E3,2.657E3,2.13E3,8.03E2,1.848E3,7.8E1,5.63E2,1.67E2,2.245E3,2.38E2,2.039E3,6.18E2,1.595E3,5.35E2,5.85E2,2.18E2,1.453E3,3.95E2,6.8E1,1E1,5.5E2,1.3E1,1.39E2,2.8E1],"tree_param":{"num_deleted":"0","num_feature":"85","num_nodes":"31","size_leaf_vector":"1"}},{"base_weights":[2.1295098E-4,-8.760054E-2,2.6705748E-1,-1.1959093E-1,-3.151662E-2,2.0973635E-1,4.3844688E-1,-1.2978464E-1,-8.762121E-2,-7.7147774E-2,9.865139E-2,-9.478121E-2,2.4990833E-1,5.284083E-1,1.7752029E-1,-1.0580155E-2,-1.4536591E-2,-7.1990523E-3,-1.356097E-2,-9.332611E-3,2.9832765E-2,-1.2572301E-2,1.5248678E-2,-1.8007644E-2,5.1143616E-2,1.7267851E-2,4.2190608E-2,6.652585E-2,2.7063847E-2,3.230722E-3,6.124082E-2],"categories":[],"categories_nodes":[],"categories_segments":[],"categories_sizes":[],"default_left":[0,0,0,0,0,0,0,0,0,0,0,0,0,0,0,0,0,0,0,0,0,0,0,0,0,0,0,0,0,0,0],"id":13,"left_children":[1,3,5,7,9,11,13,15,17,19,21,23,25,27,29,-1,-1,-1,-1,-1,-1,-1,-1,-1,-1,-1,-1,-1,-1,-1,-1],"loss_changes":[2.5145464E2,1.4482182E1,2.6011032E1,1.6640244E0,1.743474E1,2.4404198E1,1.5515961E1,1.440506E0,9.248543E-1,1.3227872E1,9.223581E0,1.2139934E1,2.3319138E1,1.7246231E1,1.0842256E1,0E0,0E0,0E0,0E0,0E0,0E0,0E0,0E0,0E0,0E0,0E0,0E0,0E0,0E0,0E0,0E0],"parents":[2147483647,0,0,1,1,2,2,3,3,4,4,5,5,6,6,7,7,8,8,9,9,10,10,11,11,12,12,13,13,14,14],"right_children":[2,4,6,8,10,12,14,16,18,20,22,24,26,28,30,-1,-1,-1,-1,-1,-1,-1,-1,-1,-1,-1,-1,-1,-1,-1,-1],"split_conditions":[1E0,1E0,1E0,1E0,1E0,3E0,1E0,4E0,1E0,1.1E1,4.9770103E1,5.297936E1,1E0,1E0,1E0,-1.0580155E-2,-1.4536591E-2,-7.1990523E-3,-1.356097E-2,-9.332611E-3,2.9832765E-2,-1.2572301E-2,1.5248678E-2,-1.8007644E-2,5.1143616E-2,1.7267851E-2,4.2190608E-2,6.652585E-2,2.7063847E-2,3.230722E-3,6.124082E-2],"split_indices":[39,38,34,35,35,0,28,3,7,2,84,84,54,29,12,0,0,0,0,0,0,0,0,0,0,0,0,0,0,0,0],"split_type":[0,0,0,0,0,0,0,0,0,0,0,0,0,0,0,0,0,0,0,0,0,0,0,0,0,0,0,0,0,0,0],"sum_hessian":[1.0729E4,8.073E3,2.656E3,5.14E3,2.933E3,1.992E3,6.64E2,3.895E3,1.245E3,2.172E3,7.61E2,2.32E2,1.76E3,4.93E2,1.71E2,1.537E3,2.358E3,9.41E2,3.04E2,2.083E3,8.9E1,1.47E2,6.14E2,2.04E2,2.8E1,1.216E3,5.44E2,3.21E2,1.72E2,1.29E2,4.2E1],"tree_param":{"num_deleted":"0","num_feature":"85","num_nodes":"31","size_leaf_vector":"1"}},{"base_weights":[2.129025E-4,-7.8843296E-2,2.4044608E-1,-1.07640766E-1,-2.8357064E-2,2.9389548E-1,7.495861E-2,-8.907051E-2,-1.24954864E-1,1.6382698E-2,-1.4690442E-1,3.345562E-1,3.0921925E-2,-6.8163616E-3,3.6235413E-1,-1.036702E-2,-5.0730864E-3,-1.3157167E-2,-1.0091593E-2,7.3924027E-3,-1.2493253E-2,-1.9392254E-2,-2.04226E-3,3.9310135E-2,1.0357409E-2,3.9992556E-2,-1.43720675E-2,-3.0898778E-2,5.7384283E-3,1.7082077E-2,8.39357E-2],"categories":[],"categories_nodes":[],"categories_segments":[],"categories_sizes":[],"default_left":[0,0,0,0,0,0,0,0,0,0,0,0,0,0,0,0,0,0,0,0,0,0,0,0,0,0,0,0,0,0,0],"id":14,"left_children":[1,3,5,7,9,11,13,15,17,19,21,23,25,27,29,-1,-1,-1,-1,-1,-1,-1,-1,-1,-1,-1,-1,-1,-1,-1,-1],"loss_changes":[2.0380228E2,1.1735542E1,2.347969E1,1.6418419E0,1.55637E1,2.1460571E1,1.5278612E1,1.3851547E0,4.0951157E-1,1.7337389E1,4.777376E0,2.3475586E1,1.745729E1,9.853327E0,1.3012741E1,0E0,0E0,0E0,0E0,0E0,0E0,0E0,0E0,0E0,0E0,0E0,0E0,0E0,0E0,0E0,0E0],"parents":[2147483647,0,0,1,1,2,2,3,3,4,4,5,5,6,6,7,7,8,8,9,9,10,10,11,11,12,12,13,13,14,14],"right_children":[2,4,6,8,10,12,14,16,18,20,22,24,26,28,30,-1,-1,-1,-1,-1,-1,-1,-1,-1,-1,-1,-1,-1,-1,-1,-1],"split_conditions":[1E0,1E0,1E0,1E0,1E0,7E0,1E0,1E0,8E0,1E0,1E0,1E0,4.6753555E1,4.7777065E1,1E0,-1.036702E-2,-5.0730864E-3,-1.3157167E-2,-1.0091593E-2,7.3924027E-3,-1.2493253E-2,-1.9392254E-2,-2.04226E-3,3.9310135E-2,1.0357409E-2,3.9992556E-2,-1.43720675E-2,-3.0898778E-2,5.7384283E-3,1.7082077E-2,8.39357E-2],"split_indices":[39,38,51,36,28,1,53,4,2,29,58,23,84,84,20,0,0,0,0,0,0,0,0,0,0,0,0,0,0,0,0],"split_type":[0,0,0,0,0,0,0,0,0,0,0,0,0,0,0,0,0,0,0,0,0,0,0,0,0,0,0,0,0,0,0],"sum_hessian":[1.0729E4,8.073E3,2.656E3,5.14E3,2.933E3,2.007E3,6.49E2,2.483E3,2.657E3,2.13E3,8.03E2,1.738E3,2.69E2,5.06E2,1.43E2,1.797E3,6.86E2,2.08E3,5.77E2,1.514E3,6.16E2,5.85E2,2.18E2,1.386E3,3.52E2,8.6E1,1.83E2,8.8E1,4.18E2,1.03E2,4E1],"tree_param":{"num_deleted":"0","num_feature":"85","num_nodes":"31","size_leaf_vector":"1"}},{"base_weights":[1.9961625E-4,-7.096705E-2,2.1645835E-1,-9.197639E-2,-7.4116704E-3,1.61553E-1,3.706233E-1,-9.816815E-2,1.6525663E-1,-6.824239E-2,9.206666E-2,7.83844E-2,3.1988844E-1,-2.3009324E-1,4.1047174E-1,-1.1694909E-2,-6.1903233E-3,8.532781E-3,8.956489E-2,-4.881097E-3,-1.0238688E-2,3.0710888E-3,2.779193E-2,2.0834364E-3,2.8064514E-2,4.5215394E-2,4.4284067E-3,-7.396101E-2,4.183076E-2,3.4571752E-2,6.615337E-2],"categories":[],"categories_nodes":[],"categories_segments":[],"categories_sizes":[],"default_left":[0,0,0,0,0,0,0,0,0,0,0,0,0,0,0,0,0,0,0,0,0,0,0,0,0,0,0,0,0,0,0],"id":15,"left_children":[1,3,5,7,9,11,13,15,17,19,21,23,25,27,29,-1,-1,-1,-1,-1,-1,-1,-1,-1,-1,-1,-1,-1,-1,-1,-1],"loss_changes":[1.651545E2,1.0780182E1,2.2430244E1,9.68087E0,1.21513195E1,2.5798428E1,1.6778984E1,4.0289E0,8.27183E0,8.216934E-1,8.680652E0,1.4974978E1,2.4585716E1,1.4845718E1,1.040358E1,0E0,0E0,0E0,0E0,0E0,0E0,0E0,0E0,0E0,0E0,0E0,0E0,0E0,0E0,0E0,0E0],"parents":[2147483647,0,0,1,1,2,2,3,3,4,4,5,5,6,6,7,7,8,8,9,9,10,10,11,11,12,12,13,13,14,14],"right_children":[2,4,6,8,10,12,14,16,18,20,22,24,26,28,30,-1,-1,-1,-1,-1,-1,-1,-1,-1,-1,-1,-1,-1,-1,-1,-1],"split_conditions":[1E0,1E0,1E0,1.1E1,1E0,5.44148E1,2E0,1E0,1E0,6E0,1E0,1E0,1E0,1E0,1E0,-1.1694909E-2,-6.1903233E-3,8.532781E-3,8.956489E-2,-4.881097E-3,-1.0238688E-2,3.0710888E-3,2.779193E-2,2.0834364E-3,2.8064514E-2,4.5215394E-2,4.4284067E-3,-7.396101E-2,4.183076E-2,3.4571752E-2,6.615337E-2],"split_indices":[39,35,68,2,38,84,1,34,17,3,48,34,52,8,31,0,0,0,0,0,0,0,0,0,0,0,0,0,0,0,0],"split_type":[0,0,0,0,0,0,0,0,0,0,0,0,0,0,0,0,0,0,0,0,0,0,0,0,0,0,0,0,0,0,0],"sum_hessian":[1.0729E4,8.073E3,2.656E3,6.067E3,2.006E3,1.96E3,6.96E2,5.925E3,1.42E2,1.245E3,7.61E2,1.286E3,6.74E2,4.3E1,6.53E2,3.902E3,2.023E3,1.29E2,1.3E1,7.95E2,4.5E2,5.73E2,1.88E2,1.002E3,2.84E2,4.55E2,2.19E2,2.4E1,1.9E1,5.21E2,1.32E2],"tree_param":{"num_deleted":"0","num_feature":"85","num_nodes":"31","size_leaf_vector":"1"}},{"base_weights":[2.0242769E-4,-6.3858464E-2,1.9486837E-1,-8.2765535E-2,-6.662667E-3,1.4040786E-1,3.3816597E-1,-8.835435E-2,1.4941697E-1,-6.1430298E-2,8.2900494E-2,8.227305E-2,3.079656E-1,4.125401E-1,8.646852E-2,-1.0525717E-2,-5.5715963E-3,7.686066E-3,8.124815E-2,-3.6074393E-3,-8.705563E-3,1.8311385E-3,2.571395E-2,1.9471592E-3,3.1818327E-2,3.97043E-2,4.876628E-3,5.108152E-2,1.6972994E-2,-1.7467722E-3,4.307055E-2],"categories":[],"categories_nodes":[],"categories_segments":[],"categories_sizes":[],"default_left":[0,0,0,0,0,0,0,0,0,0,0,0,0,0,0,0,0,0,0,0,0,0,0,0,0,0,0,0,0,0,0],"id":16,"left_children":[1,3,5,7,9,11,13,15,17,19,21,23,25,27,29,-1,-1,-1,-1,-1,-1,-1,-1,-1,-1,-1,-1,-1,-1,-1,-1],"loss_changes":[1.3382063E2,8.730709E0,2.0687904E1,7.8871956E0,9.849753E0,1.8745453E1,1.3648491E1,3.2633972E0,6.817213E0,8.064523E-1,8.570796E0,2.120961E1,1.1432678E1,1.3371574E1,6.0183444E0,0E0,0E0,0E0,0E0,0E0,0E0,0E0,0E0,0E0,0E0,0E0,0E0,0E0,0E0,0E0,0E0],"parents":[2147483647,0,0,1,1,2,2,3,3,4,4,5,5,6,6,7,7,8,8,9,9,10,10,11,11,12,12,13,13,14,14],"right_children":[2,4,6,8,10,12,14,16,18,20,22,24,26,28,30,-1,-1,-1,-1,-1,-1,-1,-1,-1,-1,-1,-1,-1,-1,-1,-1],"split_conditions":[1E0,1E0,1E0,1.1E1,1E0,1E0,1E0,1E0,1E0,1E0,1E0,1E0,1E0,1E0,1E0,-1.0525717E-2,-5.5715963E-3,7.686066E-3,8.124815E-2,-3.6074393E-3,-8.705563E-3,1.8311385E-3,2.571395E-2,1.9471592E-3,3.1818327E-2,3.97043E-2,4.876628E-3,5.108152E-2,1.6972994E-2,-1.7467722E-3,4.307055E-2],"split_indices":[39,35,80,2,38,58,9,34,17,36,80,31,6,28,24,0,0,0,0,0,0,0,0,0,0,0,0,0,0,0,0],"split_type":[0,0,0,0,0,0,0,0,0,0,0,0,0,0,0,0,0,0,0,0,0,0,0,0,0,0,0,0,0,0,0],"sum_hessian":[1.0729E4,8.073E3,2.656E3,6.067E3,2.006E3,1.926E3,7.3E2,5.925E3,1.42E2,1.245E3,7.61E2,1.431E3,4.95E2,5.63E2,1.67E2,3.902E3,2.023E3,1.29E2,1.3E1,6.27E2,6.18E2,5.56E2,2.05E2,1.131E3,3E2,3.68E2,1.27E2,4E2,1.63E2,1.29E2,3.8E1],"tree_param":{"num_deleted":"0","num_feature":"85","num_nodes":"31","size_leaf_vector":"1"}},{"base_weights":[2.0788285E-4,-5.7461713E-2,1.7545219E-1,-8.0258004E-2,-1.7498117E-2,2.4351019E-1,6.369528E-2,-8.866289E-2,-5.1560756E-2,2.2649856E-2,-1.23888455E-1,1.6631003E-1,4.2089233E-1,-1.5871737E-2,2.5671282E-1,-9.444922E-3,-3.946088E-3,-1.3852416E-3,-7.6252106E-3,7.027734E-3,-1.1920857E-2,-1.6232679E-2,1.8293817E-3,2.5331695E-2,-2.3501983E-3,2.9906422E-2,7.031641E-2,5.733552E-3,-2.5979972E-2,9.008742E-3,6.333961E-2],"categories":[],"categories_nodes":[],"categories_segments":[],"categories_sizes":[],"default_left":[0,0,0,0,0,0,0,0,0,0,0,0,0,0,0,0,0,0,0,0,0,0,0,0,0,0,0,0,0,0,0],"id":17,"left_children":[1,3,5,7,9,11,13,15,17,19,21,23,25,27,29,-1,-1,-1,-1,-1,-1,-1,-1,-1,-1,-1,-1,-1,-1,-1,-1],"loss_changes":[1.0845034E2,7.354187E0,2.0193497E1,1.235424E0,1.2534965E1,2.2538681E1,1.5469409E1,1.1279507E0,1.0855024E0,1.4406179E1,4.397029E0,1.9031181E1,1.6984016E1,1.2765007E1,1.8395845E1,0E0,0E0,0E0,0E0,0E0,0E0,0E0,0E0,0E0,0E0,0E0,0E0,0E0,0E0,0E0,0E0],"parents":[2147483647,0,0,1,1,2,2,3,3,4,4,5,5,6,6,7,7,8,8,9,9,10,10,11,11,12,12,13,13,14,14],"right_children":[2,4,6,8,10,12,14,16,18,20,22,24,26,28,30,-1,-1,-1,-1,-1,-1,-1,-1,-1,-1,-1,-1,-1,-1,-1,-1],"split_conditions":[1E0,1E0,6E0,1E0,1E0,1E0,1E0,9E0,4E0,1E0,1E0,1E0,1E0,1E0,1E0,-9.444922E-3,-3.946088E-3,-1.3852416E-3,-7.6252106E-3,7.027734E-3,-1.1920857E-2,-1.6232679E-2,1.8293817E-3,2.5331695E-2,-2.3501983E-3,2.9906422E-2,7.031641E-2,5.733552E-3,-2.5979972E-2,9.008742E-3,6.333961E-2],"split_indices":[39,38,3,24,28,30,31,2,3,32,72,70,26,64,4,0,0,0,0,0,0,0,0,0,0,0,0,0,0,0,0],"split_type":[0,0,0,0,0,0,0,0,0,0,0,0,0,0,0,0,0,0,0,0,0,0,0,0,0,0,0,0,0,0,0],"sum_hessian":[1.0729E4,8.073E3,2.656E3,5.14E3,2.933E3,1.65E3,1.006E3,3.974E3,1.166E3,2.13E3,8.03E2,1.151E3,4.99E2,7.13E2,2.93E2,3.555E3,4.19E2,4.62E2,7.04E2,1.595E3,5.35E2,6.32E2,1.71E2,7.89E2,3.62E2,3.5E2,1.49E2,5.49E2,1.64E2,2.04E2,8.9E1],"tree_param":{"num_deleted":"0","num_feature":"85","num_nodes":"31","size_leaf_vector":"1"}},{"base_weights":[1.9954858E-4,-5.1720705E-2,1.5797295E-1,-6.8339966E-2,-1.4479685E-3,1.1083798E-1,2.9899853E-1,-7.6690465E-2,5.89981E-2,-4.707292E-2,7.315851E-2,1.6709936E-1,-8.870021E-2,3.3575884E-1,-2.1493796E-1,-8.9559695E-3,-4.2064646E-3,8.4702607E-4,3.131306E-2,-3.3602943E-3,-8.852094E-3,1.291523E-2,-1.1539865E-2,9.339605E-3,3.23809E-2,-1.7266935E-2,1.9401496E-2,4.305867E-2,7.958853E-3,-3.942711E-2,8.149091E-2],"categories":[],"categories_nodes":[],"categories_segments":[],"categories_sizes":[],"default_left":[0,0,0,0,0,0,0,0,0,0,0,0,0,0,0,0,0,0,0,0,0,0,0,0,0,0,0,0,0,0,0],"id":18,"left_children":[1,3,5,7,9,11,13,15,17,19,21,23,25,27,29,-1,-1,-1,-1,-1,-1,-1,-1,-1,-1,-1,-1,-1,-1,-1,-1],"loss_changes":[8.790442E1,6.7456913E0,1.762857E1,6.456852E0,6.8351054E0,2.2388824E1,1.2635651E1,2.5339699E0,4.799794E0,6.9267225E-1,8.060122E0,1.7930035E1,1.0455073E1,1.5051117E1,8.632151E0,0E0,0E0,0E0,0E0,0E0,0E0,0E0,0E0,0E0,0E0,0E0,0E0,0E0,0E0,0E0,0E0],"parents":[2147483647,0,0,1,1,2,2,3,3,4,4,5,5,6,6,7,7,8,8,9,9,10,10,11,11,12,12,13,13,14,14],"right_children":[2,4,6,8,10,12,14,16,18,20,22,24,26,28,30,-1,-1,-1,-1,-1,-1,-1,-1,-1,-1,-1,-1,-1,-1,-1,-1],"split_conditions":[1E0,1E0,1E0,1E1,1E0,1E0,8E0,1E0,1E0,1E0,1E0,1E0,1E0,1E0,1E0,-8.9559695E-3,-4.2064646E-3,8.4702607E-4,3.131306E-2,-3.3602943E-3,-8.852094E-3,1.291523E-2,-1.1539865E-2,9.339605E-3,3.23809E-2,-1.7266935E-2,1.9401496E-2,4.305867E-2,7.958853E-3,-3.942711E-2,8.149091E-2],"split_indices":[39,35,34,2,38,19,3,54,80,7,25,54,12,56,4,0,0,0,0,0,0,0,0,0,0,0,0,0,0,0,0],"split_type":[0,0,0,0,0,0,0,0,0,0,0,0,0,0,0,0,0,0,0,0,0,0,0,0,0,0,0,0,0,0,0],"sum_hessian":[1.0729E4,8.073E3,2.656E3,6.067E3,2.006E3,1.992E3,6.64E2,5.694E3,3.73E2,1.245E3,7.61E2,1.554E3,4.38E2,6.2E2,4.4E1,4.15E3,1.544E3,3.12E2,6.1E1,9.41E2,3.04E2,5.87E2,1.74E2,1.058E3,4.96E2,3.38E2,1E2,4.52E2,1.68E2,3.8E1,6E0],"tree_param":{"num_deleted":"0","num_feature":"85","num_nodes":"31","size_leaf_vector":"1"}},{"base_weights":[1.9311307E-4,-4.6547625E-2,1.4222719E-1,-6.356065E-2,-2.236815E-3,1.8782412E-1,1.1489672E-3,-4.9785025E-2,-1.06546305E-1,-3.7481684E-2,1.2511344E-1,2.480566E-1,3.7648764E-2,-7.346672E-2,2.638504E-1,-6.632087E-3,-3.0382126E-4,-9.048902E-3,-1.5405804E-2,-4.5968513E-3,2.0740153E-2,-2.8121653E-3,2.6518693E-2,1.6431175E-2,4.4497237E-2,1.3241688E-2,-3.160983E-2,-1.2266621E-3,-3.3875275E-2,1.101473E-2,7.219E-2],"categories":[],"categories_nodes":[],"categories_segments":[],"categories_sizes":[],"default_left":[0,0,0,0,0,0,0,0,0,0,0,0,0,0,0,0,0,0,0,0,0,0,0,0,0,0,0,0,0,0,0],"id":19,"left_children":[1,3,5,7,9,11,13,15,17,19,21,23,25,27,29,-1,-1,-1,-1,-1,-1,-1,-1,-1,-1,-1,-1,-1,-1,-1,-1],"loss_changes":[7.124071E1,6.0865326E0,1.7091549E1,3.4493237E0,1.0063292E1,1.81539E1,1.2760454E1,3.4164495E0,1.0655766E0,3.658995E0,1.0439047E1,2.3558037E1,1.9351646E1,8.227259E0,1.0058608E1,0E0,0E0,0E0,0E0,0E0,0E0,0E0,0E0,0E0,0E0,0E0,0E0,0E0,0E0,0E0,0E0],"parents":[2147483647,0,0,1,1,2,2,3,3,4,4,5,5,6,6,7,7,8,8,9,9,10,10,11,11,12,12,13,13,14,14],"right_children":[2,4,6,8,10,12,14,16,18,20,22,24,26,28,30,-1,-1,-1,-1,-1,-1,-1,-1,-1,-1,-1,-1,-1,-1,-1,-1],"split_conditions":[1E0,8E0,1E0,1E0,1E0,1E0,1E0,1E0,1E0,1.2E1,1E0,1E0,1E0,1E0,1E0,-6.632087E-3,-3.0382126E-4,-9.048902E-3,-1.5405804E-2,-4.5968513E-3,2.0740153E-2,-2.8121653E-3,2.6518693E-2,1.6431175E-2,4.4497237E-2,1.3241688E-2,-3.160983E-2,-1.2266621E-3,-3.3875275E-2,1.101473E-2,7.219E-2],"split_indices":[39,2,51,19,80,82,53,35,51,2,38,54,56,47,73,0,0,0,0,0,0,0,0,0,0,0,0,0,0,0,0],"split_type":[0,0,0,0,0,0,0,0,0,0,0,0,0,0,0,0,0,0,0,0,0,0,0,0,0,0,0,0,0,0,0],"sum_hessian":[1.0729E4,8.073E3,2.656E3,5.833E3,2.24E3,2.007E3,6.49E2,4.419E3,1.414E3,1.755E3,4.85E2,1.432E3,5.75E2,5.06E2,1.43E2,3.264E3,1.155E3,1.059E3,3.55E2,1.697E3,5.8E1,2.32E2,2.53E2,1.006E3,4.26E2,4.54E2,1.21E2,4.12E2,9.4E1,1.08E2,3.5E1],"tree_param":{"num_deleted":"0","num_feature":"85","num_nodes":"31","size_leaf_vector":"1"}},{"base_weights":[1.8304313E-4,-4.189181E-2,1.2803859E-1,-5.720996E-2,-1.995346E-3,1.6866459E-1,-2.826064E-2,-7.17668E-2,-1.8444108E-2,-3.3724315E-2,1.12650886E-1,4.4330955E-3,2.3081204E-1,6.1958224E-2,-2.0610726E-1,-8.733155E-3,-2.9905466E-3,-4.7240215E-3,6.347841E-3,-4.137436E-3,1.870129E-2,-2.5321543E-3,2.3877265E-2,-2.0280989E-2,2.1965938E-2,2.9745946E-2,5.3964253E-3,3.74697E-3,2.2626798E-1,-6.9894283E-3,-6.410194E-2],"categories":[],"categories_nodes":[],"categories_segments":[],"categories_sizes":[],"default_left":[0,0,0,0,0,0,0,0,0,0,0,0,0,0,0,0,0,0,0,0,0,0,0,0,0,0,0,0,0,0,0],"id":20,"left_children":[1,3,5,7,9,11,13,15,17,19,21,23,25,27,29,-1,-1,-1,-1,-1,-1,-1,-1,-1,-1,-1,-1,-1,-1,-1,-1],"loss_changes":[5.772744E1,4.934231E0,1.6876217E1,3.2908516E0,8.155676E0,2.1524632E1,8.821541E0,2.760662E0,3.763323E0,2.9730055E0,8.46309E0,2.5914948E1,1.8017212E1,1.9585949E1,1.0914722E1,0E0,0E0,0E0,0E0,0E0,0E0,0E0,0E0,0E0,0E0,0E0,0E0,0E0,0E0,0E0,0E0],"parents":[2147483647,0,0,1,1,2,2,3,3,4,4,5,5,6,6,7,7,8,8,9,9,10,10,11,11,12,12,13,13,14,14],"right_children":[2,4,6,8,10,12,14,16,18,20,22,24,26,28,30,-1,-1,-1,-1,-1,-1,-1,-1,-1,-1,-1,-1,-1,-1,-1,-1],"split_conditions":[1E0,8E0,1E0,1E0,1E0,5.018225E1,1E0,1E0,1E0,1.2E1,1E0,4E0,1E0,9E0,1E0,-8.733155E-3,-2.9905466E-3,-4.7240215E-3,6.347841E-3,-4.137436E-3,1.870129E-2,-2.5321543E-3,2.3877265E-2,-2.0280989E-2,2.1965938E-2,2.9745946E-2,5.3964253E-3,3.74697E-3,2.2626798E-1,-6.9894283E-3,-6.410194E-2],"split_indices":[39,2,23,20,80,84,16,48,35,2,38,0,56,0,28,0,0,0,0,0,0,0,0,0,0,0,0,0,0,0,0],"split_type":[0,0,0,0,0,0,0,0,0,0,0,0,0,0,0,0,0,0,0,0,0,0,0,0,0,0,0,0,0,0,0],"sum_hessian":[1.0729E4,8.073E3,2.656E3,5.833E3,2.24E3,2.108E3,5.48E2,4.24E3,1.593E3,1.755E3,4.85E2,5.79E2,1.529E3,3.64E2,1.84E2,3.09E3,1.15E3,1.179E3,4.14E2,1.697E3,5.8E1,2.32E2,2.53E2,2.95E2,2.84E2,1.11E3,4.19E2,3.61E2,3E0,1.41E2,4.3E1],"tree_param":{"num_deleted":"0","num_feature":"85","num_nodes":"31","size_leaf_vector":"1"}},{"base_weights":[1.8538832E-4,-3.7699435E-2,1.1530841E-1,-5.129705E-2,3.4306217E-3,6.975134E-2,2.4331719E-1,-5.5388153E-2,1.1859931E-1,-3.5799913E-2,6.757474E-2,2.7133536E-3,1.9746709E-1,-2.8272527E-1,2.7833638E-1,-6.788946E-3,-1.9582857E-3,5.32329E-3,7.171018E-2,-1.2896844E-3,-5.897815E-3,8.143414E-4,2.4771234E-2,6.062848E-3,-1.6680261E-2,3.090678E-2,-3.4748323E-3,-7.314346E-2,2.9229764E-2,3.4136456E-2,5.0722766E-3],"categories":[],"categories_nodes":[],"categories_segments":[],"categories_sizes":[],"default_left":[0,0,0,0,0,0,0,0,0,0,0,0,0,0,0,0,0,0,0,0,0,0,0,0,0,0,0,0,0,0,0],"id":21,"left_children":[1,3,5,7,9,11,13,15,17,19,21,23,25,27,29,-1,-1,-1,-1,-1,-1,-1,-1,-1,-1,-1,-1,-1,-1,-1,-1],"loss_changes":[4.6802334E1,4.515726E0,1.5477871E1,4.2242174E0,5.05285E0,1.6789165E1,1.2918537E1,2.651226E0,5.5562673E0,6.606816E-1,8.155813E0,1.2645283E1,1.750364E1,1.1566595E1,9.365009E0,0E0,0E0,0E0,0E0,0E0,0E0,0E0,0E0,0E0,0E0,0E0,0E0,0E0,0E0,0E0,0E0],"parents":[2147483647,0,0,1,1,2,2,3,3,4,4,5,5,6,6,7,7,8,8,9,9,10,10,11,11,12,12,13,13,14,14],"right_children":[2,4,6,8,10,12,14,16,18,20,22,24,26,28,30,-1,-1,-1,-1,-1,-1,-1,-1,-1,-1,-1,-1,-1,-1,-1,-1],"split_conditions":[1E0,1E0,1E0,1.1E1,1E0,5.44148E1,2E0,1E0,1E0,1E0,1E0,1E0,1E0,1E0,1E0,-6.788946E-3,-1.9582857E-3,5.32329E-3,7.171018E-2,-1.2896844E-3,-5.897815E-3,8.143414E-4,2.4771234E-2,6.062848E-3,-1.6680261E-2,3.090678E-2,-3.4748323E-3,-7.314346E-2,2.9229764E-2,3.4136456E-2,5.0722766E-3],"split_indices":[39,35,68,2,38,84,1,31,17,36,68,6,52,8,29,0,0,0,0,0,0,0,0,0,0,0,0,0,0,0,0],"split_type":[0,0,0,0,0,0,0,0,0,0,0,0,0,0,0,0,0,0,0,0,0,0,0,0,0,0,0,0,0,0,0],"sum_hessian":[1.0729E4,8.073E3,2.656E3,6.067E3,2.006E3,1.96E3,6.96E2,5.925E3,1.42E2,1.245E3,7.61E2,1.286E3,6.74E2,4.3E1,6.53E2,4.391E3,1.534E3,1.29E2,1.3E1,6.27E2,6.18E2,5.73E2,1.88E2,9.59E2,3.27E2,4.55E2,2.19E2,2.4E1,1.9E1,5.11E2,1.42E2],"tree_param":{"num_deleted":"0","num_feature":"85","num_nodes":"31","size_leaf_vector":"1"}},{"base_weights":[1.7605237E-4,-3.3918757E-2,1.0378212E-1,-4.80658E-2,4.0652608E-3,6.1346523E-2,2.3080523E-1,-3.4698095E-2,-8.902257E-2,-4.022262E-2,8.7063424E-2,1.1058174E-1,-1.13191314E-1,1.5416773E-1,4.639834E-1,-5.05547E-3,8.1172184E-4,2.22516E-2,-9.047417E-3,-2.4242795E-3,-7.343871E-3,2.414729E-3,2.9219681E-2,5.195169E-3,2.8439501E-2,-3.1110835E-3,-3.441736E-2,5.6754956E-3,3.639528E-2,6.5412946E-2,-2.3276608E-3],"categories":[],"categories_nodes":[],"categories_segments":[],"categories_sizes":[],"default_left":[0,0,0,0,0,0,0,0,0,0,0,0,0,0,0,0,0,0,0,0,0,0,0,0,0,0,0,0,0,0,0],"id":22,"left_children":[1,3,5,7,9,11,13,15,17,19,21,23,25,27,29,-1,-1,-1,-1,-1,-1,-1,-1,-1,-1,-1,-1,-1,-1,-1,-1],"loss_changes":[3.7906487E1,4.338852E0,1.4307871E1,3.217842E0,8.0608835E0,1.713918E1,1.1812145E1,3.012714E0,6.745043E-1,7.5724554E-1,9.840376E0,1.5831732E1,8.312353E0,1.0238088E1,1.5209923E1,0E0,0E0,0E0,0E0,0E0,0E0,0E0,0E0,0E0,0E0,0E0,0E0,0E0,0E0,0E0,0E0],"parents":[2147483647,0,0,1,1,2,2,3,3,4,4,5,5,6,6,7,7,8,8,9,9,10,10,11,11,12,12,13,13,14,14],"right_children":[2,4,6,8,10,12,14,16,18,20,22,24,26,28,30,-1,-1,-1,-1,-1,-1,-1,-1,-1,-1,-1,-1,-1,-1,-1,-1],"split_conditions":[1E0,1E0,1E0,1E0,1E0,1E0,1E0,1E0,4.09018E1,1E0,1E0,1E0,1E0,1E0,1E0,-5.05547E-3,8.1172184E-4,2.22516E-2,-9.047417E-3,-2.4242795E-3,-7.343871E-3,2.414729E-3,2.9219681E-2,5.195169E-3,2.8439501E-2,-3.1110835E-3,-3.441736E-2,5.6754956E-3,3.639528E-2,6.5412946E-2,-2.3276608E-3],"split_indices":[39,80,34,25,38,19,30,58,84,26,31,49,82,31,75,0,0,0,0,0,0,0,0,0,0,0,0,0,0,0,0],"split_type":[0,0,0,0,0,0,0,0,0,0,0,0,0,0,0,0,0,0,0,0,0,0,0,0,0,0,0,0,0,0,0],"sum_hessian":[1.0729E4,8.073E3,2.656E3,5.882E3,2.191E3,1.992E3,6.64E2,4.436E3,1.446E3,1.429E3,7.62E2,1.554E3,4.38E2,5.01E2,1.63E2,3.237E3,1.199E3,6E0,1.44E3,9.66E2,4.63E2,5.84E2,1.78E2,1.163E3,3.91E2,3.24E2,1.14E2,3.43E2,1.58E2,1.17E2,4.6E1],"tree_param":{"num_deleted":"0","num_feature":"85","num_nodes":"31","size_leaf_vector":"1"}},{"base_weights":[1.7075456E-4,-3.052307E-2,9.344202E-2,-1.7139794E-2,-6.8270616E-2,4.964008E-2,2.0878115E-1,-4.0845998E-2,2.3680354E-2,-7.87578E-2,-3.1138573E-2,9.770716E-2,-1.02126814E-1,2.75099E-1,-1.5100138E-2,-2.1772243E-3,-5.929151E-3,-2.7323645E-3,1.7890714E-2,-6.8908194E-3,-1.1377874E-2,2.8811265E-2,-3.8754821E-3,1.1148318E-2,-6.6850014E-2,3.0375018E-3,-4.7381535E-2,2.5686145E-2,1.510502E-1,1.0293158E-2,-2.7314877E-2],"categories":[],"categories_nodes":[],"categories_segments":[],"categories_sizes":[],"default_left":[0,0,0,0,0,0,0,0,0,0,0,0,0,0,0,0,0,0,0,0,0,0,0,0,0,0,0,0,0,0,0],"id":23,"left_children":[1,3,5,7,9,11,13,15,17,19,21,23,25,27,29,-1,-1,-1,-1,-1,-1,-1,-1,-1,-1,-1,-1,-1,-1,-1,-1],"loss_changes":[3.0721254E1,4.0777E0,1.3413004E1,5.7703395E0,8.203726E-1,1.4067425E1,1.08575535E1,1.3257937E0,1.7351446E1,5.6027985E-1,1.1466746E0,1.5527458E1,2.286612E1,1.231934E1,5.1450467E0,0E0,0E0,0E0,0E0,0E0,0E0,0E0,0E0,0E0,0E0,0E0,0E0,0E0,0E0,0E0,0E0],"parents":[2147483647,0,0,1,1,2,2,3,3,4,4,5,5,6,6,7,7,8,8,9,9,10,10,11,11,12,12,13,13,14,14],"right_children":[2,4,6,8,10,12,14,16,18,20,22,24,26,28,30,-1,-1,-1,-1,-1,-1,-1,-1,-1,-1,-1,-1,-1,-1,-1,-1],"split_conditions":[1E0,1E0,1E0,1E0,1E0,1E0,1E0,1E0,1E0,1E0,4.7291157E1,9E0,1E0,1E1,1E0,-2.1772243E-3,-5.929151E-3,-2.7323645E-3,1.7890714E-2,-6.8908194E-3,-1.1377874E-2,2.8811265E-2,-3.8754821E-3,1.1148318E-2,-6.6850014E-2,3.0375018E-3,-4.7381535E-2,2.5686145E-2,1.510502E-1,1.0293158E-2,-2.7314877E-2],"split_indices":[39,32,80,38,24,14,9,36,31,83,84,1,65,0,16,0,0,0,0,0,0,0,0,0,0,0,0,0,0,0,0],"split_type":[0,0,0,0,0,0,0,0,0,0,0,0,0,0,0,0,0,0,0,0,0,0,0,0,0,0,0,0,0,0,0],"sum_hessian":[1.0729E4,8.073E3,2.656E3,5.961E3,2.112E3,1.926E3,7.3E2,3.771E3,2.19E3,1.646E3,4.66E2,1.463E3,4.63E2,5.63E2,1.67E2,1.855E3,1.916E3,1.649E3,5.41E2,1.287E3,3.59E2,1E1,4.56E2,1.438E3,2.5E1,3.42E2,1.21E2,5.56E2,7E0,1.15E2,5.2E1],"tree_param":{"num_deleted":"0","num_feature":"85","num_nodes":"31","size_leaf_vector":"1"}},{"base_weights":[1.6052093E-4,-2.7469058E-2,8.412027E-2,-4.1733917E-2,7.800135E-3,7.0205435E-2,4.5459622E-1,-2.9701985E-2,-8.192394E-2,3.694735E-2,-8.268823E-2,1.2300214E-1,-6.661713E-2,3.0105576E-1,1.1503986E0,-4.463113E-3,1.5919246E-3,-8.511266E-3,1.3505416E-1,-1.5263455E-3,1.2744817E-2,-2.9408058E-2,-6.737578E-3,7.3858E-3,3.0313492E-2,-1.6122902E-2,1.6431961E-2,-4.361683E-2,4.7789466E-2,1.4991914E-1,-3.5797544E-2],"categories":[],"categories_nodes":[],"categories_segments":[],"categories_sizes":[],"default_left":[0,0,0,0,0,0,0,0,0,0,0,0,0,0,0,0,0,0,0,0,0,0,0,0,0,0,0,0,0,0,0],"id":24,"left_children":[1,3,5,7,9,11,13,15,17,19,21,23,25,27,29,-1,-1,-1,-1,-1,-1,-1,-1,-1,-1,-1,-1,-1,-1,-1,-1],"loss_changes":[2.489347E1,4.062436E0,1.3665218E1,2.7775745E0,6.137843E0,1.851552E1,9.909714E0,3.0151958E0,6.1626024E0,8.318157E0,1.8155282E0,1.6345829E1,1.5626936E1,1.0638036E1,9.480539E0,0E0,0E0,0E0,0E0,0E0,0E0,0E0,0E0,0E0,0E0,0E0,0E0,0E0,0E0,0E0,0E0],"parents":[2147483647,0,0,1,1,2,2,3,3,4,4,5,5,6,6,7,7,8,8,9,9,10,10,11,11,12,12,13,13,14,14],"right_children":[2,4,6,8,10,12,14,16,18,20,22,24,26,28,30,-1,-1,-1,-1,-1,-1,-1,-1,-1,-1,-1,-1,-1,-1,-1,-1],"split_conditions":[1E0,1E0,1E1,1E0,1E0,1E0,1E0,1E0,1.2E1,1E0,5.0105072E1,1E0,8E0,2E0,1E0,-4.463113E-3,1.5919246E-3,-8.511266E-3,1.3505416E-1,-1.5263455E-3,1.2744817E-2,-2.9408058E-2,-6.737578E-3,7.3858E-3,3.0313492E-2,-1.6122902E-2,1.6431961E-2,-4.361683E-2,4.7789466E-2,1.4991914E-1,-3.5797544E-2],"split_indices":[39,54,2,19,56,82,63,35,2,38,84,31,2,1,75,0,0,0,0,0,0,0,0,0,0,0,0,0,0,0,0],"split_type":[0,0,0,0,0,0,0,0,0,0,0,0,0,0,0,0,0,0,0,0,0,0,0,0,0,0,0,0,0,0,0],"sum_hessian":[1.0729E4,8.073E3,2.656E3,5.748E3,2.325E3,2.561E3,9.5E1,4.425E3,1.323E3,1.759E3,5.66E2,1.848E3,7.13E2,7.9E1,1.6E1,3.334E3,1.091E3,1.321E3,2E0,1.116E3,6.43E2,3.7E1,5.29E2,1.453E3,3.95E2,5.06E2,2.07E2,1.5E1,6.4E1,1.3E1,3E0],"tree_param":{"num_deleted":"0","num_feature":"85","num_nodes":"31","size_leaf_vector":"1"}},{"base_weights":[1.682385E-4,-2.470992E-2,7.576706E-2,-1.1675875E-2,-6.0549635E-2,8.841919E-2,-3.226189E-1,-3.4583E-2,2.9091602E-2,-7.8169934E-2,8.6266646E-4,4.6520058E-2,2.2194389E-1,-4.231048E-2,-4.3117455E-1,-1.796028E-3,-4.9915346E-3,7.5978013E-3,-8.608181E-3,-5.3650746E-3,-1.2059023E-2,-4.3308265E-3,1.098538E-2,1.0069435E-1,3.8603626E-3,-1.5750999E-2,3.049091E-2,-2.2372317E-2,1.3021527E-1,-5.581655E-2,-1.9222768E-2],"categories":[],"categories_nodes":[],"categories_segments":[],"categories_sizes":[],"default_left":[0,0,0,0,0,0,0,0,0,0,0,0,0,0,0,0,0,0,0,0,0,0,0,0,0,0,0,0,0,0,0],"id":25,"left_children":[1,3,5,7,9,11,13,15,17,19,21,23,25,27,29,-1,-1,-1,-1,-1,-1,-1,-1,-1,-1,-1,-1,-1,-1,-1,-1],"loss_changes":[2.0182423E1,3.7709522E0,1.3420949E1,5.5313582E0,2.329836E0,1.4401283E1,2.4769392E0,9.6555233E-1,1.1514084E1,1.7336359E0,2.3204072E0,1.4878466E1,1.9409126E1,6.1449857E0,1.6830072E0,0E0,0E0,0E0,0E0,0E0,0E0,0E0,0E0,0E0,0E0,0E0,0E0,0E0,0E0,0E0,0E0],"parents":[2147483647,0,0,1,1,2,2,3,3,4,4,5,5,6,6,7,7,8,8,9,9,10,10,11,11,12,12,13,13,14,14],"right_children":[2,4,6,8,10,12,14,16,18,20,22,24,26,28,30,-1,-1,-1,-1,-1,-1,-1,-1,-1,-1,-1,-1,-1,-1,-1,-1],"split_conditions":[1E0,1E0,9E0,1E0,1E0,1E0,4.3250526E1,1E0,1E0,1E0,1E0,4.2500122E1,4.811E1,1E0,1E0,-1.796028E-3,-4.9915346E-3,7.5978013E-3,-8.608181E-3,-5.3650746E-3,-1.2059023E-2,-4.3308265E-3,1.098538E-2,1.0069435E-1,3.8603626E-3,-1.5750999E-2,3.049091E-2,-2.2372317E-2,1.3021527E-1,-5.581655E-2,-1.9222768E-2],"split_indices":[39,28,3,38,24,67,84,36,29,38,35,84,84,62,26,0,0,0,0,0,0,0,0,0,0,0,0,0,0,0,0],"split_type":[0,0,0,0,0,0,0,0,0,0,0,0,0,0,0,0,0,0,0,0,0,0,0,0,0,0,0,0,0,0,0],"sum_hessian":[1.0729E4,8.073E3,2.656E3,5.921E3,2.152E3,2.575E3,8.1E1,3.791E3,2.13E3,1.672E3,4.8E2,1.961E3,6.14E2,2.3E1,5.8E1,1.82E3,1.971E3,1.514E3,6.16E2,1.061E3,6.11E2,3.42E2,1.38E2,1.5E1,1.946E3,1.1E2,5.04E2,2.1E1,2E0,3.7E1,2.1E1],"tree_param":{"num_deleted":"0","num_feature":"85","num_nodes":"31","size_leaf_vector":"1"}},{"base_weights":[1.6386191E-4,-2.2241225E-2,6.824761E-2,-3.498443E-2,1.1969769E-2,1.0285388E-1,-6.4817734E-2,-2.3189351E-2,-7.112802E-2,-1.5297786E-2,1.0771822E-1,1.5459958E-1,-5.8434088E-2,-1.1303871E-2,-3.2708675E-1,-3.6967122E-3,1.4006993E-3,-5.457102E-3,-1.0144045E-2,-3.6709511E-3,5.5680694E-3,1.6650511E-2,-1.0981155E-2,2.3007113E-2,-9.281161E-3,5.069788E-3,-2.9519964E-2,7.6346486E-3,-2.6666684E-2,-1.3605838E-2,-5.9999466E-2],"categories":[],"categories_nodes":[],"categories_segments":[],"categories_sizes":[],"default_left":[0,0,0,0,0,0,0,0,0,0,0,0,0,0,0,0,0,0,0,0,0,0,0,0,0,0,0,0,0,0,0],"id":26,"left_children":[1,3,5,7,9,11,13,15,17,19,21,23,25,27,29,-1,-1,-1,-1,-1,-1,-1,-1,-1,-1,-1,-1,-1,-1,-1,-1],"loss_changes":[1.63693E1,3.520341E0,1.2241872E1,2.5063705E0,5.724579E0,1.7610657E1,7.7015324E0,2.2744038E0,7.2068834E-1,2.596294E0,6.2332034E0,2.984135E1,1.3270215E1,1.0249232E1,4.7667484E0,0E0,0E0,0E0,0E0,0E0,0E0,0E0,0E0,0E0,0E0,0E0,0E0,0E0,0E0,0E0,0E0],"parents":[2147483647,0,0,1,1,2,2,3,3,4,4,5,5,6,6,7,7,8,8,9,9,10,10,11,11,12,12,13,13,14,14],"right_children":[2,4,6,8,10,12,14,16,18,20,22,24,26,28,30,-1,-1,-1,-1,-1,-1,-1,-1,-1,-1,-1,-1,-1,-1,-1,-1],"split_conditions":[1E0,1E0,1E0,1E0,8E0,1E0,1E0,1E0,1E0,1E0,1E0,1E0,1E0,1E0,1E0,-3.6967122E-3,1.4006993E-3,-5.457102E-3,-1.0144045E-2,-3.6709511E-3,5.5680694E-3,1.6650511E-2,-1.0981155E-2,2.3007113E-2,-9.281161E-3,5.069788E-3,-2.9519964E-2,7.6346486E-3,-2.6666684E-2,-1.3605838E-2,-5.9999466E-2],"split_indices":[39,80,23,25,2,25,27,58,38,62,32,79,6,9,59,0,0,0,0,0,0,0,0,0,0,0,0,0,0,0,0],"split_type":[0,0,0,0,0,0,0,0,0,0,0,0,0,0,0,0,0,0,0,0,0,0,0,0,0,0,0,0,0,0,0],"sum_hessian":[1.0729E4,8.073E3,2.656E3,5.882E3,2.191E3,2.108E3,5.48E2,4.436E3,1.446E3,1.706E3,4.85E2,1.596E3,5.12E2,4.56E2,9.2E1,3.237E3,1.199E3,9.37E2,5.09E2,1.311E3,3.95E2,3.82E2,1.03E2,1.223E3,3.73E2,3.51E2,1.61E2,3.4E2,1.16E2,5.5E1,3.7E1],"tree_param":{"num_deleted":"0","num_feature":"85","num_nodes":"31","size_leaf_vector":"1"}},{"base_weights":[1.368802E-4,-2.0018382E-2,6.1383944E-2,-3.282185E-2,1.16356E-2,2.1507854E-2,1.7348671E-1,-2.2199333E-2,-6.830708E-2,3.7402533E-2,-6.836694E-2,-2.0023149E-2,1.694241E-1,-3.0667633E-1,2.0552598E-1,-3.5310076E-3,1.786159E-3,-7.127337E-3,1.2616074E-1,-8.3871745E-4,1.1676542E-2,-2.6542643E-2,-5.4903575E-3,4.9306136E-3,-2.426218E-2,2.640886E-2,-1.7644716E-2,-7.0314765E-2,2.0424666E-2,1.4287236E-2,4.115079E-2],"categories":[],"categories_nodes":[],"categories_segments":[],"categories_sizes":[],"default_left":[0,0,0,0,0,0,0,0,0,0,0,0,0,0,0,0,0,0,0,0,0,0,0,0,0,0,0,0,0,0,0],"id":27,"left_children":[1,3,5,7,9,11,13,15,17,19,21,23,25,27,29,-1,-1,-1,-1,-1,-1,-1,-1,-1,-1,-1,-1,-1,-1,-1,-1],"loss_changes":[1.3246883E1,3.272619E0,1.1873644E1,2.1655264E0,4.79742E0,1.2050032E1,1.0785728E1,2.3252916E0,5.3129845E0,6.3968253E0,1.4897251E0,2.3654713E1,1.4125542E1,9.056534E0,8.381414E0,0E0,0E0,0E0,0E0,0E0,0E0,0E0,0E0,0E0,0E0,0E0,0E0,0E0,0E0,0E0,0E0],"parents":[2147483647,0,0,1,1,2,2,3,3,4,4,5,5,6,6,7,7,8,8,9,9,10,10,11,11,12,12,13,13,14,14],"right_children":[2,4,6,8,10,12,14,16,18,20,22,24,26,28,30,-1,-1,-1,-1,-1,-1,-1,-1,-1,-1,-1,-1,-1,-1,-1,-1],"split_conditions":[1E0,1E0,1E0,1E0,1E0,8E0,2E0,1E0,1.2E1,1E0,5.003919E1,1E0,1E0,1E0,1E0,-3.5310076E-3,1.786159E-3,-7.127337E-3,1.2616074E-1,-8.3871745E-4,1.1676542E-2,-2.6542643E-2,-5.4903575E-3,4.9306136E-3,-2.426218E-2,2.640886E-2,-1.7644716E-2,-7.0314765E-2,2.0424666E-2,1.4287236E-2,4.115079E-2],"split_indices":[39,54,68,19,56,2,1,35,2,38,84,82,28,8,46,0,0,0,0,0,0,0,0,0,0,0,0,0,0,0,0],"split_type":[0,0,0,0,0,0,0,0,0,0,0,0,0,0,0,0,0,0,0,0,0,0,0,0,0,0,0,0,0,0,0],"sum_hessian":[1.0729E4,8.073E3,2.656E3,5.748E3,2.325E3,1.96E3,6.96E2,4.425E3,1.323E3,1.759E3,5.66E2,1.531E3,4.29E2,4.3E1,6.53E2,3.334E3,1.091E3,1.321E3,2E0,1.116E3,6.43E2,3.5E1,5.31E2,1.168E3,3.63E2,3.37E2,9.2E1,2.4E1,1.9E1,5.02E2,1.51E2],"tree_param":{"num_deleted":"0","num_feature":"85","num_nodes":"31","size_leaf_vector":"1"}},{"base_weights":[1.3167717E-4,-1.8004645E-2,5.5243656E-2,-2.9773759E-2,1.5020586E-2,9.0248734E-2,-6.6483155E-2,-3.340681E-2,1.19135216E-1,4.009518E-2,-5.1239956E-2,1.5291558E-1,-1.747558E-2,-1.6150689E-1,1.4613226E-1,-4.706856E-3,-4.146276E-4,5.365771E-3,6.699343E-2,-2.4130037E-4,1.1263975E-2,-7.0328424E-3,1.4511747E-3,1.9130377E-2,-1.8397912E-2,-1.0044086E-2,2.3370756E-2,-1.775051E-2,9.479561E-2,-4.9273875E-3,5.7148483E-2],"categories":[],"categories_nodes":[],"categories_segments":[],"categories_sizes":[],"default_left":[0,0,0,0,0,0,0,0,0,0,0,0,0,0,0,0,0,0,0,0,0,0,0,0,0,0,0,0,0,0,0],"id":28,"left_children":[1,3,5,7,9,11,13,15,17,19,21,23,25,27,29,-1,-1,-1,-1,-1,-1,-1,-1,-1,-1,-1,-1,-1,-1,-1,-1],"loss_changes":[1.0725936E1,3.138631E0,1.1327626E1,3.2245169E0,3.5276644E0,1.3936207E1,1.2024487E1,2.323151E0,5.0852757E0,4.7492285E0,7.3274314E-1,1.691248E1,1.5861478E1,7.463276E0,1.5321595E1,0E0,0E0,0E0,0E0,0E0,0E0,0E0,0E0,0E0,0E0,0E0,0E0,0E0,0E0,0E0,0E0],"parents":[2147483647,0,0,1,1,2,2,3,3,4,4,5,5,6,6,7,7,8,8,9,9,10,10,11,11,12,12,13,13,14,14],"right_children":[2,4,6,8,10,12,14,16,18,20,22,24,26,28,30,-1,-1,-1,-1,-1,-1,-1,-1,-1,-1,-1,-1,-1,-1,-1,-1],"split_conditions":[1E0,1E0,1E0,1.1E1,1E0,1E0,1E0,1E0,1E0,1E0,1E0,8E0,1E0,9E0,1E0,-4.706856E-3,-4.146276E-4,5.365771E-3,6.699343E-2,-2.4130037E-4,1.1263975E-2,-7.0328424E-3,1.4511747E-3,1.9130377E-2,-1.8397912E-2,-1.0044086E-2,2.3370756E-2,-1.775051E-2,9.479561E-2,-4.9273875E-3,5.7148483E-2],"split_indices":[39,48,29,2,28,28,54,49,65,38,58,3,12,0,8,0,0,0,0,0,0,0,0,0,0,0,0,0,0,0,0],"split_type":[0,0,0,0,0,0,0,0,0,0,0,0,0,0,0,0,0,0,0,0,0,0,0,0,0,0,0,0,0,0,0],"sum_hessian":[1.0729E4,8.073E3,2.656E3,5.952E3,2.121E3,2.063E3,5.93E2,5.811E3,1.41E2,1.539E3,5.82E2,1.304E3,7.59E2,4.1E2,1.83E2,3.961E3,1.85E3,1.27E2,1.4E1,9.71E2,5.68E2,4.51E2,1.31E2,1.171E3,1.33E2,5.71E2,1.88E2,4.05E2,5E0,1.26E2,5.7E1],"tree_param":{"num_deleted":"0","num_feature":"85","num_nodes":"31","size_leaf_vector":"1"}},{"base_weights":[1.3864621E-4,-1.7696662E-2,4.7803186E-2,1.14382644E-7,-7.231497E-2,1.4779853E-2,1.4676262E-1,-2.3734117E-2,5.6192804E-2,-5.2202262E-2,-1.3134286E-1,-1.8634072E-2,7.738422E-2,2.0770408E-1,-5.870016E-2,-2.2479435E-5,-1.1361602E-2,1.9488356E-3,1.5924206E-2,-7.929242E-3,2.8609955E-3,-7.3437775E-3,-3.402047E-2,-4.381733E-4,-4.829652E-3,1.401136E-2,-9.752317E-3,1.0840008E-2,3.9215162E-2,-2.4716824E-2,4.6193857E-2],"categories":[],"categories_nodes":[],"categories_segments":[],"categories_sizes":[],"default_left":[0,0,0,0,0,0,0,0,0,0,0,0,0,0,0,0,0,0,0,0,0,0,0,0,0,0,0,0,0,0,0],"id":29,"left_children":[1,3,5,7,9,11,13,15,17,19,21,23,25,27,29,-1,-1,-1,-1,-1,-1,-1,-1,-1,-1,-1,-1,-1,-1,-1,-1],"loss_changes":[9.122546E0,7.5479302E0,9.546841E0,7.8687725E0,2.2619028E0,4.586794E0,9.165189E0,8.764957E0,6.6236024E0,3.1262794E0,5.840683E0,6.043342E-1,8.38517E0,1.0287928E1,1.6598972E1,0E0,0E0,0E0,0E0,0E0,0E0,0E0,0E0,0E0,0E0,0E0,0E0,0E0,0E0,0E0,0E0],"parents":[2147483647,0,0,1,1,2,2,3,3,4,4,5,5,6,6,7,7,8,8,9,9,10,10,11,11,12,12,13,13,14,14],"right_children":[2,4,6,8,10,12,14,16,18,20,22,24,26,28,30,-1,-1,-1,-1,-1,-1,-1,-1,-1,-1,-1,-1,-1,-1,-1,-1],"split_conditions":[1E0,1E0,1E0,1E0,1E0,1E0,1E0,1E0,1E0,1E0,1E0,1E0,1E0,7E0,1E0,-2.2479435E-5,-1.1361602E-2,1.9488356E-3,1.5924206E-2,-7.929242E-3,2.8609955E-3,-7.3437775E-3,-3.402047E-2,-4.381733E-4,-4.829652E-3,1.401136E-2,-9.752317E-3,1.0840008E-2,3.9215162E-2,-2.4716824E-2,4.6193857E-2],"split_indices":[80,56,39,54,61,38,55,29,39,69,39,26,32,2,12,0,0,0,0,0,0,0,0,0,0,0,0,0,0,0,0],"split_type":[0,0,0,0,0,0,0,0,0,0,0,0,0,0,0,0,0,0,0,0,0,0,0,0,0,0,0,0,0,0,0],"sum_hessian":[1.0729E4,7.808E3,2.921E3,5.898E3,1.91E3,2.191E3,7.3E2,4.147E3,1.751E3,1.426E3,4.84E2,1.429E3,7.62E2,5.63E2,1.67E2,3.288E3,8.59E2,1.292E3,4.59E2,1.068E3,3.58E2,3.8E2,1.04E2,9.66E2,4.63E2,5.61E2,2.01E2,3.67E2,1.96E2,1.23E2,4.4E1],"tree_param":{"num_deleted":"0","num_feature":"85","num_nodes":"31","size_leaf_vector":"1"}},{"base_weights":[1.2762945E-4,-1.693664E-2,4.7883373E-2,-2.4087712E-2,1.06235966E-1,1.5689414E-2,1.4615175E-1,-5.9145554E-3,-7.620549E-2,4.8848018E-2,3.7592065E-1,1.4279984E-2,1.5074785E-1,7.90956E-2,3.5682797E-1,-2.985805E-3,6.276212E-3,-9.807493E-3,9.411955E-4,1.0422138E-4,3.66175E-2,1.7183844E-2,1.1304891E-1,-6.455958E-4,8.2520945E-3,1.6567362E-2,-1.4760548E-2,2.5281388E-2,1.3291611E-1],"categories":[],"categories_nodes":[],"categories_segments":[],"categories_sizes":[],"default_left":[0,0,0,0,0,0,0,0,0,0,0,0,0,0,0,0,0,0,0,0,0,0,0,0,0,0,0,0,0],"id":30,"left_children":[1,3,5,7,9,11,13,15,17,19,21,23,-1,25,27,-1,-1,-1,-1,-1,-1,-1,-1,-1,-1,-1,-1,-1,-1],"loss_changes":[8.744869E0,6.9662933E0,8.935013E0,7.07756E0,6.698503E0,4.4548507E0,9.818389E0,9.114916E0,3.618411E0,5.4456744E0,1.1509283E1,3.011739E0,0E0,1.0426941E1,1.6654877E1,0E0,0E0,0E0,0E0,0E0,0E0,0E0,0E0,0E0,0E0,0E0,0E0,0E0,0E0],"parents":[2147483647,0,0,1,1,2,2,3,3,4,4,5,5,6,6,7,7,8,8,9,9,10,10,11,11,13,13,14,14],"right_children":[2,4,6,8,10,12,14,16,18,20,22,24,-1,26,28,-1,-1,-1,-1,-1,-1,-1,-1,-1,-1,-1,-1,-1,-1],"split_conditions":[1E0,1E1,1E0,1E0,1E0,1.4E1,1E0,1E0,1E0,1E0,1E0,1E0,1.5074785E-1,1E0,5.8586807E1,-2.985805E-3,6.276212E-3,-9.807493E-3,9.411955E-4,1.0422138E-4,3.66175E-2,1.7183844E-2,1.1304891E-1,-6.455958E-4,8.2520945E-3,1.6567362E-2,-1.4760548E-2,2.5281388E-2,1.3291611E-1],"split_indices":[68,2,39,82,39,2,49,48,77,17,63,35,0,78,84,0,0,0,0,0,0,0,0,0,0,0,0,0,0],"split_type":[0,0,0,0,0,0,0,0,0,0,0,0,0,0,0,0,0,0,0,0,0,0,0,0,0,0,0,0,0],"sum_hessian":[1.0729E4,7.905E3,2.824E3,7.472E3,4.33E2,2.128E3,6.96E2,5.541E3,1.931E3,3.58E2,7.5E1,2.127E3,1E0,5.29E2,1.67E2,4.109E3,1.432E3,1.538E3,3.93E2,3.12E2,4.6E1,6E1,1.5E1,1.632E3,4.95E2,3.83E2,1.46E2,1.52E2,1.5E1],"tree_param":{"num_deleted":"0","num_feature":"85","num_nodes":"29","size_leaf_vector":"1"}},{"base_weights":[1.5957221E-4,1.5405347E-2,-4.8501905E-2,-3.5606204E-3,7.323545E-2,-7.031433E-2,2.811899E-2,9.71824E-3,-4.066883E-2,1.2407159E-1,-9.872971E-2,-9.7157076E-2,1.0017889E-3,-2.6140412E-2,2.057805E-1,-1.6595218E-3,5.4839216E-3,-5.566271E-3,2.2369025E-4,1.8574879E-2,-1.0165065E-2,-1.9221665E-2,1.5135238E-2,-4.9671694E-3,-2.4542429E-2,-6.5757073E-3,2.0675112E-2,3.5147318E-3,-1.7067267E-2,2.7759203E-3,6.501033E-2],"categories":[],"categories_nodes":[],"categories_segments":[],"categories_sizes":[],"default_left":[0,0,0,0,0,0,0,0,0,0,0,0,0,0,0,0,0,0,0,0,0,0,0,0,0,0,0,0,0,0,0],"id":31,"left_children":[1,3,5,7,9,11,13,15,17,19,21,23,25,27,29,-1,-1,-1,-1,-1,-1,-1,-1,-1,-1,-1,-1,-1,-1,-1,-1],"loss_changes":[7.96114E0,8.962246E0,4.2804737E0,3.032808E0,1.7653694E1,3.815339E0,5.4807897E0,5.382891E0,1.0435951E0,2.1709223E1,1.0806999E1,1.0182489E1,7.513228E0,3.86811E0,1.0502109E1,0E0,0E0,0E0,0E0,0E0,0E0,0E0,0E0,0E0,0E0,0E0,0E0,0E0,0E0,0E0,0E0],"parents":[2147483647,0,0,1,1,2,2,3,3,4,4,5,5,6,6,7,7,8,8,9,9,10,10,11,11,12,12,13,13,14,14],"right_children":[2,4,6,8,10,12,14,16,18,20,22,24,26,28,30,-1,-1,-1,-1,-1,-1,-1,-1,-1,-1,-1,-1,-1,-1,-1,-1],"split_conditions":[1E0,1E0,1E0,1E0,1E0,1E0,1E0,1E0,1E0,1E0,1E0,1E0,1E0,6E0,1E0,-1.6595218E-3,5.4839216E-3,-5.566271E-3,2.2369025E-4,1.8574879E-2,-1.0165065E-2,-1.9221665E-2,1.5135238E-2,-4.9671694E-3,-2.4542429E-2,-6.5757073E-3,2.0675112E-2,3.5147318E-3,-1.7067267E-2,2.7759203E-3,6.501033E-2],"split_indices":[25,39,79,32,79,46,59,38,68,23,20,39,39,3,39,0,0,0,0,0,0,0,0,0,0,0,0,0,0,0,0],"split_type":[0,0,0,0,0,0,0,0,0,0,0,0,0,0,0,0,0,0,0,0,0,0,0,0,0,0,0,0,0,0,0],"sum_hessian":[1.0729E4,8.17E3,2.559E3,6.153E3,2.017E3,1.992E3,5.67E2,4.532E3,1.621E3,1.557E3,4.6E2,1.447E3,5.45E2,4.35E2,1.32E2,2.863E3,1.669E3,1.201E3,4.2E2,1.223E3,3.34E2,3.35E2,1.25E2,1.097E3,3.5E2,4.12E2,1.33E2,3.06E2,1.29E2,9.5E1,3.7E1],"tree_param":{"num_deleted":"0","num_feature":"85","num_nodes":"31","size_leaf_vector":"1"}},{"base_weights":[1.474956E-4,-1.5461433E-2,4.1862067E-2,-3.3340394E-2,3.3286583E-2,1.4265299E-2,1.2351122E-1,-5.2586E-2,1.7447086E-2,2.5172494E-3,1.3253742E-1,-2.3043083E-2,9.132137E-2,2.1112919E-1,-1.8917577E-2,-3.1010066E-3,-1.0927597E-2,5.343424E-3,-7.6955743E-3,-2.2813345E-3,7.199295E-3,6.2280227E-3,3.7286315E-2,-5.3500105E-3,7.899751E-3,3.146942E-3,3.138732E-2,1.22829545E-2,4.4990357E-2,-5.909597E-3,1.6422564E-2],"categories":[],"categories_nodes":[],"categories_segments":[],"categories_sizes":[],"default_left":[0,0,0,0,0,0,0,0,0,0,0,0,0,0,0,0,0,0,0,0,0,0,0,0,0,0,0,0,0,0,0],"id":32,"left_children":[1,3,5,7,9,11,13,15,17,19,21,23,25,27,29,-1,-1,-1,-1,-1,-1,-1,-1,-1,-1,-1,-1,-1,-1,-1,-1],"loss_changes":[6.9871616E0,6.8071513E0,6.5822425E0,5.5859857E0,6.4006033E0,6.283624E0,9.213734E0,5.0653E0,5.3412538E0,2.8191793E0,8.351544E0,4.5820932E0,9.487396E0,9.579985E0,2.0847738E0,0E0,0E0,0E0,0E0,0E0,0E0,0E0,0E0,0E0,0E0,0E0,0E0,0E0,0E0,0E0,0E0],"parents":[2147483647,0,0,1,1,2,2,3,3,4,4,5,5,6,6,7,7,8,8,9,9,10,10,11,11,12,12,13,13,14,14],"right_children":[2,4,6,8,10,12,14,16,18,20,22,24,26,28,30,-1,-1,-1,-1,-1,-1,-1,-1,-1,-1,-1,-1,-1,-1,-1,-1],"split_conditions":[1E0,1E0,1E0,1E0,1E0,1E0,5E0,1E0,1E0,1E0,1E0,1E0,1E0,1E0,1E0,-3.1010066E-3,-1.0927597E-2,5.343424E-3,-7.6955743E-3,-2.2813345E-3,7.199295E-3,6.2280227E-3,3.7286315E-2,-5.3500105E-3,7.899751E-3,3.146942E-3,3.138732E-2,1.22829545E-2,4.4990357E-2,-5.909597E-3,1.6422564E-2],"split_indices":[80,58,34,4,39,35,1,14,28,35,5,67,49,39,6,0,0,0,0,0,0,0,0,0,0,0,0,0,0,0,0],"split_type":[0,0,0,0,0,0,0,0,0,0,0,0,0,0,0,0,0,0,0,0,0,0,0,0,0,0,0,0,0,0,0],"sum_hessian":[1.0729E4,7.808E3,2.921E3,5.713E3,2.095E3,2.184E3,7.37E2,4.143E3,1.57E3,1.6E3,4.95E2,1.472E3,7.12E2,4.56E2,2.81E2,3.002E3,1.141E3,1.137E3,4.33E2,1.173E3,4.27E2,3.84E2,1.11E2,1.134E3,3.38E2,5.62E2,1.5E2,3.34E2,1.22E2,2.31E2,5E1],"tree_param":{"num_deleted":"0","num_feature":"85","num_nodes":"31","size_leaf_vector":"1"}},{"base_weights":[1.4550585E-4,1.39252E-2,-4.7178123E-2,3.2160647E-2,-4.6057604E-2,-4.9835302E-2,1.0301982E0,1.02973925E-2,9.57858E-2,-7.738658E-2,3.354944E-2,-7.426289E-2,1.5915561E-2,2.2551417E-1,-1.4605905E-1,-6.180425E-4,6.0996055E-3,-1.8302709E-2,1.2837566E-2,-1.0096513E-2,1.170174E-3,-2.0226957E-3,1.6524281E-2,-9.930672E-3,-2.7969177E-4,2.9813016E-2,-2.5556365E-3,-1.1622012E-3,-1.8699741E-2],"categories":[],"categories_nodes":[],"categories_segments":[],"categories_sizes":[],"default_left":[0,0,0,0,0,0,0,0,0,0,0,0,0,0,0,0,0,0,0,0,0,0,0,0,0,0,0,0,0],"id":33,"left_children":[1,3,5,7,9,11,13,15,17,19,21,23,25,-1,27,-1,-1,-1,-1,-1,-1,-1,-1,-1,-1,-1,-1,-1,-1],"loss_changes":[6.9977455E0,9.092164E0,6.9792643E0,8.865584E0,4.8359823E0,3.8799982E0,8.974476E0,3.9643655E0,1.4834453E1,2.9230785E0,3.8842752E0,3.1515274E0,7.6737275E0,0E0,1.9841239E-2,0E0,0E0,0E0,0E0,0E0,0E0,0E0,0E0,0E0,0E0,0E0,0E0,0E0,0E0],"parents":[2147483647,0,0,1,1,2,2,3,3,4,4,5,5,6,6,7,7,8,8,9,9,10,10,11,11,12,12,14,14],"right_children":[2,4,6,8,10,12,14,16,18,20,22,24,26,-1,28,-1,-1,-1,-1,-1,-1,-1,-1,-1,-1,-1,-1,-1,-1],"split_conditions":[1E0,1E0,1.2E1,1E0,1E0,1E0,2E0,1E0,3E0,1E0,1E0,1E0,3E0,2.2551417E-1,1.3E1,-6.180425E-4,6.0996055E-3,-1.8302709E-2,1.2837566E-2,-1.0096513E-2,1.170174E-3,-2.0226957E-3,1.6524281E-2,-9.930672E-3,-2.7969177E-4,2.9813016E-2,-2.5556365E-3,-1.1622012E-3,-1.8699741E-2],"split_indices":[19,23,2,39,4,34,1,35,0,31,48,48,0,0,2,0,0,0,0,0,0,0,0,0,0,0,0,0,0],"split_type":[0,0,0,0,0,0,0,0,0,0,0,0,0,0,0,0,0,0,0,0,0,0,0,0,0,0,0,0,0],"sum_hessian":[1.0729E4,8.31E3,2.419E3,6.373E3,1.937E3,2.414E3,5E0,4.744E3,1.629E3,1.39E3,5.47E2,1.76E3,6.54E2,2E0,3E0,3.581E3,1.163E3,1.7E2,1.459E3,1.099E3,2.91E2,3.89E2,1.58E2,1.303E3,4.57E2,8.3E1,5.71E2,1E0,2E0],"tree_param":{"num_deleted":"0","num_feature":"85","num_nodes":"29","size_leaf_vector":"1"}},{"base_weights":[1.5223093E-4,-1.465526E-2,4.1592184E-2,-1.856511E-2,1.7354573E-1,1.7059026E-2,1.16469525E-1,-1.52202E-2,-2.2404651E-1,3.2478154E-1,-6.6865236E-2,1.5832143E-2,1.3139337E-1,-3.1786856E-1,1.4551295E-1,-8.5113905E-5,-6.100188E-3,-3.348375E-2,-9.631342E-3,2.2551628E-2,1.0256618E-1,-1.1700814E-2,5.3819407E-2,-3.072302E-4,6.66534E-3,-5.3790696E-3,-1.0175937E-1,7.989052E-3,3.304004E-2],"categories":[],"categories_nodes":[],"categories_segments":[],"categories_sizes":[],"default_left":[0,0,0,0,0,0,0,0,0,0,0,0,0,0,0,0,0,0,0,0,0,0,0,0,0,0,0,0,0],"id":34,"left_children":[1,3,5,7,9,11,13,15,17,19,21,23,-1,25,27,-1,-1,-1,-1,-1,-1,-1,-1,-1,-1,-1,-1,-1,-1],"loss_changes":[6.584771E0,5.8207555E0,5.187475E0,5.320548E0,5.8754764E0,3.3666801E0,8.838679E0,5.0146604E0,1.722558E0,6.656431E0,1.974357E0,2.0446758E0,0E0,8.075666E0,7.908431E0,0E0,0E0,0E0,0E0,0E0,0E0,0E0,0E0,0E0,0E0,0E0,0E0,0E0,0E0],"parents":[2147483647,0,0,1,1,2,2,3,3,4,4,5,5,6,6,7,7,8,8,9,9,10,10,11,11,13,13,14,14],"right_children":[2,4,6,8,10,12,14,16,18,20,22,24,-1,26,28,-1,-1,-1,-1,-1,-1,-1,-1,-1,-1,-1,-1,-1,-1],"split_conditions":[1E0,1.1E1,1E0,9E0,6.3893604E1,1.4E1,2E0,1E0,1E0,1E0,1E0,1E0,1.3139337E-1,1E0,1E0,-8.5113905E-5,-6.100188E-3,-3.348375E-2,-9.631342E-3,2.2551628E-2,1.0256618E-1,-1.1700814E-2,5.3819407E-2,-3.072302E-4,6.66534E-3,-5.3790696E-3,-1.0175937E-1,7.989052E-3,3.304004E-2],"split_indices":[68,2,39,3,84,2,1,65,75,80,55,62,0,10,24,0,0,0,0,0,0,0,0,0,0,0,0,0,0],"split_type":[0,0,0,0,0,0,0,0,0,0,0,0,0,0,0,0,0,0,0,0,0,0,0,0,0,0,0,0,0],"sum_hessian":[1.0729E4,7.905E3,2.824E3,7.745E3,1.6E2,2.128E3,6.96E2,7.622E3,1.23E2,9.8E1,6.2E1,2.127E3,1E0,4.3E1,6.53E2,5.802E3,1.82E3,6.5E1,5.8E1,8.7E1,1.1E1,5.8E1,4E0,1.551E3,5.76E2,3.2E1,1.1E1,4.83E2,1.7E2],"tree_param":{"num_deleted":"0","num_feature":"85","num_nodes":"29","size_leaf_vector":"1"}},{"base_weights":[1.5467392E-4,1.3680535E-2,-4.301719E-2,-3.5572937E-3,6.488481E-2,-2.3338277E-2,-1.2589364E-1,-2.3422845E-2,4.4330306E-2,1.0637549E-1,-5.5852562E-2,8.037253E-3,-8.833572E-2,-6.471828E-2,-2.8839275E-1,-3.1634222E-3,1.25539275E-2,9.827623E-4,1.3922821E-2,1.6048273E-2,-4.819257E-3,-9.034563E-4,-1.9173125E-2,4.5046094E-3,-8.971015E-3,-9.201969E-3,1.1954864E-1,-2.046808E-3,-1.4407046E-2,-4.330001E-2,1.3301091E-2],"categories":[],"categories_nodes":[],"categories_segments":[],"categories_sizes":[],"default_left":[0,0,0,0,0,0,0,0,0,0,0,0,0,0,0,0,0,0,0,0,0,0,0,0,0,0,0,0,0,0,0],"id":35,"left_children":[1,3,5,7,9,11,13,15,17,19,21,23,25,27,29,-1,-1,-1,-1,-1,-1,-1,-1,-1,-1,-1,-1,-1,-1,-1,-1],"loss_changes":[6.266229E0,7.2123694E0,4.1722116E0,5.817369E0,1.0315441E1,4.2221212E0,4.8623366E0,5.290574E0,5.8693295E0,1.2820234E1,3.3508139E0,5.0577135E0,3.2977285E0,1.2541147E0,8.223294E0,0E0,0E0,0E0,0E0,0E0,0E0,0E0,0E0,0E0,0E0,0E0,0E0,0E0,0E0,0E0,0E0],"parents":[2147483647,0,0,1,1,2,2,3,3,4,4,5,5,6,6,7,7,8,8,9,9,10,10,11,11,12,12,13,13,14,14],"right_children":[2,4,6,8,10,12,14,16,18,20,22,24,26,28,30,-1,-1,-1,-1,-1,-1,-1,-1,-1,-1,-1,-1,-1,-1,-1,-1],"split_conditions":[1E0,1E0,1E0,1E0,1E0,1E0,1E0,9E0,1E0,1E0,1E0,1E0,1.2E1,1E0,1E0,-3.1634222E-3,1.25539275E-2,9.827623E-4,1.3922821E-2,1.6048273E-2,-4.819257E-3,-9.034563E-4,-1.9173125E-2,4.5046094E-3,-8.971015E-3,-9.201969E-3,1.1954864E-1,-2.046808E-3,-1.4407046E-2,-4.330001E-2,1.3301091E-2],"split_indices":[25,34,29,54,28,28,39,0,39,36,38,50,2,38,46,0,0,0,0,0,0,0,0,0,0,0,0,0,0,0,0],"split_type":[0,0,0,0,0,0,0,0,0,0,0,0,0,0,0,0,0,0,0,0,0,0,0,0,0,0,0,0,0,0,0],"sum_hessian":[1.0729E4,8.17E3,2.559E3,6.113E3,2.057E3,2.069E3,4.9E2,4.321E3,1.792E3,1.531E3,5.26E2,1.396E3,6.73E2,3.57E2,1.33E2,4.096E3,2.25E2,1.315E3,4.77E2,1.134E3,3.97E2,3.92E2,1.34E2,1.013E3,3.83E2,6.72E2,1E0,2.3E2,1.27E2,9.9E1,3.4E1],"tree_param":{"num_deleted":"0","num_feature":"85","num_nodes":"31","size_leaf_vector":"1"}},{"base_weights":[1.4618343E-4,1.33491345E-2,-4.175822E-2,3.621836E-2,-3.0133968E-2,-6.86709E-2,3.06995E-2,1.2965325E-2,1.170191E-1,8.897748E-1,-3.373328E-2,-9.4164826E-2,1.1798156E-2,-1.20141655E-2,1.8522716E-1,-1.7251698E-3,9.739558E-3,5.7891672E-3,3.1744827E-2,-5.1909606E-3,1.4352958E-1,-6.0796696E-3,5.019681E-3,-6.2310747E-3,-1.840793E-2,3.510318E-4,1.2510413E-1,-9.079282E-3,8.263174E-3,4.530023E-3,5.59536E-2],"categories":[],"categories_nodes":[],"categories_segments":[],"categories_sizes":[],"default_left":[0,0,0,0,0,0,0,0,0,0,0,0,0,0,0,0,0,0,0,0,0,0,0,0,0,0,0,0,0,0,0],"id":36,"left_children":[1,3,5,7,9,11,13,15,17,19,21,23,25,27,29,-1,-1,-1,-1,-1,-1,-1,-1,-1,-1,-1,-1,-1,-1,-1,-1],"loss_changes":[5.937057E0,8.115598E0,5.0156384E0,1.0046639E1,9.34396E0,3.847621E0,4.6027336E0,1.0599494E1,1.41434E1,5.725301E0,6.369885E0,4.067067E0,4.6379414E0,4.0859766E0,7.8834114E0,0E0,0E0,0E0,0E0,0E0,0E0,0E0,0E0,0E0,0E0,0E0,0E0,0E0,0E0,0E0,0E0],"parents":[2147483647,0,0,1,1,2,2,3,3,4,4,5,5,6,6,7,7,8,8,9,9,10,10,11,11,12,12,13,13,14,14],"right_children":[2,4,6,8,10,12,14,16,18,20,22,24,26,28,30,-1,-1,-1,-1,-1,-1,-1,-1,-1,-1,-1,-1,-1,-1,-1,-1],"split_conditions":[1E0,1E0,1E0,1E0,3E0,1E0,1E0,1E0,1E0,1E0,1E0,1E0,1.2E1,6E0,1E0,-1.7251698E-3,9.739558E-3,5.7891672E-3,3.1744827E-2,-5.1909606E-3,1.4352958E-1,-6.0796696E-3,5.019681E-3,-6.2310747E-3,-1.840793E-2,3.510318E-4,1.2510413E-1,-9.079282E-3,8.263174E-3,4.530023E-3,5.59536E-2],"split_indices":[51,50,20,31,2,34,53,8,39,20,46,39,2,0,39,0,0,0,0,0,0,0,0,0,0,0,0,0,0,0,0],"split_type":[0,0,0,0,0,0,0,0,0,0,0,0,0,0,0,0,0,0,0,0,0,0,0,0,0,0,0,0,0,0,0],"sum_hessian":[1.0729E4,8.159E3,2.57E3,5.347E3,2.812E3,1.874E3,6.96E2,4.153E3,1.194E3,1E1,2.802E3,1.423E3,4.51E2,5.46E2,1.5E2,3.059E3,1.094E3,9.23E2,2.71E2,4E0,6E0,2.119E3,6.83E2,1.052E3,3.71E2,4.49E2,2E0,2.98E2,2.48E2,1.1E2,4E1],"tree_param":{"num_deleted":"0","num_feature":"85","num_nodes":"31","size_leaf_vector":"1"}},{"base_weights":[1.6356507E-4,-1.40588265E-2,3.7536953E-2,-3.0307263E-2,2.5889093E-2,6.796745E-2,-4.620414E-2,-1.2378026E-2,-7.789694E-2,-1.2850996E-2,1.1542673E-1,3.072037E-2,1.8550093E-1,-5.187498E-3,-1.9894165E-1,-3.552066E-3,3.3640943E-3,-4.2491425E-3,-1.8106822E-2,-4.164255E-3,6.7117983E-3,2.5453998E-3,4.0240478E-2,2.1987913E-4,1.152514E-2,-1.4551081E-2,2.4841549E-2,-1.6813803E-3,4.3693636E-2,-4.1616443E-3,-7.142239E-2],"categories":[],"categories_nodes":[],"categories_segments":[],"categories_sizes":[],"default_left":[0,0,0,0,0,0,0,0,0,0,0,0,0,0,0,0,0,0,0,0,0,0,0,0,0,0,0,0,0,0,0],"id":37,"left_children":[1,3,5,7,9,11,13,15,17,19,21,23,25,27,29,-1,-1,-1,-1,-1,-1,-1,-1,-1,-1,-1,-1,-1,-1,-1,-1],"loss_changes":[5.7039413E0,5.046171E0,7.5409627E0,4.7140756E0,7.7991114E0,9.494082E0,4.9418793E0,4.27717E0,5.5153885E0,3.6176114E0,1.7521671E1,3.9754171E0,1.0907034E1,3.2097328E0,1.3508448E1,0E0,0E0,0E0,0E0,0E0,0E0,0E0,0E0,0E0,0E0,0E0,0E0,0E0,0E0,0E0,0E0],"parents":[2147483647,0,0,1,1,2,2,3,3,4,4,5,5,6,6,7,7,8,8,9,9,10,10,11,11,12,12,13,13,14,14],"right_children":[2,4,6,8,10,12,14,16,18,20,22,24,26,28,30,-1,-1,-1,-1,-1,-1,-1,-1,-1,-1,-1,-1,-1,-1,-1,-1],"split_conditions":[1E0,1E0,1E0,1E0,1E0,1E0,1E0,1E0,1E0,1E0,1E0,1E0,3E0,1.2E1,1E0,-3.552066E-3,3.3640943E-3,-4.2491425E-3,-1.8106822E-2,-4.164255E-3,6.7117983E-3,2.5453998E-3,4.0240478E-2,2.1987913E-4,1.152514E-2,-1.4551081E-2,2.4841549E-2,-1.6813803E-3,4.3693636E-2,-4.1616443E-3,-7.142239E-2],"split_indices":[62,30,78,70,26,39,72,31,39,68,39,35,1,2,39,0,0,0,0,0,0,0,0,0,0,0,0,0,0,0,0],"split_type":[0,0,0,0,0,0,0,0,0,0,0,0,0,0,0,0,0,0,0,0,0,0,0,0,0,0,0,0,0,0,0],"sum_hessian":[1.0729E4,7.772E3,2.957E3,5.525E3,2.247E3,2.169E3,7.88E2,4.014E3,1.511E3,1.569E3,6.78E2,1.648E3,5.21E2,6.22E2,1.66E2,2.671E3,1.343E3,1.126E3,3.85E2,1.154E3,4.15E2,5.17E2,1.61E2,1.233E3,4.15E2,8.3E1,4.38E2,6.07E2,1.5E1,1.28E2,3.8E1],"tree_param":{"num_deleted":"0","num_feature":"85","num_nodes":"31","size_leaf_vector":"1"}},{"base_weights":[1.4826008E-4,1.2443278E-2,-4.207655E-2,2.8274687E-2,-3.963198E-2,-4.4418156E-2,9.0743214E-1,6.745796E-3,7.85879E-2,-6.782528E-2,3.200399E-2,-6.566641E-2,2.1271322E-2,1.9884726E-1,-1.302062E-1,-1.4487563E-3,7.948809E-3,4.014266E-3,1.802004E-2,-2.58768E-2,-5.811888E-3,8.43683E-3,-9.778365E-3,-4.505263E-3,-1.26033425E-2,-2.7084562E-3,1.8324936E-2,-1.6186342E-3,-1.6281737E-2],"categories":[],"categories_nodes":[],"categories_segments":[],"categories_sizes":[],"default_left":[0,0,0,0,0,0,0,0,0,0,0,0,0,0,0,0,0,0,0,0,0,0,0,0,0,0,0,0,0],"id":38,"left_children":[1,3,5,7,9,11,13,15,17,19,21,23,25,-1,27,-1,-1,-1,-1,-1,-1,-1,-1,-1,-1,-1,-1,-1,-1],"loss_changes":[5.571054E0,6.852915E0,5.4208717E0,6.9037066E0,3.9162614E0,3.372221E0,6.9892855E0,6.897627E0,7.454212E0,2.5629954E0,3.732589E0,2.2653375E0,4.634024E0,0E0,1.2237862E-2,0E0,0E0,0E0,0E0,0E0,0E0,0E0,0E0,0E0,0E0,0E0,0E0,0E0,0E0],"parents":[2147483647,0,0,1,1,2,2,3,3,4,4,5,5,6,6,7,7,8,8,9,9,10,10,11,11,12,12,14,14],"right_children":[2,4,6,8,10,12,14,16,18,20,22,24,26,-1,28,-1,-1,-1,-1,-1,-1,-1,-1,-1,-1,-1,-1,-1,-1],"split_conditions":[1E0,1E0,1.2E1,1E0,1E0,1E0,2E0,1E0,1E0,2E0,1E0,1E0,1E0,1.9884726E-1,1.3E1,-1.4487563E-3,7.948809E-3,4.014266E-3,1.802004E-2,-2.58768E-2,-5.811888E-3,8.43683E-3,-9.778365E-3,-4.505263E-3,-1.26033425E-2,-2.7084562E-3,1.8324936E-2,-1.6186342E-3,-1.6281737E-2],"split_indices":[19,23,2,54,4,12,1,67,39,1,46,39,39,0,2,0,0,0,0,0,0,0,0,0,0,0,0,0,0],"split_type":[0,0,0,0,0,0,0,0,0,0,0,0,0,0,0,0,0,0,0,0,0,0,0,0,0,0,0,0,0],"sum_hessian":[1.0729E4,8.31E3,2.419E3,6.373E3,1.937E3,2.414E3,5E0,4.464E3,1.909E3,1.39E3,5.47E2,1.824E3,5.9E2,2E0,3E0,3.456E3,1.008E3,1.386E3,5.23E2,6.6E1,1.324E3,3.9E2,1.57E2,1.361E3,4.63E2,4.55E2,1.35E2,1E0,2E0],"tree_param":{"num_deleted":"0","num_feature":"85","num_nodes":"29","size_leaf_vector":"1"}},{"base_weights":[1.497413E-4,-1.3491755E-2,3.660638E-2,-2.9388614E-2,2.9851822E-2,6.1737787E-2,-4.477773E-2,-4.5248754E-2,1.2466138E-2,5.4193134E-3,1.0865544E-1,2.9925594E-2,1.7250933E-1,-8.249717E-2,1.0399506E-1,-2.6610808E-3,-9.421943E-3,4.2520943E-3,-6.636988E-3,-1.6904476E-3,6.6640596E-3,6.749478E-3,4.6647895E-2,-5.545783E-4,1.2804176E-2,2.6917806E-2,1.3039386E-3,-1.3493898E-2,3.99428E-3,5.949521E-3,2.1163233E-1],"categories":[],"categories_nodes":[],"categories_segments":[],"categories_sizes":[],"default_left":[0,0,0,0,0,0,0,0,0,0,0,0,0,0,0,0,0,0,0,0,0,0,0,0,0,0,0,0,0,0,0],"id":39,"left_children":[1,3,5,7,9,11,13,15,17,19,21,23,25,27,29,-1,-1,-1,-1,-1,-1,-1,-1,-1,-1,-1,-1,-1,-1,-1,-1],"loss_changes":[5.3367705E0,5.381487E0,5.979123E0,3.793645E0,4.0349865E0,7.863673E0,3.880602E0,3.7797747E0,3.7251506E0,2.1891987E0,7.273727E0,6.0425377E0,7.673538E0,3.543346E0,1.2410851E1,0E0,0E0,0E0,0E0,0E0,0E0,0E0,0E0,0E0,0E0,0E0,0E0,0E0,0E0,0E0,0E0],"parents":[2147483647,0,0,1,1,2,2,3,3,4,4,5,5,6,6,7,7,8,8,9,9,10,10,11,11,12,12,13,13,14,14],"right_children":[2,4,6,8,10,12,14,16,18,20,22,24,26,28,30,-1,-1,-1,-1,-1,-1,-1,-1,-1,-1,-1,-1,-1,-1,-1,-1],"split_conditions":[1E0,1E0,1E0,1E0,1E0,8E0,1E0,1E0,1E0,1E0,7E0,1E0,6.0381607E1,1E0,6.417418E1,-2.6610808E-3,-9.421943E-3,4.2520943E-3,-6.636988E-3,-1.6904476E-3,6.6640596E-3,6.749478E-3,4.6647895E-2,-5.545783E-4,1.2804176E-2,2.6917806E-2,1.3039386E-3,-1.3493898E-2,3.99428E-3,5.949521E-3,2.1163233E-1],"split_indices":[80,58,55,4,39,2,73,14,28,35,0,24,84,58,84,0,0,0,0,0,0,0,0,0,0,0,0,0,0,0,0],"split_type":[0,0,0,0,0,0,0,0,0,0,0,0,0,0,0,0,0,0,0,0,0,0,0,0,0,0,0,0,0,0,0],"sum_hessian":[1.0729E4,7.808E3,2.921E3,5.713E3,2.095E3,2.232E3,6.89E2,4.143E3,1.57E3,1.6E3,4.95E2,1.735E3,4.97E2,5.5E2,1.39E2,3.002E3,1.141E3,1.137E3,4.33E2,1.173E3,4.27E2,4.45E2,5E1,1.275E3,4.6E2,3.09E2,1.88E2,3.85E2,1.65E2,1.37E2,2E0],"tree_param":{"num_deleted":"0","num_feature":"85","num_nodes":"31","size_leaf_vector":"1"}},{"base_weights":[1.6202524E-4,1.205758E-2,-3.759289E-2,3.255868E-2,-2.6922848E-2,-6.1503887E-2,2.6784027E-2,1.2188265E-2,1.0334206E-1,8.152196E-1,-3.0218119E-2,-6.933418E-2,1.7651804E-1,1.155013E-1,-3.8224358E-2,-1.4766923E-3,8.750397E-3,5.132831E-3,2.7965594E-2,1.6185405E-2,1.5668873E-1,-5.467545E-3,4.5629474E-3,-4.4530937E-3,-1.4214084E-2,7.853977E-3,6.0582668E-2,4.1046496E-2,5.7945824E-3,-1.8535752E-3,-6.782001E-2],"categories":[],"categories_nodes":[],"categories_segments":[],"categories_sizes":[],"default_left":[0,0,0,0,0,0,0,0,0,0,0,0,0,0,0,0,0,0,0,0,0,0,0,0,0,0,0,0,0,0,0],"id":40,"left_children":[1,3,5,7,9,11,13,15,17,19,21,23,25,27,29,-1,-1,-1,-1,-1,-1,-1,-1,-1,-1,-1,-1,-1,-1,-1,-1],"loss_changes":[4.8194647E0,6.521872E0,3.959229E0,7.7099514E0,7.8309546E0,3.5068283E0,4.024269E0,8.43453E0,1.0944688E1,5.1486444E0,5.2021422E0,3.273078E0,2.4761934E0,4.9843636E0,5.0653224E0,0E0,0E0,0E0,0E0,0E0,0E0,0E0,0E0,0E0,0E0,0E0,0E0,0E0,0E0,0E0,0E0],"parents":[2147483647,0,0,1,1,2,2,3,3,4,4,5,5,6,6,7,7,8,8,9,9,10,10,11,11,12,12,13,13,14,14],"right_children":[2,4,6,8,10,12,14,16,18,20,22,24,26,28,30,-1,-1,-1,-1,-1,-1,-1,-1,-1,-1,-1,-1,-1,-1,-1,-1],"split_conditions":[1E0,1E0,1E0,1E0,3E0,1E1,5E0,1E0,1E0,1E0,1E0,1E0,1E0,5E0,6.1147285E1,-1.4766923E-3,8.750397E-3,5.132831E-3,2.7965594E-2,1.6185405E-2,1.5668873E-1,-5.467545E-3,4.5629474E-3,-4.4530937E-3,-1.4214084E-2,7.853977E-3,6.0582668E-2,4.1046496E-2,5.7945824E-3,-1.8535752E-3,-6.782001E-2],"split_indices":[51,50,20,31,2,2,3,8,39,28,46,39,68,2,84,0,0,0,0,0,0,0,0,0,0,0,0,0,0,0,0],"split_type":[0,0,0,0,0,0,0,0,0,0,0,0,0,0,0,0,0,0,0,0,0,0,0,0,0,0,0,0,0,0,0],"sum_hessian":[1.0729E4,8.159E3,2.57E3,5.347E3,2.812E3,1.874E3,6.96E2,4.153E3,1.194E3,1E1,2.802E3,1.815E3,5.9E1,2.94E2,4.02E2,3.059E3,1.094E3,9.23E2,2.71E2,6E0,4E0,2.119E3,6.83E2,1.355E3,4.6E2,4.9E1,1E1,4.7E1,2.47E2,3.91E2,1.1E1],"tree_param":{"num_deleted":"0","num_feature":"85","num_nodes":"31","size_leaf_vector":"1"}},{"base_weights":[1.6812352E-4,1.2110837E-2,-3.7950657E-2,-3.147012E-3,5.7433665E-2,-5.704379E-2,2.9110193E-2,1.2050757E-2,-5.2039735E-2,9.254467E-2,-4.474373E-2,6.936402E-2,-6.6925935E-2,-1.9418046E-2,1.8797638E-1,2.8746491E-3,-4.97171E-3,-1.6218353E-3,-1.6166594E-2,1.3967486E-2,-4.20918E-3,-1.5205295E-4,-1.7023984E-2,8.414962E-4,4.7310963E-2,-4.1392357E-3,-1.5058263E-2,-7.1375305E-3,1.1042262E-2,3.6900123E-3,5.6469597E-2],"categories":[],"categories_nodes":[],"categories_segments":[],"categories_sizes":[],"default_left":[0,0,0,0,0,0,0,0,0,0,0,0,0,0,0,0,0,0,0,0,0,0,0,0,0,0,0,0,0,0,0],"id":41,"left_children":[1,3,5,7,9,11,13,15,17,19,21,23,25,27,29,-1,-1,-1,-1,-1,-1,-1,-1,-1,-1,-1,-1,-1,-1,-1,-1],"loss_changes":[4.885203E0,5.650663E0,3.279489E0,4.543698E0,7.38732E0,2.4942594E0,4.382643E0,4.8122554E0,5.691473E0,9.7270975E0,2.8583703E0,3.5641663E0,3.9433317E0,2.9492092E0,7.5486426E0,0E0,0E0,0E0,0E0,0E0,0E0,0E0,0E0,0E0,0E0,0E0,0E0,0E0,0E0,0E0,0E0],"parents":[2147483647,0,0,1,1,2,2,3,3,4,4,5,5,6,6,7,7,8,8,9,9,10,10,11,11,12,12,13,13,14,14],"right_children":[2,4,6,8,10,12,14,16,18,20,22,24,26,28,30,-1,-1,-1,-1,-1,-1,-1,-1,-1,-1,-1,-1,-1,-1,-1,-1],"split_conditions":[1E0,1E0,1E0,1E0,1E0,4E0,1E0,1E0,1E0,1E0,1E0,1E0,1E0,1E0,1E0,2.8746491E-3,-4.97171E-3,-1.6218353E-3,-1.6166594E-2,1.3967486E-2,-4.20918E-3,-1.5205295E-4,-1.7023984E-2,8.414962E-4,4.7310963E-2,-4.1392357E-3,-1.5058263E-2,-7.1375305E-3,1.1042262E-2,3.6900123E-3,5.6469597E-2],"split_indices":[25,34,79,79,28,2,59,19,39,36,38,46,39,10,39,0,0,0,0,0,0,0,0,0,0,0,0,0,0,0,0],"split_type":[0,0,0,0,0,0,0,0,0,0,0,0,0,0,0,0,0,0,0,0,0,0,0,0,0,0,0,0,0,0,0],"sum_hessian":[1.0729E4,8.17E3,2.559E3,6.113E3,2.057E3,1.992E3,5.67E2,4.664E3,1.449E3,1.531E3,5.26E2,1.44E2,1.848E3,4.35E2,1.32E2,3.672E3,9.92E2,1.093E3,3.56E2,1.134E3,3.97E2,3.92E2,1.34E2,1.26E2,1.8E1,1.417E3,4.31E2,3.11E2,1.24E2,9.5E1,3.7E1],"tree_param":{"num_deleted":"0","num_feature":"85","num_nodes":"31","size_leaf_vector":"1"}},{"base_weights":[1.574368E-4,1.1686898E-2,-3.7080467E-2,2.519519E-2,-3.4681577E-2,-7.369336E-2,5.192906E-2,7.770067E-3,7.224357E-2,-5.683913E-2,3.5562117E-2,-1.1274403E-1,2.5965752E-2,-3.1621705E-3,2.4850865E-1,2.4885924E-3,-4.80052E-3,3.2443185E-3,2.0648712E-2,-2.4910208E-3,-1.2688102E-2,5.3952713E-2,2.2706871E-3,-6.739673E-3,-2.4581539E-2,-3.9887093E-3,1.8906688E-2,-3.3634368E-3,1.20079E-2,4.990813E-2,-2.7623668E-2],"categories":[],"categories_nodes":[],"categories_segments":[],"categories_sizes":[],"default_left":[0,0,0,0,0,0,0,0,0,0,0,0,0,0,0,0,0,0,0,0,0,0,0,0,0,0,0,0,0,0,0],"id":42,"left_children":[1,3,5,7,9,11,13,15,17,19,21,23,25,27,29,-1,-1,-1,-1,-1,-1,-1,-1,-1,-1,-1,-1,-1,-1,-1,-1],"loss_changes":[4.6071763E0,5.1332583E0,8.271645E0,5.202041E0,2.8798578E0,7.000304E0,8.014847E0,4.4230943E0,9.156452E0,3.1411638E0,2.864245E0,7.779913E0,5.4530625E0,2.1784322E0,2.1438732E1,0E0,0E0,0E0,0E0,0E0,0E0,0E0,0E0,0E0,0E0,0E0,0E0,0E0,0E0,0E0,0E0],"parents":[2147483647,0,0,1,1,2,2,3,3,4,4,5,5,6,6,7,7,8,8,9,9,10,10,11,11,12,12,13,13,14,14],"right_children":[2,4,6,8,10,12,14,16,18,20,22,24,26,28,30,-1,-1,-1,-1,-1,-1,-1,-1,-1,-1,-1,-1,-1,-1,-1,-1],"split_conditions":[1E0,1E0,6E0,1E0,1E0,1E0,1E0,1E0,8E0,1E0,4.2500122E1,1E0,1E0,1E0,1E0,2.4885924E-3,-4.80052E-3,3.2443185E-3,2.0648712E-2,-2.4910208E-3,-1.2688102E-2,5.3952713E-2,2.2706871E-3,-6.739673E-3,-2.4581539E-2,-3.9887093E-3,1.8906688E-2,-3.3634368E-3,1.20079E-2,4.990813E-2,-2.7623668E-2],"split_indices":[65,55,0,80,57,58,39,56,2,70,84,39,54,57,70,0,0,0,0,0,0,0,0,0,0,0,0,0,0,0,0],"split_type":[0,0,0,0,0,0,0,0,0,0,0,0,0,0,0,0,0,0,0,0,0,0,0,0,0,0,0,0,0,0,0],"sum_hessian":[1.0729E4,8.193E3,2.536E3,6.345E3,1.848E3,1.797E3,7.39E2,4.631E3,1.714E3,1.405E3,4.43E2,1.291E3,5.06E2,5.78E2,1.61E2,3.544E3,1.087E3,1.323E3,3.91E2,9.66E2,4.39E2,1E1,4.33E2,9.64E2,3.27E2,3.61E2,1.45E2,4.64E2,1.14E2,1.09E2,5.2E1],"tree_param":{"num_deleted":"0","num_feature":"85","num_nodes":"31","size_leaf_vector":"1"}},{"base_weights":[1.4888159E-4,-1.2397264E-2,3.3117454E-2,-9.493176E-3,-2.0917444E-1,6.091745E-2,-4.3383308E-2,2.9362252E-1,-1.1803962E-2,-5.8302E-2,-3.1573054E-1,2.8364219E-2,1.6363652E-1,-2.5604466E-1,-1.969325E-2,1.5636295E-3,8.210146E-2,-2.773985E-3,2.6733964E-3,2.3076315E-3,-2.225009E-2,-4.562111E-2,-1.4032644E-3,3.3196606E-4,1.0258687E-2,2.4171604E-2,-6.19819E-3,-1.3900789E-2,-6.183183E-2,1.3712383E-3,-1.4060657E-2],"categories":[],"categories_nodes":[],"categories_segments":[],"categories_sizes":[],"default_left":[0,0,0,0,0,0,0,0,0,0,0,0,0,0,0,0,0,0,0,0,0,0,0,0,0,0,0,0,0,0,0],"id":43,"left_children":[1,3,5,7,9,11,13,15,17,19,21,23,25,27,29,-1,-1,-1,-1,-1,-1,-1,-1,-1,-1,-1,-1,-1,-1,-1,-1],"loss_changes":[4.4386444E0,4.4399595E0,6.293483E0,5.3695025E0,1.7982235E0,7.251487E0,3.9699082E0,8.49041E0,4.6706324E0,6.4652157E-1,2.7908554E0,3.0649414E0,9.210625E0,3.263596E0,2.8737888E0,0E0,0E0,0E0,0E0,0E0,0E0,0E0,0E0,0E0,0E0,0E0,0E0,0E0,0E0,0E0,0E0],"parents":[2147483647,0,0,1,1,2,2,3,3,4,4,5,5,6,6,7,7,8,8,9,9,10,10,11,11,12,12,13,13,14,14],"right_children":[2,4,6,8,10,12,14,16,18,20,22,24,26,28,30,-1,-1,-1,-1,-1,-1,-1,-1,-1,-1,-1,-1,-1,-1,-1,-1],"split_conditions":[1E0,9E0,1E0,4.2500122E1,1E0,1E0,2E0,1E0,1E0,1E0,1E0,1E0,1E0,1E0,1E0,1.5636295E-3,8.210146E-2,-2.773985E-3,2.6733964E-3,2.3076315E-3,-2.225009E-2,-4.562111E-2,-1.4032644E-3,3.3196606E-4,1.0258687E-2,2.4171604E-2,-6.19819E-3,-1.3900789E-2,-6.183183E-2,1.3712383E-3,-1.4060657E-2],"split_indices":[62,3,78,84,39,39,1,5,30,38,61,35,56,39,46,0,0,0,0,0,0,0,0,0,0,0,0,0,0,0,0],"split_type":[0,0,0,0,0,0,0,0,0,0,0,0,0,0,0,0,0,0,0,0,0,0,0,0,0,0,0,0,0,0,0],"sum_hessian":[1.0729E4,7.772E3,2.957E3,7.66E3,1.12E2,2.169E3,7.88E2,5.7E1,7.603E3,4.7E1,6.5E1,1.648E3,5.21E2,7.8E1,7.1E2,3.8E1,1.9E1,5.379E3,2.224E3,3.2E1,1.5E1,4.4E1,2.1E1,1.233E3,4.15E2,3.87E2,1.34E2,6E1,1.8E1,5.57E2,1.53E2],"tree_param":{"num_deleted":"0","num_feature":"85","num_nodes":"31","size_leaf_vector":"1"}},{"base_weights":[1.2996406E-4,-1.05885845E-2,3.6186777E-2,-2.5941407E-2,2.7118111E-2,8.472378E-3,1.1330505E-1,-1.1569847E-2,-8.014032E-2,5.8263373E-2,-7.287902E-2,-2.197741E-3,1.1928096E-1,-1.1184061E-1,2.1075085E-1,-2.8058996E-3,3.1792384E-3,-4.641172E-3,-1.7571775E-2,8.589307E-3,-3.2185686E-3,-1.2027611E-2,7.184601E-3,1.6623802E-2,-9.7557326E-4,6.5078596E-3,3.0266464E-2,-4.411699E-2,1.7504744E-2,1.7912222E-2,6.8556055E-2],"categories":[],"categories_nodes":[],"categories_segments":[],"categories_sizes":[],"default_left":[0,0,0,0,0,0,0,0,0,0,0,0,0,0,0,0,0,0,0,0,0,0,0,0,0,0,0,0,0,0,0],"id":44,"left_children":[1,3,5,7,9,11,13,15,17,19,21,23,25,27,29,-1,-1,-1,-1,-1,-1,-1,-1,-1,-1,-1,-1,-1,-1,-1,-1],"loss_changes":[4.1472783E0,4.789399E0,5.254627E0,4.5783606E0,7.460208E0,2.1402986E0,1.4284244E1,3.3242407E0,3.9634352E0,4.5660834E0,3.9117217E0,2.1046777E0,1.5607362E0,1.868991E1,6.695183E0,0E0,0E0,0E0,0E0,0E0,0E0,0E0,0E0,0E0,0E0,0E0,0E0,0E0,0E0,0E0,0E0],"parents":[2147483647,0,0,1,1,2,2,3,3,4,4,5,5,6,6,7,7,8,8,9,9,10,10,11,11,12,12,13,13,14,14],"right_children":[2,4,6,8,10,12,14,16,18,20,22,24,26,28,30,-1,-1,-1,-1,-1,-1,-1,-1,-1,-1,-1,-1,-1,-1,-1,-1],"split_conditions":[1E0,1E0,1E0,1E0,1E0,9E0,4E0,1E0,1E0,1E0,1E0,4.5311646E1,1E0,4.8563766E1,7E0,-2.8058996E-3,3.1792384E-3,-4.641172E-3,-1.7571775E-2,8.589307E-3,-3.2185686E-3,-1.2027611E-2,7.184601E-3,1.6623802E-2,-9.7557326E-4,6.5078596E-3,3.0266464E-2,-4.411699E-2,1.7504744E-2,1.7912222E-2,6.8556055E-2],"split_indices":[67,54,39,29,56,2,0,16,39,71,69,84,4,84,1,0,0,0,0,0,0,0,0,0,0,0,0,0,0,0,0],"split_type":[0,0,0,0,0,0,0,0,0,0,0,0,0,0,0,0,0,0,0,0,0,0,0,0,0,0,0,0,0,0,0],"sum_hessian":[1.0729E4,8.271E3,2.458E3,5.878E3,2.393E3,1.809E3,6.49E2,4.647E3,1.231E3,1.825E3,5.68E2,1.651E3,1.58E2,1.96E2,4.53E2,3.367E3,1.28E3,9.11E2,3.2E2,1.398E3,4.27E2,4.28E2,1.4E2,7E1,1.581E3,1.23E2,3.5E1,9.1E1,1.05E2,4.26E2,2.7E1],"tree_param":{"num_deleted":"0","num_feature":"85","num_nodes":"31","size_leaf_vector":"1"}},{"base_weights":[1.254438E-4,1.0840992E-2,-3.407646E-2,-3.115204E-3,5.229743E-2,-5.1327676E-2,2.6514659E-2,-1.0844524E-1,3.396449E-3,1.7289093E-2,1.4921191E-1,-7.314993E-2,6.6392627E-3,-1.6912188E-2,1.6867699E-1,-4.079154E-3,-3.2702874E-2,-1.2417877E-3,4.846924E-3,-1.9133767E-3,1.2258069E-2,2.782704E-3,5.6208767E-2,-2.943235E-3,-2.0969909E-2,4.4032812E-2,-1.7653434E-3,3.37591E-3,-1.3644429E-2,3.2402605E-3,5.085103E-2],"categories":[],"categories_nodes":[],"categories_segments":[],"categories_sizes":[],"default_left":[0,0,0,0,0,0,0,0,0,0,0,0,0,0,0,0,0,0,0,0,0,0,0,0,0,0,0,0,0,0,0],"id":45,"left_children":[1,3,5,7,9,11,13,15,17,19,21,23,25,27,29,-1,-1,-1,-1,-1,-1,-1,-1,-1,-1,-1,-1,-1,-1,-1,-1],"loss_changes":[3.93283E0,4.7276917E0,2.6772537E0,4.1937933E0,6.9798346E0,2.5215693E0,3.5094926E0,5.251182E0,4.1055927E0,5.8047323E0,2.734817E1,8.637806E0,5.760141E0,2.645391E0,6.142829E0,0E0,0E0,0E0,0E0,0E0,0E0,0E0,0E0,0E0,0E0,0E0,0E0,0E0,0E0,0E0,0E0],"parents":[2147483647,0,0,1,1,2,2,3,3,4,4,5,5,6,6,7,7,8,8,9,9,10,10,11,11,12,12,13,13,14,14],"right_children":[2,4,6,8,10,12,14,16,18,20,22,24,26,28,30,-1,-1,-1,-1,-1,-1,-1,-1,-1,-1,-1,-1,-1,-1,-1,-1],"split_conditions":[1E0,1E0,1E0,2E0,1E0,1E0,1E0,1E0,1E0,1E0,1E0,1E0,4.7291157E1,6E0,1E0,-4.079154E-3,-3.2702874E-2,-1.2417877E-3,4.846924E-3,-1.9133767E-3,1.2258069E-2,2.782704E-3,5.6208767E-2,-2.943235E-3,-2.0969909E-2,4.4032812E-2,-1.7653434E-3,3.37591E-3,-1.3644429E-2,3.2402605E-3,5.085103E-2],"split_indices":[25,34,79,1,31,46,59,39,58,39,38,39,84,3,39,0,0,0,0,0,0,0,0,0,0,0,0,0,0,0,0],"split_type":[0,0,0,0,0,0,0,0,0,0,0,0,0,0,0,0,0,0,0,0,0,0,0,0,0,0,0,0,0,0,0],"sum_hessian":[1.0729E4,8.17E3,2.559E3,6.113E3,2.057E3,1.992E3,5.67E2,3.55E2,5.758E3,1.512E3,5.45E2,1.447E3,5.45E2,4.35E2,1.32E2,2.72E2,8.3E1,4.263E3,1.495E3,1.124E3,3.88E2,4.22E2,1.23E2,1.097E3,3.5E2,2.8E1,5.17E2,3.06E2,1.29E2,9.5E1,3.7E1],"tree_param":{"num_deleted":"0","num_feature":"85","num_nodes":"31","size_leaf_vector":"1"}},{"base_weights":[1.2206398E-4,-1.094102E-2,3.1097874E-2,-1.731213E-2,1.0154089E-1,7.375343E-3,1.00152425E-1,-3.474684E-3,-6.04989E-2,5.29329E-2,3.844951E-1,-1.1267891E-2,5.4644693E-2,-2.1599362E-5,3.5107386E-1,-3.5114263E-3,2.4132726E-3,-3.9559538E-3,-1.2195938E-2,8.659461E-3,-2.6499951E-2,3.932714E-3,7.7591635E-2,-4.778321E-3,1.9636592E-3,1.4036746E-3,1.6882965E-2,1.0109489E-2,-3.1460606E-2,1.8053388E-2,7.729187E-2],"categories":[],"categories_nodes":[],"categories_segments":[],"categories_sizes":[],"default_left":[0,0,0,0,0,0,0,0,0,0,0,0,0,0,0,0,0,0,0,0,0,0,0,0,0,0,0,0,0,0,0],"id":46,"left_children":[1,3,5,7,9,11,13,15,17,19,21,23,25,27,29,-1,-1,-1,-1,-1,-1,-1,-1,-1,-1,-1,-1,-1,-1,-1,-1],"loss_changes":[3.6773825E0,5.6681886E0,4.625393E0,4.472188E0,5.8112745E0,1.8538922E0,1.8148064E1,4.952644E0,2.332265E0,3.9078267E0,8.346063E0,1.7038252E0,2.7565362E0,1.6477406E1,1.4680391E1,0E0,0E0,0E0,0E0,0E0,0E0,0E0,0E0,0E0,0E0,0E0,0E0,0E0,0E0,0E0,0E0],"parents":[2147483647,0,0,1,1,2,2,3,3,4,4,5,5,6,6,7,7,8,8,9,9,10,10,11,11,12,12,13,13,14,14],"right_children":[2,4,6,8,10,12,14,16,18,20,22,24,26,28,30,-1,-1,-1,-1,-1,-1,-1,-1,-1,-1,-1,-1,-1,-1,-1,-1],"split_conditions":[1E0,1E1,1E0,1E0,1E0,1E0,1E0,5E0,1E0,6.741163E1,1E0,6E0,1E0,5.646283E1,1E0,-3.5114263E-3,2.4132726E-3,-3.9559538E-3,-1.2195938E-2,8.659461E-3,-2.6499951E-2,3.932714E-3,7.7591635E-2,-4.778321E-3,1.9636592E-3,1.4036746E-3,1.6882965E-2,1.0109489E-2,-3.1460606E-2,1.8053388E-2,7.729187E-2],"split_indices":[20,2,39,51,17,58,26,0,39,84,14,0,35,84,30,0,0,0,0,0,0,0,0,0,0,0,0,0,0,0,0],"split_type":[0,0,0,0,0,0,0,0,0,0,0,0,0,0,0,0,0,0,0,0,0,0,0,0,0,0,0,0,0,0,0],"sum_hessian":[1.0729E4,7.906E3,2.823E3,7.483E3,4.23E2,2.102E3,7.21E2,5.668E3,1.815E3,3.62E2,6.1E1,1.508E3,5.94E2,5.16E2,2.05E2,2.641E3,3.027E3,1.355E3,4.6E2,3.28E2,3.4E1,3.3E1,2.8E1,6.91E2,8.17E2,4.39E2,1.55E2,3.91E2,1.25E2,1.47E2,5.8E1],"tree_param":{"num_deleted":"0","num_feature":"85","num_nodes":"31","size_leaf_vector":"1"}},{"base_weights":[1.2252352E-4,1.0287144E-2,-3.2707207E-2,-2.7899488E-3,5.1057532E-2,-3.421303E-2,1.8930288E-1,-1.6873714E-2,4.8209406E-2,1.8108865E-2,1.4017542E-1,-6.5340064E-2,4.156589E-2,-4.4105095E-3,3.5361205E-3,8.572004E-4,1.5600818E-2,2.3461673E-2,1.0550548E-3,6.79989E-3,5.7047673E-2,-9.841988E-3,1.9086887E-3,-3.331441E-4,2.027708E-2],"categories":[],"categories_nodes":[],"categories_segments":[],"categories_sizes":[],"default_left":[0,0,0,0,0,0,0,0,0,0,0,0,0,0,0,0,0,0,0,0,0,0,0,0,0],"id":47,"left_children":[1,3,5,7,9,11,-1,13,15,17,19,21,23,-1,-1,-1,-1,-1,-1,-1,-1,-1,-1,-1,-1],"loss_changes":[3.580956E0,4.36884E0,7.4215984E0,4.457635E0,5.8407288E0,5.9845643E0,0E0,6.9188313E0,5.7371187E0,2.3769014E0,1.6639166E1,5.023383E0,5.3493137E0,0E0,0E0,0E0,0E0,0E0,0E0,0E0,0E0,0E0,0E0,0E0,0E0],"parents":[2147483647,0,0,1,1,2,2,3,3,4,4,5,5,7,7,8,8,9,9,10,10,11,11,12,12],"right_children":[2,4,6,8,10,12,-1,14,16,18,20,22,24,-1,-1,-1,-1,-1,-1,-1,-1,-1,-1,-1,-1],"split_conditions":[1E0,1E0,1.2E1,1E0,1E0,6E0,1.8930288E-1,1E0,1E0,4.5311646E1,5.709565E1,1E0,1E0,-4.4105095E-3,3.5361205E-3,8.572004E-4,1.5600818E-2,2.3461673E-2,1.0550548E-3,6.79989E-3,5.7047673E-2,-9.841988E-3,1.9086887E-3,-3.331441E-4,2.027708E-2],"split_indices":[65,49,0,53,39,0,0,48,62,84,84,58,39,0,0,0,0,0,0,0,0,0,0,0,0],"split_type":[0,0,0,0,0,0,0,0,0,0,0,0,0,0,0,0,0,0,0,0,0,0,0,0,0],"sum_hessian":[1.0729E4,8.193E3,2.536E3,6.204E3,1.989E3,2.535E3,1E0,4.862E3,1.342E3,1.453E3,5.36E2,1.797E3,7.38E2,3.196E3,1.666E3,9.82E2,3.6E2,4.8E1,1.405E3,4.6E2,7.6E1,1.291E3,5.06E2,5.78E2,1.6E2],"tree_param":{"num_deleted":"0","num_feature":"85","num_nodes":"25","size_leaf_vector":"1"}},{"base_weights":[1.3871754E-4,1.106797E-2,-2.9014718E-2,1.3786657E-2,-1.7246898E-1,-1.6335727E-1,-1.1932678E-2,-9.865016E-4,6.0272865E-2,-9.212182E-2,-3.4399554E-1,-8.6343266E-2,-3.2756498E-1,-2.9414255E-2,5.6300975E-2,-2.2117786E-4,2.6280228E-2,1.0569068E-2,-6.4039156E-3,-1.7291585E-2,2.9534442E-2,-4.5861598E-2,-1.2085736E-5,-2.828815E-3,-1.860251E-2,3.0136842E-2,-3.825427E-2,6.405287E-2,-3.1674288E-3,3.0778938E-3,4.056651E-2],"categories":[],"categories_nodes":[],"categories_segments":[],"categories_sizes":[],"default_left":[0,0,0,0,0,0,0,0,0,0,0,0,0,0,0,0,0,0,0,0,0,0,0,0,0,0,0,0,0,0,0],"id":48,"left_children":[1,3,5,7,9,11,13,15,17,19,21,23,25,27,29,-1,-1,-1,-1,-1,-1,-1,-1,-1,-1,-1,-1,-1,-1,-1,-1],"loss_changes":[3.41917E0,3.8969138E0,6.7127666E0,5.282526E0,1.5394211E0,4.144993E0,3.0994408E0,1.8875067E0,1.0480059E1,2.5241613E0,1.4188867E0,1.3026088E0,3.745904E0,3.151432E0,4.7132506E0,0E0,0E0,0E0,0E0,0E0,0E0,0E0,0E0,0E0,0E0,0E0,0E0,0E0,0E0,0E0,0E0],"parents":[2147483647,0,0,1,1,2,2,3,3,4,4,5,5,6,6,7,7,8,8,9,9,10,10,11,11,12,12,13,13,14,14],"right_children":[2,4,6,8,10,12,14,16,18,20,22,24,26,28,30,-1,-1,-1,-1,-1,-1,-1,-1,-1,-1,-1,-1,-1,-1,-1,-1],"split_conditions":[1E0,9E0,4.94473E1,1E0,4.8923653E1,1E0,1E0,1.2E1,1E0,1E0,1E0,1E0,4.375584E1,4.951687E1,1E1,-2.2117786E-4,2.6280228E-2,1.0569068E-2,-6.4039156E-3,-1.7291585E-2,2.9534442E-2,-4.5861598E-2,-1.2085736E-5,-2.828815E-3,-1.860251E-2,3.0136842E-2,-3.825427E-2,6.405287E-2,-3.1674288E-3,3.0778938E-3,4.056651E-2],"split_indices":[70,3,84,39,84,39,67,2,6,62,36,38,84,84,2,0,0,0,0,0,0,0,0,0,0,0,0,0,0,0,0],"split_type":[0,0,0,0,0,0,0,0,0,0,0,0,0,0,0,0,0,0,0,0,0,0,0,0,0,0,0,0,0,0,0],"sum_hessian":[1.0729E4,7.804E3,2.925E3,7.691E3,1.13E2,3.29E2,2.596E3,5.837E3,1.854E3,7.8E1,3.5E1,2.25E2,1.04E2,2.067E3,5.29E2,5.811E3,2.6E1,1.358E3,4.96E2,6.5E1,1.3E1,2.6E1,9E0,1.43E2,8.2E1,8E0,9.6E1,6E0,2.061E3,4.94E2,3.5E1],"tree_param":{"num_deleted":"0","num_feature":"85","num_nodes":"31","size_leaf_vector":"1"}},{"base_weights":[1.3151074E-4,-1.0640623E-2,2.8919829E-2,4.0620167E-4,-4.473512E-2,4.8802894E-2,-3.5468295E-2,1.2932648E-2,-4.662129E-2,-2.1510134E-2,-1.14316486E-1,7.7230126E-2,-3.3108827E-2,-6.906295E-2,9.7004004E-2,-4.288143E-4,6.6717127E-3,-8.325105E-3,3.5965645E-3,-5.8639445E-5,-5.839768E-3,4.772414E-5,-3.0779174E-2,1.2138904E-2,-3.076214E-3,-4.5422334E-3,1.8309833E-3,-4.691343E-3,-3.296454E-2,5.5628596E-3,1.9679381E-1],"categories":[],"categories_nodes":[],"categories_segments":[],"categories_sizes":[],"default_left":[0,0,0,0,0,0,0,0,0,0,0,0,0,0,0,0,0,0,0,0,0,0,0,0,0,0,0,0,0,0,0],"id":49,"left_children":[1,3,5,7,9,11,13,15,17,19,21,23,25,27,29,-1,-1,-1,-1,-1,-1,-1,-1,-1,-1,-1,-1,-1,-1,-1,-1],"loss_changes":[3.3278055E0,2.9411678E0,3.7425725E0,3.475629E0,3.085767E0,5.2021494E0,3.0774484E0,4.3155046E0,3.7571924E0,1.1067631E0,1.06164055E1,7.9104404E0,3.6552268E-1,3.1647842E0,1.0728019E1,0E0,0E0,0E0,0E0,0E0,0E0,0E0,0E0,0E0,0E0,0E0,0E0,0E0,0E0,0E0,0E0],"parents":[2147483647,0,0,1,1,2,2,3,3,4,4,5,5,6,6,7,7,8,8,9,9,10,10,11,11,12,12,13,13,14,14],"right_children":[2,4,6,8,10,12,14,16,18,20,22,24,26,28,30,-1,-1,-1,-1,-1,-1,-1,-1,-1,-1,-1,-1,-1,-1,-1,-1],"split_conditions":[1E0,1E0,1E0,1E0,1E0,1E0,1E0,1E0,1E0,1E0,1E0,1E0,1E0,9E0,6.417418E1,-4.288143E-4,6.6717127E-3,-8.325105E-3,3.5965645E-3,-5.8639445E-5,-5.839768E-3,4.772414E-5,-3.0779174E-2,1.2138904E-2,-3.076214E-3,-4.5422334E-3,1.8309833E-3,-4.691343E-3,-3.296454E-2,5.5628596E-3,1.9679381E-1],"split_indices":[80,56,55,29,39,36,73,39,54,38,82,28,25,2,84,0,0,0,0,0,0,0,0,0,0,0,0,0,0,0,0],"split_type":[0,0,0,0,0,0,0,0,0,0,0,0,0,0,0,0,0,0,0,0,0,0,0,0,0,0,0,0,0,0,0],"sum_hessian":[1.0729E4,7.808E3,2.921E3,5.898E3,1.91E3,2.232E3,6.89E2,4.658E3,1.24E3,1.433E3,4.77E2,1.657E3,5.75E2,5.5E2,1.39E2,3.529E3,1.129E3,8.59E2,3.81E2,9.15E2,5.18E2,3E2,1.77E2,1.176E3,4.81E2,4.64E2,1.11E2,5.08E2,4.2E1,1.37E2,2E0],"tree_param":{"num_deleted":"0","num_feature":"85","num_nodes":"31","size_leaf_vector":"1"}},{"base_weights":[1.3103057E-4,9.513652E-3,-3.2091737E-2,2.2695072E-2,-3.384439E-2,-3.4214724E-2,8.277595E-1,6.16209E-3,6.1332278E-2,-5.7598248E-2,2.6512288E-2,-5.2521832E-2,2.237527E-2,1.8157493E-1,-1.2017271E-1,1.1671663E-2,-3.7672E-4,3.0900587E-3,1.41766295E-2,-2.224788E-2,-4.921742E-3,