{"learner":{"attributes":{},"feature_names":["G count","A count","C count","T count","G at pos 1","A at pos 1","C at pos 1","T at pos 1","G at pos 2","A at pos 2","C at pos 2","T at pos 2","G at pos 3","A at pos 3","C at pos 3","T at pos 3","G at pos 4","A at pos 4","C at pos 4","T at pos 4","G at pos 5","A at pos 5","C at pos 5","T at pos 5","G at pos 6","A at pos 6","C at pos 6","T at pos 6","G at pos 7","A at pos 7","C at pos 7","T at pos 7","G at pos 8","A at pos 8","C at pos 8","T at pos 8","G at pos 9","A at pos 9","C at pos 9","T at pos 9","G at pos 10","A at pos 10","C at pos 10","T at pos 10","G at pos 11","A at pos 11","C at pos 11","T at pos 11","G at pos 12","A at pos 12","C at pos 12","T at pos 12","G at pos 13","A at pos 13","C at pos 13","T at pos 13","G at pos 14","A at pos 14","C at pos 14","T at pos 14","G at pos 15","A at pos 15","C at pos 15","T at pos 15","G at pos 16","A at pos 16","C at pos 16","T at pos 16","G at pos 17","A at pos 17","C at pos 17","T at pos 17","G at pos 18","A at pos 18","C at pos 18","T at pos 18","G at pos 19","A at pos 19","C at pos 19","T at pos 19","G at pos 20","A at pos 20","C at pos 20","T at pos 20","Melting Temperature"],"feature_types":["float","float","float","float","float","float","float","float","float","float","float","float","float","float","float","float","float","float","float","float","float","float","float","float","float","float","float","float","float","float","float","float","float","float","float","float","float","float","float","float","float","float","float","float","float","float","float","float","float","float","float","float","float","float","float","float","float","float","float","float","float","float","float","float","float","float","float","float","float","float","float","float","float","float","float","float","float","float","float","float","float","float","float","float","float"],"gradient_booster":{"model":{"gbtree_model_param":{"num_parallel_tree":"1","num_trees":"100"},"iteration_indptr":[0,1,2,3,4,5,6,7,8,9,10,11,12,13,14,15,16,17,18,19,20,21,22,23,24,25,26,27,28,29,30,31,32,33,34,35,36,37,38,39,40,41,42,43,44,45,46,47,48,49,50,51,52,53,54,55,56,57,58,59,60,61,62,63,64,65,66,67,68,69,70,71,72,73,74,75,76,77,78,79,80,81,82,83,84,85,86,87,88,89,90,91,92,93,94,95,96,97,98,99,100],"tree_info":[0,0,0,0,0,0,0,0,0,0,0,0,0,0,0,0,0,0,0,0,0,0,0,0,0,0,0,0,0,0,0,0,0,0,0,0,0,0,0,0,0,0,0,0,0,0,0,0,0,0,0,0,0,0,0,0,0,0,0,0,0,0,0,0,0,0,0,0,0,0,0,0,0,0,0,0,0,0,0,0,0,0,0,0,0,0,0,0,0,0,0,0,0,0,0,0,0,0,0,0],"trees":[{"base_weights":[-5.152942E-9,-3.5709554E-1,1.15822E0,-2.4945572E-1,-5.574599E-1,1.0120517E0,1.538714E0,-3.2196602E-1,-1.950572E-2,-5.4267853E-1,-6.0238814E-1,1.0719978E0,4.4881243E-1,9.8658377E-1,1.5898458E0,-3.6658417E-2,-2.0782344E-2,2.082794E-2,-2.9338926E-2,-5.5551153E-2,-4.9002945E-2,-6.0771074E-2,-4.3490995E-2,1.0872179E-1,1.6136218E-2,2.757946E-2,1.18092656E-1,6.356783E-2,1.7505531E-1,1.47642E-1,1.7840594E-1],"categories":[],"categories_nodes":[],"categories_segments":[],"categories_sizes":[],"default_left":[0,0,0,0,0,0,0,0,0,0,0,0,0,0,0,0,0,0,0,0,0,0,0,0,0,0,0,0,0,0,0],"id":0,"left_children":[1,3,5,7,9,11,13,15,17,19,21,23,25,27,29,-1,-1,-1,-1,-1,-1,-1,-1,-1,-1,-1,-1,-1,-1,-1,-1],"loss_changes":[4.21743E3,1.679555E2,1.3208838E2,8.456296E1,1.4814453E0,5.8234497E1,1.7205322E1,1.9561768E1,7.5985596E1,1.1189575E0,3.2847595E-1,2.1598755E1,2.1081333E1,1.4703991E1,1.0737549E1,0E0,0E0,0E0,0E0,0E0,0E0,0E0,0E0,0E0,0E0,0E0,0E0,0E0,0E0,0E0,0E0],"parents":[2147483647,0,0,1,1,2,2,3,3,4,4,5,5,6,6,7,7,8,8,9,9,10,10,11,11,12,12,13,13,14,14],"right_children":[2,4,6,8,10,12,14,16,18,20,22,24,26,28,30,-1,-1,-1,-1,-1,-1,-1,-1,-1,-1,-1,-1,-1,-1,-1,-1],"split_conditions":[1E0,1E0,1E0,1E0,1E0,8E0,4.770584E1,1E0,1E0,1E0,6.8163956E1,9E0,1E0,1E0,1E0,-3.6658417E-2,-2.0782344E-2,2.082794E-2,-2.9338926E-2,-5.5551153E-2,-4.9002945E-2,-6.0771074E-2,-4.3490995E-2,1.0872179E-1,1.6136218E-2,2.757946E-2,1.18092656E-1,6.356783E-2,1.7505531E-1,1.47642E-1,1.7840594E-1],"split_indices":[11,8,4,7,6,3,84,18,9,27,84,1,66,80,74,0,0,0,0,0,0,0,0,0,0,0,0,0,0,0,0],"split_type":[0,0,0,0,0,0,0,0,0,0,0,0,0,0,0,0,0,0,0,0,0,0,0,0,0,0,0,0,0,0,0],"sum_hessian":[1.0195E4,7.793E3,2.402E3,5.071E3,2.722E3,1.738E3,6.64E2,3.855E3,1.216E3,2.058E3,6.64E2,1.57E3,1.68E2,5.8E1,6.06E2,2.77E3,1.085E3,6.64E2,5.52E2,1.647E3,4.11E2,6.41E2,2.3E1,1.544E3,2.6E1,1.37E2,3.1E1,4.1E1,1.7E1,3.88E2,2.18E2],"tree_param":{"num_deleted":"0","num_feature":"85","num_nodes":"31","size_leaf_vector":"1"}},{"base_weights":[5.496456E-5,-3.2142124E-1,1.0427456E0,-2.2452316E-1,-5.017906E-1,9.1100204E-1,1.3856918E0,-2.897843E-1,-1.7562144E-2,-5.175933E-1,-4.6593443E-1,9.648775E-1,4.0479317E-1,1.1600378E0,1.4931473E0,-3.2993898E-2,-1.8706022E-2,1.8748278E-2,-2.641034E-2,-5.3553488E-2,-4.8196685E-2,-4.902184E-2,-4.0395662E-2,1.03899315E-1,7.701725E-2,2.48415E-2,1.0665243E-1,9.697156E-2,1.5597276E-1,1.5398902E-1,1.0413573E-1],"categories":[],"categories_nodes":[],"categories_segments":[],"categories_sizes":[],"default_left":[0,0,0,0,0,0,0,0,0,0,0,0,0,0,0,0,0,0,0,0,0,0,0,0,0,0,0,0,0,0,0],"id":1,"left_children":[1,3,5,7,9,11,13,15,17,19,21,23,25,27,29,-1,-1,-1,-1,-1,-1,-1,-1,-1,-1,-1,-1,-1,-1,-1,-1],"loss_changes":[3.4180369E3,1.3610657E2,1.0730713E2,6.849994E1,1.3017578E0,4.703589E1,1.4392578E1,1.58437195E1,6.1571335E1,9.442444E-1,1.070755E0,2.1870361E1,1.7223232E1,1.514679E1,7.8361816E0,0E0,0E0,0E0,0E0,0E0,0E0,0E0,0E0,0E0,0E0,0E0,0E0,0E0,0E0,0E0,0E0],"parents":[2147483647,0,0,1,1,2,2,3,3,4,4,5,5,6,6,7,7,8,8,9,9,10,10,11,11,12,12,13,13,14,14],"right_children":[2,4,6,8,10,12,14,16,18,20,22,24,26,28,30,-1,-1,-1,-1,-1,-1,-1,-1,-1,-1,-1,-1,-1,-1,-1,-1],"split_conditions":[1E0,1E0,1E0,1E0,1E0,8E0,5.1351536E1,1E0,1E0,1E0,1E0,1E0,1E0,1E0,6E0,-3.2993898E-2,-1.8706022E-2,1.8748278E-2,-2.641034E-2,-5.3553488E-2,-4.8196685E-2,-4.902184E-2,-4.0395662E-2,1.03899315E-1,7.701725E-2,2.48415E-2,1.0665243E-1,9.697156E-2,1.5597276E-1,1.5398902E-1,1.0413573E-1],"split_indices":[11,8,4,7,4,3,84,18,9,7,54,82,66,62,1,0,0,0,0,0,0,0,0,0,0,0,0,0,0,0,0],"split_type":[0,0,0,0,0,0,0,0,0,0,0,0,0,0,0,0,0,0,0,0,0,0,0,0,0,0,0,0,0,0,0],"sum_hessian":[1.0195E4,7.793E3,2.402E3,5.071E3,2.722E3,1.738E3,6.64E2,3.855E3,1.216E3,1.88E3,8.42E2,1.57E3,1.68E2,2.18E2,4.46E2,2.77E3,1.085E3,6.64E2,5.52E2,1.241E3,6.39E2,6E2,2.42E2,1.134E3,4.36E2,1.37E2,3.1E1,1.5E2,6.8E1,4.02E2,4.4E1],"tree_param":{"num_deleted":"0","num_feature":"85","num_nodes":"31","size_leaf_vector":"1"}},{"base_weights":[1.05668E-4,-2.8931126E-1,9.3881375E-1,-2.0208254E-1,-4.5168173E-1,8.2008153E-1,1.2478912E0,-2.608193E-1,-1.5812222E-2,-4.3926948E-1,-4.918038E-1,8.486842E-1,3.2736972E-2,7.876417E-1,1.2905712E0,-2.2223333E-2,-3.5417404E-2,1.6876271E-2,-2.3774082E-2,-4.5552142E-2,-4.0299352E-2,-5.0151017E-2,-4.1144222E-2,7.7314645E-2,1.0458287E-1,-1.2735183E-2,6.45945E-2,4.7193732E-2,1.4805274E-1,1.19024634E-1,1.4628808E-1],"categories":[],"categories_nodes":[],"categories_segments":[],"categories_sizes":[],"default_left":[0,0,0,0,0,0,0,0,0,0,0,0,0,0,0,0,0,0,0,0,0,0,0,0,0,0,0,0,0,0,0],"id":2,"left_children":[1,3,5,7,9,11,13,15,17,19,21,23,25,27,29,-1,-1,-1,-1,-1,-1,-1,-1,-1,-1,-1,-1,-1,-1,-1,-1],"loss_changes":[2.7703008E3,1.10298035E2,8.7160645E1,5.548819E1,1.1400146E0,3.9134766E1,1.2046387E1,1.381131E1,4.9891422E1,1.0479736E0,2.8897095E-1,2.417981E1,6.168662E0,1.2207363E1,8.752014E0,0E0,0E0,0E0,0E0,0E0,0E0,0E0,0E0,0E0,0E0,0E0,0E0,0E0,0E0,0E0,0E0],"parents":[2147483647,0,0,1,1,2,2,3,3,4,4,5,5,6,6,7,7,8,8,9,9,10,10,11,11,12,12,13,13,14,14],"right_children":[2,4,6,8,10,12,14,16,18,20,22,24,26,28,30,-1,-1,-1,-1,-1,-1,-1,-1,-1,-1,-1,-1,-1,-1,-1,-1],"split_conditions":[1E0,1E0,1E0,1E0,1E0,9E0,4.770584E1,1E0,1E0,1E0,8E0,1E0,1E0,1E0,1E0,-2.2223333E-2,-3.5417404E-2,1.6876271E-2,-2.3774082E-2,-4.5552142E-2,-4.0299352E-2,-5.0151017E-2,-4.1144222E-2,7.7314645E-2,1.0458287E-1,-1.2735183E-2,6.45945E-2,4.7193732E-2,1.4805274E-1,1.19024634E-1,1.4628808E-1],"split_indices":[11,8,4,7,25,3,84,5,9,4,0,18,25,80,74,0,0,0,0,0,0,0,0,0,0,0,0,0,0,0,0],"split_type":[0,0,0,0,0,0,0,0,0,0,0,0,0,0,0,0,0,0,0,0,0,0,0,0,0,0,0,0,0,0,0],"sum_hessian":[1.0195E4,7.793E3,2.402E3,5.071E3,2.722E3,1.738E3,6.64E2,3.855E3,1.216E3,2.088E3,6.34E2,1.677E3,6.1E1,5.8E1,6.06E2,2.73E3,1.125E3,6.64E2,5.52E2,1.434E3,6.54E2,5.61E2,7.3E1,1.216E3,4.61E2,4.9E1,1.2E1,4.1E1,1.7E1,3.88E2,2.18E2],"tree_param":{"num_deleted":"0","num_feature":"85","num_nodes":"31","size_leaf_vector":"1"}},{"base_weights":[1.3949115E-4,-2.6041114E-1,8.452213E-1,-1.8188702E-1,-4.065786E-1,7.3820776E-1,1.1237946E0,-2.3475231E-1,-1.4236667E-2,-3.9477643E-1,-4.425096E-1,7.835502E-1,3.1234276E-1,1.0376692E0,1.3416461E0,-2.7073726E-2,-1.4271818E-2,1.5191182E-2,-2.1400971E-2,-3.8076695E-2,-4.4031665E-2,-4.5313057E-2,-3.705362E-2,8.5015476E-2,6.0876828E-2,1.7039252E-2,9.147425E-2,4.1590016E-2,1.0962077E-1,1.3745104E-1,-1.1636755E-2],"categories":[],"categories_nodes":[],"categories_segments":[],"categories_sizes":[],"default_left":[0,0,0,0,0,0,0,0,0,0,0,0,0,0,0,0,0,0,0,0,0,0,0,0,0,0,0,0,0,0,0],"id":3,"left_children":[1,3,5,7,9,11,13,15,17,19,21,23,25,27,29,-1,-1,-1,-1,-1,-1,-1,-1,-1,-1,-1,-1,-1,-1,-1,-1],"loss_changes":[2.2452427E3,8.9382996E1,7.08064E1,4.4949203E1,9.80072E-1,3.3335022E1,1.1084961E1,1.2731827E1,4.0427162E1,1.1459656E0,3.4043884E-1,1.7770874E1,1.4295458E1,1.705127E1,9.024506E0,0E0,0E0,0E0,0E0,0E0,0E0,0E0,0E0,0E0,0E0,0E0,0E0,0E0,0E0,0E0,0E0],"parents":[2147483647,0,0,1,1,2,2,3,3,4,4,5,5,6,6,7,7,8,8,9,9,10,10,11,11,12,12,13,13,14,14],"right_children":[2,4,6,8,10,12,14,16,18,20,22,24,26,28,30,-1,-1,-1,-1,-1,-1,-1,-1,-1,-1,-1,-1,-1,-1,-1,-1],"split_conditions":[1E0,1E0,1E0,1E0,1E0,8E0,1E0,1E0,1E0,1E0,6.3236893E1,1E0,1E0,4.788942E1,6.3953163E1,-2.7073726E-2,-1.4271818E-2,1.5191182E-2,-2.1400971E-2,-3.8076695E-2,-4.4031665E-2,-4.5313057E-2,-3.705362E-2,8.5015476E-2,6.0876828E-2,1.7039252E-2,9.147425E-2,4.1590016E-2,1.0962077E-1,1.3745104E-1,-1.1636755E-2],"split_indices":[11,8,4,7,6,3,80,18,9,53,84,82,66,84,84,0,0,0,0,0,0,0,0,0,0,0,0,0,0,0,0],"split_type":[0,0,0,0,0,0,0,0,0,0,0,0,0,0,0,0,0,0,0,0,0,0,0,0,0,0,0,0,0,0,0],"sum_hessian":[1.0195E4,7.793E3,2.402E3,5.071E3,2.722E3,1.738E3,6.64E2,3.855E3,1.216E3,2.058E3,6.64E2,1.57E3,1.68E2,4.8E2,1.84E2,2.77E3,1.085E3,6.64E2,5.52E2,1.581E3,4.77E2,5.74E2,9E1,1.134E3,4.36E2,1.37E2,3.1E1,4.2E1,4.38E2,1.8E2,4E0],"tree_param":{"num_deleted":"0","num_feature":"85","num_nodes":"31","size_leaf_vector":"1"}},{"base_weights":[1.5686979E-4,-2.3439723E-1,7.609203E-1,-1.6370769E-1,-3.6598116E-1,6.645333E-1,1.0118318E0,-2.112878E-1,-1.2818105E-2,-3.547932E-1,-4.022106E-1,6.8863446E-1,1.529652E-3,9.2941445E-1,1.2190814E0,-1.7670913E-2,-2.949673E-2,1.3674346E-2,-1.9264745E-2,-3.428161E-2,-3.9287142E-2,-3.464265E-2,-4.1453615E-2,6.210463E-2,8.6518444E-2,-1.4645681E-2,5.705907E-2,9.548597E-2,-5.8106417E-3,1.410589E-1,7.934056E-2],"categories":[],"categories_nodes":[],"categories_segments":[],"categories_sizes":[],"default_left":[0,0,0,0,0,0,0,0,0,0,0,0,0,0,0,0,0,0,0,0,0,0,0,0,0,0,0,0,0,0,0],"id":4,"left_children":[1,3,5,7,9,11,13,15,17,19,21,23,25,27,29,-1,-1,-1,-1,-1,-1,-1,-1,-1,-1,-1,-1,-1,-1,-1,-1],"loss_changes":[1.8195544E3,7.243683E1,5.7443237E1,3.641092E1,9.6102905E-1,2.7786621E1,1.0225769E1,1.1105301E1,3.2758232E1,8.180237E-1,2.930069E-1,1.9485718E1,5.304793E0,1.211676E1,1.4043579E1,0E0,0E0,0E0,0E0,0E0,0E0,0E0,0E0,0E0,0E0,0E0,0E0,0E0,0E0,0E0,0E0],"parents":[2147483647,0,0,1,1,2,2,3,3,4,4,5,5,6,6,7,7,8,8,9,9,10,10,11,11,12,12,13,13,14,14],"right_children":[2,4,6,8,10,12,14,16,18,20,22,24,26,28,30,-1,-1,-1,-1,-1,-1,-1,-1,-1,-1,-1,-1,-1,-1,-1,-1],"split_conditions":[1E0,1E0,1E0,1E0,1E0,9E0,5.6195553E1,1E0,1E0,1E0,3E0,1E0,1E0,5.6024864E1,1E0,-1.7670913E-2,-2.949673E-2,1.3674346E-2,-1.9264745E-2,-3.428161E-2,-3.9287142E-2,-3.464265E-2,-4.1453615E-2,6.210463E-2,8.6518444E-2,-1.4645681E-2,5.705907E-2,9.548597E-2,-5.8106417E-3,1.410589E-1,7.934056E-2],"split_indices":[11,8,4,7,25,3,84,5,9,43,3,18,25,84,78,0,0,0,0,0,0,0,0,0,0,0,0,0,0,0,0],"split_type":[0,0,0,0,0,0,0,0,0,0,0,0,0,0,0,0,0,0,0,0,0,0,0,0,0,0,0,0,0,0,0],"sum_hessian":[1.0195E4,7.793E3,2.402E3,5.071E3,2.722E3,1.738E3,6.64E2,3.855E3,1.216E3,2.088E3,6.34E2,1.677E3,6.1E1,4.79E2,1.85E2,2.73E3,1.125E3,6.64E2,5.52E2,1.596E3,4.92E2,1.2E2,5.14E2,1.216E3,4.61E2,4.9E1,1.2E1,4.67E2,1.2E1,1.26E2,5.9E1],"tree_param":{"num_deleted":"0","num_feature":"85","num_nodes":"31","size_leaf_vector":"1"}},{"base_weights":[1.704732E-4,-2.1098348E-1,6.850368E-1,-1.4734732E-1,-3.29438E-1,5.9818983E-1,9.111148E-1,-1.9017126E-1,-1.154089E-2,-3.4144178E-1,-2.9994965E-1,6.363386E-1,2.4002446E-1,8.301478E-1,1.1151636E0,-2.2241963E-2,-1.0771229E-2,1.2308968E-2,-1.7341753E-2,-3.5304587E-2,-2.944744E-2,-3.2629047E-2,-2.0530425E-2,6.4989254E-2,-1.6281582E-2,1.1112062E-2,7.8842156E-2,9.2465304E-2,5.7662923E-2,9.8600015E-2,1.4761786E-1],"categories":[],"categories_nodes":[],"categories_segments":[],"categories_sizes":[],"default_left":[0,0,0,0,0,0,0,0,0,0,0,0,0,0,0,0,0,0,0,0,0,0,0,0,0,0,0,0,0,0,0],"id":5,"left_children":[1,3,5,7,9,11,13,15,17,19,21,23,25,27,29,-1,-1,-1,-1,-1,-1,-1,-1,-1,-1,-1,-1,-1,-1,-1,-1],"loss_changes":[1.474611E3,5.8702545E1,4.6635864E1,2.9495361E1,8.614502E-1,2.3608215E1,1.0060852E1,1.0229797E1,2.654409E1,9.468231E-1,1.9174728E0,1.7122437E1,1.1859084E1,1.0967041E1,7.2176666E0,0E0,0E0,0E0,0E0,0E0,0E0,0E0,0E0,0E0,0E0,0E0,0E0,0E0,0E0,0E0,0E0],"parents":[2147483647,0,0,1,1,2,2,3,3,4,4,5,5,6,6,7,7,8,8,9,9,10,10,11,11,12,12,13,13,14,14],"right_children":[2,4,6,8,10,12,14,16,18,20,22,24,26,28,30,-1,-1,-1,-1,-1,-1,-1,-1,-1,-1,-1,-1,-1,-1,-1,-1],"split_conditions":[1E0,1E0,1E0,1E0,1E0,8E0,1E0,1E0,1E0,1E0,1E0,9E0,1E0,1E0,1E0,-2.2241963E-2,-1.0771229E-2,1.2308968E-2,-1.7341753E-2,-3.5304587E-2,-2.944744E-2,-3.2629047E-2,-2.0530425E-2,6.4989254E-2,-1.6281582E-2,1.1112062E-2,7.8842156E-2,9.2465304E-2,5.7662923E-2,9.8600015E-2,1.4761786E-1],"split_indices":[11,8,4,7,80,3,18,18,9,27,73,1,66,25,62,0,0,0,0,0,0,0,0,0,0,0,0,0,0,0,0],"split_type":[0,0,0,0,0,0,0,0,0,0,0,0,0,0,0,0,0,0,0,0,0,0,0,0,0,0,0,0,0,0,0],"sum_hessian":[1.0195E4,7.793E3,2.402E3,5.071E3,2.722E3,1.738E3,6.64E2,3.855E3,1.216E3,1.927E3,7.95E2,1.57E3,1.68E2,4.79E2,1.85E2,2.77E3,1.085E3,6.64E2,5.52E2,1.54E3,3.87E2,6.2E2,1.75E2,1.544E3,2.6E1,1.37E2,3.1E1,3.47E2,1.32E2,1.39E2,4.6E1],"tree_param":{"num_deleted":"0","num_feature":"85","num_nodes":"31","size_leaf_vector":"1"}},{"base_weights":[1.9060404E-4,-1.8990515E-1,6.167558E-1,-1.326201E-1,-2.965375E-1,5.384506E-1,8.205994E-1,-1.711627E-1,-1.0390936E-2,-2.858192E-1,-3.2927805E-1,4.7259584E-1,7.1628976E-1,8.370461E-1,-6.865692E-2,-1.8604316E-2,-3.296733E-4,1.1079921E-2,-1.5610714E-2,-2.7317166E-2,-3.270798E-2,-3.438612E-2,-2.851381E-2,4.98609E-2,-1.0116441E-2,8.380093E-2,4.7898617E-2,8.986848E-2,5.9387952E-2,-7.931485E-2,6.656428E-2],"categories":[],"categories_nodes":[],"categories_segments":[],"categories_sizes":[],"default_left":[0,0,0,0,0,0,0,0,0,0,0,0,0,0,0,0,0,0,0,0,0,0,0,0,0,0,0,0,0,0,0],"id":6,"left_children":[1,3,5,7,9,11,13,15,17,19,21,23,25,27,29,-1,-1,-1,-1,-1,-1,-1,-1,-1,-1,-1,-1,-1,-1,-1,-1],"loss_changes":[1.1951537E3,4.7569885E1,3.7914856E1,2.3892555E1,8.614502E-1,2.0027924E1,9.783356E0,9.631386E0,2.1508749E1,9.851227E-1,3.300171E-1,1.903543E1,1.3116531E1,9.253723E0,7.443875E0,0E0,0E0,0E0,0E0,0E0,0E0,0E0,0E0,0E0,0E0,0E0,0E0,0E0,0E0,0E0,0E0],"parents":[2147483647,0,0,1,1,2,2,3,3,4,4,5,5,6,6,7,7,8,8,9,9,10,10,11,11,12,12,13,13,14,14],"right_children":[2,4,6,8,10,12,14,16,18,20,22,24,26,28,30,-1,-1,-1,-1,-1,-1,-1,-1,-1,-1,-1,-1,-1,-1,-1,-1],"split_conditions":[1E0,1E0,1E0,1E0,1E0,1E0,9E0,1E1,1E0,1E0,1E0,9E0,1E0,6E0,4.6218605E1,-1.8604316E-2,-3.296733E-4,1.1079921E-2,-1.5610714E-2,-2.7317166E-2,-3.270798E-2,-3.438612E-2,-2.851381E-2,4.98609E-2,-1.0116441E-2,8.380093E-2,4.7898617E-2,8.986848E-2,5.9387952E-2,-7.931485E-2,6.656428E-2],"split_indices":[11,8,4,7,6,18,3,2,9,53,76,3,26,1,84,0,0,0,0,0,0,0,0,0,0,0,0,0,0,0,0],"split_type":[0,0,0,0,0,0,0,0,0,0,0,0,0,0,0,0,0,0,0,0,0,0,0,0,0,0,0,0,0,0,0],"sum_hessian":[1.0195E4,7.793E3,2.402E3,5.071E3,2.722E3,1.738E3,6.64E2,3.855E3,1.216E3,2.058E3,6.64E2,1.271E3,4.67E2,6.52E2,1.2E1,3.541E3,3.14E2,6.64E2,5.52E2,1.581E3,4.77E2,4.94E2,1.7E2,1.216E3,5.5E1,3.07E2,1.6E2,5.18E2,1.34E2,6E0,6E0],"tree_param":{"num_deleted":"0","num_feature":"85","num_nodes":"31","size_leaf_vector":"1"}},{"base_weights":[1.8738979E-4,-1.7093341E-1,5.552083E-1,-1.19362704E-1,-2.6692888E-1,4.847041E-1,7.387447E-1,-1.5405133E-1,-9.355569E-3,-2.570419E-1,-2.9903442E-1,8.9077644E-2,5.126647E-1,6.624434E-1,9.3313485E-1,-1.23310825E-2,-2.2847256E-2,9.973596E-3,-1.4052467E-2,-2.6800273E-2,-2.1839848E-2,-3.0727679E-2,-2.3239585E-2,2.8953066E-2,-3.6441606E-2,4.4138685E-2,7.480726E-2,7.394903E-2,3.0995551E-2,9.635513E-2,-3.5456937E-2],"categories":[],"categories_nodes":[],"categories_segments":[],"categories_sizes":[],"default_left":[0,0,0,0,0,0,0,0,0,0,0,0,0,0,0,0,0,0,0,0,0,0,0,0,0,0,0,0,0,0,0],"id":7,"left_children":[1,3,5,7,9,11,13,15,17,19,21,23,25,27,29,-1,-1,-1,-1,-1,-1,-1,-1,-1,-1,-1,-1,-1,-1,-1,-1],"loss_changes":[9.6846643E2,3.8552765E1,3.0736877E1,1.9353294E1,7.874756E-1,1.9191101E1,9.2453E0,8.793373E0,1.74286E1,8.2629395E-1,2.7736664E-1,1.06503935E1,2.6919434E1,1.2833847E1,7.587631E0,0E0,0E0,0E0,0E0,0E0,0E0,0E0,0E0,0E0,0E0,0E0,0E0,0E0,0E0,0E0,0E0],"parents":[2147483647,0,0,1,1,2,2,3,3,4,4,5,5,6,6,7,7,8,8,9,9,10,10,11,11,12,12,13,13,14,14],"right_children":[2,4,6,8,10,12,14,16,18,20,22,24,26,28,30,-1,-1,-1,-1,-1,-1,-1,-1,-1,-1,-1,-1,-1,-1,-1,-1],"split_conditions":[1E0,1E0,1E0,1E0,1E0,4E0,1E0,1E0,1E0,1E0,8E0,1E0,1E0,6E0,6.3953163E1,-1.23310825E-2,-2.2847256E-2,9.973596E-3,-1.4052467E-2,-2.6800273E-2,-2.1839848E-2,-3.0727679E-2,-2.3239585E-2,2.8953066E-2,-3.6441606E-2,4.4138685E-2,7.480726E-2,7.394903E-2,3.0995551E-2,9.635513E-2,-3.5456937E-2],"split_indices":[11,8,4,7,25,2,80,5,9,35,0,63,80,1,84,0,0,0,0,0,0,0,0,0,0,0,0,0,0,0,0],"split_type":[0,0,0,0,0,0,0,0,0,0,0,0,0,0,0,0,0,0,0,0,0,0,0,0,0,0,0,0,0,0,0],"sum_hessian":[1.0195E4,7.793E3,2.402E3,5.071E3,2.722E3,1.738E3,6.64E2,3.855E3,1.216E3,2.088E3,6.34E2,1.15E2,1.623E3,4.8E2,1.84E2,2.73E3,1.125E3,6.64E2,5.52E2,1.622E3,4.66E2,5.61E2,7.3E1,8E1,3.5E1,1.248E3,3.75E2,3.93E2,8.7E1,1.8E2,4E0],"tree_param":{"num_deleted":"0","num_feature":"85","num_nodes":"31","size_leaf_vector":"1"}},{"base_weights":[1.8193679E-4,-1.5385827E-1,4.9980292E-1,-1.07434176E-1,-2.4027368E-1,4.3700555E-1,6.6742676E-1,-1.4568199E-1,-1.0863504E-2,-2.5183943E-1,-2.141818E-1,4.5983383E-1,-1.4363152E-1,9.950412E-1,5.793212E-1,-1.2322152E-2,-2.1998601E-2,-6.5868585E-3,1.5743619E-2,-2.6441902E-2,-2.0662524E-2,-2.3063343E-2,-1.4569755E-2,4.00613E-2,6.1252456E-2,-2.5835453E-2,5.3612497E-2,1.19623385E-1,5.4260578E-2,6.9346055E-2,3.599215E-2],"categories":[],"categories_nodes":[],"categories_segments":[],"categories_sizes":[],"default_left":[0,0,0,0,0,0,0,0,0,0,0,0,0,0,0,0,0,0,0,0,0,0,0,0,0,0,0,0,0,0,0],"id":8,"left_children":[1,3,5,7,9,11,13,15,17,19,21,23,25,27,29,-1,-1,-1,-1,-1,-1,-1,-1,-1,-1,-1,-1,-1,-1,-1,-1],"loss_changes":[7.8477856E2,3.1241821E1,2.5003113E1,1.8732449E1,7.677765E-1,2.3275452E1,1.8272156E1,6.0360184E0,1.3340937E1,1.0152283E0,9.161873E-1,1.4991211E1,5.3634176E0,1.1821594E1,1.2697205E1,0E0,0E0,0E0,0E0,0E0,0E0,0E0,0E0,0E0,0E0,0E0,0E0,0E0,0E0,0E0,0E0],"parents":[2147483647,0,0,1,1,2,2,3,3,4,4,5,5,6,6,7,7,8,8,9,9,10,10,11,11,12,12,13,13,14,14],"right_children":[2,4,6,8,10,12,14,16,18,20,22,24,26,28,30,-1,-1,-1,-1,-1,-1,-1,-1,-1,-1,-1,-1,-1,-1,-1,-1],"split_conditions":[1E0,1E0,1E0,1E0,1E0,9E0,4E0,1E0,1E0,1E0,1E0,1E0,1E0,1E0,1E0,-1.2322152E-2,-2.1998601E-2,-6.5868585E-3,1.5743619E-2,-2.6441902E-2,-2.0662524E-2,-2.3063343E-2,-1.4569755E-2,4.00613E-2,6.1252456E-2,-2.5835453E-2,5.3612497E-2,1.19623385E-1,5.4260578E-2,6.9346055E-2,3.599215E-2],"split_indices":[11,8,18,18,4,3,3,5,7,39,27,4,32,21,26,0,0,0,0,0,0,0,0,0,0,0,0,0,0,0,0],"split_type":[0,0,0,0,0,0,0,0,0,0,0,0,0,0,0,0,0,0,0,0,0,0,0,0,0,0,0,0,0,0,0],"sum_hessian":[1.0195E4,7.793E3,2.402E3,5.071E3,2.722E3,1.75E3,6.52E2,3.632E3,1.439E3,1.88E3,8.42E2,1.684E3,6.6E1,1.36E2,5.16E2,2.791E3,8.41E2,1.085E3,3.54E2,1.467E3,4.13E2,6.77E2,1.65E2,1.216E3,4.68E2,5.7E1,9E0,9.3E1,4.3E1,3.38E2,1.78E2],"tree_param":{"num_deleted":"0","num_feature":"85","num_nodes":"31","size_leaf_vector":"1"}},{"base_weights":[1.9301039E-4,-1.3848655E-1,4.4999254E-1,-9.669572E-2,-2.1627744E-1,5.0947964E-1,2.799484E-1,-1.3112324E-1,-9.770788E-3,-2.2710018E-1,-1.8858209E-1,1.8966988E-1,5.53322E-1,1.5070227E-1,5.7064044E-1,-1.556806E-2,-6.762882E-3,-5.928779E-3,1.4173691E-2,-2.3740493E-2,-1.8222181E-2,2.3013304E-3,-2.1108005E-2,3.4355682E-3,6.22312E-2,8.60491E-2,4.9726624E-2,5.0207227E-3,4.4624943E-2,3.842892E-2,1.0052568E-1],"categories":[],"categories_nodes":[],"categories_segments":[],"categories_sizes":[],"default_left":[0,0,0,0,0,0,0,0,0,0,0,0,0,0,0,0,0,0,0,0,0,0,0,0,0,0,0,0,0,0,0],"id":9,"left_children":[1,3,5,7,9,11,13,15,17,19,21,23,25,27,29,-1,-1,-1,-1,-1,-1,-1,-1,-1,-1,-1,-1,-1,-1,-1,-1],"loss_changes":[6.3606836E2,2.5316956E1,2.4164764E1,1.5177238E1,7.733536E-1,2.4838806E1,2.3395763E1,5.6542435E0,1.0811581E1,8.5993195E-1,3.6751747E0,1.4492842E1,2.6502014E1,1.2867841E1,1.5164013E1,0E0,0E0,0E0,0E0,0E0,0E0,0E0,0E0,0E0,0E0,0E0,0E0,0E0,0E0,0E0,0E0],"parents":[2147483647,0,0,1,1,2,2,3,3,4,4,5,5,6,6,7,7,8,8,9,9,10,10,11,11,12,12,13,13,14,14],"right_children":[2,4,6,8,10,12,14,16,18,20,22,24,26,28,30,-1,-1,-1,-1,-1,-1,-1,-1,-1,-1,-1,-1,-1,-1,-1,-1],"split_conditions":[1E0,1E0,1E0,1E0,1E0,3E0,1E0,1E0,1E0,8E0,5E0,1E0,4E0,1E0,1E0,-1.556806E-2,-6.762882E-3,-5.928779E-3,1.4173691E-2,-2.3740493E-2,-1.8222181E-2,2.3013304E-3,-2.1108005E-2,3.4355682E-3,6.22312E-2,8.60491E-2,4.9726624E-2,5.0207227E-3,4.4624943E-2,3.842892E-2,1.0052568E-1],"split_indices":[11,8,82,18,58,0,66,30,7,2,2,25,3,30,74,0,0,0,0,0,0,0,0,0,0,0,0,0,0,0,0],"split_type":[0,0,0,0,0,0,0,0,0,0,0,0,0,0,0,0,0,0,0,0,0,0,0,0,0,0,0,0,0,0,0],"sum_hessian":[1.0195E4,7.793E3,2.402E3,5.071E3,2.722E3,1.778E3,6.24E2,3.632E3,1.439E3,1.952E3,7.7E2,2.15E2,1.563E3,4.33E2,1.91E2,2.618E3,1.014E3,1.085E3,3.54E2,1.584E3,3.68E2,7.4E1,6.96E2,1.59E2,5.6E1,2.39E2,1.324E3,3.24E2,1.09E2,1.35E2,5.6E1],"tree_param":{"num_deleted":"0","num_feature":"85","num_nodes":"31","size_leaf_vector":"1"}},{"base_weights":[2.0462698E-4,-1.2464749E-1,4.051556E-1,-8.702892E-2,-1.94672E-1,3.5078776E-1,5.665083E-1,-1.14723444E-1,7.912023E-4,-1.85008E-1,-2.240664E-1,1.3326113E-1,3.9472717E-1,4.6849665E-1,8.9101845E-1,-1.3535479E-2,-2.1512187E-3,1.0063309E-2,-1.1927326E-2,-1.9848313E-2,-1.4832151E-2,4.8568E-3,-2.2911994E-2,5.272321E-3,4.5322817E-2,3.1507466E-2,5.563013E-2,3.7604123E-2,7.261083E-2,7.244156E-2,1.7926717E-1],"categories":[],"categories_nodes":[],"categories_segments":[],"categories_sizes":[],"default_left":[0,0,0,0,0,0,0,0,0,0,0,0,0,0,0,0,0,0,0,0,0,0,0,0,0,0,0,0,0,0,0],"id":10,"left_children":[1,3,5,7,9,11,13,15,17,19,21,23,25,27,29,-1,-1,-1,-1,-1,-1,-1,-1,-1,-1,-1,-1,-1,-1,-1,-1],"loss_changes":[5.155499E2,2.0514168E1,2.0881348E1,1.2335888E1,7.320633E-1,1.715178E1,1.8793259E1,7.4124565E0,1.4600747E1,9.8646545E-1,9.328575E-1,7.810026E0,1.9090805E1,1.0825958E1,1.9581642E1,0E0,0E0,0E0,0E0,0E0,0E0,0E0,0E0,0E0,0E0,0E0,0E0,0E0,0E0,0E0,0E0],"parents":[2147483647,0,0,1,1,2,2,3,3,4,4,5,5,6,6,7,7,8,8,9,9,10,10,11,11,12,12,13,13,14,14],"right_children":[2,4,6,8,10,12,14,16,18,20,22,24,26,28,30,-1,-1,-1,-1,-1,-1,-1,-1,-1,-1,-1,-1,-1,-1,-1,-1],"split_conditions":[1E0,1E0,1E0,1E0,1E0,4.849049E1,1E0,9E0,1E0,1E0,2E0,1E0,1E0,1E0,8E0,-1.3535479E-2,-2.1512187E-3,1.0063309E-2,-1.1927326E-2,-1.9848313E-2,-1.4832151E-2,4.8568E-3,-2.2911994E-2,5.272321E-3,4.5322817E-2,3.1507466E-2,5.563013E-2,3.7604123E-2,7.261083E-2,7.244156E-2,1.7926717E-1],"split_indices":[11,8,80,7,79,84,66,2,9,80,3,68,81,41,0,0,0,0,0,0,0,0,0,0,0,0,0,0,0,0,0],"split_type":[0,0,0,0,0,0,0,0,0,0,0,0,0,0,0,0,0,0,0,0,0,0,0,0,0,0,0,0,0,0,0],"sum_hessian":[1.0195E4,7.793E3,2.402E3,5.071E3,2.722E3,1.799E3,6.03E2,3.855E3,1.216E3,2.054E3,6.68E2,3.03E2,1.496E3,4.65E2,1.38E2,3.156E3,6.99E2,6.64E2,5.52E2,1.499E3,5.55E2,1.2E1,6.56E2,2.43E2,6E1,1.004E3,4.92E2,3.44E2,1.21E2,1.18E2,2E1],"tree_param":{"num_deleted":"0","num_feature":"85","num_nodes":"31","size_leaf_vector":"1"}},{"base_weights":[2.2627307E-4,-1.1219176E-1,3.6484796E-1,-7.832949E-2,-1.7522417E-1,3.0895904E-1,5.141537E-1,-1.0900795E-1,-8.7589317E-4,-1.6579701E-1,-2.0414945E-1,3.2871708E-1,-1.925524E-1,7.823577E-1,4.4208777E-1,-1.1750336E-2,5.0873305E-3,-6.453088E-4,1.3331492E-1,-1.5300847E-2,-1.9893585E-2,-1.9163113E-2,-2.4931237E-2,3.7664056E-2,1.6537048E-2,-2.9355949E-2,4.1254397E-2,5.978938E-2,1.2832734E-1,5.430911E-2,2.4833232E-2],"categories":[],"categories_nodes":[],"categories_segments":[],"categories_sizes":[],"default_left":[0,0,0,0,0,0,0,0,0,0,0,0,0,0,0,0,0,0,0,0,0,0,0,0,0,0,0,0,0,0,0],"id":11,"left_children":[1,3,5,7,9,11,13,15,17,19,21,23,25,27,29,-1,-1,-1,-1,-1,-1,-1,-1,-1,-1,-1,-1,-1,-1,-1,-1],"loss_changes":[4.179755E2,1.6621948E1,1.9893097E1,1.2051777E1,7.0866394E-1,1.7413757E1,1.2275558E1,4.9405174E0,1.0722373E1,8.421631E-1,3.2819176E-1,1.3128143E1,4.2160807E0,1.1891655E1,9.982803E0,0E0,0E0,0E0,0E0,0E0,0E0,0E0,0E0,0E0,0E0,0E0,0E0,0E0,0E0,0E0,0E0],"parents":[2147483647,0,0,1,1,2,2,3,3,4,4,5,5,6,6,7,7,8,8,9,9,10,10,11,11,12,12,13,13,14,14],"right_children":[2,4,6,8,10,12,14,16,18,20,22,24,26,28,30,-1,-1,-1,-1,-1,-1,-1,-1,-1,-1,-1,-1,-1,-1,-1,-1],"split_conditions":[1E0,1E0,1E0,1E0,1E0,9E0,4E0,1E1,1E1,1E0,1E0,1E0,1E0,1E0,1E0,-1.1750336E-2,5.0873305E-3,-6.453088E-4,1.3331492E-1,-1.5300847E-2,-1.9893585E-2,-1.9163113E-2,-2.4931237E-2,3.7664056E-2,1.6537048E-2,-2.9355949E-2,4.1254397E-2,5.978938E-2,1.2832734E-1,5.430911E-2,2.4833232E-2],"split_indices":[11,8,18,18,6,3,3,2,1,19,71,29,32,50,26,0,0,0,0,0,0,0,0,0,0,0,0,0,0,0,0],"split_type":[0,0,0,0,0,0,0,0,0,0,0,0,0,0,0,0,0,0,0,0,0,0,0,0,0,0,0,0,0,0,0],"sum_hessian":[1.0195E4,7.793E3,2.402E3,5.071E3,2.722E3,1.75E3,6.52E2,3.632E3,1.439E3,2.058E3,6.64E2,1.684E3,6.6E1,1.36E2,5.16E2,3.449E3,1.83E2,1.434E3,5E0,1.489E3,5.69E2,5.24E2,1.4E2,1.301E3,3.83E2,5.7E1,9E0,1.01E2,3.5E1,3.38E2,1.78E2],"tree_param":{"num_deleted":"0","num_feature":"85","num_nodes":"31","size_leaf_vector":"1"}},{"base_weights":[2.4092145E-4,-1.0096659E-1,3.2850188E-1,-7.04717E-2,-1.5773088E-1,3.837308E-1,1.8566714E-1,-4.6085693E-2,-1.5589006E-1,-1.4862941E-1,-1.8712105E-1,4.454882E-1,1.9685544E-1,2.5672454E-1,-7.899077E-2,-7.907419E-3,3.362881E-3,-1.6508054E-2,2.2661656E-3,-1.618522E-2,-1.1670867E-2,-1.9976985E-2,-1.4295478E-2,8.5697E-2,3.8744744E-2,3.0128941E-2,-2.0901132E-2,2.7694467E-2,-9.445688E-2,1.0585453E-2,-4.7107447E-2],"categories":[],"categories_nodes":[],"categories_segments":[],"categories_sizes":[],"default_left":[0,0,0,0,0,0,0,0,0,0,0,0,0,0,0,0,0,0,0,0,0,0,0,0,0,0,0,0,0,0,0],"id":12,"left_children":[1,3,5,7,9,11,13,15,17,19,21,23,25,27,29,-1,-1,-1,-1,-1,-1,-1,-1,-1,-1,-1,-1,-1,-1,-1,-1],"loss_changes":[3.3876953E2,1.3480461E1,1.8885101E1,1.0557854E1,7.0056915E-1,1.990123E1,1.2657841E1,1.0381935E1,1.8514786E0,8.607292E-1,3.2897758E-1,3.073941E1,1.8373846E1,1.3135468E1,1.0413766E1,0E0,0E0,0E0,0E0,0E0,0E0,0E0,0E0,0E0,0E0,0E0,0E0,0E0,0E0,0E0,0E0],"parents":[2147483647,0,0,1,1,2,2,3,3,4,4,5,5,6,6,7,7,8,8,9,9,10,10,11,11,12,12,13,13,14,14],"right_children":[2,4,6,8,10,12,14,16,18,20,22,24,26,28,30,-1,-1,-1,-1,-1,-1,-1,-1,-1,-1,-1,-1,-1,-1,-1,-1],"split_conditions":[1E0,1E0,1E0,1E0,1E0,6E0,1E0,1E0,1E1,1E0,1E0,4E0,1E0,9E0,5.3947746E1,-7.907419E-3,3.362881E-3,-1.6508054E-2,2.2661656E-3,-1.618522E-2,-1.1670867E-2,-1.9976985E-2,-1.4295478E-2,8.5697E-2,3.8744744E-2,3.0128941E-2,-2.0901132E-2,2.7694467E-2,-9.445688E-2,1.0585453E-2,-4.7107447E-2],"split_indices":[11,8,6,5,53,1,27,18,2,80,44,3,63,0,84,0,0,0,0,0,0,0,0,0,0,0,0,0,0,0,0],"split_type":[0,0,0,0,0,0,0,0,0,0,0,0,0,0,0,0,0,0,0,0,0,0,0,0,0,0,0,0,0,0,0],"sum_hessian":[1.0195E4,7.793E3,2.402E3,5.071E3,2.722E3,1.731E3,6.71E2,3.946E3,1.125E3,2.083E3,6.39E2,1.3E3,4.31E2,5.29E2,1.42E2,2.791E3,1.155E3,1.07E3,5.5E1,1.47E3,6.13E2,4.94E2,1.45E2,1.59E2,1.141E3,3.43E2,8.8E1,5.21E2,8E0,9.7E1,4.5E1],"tree_param":{"num_deleted":"0","num_feature":"85","num_nodes":"31","size_leaf_vector":"1"}},{"base_weights":[2.118727E-4,-9.088031E-2,2.9566434E-1,-6.342823E-2,-1.419806E-1,3.4513158E-1,1.5438779E-1,-8.7703645E-2,1.3539257E-2,-1.3314572E-1,-1.7082173E-1,2.9896587E-2,3.7605286E-1,1.1918636E-1,1.0705647E0,-1.123201E-2,-2.291903E-3,9.334031E-3,-1.2125399E-2,-1.4260724E-2,-9.021845E-3,-1.2534402E-2,-1.8117508E-2,-8.615668E-3,8.021614E-2,3.5003755E-2,8.249779E-2,2.1312566E-2,-1.6593117E-2,1.3487019E-1,-5.877616E-2],"categories":[],"categories_nodes":[],"categories_segments":[],"categories_sizes":[],"default_left":[0,0,0,0,0,0,0,0,0,0,0,0,0,0,0,0,0,0,0,0,0,0,0,0,0,0,0,0,0,0,0],"id":13,"left_children":[1,3,5,7,9,11,13,15,17,19,21,23,25,27,29,-1,-1,-1,-1,-1,-1,-1,-1,-1,-1,-1,-1,-1,-1,-1,-1],"loss_changes":[2.7443604E2,1.09244995E1,1.674022E1,9.477802E0,6.710968E-1,1.7329498E1,2.002911E1,6.1468487E0,1.3102152E1,8.35598E-1,2.7627754E-1,1.4408928E1,1.8631058E1,1.6185959E1,1.1401281E1,0E0,0E0,0E0,0E0,0E0,0E0,0E0,0E0,0E0,0E0,0E0,0E0,0E0,0E0,0E0,0E0],"parents":[2147483647,0,0,1,1,2,2,3,3,4,4,5,5,6,6,7,7,8,8,9,9,10,10,11,11,12,12,13,13,14,14],"right_children":[2,4,6,8,10,12,14,16,18,20,22,24,26,28,30,-1,-1,-1,-1,-1,-1,-1,-1,-1,-1,-1,-1,-1,-1,-1,-1],"split_conditions":[1E0,1E0,1E0,1E0,1E0,4E0,1.1E1,1E0,6E0,6E0,3E0,1E0,8E0,1E0,1E0,-1.123201E-2,-2.291903E-3,9.334031E-3,-1.2125399E-2,-1.4260724E-2,-9.021845E-3,-1.2534402E-2,-1.8117508E-2,-8.615668E-3,8.021614E-2,3.5003755E-2,8.249779E-2,2.1312566E-2,-1.6593117E-2,1.3487019E-1,-5.877616E-2],"split_indices":[11,8,82,7,25,2,2,54,3,1,3,22,0,64,32,0,0,0,0,0,0,0,0,0,0,0,0,0,0,0,0],"split_type":[0,0,0,0,0,0,0,0,0,0,0,0,0,0,0,0,0,0,0,0,0,0,0,0,0,0,0,0,0,0,0],"sum_hessian":[1.0195E4,7.793E3,2.402E3,5.071E3,2.722E3,1.778E3,6.24E2,3.855E3,1.216E3,2.088E3,6.34E2,1.59E2,1.619E3,6.02E2,2.2E1,2.793E3,1.062E3,7.64E2,4.52E2,1.709E3,3.79E2,1.2E2,5.14E2,1.39E2,2E1,1.532E3,8.7E1,4.53E2,1.49E2,1.9E1,3E0],"tree_param":{"num_deleted":"0","num_feature":"85","num_nodes":"31","size_leaf_vector":"1"}},{"base_weights":[2.1026452E-4,-8.1801295E-2,2.6621023E-1,-9.063627E-2,5.0655603E-2,2.1505412E-1,3.99585E-1,-6.8290845E-2,-1.3123329E-1,1.05430335E-2,2.9825467E-1,-9.32305E-2,2.3694204E-1,3.343282E-1,6.2140447E-1,-4.729644E-3,-1.3967863E-2,-1.4117799E-2,-1.0465998E-2,-1.7444486E-3,2.0520061E-2,1.711549E-2,8.2281865E-2,-2.6413685E-2,3.2672416E-2,1.8326508E-2,4.1461647E-2,3.5882685E-2,-3.2539E-2,1.4110616E-2,7.947757E-2],"categories":[],"categories_nodes":[],"categories_segments":[],"categories_sizes":[],"default_left":[0,0,0,0,0,0,0,0,0,0,0,0,0,0,0,0,0,0,0,0,0,0,0,0,0,0,0,0,0,0,0],"id":14,"left_children":[1,3,5,7,9,11,13,15,17,19,21,23,25,27,29,-1,-1,-1,-1,-1,-1,-1,-1,-1,-1,-1,-1,-1,-1,-1,-1],"loss_changes":[2.2244824E2,9.125549E0,1.6309586E1,6.619644E0,4.8435907E0,1.175634E1,9.418274E0,7.059973E0,6.7045593E-1,2.2971804E0,4.392863E0,8.41196E0,1.541214E1,8.456451E0,1.2378326E1,0E0,0E0,0E0,0E0,0E0,0E0,0E0,0E0,0E0,0E0,0E0,0E0,0E0,0E0,0E0,0E0],"parents":[2147483647,0,0,1,1,2,2,3,3,4,4,5,5,6,6,7,7,8,8,9,9,10,10,11,11,12,12,13,13,14,14],"right_children":[2,4,6,8,10,12,14,16,18,20,22,24,26,28,30,-1,-1,-1,-1,-1,-1,-1,-1,-1,-1,-1,-1,-1,-1,-1,-1],"split_conditions":[1E0,1E1,1E0,1E0,1E0,4E0,1E0,1E0,1E0,1E0,1E0,1E0,1E0,6.2619175E1,5E0,-4.729644E-3,-1.3967863E-2,-1.4117799E-2,-1.0465998E-2,-1.7444486E-3,2.0520061E-2,1.711549E-2,8.2281865E-2,-2.6413685E-2,3.2672416E-2,1.8326508E-2,4.1461647E-2,3.5882685E-2,-3.2539E-2,1.4110616E-2,7.947757E-2],"split_indices":[11,2,4,8,49,2,65,5,58,7,29,61,80,84,2,0,0,0,0,0,0,0,0,0,0,0,0,0,0,0,0],"split_type":[0,0,0,0,0,0,0,0,0,0,0,0,0,0,0,0,0,0,0,0,0,0,0,0,0,0,0,0,0,0,0],"sum_hessian":[1.0195E4,7.793E3,2.402E3,7.306E3,4.87E2,1.738E3,6.64E2,4.714E3,2.592E3,4.2E2,6.7E1,1.15E2,1.623E3,5.15E2,1.49E2,3.644E3,1.07E3,1.883E3,7.09E2,3.68E2,5.2E1,5.5E1,1.2E1,8.2E1,3.3E1,1.248E3,3.75E2,4.97E2,1.8E1,4E1,1.09E2],"tree_param":{"num_deleted":"0","num_feature":"85","num_nodes":"31","size_leaf_vector":"1"}},{"base_weights":[2.1257116E-4,-7.361155E-2,2.3965701E-1,-9.6798584E-2,-2.894997E-2,1.9136804E-1,3.687754E-1,-1.1426618E-1,-5.38873E-2,-7.3562294E-2,1.05333045E-1,2.0863557E-1,-2.4575321E-1,4.3722063E-1,1.6696939E-1,-1.1877983E-2,-1.7116914E-3,1.0554391E-1,-5.9851278E-3,-4.16824E-3,-1.5451423E-2,3.4190066E-2,4.8853518E-3,2.5984967E-2,7.410797E-3,-3.908979E-2,1.4150167E-2,7.6579005E-2,3.6283493E-2,-6.4960713E-3,7.268207E-2],"categories":[],"categories_nodes":[],"categories_segments":[],"categories_sizes":[],"default_left":[0,0,0,0,0,0,0,0,0,0,0,0,0,0,0,0,0,0,0,0,0,0,0,0,0,0,0,0,0,0,0],"id":15,"left_children":[1,3,5,7,9,11,13,15,17,19,21,23,25,27,29,-1,-1,-1,-1,-1,-1,-1,-1,-1,-1,-1,-1,-1,-1,-1,-1],"loss_changes":[1.8025005E2,8.068432E0,1.4912094E1,3.8390694E0,1.5972903E1,1.3267815E1,8.946663E0,1.5962906E0,9.894545E0,5.1576176E0,8.868513E0,1.1589905E1,3.8212476E0,1.1624847E1,2.1731558E1,0E0,0E0,0E0,0E0,0E0,0E0,0E0,0E0,0E0,0E0,0E0,0E0,0E0,0E0,0E0,0E0],"parents":[2147483647,0,0,1,1,2,2,3,3,4,4,5,5,6,6,7,7,8,8,9,9,10,10,11,11,12,12,13,13,14,14],"right_children":[2,4,6,8,10,12,14,16,18,20,22,24,26,28,30,-1,-1,-1,-1,-1,-1,-1,-1,-1,-1,-1,-1,-1,-1,-1,-1],"split_conditions":[1E0,1E0,1E0,1E0,1E0,9E0,1E0,1E1,4.3343018E1,1E0,4E0,1E0,1E0,4E0,1E0,-1.1877983E-2,-1.7116914E-3,1.0554391E-1,-5.9851278E-3,-4.16824E-3,-1.5451423E-2,3.4190066E-2,4.8853518E-3,2.5984967E-2,7.410797E-3,-3.908979E-2,1.4150167E-2,7.6579005E-2,3.6283493E-2,-6.4960713E-3,7.268207E-2],"split_indices":[11,10,18,4,7,3,82,2,84,28,3,46,68,3,74,0,0,0,0,0,0,0,0,0,0,0,0,0,0,0,0],"split_type":[0,0,0,0,0,0,0,0,0,0,0,0,0,0,0,0,0,0,0,0,0,0,0,0,0,0,0,0,0,0,0],"sum_hessian":[1.0195E4,7.793E3,2.402E3,5.129E3,2.664E3,1.75E3,6.52E2,3.644E3,1.485E3,2E3,6.64E2,1.684E3,6.6E1,4.86E2,1.66E2,3.482E3,1.62E2,7E0,1.478E3,1.436E3,5.64E2,1.27E2,5.37E2,1.219E3,4.65E2,4.8E1,1.8E1,8.8E1,3.98E2,1.18E2,4.8E1],"tree_param":{"num_deleted":"0","num_feature":"85","num_nodes":"31","size_leaf_vector":"1"}},{"base_weights":[2.2004593E-4,-6.623687E-2,2.1576934E-1,-7.872354E-2,6.4907004E-3,2.6379877E-1,9.165808E-2,-9.3120985E-2,-3.5231534E-2,5.8714036E-2,-9.449106E-2,3.1782034E-1,1.0049824E-1,1.5374139E-1,-1.3908187E-1,-1.1615097E-2,-5.6923735E-3,-8.5600065E-3,6.2705236E-3,2.825142E-3,2.2266297E-2,-1.1333736E-2,4.8910314E-3,6.627371E-2,2.6921747E-2,1.919963E-2,-2.5428642E-2,1.7215734E-2,-9.3146645E-2,2.5978857E-3,-4.8770946E-2],"categories":[],"categories_nodes":[],"categories_segments":[],"categories_sizes":[],"default_left":[0,0,0,0,0,0,0,0,0,0,0,0,0,0,0,0,0,0,0,0,0,0,0,0,0,0,0,0,0,0,0],"id":16,"left_children":[1,3,5,7,9,11,13,15,17,19,21,23,25,27,29,-1,-1,-1,-1,-1,-1,-1,-1,-1,-1,-1,-1,-1,-1,-1,-1],"loss_changes":[1.4606935E2,7.0784416E0,1.4300079E1,4.1620255E0,6.0332775E0,1.5247345E1,9.647849E0,4.1590004E0,8.174301E0,3.7594213E0,1.059551E0,2.1631454E1,1.4072453E1,1.0752482E1,8.241566E0,0E0,0E0,0E0,0E0,0E0,0E0,0E0,0E0,0E0,0E0,0E0,0E0,0E0,0E0,0E0,0E0],"parents":[2147483647,0,0,1,1,2,2,3,3,4,4,5,5,6,6,7,7,8,8,9,9,10,10,11,11,12,12,13,13,14,14],"right_children":[2,4,6,8,10,12,14,16,18,20,22,24,26,28,30,-1,-1,-1,-1,-1,-1,-1,-1,-1,-1,-1,-1,-1,-1,-1,-1],"split_conditions":[1E0,9E0,1E0,1E0,5E0,6E0,1E0,1E0,1E0,1E0,1E0,4E0,1E0,9E0,5.3947746E1,-1.1615097E-2,-5.6923735E-3,-8.5600065E-3,6.2705236E-3,2.825142E-3,2.2266297E-2,-1.1333736E-2,4.8910314E-3,6.627371E-2,2.6921747E-2,1.919963E-2,-2.5428642E-2,1.7215734E-2,-9.3146645E-2,2.5978857E-3,-4.8770946E-2],"split_indices":[11,2,6,7,0,1,27,4,10,68,63,3,63,0,84,0,0,0,0,0,0,0,0,0,0,0,0,0,0,0,0],"split_type":[0,0,0,0,0,0,0,0,0,0,0,0,0,0,0,0,0,0,0,0,0,0,0,0,0,0,0,0,0,0,0],"sum_hessian":[1.0195E4,7.793E3,2.402E3,6.651E3,1.142E3,1.731E3,6.71E2,4.996E3,1.655E3,7.53E2,3.89E2,1.3E3,4.31E2,5.29E2,1.42E2,3.052E3,1.944E3,1.093E3,5.62E2,6.36E2,1.17E2,3.44E2,4.5E1,1.59E2,1.141E3,3.43E2,8.8E1,5.21E2,8E0,9.7E1,4.5E1],"tree_param":{"num_deleted":"0","num_feature":"85","num_nodes":"31","size_leaf_vector":"1"}},{"base_weights":[1.9450118E-4,-5.9613302E-2,1.9417779E-1,-7.7139124E-2,-1.3776411E-2,1.533495E-1,3.1553E-1,-8.5070066E-2,-1.361913E-2,2.1382902E-2,-8.427172E-2,1.4917593E-1,1.98999E-1,2.3079832E-1,5.9732443E-1,-8.11704E-3,-1.887062E-2,-4.0604896E-3,9.956603E-3,1.6268298E-3,1.2410618E-1,-1.0596268E-2,-3.952171E-3,9.459407E-3,2.9539123E-2,2.4852348E-2,-9.669692E-2,4.574087E-2,1.3617364E-1],"categories":[],"categories_nodes":[],"categories_segments":[],"categories_sizes":[],"default_left":[0,0,0,0,0,0,0,0,0,0,0,0,0,0,0,0,0,0,0,0,0,0,0,0,0,0,0,0,0],"id":17,"left_children":[1,3,5,7,9,11,13,15,17,19,21,23,-1,25,27,-1,-1,-1,-1,-1,-1,-1,-1,-1,-1,-1,-1,-1,-1],"loss_changes":[1.1830265E2,6.2600822E0,1.1857521E1,2.8391151E0,5.34807E0,1.3500782E1,1.4283798E1,2.0102654E0,1.9191443E0,8.96278E0,6.927533E-1,1.4313377E1,0E0,1.0133785E1,1.4243637E1,0E0,0E0,0E0,0E0,0E0,0E0,0E0,0E0,0E0,0E0,0E0,0E0,0E0,0E0],"parents":[2147483647,0,0,1,1,2,2,3,3,4,4,5,5,6,6,7,7,8,8,9,9,10,10,11,11,13,13,14,14],"right_children":[2,4,6,8,10,12,14,16,18,20,22,24,-1,26,28,-1,-1,-1,-1,-1,-1,-1,-1,-1,-1,-1,-1,-1,-1],"split_conditions":[1E0,1E0,1E0,9E0,1E0,1.3E1,1E0,8E0,1E0,1E1,1E0,1E0,1.98999E-1,6.342933E1,8E0,-8.11704E-3,-1.887062E-2,-4.0604896E-3,9.956603E-3,1.6268298E-3,1.2410618E-1,-1.0596268E-2,-3.952171E-3,9.459407E-3,2.9539123E-2,2.4852348E-2,-9.669692E-2,4.574087E-2,1.3617364E-1],"split_indices":[11,18,80,2,8,2,66,3,44,1,30,52,0,84,0,0,0,0,0,0,0,0,0,0,0,0,0,0,0],"split_type":[0,0,0,0,0,0,0,0,0,0,0,0,0,0,0,0,0,0,0,0,0,0,0,0,0,0,0,0,0],"sum_hessian":[1.0195E4,7.793E3,2.402E3,5.637E3,2.156E3,1.799E3,6.03E2,5.011E3,6.26E2,1.439E3,7.17E2,1.796E3,3E0,4.65E2,1.38E2,4.831E3,1.8E2,5.06E2,1.2E2,1.434E3,5E0,4.82E2,2.35E2,1.309E3,4.87E2,4.59E2,6E0,1.18E2,2E1],"tree_param":{"num_deleted":"0","num_feature":"85","num_nodes":"29","size_leaf_vector":"1"}},{"base_weights":[2.1802737E-4,-5.364041E-2,1.7490485E-1,-6.0488604E-2,4.900998E-2,1.3199477E-1,2.8969908E-1,-7.4777864E-2,-1.9986872E-2,1.2725307E-2,2.7293405E-1,1.4747505E-1,-2.5929263E-1,3.7178832E-1,1.286529E-1,-9.0213E-3,-2.60659E-3,1.1505614E-3,-1.1133216E-2,-1.0164597E-3,1.7185075E-2,1.7829694E-2,8.735221E-2,1.9305108E-2,2.7839362E-3,-3.4299072E-2,3.1820536E-2,4.5000453E-2,1.1758319E-2,2.506175E-2,-1.1866304E-2],"categories":[],"categories_nodes":[],"categories_segments":[],"categories_sizes":[],"default_left":[0,0,0,0,0,0,0,0,0,0,0,0,0,0,0,0,0,0,0,0,0,0,0,0,0,0,0,0,0,0,0],"id":18,"left_children":[1,3,5,7,9,11,13,15,17,19,21,23,25,27,29,-1,-1,-1,-1,-1,-1,-1,-1,-1,-1,-1,-1,-1,-1,-1,-1],"loss_changes":[9.593701E1,5.481907E0,1.1798523E1,4.22736E0,3.9615324E0,1.0644463E1,8.584934E0,4.058531E0,5.487129E0,1.5351828E0,3.7092319E0,9.182117E0,3.347619E0,8.536522E0,6.7261E0,0E0,0E0,0E0,0E0,0E0,0E0,0E0,0E0,0E0,0E0,0E0,0E0,0E0,0E0,0E0,0E0],"parents":[2147483647,0,0,1,1,2,2,3,3,4,4,5,5,6,6,7,7,8,8,9,9,10,10,11,11,12,12,13,13,14,14],"right_children":[2,4,6,8,10,12,14,16,18,20,22,24,26,28,30,-1,-1,-1,-1,-1,-1,-1,-1,-1,-1,-1,-1,-1,-1,-1,-1],"split_conditions":[1E0,1E1,1E0,1E0,1E0,9E0,1E0,1E0,1E0,1E0,1E0,1E0,1E0,1E0,6E0,-9.0213E-3,-2.60659E-3,1.1505614E-3,-1.1133216E-2,-1.0164597E-3,1.7185075E-2,1.7829694E-2,8.735221E-2,1.9305108E-2,2.7839362E-3,-3.4299072E-2,3.1820536E-2,4.5000453E-2,1.1758319E-2,2.506175E-2,-1.1866304E-2],"split_indices":[11,2,18,54,49,3,26,7,56,7,7,46,28,21,3,0,0,0,0,0,0,0,0,0,0,0,0,0,0,0,0],"split_type":[0,0,0,0,0,0,0,0,0,0,0,0,0,0,0,0,0,0,0,0,0,0,0,0,0,0,0,0,0,0,0],"sum_hessian":[1.0195E4,7.793E3,2.402E3,7.306E3,4.87E2,1.75E3,6.52E2,5.4E3,1.906E3,4.2E2,6.7E1,1.684E3,6.6E1,4.31E2,2.21E2,4.1E3,1.3E3,1.418E3,4.88E2,3.68E2,5.2E1,5.9E1,8E0,1.219E3,4.65E2,5.8E1,8E0,3.29E2,1.02E2,1.48E2,7.3E1],"tree_param":{"num_deleted":"0","num_feature":"85","num_nodes":"31","size_leaf_vector":"1"}},{"base_weights":[2.1479663E-4,-4.8263565E-2,1.5745164E-1,-2.9048093E-2,-8.403757E-2,2.0064637E-1,4.5888044E-2,-5.0007574E-2,2.385111E-2,-9.25582E-2,-5.4557826E-2,2.4879353E-1,5.518321E-2,-3.2042913E-2,2.3128195E-1,-7.0220004E-3,2.1957222E-4,1.9146098E-3,1.14515774E-1,-6.312263E-3,-1.0144075E-2,-8.013716E-3,9.895675E-3,5.4791998E-2,2.0666653E-2,1.4263227E-2,-2.9830525E-2,3.8873174E-3,-3.1167993E-2,6.6002086E-3,7.498498E-2],"categories":[],"categories_nodes":[],"categories_segments":[],"categories_sizes":[],"default_left":[0,0,0,0,0,0,0,0,0,0,0,0,0,0,0,0,0,0,0,0,0,0,0,0,0,0,0,0,0,0,0],"id":19,"left_children":[1,3,5,7,9,11,13,15,17,19,21,23,25,27,29,-1,-1,-1,-1,-1,-1,-1,-1,-1,-1,-1,-1,-1,-1,-1,-1],"loss_changes":[7.772747E1,5.3552666E0,1.1570751E1,5.624722E0,6.789284E-1,1.21165695E1,9.716416E0,3.8335333E0,7.5751686E0,5.455456E-1,2.4150577E0,1.628106E1,1.3396632E1,9.411898E0,1.7006565E1,0E0,0E0,0E0,0E0,0E0,0E0,0E0,0E0,0E0,0E0,0E0,0E0,0E0,0E0,0E0,0E0],"parents":[2147483647,0,0,1,1,2,2,3,3,4,4,5,5,6,6,7,7,8,8,9,9,10,10,11,11,12,12,13,13,14,14],"right_children":[2,4,6,8,10,12,14,16,18,20,22,24,26,28,30,-1,-1,-1,-1,-1,-1,-1,-1,-1,-1,-1,-1,-1,-1,-1,-1],"split_conditions":[1E0,1E0,1E0,1E0,1E0,6E0,1E0,1E0,1E1,3E0,6E0,4E0,1E0,1E0,1E0,-7.0220004E-3,2.1957222E-4,1.9146098E-3,1.14515774E-1,-6.312263E-3,-1.0144075E-2,-8.013716E-3,9.895675E-3,5.4791998E-2,2.0666653E-2,1.4263227E-2,-2.9830525E-2,3.8873174E-3,-3.1167993E-2,6.6002086E-3,7.498498E-2],"split_indices":[11,8,6,18,35,1,34,30,1,3,1,3,38,27,74,0,0,0,0,0,0,0,0,0,0,0,0,0,0,0,0],"split_type":[0,0,0,0,0,0,0,0,0,0,0,0,0,0,0,0,0,0,0,0,0,0,0,0,0,0,0,0,0,0,0],"sum_hessian":[1.0195E4,7.793E3,2.402E3,5.071E3,2.722E3,1.731E3,6.71E2,3.632E3,1.439E3,2.11E3,6.12E2,1.3E3,4.31E2,4.73E2,1.98E2,2.618E3,1.014E3,1.434E3,5E0,4.91E2,1.619E3,5.25E2,8.7E1,1.59E2,1.141E3,3.46E2,8.5E1,3.78E2,9.5E1,1.51E2,4.7E1],"tree_param":{"num_deleted":"0","num_feature":"85","num_nodes":"31","size_leaf_vector":"1"}},{"base_weights":[2.1384085E-4,-4.3425016E-2,1.4175402E-1,-6.0868923E-2,-9.830014E-3,1.822496E-1,2.626056E-2,-7.5969346E-2,-2.3788238E-2,-4.568466E-2,9.807221E-2,-4.5034915E-2,2.1352275E-1,-8.478026E-2,2.7712232E-1,-6.576241E-3,-1.0721165E-2,-2.947897E-3,9.133992E-2,-1.7924508E-3,-1.1620794E-2,-2.9611891E-2,1.2784428E-2,-1.2956913E-2,5.7769854E-2,1.6634168E-2,3.803674E-2,-1.6472735E-2,1.5219778E-2,1.2596524E-2,6.32916E-2],"categories":[],"categories_nodes":[],"categories_segments":[],"categories_sizes":[],"default_left":[0,0,0,0,0,0,0,0,0,0,0,0,0,0,0,0,0,0,0,0,0,0,0,0,0,0,0,0,0,0,0],"id":20,"left_children":[1,3,5,7,9,11,13,15,17,19,21,23,25,27,29,-1,-1,-1,-1,-1,-1,-1,-1,-1,-1,-1,-1,-1,-1,-1,-1],"loss_changes":[6.298329E1,4.566905E0,1.1233986E1,2.8706532E0,1.0314821E1,1.2654575E1,1.7433428E1,1.1552982E0,7.9521813E0,3.9153495E0,7.8422217E0,1.1445584E1,1.2248398E1,8.247506E0,1.0246176E1,0E0,0E0,0E0,0E0,0E0,0E0,0E0,0E0,0E0,0E0,0E0,0E0,0E0,0E0,0E0,0E0],"parents":[2147483647,0,0,1,1,2,2,3,3,4,4,5,5,6,6,7,7,8,8,9,9,10,10,11,11,12,12,13,13,14,14],"right_children":[2,4,6,8,10,12,14,16,18,20,22,24,26,28,30,-1,-1,-1,-1,-1,-1,-1,-1,-1,-1,-1,-1,-1,-1,-1,-1],"split_conditions":[1E0,1E0,1E0,1E0,1E0,3E0,1E0,1E0,1E1,1E0,2E0,1E0,1E0,1E0,1E0,-6.576241E-3,-1.0721165E-2,-2.947897E-3,9.133992E-2,-1.7924508E-3,-1.1620794E-2,-2.9611891E-2,1.2784428E-2,-1.2956913E-2,5.7769854E-2,1.6634168E-2,3.803674E-2,-1.6472735E-2,1.5219778E-2,1.2596524E-2,6.32916E-2],"split_indices":[11,10,82,4,7,0,66,23,1,28,1,28,41,30,74,0,0,0,0,0,0,0,0,0,0,0,0,0,0,0,0],"split_type":[0,0,0,0,0,0,0,0,0,0,0,0,0,0,0,0,0,0,0,0,0,0,0,0,0,0,0,0,0,0,0],"sum_hessian":[1.0195E4,7.793E3,2.402E3,5.129E3,2.664E3,1.778E3,6.24E2,3.644E3,1.485E3,2E3,6.64E2,2.15E2,1.563E3,4.33E2,1.91E2,2.749E3,8.95E2,1.477E3,8E0,1.436E3,5.64E2,4.6E1,6.18E2,1.9E2,2.5E1,1.22E3,3.43E2,3.24E2,1.09E2,1.35E2,5.6E1],"tree_param":{"num_deleted":"0","num_feature":"85","num_nodes":"31","size_leaf_vector":"1"}},{"base_weights":[2.1353831E-4,-3.907727E-2,1.2765105E-1,-4.510753E-2,5.1296048E-2,1.6410844E-1,1.4837655E-2,-5.8119025E-2,-8.232755E-3,1.8409412E-2,2.5414866E-1,2.0984223E-1,3.155016E-2,9.08295E-2,-2.6172194E-1,-7.1093314E-3,-1.7176921E-3,-3.1496852E-3,8.947353E-3,5.986137E-3,-6.0905074E-3,1.4225925E-2,7.1658395E-2,2.566414E-2,5.5896128E-3,-3.0798462E-4,8.482514E-2,-3.938789E-5,3.0500898E-2,-4.409694E-2,1.3916545E-2],"categories":[],"categories_nodes":[],"categories_segments":[],"categories_sizes":[],"default_left":[0,0,0,0,0,0,0,0,0,0,0,0,0,0,0,0,0,0,0,0,0,0,0,0,0,0,0,0,0,0,0],"id":21,"left_children":[1,3,5,7,9,11,13,15,17,19,21,23,25,27,29,-1,-1,-1,-1,-1,-1,-1,-1,-1,-1,-1,-1,-1,-1,-1,-1],"loss_changes":[5.1057613E1,4.2498455E0,9.880825E0,3.5053902E0,3.2508376E0,1.1002682E1,1.2381341E1,2.8677616E0,4.337522E0,1.3877846E0,3.4164886E0,9.7118E0,1.321048E1,9.026757E0,9.187339E0,0E0,0E0,0E0,0E0,0E0,0E0,0E0,0E0,0E0,0E0,0E0,0E0,0E0,0E0,0E0,0E0],"parents":[2147483647,0,0,1,1,2,2,3,3,4,4,5,5,6,6,7,7,8,8,9,9,10,10,11,11,12,12,13,13,14,14],"right_children":[2,4,6,8,10,12,14,16,18,20,22,24,26,28,30,-1,-1,-1,-1,-1,-1,-1,-1,-1,-1,-1,-1,-1,-1,-1,-1],"split_conditions":[1E0,1E1,1E0,1E0,1E0,1E0,1E0,1E0,1E0,5E0,1E0,1E0,1.1E1,1E0,1E0,-7.1093314E-3,-1.7176921E-3,-3.1496852E-3,8.947353E-3,5.986137E-3,-6.0905074E-3,1.4225925E-2,7.1658395E-2,2.566414E-2,5.5896128E-3,-3.0798462E-4,8.482514E-2,-3.938789E-5,3.0500898E-2,-4.409694E-2,1.3916545E-2],"split_indices":[11,2,35,54,49,82,39,7,27,0,29,29,2,62,45,0,0,0,0,0,0,0,0,0,0,0,0,0,0,0,0],"split_type":[0,0,0,0,0,0,0,0,0,0,0,0,0,0,0,0,0,0,0,0,0,0,0,0,0,0,0,0,0,0,0],"sum_hessian":[1.0195E4,7.793E3,2.402E3,7.306E3,4.87E2,1.815E3,5.87E2,5.4E3,1.906E3,4.2E2,6.7E1,1.349E3,4.66E2,4.61E2,1.26E2,4.1E3,1.3E3,1.54E3,3.66E2,2.76E2,1.44E2,5.5E1,1.2E1,1.034E3,3.15E2,4.48E2,1.8E1,3.24E2,1.37E2,8.7E1,3.9E1],"tree_param":{"num_deleted":"0","num_feature":"85","num_nodes":"31","size_leaf_vector":"1"}},{"base_weights":[2.1169036E-4,-3.515892E-2,1.1493426E-1,-4.917884E-2,1.5028572E-3,7.729625E-2,2.1568343E-1,-6.014974E-2,-1.7361837E-2,2.7241053E-2,-7.736258E-2,5.745122E-2,3.3721897E-1,1.5749055E-1,4.0163544E-1,8.808143E-4,-6.8238834E-3,-2.6772714E-3,2.4076283E-2,7.6326564E-2,2.3132677E-3,-2.7784477E-3,-1.8716743E-2,-1.8943682E-2,9.216203E-3,-1.13530075E-2,5.9541184E-2,-7.181868E-3,2.4711482E-2,2.6447287E-2,8.319249E-2],"categories":[],"categories_nodes":[],"categories_segments":[],"categories_sizes":[],"default_left":[0,0,0,0,0,0,0,0,0,0,0,0,0,0,0,0,0,0,0,0,0,0,0,0,0,0,0,0,0,0,0],"id":22,"left_children":[1,3,5,7,9,11,13,15,17,19,21,23,25,27,29,-1,-1,-1,-1,-1,-1,-1,-1,-1,-1,-1,-1,-1,-1,-1,-1],"loss_changes":[4.137744E1,4.006151E0,9.095499E0,1.9669628E0,4.380502E0,9.012589E0,7.0029125E0,2.3389273E0,3.5214686E0,4.9021735E0,2.8855188E0,1.3968907E1,1.4498741E1,1.027303E1,8.9280205E0,0E0,0E0,0E0,0E0,0E0,0E0,0E0,0E0,0E0,0E0,0E0,0E0,0E0,0E0,0E0,0E0],"parents":[2147483647,0,0,1,1,2,2,3,3,4,4,5,5,6,6,7,7,8,8,9,9,10,10,11,11,12,12,13,13,14,14],"right_children":[2,4,6,8,10,12,14,16,18,20,22,24,26,28,30,-1,-1,-1,-1,-1,-1,-1,-1,-1,-1,-1,-1,-1,-1,-1,-1],"split_conditions":[1E0,1E0,1E0,1E0,1E0,8E0,1E0,3E0,1E1,4.3343018E1,1E0,3E0,5.628514E1,5.1281395E1,1E0,8.808143E-4,-6.8238834E-3,-2.6772714E-3,2.4076283E-2,7.6326564E-2,2.3132677E-3,-2.7784477E-3,-1.8716743E-2,-1.8943682E-2,9.216203E-3,-1.13530075E-2,5.9541184E-2,-7.181868E-3,2.4711482E-2,2.6447287E-2,8.319249E-2],"split_indices":[11,18,18,68,36,0,25,0,2,84,32,1,84,84,39,0,0,0,0,0,0,0,0,0,0,0,0,0,0,0,0],"split_type":[0,0,0,0,0,0,0,0,0,0,0,0,0,0,0,0,0,0,0,0,0,0,0,0,0,0,0,0,0,0,0],"sum_hessian":[1.0195E4,7.793E3,2.402E3,5.637E3,2.156E3,1.75E3,6.52E2,4.191E3,1.446E3,1.626E3,5.3E2,1.627E3,1.23E2,4.98E2,1.54E2,4.4E2,3.751E3,1.396E3,5E1,8E0,1.618E3,3.66E2,1.64E2,2E2,1.427E3,4.5E1,7.8E1,1.4E2,3.58E2,1.18E2,3.6E1],"tree_param":{"num_deleted":"0","num_feature":"85","num_nodes":"31","size_leaf_vector":"1"}},{"base_weights":[2.1389134E-4,-3.163371E-2,1.0350976E-1,-1.5695713E-2,-6.130902E-2,1.0068977E-1,1.4358406E0,-6.223011E-3,-1.139345E-1,-5.1902507E-2,-8.5670054E-2,1.3812646E-1,3.8745822E-3,1.6990335E-1,1.9153437E-2,-2.471402E-3,5.97703E-3,-9.603082E-3,-3.5899777E-2,-6.3775363E-3,-2.0167024E-3,-1.0387148E-2,-3.9000683E-3,1.7970188E-2,1.2791797E-3,1.6593179E-3,-9.320793E-2],"categories":[],"categories_nodes":[],"categories_segments":[],"categories_sizes":[],"default_left":[0,0,0,0,0,0,0,0,0,0,0,0,0,0,0,0,0,0,0,0,0,0,0,0,0,0,0],"id":23,"left_children":[1,3,5,7,9,11,13,15,17,19,21,23,25,-1,-1,-1,-1,-1,-1,-1,-1,-1,-1,-1,-1,-1,-1],"loss_changes":[3.354532E1,3.685327E0,8.88389E0,4.7192273E0,6.1953545E-1,8.694498E0,1.3120394E0,5.647726E0,1.9223652E0,7.39861E-1,6.389818E-1,9.012455E0,7.9911594E0,0E0,0E0,0E0,0E0,0E0,0E0,0E0,0E0,0E0,0E0,0E0,0E0,0E0,0E0],"parents":[2147483647,0,0,1,1,2,2,3,3,4,4,5,5,6,6,7,7,8,8,9,9,10,10,11,11,12,12],"right_children":[2,4,6,8,10,12,14,16,18,20,22,24,26,-1,-1,-1,-1,-1,-1,-1,-1,-1,-1,-1,-1,-1,-1],"split_conditions":[1E0,1E0,1.3E1,7E0,1E0,1E0,1E0,1E0,5.538494E1,1E0,1E0,6E0,9E0,1.6990335E-1,1.9153437E-2,-2.471402E-3,5.97703E-3,-9.603082E-3,-3.5899777E-2,-6.3775363E-3,-2.0167024E-3,-1.0387148E-2,-3.9000683E-3,1.7970188E-2,1.2791797E-3,1.6593179E-3,-9.320793E-2],"split_indices":[11,8,2,3,22,6,52,7,84,58,30,1,0,0,0,0,0,0,0,0,0,0,0,0,0,0,0],"split_type":[0,0,0,0,0,0,0,0,0,0,0,0,0,0,0,0,0,0,0,0,0,0,0,0,0,0,0],"sum_hessian":[1.0195E4,7.793E3,2.402E3,5.071E3,2.722E3,2.398E3,4E0,4.626E3,4.45E2,1.966E3,7.56E2,1.729E3,6.69E2,3E0,1E0,3.614E3,1.012E3,4.16E2,2.9E1,1.43E3,5.36E2,5.43E2,2.13E2,1.298E3,4.31E2,6.61E2,8E0],"tree_param":{"num_deleted":"0","num_feature":"85","num_nodes":"27","size_leaf_vector":"1"}},{"base_weights":[1.9760235E-4,-2.8478643E-2,9.320737E-2,-1.7560147E-2,-6.751975E-2,1.1163287E-1,-9.292067E-2,-1.9106233E-2,4.3031627E-1,-8.0002084E-2,-3.5456326E-2,1.0879099E-1,1.3300679E0,-7.8995514E-1,-2.972296E-2,-3.7283942E-3,1.6029595E-3,3.5335068E-3,2.7884254E-1,-9.06667E-3,-3.6307906E-3,1.6611462E-2,-5.4201093E-3,1.4475577E-2,7.724673E-4,1.571606E-1,1.8195767E-2,-1.0898107E-1,5.319923E-2,-1.5135598E-2,4.7628403E-2],"categories":[],"categories_nodes":[],"categories_segments":[],"categories_sizes":[],"default_left":[0,0,0,0,0,0,0,0,0,0,0,0,0,0,0,0,0,0,0,0,0,0,0,0,0,0,0,0,0,0,0],"id":24,"left_children":[1,3,5,7,9,11,13,15,17,19,21,23,25,27,29,-1,-1,-1,-1,-1,-1,-1,-1,-1,-1,-1,-1,-1,-1,-1,-1],"loss_changes":[2.7197126E1,3.3211637E0,8.251469E0,4.226665E0,6.787491E-1,7.4280853E0,9.5355835E0,3.8787167E0,1.9461054E1,5.6753635E-1,1.8188571E0,7.933712E0,1.1005964E0,7.7148514E0,1.2381521E1,0E0,0E0,0E0,0E0,0E0,0E0,0E0,0E0,0E0,0E0,0E0,0E0,0E0,0E0,0E0,0E0],"parents":[2147483647,0,0,1,1,2,2,3,3,4,4,5,5,6,6,7,7,8,8,9,9,10,10,11,11,12,12,13,13,14,14],"right_children":[2,4,6,8,10,12,14,16,18,20,22,24,26,28,30,-1,-1,-1,-1,-1,-1,-1,-1,-1,-1,-1,-1,-1,-1,-1,-1],"split_conditions":[1E0,1E0,8E0,1E1,1E0,1.3E1,3E0,1E0,1E0,1E0,2E0,1E0,1E0,1E0,1E0,-3.7283942E-3,1.6029595E-3,3.5335068E-3,2.7884254E-1,-9.06667E-3,-3.6307906E-3,1.6611462E-2,-5.4201093E-3,1.4475577E-2,7.724673E-4,1.571606E-1,1.8195767E-2,-1.0898107E-1,5.319923E-2,-1.5135598E-2,4.7628403E-2],"split_indices":[11,5,3,1,66,2,2,10,71,27,3,82,52,60,25,0,0,0,0,0,0,0,0,0,0,0,0,0,0,0,0],"split_type":[0,0,0,0,0,0,0,0,0,0,0,0,0,0,0,0,0,0,0,0,0,0,0,0,0,0,0,0,0,0,0],"sum_hessian":[1.0195E4,7.793E3,2.402E3,6.091E3,1.702E3,2.186E3,2.16E2,6.071E3,2E1,1.224E3,4.78E2,2.182E3,4E0,1.7E1,1.99E2,4.001E3,2.07E3,1.8E1,2E0,9.83E2,2.41E2,4E1,4.38E2,1.609E3,5.73E2,3E0,1E0,1.4E1,3E0,1.61E2,3.8E1],"tree_param":{"num_deleted":"0","num_feature":"85","num_nodes":"31","size_leaf_vector":"1"}},{"base_weights":[2.2158764E-4,-2.5595017E-2,8.395625E-2,-1.3217553E-2,-5.8823574E-2,4.9372166E-2,1.7426868E-1,-2.4738776E-2,4.86528E-2,-7.584233E-2,-1.0072497E-3,8.878328E-2,-8.539111E-2,1.1203886E-1,3.8717744E-1,-3.9548986E-3,1.0745588E-3,9.205276E-3,-5.3829993E-3,-9.1801025E-3,-2.126649E-3,-1.4590176E-3,4.9014527E-2,1.5188343E-2,-1.140062E-2,-1.8613113E-2,2.0869752E-2,1.3754035E-2,-5.6226578E-2,5.591921E-2,-2.6616591E-3],"categories":[],"categories_nodes":[],"categories_segments":[],"categories_sizes":[],"default_left":[0,0,0,0,0,0,0,0,0,0,0,0,0,0,0,0,0,0,0,0,0,0,0,0,0,0,0,0,0,0,0],"id":25,"left_children":[1,3,5,7,9,11,13,15,17,19,21,23,25,27,29,-1,-1,-1,-1,-1,-1,-1,-1,-1,-1,-1,-1,-1,-1,-1,-1],"loss_changes":[2.2043297E1,3.2047796E0,7.4968586E0,4.0500336E0,2.0810027E0,9.243708E0,8.767387E0,2.5171921E0,3.9723465E0,1.4211941E0,3.2227123E0,1.7240793E1,1.1711684E1,8.950357E0,1.0691679E1,0E0,0E0,0E0,0E0,0E0,0E0,0E0,0E0,0E0,0E0,0E0,0E0,0E0,0E0,0E0,0E0],"parents":[2147483647,0,0,1,1,2,2,3,3,4,4,5,5,6,6,7,7,8,8,9,9,10,10,11,11,12,12,13,13,14,14],"right_children":[2,4,6,8,10,12,14,16,18,20,22,24,26,28,30,-1,-1,-1,-1,-1,-1,-1,-1,-1,-1,-1,-1,-1,-1,-1,-1],"split_conditions":[1E0,1E0,1E0,9E0,1E0,1E0,1E0,1E0,5E0,1E0,1E1,1E0,1E0,6.2619175E1,1E0,-3.9548986E-3,1.0745588E-3,9.205276E-3,-5.3829993E-3,-9.1801025E-3,-2.126649E-3,-1.4590176E-3,4.9014527E-2,1.5188343E-2,-1.140062E-2,-1.8613113E-2,2.0869752E-2,1.3754035E-2,-5.6226578E-2,5.591921E-2,-2.6616591E-3],"split_indices":[11,32,4,2,37,53,65,80,0,7,2,56,34,84,61,0,0,0,0,0,0,0,0,0,0,0,0,0,0,0,0],"split_type":[0,0,0,0,0,0,0,0,0,0,0,0,0,0,0,0,0,0,0,0,0,0,0,0,0,0,0,0,0,0,0],"sum_hessian":[1.0195E4,7.793E3,2.402E3,5.679E3,2.114E3,1.738E3,6.64E2,4.788E3,8.91E2,1.633E3,4.81E2,1.345E3,3.93E2,5.15E2,1.49E2,3.378E3,1.41E3,6.26E2,2.65E2,1.263E3,3.7E2,4.69E2,1.2E1,1.026E3,3.19E2,2.93E2,1E2,4.97E2,1.8E1,1.05E2,4.4E1],"tree_param":{"num_deleted":"0","num_feature":"85","num_nodes":"31","size_leaf_vector":"1"}},{"base_weights":[2.0472702E-4,-2.3030745E-2,7.556763E-2,-3.5222843E-2,8.847821E-3,1.23049006E-1,1.1505278E-2,-3.2013208E-2,-1.2861167E-1,3.1627983E-2,-6.096794E-2,6.0443234E-2,2.6310876E-1,7.574866E-2,-1.7952642E-1,2.6578822E-3,-3.695943E-3,-1.7226633E-2,-5.8078826E-3,3.955493E-4,1.2149906E-2,-6.935174E-3,4.9579192E-2,-7.7166606E-4,2.4266956E-2,1.68455E-2,4.797267E-2,-1.0679761E-2,1.6848683E-2,-1.6186228E-3,-7.424894E-2],"categories":[],"categories_nodes":[],"categories_segments":[],"categories_sizes":[],"default_left":[0,0,0,0,0,0,0,0,0,0,0,0,0,0,0,0,0,0,0,0,0,0,0,0,0,0,0,0,0,0,0],"id":26,"left_children":[1,3,5,7,9,11,13,15,17,19,21,23,25,27,29,-1,-1,-1,-1,-1,-1,-1,-1,-1,-1,-1,-1,-1,-1,-1,-1],"loss_changes":[1.7855883E1,3.0295787E0,7.307954E0,1.6858397E0,3.4324517E0,1.2084696E1,1.2580661E1,1.5810218E0,5.657842E-1,4.0457973E0,2.512966E0,1.1863476E1,8.653763E0,1.30025425E1,2.371224E1,0E0,0E0,0E0,0E0,0E0,0E0,0E0,0E0,0E0,0E0,0E0,0E0,0E0,0E0,0E0,0E0],"parents":[2147483647,0,0,1,1,2,2,3,3,4,4,5,5,6,6,7,7,8,8,9,9,10,10,11,11,12,12,13,13,14,14],"right_children":[2,4,6,8,10,12,14,16,18,20,22,24,26,28,30,-1,-1,-1,-1,-1,-1,-1,-1,-1,-1,-1,-1,-1,-1,-1,-1],"split_conditions":[1E0,1E0,6E0,8E0,1E0,1E0,1E0,3E0,1E0,1E0,1.2E1,1E0,1E0,4.86483E1,1E0,2.6578822E-3,-3.695943E-3,-1.7226633E-2,-5.8078826E-3,3.955493E-4,1.2149906E-2,-6.935174E-3,4.9579192E-2,-7.7166606E-4,2.4266956E-2,1.68455E-2,4.797267E-2,-1.0679761E-2,1.6848683E-2,-1.6186228E-3,-7.424894E-2],"split_indices":[11,18,3,3,36,30,30,0,8,7,2,24,34,84,50,0,0,0,0,0,0,0,0,0,0,0,0,0,0,0,0],"split_type":[0,0,0,0,0,0,0,0,0,0,0,0,0,0,0,0,0,0,0,0,0,0,0,0,0,0,0,0,0,0,0],"sum_hessian":[1.0195E4,7.793E3,2.402E3,5.637E3,2.156E3,1.379E3,1.023E3,5.451E3,1.86E2,1.626E3,5.3E2,9.54E2,4.25E2,7.66E2,2.57E2,4.24E2,5.027E3,1.14E2,7.2E1,1.244E3,3.82E2,5.23E2,7E0,6.95E2,2.59E2,2.97E2,1.28E2,2.58E2,5.08E2,2E2,5.7E1],"tree_param":{"num_deleted":"0","num_feature":"85","num_nodes":"31","size_leaf_vector":"1"}},{"base_weights":[1.8913212E-4,-2.0723676E-2,6.8018615E-2,-3.2323416E-2,9.566671E-3,3.6572818E-2,1.6161864E-1,-1.971286E-2,-7.706023E-2,6.313699E-3,7.8596413E-1,-5.962736E-3,1.5094292E-1,8.689662E-2,4.109628E-1,-3.5312257E-3,2.6806719E-3,-7.906881E-3,7.768309E-2,-1.5672166E-3,5.9299734E-3,-1.5345096E-2,4.1506425E-1,6.7673633E-3,-9.411938E-3,2.199715E-2,-5.3463327E-3,3.7626195E-4,3.2127645E-2,3.1783883E-2,1.3700384E-1],"categories":[],"categories_nodes":[],"categories_segments":[],"categories_sizes":[],"default_left":[0,0,0,0,0,0,0,0,0,0,0,0,0,0,0,0,0,0,0,0,0,0,0,0,0,0,0,0,0,0,0],"id":27,"left_children":[1,3,5,7,9,11,13,15,17,19,21,23,25,27,29,-1,-1,-1,-1,-1,-1,-1,-1,-1,-1,-1,-1,-1,-1,-1,-1],"loss_changes":[1.4464486E1,2.7388103E0,7.066904E0,3.1780648E0,5.447807E0,8.757531E0,1.1217712E1,3.1924758E0,2.1864429E0,2.5067234E0,2.9084387E1,8.529755E0,6.897379E0,9.078769E0,1.1979046E1,0E0,0E0,0E0,0E0,0E0,0E0,0E0,0E0,0E0,0E0,0E0,0E0,0E0,0E0,0E0,0E0],"parents":[2147483647,0,0,1,1,2,2,3,3,4,4,5,5,6,6,7,7,8,8,9,9,10,10,11,11,12,12,13,13,14,14],"right_children":[2,4,6,8,10,12,14,16,18,20,22,24,26,28,30,-1,-1,-1,-1,-1,-1,-1,-1,-1,-1,-1,-1,-1,-1,-1,-1],"split_conditions":[1E0,1E0,1E0,1E0,1E1,1E0,1E0,1E0,6.8163956E1,1E0,1E0,6E0,1E0,1E0,6.2619175E1,-3.5312257E-3,2.6806719E-3,-7.906881E-3,7.768309E-2,-1.5672166E-3,5.9299734E-3,-1.5345096E-2,4.1506425E-1,6.7673633E-3,-9.411938E-3,2.199715E-2,-5.3463327E-3,3.7626195E-4,3.2127645E-2,3.1783883E-2,1.3700384E-1],"split_indices":[11,80,80,79,1,52,66,68,84,30,4,3,29,45,84,0,0,0,0,0,0,0,0,0,0,0,0,0,0,0,0],"split_type":[0,0,0,0,0,0,0,0,0,0,0,0,0,0,0,0,0,0,0,0,0,0,0,0,0,0,0,0,0,0,0],"sum_hessian":[1.0195E4,7.793E3,2.402E3,5.635E3,2.158E3,1.799E3,6.03E2,4.397E3,1.238E3,2.15E3,8E0,1.312E3,4.87E2,4.65E2,1.38E2,3.293E3,1.104E3,1.236E3,2E0,1.52E3,6.3E2,7E0,1E0,7.15E2,5.97E2,3.64E2,1.23E2,3.44E2,1.21E2,1.27E2,1.1E1],"tree_param":{"num_deleted":"0","num_feature":"85","num_nodes":"31","size_leaf_vector":"1"}},{"base_weights":[2.3772538E-4,-1.8590622E-2,6.1306346E-2,-2.997037E-2,1.1469954E-2,3.3005655E-2,1.6198772E-1,-4.341387E-2,6.686901E-3,3.9677385E-2,-7.3916204E-2,7.2158284E-2,-1.0424854E-1,8.768849E-2,3.4641704E-1,-2.8666556E-3,-8.360437E-3,-4.970197E-4,2.8520105E-2,7.194087E-3,-2.1781912E-3,-2.3882775E-2,-6.110701E-3,1.768997E-2,2.1834825E-3,-1.7642267E-3,-3.9761253E-2,1.1396718E-3,2.9605616E-2,2.3761984E-2,7.599022E-2],"categories":[],"categories_nodes":[],"categories_segments":[],"categories_sizes":[],"default_left":[0,0,0,0,0,0,0,0,0,0,0,0,0,0,0,0,0,0,0,0,0,0,0,0,0,0,0,0,0,0,0],"id":28,"left_children":[1,3,5,7,9,11,13,15,17,19,21,23,25,27,29,-1,-1,-1,-1,-1,-1,-1,-1,-1,-1,-1,-1,-1,-1,-1,-1],"loss_changes":[1.1724716E1,2.6665292E0,6.841647E0,2.7865934E0,5.159583E0,1.0094263E1,7.191081E0,2.4496117E0,4.9298577E0,3.1940212E0,1.109195E0,7.6969953E0,1.0587772E1,5.9896955E0,6.6123238E0,0E0,0E0,0E0,0E0,0E0,0E0,0E0,0E0,0E0,0E0,0E0,0E0,0E0,0E0,0E0,0E0],"parents":[2147483647,0,0,1,1,2,2,3,3,4,4,5,5,6,6,7,7,8,8,9,9,10,10,11,11,12,12,13,13,14,14],"right_children":[2,4,6,8,10,12,14,16,18,20,22,24,26,28,30,-1,-1,-1,-1,-1,-1,-1,-1,-1,-1,-1,-1,-1,-1,-1,-1],"split_conditions":[1E0,1E0,1E0,1E0,1E0,1E0,1E0,1E0,1E1,1E0,5.054147E1,5E0,1E0,1E0,1E0,-2.8666556E-3,-8.360437E-3,-4.970197E-4,2.8520105E-2,7.194087E-3,-2.1781912E-3,-2.3882775E-2,-6.110701E-3,1.768997E-2,2.1834825E-3,-1.7642267E-3,-3.9761253E-2,1.1396718E-3,2.9605616E-2,2.3761984E-2,7.599022E-2],"split_indices":[11,54,41,44,56,29,44,32,2,8,84,3,71,80,81,0,0,0,0,0,0,0,0,0,0,0,0,0,0,0,0],"split_type":[0,0,0,0,0,0,0,0,0,0,0,0,0,0,0,0,0,0,0,0,0,0,0,0,0,0,0,0,0,0,0],"sum_hessian":[1.0195E4,7.793E3,2.402E3,5.653E3,2.14E3,1.876E3,5.26E2,4.136E3,1.517E3,1.609E3,5.31E2,1.46E3,4.16E2,3.76E2,1.5E2,3.027E3,1.109E3,1.457E3,6E1,1.055E3,5.54E2,3.7E1,4.94E2,4.73E2,9.87E2,3.22E2,9.4E1,2.76E2,1E2,1.2E2,3E1],"tree_param":{"num_deleted":"0","num_feature":"85","num_nodes":"31","size_leaf_vector":"1"}},{"base_weights":[2.2382913E-4,-1.6732607E-2,5.5221017E-2,-7.275832E-3,-5.0551716E-2,8.825756E-2,-3.0008921E-2,-8.65201E-3,3.9098287E-1,-6.1278947E-2,-2.3012243E-2,1.2680843E-1,-2.8045557E-2,-9.325619E-2,1.3093023E-1,-1.2234309E-3,1.2727817E-2,4.237041E-3,2.4685343E-1,-7.1047186E-3,-2.1306942E-3,-5.11655E-3,8.285999E-3,3.4774855E-2,9.574257E-3,5.0198706E-3,-3.43426E-2,-1.652972E-2,1.4409313E-2,-7.336883E-4,5.0791975E-2],"categories":[],"categories_nodes":[],"categories_segments":[],"categories_sizes":[],"default_left":[0,0,0,0,0,0,0,0,0,0,0,0,0,0,0,0,0,0,0,0,0,0,0,0,0,0,0,0,0,0,0],"id":29,"left_children":[1,3,5,7,9,11,13,15,17,19,21,23,25,27,29,-1,-1,-1,-1,-1,-1,-1,-1,-1,-1,-1,-1,-1,-1,-1,-1],"loss_changes":[9.509268E0,2.4923067E0,6.7687817E0,3.3422563E0,5.016942E-1,7.769129E0,6.852472E0,2.9582713E0,1.5104873E1,4.767952E-1,1.43197E0,8.896378E0,1.0677576E1,8.282579E0,9.907524E0,0E0,0E0,0E0,0E0,0E0,0E0,0E0,0E0,0E0,0E0,0E0,0E0,0E0,0E0,0E0,0E0],"parents":[2147483647,0,0,1,1,2,2,3,3,4,4,5,5,6,6,7,7,8,8,9,9,10,10,11,11,12,12,13,13,14,14],"right_children":[2,4,6,8,10,12,14,16,18,20,22,24,26,28,30,-1,-1,-1,-1,-1,-1,-1,-1,-1,-1,-1,-1,-1,-1,-1,-1],"split_conditions":[1E0,1E0,1E0,1E1,1E0,6E0,1E0,1.1E1,1E0,1E0,7E0,4E0,1E0,1E0,1E0,-1.2234309E-3,1.2727817E-2,4.237041E-3,2.4685343E-1,-7.1047186E-3,-2.1306942E-3,-5.11655E-3,8.285999E-3,3.4774855E-2,9.574257E-3,5.0198706E-3,-3.43426E-2,-1.652972E-2,1.4409313E-2,-7.336883E-4,5.0791975E-2],"split_indices":[11,5,6,1,66,1,20,2,71,27,1,3,38,41,80,0,0,0,0,0,0,0,0,0,0,0,0,0,0,0,0],"split_type":[0,0,0,0,0,0,0,0,0,0,0,0,0,0,0,0,0,0,0,0,0,0,0,0,0,0,0,0,0,0,0],"sum_hessian":[1.0195E4,7.793E3,2.402E3,6.091E3,1.702E3,1.731E3,6.71E2,6.071E3,2E1,1.224E3,4.78E2,1.3E3,4.31E2,4.82E2,1.89E2,5.916E3,1.55E2,1.8E1,2E0,9.83E2,2.41E2,3.78E2,1E2,1.59E2,1.141E3,3.46E2,8.5E1,3.7E2,1.12E2,1.39E2,5E1],"tree_param":{"num_deleted":"0","num_feature":"85","num_nodes":"31","size_leaf_vector":"1"}},{"base_weights":[2.3278312E-4,-1.5026427E-2,4.9725104E-2,-9.609234E-3,-7.043342E-2,1.8751387E-2,1.3270405E-1,-2.0786487E-2,3.1306993E-2,-8.8078424E-2,2.2043983E-2,5.9367165E-2,-8.708879E-2,2.0410082E-1,-6.8279644E-3,-7.4079935E-4,-5.4874807E-3,-2.3756286E-3,1.229923E-2,-1.06382435E-2,-1.1005255E-3,-2.5735607E-3,4.2235184E-2,-2.3042379E-2,8.174098E-3,-1.9503718E-2,1.3407506E-2,1.3376566E-2,4.11298E-2,9.196209E-3,-2.6325328E-2],"categories":[],"categories_nodes":[],"categories_segments":[],"categories_sizes":[],"default_left":[0,0,0,0,0,0,0,0,0,0,0,0,0,0,0,0,0,0,0,0,0,0,0,0,0,0,0,0,0,0,0],"id":30,"left_children":[1,3,5,7,9,11,13,15,17,19,21,23,25,27,29,-1,-1,-1,-1,-1,-1,-1,-1,-1,-1,-1,-1,-1,-1,-1,-1],"loss_changes":[7.7009063E0,2.3386953E0,6.1736217E0,3.2481585E0,1.1343861E0,7.532336E0,6.506668E0,2.5434422E0,7.6968265E0,8.2129526E-1,2.1530426E0,8.227239E0,1.1629051E1,6.2406254E0,5.647973E0,0E0,0E0,0E0,0E0,0E0,0E0,0E0,0E0,0E0,0E0,0E0,0E0,0E0,0E0,0E0,0E0],"parents":[2147483647,0,0,1,1,2,2,3,3,4,4,5,5,6,6,7,7,8,8,9,9,10,10,11,11,12,12,13,13,14,14],"right_children":[2,4,6,8,10,12,14,16,18,20,22,24,26,28,30,-1,-1,-1,-1,-1,-1,-1,-1,-1,-1,-1,-1,-1,-1,-1,-1],"split_conditions":[1E0,7E0,1E0,1E0,1E0,1E0,1E0,1E0,1E0,1E0,1E0,4.5614014E1,1E0,1E0,1E0,-7.4079935E-4,-5.4874807E-3,-2.3756286E-3,1.229923E-2,-1.06382435E-2,-1.1005255E-3,-2.5735607E-3,4.2235184E-2,-2.3042379E-2,8.174098E-3,-1.9503718E-2,1.3407506E-2,1.3376566E-2,4.11298E-2,9.196209E-3,-2.6325328E-2],"split_indices":[11,3,18,7,72,46,26,28,10,80,45,84,19,45,56,0,0,0,0,0,0,0,0,0,0,0,0,0,0,0,0],"split_type":[0,0,0,0,0,0,0,0,0,0,0,0,0,0,0,0,0,0,0,0,0,0,0,0,0,0,0,0,0,0,0],"sum_hessian":[1.0195E4,7.793E3,2.402E3,7.1E3,6.93E2,1.75E3,6.52E2,5.577E3,1.523E3,5.82E2,1.11E2,1.265E3,4.85E2,4.31E2,2.21E2,4.006E3,1.571E3,9.52E2,5.71E2,4.7E2,1.12E2,1E2,1.1E1,9E1,1.175E3,3.26E2,1.59E2,3.23E2,1.08E2,1.6E2,6.1E1],"tree_param":{"num_deleted":"0","num_feature":"85","num_nodes":"31","size_leaf_vector":"1"}},{"base_weights":[2.1421762E-4,-1.3519726E-2,4.4759426E-2,-2.4128472E-2,1.42158475E-2,4.2416126E-2,1.1601235E0,-1.5311056E-2,-5.3132426E-2,-6.753768E-3,7.796199E-2,-8.573008E-2,6.612596E-2,1.3918534E-1,1.1660206E-2,-3.8810607E-4,-5.100294E-3,-3.2097013E-3,-9.04658E-3,-2.8197465E-3,6.2564933E-3,6.3768723E-3,3.8214874E-1,-2.03109E-2,1.6848933E-2,9.935356E-3,-4.2809397E-3],"categories":[],"categories_nodes":[],"categories_segments":[],"categories_sizes":[],"default_left":[0,0,0,0,0,0,0,0,0,0,0,0,0,0,0,0,0,0,0,0,0,0,0,0,0,0,0],"id":31,"left_children":[1,3,5,7,9,11,13,15,17,19,21,23,25,-1,-1,-1,-1,-1,-1,-1,-1,-1,-1,-1,-1,-1,-1],"loss_changes":[6.238328E0,2.2936466E0,6.2313547E0,1.4410484E0,2.8838577E0,7.2946115E0,1.046782E0,1.7642206E0,1.029011E0,2.4157577E0,2.8129261E1,1.1224221E1,7.3340664E0,0E0,0E0,0E0,0E0,0E0,0E0,0E0,0E0,0E0,0E0,0E0,0E0,0E0,0E0],"parents":[2147483647,0,0,1,1,2,2,3,3,4,4,5,5,6,6,7,7,8,8,9,9,10,10,11,11,12,12],"right_children":[2,4,6,8,10,12,14,16,18,20,22,24,26,-1,-1,-1,-1,-1,-1,-1,-1,-1,-1,-1,-1,-1,-1],"split_conditions":[1E0,1E0,1.3E1,1E0,1E0,3E0,1E0,1E0,1E0,1E0,1E1,1E0,1E0,1.3918534E-1,1.1660206E-2,-3.8810607E-4,-5.100294E-3,-3.2097013E-3,-9.04658E-3,-2.8197465E-3,6.2564933E-3,6.3768723E-3,3.8214874E-1,-2.03109E-2,1.6848933E-2,9.935356E-3,-4.2809397E-3],"split_indices":[11,18,2,23,63,1,52,25,26,37,1,66,35,0,0,0,0,0,0,0,0,0,0,0,0,0,0],"split_type":[0,0,0,0,0,0,0,0,0,0,0,0,0,0,0,0,0,0,0,0,0,0,0,0,0,0,0],"sum_hessian":[1.0195E4,7.793E3,2.402E3,5.637E3,2.156E3,2.398E3,4E0,4.324E3,1.313E3,1.623E3,5.33E2,3.74E2,2.024E3,3E0,1E0,3.276E3,1.048E3,8.41E2,4.72E2,1.24E3,3.83E2,5.32E2,1E0,2.56E2,1.18E2,1.551E3,4.73E2],"tree_param":{"num_deleted":"0","num_feature":"85","num_nodes":"27","size_leaf_vector":"1"}},{"base_weights":[2.4450256E-4,-1.3626152E-2,3.6725868E-2,-1.0423166E-2,-1.996491E-1,4.2318803E-1,3.1556077E-2,3.9204746E-3,-4.6758574E-2,-2.5135192E-1,8.435837E-2,3.3563635E-1,1.5968192E-1,5.1478516E-2,-4.7975443E-2,-1.2496774E-3,5.760974E-3,-8.151562E-3,2.3077957E-3,-3.7288334E-2,-1.4821871E-2,-7.3078396E-3,3.871807E-2,3.901745E-2,-3.7868142E-2,8.068449E-3,-4.6991757E-3,-1.0826368E-3,-2.3521833E-2],"categories":[],"categories_nodes":[],"categories_segments":[],"categories_sizes":[],"default_left":[0,0,0,0,0,0,0,0,0,0,0,0,0,0,0,0,0,0,0,0,0,0,0,0,0,0,0,0,0],"id":32,"left_children":[1,3,5,7,9,11,13,15,17,19,21,-1,23,25,27,-1,-1,-1,-1,-1,-1,-1,-1,-1,-1,-1,-1,-1,-1],"loss_changes":[5.1598845E0,4.3999033E0,5.5988255E0,3.7860496E0,1.8567023E0,2.8061707E1,4.3961825E0,4.5920887E0,4.9924335E0,1.2733283E0,9.8180187E-1,0E0,4.490858E0,6.382582E0,3.8649344E0,0E0,0E0,0E0,0E0,0E0,0E0,0E0,0E0,0E0,0E0,0E0,0E0,0E0,0E0],"parents":[2147483647,0,0,1,1,2,2,3,3,4,4,5,5,6,6,7,7,8,8,9,9,10,10,12,12,13,13,14,14],"right_children":[2,4,6,8,10,12,14,16,18,20,22,-1,24,26,28,-1,-1,-1,-1,-1,-1,-1,-1,-1,-1,-1,-1,-1,-1],"split_conditions":[1E0,9E0,4.533997E1,1E0,1E0,5E0,1E0,1E0,1E0,1E0,1E0,3.3563635E-1,1E0,1E0,6E0,-1.2496774E-3,5.760974E-3,-8.151562E-3,2.3077957E-3,-3.7288334E-2,-1.4821871E-2,-7.3078396E-3,3.871807E-2,3.901745E-2,-3.7868142E-2,8.068449E-3,-4.6991757E-3,-1.0826368E-3,-2.3521833E-2],"split_indices":[18,3,84,46,32,3,53,11,19,83,26,0,29,79,3,0,0,0,0,0,0,0,0,0,0,0,0,0,0],"split_type":[0,0,0,0,0,0,0,0,0,0,0,0,0,0,0,0,0,0,0,0,0,0,0,0,0,0,0,0,0],"sum_hessian":[1.0195E4,7.387E3,2.808E3,7.263E3,1.24E2,3.6E1,2.772E3,5.208E3,2.055E3,1.05E2,1.9E1,2E0,3.4E1,2.217E3,5.55E2,3.989E3,1.219E3,1.372E3,6.83E2,4.7E1,5.8E1,1.3E1,6E0,2.4E1,1E1,1.71E3,5.07E2,4.64E2,9.1E1],"tree_param":{"num_deleted":"0","num_feature":"85","num_nodes":"29","size_leaf_vector":"1"}},{"base_weights":[2.4883667E-4,-1.3464899E-2,3.7164614E-2,-2.7719734E-2,2.494416E-2,5.9638E-2,-4.188346E-2,-1.689749E-1,-2.2194106E-2,4.323986E-2,-1.1234026E-1,3.0479146E-2,1.62737E-1,4.1427556E-1,-6.201677E-2,-8.279087E-3,-4.0684186E-2,-5.6873035E-4,-6.1059943E-3,1.5201232E-3,1.4259112E-2,-1.9017383E-2,1.7525226E-2,2.7107734E-3,6.52677E-2,8.310902E-3,4.2861868E-2,8.506623E-3,1.0266637E-1,-9.592769E-3,6.1565517E-3],"categories":[],"categories_nodes":[],"categories_segments":[],"categories_sizes":[],"default_left":[0,0,0,0,0,0,0,0,0,0,0,0,0,0,0,0,0,0,0,0,0,0,0,0,0,0,0,0,0,0,0],"id":33,"left_children":[1,3,5,7,9,11,13,15,17,19,21,23,25,27,29,-1,-1,-1,-1,-1,-1,-1,-1,-1,-1,-1,-1,-1,-1,-1,-1],"loss_changes":[5.162258E0,4.0714645E0,4.9091306E0,4.229028E0,5.06094E0,6.46148E0,5.6462936E0,4.148386E0,3.348548E0,4.9479733E0,5.33842E0,3.502224E0,9.999728E0,5.154366E0,2.465898E0,0E0,0E0,0E0,0E0,0E0,0E0,0E0,0E0,0E0,0E0,0E0,0E0,0E0,0E0,0E0,0E0],"parents":[2147483647,0,0,1,1,2,2,3,3,4,4,5,5,6,6,7,7,8,8,9,9,10,10,11,11,12,12,13,13,14,14],"right_children":[2,4,6,8,10,12,14,16,18,20,22,24,26,28,30,-1,-1,-1,-1,-1,-1,-1,-1,-1,-1,-1,-1,-1,-1,-1,-1],"split_conditions":[1E0,1E0,1E0,2E0,7E0,1E0,4E0,1E0,6E0,1E0,1E0,1E1,1E0,1E0,1E0,-8.279087E-3,-4.0684186E-2,-5.6873035E-4,-6.1059943E-3,1.5201232E-3,1.4259112E-2,-1.9017383E-2,1.7525226E-2,2.7107734E-3,6.52677E-2,8.310902E-3,4.2861868E-2,8.506623E-3,1.0266637E-1,-9.592769E-3,6.1565517E-3],"split_indices":[80,34,72,1,3,11,0,11,1,11,58,1,66,45,39,0,0,0,0,0,0,0,0,0,0,0,0,0,0,0,0],"split_type":[0,0,0,0,0,0,0,0,0,0,0,0,0,0,0,0,0,0,0,0,0,0,0,0,0,0,0,0,0,0,0],"sum_hessian":[1.0195E4,7.434E3,2.761E3,5.422E3,2.012E3,2.15E3,6.11E2,2.03E2,5.219E3,1.776E3,2.36E2,1.677E3,4.73E2,2.5E1,5.86E2,1.5E2,5.3E1,3.664E3,1.555E3,1.386E3,3.9E2,1.86E2,5E1,1.669E3,8E0,3.65E2,1.08E2,1.7E1,8E0,4.6E2,1.26E2],"tree_param":{"num_deleted":"0","num_feature":"85","num_nodes":"31","size_leaf_vector":"1"}},{"base_weights":[2.4215557E-4,-1.2302857E-2,3.3236925E-2,-7.0874323E-3,-1.1092696E-1,1.0256348E-2,1.0909584E-1,6.4121736E-3,-4.854528E-2,-4.280508E-1,-7.8698754E-2,2.9788917E-2,-4.961135E-2,1.621144E-1,-6.9773845E-2,-1.1489487E-3,6.9675567E-3,-2.2090685E-3,-1.6454577E-2,-1.2329531E-2,-8.058547E-2,-1.804403E-2,4.11564E-3,4.6795113E-3,-9.38946E-3,-6.1175697E-3,2.6523715E-2,2.3772255E-2,-2.6720406E-3,-2.0229103E-2,7.538932E-2],"categories":[],"categories_nodes":[],"categories_segments":[],"categories_sizes":[],"default_left":[0,0,0,0,0,0,0,0,0,0,0,0,0,0,0,0,0,0,0,0,0,0,0,0,0,0,0,0,0,0,0],"id":34,"left_children":[1,3,5,7,9,11,13,15,17,19,21,23,25,27,29,-1,-1,-1,-1,-1,-1,-1,-1,-1,-1,-1,-1,-1,-1,-1,-1],"loss_changes":[4.220735E0,3.799354E0,4.8957596E0,3.9280372E0,3.7580566E0,2.523809E0,6.2039795E0,5.997493E0,5.286884E0,3.8153272E0,4.1290827E0,3.4266028E0,1.9496063E0,7.2021875E0,1.6525011E1,0E0,0E0,0E0,0E0,0E0,0E0,0E0,0E0,0E0,0E0,0E0,0E0,0E0,0E0,0E0,0E0],"parents":[2147483647,0,0,1,1,2,2,3,3,4,4,5,5,6,6,7,7,8,8,9,9,10,10,11,11,12,12,13,13,14,14],"right_children":[2,4,6,8,10,12,14,16,18,20,22,24,26,28,30,-1,-1,-1,-1,-1,-1,-1,-1,-1,-1,-1,-1,-1,-1,-1,-1],"split_conditions":[1E0,8E0,1E0,1E0,3E0,1E0,1E0,1E0,1E0,1E0,4.8798035E1,6.184156E1,1.1E1,1E0,6E0,-1.1489487E-3,6.9675567E-3,-2.2090685E-3,-1.6454577E-2,-1.2329531E-2,-8.058547E-2,-1.804403E-2,4.11564E-3,4.6795113E-3,-9.38946E-3,-6.1175697E-3,2.6523715E-2,2.3772255E-2,-2.6720406E-3,-2.0229103E-2,7.538932E-2],"split_indices":[18,3,11,25,2,36,75,11,21,68,84,84,2,56,0,0,0,0,0,0,0,0,0,0,0,0,0,0,0,0,0],"split_type":[0,0,0,0,0,0,0,0,0,0,0,0,0,0,0,0,0,0,0,0,0,0,0,0,0,0,0,0,0,0,0],"sum_hessian":[1.0195E4,7.387E3,2.808E3,7.017E3,3.7E2,2.156E3,6.52E2,5.294E3,1.723E3,3.3E1,3.37E2,1.626E3,5.3E2,5.03E2,1.49E2,4.127E3,1.167E3,1.404E3,3.19E2,1.9E1,1.4E1,1.82E2,1.55E2,1.43E3,1.96E2,5.12E2,1.8E1,3.59E2,1.44E2,1.29E2,2E1],"tree_param":{"num_deleted":"0","num_feature":"85","num_nodes":"31","size_leaf_vector":"1"}},{"base_weights":[2.1521964E-4,1.144733E-2,-3.653509E-2,-5.353182E-3,5.6280144E-2,-5.935314E-2,3.4982555E-2,-1.8513666E-2,3.871387E-2,2.5935724E-2,1.6131797E-1,-1.7708921E-1,-3.9932054E-2,1.0165132E-1,-7.9739265E-2,-1.854539E-4,-7.3605026E-3,-7.4433796E-5,1.7832726E-2,5.077437E-3,-4.6871845E-3,8.55801E-3,4.1623503E-2,-1.10230055E-2,-3.151182E-2,-6.3414807E-3,3.4129438E-3,4.1193995E-3,2.6428679E-2,-8.2658016E-4,-6.998832E-2],"categories":[],"categories_nodes":[],"categories_segments":[],"categories_sizes":[],"default_left":[0,0,0,0,0,0,0,0,0,0,0,0,0,0,0,0,0,0,0,0,0,0,0,0,0,0,0,0,0,0,0],"id":35,"left_children":[1,3,5,7,9,11,13,15,17,19,21,23,25,27,29,-1,-1,-1,-1,-1,-1,-1,-1,-1,-1,-1,-1,-1,-1,-1,-1],"loss_changes":[4.2091594E0,5.882904E0,3.8974054E0,3.295957E0,6.7816024E0,4.1316066E0,4.4288588E0,4.0160418E0,7.200258E0,2.9917336E0,9.1737585E0,2.3277617E0,2.7065692E0,3.5878093E0,9.435191E0,0E0,0E0,0E0,0E0,0E0,0E0,0E0,0E0,0E0,0E0,0E0,0E0,0E0,0E0,0E0,0E0],"parents":[2147483647,0,0,1,1,2,2,3,3,4,4,5,5,6,6,7,7,8,8,9,9,10,10,11,11,12,12,13,13,14,14],"right_children":[2,4,6,8,10,12,14,16,18,20,22,24,26,28,30,-1,-1,-1,-1,-1,-1,-1,-1,-1,-1,-1,-1,-1,-1,-1,-1],"split_conditions":[1E0,1E0,1E0,1E0,1E0,4.8553936E1,5.3213684E1,1E0,1E0,1E0,1E0,1E0,1E0,1E0,1E0,-1.854539E-4,-7.3605026E-3,-7.4433796E-5,1.7832726E-2,5.077437E-3,-4.6871845E-3,8.55801E-3,4.1623503E-2,-1.10230055E-2,-3.151182E-2,-6.3414807E-3,3.4129438E-3,4.1193995E-3,2.6428679E-2,-8.2658016E-4,-6.998832E-2],"split_indices":[23,80,25,37,11,84,84,17,65,19,66,11,69,18,11,0,0,0,0,0,0,0,0,0,0,0,0,0,0,0,0],"split_type":[0,0,0,0,0,0,0,0,0,0,0,0,0,0,0,0,0,0,0,0,0,0,0,0,0,0,0,0,0,0,0],"sum_hessian":[1.0195E4,7.809E3,2.386E3,5.681E3,2.128E3,1.809E3,5.77E2,4.375E3,1.306E3,1.652E3,4.76E2,2.55E2,1.554E3,3.65E2,2.12E2,3.36E3,1.015E3,1.019E3,2.87E2,1.232E3,4.2E2,3.68E2,1.08E2,1.73E2,8.2E1,1.18E3,3.74E2,2.67E2,9.8E1,1.91E2,2.1E1],"tree_param":{"num_deleted":"0","num_feature":"85","num_nodes":"31","size_leaf_vector":"1"}},{"base_weights":[1.9124904E-4,-2.6877956E-3,1.3514051E-1,-1.3960253E-2,3.5385724E-2,7.7009566E-2,7.246348E-1,-1.8684964E-3,-4.8236355E-2,-4.905617E-1,3.885014E-2,1.24000505E-1,-1.5743081E-1,1.282909E0,2.9206577E-1,-1.677623E-3,4.3245843E-3,-8.259121E-3,3.0689938E-3,-7.184663E-2,-1.27461245E-2,1.4818005E-3,1.2037233E-2,2.8125508E-2,1.4103021E-3,1.5048893E-1,-2.564061E-2,1.7513951E-2,1.6229756E-1,-5.867137E-3,7.94832E-2],"categories":[],"categories_nodes":[],"categories_segments":[],"categories_sizes":[],"default_left":[0,0,0,0,0,0,0,0,0,0,0,0,0,0,0,0,0,0,0,0,0,0,0,0,0,0,0,0,0,0,0],"id":36,"left_children":[1,3,5,7,9,11,13,15,17,19,21,23,25,27,29,-1,-1,-1,-1,-1,-1,-1,-1,-1,-1,-1,-1,-1,-1,-1,-1],"loss_changes":[3.9617634E0,4.2854486E0,7.2432494E0,3.1928964E0,4.1752667E0,2.1677532E0,4.2136574E0,3.8315847E0,5.449942E0,1.1497076E0,4.439615E0,2.81298E0,5.8153067E0,2.729476E0,2.1626995E0,0E0,0E0,0E0,0E0,0E0,0E0,0E0,0E0,0E0,0E0,0E0,0E0,0E0,0E0,0E0,0E0],"parents":[2147483647,0,0,1,1,2,2,3,3,4,4,5,5,6,6,7,7,8,8,9,9,10,10,11,11,12,12,13,13,14,14],"right_children":[2,4,6,8,10,12,14,16,18,20,22,24,26,28,30,-1,-1,-1,-1,-1,-1,-1,-1,-1,-1,-1,-1,-1,-1,-1,-1],"split_conditions":[1.1E1,1E0,1E0,1E0,4.1451286E1,1E0,5.83396E1,1E0,1E0,1E0,1E0,4E0,5.571558E1,1E0,1.2E1,-1.677623E-3,4.3245843E-3,-8.259121E-3,3.0689938E-3,-7.184663E-2,-1.27461245E-2,1.4818005E-3,1.2037233E-2,2.8125508E-2,1.4103021E-3,1.5048893E-1,-2.564061E-2,1.7513951E-2,1.6229756E-1,-5.867137E-3,7.94832E-2],"split_indices":[2,41,61,6,84,21,84,65,20,63,11,0,84,38,2,0,0,0,0,0,0,0,0,0,0,0,0,0,0,0,0],"split_type":[0,0,0,0,0,0,0,0,0,0,0,0,0,0,0,0,0,0,0,0,0,0,0,0,0,0,0,0,0,0,0],"sum_hessian":[1.0195E4,9.983E3,2.12E2,7.703E3,2.28E3,1.94E2,1.8E1,5.695E3,2.008E3,1.4E1,2.266E3,1.62E2,3.2E1,7E0,1.1E1,4.281E3,1.414E3,1.399E3,6.09E2,8E0,6E0,1.751E3,5.15E2,6.6E1,9.6E1,1E0,3.1E1,2E0,5E0,7E0,4E0],"tree_param":{"num_deleted":"0","num_feature":"85","num_nodes":"31","size_leaf_vector":"1"}},{"base_weights":[2.0490558E-4,-1.1231221E-2,2.9815586E-2,1.2695789E-3,-4.6674713E-2,5.7642575E-2,-5.4735433E-2,-1.2942807E-2,4.9863134E-2,-1.8539332E-2,-1.1504224E-1,-1.2754971E-1,6.979392E-2,-3.055543E-2,-3.395039E-1,-2.5977904E-3,3.89815E-3,-3.1844885E-4,1.8776525E-2,1.1827358E-3,-1.029241E-2,-4.8439535E-3,-3.608973E-2,-1.850771E-2,2.4707256E-2,9.893655E-3,-8.564721E-4,3.0322773E-3,-1.4111079E-2,-5.2874047E-2,-7.942836E-4],"categories":[],"categories_nodes":[],"categories_segments":[],"categories_sizes":[],"default_left":[0,0,0,0,0,0,0,0,0,0,0,0,0,0,0,0,0,0,0,0,0,0,0,0,0,0,0,0,0,0,0],"id":37,"left_children":[1,3,5,7,9,11,13,15,17,19,21,23,25,27,29,-1,-1,-1,-1,-1,-1,-1,-1,-1,-1,-1,-1,-1,-1,-1,-1],"loss_changes":[3.4530215E0,3.2592971E0,6.687461E0,3.756984E0,3.6872292E0,4.820117E0,4.837161E0,2.8498254E0,9.005828E0,3.4861987E0,9.135925E0,2.8904655E0,4.5839844E0,4.3790464E0,3.4466906E0,0E0,0E0,0E0,0E0,0E0,0E0,0E0,0E0,0E0,0E0,0E0,0E0,0E0,0E0,0E0,0E0],"parents":[2147483647,0,0,1,1,2,2,3,3,4,4,5,5,6,6,7,7,8,8,9,9,10,10,11,11,12,12,13,13,14,14],"right_children":[2,4,6,8,10,12,14,16,18,20,22,24,26,28,30,-1,-1,-1,-1,-1,-1,-1,-1,-1,-1,-1,-1,-1,-1,-1,-1],"split_conditions":[1E0,1E0,1E0,1E0,1E0,4.7345814E1,7E0,1E0,1E0,1E0,1E0,1E0,1E0,5.873445E1,1E0,-2.5977904E-3,3.89815E-3,-3.1844885E-4,1.8776525E-2,1.1827358E-3,-1.029241E-2,-4.8439535E-3,-3.608973E-2,-1.850771E-2,2.4707256E-2,9.893655E-3,-8.564721E-4,3.0322773E-3,-1.4111079E-2,-5.2874047E-2,-7.942836E-4],"split_indices":[54,6,56,11,50,84,3,21,32,75,11,58,8,84,38,0,0,0,0,0,0,0,0,0,0,0,0,0,0,0,0],"split_type":[0,0,0,0,0,0,0,0,0,0,0,0,0,0,0,0,0,0,0,0,0,0,0,0,0,0,0,0,0,0,0],"sum_hessian":[1.0195E4,7.355E3,2.84E3,5.438E3,1.917E3,2.137E3,7.03E2,4.208E3,1.23E3,1.359E3,5.58E2,1.31E2,2.006E3,6.49E2,5.4E1,3.364E3,8.44E2,8.89E2,3.41E2,1E3,3.59E2,4.4E2,1.18E2,1.14E2,1.7E1,1.462E3,5.44E2,4.19E2,2.3E2,3.4E1,2E1],"tree_param":{"num_deleted":"0","num_feature":"85","num_nodes":"31","size_leaf_vector":"1"}},{"base_weights":[1.7658576E-4,-1.0918574E-2,3.0043472E-2,-2.3945805E-2,2.4182068E-2,5.033611E-2,-4.1328277E-2,-1.8019324E-2,-1.3072559E-1,3.9881546E-2,-9.363293E-2,7.357051E-2,-2.7746823E-2,3.665586E-1,-5.932441E-2,-1.9691403E-4,-5.4976805E-3,-8.454149E-3,-5.6890924E-2,1.6282721E-3,1.23492E-2,-1.622504E-2,1.5980043E-2,3.925141E-3,1.9128835E-2,1.6443584E-3,-1.7688831E-2,6.1654896E-3,9.356373E-2,-2.6285972E-3,-1.708179E-2],"categories":[],"categories_nodes":[],"categories_segments":[],"categories_sizes":[],"default_left":[0,0,0,0,0,0,0,0,0,0,0,0,0,0,0,0,0,0,0,0,0,0,0,0,0,0,0,0,0,0,0],"id":38,"left_children":[1,3,5,7,9,11,13,15,17,19,21,23,25,27,29,-1,-1,-1,-1,-1,-1,-1,-1,-1,-1,-1,-1,-1,-1,-1,-1],"loss_changes":[3.3790567E0,3.4003386E0,4.002343E0,3.4294722E0,3.727047E0,3.904406E0,4.514063E0,3.048215E0,5.719483E0,3.5042036E0,4.1473475E0,6.6907635E0,3.2586765E0,4.453683E0,2.1577659E0,0E0,0E0,0E0,0E0,0E0,0E0,0E0,0E0,0E0,0E0,0E0,0E0,0E0,0E0,0E0,0E0],"parents":[2147483647,0,0,1,1,2,2,3,3,4,4,5,5,6,6,7,7,8,8,9,9,10,10,11,11,12,12,13,13,14,14],"right_children":[2,4,6,8,10,12,14,16,18,20,22,24,26,28,30,-1,-1,-1,-1,-1,-1,-1,-1,-1,-1,-1,-1,-1,-1,-1,-1],"split_conditions":[1E0,1E0,1E0,6.2619175E1,7E0,1E0,4E0,6E0,1E0,1E0,1E0,1E0,1E0,1E0,1E0,-1.9691403E-4,-5.4976805E-3,-8.454149E-3,-5.6890924E-2,1.6282721E-3,1.23492E-2,-1.622504E-2,1.5980043E-2,3.925141E-3,1.9128835E-2,1.6443584E-3,-1.7688831E-2,6.1654896E-3,9.356373E-2,-2.6285972E-3,-1.708179E-2],"split_indices":[80,34,72,84,3,23,0,1,11,11,58,11,16,45,25,0,0,0,0,0,0,0,0,0,0,0,0,0,0,0,0],"split_type":[0,0,0,0,0,0,0,0,0,0,0,0,0,0,0,0,0,0,0,0,0,0,0,0,0,0,0,0,0,0,0],"sum_hessian":[1.0195E4,7.434E3,2.761E3,5.422E3,2.012E3,2.15E3,6.11E2,5.138E3,2.84E2,1.776E3,2.36E2,1.657E3,4.93E2,2.5E1,5.86E2,3.583E3,1.555E3,2.58E2,2.6E1,1.386E3,3.9E2,1.86E2,5E1,1.284E3,3.73E2,3.81E2,1.12E2,1.7E1,8E0,4.53E2,1.33E2],"tree_param":{"num_deleted":"0","num_feature":"85","num_nodes":"31","size_leaf_vector":"1"}},{"base_weights":[1.6184482E-4,-2.4983042E-3,1.2485089E-1,-1.2862581E-2,3.0186422E-2,7.156672E-2,6.651436E-1,-9.500551E-4,-4.7596704E-2,5.519027E-2,-4.184915E-2,3.442755E-2,3.478063E-1,1.1721247E0,2.717275E-1,-1.8004079E-3,4.196169E-3,-7.259903E-3,1.7007448E-3,2.2170546E-3,1.3977142E-2,4.8666637E-2,-4.348919E-3,-2.2018352E-3,3.042203E-2,1.3901333E-2,1.3048196E-1,1.6359843E-2,1.4810339E-1,-4.774198E-3,7.285332E-2],"categories":[],"categories_nodes":[],"categories_segments":[],"categories_sizes":[],"default_left":[0,0,0,0,0,0,0,0,0,0,0,0,0,0,0,0,0,0,0,0,0,0,0,0,0,0,0,0,0,0,0],"id":39,"left_children":[1,3,5,7,9,11,13,15,17,19,21,23,25,27,29,-1,-1,-1,-1,-1,-1,-1,-1,-1,-1,-1,-1,-1,-1,-1,-1],"loss_changes":[3.382238E0,3.3825035E0,6.084464E0,3.1367536E0,4.3323145E0,1.9885912E0,3.471138E0,4.1325994E0,3.1283665E0,4.9821324E0,5.58571E-1,2.6412625E0,4.414418E0,2.2500486E0,1.7860074E0,0E0,0E0,0E0,0E0,0E0,0E0,0E0,0E0,0E0,0E0,0E0,0E0,0E0,0E0,0E0,0E0],"parents":[2147483647,0,0,1,1,2,2,3,3,4,4,5,5,6,6,7,7,8,8,9,9,10,10,11,11,12,12,13,13,14,14],"right_children":[2,4,6,8,10,12,14,16,18,20,22,24,26,28,30,-1,-1,-1,-1,-1,-1,-1,-1,-1,-1,-1,-1,-1,-1,-1,-1],"split_conditions":[1.1E1,1E0,1E0,1E0,1E0,1E0,5.83396E1,1E0,1E0,1E0,2E0,1E0,1E0,1E0,1.2E1,-1.8004079E-3,4.196169E-3,-7.259903E-3,1.7007448E-3,2.2170546E-3,1.3977142E-2,4.8666637E-2,-4.348919E-3,-2.2018352E-3,3.042203E-2,1.3901333E-2,1.3048196E-1,1.6359843E-2,1.4810339E-1,-4.774198E-3,7.285332E-2],"split_indices":[2,65,61,36,8,29,84,44,20,4,0,11,67,38,2,0,0,0,0,0,0,0,0,0,0,0,0,0,0,0,0],"split_type":[0,0,0,0,0,0,0,0,0,0,0,0,0,0,0,0,0,0,0,0,0,0,0,0,0,0,0,0,0,0,0],"sum_hessian":[1.0195E4,9.983E3,2.12E2,7.58E3,2.403E3,1.94E2,1.8E1,5.645E3,1.935E3,1.784E3,6.19E2,1.72E2,2.2E1,7E0,1.1E1,4.04E3,1.605E3,1.395E3,5.4E2,1.284E3,5E2,1E0,6.18E2,1.43E2,2.9E1,1.9E1,3E0,2E0,5E0,7E0,4E0],"tree_param":{"num_deleted":"0","num_feature":"85","num_nodes":"31","size_leaf_vector":"1"}},{"base_weights":[1.9102296E-4,-9.230957E-3,3.2414358E-2,-1.1752939E-2,2.435058E-1,4.7468073E-3,9.2417546E-2,-2.4547246E-3,-4.236928E-2,3.205654E-1,-2.549995E-1,-4.4500685E-1,9.051762E-3,1.3642454E-1,-6.850235E-2,9.64916E-4,-4.0704994E-3,-6.5423176E-3,2.6331223E-3,6.1145842E-2,1.3722158E-2,3.5488622E-3,-3.683686E-2,-6.574903E-2,-1.0824147E-2,1.8181251E-2,-2.1040288E-4,6.584812E-3,3.6888473E-2,-1.6750059E-3,-3.170597E-2],"categories":[],"categories_nodes":[],"categories_segments":[],"categories_sizes":[],"default_left":[0,0,0,0,0,0,0,0,0,0,0,0,0,0,0,0,0,0,0,0,0,0,0,0,0,0,0,0,0,0,0],"id":40,"left_children":[1,3,5,7,9,11,13,15,17,19,21,23,25,27,29,-1,-1,-1,-1,-1,-1,-1,-1,-1,-1,-1,-1,-1,-1,-1,-1],"loss_changes":[3.0958831E0,5.0319266E0,3.8295064E0,2.2240796E0,3.0780835E0,3.063175E0,5.1647515E0,2.775476E0,2.8842645E0,3.542769E0,3.7532908E-1,1.0021882E0,3.018507E0,9.360061E0,2.0142446E0,0E0,0E0,0E0,0E0,0E0,0E0,0E0,0E0,0E0,0E0,0E0,0E0,0E0,0E0,0E0,0E0],"parents":[2147483647,0,0,1,1,2,2,3,3,4,4,5,5,6,6,7,7,8,8,9,9,10,10,11,11,12,12,13,13,14,14],"right_children":[2,4,6,8,10,12,14,16,18,20,22,24,26,28,30,-1,-1,-1,-1,-1,-1,-1,-1,-1,-1,-1,-1,-1,-1,-1,-1],"split_conditions":[1E0,1.2E1,1E0,1E0,1E0,4.1451286E1,1E0,1E0,1E0,1E0,1E0,1E0,4.5821594E1,1E0,1E0,9.64916E-4,-4.0704994E-3,-6.5423176E-3,2.6331223E-3,6.1145842E-2,1.3722158E-2,3.5488622E-3,-3.683686E-2,-6.574903E-2,-1.0824147E-2,1.8181251E-2,-2.1040288E-4,6.584812E-3,3.6888473E-2,-1.6750059E-3,-3.170597E-2],"split_indices":[41,2,74,23,21,84,83,25,25,38,46,63,84,11,58,0,0,0,0,0,0,0,0,0,0,0,0,0,0,0,0],"split_type":[0,0,0,0,0,0,0,0,0,0,0,0,0,0,0,0,0,0,0,0,0,0,0,0,0,0,0,0,0,0,0],"sum_hessian":[1.0195E4,7.889E3,2.306E3,7.812E3,7.7E1,1.579E3,7.27E2,5.993E3,1.819E3,6.7E1,1E1,1.4E1,1.565E3,5.71E2,1.56E2,4.553E3,1.44E3,1.362E3,4.57E2,2.5E1,4.2E1,3E0,7E0,8E0,6E0,9.4E1,1.471E3,4.39E2,1.32E2,1.3E2,2.6E1],"tree_param":{"num_deleted":"0","num_feature":"85","num_nodes":"31","size_leaf_vector":"1"}},{"base_weights":[1.7055616E-4,-1.8701339E-1,1.6693432E-3,-5.8740404E-2,-4.2771795E-1,-7.439667E-3,3.2978836E-2,-1.12500325E-1,3.9008904E-1,-2.1151444E-1,-6.983631E-1,-9.721695E-3,2.1968831E-1,2.535133E-1,2.494806E-2,-1.8302117E-2,3.367706E-2,-1.1705907E-2,9.362569E-2,4.414281E-3,-3.217169E-2,-7.284641E-2,-1.8362602E-2,5.811156E-2,-1.0330103E-3,1.7904695E-2,1.1760401E-1,2.8757078E-3,5.7274926E-2,1.6479216E-4,8.641149E-3],"categories":[],"categories_nodes":[],"categories_segments":[],"categories_sizes":[],"default_left":[0,0,0,0,0,0,0,0,0,0,0,0,0,0,0,0,0,0,0,0,0,0,0,0,0,0,0,0,0,0,0],"id":41,"left_children":[1,3,5,7,9,11,13,15,17,19,21,23,25,27,29,-1,-1,-1,-1,-1,-1,-1,-1,-1,-1,-1,-1,-1,-1,-1,-1],"loss_changes":[2.8607886E0,2.4758234E0,2.885313E0,1.346853E0,1.4906902E0,4.0641513E0,4.031698E0,1.6141012E0,1.7715249E0,4.9316043E-1,5.2164555E-2,2.7954848E0,2.8210938E0,5.723551E0,3.1519237E0,0E0,0E0,0E0,0E0,0E0,0E0,0E0,0E0,0E0,0E0,0E0,0E0,0E0,0E0,0E0,0E0],"parents":[2147483647,0,0,1,1,2,2,3,3,4,4,5,5,6,6,7,7,8,8,9,9,10,10,11,11,12,12,13,13,14,14],"right_children":[2,4,6,8,10,12,14,16,18,20,22,24,26,28,30,-1,-1,-1,-1,-1,-1,-1,-1,-1,-1,-1,-1,-1,-1,-1,-1],"split_conditions":[4.2524384E1,8E0,1E0,1E0,1E0,1.2E1,4.533997E1,1E0,1E0,1E0,1E0,2E0,1E0,1E0,1E0,-1.8302117E-2,3.367706E-2,-1.1705907E-2,9.362569E-2,4.414281E-3,-3.217169E-2,-7.284641E-2,-1.8362602E-2,5.811156E-2,-1.0330103E-3,1.7904695E-2,1.1760401E-1,2.8757078E-3,5.7274926E-2,1.6479216E-4,8.641149E-3],"split_indices":[84,1,41,68,11,2,84,5,4,61,16,2,65,11,44,0,0,0,0,0,0,0,0,0,0,0,0,0,0,0,0],"split_type":[0,0,0,0,0,0,0,0,0,0,0,0,0,0,0,0,0,0,0,0,0,0,0,0,0,0,0,0,0,0,0],"sum_hessian":[1.0195E4,8E1,1.0115E4,5.3E1,2.7E1,7.836E3,2.279E3,4.8E1,5E0,1.6E1,1.1E1,7.759E3,7.7E1,7.9E1,2.2E3,4.2E1,6E0,3E0,2E0,5E0,1.1E1,1E1,1E0,7E0,7.752E3,7.5E1,2E0,4.7E1,3.2E1,1.596E3,6.04E2],"tree_param":{"num_deleted":"0","num_feature":"85","num_nodes":"31","size_leaf_vector":"1"}},{"base_weights":[1.7703195E-4,-9.69489E-3,2.6751095E-2,1.1215464E-3,-4.729587E-2,7.847931E-3,9.558355E-2,-1.2977438E-2,4.866875E-2,-2.2909379E-2,-1.3474101E-1,-1.362231E-1,1.9783998E-2,3.845544E-2,2.9183432E-1,-2.8068249E-3,3.986875E-3,4.3471958E-4,2.0347789E-2,6.5954025E-3,-5.0919964E-3,-2.0918092E-2,2.9033346E-3,-1.7983392E-3,-3.9509505E-2,-2.0014882E-4,7.6910504E-3,-8.546154E-2,4.419622E-3,9.858561E-3,8.356354E-2],"categories":[],"categories_nodes":[],"categories_segments":[],"categories_sizes":[],"default_left":[0,0,0,0,0,0,0,0,0,0,0,0,0,0,0,0,0,0,0,0,0,0,0,0,0,0,0,0,0,0,0],"id":42,"left_children":[1,3,5,7,9,11,13,15,17,19,21,23,25,27,29,-1,-1,-1,-1,-1,-1,-1,-1,-1,-1,-1,-1,-1,-1,-1,-1],"loss_changes":[2.6750484E0,3.0239315E0,3.5930297E0,3.8720026E0,3.538963E0,3.7308772E0,6.6595807E0,3.5539448E0,9.063001E0,3.2392092E0,4.4193416E0,5.073979E0,2.492945E0,2.4064078E0,1.3999524E1,0E0,0E0,0E0,0E0,0E0,0E0,0E0,0E0,0E0,0E0,0E0,0E0,0E0,0E0,0E0,0E0],"parents":[2147483647,0,0,1,1,2,2,3,3,4,4,5,5,6,6,7,7,8,8,9,9,10,10,11,11,12,12,13,13,14,14],"right_children":[2,4,6,8,10,12,14,16,18,20,22,24,26,28,30,-1,-1,-1,-1,-1,-1,-1,-1,-1,-1,-1,-1,-1,-1,-1,-1],"split_conditions":[1E0,1E0,1E0,1E0,1E0,4E0,1E0,1E0,1E0,4.9858467E1,1E0,1E0,1E0,4.3343018E1,1E0,-2.8068249E-3,3.986875E-3,4.3471958E-4,2.0347789E-2,6.5954025E-3,-5.0919964E-3,-2.0918092E-2,2.9033346E-3,-1.7983392E-3,-3.9509505E-2,-2.0014882E-4,7.6910504E-3,-8.546154E-2,4.419622E-3,9.858561E-3,8.356354E-2],"split_indices":[80,79,73,65,75,2,21,61,11,84,81,11,18,84,39,0,0,0,0,0,0,0,0,0,0,0,0,0,0,0,0],"split_type":[0,0,0,0,0,0,0,0,0,0,0,0,0,0,0,0,0,0,0,0,0,0,0,0,0,0,0,0,0,0,0],"sum_hessian":[1.0195E4,7.434E3,2.761E3,5.774E3,1.66E3,2.167E3,5.94E2,4.454E3,1.32E3,1.299E3,3.61E2,1.65E2,2.002E3,4.61E2,1.33E2,3.465E3,9.89E2,1.027E3,2.93E2,3.11E2,9.88E2,2.48E2,1.13E2,1.14E2,5.1E1,1.45E3,5.52E2,2E0,4.59E2,9.9E1,3.4E1],"tree_param":{"num_deleted":"0","num_feature":"85","num_nodes":"31","size_leaf_vector":"1"}},{"base_weights":[1.5776115E-4,-9.729263E-3,2.5757479E-2,-2.4123227E-2,1.5364514E-2,5.038469E-2,-4.9070273E-2,-8.617059E-3,-7.58552E-2,-7.6526105E-3,8.881548E-2,-2.4323942E-1,5.7388432E-2,-2.7706377E-2,-3.0066052E-1,-2.5732296E-3,5.0702384E-3,-1.0808222E-2,1.5058446E-3,2.524202E-4,-7.87014E-3,1.6010877E-2,-1.2079801E-2,-5.3301E-3,-8.402693E-2,3.2605715E-3,1.2089666E-2,1.3211367E-2,-6.230716E-3,-4.728299E-2,6.0566264E-5],"categories":[],"categories_nodes":[],"categories_segments":[],"categories_sizes":[],"default_left":[0,0,0,0,0,0,0,0,0,0,0,0,0,0,0,0,0,0,0,0,0,0,0,0,0,0,0,0,0,0,0],"id":43,"left_children":[1,3,5,7,9,11,13,15,17,19,21,23,25,27,29,-1,-1,-1,-1,-1,-1,-1,-1,-1,-1,-1,-1,-1,-1,-1,-1],"loss_changes":[2.5809095E0,2.65735E0,5.237864E0,3.749466E0,4.53495E0,4.410688E0,3.7756333E0,3.6542323E0,3.1600332E0,1.47739E0,9.583521E0,5.6251583E0,3.283949E0,3.602666E0,2.8530707E0,0E0,0E0,0E0,0E0,0E0,0E0,0E0,0E0,0E0,0E0,0E0,0E0,0E0,0E0,0E0,0E0],"parents":[2147483647,0,0,1,1,2,2,3,3,4,4,5,5,6,6,7,7,8,8,9,9,10,10,11,11,12,12,13,13,14,14],"right_children":[2,4,6,8,10,12,14,16,18,20,22,24,26,28,30,-1,-1,-1,-1,-1,-1,-1,-1,-1,-1,-1,-1,-1,-1,-1,-1],"split_conditions":[1E0,1E0,1E0,1E0,1E0,4E0,7E0,1E0,1E0,6.2619175E1,1E0,1E0,1E0,5.313141E1,1E0,-2.5732296E-3,5.0702384E-3,-1.0808222E-2,1.5058446E-3,2.524202E-4,-7.87014E-3,1.6010877E-2,-1.2079801E-2,-5.3301E-3,-8.402693E-2,3.2605715E-3,1.2089666E-2,1.3211367E-2,-6.230716E-3,-4.728299E-2,6.0566264E-5],"split_indices":[54,52,56,67,11,2,3,77,19,84,77,11,78,84,38,0,0,0,0,0,0,0,0,0,0,0,0,0,0,0,0],"split_type":[0,0,0,0,0,0,0,0,0,0,0,0,0,0,0,0,0,0,0,0,0,0,0,0,0,0,0,0,0,0,0],"sum_hessian":[1.0195E4,7.355E3,2.84E3,4.674E3,2.681E3,2.137E3,7.03E2,3.597E3,1.077E3,2.042E3,6.39E2,4.9E1,2.088E3,6.49E2,5.4E1,2.792E3,8.05E2,7.95E2,2.82E2,1.787E3,2.55E2,4.77E2,1.62E2,3.8E1,1.1E1,1.503E3,5.85E2,1.15E2,5.34E2,3.4E1,2E1],"tree_param":{"num_deleted":"0","num_feature":"85","num_nodes":"31","size_leaf_vector":"1"}},{"base_weights":[1.2975276E-4,-9.33518E-3,2.502359E-2,3.6422592E-3,-4.2387966E-2,3.869308E-3,9.542326E-2,2.5196038E-2,-3.5844274E-2,-1.34934895E-2,-1.04253225E-1,4.7341606E-1,-1.6255626E-3,-1.5750909E-1,1.2924589E-1,-1.987776E-2,3.1147746E-3,1.1667836E-3,-7.2579435E-3,1.3098833E-3,-9.046498E-3,-5.3082514E-3,-2.7593186E-2,3.0207032E-1,1.2057795E-2,1.9538826E-3,-6.535393E-3,-6.795993E-4,-5.5908706E-2,7.013205E-3,2.8272385E-2],"categories":[],"categories_nodes":[],"categories_segments":[],"categories_sizes":[],"default_left":[0,0,0,0,0,0,0,0,0,0,0,0,0,0,0,0,0,0,0,0,0,0,0,0,0,0,0,0,0,0,0],"id":44,"left_children":[1,3,5,7,9,11,13,15,17,19,21,23,25,27,29,-1,-1,-1,-1,-1,-1,-1,-1,-1,-1,-1,-1,-1,-1,-1,-1],"loss_changes":[2.4025998E0,3.169167E0,4.182947E0,4.5167546E0,3.7220893E0,5.5763626E0,5.572446E0,4.5824666E0,3.2716608E0,2.9097598E0,5.8097544E0,2.2105268E1,2.8836024E0,4.656475E0,5.178814E0,0E0,0E0,0E0,0E0,0E0,0E0,0E0,0E0,0E0,0E0,0E0,0E0,0E0,0E0,0E0,0E0],"parents":[2147483647,0,0,1,1,2,2,3,3,4,4,5,5,6,6,7,7,8,8,9,9,10,10,11,11,12,12,13,13,14,14],"right_children":[2,4,6,8,10,12,14,16,18,20,22,24,26,28,30,-1,-1,-1,-1,-1,-1,-1,-1,-1,-1,-1,-1,-1,-1,-1,-1],"split_conditions":[1E0,1E0,1E0,1E0,1E0,4.533997E1,4.873246E1,4.498994E1,5.167671E1,1E0,1E0,5E0,1E0,4.788942E1,1E0,-1.987776E-2,3.1147746E-3,1.1667836E-3,-7.2579435E-3,1.3098833E-3,-9.046498E-3,-5.3082514E-3,-2.7593186E-2,3.0207032E-1,1.2057795E-2,1.9538826E-3,-6.535393E-3,-6.795993E-4,-5.5908706E-2,7.013205E-3,2.8272385E-2],"split_indices":[18,46,7,19,17,84,84,84,84,25,11,3,75,84,10,0,0,0,0,0,0,0,0,0,0,0,0,0,0,0,0],"split_type":[0,0,0,0,0,0,0,0,0,0,0,0,0,0,0,0,0,0,0,0,0,0,0,0,0,0,0,0,0,0,0],"sum_hessian":[1.0195E4,7.387E3,2.808E3,5.305E3,2.082E3,2.16E3,6.48E2,3.432E3,1.873E3,1.42E3,6.62E2,2.4E1,2.136E3,7.6E1,5.72E2,8.8E1,3.344E3,8.17E2,1.056E3,1.056E3,3.64E2,5.11E2,1.51E2,2E0,2.2E1,1.604E3,5.32E2,5.6E1,2E1,4.14E2,1.58E2],"tree_param":{"num_deleted":"0","num_feature":"85","num_nodes":"31","size_leaf_vector":"1"}},{"base_weights":[1.3882412E-4,-9.612936E-3,2.5131492E-2,-6.6557336E-3,-1.4838396E-1,1.2712939E-1,1.08230915E-2,-9.2276655E-2,-2.728343E-3,-6.621677E-2,-5.1283693E-1,5.362228E-2,2.883576E-1,8.30428E-3,1.0610428E0,-1.37548E-2,2.413473E-2,-1.6344151E-3,2.6098376E-3,-8.547562E-3,4.1694265E-2,-7.851192E-2,-1.8447468E-2,-1.1250685E-3,1.5837707E-2,4.6965975E-2,-1.1356594E-2,-1.2926556E-3,9.657427E-3,-1.3429439E-3,3.216702E-1],"categories":[],"categories_nodes":[],"categories_segments":[],"categories_sizes":[],"default_left":[0,0,0,0,0,0,0,0,0,0,0,0,0,0,0,0,0,0,0,0,0,0,0,0,0,0,0,0,0,0,0],"id":45,"left_children":[1,3,5,7,9,11,13,15,17,19,21,23,25,27,29,-1,-1,-1,-1,-1,-1,-1,-1,-1,-1,-1,-1,-1,-1,-1,-1],"loss_changes":[2.4852362E0,3.0091052E0,4.1755037E0,2.4151525E0,4.547792E0,4.1562366E0,6.63355E0,4.790832E0,2.6965022E0,1.2080805E0,2.3585682E0,1.6531501E0,8.068995E0,4.697607E0,1.3940374E1,0E0,0E0,0E0,0E0,0E0,0E0,0E0,0E0,0E0,0E0,0E0,0E0,0E0,0E0,0E0,0E0],"parents":[2147483647,0,0,1,1,2,2,3,3,4,4,5,5,6,6,7,7,8,8,9,9,10,10,11,11,12,12,13,13,14,14],"right_children":[2,4,6,8,10,12,14,16,18,20,22,24,26,28,30,-1,-1,-1,-1,-1,-1,-1,-1,-1,-1,-1,-1,-1,-1,-1,-1],"split_conditions":[1E0,9E0,4E0,2E0,1E0,1E0,1E1,1.2E1,1E0,5.4282322E1,1E0,1E0,1E0,1E0,3E0,-1.37548E-2,2.413473E-2,-1.6344151E-3,2.6098376E-3,-8.547562E-3,4.1694265E-2,-7.851192E-2,-1.8447468E-2,-1.1250685E-3,1.5837707E-2,4.6965975E-2,-1.1356594E-2,-1.2926556E-3,9.657427E-3,-1.3429439E-3,3.216702E-1],"split_indices":[4,1,0,1,11,11,1,2,7,84,37,54,29,27,3,0,0,0,0,0,0,0,0,0,0,0,0,0,0,0,0],"split_type":[0,0,0,0,0,0,0,0,0,0,0,0,0,0,0,0,0,0,0,0,0,0,0,0,0,0,0,0,0,0,0],"sum_hessian":[1.0195E4,7.334E3,2.861E3,7.182E3,1.52E2,3.51E2,2.51E3,3.14E2,6.868E3,1.25E2,2.7E1,2.42E2,1.09E2,2.505E3,5E0,2.77E2,3.7E1,4.665E3,2.203E3,1.21E2,4E0,1.4E1,1.3E1,1.5E2,9.2E1,7.5E1,3.4E1,2.02E3,4.85E2,4E0,1E0],"tree_param":{"num_deleted":"0","num_feature":"85","num_nodes":"31","size_leaf_vector":"1"}},{"base_weights":[1.5696792E-4,1.9221455E-3,-1.2757191E-1,1.1220356E-2,-2.3447037E-2,-1.6509283E-1,1.9360727E-1,-1.6045345E-3,4.4946562E-2,-1.4460074E-2,-4.664117E-2,-2.2557195E-1,1.12926364E-1,-3.63539E-2,8.35089E-2,4.8355196E-4,-1.1919367E-2,4.0227068E-3,5.1677264E-2,-2.4989631E-3,1.555485E-3,-3.3791817E-3,-9.118332E-3,-6.0390467E-3,-3.8026407E-2,-3.652566E-2,2.6604697E-2,-1.3975853E-2,5.505485E-2],"categories":[],"categories_nodes":[],"categories_segments":[],"categories_sizes":[],"default_left":[0,0,0,0,0,0,0,0,0,0,0,0,0,0,0,0,0,0,0,0,0,0,0,0,0,0,0,0,0],"id":46,"left_children":[1,3,5,7,9,11,13,15,17,19,21,23,25,27,-1,-1,-1,-1,-1,-1,-1,-1,-1,-1,-1,-1,-1,-1,-1],"loss_changes":[2.2990775E0,2.3728247E0,1.7070436E0,3.1839619E0,5.6170976E-1,2.1272674E0,2.243097E0,4.03991E0,4.4951234E0,6.1541003E-1,4.278891E-1,2.60892E0,1.7812277E0,8.05205E-1,0E0,0E0,0E0,0E0,0E0,0E0,0E0,0E0,0E0,0E0,0E0,0E0,0E0,0E0,0E0],"parents":[2147483647,0,0,1,1,2,2,3,3,4,4,5,5,6,6,7,7,8,8,9,9,10,10,11,11,12,12,13,13],"right_children":[2,4,6,8,10,12,14,16,18,20,22,24,26,28,-1,-1,-1,-1,-1,-1,-1,-1,-1,-1,-1,-1,-1,-1,-1],"split_conditions":[9E0,1E0,1E0,1E0,1E0,1E0,1E0,6.2031967E1,1.3E1,1E0,1E0,1E0,1E0,1E0,8.35089E-2,4.8355196E-4,-1.1919367E-2,4.0227068E-3,5.1677264E-2,-2.4989631E-3,1.555485E-3,-3.3791817E-3,-9.118332E-3,-6.0390467E-3,-3.8026407E-2,-3.652566E-2,2.6604697E-2,-1.3975853E-2,5.505485E-2],"split_indices":[3,8,45,34,22,37,58,84,2,40,75,11,47,54,0,0,0,0,0,0,0,0,0,0,0,0,0,0,0],"split_type":[0,0,0,0,0,0,0,0,0,0,0,0,0,0,0,0,0,0,0,0,0,0,0,0,0,0,0,0,0],"sum_hessian":[1.0195E4,1.0057E4,1.38E2,7.36E3,2.697E3,1.24E2,1.4E1,5.333E3,2.027E3,1.945E3,7.52E2,1.02E2,2.2E1,1.1E1,3E0,5.057E3,2.76E2,2.008E3,1.9E1,1.44E3,5.05E2,5.85E2,1.67E2,5E1,5.2E1,5E0,1.7E1,1E1,1E0],"tree_param":{"num_deleted":"0","num_feature":"85","num_nodes":"29","size_leaf_vector":"1"}},{"base_weights":[1.5122314E-4,8.449878E-3,-2.7001118E-2,-4.0060272E-3,4.1688956E-2,-4.596699E-2,3.243699E-2,-1.687061E-2,3.569117E-2,1.7624313E-2,1.2994011E-1,-1.4336747E-1,-2.9902365E-2,9.3737535E-2,-6.207585E-2,1.2905964E-4,-6.6906423E-3,2.2414439E-4,1.4154183E-2,-7.974216E-4,8.663928E-3,7.0652873E-3,2.9724384E-2,-8.244027E-3,-2.6936704E-2,-5.245681E-3,2.1959746E-3,5.614526E-3,3.616974E-2,-2.9599682E-5,-5.4204643E-2],"categories":[],"categories_nodes":[],"categories_segments":[],"categories_sizes":[],"default_left":[0,0,0,0,0,0,0,0,0,0,0,0,0,0,0,0,0,0,0,0,0,0,0,0,0,0,0,0,0,0,0],"id":47,"left_children":[1,3,5,7,9,11,13,15,17,19,21,23,25,27,29,-1,-1,-1,-1,-1,-1,-1,-1,-1,-1,-1,-1,-1,-1,-1,-1],"loss_changes":[2.2976713E0,3.233685E0,2.6923451E0,2.9023306E0,4.5191364E0,2.8278239E0,3.3545709E0,3.9002726E0,4.9247613E0,2.9581156E0,4.502051E0,1.9430542E0,1.820068E0,3.5153925E0,6.7606125E0,0E0,0E0,0E0,0E0,0E0,0E0,0E0,0E0,0E0,0E0,0E0,0E0,0E0,0E0,0E0,0E0],"parents":[2147483647,0,0,1,1,2,2,3,3,4,4,5,5,6,6,7,7,8,8,9,9,10,10,11,11,12,12,13,13,14,14],"right_children":[2,4,6,8,10,12,14,16,18,20,22,24,26,28,30,-1,-1,-1,-1,-1,-1,-1,-1,-1,-1,-1,-1,-1,-1,-1,-1],"split_conditions":[1E0,1E0,1E0,1E0,1E0,4.8553936E1,5.309092E1,1E0,1E0,1E0,1E0,1E0,1E0,5.2324482E1,1E0,1.2905964E-4,-6.6906423E-3,2.2414439E-4,1.4154183E-2,-7.974216E-4,8.663928E-3,7.0652873E-3,2.9724384E-2,-8.244027E-3,-2.6936704E-2,-5.245681E-3,2.1959746E-3,5.614526E-3,3.616974E-2,-2.9599682E-5,-5.4204643E-2],"split_indices":[23,80,25,68,73,84,84,28,37,66,40,11,38,84,11,0,0,0,0,0,0,0,0,0,0,0,0,0,0,0,0],"split_type":[0,0,0,0,0,0,0,0,0,0,0,0,0,0,0,0,0,0,0,0,0,0,0,0,0,0,0,0,0,0,0],"sum_hessian":[1.0195E4,7.809E3,2.386E3,5.681E3,2.128E3,1.809E3,5.77E2,4.291E3,1.39E3,1.673E3,4.55E2,2.55E2,1.554E3,3.5E2,2.27E2,3.149E3,1.142E3,1.057E3,3.33E2,1.221E3,4.52E2,3.37E2,1.18E2,1.73E2,8.2E1,1.083E3,4.71E2,3.08E2,4.2E1,2.02E2,2.5E1],"tree_param":{"num_deleted":"0","num_feature":"85","num_nodes":"31","size_leaf_vector":"1"}},{"base_weights":[1.3627403E-4,-8.698926E-3,2.27799E-2,-5.977179E-3,-1.3642189E-1,2.868977E-3,8.5812494E-2,-1.5182878E-2,2.6704213E-2,-6.1692763E-2,-4.6783075E-1,-2.1411229E-2,9.981616E-2,3.4167796E-2,2.3671487E-1,6.23387E-2,-1.5978521E-3,1.999745E-2,1.7566935E-3,-7.927839E-3,3.7973505E-2,-7.144179E-2,-1.7021375E-2,9.3552464E-4,-1.2325315E-2,7.420636E-4,2.8329069E-2,9.272716E-3,-1.6704593E-2,3.0407628E-1,2.03124E-2],"categories":[],"categories_nodes":[],"categories_segments":[],"categories_sizes":[],"default_left":[0,0,0,0,0,0,0,0,0,0,0,0,0,0,0,0,0,0,0,0,0,0,0,0,0,0,0,0,0,0,0],"id":48,"left_children":[1,3,5,7,9,11,13,15,17,19,21,23,25,27,29,-1,-1,-1,-1,-1,-1,-1,-1,-1,-1,-1,-1,-1,-1,-1,-1],"loss_changes":[2.04002E0,2.549048E0,3.5916698E0,2.161447E0,3.7603204E0,5.124218E0,5.3459144E0,2.8577142E0,2.4963896E0,1.0082154E0,1.9332747E0,5.4562573E0,7.3890676E0,6.0601406E0,1.5865668E1,0E0,0E0,0E0,0E0,0E0,0E0,0E0,0E0,0E0,0E0,0E0,0E0,0E0,0E0,0E0,0E0],"parents":[2147483647,0,0,1,1,2,2,3,3,4,4,5,5,6,6,7,7,8,8,9,9,10,10,11,11,12,12,13,13,14,14],"right_children":[2,4,6,8,10,12,14,16,18,20,22,24,26,28,30,-1,-1,-1,-1,-1,-1,-1,-1,-1,-1,-1,-1,-1,-1,-1,-1],"split_conditions":[1E0,9E0,1E0,1E0,1E0,1E0,1E0,2E0,4.5821594E1,5.4282322E1,1E0,1E0,1E0,1E0,4.3343018E1,6.23387E-2,-1.5978521E-3,1.999745E-2,1.7566935E-3,-7.927839E-3,3.7973505E-2,-7.144179E-2,-1.7021375E-2,9.3552464E-4,-1.2325315E-2,7.420636E-4,2.8329069E-2,9.272716E-3,-1.6704593E-2,3.0407628E-1,2.03124E-2],"split_indices":[4,1,65,41,11,27,24,2,84,84,37,75,54,61,84,0,0,0,0,0,0,0,0,0,0,0,0,0,0,0,0],"split_type":[0,0,0,0,0,0,0,0,0,0,0,0,0,0,0,0,0,0,0,0,0,0,0,0,0,0,0,0,0,0,0],"sum_hessian":[1.0195E4,7.334E3,2.861E3,7.182E3,1.52E2,2.175E3,6.86E2,5.604E3,1.578E3,1.25E2,2.7E1,1.74E3,4.35E2,5.12E2,1.74E2,6E0,5.598E3,7.8E1,1.5E3,1.21E2,4E0,1.4E1,1.3E1,1.337E3,4.03E2,2.9E2,1.45E2,3.97E2,1.15E2,1E0,1.73E2],"tree_param":{"num_deleted":"0","num_feature":"85","num_nodes":"31","size_leaf_vector":"1"}},{"base_weights":[1.5783592E-4,7.649241E-3,-2.4353279E-2,-3.427773E-3,3.720863E-2,-4.6874482E-2,2.0214029E-2,-1.5048229E-2,3.2430187E-2,1.4394776E-2,1.16189964E-1,-3.423497E-2,-1.2519875E-1,4.710096E-2,-9.60144E-2,1.4025316E-4,-6.037181E-3,2.211436E-4,1.2805596E-2,-8.915392E-4,7.0878863E-3,4.9774125E-3,3.3996295E-2,-3.6685485E-3,8.099492E-2,-9.092723E-3,-3.2370243E-2,9.795938E-4,1.4715797E-2,1.0377424E-2,-2.6539478E-2],"categories":[],"categories_nodes":[],"categories_segments":[],"categories_sizes":[],"default_left":[0,0,0,0,0,0,0,0,0,0,0,0,0,0,0,0,0,0,0,0,0,0,0,0,0,0,0,0,0,0,0],"id":49,"left_children":[1,3,5,7,9,11,13,15,17,19,21,23,25,27,29,-1,-1,-1,-1,-1,-1,-1,-1,-1,-1,-1,-1,-1,-1,-1,-1],"loss_changes":[1.872403E0,2.5573545E0,2.3968017E0,2.3680968E0,3.8345058E0,1.5658231E0,2.5107934E0,3.2002316E0,4.019278E0,2.1770601E0,7.0722847E0,2.857606E0,1.467231E0,2.4322326E0,5.1374226E0,0E0,0E0,0E0,0E0,0E0,0E0,0E0,0E0,0E0,0E0,0E0,0E0,0E0,0E0,0E0,0E0],"parents":[2147483647,0,0,1,1,2,2,3,3,4,4,5,5,6,6,7,7,8,8,9,9,10,10,11,11,12,12,13,13,14,14],"right_children":[2,4,6,8,10,12,14,16,18,20,22,24,26,28,30,-1,-1,-1,-1,-1,-1,-1,-1,-1,-1,-1,-1,-1,-1,-1,-1],"split_conditions":[1E0,1E0,1E0,1E0,1E0,5.7790928E1,1E0,1E0,1E0,1E0,1E0,1.1E1,1E0,1E0,4E0,1.4025316E-4,-6.037181E-3,2.211436E-4,1.2805596E-2,-8.915392E-4,7.0878863E-3,4.9774125E-3,3.3996295E-2,-3.6685485E-3,8.099492E-2,-9.092723E-3,-3.2370243E-2,9.795938E-4,1.4715797E-2,1.0377424E-2,-2.6539478E-2],"split_indices":[23,80,74,68,11,84,31,28,37,30,66,2,33,69,0,0,0,0,0,0,0,0,0,0,0,0,0,0,0,0,0],"split_type":[0,0,0,0,0,0,0,0,0,0,0,0,0,0,0,0,0,0,0,0,0,0,0,0,0,0,0,0,0,0,0],"sum_hessian":[1.0195E4,7.809E3,2.386E3,5.681E3,2.128E3,1.585E3,8.01E2,4.291E3,1.39E3,1.652E3,4.76E2,1.366E3,2.19E2,6.51E2,1.5E2,3.149E3,1.142E3,1.057E3,3.33E2,1.17E3,4.82E2,3.68E2,1.08E2,1.363E3,3E0,1.88E2,3.1E1,4.75E2,1.76E2,6.9E1,8.1E1],"tree_param":{"num_deleted":"0","num_feature":"85","num_nodes":"31","size_leaf_vector":"1"}},{"base_weights":[1.5065192E-4,7.2475285E-3,-2.5512544E-2,-3.089204E-3,4.1496597E-2,-1.3010013E-1,-1.2459378E-2,8.025217E-3,-3.3020046E-2,7.487544E-2,-5.4067235E-2,1.6684398E-1,-2.0329893E-1,-3.7839193E-2,1.01183586E-1,1.7960033E-3,-2.634893E-3,-4.947088E-3,2.3962806E-3,-6.6472553E-3,1.0442293E-2,3.4114502E-3,-3.1597927E-2,1.24392286E-1,1.6177687E-3,-7.5753066E-3,-3.812504E-2,-6.380517E-3,3.2933566E-3,1.4742801E-3,3.280509E-2],"categories":[],"categories_nodes":[],"categories_segments":[],"categories_sizes":[],