{"learner":{"attributes":{},"feature_names":["G count","A count","C count","T count","G at pos 1","A at pos 1","C at pos 1","T at pos 1","G at pos 2","A at pos 2","C at pos 2","T at pos 2","G at pos 3","A at pos 3","C at pos 3","T at pos 3","G at pos 4","A at pos 4","C at pos 4","T at pos 4","G at pos 5","A at pos 5","C at pos 5","T at pos 5","G at pos 6","A at pos 6","C at pos 6","T at pos 6","G at pos 7","A at pos 7","C at pos 7","T at pos 7","G at pos 8","A at pos 8","C at pos 8","T at pos 8","G at pos 9","A at pos 9","C at pos 9","T at pos 9","G at pos 10","A at pos 10","C at pos 10","T at pos 10","G at pos 11","A at pos 11","C at pos 11","T at pos 11","G at pos 12","A at pos 12","C at pos 12","T at pos 12","G at pos 13","A at pos 13","C at pos 13","T at pos 13","G at pos 14","A at pos 14","C at pos 14","T at pos 14","G at pos 15","A at pos 15","C at pos 15","T at pos 15","G at pos 16","A at pos 16","C at pos 16","T at pos 16","G at pos 17","A at pos 17","C at pos 17","T at pos 17","G at pos 18","A at pos 18","C at pos 18","T at pos 18","G at pos 19","A at pos 19","C at pos 19","T at pos 19","G at pos 20","A at pos 20","C at pos 20","T at pos 20","Melting Temperature"],"feature_types":["int","int","int","int","int","int","int","int","int","int","int","int","int","int","int","int","int","int","int","int","int","int","int","int","int","int","int","int","int","int","int","int","int","int","int","int","int","int","int","int","int","int","int","int","int","int","int","int","int","int","int","int","int","int","int","int","int","int","int","int","int","int","int","int","int","int","int","int","int","int","int","int","int","int","int","int","int","int","int","int","int","int","int","int","float"],"gradient_booster":{"model":{"gbtree_model_param":{"num_parallel_tree":"1","num_trees":"100"},"iteration_indptr":[0,1,2,3,4,5,6,7,8,9,10,11,12,13,14,15,16,17,18,19,20,21,22,23,24,25,26,27,28,29,30,31,32,33,34,35,36,37,38,39,40,41,42,43,44,45,46,47,48,49,50,51,52,53,54,55,56,57,58,59,60,61,62,63,64,65,66,67,68,69,70,71,72,73,74,75,76,77,78,79,80,81,82,83,84,85,86,87,88,89,90,91,92,93,94,95,96,97,98,99,100],"tree_info":[0,0,0,0,0,0,0,0,0,0,0,0,0,0,0,0,0,0,0,0,0,0,0,0,0,0,0,0,0,0,0,0,0,0,0,0,0,0,0,0,0,0,0,0,0,0,0,0,0,0,0,0,0,0,0,0,0,0,0,0,0,0,0,0,0,0,0,0,0,0,0,0,0,0,0,0,0,0,0,0,0,0,0,0,0,0,0,0,0,0,0,0,0,0,0,0,0,0,0,0],"trees":[{"base_weights":[8.87099E-9,-1.577097E-1,3.3307746E-1,-2.9537183E-1,1.7494455E-1,4.72191E-1,-7.735225E-2,-4.270212E-1,3.941521E-3,6.364861E-2,4.6544984E-1,3.5390583E-1,8.0984753E-1,-2.1577075E-1,2.8474763E-1,-5.09208E-1,-2.3969641E-1,-1.4103591E-1,3.567268E-1,1.5895899E-1,-2.0842011E-1,3.1326318E-1,8.2571334E-1,2.238318E-1,5.876458E-1,4.7366056E-1,1.0425862E0,-3.0892923E-1,-2.5407644E-2,6.755817E-2,4.4298056E-1,-5.6482352E-2,-3.8751256E-2,-1.5800288E-2,-4.7324747E-2,-2.298746E-2,1.0338945E-2,2.303247E-2,7.089023E-2,-3.4425163E-3,2.2993855E-2,-2.9620675E-2,2.066634E-3,4.273755E-2,2.870053E-4,4.478314E-2,9.599487E-2,3.3785537E-2,1.0569576E-2,6.94271E-2,2.7444368E-2,5.7274867E-2,1.3639283E-2,1.1704959E-1,7.766785E-2,-5.0120294E-2,-2.1636497E-2,-1.9708645E-2,4.447793E-2,1.1082056E-2,-4.4287656E-2,3.220835E-2,8.081063E-2],"categories":[],"categories_nodes":[],"categories_segments":[],"categories_sizes":[],"default_left":[0,0,0,0,0,0,0,0,0,0,0,0,0,0,0,0,0,0,0,0,0,0,0,0,0,0,0,0,0,0,0,0,0,0,0,0,0,0,0,0,0,0,0,0,0,0,0,0,0,0,0,0,0,0,0,0,0,0,0,0,0,0,0],"id":0,"left_children":[1,3,5,7,9,11,13,15,17,19,21,23,25,27,29,31,33,35,37,39,41,43,45,47,49,51,53,55,57,59,61,-1,-1,-1,-1,-1,-1,-1,-1,-1,-1,-1,-1,-1,-1,-1,-1,-1,-1,-1,-1,-1,-1,-1,-1,-1,-1,-1,-1,-1,-1,-1,-1],"loss_changes":[1.892167E3,1.1195293E3,6.609264E2,6.8134326E2,2.313386E2,3.4499268E2,1.4696704E2,1.8476416E2,2.7025415E2,1.342259E2,1.0840903E2,1.9457251E2,1.7492859E2,3.7605835E1,2.7841324E1,5.6268066E1,6.983293E1,8.13443E1,6.8346436E1,5.262091E1,2.7014828E1,4.940924E1,2.9396454E1,5.5408005E1,7.625122E1,3.0634155E1,4.4122925E1,2.5235443E1,5.6431004E1,7.623421E0,2.0442612E1,0E0,0E0,0E0,0E0,0E0,0E0,0E0,0E0,0E0,0E0,0E0,0E0,0E0,0E0,0E0,0E0,0E0,0E0,0E0,0E0,0E0,0E0,0E0,0E0,0E0,0E0,0E0,0E0,0E0,0E0,0E0,0E0],"parents":[2147483647,0,0,1,1,2,2,3,3,4,4,5,5,6,6,7,7,8,8,9,9,10,10,11,11,12,12,13,13,14,14,15,15,16,16,17,17,18,18,19,19,20,20,21,21,22,22,23,23,24,24,25,25,26,26,27,27,28,28,29,29,30,30],"right_children":[2,4,6,8,10,12,14,16,18,20,22,24,26,28,30,32,34,36,38,40,42,44,46,48,50,52,54,56,58,60,62,-1,-1,-1,-1,-1,-1,-1,-1,-1,-1,-1,-1,-1,-1,-1,-1,-1,-1,-1,-1,-1,-1,-1,-1,-1,-1,-1,-1,-1,-1,-1,-1],"split_conditions":[1E0,1E0,1E0,1E0,1E0,1E0,1E0,1E0,1E0,1E0,1E0,1E0,1E0,1E0,1E0,1E0,1E0,1E0,1E0,4.9897736E1,1E0,1E0,5.0729324E1,1E0,1E0,1E0,1E0,1E0,1E0,6.509712E1,1E0,-5.6482352E-2,-3.8751256E-2,-1.5800288E-2,-4.7324747E-2,-2.298746E-2,1.0338945E-2,2.303247E-2,7.089023E-2,-3.4425163E-3,2.2993855E-2,-2.9620675E-2,2.066634E-3,4.273755E-2,2.870053E-4,4.478314E-2,9.599487E-2,3.3785537E-2,1.0569576E-2,6.94271E-2,2.7444368E-2,5.7274867E-2,1.3639283E-2,1.1704959E-1,7.766785E-2,-5.0120294E-2,-2.1636497E-2,-1.9708645E-2,4.447793E-2,1.1082056E-2,-4.4287656E-2,3.220835E-2,8.081063E-2],"split_indices":[26,22,20,30,30,30,30,18,27,16,27,22,4,31,4,31,12,34,34,84,34,16,84,21,16,11,21,4,34,84,34,0,0,0,0,0,0,0,0,0,0,0,0,0,0,0,0,0,0,0,0,0,0,0,0,0,0,0,0,0,0,0,0],"split_type":[0,0,0,0,0,0,0,0,0,0,0,0,0,0,0,0,0,0,0,0,0,0,0,0,0,0,0,0,0,0,0,0,0,0,0,0,0,0,0,0,0,0,0,0,0,0,0,0,0,0,0,0,0,0,0,0,0,0,0,0,0,0,0],"sum_hessian":[3.6019E4,2.4445E4,1.1574E4,1.729E4,7.155E3,8.644E3,2.93E3,1.2008E4,5.282E3,5.174E3,1.981E3,6.403E3,2.241E3,2.12E3,8.1E2,8.345E3,3.663E3,3.744E3,1.538E3,3.832E3,1.342E3,1.394E3,5.87E2,4.115E3,2.288E3,9.18E2,1.323E3,1.423E3,6.97E2,3.42E2,4.68E2,5.725E3,2.62E3,2.715E3,9.48E2,2.746E3,9.98E2,1.133E3,4.05E2,1.029E3,2.803E3,9.7E2,3.72E2,1.019E3,3.75E2,1.55E2,4.32E2,2.093E3,2.022E3,1.706E3,5.82E2,7.09E2,2.09E2,8.91E2,4.32E2,4.61E2,9.62E2,5.11E2,1.86E2,3.16E2,2.6E1,3.53E2,1.15E2],"tree_param":{"num_deleted":"0","num_feature":"85","num_nodes":"63","size_leaf_vector":"1"}},{"base_weights":[1.49468415E-5,-1.419347E-1,2.998077E-1,-2.6583913E-1,1.5747464E-1,4.2501894E-1,-6.9605835E-2,-3.8433227E-1,3.5627442E-3,5.7282194E-2,4.189976E-1,3.185373E-1,7.289812E-1,-1.9421585E-1,2.5637126E-1,-4.582986E-1,-2.15744E-1,-1.269357E-1,3.2111514E-1,1.4306818E-1,-1.8759863E-1,2.819677E-1,7.433814E-1,2.0145938E-1,5.289236E-1,4.2637163E-1,9.384746E-1,-2.7808672E-1,-2.2831403E-2,6.0705513E-2,3.9892346E-1,-5.122151E-2,-3.386123E-2,-1.4220841E-2,-4.259726E-2,-2.1618793E-2,9.756983E-3,2.0731254E-2,6.381867E-2,2.1959314E-2,-2.3806342E-3,-2.6661659E-2,1.8605245E-3,3.8467985E-2,2.5838087E-4,4.033353E-2,8.641755E-2,1.3614366E-2,3.7562978E-2,6.2488455E-2,2.4704637E-2,5.1555444E-2,1.2281849E-2,4.8664544E-2,9.9972285E-2,-4.5119118E-2,-1.9475095E-2,-1.774163E-2,4.005392E-2,1.4625299E-2,-1.577577E-2,2.8996611E-2,7.279923E-2],"categories":[],"categories_nodes":[],"categories_segments":[],"categories_sizes":[],"default_left":[0,0,0,0,0,0,0,0,0,0,0,0,0,0,0,0,0,0,0,0,0,0,0,0,0,0,0,0,0,0,0,0,0,0,0,0,0,0,0,0,0,0,0,0,0,0,0,0,0,0,0,0,0,0,0,0,0,0,0,0,0,0,0],"id":1,"left_children":[1,3,5,7,9,11,13,15,17,19,21,23,25,27,29,31,33,35,37,39,41,43,45,47,49,51,53,55,57,59,61,-1,-1,-1,-1,-1,-1,-1,-1,-1,-1,-1,-1,-1,-1,-1,-1,-1,-1,-1,-1,-1,-1,-1,-1,-1,-1,-1,-1,-1,-1,-1,-1],"loss_changes":[1.5328907E3,9.069431E2,5.35428E2,5.519695E2,1.8748196E2,2.795752E2,1.1910703E2,1.4965149E2,2.1896878E2,1.0873984E2,8.789087E1,1.5763416E2,1.4173071E2,3.0481247E1,2.2596664E1,5.3683838E1,5.658223E1,7.5061966E1,5.54003E1,4.895289E1,2.1887547E1,4.0030083E1,2.3803864E1,4.677275E1,6.176129E1,2.4815598E1,3.6153564E1,2.0454445E1,4.5752857E1,6.4333916E0,1.6604652E1,0E0,0E0,0E0,0E0,0E0,0E0,0E0,0E0,0E0,0E0,0E0,0E0,0E0,0E0,0E0,0E0,0E0,0E0,0E0,0E0,0E0,0E0,0E0,0E0,0E0,0E0,0E0,0E0,0E0,0E0,0E0,0E0],"parents":[2147483647,0,0,1,1,2,2,3,3,4,4,5,5,6,6,7,7,8,8,9,9,10,10,11,11,12,12,13,13,14,14,15,15,16,16,17,17,18,18,19,19,20,20,21,21,22,22,23,23,24,24,25,25,26,26,27,27,28,28,29,29,30,30],"right_children":[2,4,6,8,10,12,14,16,18,20,22,24,26,28,30,32,34,36,38,40,42,44,46,48,50,52,54,56,58,60,62,-1,-1,-1,-1,-1,-1,-1,-1,-1,-1,-1,-1,-1,-1,-1,-1,-1,-1,-1,-1,-1,-1,-1,-1,-1,-1,-1,-1,-1,-1,-1,-1],"split_conditions":[1E0,1E0,1E0,1E0,1E0,1E0,1E0,1E0,1E0,1E0,1E0,1E0,1E0,1E0,1E0,1E0,1E0,1E0,1E0,1E0,1E0,1E0,5.0729324E1,1E0,1E0,1E0,5E0,1E0,1E0,1E0,1E0,-5.122151E-2,-3.386123E-2,-1.4220841E-2,-4.259726E-2,-2.1618793E-2,9.756983E-3,2.0731254E-2,6.381867E-2,2.1959314E-2,-2.3806342E-3,-2.6661659E-2,1.8605245E-3,3.8467985E-2,2.5838087E-4,4.033353E-2,8.641755E-2,1.3614366E-2,3.7562978E-2,6.2488455E-2,2.4704637E-2,5.1555444E-2,1.2281849E-2,4.8664544E-2,9.9972285E-2,-4.5119118E-2,-1.9475095E-2,-1.774163E-2,4.005392E-2,1.4625299E-2,-1.577577E-2,2.8996611E-2,7.279923E-2],"split_indices":[26,22,20,30,30,30,30,18,27,16,27,22,4,31,4,34,12,18,34,17,34,16,84,18,16,11,2,4,34,38,34,0,0,0,0,0,0,0,0,0,0,0,0,0,0,0,0,0,0,0,0,0,0,0,0,0,0,0,0,0,0,0,0],"split_type":[0,0,0,0,0,0,0,0,0,0,0,0,0,0,0,0,0,0,0,0,0,0,0,0,0,0,0,0,0,0,0,0,0,0,0,0,0,0,0,0,0,0,0,0,0,0,0,0,0,0,0,0,0,0,0,0,0,0,0,0,0,0,0],"sum_hessian":[3.6019E4,2.4445E4,1.1574E4,1.729E4,7.155E3,8.644E3,2.93E3,1.2008E4,5.282E3,5.174E3,1.981E3,6.403E3,2.241E3,2.12E3,8.1E2,8.345E3,3.663E3,3.744E3,1.538E3,3.832E3,1.342E3,1.394E3,5.87E2,4.115E3,2.288E3,9.18E2,1.323E3,1.423E3,6.97E2,3.42E2,4.68E2,5.751E3,2.594E3,2.715E3,9.48E2,2.679E3,1.065E3,1.133E3,4.05E2,2.627E3,1.205E3,9.7E2,3.72E2,1.019E3,3.75E2,1.55E2,4.32E2,2.994E3,1.121E3,1.706E3,5.82E2,7.09E2,2.09E2,1.59E2,1.164E3,4.61E2,9.62E2,5.11E2,1.86E2,2.46E2,9.6E1,3.53E2,1.15E2],"tree_param":{"num_deleted":"0","num_feature":"85","num_nodes":"63","size_leaf_vector":"1"}},{"base_weights":[2.7340468E-5,-1.277375E-1,2.6986226E-1,-2.3925921E-1,1.4174958E-1,3.8255763E-1,-6.262534E-2,-3.4591085E-1,3.2202343E-3,5.155297E-2,3.7718132E-1,2.8670517E-1,6.561779E-1,-1.748142E-1,2.3085824E-1,-4.1247895E-1,-1.9418512E-1,-1.142453E-1,2.8905857E-1,-2.7260855E-2,2.711216E-1,5.075852E-1,9.455786E-2,3.844082E-1,7.492991E-2,3.8380393E-1,8.447394E-1,-2.503234E-1,-2.0516304E-2,5.4631617E-2,3.5924816E-1,-4.6227746E-2,-3.035287E-2,-2.669305E-2,2.0271885E-4,-1.9426215E-2,1.0589539E-2,1.8659959E-2,5.745252E-2,-9.359036E-3,1.4064752E-2,1.9673673E-2,5.005911E-2,4.0248487E-2,7.622662E-2,2.2501059E-2,-2.2564257E-2,4.11982E-2,-6.161334E-3,3.5069396E-3,3.2605406E-2,2.938499E-2,6.55139E-2,9.5958434E-2,6.0620274E-2,-4.061697E-2,-1.7529607E-2,-1.5970934E-2,3.6069945E-2,-1.467217E-3,3.203401E-2,2.6105141E-2,6.558206E-2],"categories":[],"categories_nodes":[],"categories_segments":[],"categories_sizes":[],"default_left":[0,0,0,0,0,0,0,0,0,0,0,0,0,0,0,0,0,0,0,0,0,0,0,0,0,0,0,0,0,0,0,0,0,0,0,0,0,0,0,0,0,0,0,0,0,0,0,0,0,0,0,0,0,0,0,0,0,0,0,0,0,0,0],"id":2,"left_children":[1,3,5,7,9,11,13,15,17,19,21,23,25,27,29,31,33,35,37,39,41,43,45,47,49,51,53,55,57,59,61,-1,-1,-1,-1,-1,-1,-1,-1,-1,-1,-1,-1,-1,-1,-1,-1,-1,-1,-1,-1,-1,-1,-1,-1,-1,-1,-1,-1,-1,-1,-1,-1],"loss_changes":[1.2418391E3,7.347257E2,4.3373706E2,4.4716083E2,1.5193924E2,2.2654565E2,9.654525E1,1.21211914E2,1.7741585E2,8.956099E1,7.299902E1,1.3247687E2,1.1482324E2,2.4706451E1,1.8329838E1,4.5141235E1,5.2298798E1,6.598862E1,4.4906418E1,4.243506E1,2.3234917E1,3.598932E1,2.6241201E1,5.391742E1,2.023867E1,2.223816E1,3.5688904E1,1.6579247E1,3.7095284E1,6.3209095E0,1.3487228E1,0E0,0E0,0E0,0E0,0E0,0E0,0E0,0E0,0E0,0E0,0E0,0E0,0E0,0E0,0E0,0E0,0E0,0E0,0E0,0E0,0E0,0E0,0E0,0E0,0E0,0E0,0E0,0E0,0E0,0E0,0E0,0E0],"parents":[2147483647,0,0,1,1,2,2,3,3,4,4,5,5,6,6,7,7,8,8,9,9,10,10,11,11,12,12,13,13,14,14,15,15,16,16,17,17,18,18,19,19,20,20,21,21,22,22,23,23,24,24,25,25,26,26,27,27,28,28,29,29,30,30],"right_children":[2,4,6,8,10,12,14,16,18,20,22,24,26,28,30,32,34,36,38,40,42,44,46,48,50,52,54,56,58,60,62,-1,-1,-1,-1,-1,-1,-1,-1,-1,-1,-1,-1,-1,-1,-1,-1,-1,-1,-1,-1,-1,-1,-1,-1,-1,-1,-1,-1,-1,-1,-1,-1],"split_conditions":[1E0,1E0,1E0,1E0,1E0,1E0,1E0,1E0,1E0,1E0,1E0,1E0,1E0,1E0,1E0,1E0,1E0,1E0,1E0,1E0,1E0,1E0,1E0,8E0,8E0,1E0,1E0,1E0,1E0,1E0,1E0,-4.6227746E-2,-3.035287E-2,-2.669305E-2,2.0271885E-4,-1.9426215E-2,1.0589539E-2,1.8659959E-2,5.745252E-2,-9.359036E-3,1.4064752E-2,1.9673673E-2,5.005911E-2,4.0248487E-2,7.622662E-2,2.2501059E-2,-2.2564257E-2,4.11982E-2,-6.161334E-3,3.5069396E-3,3.2605406E-2,2.938499E-2,6.55139E-2,9.5958434E-2,6.0620274E-2,-4.061697E-2,-1.7529607E-2,-1.5970934E-2,3.6069945E-2,-1.467217E-3,3.203401E-2,2.6105141E-2,6.558206E-2],"split_indices":[26,22,20,30,30,30,30,18,27,18,24,21,4,31,4,31,34,34,34,34,15,74,16,3,2,80,21,4,34,69,34,0,0,0,0,0,0,0,0,0,0,0,0,0,0,0,0,0,0,0,0,0,0,0,0,0,0,0,0,0,0,0,0],"split_type":[0,0,0,0,0,0,0,0,0,0,0,0,0,0,0,0,0,0,0,0,0,0,0,0,0,0,0,0,0,0,0,0,0,0,0,0,0,0,0,0,0,0,0,0,0,0,0,0,0,0,0,0,0,0,0,0,0,0,0,0,0,0,0],"sum_hessian":[3.6019E4,2.4445E4,1.1574E4,1.729E4,7.155E3,8.644E3,2.93E3,1.2008E4,5.282E3,5.174E3,1.981E3,6.403E3,2.241E3,2.12E3,8.1E2,8.345E3,3.663E3,3.744E3,1.538E3,3.808E3,1.366E3,1.355E3,6.26E2,4.381E3,2.022E3,9.18E2,1.323E3,1.423E3,6.97E2,3.42E2,4.68E2,5.725E3,2.62E3,2.672E3,9.91E2,2.746E3,9.98E2,1.133E3,4.05E2,2.73E3,1.078E3,1.033E3,3.33E2,9.61E2,3.94E2,4.45E2,1.81E2,4.126E3,2.55E2,1.746E3,2.76E2,6.91E2,2.27E2,8.91E2,4.32E2,4.61E2,9.62E2,5.11E2,1.86E2,2.72E2,7E1,3.53E2,1.15E2],"tree_param":{"num_deleted":"0","num_feature":"85","num_nodes":"63","size_leaf_vector":"1"}},{"base_weights":[4.0202554E-5,-1.14957415E-1,2.4291119E-1,-2.1533537E-1,1.276013E-1,3.443392E-1,-5.6334075E-2,-3.1132835E-1,2.9109276E-3,4.641206E-2,3.395219E-1,2.5804576E-1,5.9067225E-1,-1.5735072E-1,2.0792317E-1,-3.7124023E-1,-1.7477384E-1,1.2300923E-1,-2.3171538E-1,1.2082219E-1,-1.6599335E-1,2.2192268E-1,6.179427E-1,1.5872754E-1,4.365236E-1,3.455268E-1,7.603837E-1,-2.2533189E-1,-1.8435877E-2,4.9257576E-2,3.2351884E-1,-4.1953254E-2,-2.6405383E-2,-1.0854848E-2,-3.64124E-2,2.8281433E-3,3.7420135E-2,-3.129162E-2,-5.107957E-3,-1.027263E-3,2.005062E-2,-2.3063298E-2,2.7226552E-4,3.0803386E-2,-1.2266998E-3,3.240966E-2,7.289262E-2,1.0048531E-2,3.140544E-2,2.4541544E-2,5.5395544E-2,4.1195717E-2,-3.322889E-4,3.555156E-2,8.153352E-2,-3.6564063E-2,-1.5778467E-2,-1.4376958E-2,3.248224E-2,8.7037E-3,-3.9612528E-2,4.098633E-2,4.134608E-3],"categories":[],"categories_nodes":[],"categories_segments":[],"categories_sizes":[],"default_left":[0,0,0,0,0,0,0,0,0,0,0,0,0,0,0,0,0,0,0,0,0,0,0,0,0,0,0,0,0,0,0,0,0,0,0,0,0,0,0,0,0,0,0,0,0,0,0,0,0,0,0,0,0,0,0,0,0,0,0,0,0,0,0],"id":3,"left_children":[1,3,5,7,9,11,13,15,17,19,21,23,25,27,29,31,33,35,37,39,41,43,45,47,49,51,53,55,57,59,61,-1,-1,-1,-1,-1,-1,-1,-1,-1,-1,-1,-1,-1,-1,-1,-1,-1,-1,-1,-1,-1,-1,-1,-1,-1,-1,-1,-1,-1,-1,-1,-1],"loss_changes":[1.0060516E3,5.952276E2,3.5134204E2,3.6224945E2,1.2310804E2,1.8361365E2,7.827393E1,9.818347E1,1.4889403E2,8.1811516E1,6.475766E1,1.1344867E2,9.301343E1,2.0025707E1,1.4858658E1,4.3090576E1,4.5906235E1,8.31525E1,2.6224663E1,4.00422E1,1.46470375E1,2.8135834E1,1.8939651E1,3.7204185E1,5.1234222E1,2.129847E1,2.9166626E1,1.3438225E1,3.0075937E1,5.8059015E0,1.1409794E1,0E0,0E0,0E0,0E0,0E0,0E0,0E0,0E0,0E0,0E0,0E0,0E0,0E0,0E0,0E0,0E0,0E0,0E0,0E0,0E0,0E0,0E0,0E0,0E0,0E0,0E0,0E0,0E0,0E0,0E0,0E0,0E0],"parents":[2147483647,0,0,1,1,2,2,3,3,4,4,5,5,6,6,7,7,8,8,9,9,10,10,11,11,12,12,13,13,14,14,15,15,16,16,17,17,18,18,19,19,20,20,21,21,22,22,23,23,24,24,25,25,26,26,27,27,28,28,29,29,30,30],"right_children":[2,4,6,8,10,12,14,16,18,20,22,24,26,28,30,32,34,36,38,40,42,44,46,48,50,52,54,56,58,60,62,-1,-1,-1,-1,-1,-1,-1,-1,-1,-1,-1,-1,-1,-1,-1,-1,-1,-1,-1,-1,-1,-1,-1,-1,-1,-1,-1,-1,-1,-1,-1,-1],"split_conditions":[1E0,1E0,1E0,1E0,1E0,1E0,1E0,1E0,1E0,1E0,1E0,1E0,1E0,1E0,1E0,1E0,1E0,1E0,1E0,5.1377514E1,1E0,1E0,5.08344E1,1E0,1E0,7E0,5E0,1E0,1E0,6.509712E1,1E0,-4.1953254E-2,-2.6405383E-2,-1.0854848E-2,-3.64124E-2,2.8281433E-3,3.7420135E-2,-3.129162E-2,-5.107957E-3,-1.027263E-3,2.005062E-2,-2.3063298E-2,2.7226552E-4,3.0803386E-2,-1.2266998E-3,3.240966E-2,7.289262E-2,1.0048531E-2,3.140544E-2,2.4541544E-2,5.5395544E-2,4.1195717E-2,-3.322889E-4,3.555156E-2,8.153352E-2,-3.6564063E-2,-1.5778467E-2,-1.4376958E-2,3.248224E-2,8.7037E-3,-3.9612528E-2,4.098633E-2,4.134608E-3],"split_indices":[26,22,20,30,30,30,30,18,24,16,27,22,4,31,4,34,12,34,18,84,34,16,84,18,4,3,2,4,34,84,47,0,0,0,0,0,0,0,0,0,0,0,0,0,0,0,0,0,0,0,0,0,0,0,0,0,0,0,0,0,0,0,0],"split_type":[0,0,0,0,0,0,0,0,0,0,0,0,0,0,0,0,0,0,0,0,0,0,0,0,0,0,0,0,0,0,0,0,0,0,0,0,0,0,0,0,0,0,0,0,0,0,0,0,0,0,0,0,0,0,0,0,0,0,0,0,0,0,0],"sum_hessian":[3.6019E4,2.4445E4,1.1574E4,1.729E4,7.155E3,8.644E3,2.93E3,1.2008E4,5.282E3,5.174E3,1.981E3,6.403E3,2.241E3,2.12E3,8.1E2,8.345E3,3.663E3,3.494E3,1.788E3,3.832E3,1.342E3,1.394E3,5.87E2,4.115E3,2.288E3,9.18E2,1.323E3,1.423E3,6.97E2,3.42E2,4.68E2,5.751E3,2.594E3,2.715E3,9.48E2,2.538E3,9.56E2,1.233E3,5.55E2,1.449E3,2.383E3,9.7E2,3.72E2,1.019E3,3.75E2,1.62E2,4.25E2,2.994E3,1.121E3,8.72E2,1.416E3,7.71E2,1.47E2,1.59E2,1.164E3,4.61E2,9.62E2,5.11E2,1.86E2,3.16E2,2.6E1,3.58E2,1.1E2],"tree_param":{"num_deleted":"0","num_feature":"85","num_nodes":"63","size_leaf_vector":"1"}},{"base_weights":[4.392236E-5,-1.0346088E-1,2.1864247E-1,-1.9380829E-1,1.14859484E-1,3.0993757E-1,-5.0707497E-2,-2.8020513E-1,2.6205773E-3,4.1770127E-2,3.0563778E-1,2.3226014E-1,5.3167546E-1,-1.4163178E-1,1.8714838E-1,-3.341244E-1,-1.5730935E-1,-9.8330356E-2,2.482727E-1,1.08744934E-1,-1.4941098E-1,4.1733083E-1,6.359404E-2,3.1564283E-1,5.1530924E-2,3.110186E-1,6.8443376E-1,-2.0283546E-1,-1.6566347E-2,1.0908606E-1,4.1737607E-1,-3.787143E-2,-2.3658304E-2,-2.2281842E-2,1.9367142E-3,-1.7555503E-2,9.591024E-3,1.6513042E-2,4.798862E-2,4.533805E-3,2.607576E-2,-3.135272E-2,-8.691364E-3,3.2395963E-2,6.4367466E-2,-5.665357E-3,3.383826E-2,3.3992644E-2,-7.706816E-3,1.6240517E-3,2.7391652E-2,3.900588E-2,4.2306394E-3,7.875494E-2,4.7043025E-2,-3.2915574E-2,-1.4202259E-2,-1.2942071E-2,2.9251385E-2,3.673393E-3,3.5016973E-2,5.034087E-2,-2.8529098E-2],"categories":[],"categories_nodes":[],"categories_segments":[],"categories_sizes":[],"default_left":[0,0,0,0,0,0,0,0,0,0,0,0,0,0,0,0,0,0,0,0,0,0,0,0,0,0,0,0,0,0,0,0,0,0,0,0,0,0,0,0,0,0,0,0,0,0,0,0,0,0,0,0,0,0,0,0,0,0,0,0,0,0,0],"id":4,"left_children":[1,3,5,7,9,11,13,15,17,19,21,23,25,27,29,31,33,35,37,39,41,43,45,47,49,51,53,55,57,59,61,-1,-1,-1,-1,-1,-1,-1,-1,-1,-1,-1,-1,-1,-1,-1,-1,-1,-1,-1,-1,-1,-1,-1,-1,-1,-1,-1,-1,-1,-1,-1,-1],"loss_changes":[8.1501117E2,4.8221176E2,2.846488E2,2.9344348E2,9.976952E1,1.4877826E2,6.3414875E1,7.9524414E1,1.3103653E2,6.6278595E1,5.3556046E1,9.648999E1,7.535858E1,1.6231758E1,1.4529846E1,3.6210205E1,4.241114E1,5.6192467E1,2.9557083E1,3.6933125E1,1.3747667E1,2.8449203E1,2.0736921E1,4.181485E1,1.5872213E1,1.950219E1,2.8846375E1,1.0892281E1,2.438483E1,1.05749855E1,1.2536335E1,0E0,0E0,0E0,0E0,0E0,0E0,0E0,0E0,0E0,0E0,0E0,0E0,0E0,0E0,0E0,0E0,0E0,0E0,0E0,0E0,0E0,0E0,0E0,0E0,0E0,0E0,0E0,0E0,0E0,0E0,0E0,0E0],"parents":[2147483647,0,0,1,1,2,2,3,3,4,4,5,5,6,6,7,7,8,8,9,9,10,10,11,11,12,12,13,13,14,14,15,15,16,16,17,17,18,18,19,19,20,20,21,21,22,22,23,23,24,24,25,25,26,26,27,27,28,28,29,29,30,30],"right_children":[2,4,6,8,10,12,14,16,18,20,22,24,26,28,30,32,34,36,38,40,42,44,46,48,50,52,54,56,58,60,62,-1,-1,-1,-1,-1,-1,-1,-1,-1,-1,-1,-1,-1,-1,-1,-1,-1,-1,-1,-1,-1,-1,-1,-1,-1,-1,-1,-1,-1,-1,-1,-1],"split_conditions":[1E0,1E0,1E0,1E0,1E0,1E0,1E0,1E0,1E0,1E0,1E0,1E0,1E0,1E0,1E0,1E0,1E0,1E0,1E0,7E0,1E0,1E0,1E0,8E0,8E0,1E0,1E0,1E0,1E0,1E0,6.509712E1,-3.787143E-2,-2.3658304E-2,-2.2281842E-2,1.9367142E-3,-1.7555503E-2,9.591024E-3,1.6513042E-2,4.798862E-2,4.533805E-3,2.607576E-2,-3.135272E-2,-8.691364E-3,3.2395963E-2,6.4367466E-2,-5.665357E-3,3.383826E-2,3.3992644E-2,-7.706816E-3,1.6240517E-3,2.7391652E-2,3.900588E-2,4.2306394E-3,7.875494E-2,4.7043025E-2,-3.2915574E-2,-1.4202259E-2,-1.2942071E-2,2.9251385E-2,3.673393E-3,3.5016973E-2,5.034087E-2,-2.8529098E-2],"split_indices":[26,22,20,30,30,30,30,18,27,16,24,21,4,31,34,31,34,18,34,2,4,74,80,3,2,11,21,4,34,81,84,0,0,0,0,0,0,0,0,0,0,0,0,0,0,0,0,0,0,0,0,0,0,0,0,0,0,0,0,0,0,0,0],"split_type":[0,0,0,0,0,0,0,0,0,0,0,0,0,0,0,0,0,0,0,0,0,0,0,0,0,0,0,0,0,0,0,0,0,0,0,0,0,0,0,0,0,0,0,0,0,0,0,0,0,0,0,0,0,0,0,0,0,0,0,0,0,0,0],"sum_hessian":[3.6019E4,2.4445E4,1.1574E4,1.729E4,7.155E3,8.644E3,2.93E3,1.2008E4,5.282E3,5.174E3,1.981E3,6.403E3,2.241E3,2.12E3,8.1E2,8.345E3,3.663E3,3.744E3,1.538E3,3.832E3,1.342E3,1.355E3,6.26E2,4.381E3,2.022E3,9.18E2,1.323E3,1.423E3,6.97E2,6.06E2,2.04E2,5.725E3,2.62E3,2.672E3,9.91E2,2.679E3,1.065E3,1.133E3,4.05E2,2.705E3,1.127E3,3.69E2,9.73E2,9.61E2,3.94E2,4.36E2,1.9E2,4.126E3,2.55E2,1.746E3,2.76E2,7.09E2,2.09E2,8.91E2,4.32E2,4.61E2,9.62E2,5.11E2,1.86E2,4.67E2,1.39E2,1.82E2,2.2E1],"tree_param":{"num_deleted":"0","num_feature":"85","num_nodes":"63","size_leaf_vector":"1"}},{"base_weights":[4.9083737E-5,-9.3111105E-2,1.9680017E-1,-1.7442892E-1,1.0338967E-1,2.7896976E-1,-4.5626618E-2,-2.5219145E-1,2.369214E-3,1.6759126E-1,-7.726443E-2,2.0904276E-1,4.785833E-1,-1.2748313E-1,1.6850814E-1,-3.0071932E-1,-1.4158396E-1,1.0566951E-1,-1.9944014E-1,8.157847E-2,3.2144424E-1,-1.3800429E-1,8.625253E-2,1.2483687E-1,3.6036754E-1,2.799638E-1,6.160854E-1,-2.3887236E-1,-6.885408E-2,2.5333727E-2,2.728585E-1,-3.4397434E-2,-2.0472571E-2,-8.1942305E-3,-3.1212682E-2,2.3919165E-3,3.2244954E-2,-2.6410863E-2,-5.555456E-3,-8.485522E-3,1.230188E-2,1.7624736E-2,4.3011192E-2,-1.9307649E-2,-3.6356086E-4,2.216784E-2,-1.9743336E-2,7.2900215E-3,2.6336223E-2,4.471491E-2,1.0565662E-2,9.99034E-3,3.9208643E-2,6.962328E-2,3.448798E-2,-3.282314E-2,-9.5435855E-4,-1.2783508E-2,6.3704327E-3,-3.7360562E-3,2.7037516E-2,3.5141166E-2,1.6340999E-3],"categories":[],"categories_nodes":[],"categories_segments":[],"categories_sizes":[],"default_left":[0,0,0,0,0,0,0,0,0,0,0,0,0,0,0,0,0,0,0,0,0,0,0,0,0,0,0,0,0,0,0,0,0,0,0,0,0,0,0,0,0,0,0,0,0,0,0,0,0,0,0,0,0,0,0,0,0,0,0,0,0,0,0],"id":5,"left_children":[1,3,5,7,9,11,13,15,17,19,21,23,25,27,29,31,33,35,37,39,41,43,45,47,49,51,53,55,57,59,61,-1,-1,-1,-1,-1,-1,-1,-1,-1,-1,-1,-1,-1,-1,-1,-1,-1,-1,-1,-1,-1,-1,-1,-1,-1,-1,-1,-1,-1,-1,-1,-1],"loss_changes":[6.602422E2,3.9064105E2,2.305881E2,2.3772192E2,8.301023E1,1.2057007E2,5.1396996E1,6.441626E1,1.10155594E2,6.984573E1,1.8654263E1,8.155759E1,6.1057922E1,1.3835049E1,1.2109671E1,3.4583862E1,3.7242653E1,6.1930122E1,1.663173E1,2.33777E1,2.9792343E1,1.0129871E1,1.9598734E1,2.9593552E1,5.0549255E1,1.8514381E1,2.8538849E1,1.4976955E1,1.0883575E1,5.279507E0,9.444729E0,0E0,0E0,0E0,0E0,0E0,0E0,0E0,0E0,0E0,0E0,0E0,0E0,0E0,0E0,0E0,0E0,0E0,0E0,0E0,0E0,0E0,0E0,0E0,0E0,0E0,0E0,0E0,0E0,0E0,0E0,0E0,0E0],"parents":[2147483647,0,0,1,1,2,2,3,3,4,4,5,5,6,6,7,7,8,8,9,9,10,10,11,11,12,12,13,13,14,14,15,15,16,16,17,17,18,18,19,19,20,20,21,21,22,22,23,23,24,24,25,25,26,26,27,27,28,28,29,29,30,30],"right_children":[2,4,6,8,10,12,14,16,18,20,22,24,26,28,30,32,34,36,38,40,42,44,46,48,50,52,54,56,58,60,62,-1,-1,-1,-1,-1,-1,-1,-1,-1,-1,-1,-1,-1,-1,-1,-1,-1,-1,-1,-1,-1,-1,-1,-1,-1,-1,-1,-1,-1,-1,-1,-1],"split_conditions":[1E0,1E0,1E0,1E0,1E0,1E0,1E0,1E0,1E0,7E0,1E0,1E0,1E0,1E0,1E0,1E0,1E0,1E0,1E0,4.8055065E1,1E0,1E0,1E0,1E0,1E0,5.2360653E1,1E0,1E0,1E0,1E0,1E0,-3.4397434E-2,-2.0472571E-2,-8.1942305E-3,-3.1212682E-2,2.3919165E-3,3.2244954E-2,-2.6410863E-2,-5.555456E-3,-8.485522E-3,1.230188E-2,1.7624736E-2,4.3011192E-2,-1.9307649E-2,-3.6356086E-4,2.216784E-2,-1.9743336E-2,7.2900215E-3,2.6336223E-2,4.471491E-2,1.0565662E-2,9.99034E-3,3.9208643E-2,6.962328E-2,3.448798E-2,-3.282314E-2,-9.5435855E-4,-1.2783508E-2,6.3704327E-3,-3.7360562E-3,2.7037516E-2,3.5141166E-2,1.6340999E-3],"split_indices":[26,22,20,30,16,30,30,18,24,2,34,22,4,4,4,34,12,34,18,84,4,30,28,18,16,84,17,34,31,15,47,0,0,0,0,0,0,0,0,0,0,0,0,0,0,0,0,0,0,0,0,0,0,0,0,0,0,0,0,0,0,0,0],"split_type":[0,0,0,0,0,0,0,0,0,0,0,0,0,0,0,0,0,0,0,0,0,0,0,0,0,0,0,0,0,0,0,0,0,0,0,0,0,0,0,0,0,0,0,0,0,0,0,0,0,0,0,0,0,0,0,0,0,0,0,0,0,0,0],"sum_hessian":[3.6019E4,2.4445E4,1.1574E4,1.729E4,7.155E3,8.644E3,2.93E3,1.2008E4,5.282E3,5.279E3,1.876E3,6.403E3,2.241E3,2.12E3,8.1E2,8.345E3,3.663E3,3.494E3,1.788E3,3.387E3,1.892E3,1.368E3,5.08E2,4.115E3,2.288E3,9.18E2,1.323E3,7.3E2,1.39E3,3.42E2,4.68E2,5.751E3,2.594E3,2.715E3,9.48E2,2.538E3,9.56E2,1.233E3,5.55E2,6.75E2,2.712E3,8.11E2,1.081E3,9.7E2,3.98E2,3.44E2,1.64E2,2.994E3,1.121E3,1.706E3,5.82E2,3.53E2,5.65E2,1.02E3,3.03E2,5.25E2,2.05E2,9.62E2,4.28E2,2.73E2,6.9E1,3.58E2,1.1E2],"tree_param":{"num_deleted":"0","num_feature":"85","num_nodes":"63","size_leaf_vector":"1"}},{"base_weights":[5.0219933E-5,-8.3801806E-2,1.771428E-1,-1.5699133E-1,9.3057305E-2,2.511008E-1,-4.105717E-2,-2.2698015E-1,2.1328027E-3,2.9772969E-2,2.582457E-1,1.8815237E-1,4.3079337E-1,-1.1475376E-1,1.517314E-1,-2.7054197E-1,-1.2458427E-1,-8.462221E-2,2.1324092E-1,-3.0229965E-2,1.9694297E-1,1.5686916E-1,4.9831718E-1,2.5933948E-1,3.3861697E-2,2.5202093E-1,5.545555E-1,-1.613805E-1,8.23711E-3,8.088841E-2,3.607556E-1,-3.0958286E-2,-1.8642908E-2,-2.8924322E-2,1.997934E-2,-1.5164591E-2,8.395955E-3,-7.642503E-4,2.7659431E-2,-8.294596E-3,1.0322473E-2,1.2763972E-2,4.109029E-2,7.934208E-3,3.515611E-2,3.9751142E-2,7.56513E-2,9.204561E-3,3.0674675E-2,-1.9266665E-3,1.6639471E-2,1.7114624E-2,4.963774E-2,4.757167E-2,8.076876E-2,-2.9547065E-2,-9.15949E-3,1.3912061E-2,-2.495854E-2,1.5408755E-3,2.991998E-2,1.929679E-2,7.273978E-2],"categories":[],"categories_nodes":[],"categories_segments":[],"categories_sizes":[],"default_left":[0,0,0,0,0,0,0,0,0,0,0,0,0,0,0,0,0,0,0,0,0,0,0,0,0,0,0,0,0,0,0,0,0,0,0,0,0,0,0,0,0,0,0,0,0,0,0,0,0,0,0,0,0,0,0,0,0,0,0,0,0,0,0],"id":6,"left_children":[1,3,5,7,9,11,13,15,17,19,21,23,25,27,29,31,33,35,37,39,41,43,45,47,49,51,53,55,57,59,61,-1,-1,-1,-1,-1,-1,-1,-1,-1,-1,-1,-1,-1,-1,-1,-1,-1,-1,-1,-1,-1,-1,-1,-1,-1,-1,-1,-1,-1,-1,-1,-1],"loss_changes":[5.348964E2,3.1644934E2,1.8680338E2,1.9256882E2,7.479998E1,9.770575E1,4.166065E1,5.353308E1,9.677454E1,5.1914783E1,4.815898E1,7.0329605E1,4.9465088E1,1.2164549E1,1.1980026E1,2.7605347E1,1.9159207E2,4.2327393E1,2.1538445E1,2.6805626E1,2.0217587E1,2.1028088E1,1.5003525E1,3.472516E1,1.4247679E1,1.8076561E1,2.603833E1,1.4364864E1,1.9741632E1,8.672426E0,1.2470837E1,0E0,0E0,0E0,0E0,0E0,0E0,0E0,0E0,0E0,0E0,0E0,0E0,0E0,0E0,0E0,0E0,0E0,0E0,0E0,0E0,0E0,0E0,0E0,0E0,0E0,0E0,0E0,0E0,0E0,0E0,0E0,0E0],"parents":[2147483647,0,0,1,1,2,2,3,3,4,4,5,5,6,6,7,7,8,8,9,9,10,10,11,11,12,12,13,13,14,14,15,15,16,16,17,17,18,18,19,19,20,20,21,21,22,22,23,23,24,24,25,25,26,26,27,27,28,28,29,29,30,30],"right_children":[2,4,6,8,10,12,14,16,18,20,22,24,26,28,30,32,34,36,38,40,42,44,46,48,50,52,54,56,58,60,62,-1,-1,-1,-1,-1,-1,-1,-1,-1,-1,-1,-1,-1,-1,-1,-1,-1,-1,-1,-1,-1,-1,-1,-1,-1,-1,-1,-1,-1,-1,-1,-1],"split_conditions":[1E0,1E0,1E0,1E0,1E0,1E0,1E0,1E0,1E0,1E0,1E0,1E0,1E0,1E0,1E0,1E0,1E0,1E0,4.9259407E1,1E0,1E0,1E0,1E0,5E0,1E0,1E0,1E0,1E0,1E0,1E0,1E0,-3.0958286E-2,-1.8642908E-2,-2.8924322E-2,1.997934E-2,-1.5164591E-2,8.395955E-3,-7.642503E-4,2.7659431E-2,-8.294596E-3,1.0322473E-2,1.2763972E-2,4.109029E-2,7.934208E-3,3.515611E-2,3.9751142E-2,7.56513E-2,9.204561E-3,3.0674675E-2,-1.9266665E-3,1.6639471E-2,1.7114624E-2,4.963774E-2,4.757167E-2,8.076876E-2,-2.9547065E-2,-9.15949E-3,1.3912061E-2,-2.495854E-2,1.5408755E-3,2.991998E-2,1.929679E-2,7.273978E-2],"split_indices":[26,22,20,30,30,30,30,34,27,18,27,21,4,34,34,18,31,18,84,34,15,74,54,2,54,80,51,4,28,81,80,0,0,0,0,0,0,0,0,0,0,0,0,0,0,0,0,0,0,0,0,0,0,0,0,0,0,0,0,0,0,0,0],"split_type":[0,0,0,0,0,0,0,0,0,0,0,0,0,0,0,0,0,0,0,0,0,0,0,0,0,0,0,0,0,0,0,0,0,0,0,0,0,0,0,0,0,0,0,0,0,0,0,0,0,0,0,0,0,0,0,0,0,0,0,0,0,0,0],"sum_hessian":[3.6019E4,2.4445E4,1.1574E4,1.729E4,7.155E3,8.644E3,2.93E3,1.2008E4,5.282E3,5.174E3,1.981E3,6.403E3,2.241E3,2.12E3,8.1E2,8.423E3,3.585E3,3.744E3,1.538E3,3.808E3,1.366E3,1.394E3,5.87E2,4.381E3,2.022E3,9.18E2,1.323E3,1.537E3,5.83E2,6.06E2,2.04E2,5.751E3,2.672E3,2.378E3,1.207E3,2.679E3,1.065E3,3.43E2,1.195E3,2.73E3,1.078E3,1.033E3,3.33E2,9.98E2,3.96E2,4.24E2,1.63E2,9.68E2,3.413E3,1.444E3,5.78E2,6.91E2,2.27E2,1.011E3,3.12E2,5.25E2,1.012E3,3.87E2,1.96E2,4.67E2,1.39E2,1.41E2,6.3E1],"tree_param":{"num_deleted":"0","num_feature":"85","num_nodes":"63","size_leaf_vector":"1"}},{"base_weights":[5.906183E-5,-7.5414434E-2,1.5945646E-1,-1.4129442E-1,8.378153E-2,2.260196E-1,-3.6926292E-2,-2.0428701E-1,1.9233245E-3,1.4006542E-1,-7.458966E-2,1.0729785E-1,3.061435E-1,-1.03301845E-1,1.3671054E-1,-2.4559927E-1,-1.101286E-1,9.0779185E-2,-1.7166704E-1,7.76925E-2,3.05076E-1,-1.2595238E-1,6.37014E-2,1.3641249E-1,-2.1759762E-1,1.6521561E-1,4.1063026E-1,-1.5327547E-1,-1.2019001E-3,2.0604692E-1,-5.2842338E-2,-2.8022928E-2,-1.6985074E-2,-1.6565556E-2,6.058493E-3,1.7287204E-3,2.8566463E-2,-2.2256685E-2,-5.8389963E-3,1.3633846E-2,-5.0167586E-3,2.1101551E-2,5.325016E-2,-7.3484904E-3,-2.5653208E-2,1.8392896E-2,-1.8806959E-2,1.7780168E-2,-8.114729E-3,-8.409784E-3,-4.1085284E-2,9.05102E-3,4.5456048E-2,4.989908E-2,2.3509614E-2,-1.879306E-2,5.37124E-3,-9.16101E-3,2.463393E-2,1.0520637E-2,4.5487937E-2,-1.9895583E-2,4.2950884E-2],"categories":[],"categories_nodes":[],"categories_segments":[],"categories_sizes":[],"default_left":[0,0,0,0,0,0,0,0,0,0,0,0,0,0,0,0,0,0,0,0,0,0,0,0,0,0,0,0,0,0,0,0,0,0,0,0,0,0,0,0,0,0,0,0,0,0,0,0,0,0,0,0,0,0,0,0,0,0,0,0,0,0,0],"id":7,"left_children":[1,3,5,7,9,11,13,15,17,19,21,23,25,27,29,31,33,35,37,39,41,43,45,47,49,51,53,55,57,59,61,-1,-1,-1,-1,-1,-1,-1,-1,-1,-1,-1,-1,-1,-1,-1,-1,-1,-1,-1,-1,-1,-1,-1,-1,-1,-1,-1,-1,-1,-1,-1,-1],"loss_changes":[4.3334268E2,2.5639728E2,1.5131506E2,1.5599387E2,6.379722E1,8.220227E1,3.37946E1,4.6686737E1,8.150333E1,5.431907E1,1.33403635E1,3.2995033E1,7.5928345E1,1.0821804E1,1.066979E1,2.1845398E1,3.4741837E1,5.0052254E1,1.03019905E1,2.87485E1,3.08629E1,9.360422E0,1.5441926E1,2.8820229E1,7.369912E0,4.7491615E1,4.583969E1,1.0224716E1,1.5643636E1,1.4857031E1,1.5449659E1,0E0,0E0,0E0,0E0,0E0,0E0,0E0,0E0,0E0,0E0,0E0,0E0,0E0,0E0,0E0,0E0,0E0,0E0,0E0,0E0,0E0,0E0,0E0,0E0,0E0,0E0,0E0,0E0,0E0,0E0,0E0,0E0],"parents":[2147483647,0,0,1,1,2,2,3,3,4,4,5,5,6,6,7,7,8,8,9,9,10,10,11,11,12,12,13,13,14,14,15,15,16,16,17,17,18,18,19,19,20,20,21,21,22,22,23,23,24,24,25,25,26,26,27,27,28,28,29,29,30,30],"right_children":[2,4,6,8,10,12,14,16,18,20,22,24,26,28,30,32,34,36,38,40,42,44,46,48,50,52,54,56,58,60,62,-1,-1,-1,-1,-1,-1,-1,-1,-1,-1,-1,-1,-1,-1,-1,-1,-1,-1,-1,-1,-1,-1,-1,-1,-1,-1,-1,-1,-1,-1,-1,-1],"split_conditions":[1E0,1E0,1E0,1E0,1E0,6E0,1E0,1E0,1E0,1E0,1E0,8E0,1E0,1E0,1E0,1E0,1E0,1E0,1E0,1E0,1E0,1E0,1E0,1E0,9E0,1E0,1E0,8E0,1E0,1E0,1E0,-2.8022928E-2,-1.6985074E-2,-1.6565556E-2,6.058493E-3,1.7287204E-3,2.8566463E-2,-2.2256685E-2,-5.8389963E-3,1.3633846E-2,-5.0167586E-3,2.1101551E-2,5.325016E-2,-7.3484904E-3,-2.5653208E-2,1.8392896E-2,-1.8806959E-2,1.7780168E-2,-8.114729E-3,-8.409784E-3,-4.1085284E-2,9.05102E-3,4.5456048E-2,4.989908E-2,2.3509614E-2,-1.879306E-2,5.37124E-3,-9.16101E-3,2.463393E-2,1.0520637E-2,4.5487937E-2,-1.9895583E-2,4.2950884E-2],"split_indices":[26,22,20,30,16,2,30,18,24,30,34,3,4,31,38,31,15,34,18,17,74,82,28,82,3,80,82,2,34,44,69,0,0,0,0,0,0,0,0,0,0,0,0,0,0,0,0,0,0,0,0,0,0,0,0,0,0,0,0,0,0,0,0],"split_type":[0,0,0,0,0,0,0,0,0,0,0,0,0,0,0,0,0,0,0,0,0,0,0,0,0,0,0,0,0,0,0,0,0,0,0,0,0,0,0,0,0,0,0,0,0,0,0,0,0,0,0,0,0,0,0,0,0,0,0,0,0,0,0],"sum_hessian":[3.6019E4,2.4445E4,1.1574E4,1.729E4,7.155E3,8.644E3,2.93E3,1.2008E4,5.282E3,5.279E3,1.876E3,3.484E3,5.16E3,2.12E3,8.1E2,8.345E3,3.663E3,3.494E3,1.788E3,3.832E3,1.447E3,1.368E3,5.08E2,3.198E3,2.86E2,2.198E3,2.962E3,1.423E3,6.97E2,5.93E2,2.17E2,5.725E3,2.62E3,2.764E3,8.99E2,2.538E3,9.56E2,1.233E3,5.55E2,2.627E3,1.205E3,1.025E3,4.22E2,9.77E2,3.91E2,3.44E2,1.64E2,2.687E3,5.11E2,1.7E2,1.16E2,1.748E3,4.5E2,1.969E3,9.93E2,1.219E3,2.04E2,5.11E2,1.86E2,4.23E2,1.7E2,1.67E2,5E1],"tree_param":{"num_deleted":"0","num_feature":"85","num_nodes":"63","size_leaf_vector":"1"}},{"base_weights":[5.7747457E-5,-6.787314E-2,1.4352544E-1,-1.2716806E-1,7.54103E-2,7.975953E-2,3.2348824E-1,-1.8386294E-1,1.7314118E-3,1.260746E-1,-6.714849E-2,2.0716902E-2,2.3890786E-1,1.4482646E-1,4.3513405E-1,-2.231465E-1,-9.152927E-2,-7.282023E-2,1.8314414E-1,5.482549E-2,2.5352618E-1,-1.13381244E-1,5.7330452E-2,-4.2558715E-2,1.4589845E-1,1.5853888E-1,4.4965944E-1,7.5162075E-2,3.639646E-1,3.486568E-1,6.8497163E-1,-3.196053E-2,-1.9568937E-2,-2.3714036E-2,1.9530872E-2,-1.3093563E-2,8.705544E-3,2.4017373E-2,-1.4923995E-3,5.188661E-4,1.6989423E-2,1.2342154E-2,3.509305E-2,-2.3740783E-2,-6.7717405E-3,1.655894E-2,-1.6937662E-2,-9.5254565E-3,6.267324E-3,1.614861E-2,-3.2809626E-2,1.8470867E-2,-3.799742E-2,3.3126604E-2,7.130109E-2,1.7762427E-4,3.070254E-2,4.7364466E-2,6.188497E-3,2.2057692E-2,6.1110146E-2,1.1610528E-1,5.445357E-2],"categories":[],"categories_nodes":[],"categories_segments":[],"categories_sizes":[],"default_left":[0,0,0,0,0,0,0,0,0,0,0,0,0,0,0,0,0,0,0,0,0,0,0,0,0,0,0,0,0,0,0,0,0,0,0,0,0,0,0,0,0,0,0,0,0,0,0,0,0,0,0,0,0,0,0,0,0,0,0,0,0,0,0],"id":8,"left_children":[1,3,5,7,9,11,13,15,17,19,21,23,25,27,29,31,33,35,37,39,41,43,45,47,49,51,53,55,57,59,61,-1,-1,-1,-1,-1,-1,-1,-1,-1,-1,-1,-1,-1,-1,-1,-1,-1,-1,-1,-1,-1,-1,-1,-1,-1,-1,-1,-1,-1,-1,-1,-1],"loss_changes":[3.510566E2,2.0770233E2,1.3280301E2,1.2636188E2,5.169367E1,8.0316635E1,6.033603E1,4.3538574E1,7.146389E1,4.7932793E1,1.0808644E1,4.940119E1,3.9106064E1,1.7772943E1,4.001181E1,2.2248291E1,1.4982202E2,3.4807083E1,1.7387737E1,1.9350178E1,2.3946198E1,7.737295E0,1.2520468E1,2.2980095E1,1.5524418E1,2.3689667E1,1.9656036E1,1.5075172E1,9.280811E0,4.6454056E1,3.132634E1,0E0,0E0,0E0,0E0,0E0,0E0,0E0,0E0,0E0,0E0,0E0,0E0,0E0,0E0,0E0,0E0,0E0,0E0,0E0,0E0,0E0,0E0,0E0,0E0,0E0,0E0,0E0,0E0,0E0,0E0,0E0,0E0],"parents":[2147483647,0,0,1,1,2,2,3,3,4,4,5,5,6,6,7,7,8,8,9,9,10,10,11,11,12,12,13,13,14,14,15,15,16,16,17,17,18,18,19,19,20,20,21,21,22,22,23,23,24,24,25,25,26,26,27,27,28,28,29,29,30,30],"right_children":[2,4,6,8,10,12,14,16,18,20,22,24,26,28,30,32,34,36,38,40,42,44,46,48,50,52,54,56,58,60,62,-1,-1,-1,-1,-1,-1,-1,-1,-1,-1,-1,-1,-1,-1,-1,-1,-1,-1,-1,-1,-1,-1,-1,-1,-1,-1,-1,-1,-1,-1,-1,-1],"split_conditions":[1E0,1E0,1E0,1E0,1E0,1E0,1E0,1E0,1E0,7E0,1E0,1E0,1E0,1E0,1E0,1E0,1E0,1E0,1E0,1E0,1E0,1E0,1E0,1E0,9E0,8E0,1E0,1E0,1E0,1E0,4E0,-3.196053E-2,-1.9568937E-2,-2.3714036E-2,1.9530872E-2,-1.3093563E-2,8.705544E-3,2.4017373E-2,-1.4923995E-3,5.188661E-4,1.6989423E-2,1.2342154E-2,3.509305E-2,-2.3740783E-2,-6.7717405E-3,1.655894E-2,-1.6937662E-2,-9.5254565E-3,6.267324E-3,1.614861E-2,-3.2809626E-2,1.8470867E-2,-3.799742E-2,3.3126604E-2,7.130109E-2,1.7762427E-4,3.070254E-2,4.7364466E-2,6.188497E-3,2.2057692E-2,6.1110146E-2,1.1610528E-1,5.445357E-2],"split_indices":[26,22,22,30,16,30,4,34,27,2,34,23,44,80,19,4,31,34,47,80,4,4,28,31,3,3,23,19,56,18,3,0,0,0,0,0,0,0,0,0,0,0,0,0,0,0,0,0,0,0,0,0,0,0,0,0,0,0,0,0,0,0,0],"split_type":[0,0,0,0,0,0,0,0,0,0,0,0,0,0,0,0,0,0,0,0,0,0,0,0,0,0,0,0,0,0,0,0,0,0,0,0,0,0,0,0,0,0,0,0,0,0,0,0,0,0,0,0,0,0,0,0,0,0,0,0,0,0,0],"sum_hessian":[3.6019E4,2.4445E4,1.1574E4,1.729E4,7.155E3,8.547E3,3.027E3,1.2008E4,5.282E3,5.279E3,1.876E3,6.235E3,2.312E3,1.165E3,1.862E3,8.423E3,3.585E3,3.744E3,1.538E3,3.387E3,1.892E3,1.368E3,5.08E2,4.142E3,2.093E3,1.675E3,6.37E2,8.85E2,2.8E2,1.385E3,4.77E2,1.864E3,6.559E3,2.378E3,1.207E3,2.746E3,9.98E2,1.194E3,3.44E2,2.367E3,1.02E3,8.11E2,1.081E3,3.67E2,1.001E3,3.44E2,1.64E2,2.76E3,1.382E3,2.027E3,6.6E1,1.598E3,7.7E1,4.41E2,1.96E2,6.73E2,2.12E2,2.05E2,7.5E1,9.32E2,4.53E2,1.07E2,3.7E2],"tree_param":{"num_deleted":"0","num_feature":"85","num_nodes":"63","size_leaf_vector":"1"}},{"base_weights":[6.306946E-5,-8.4047966E-2,9.74837E-2,-1.22753486E-1,3.3606563E-2,2.9518701E-2,1.9657412E-1,-1.5660775E-1,-7.78582E-3,7.152665E-2,-1.606435E-1,-3.7907302E-2,1.3132533E-1,2.543279E-1,1.3590272E-2,-2.6724422E-1,-1.2920144E-1,-4.9389064E-2,1.74241E-1,1.2083089E-1,-6.279767E-2,-2.02753E-1,9.045402E-2,-1.1270514E-1,6.965306E-2,2.3139174E-1,-5.990129E-2,1.358431E-1,3.421759E-1,-8.046498E-2,8.464861E-2,-3.186239E-2,-1.4076739E-2,-1.6394509E-2,-1.4263078E-3,-9.026644E-3,1.2465517E-2,-1.0887431E-2,2.3329807E-2,6.715947E-3,2.5187174E-2,-1.0572909E-2,1.269339E-2,-3.1973314E-2,-1.4677398E-2,-1.6011799E-2,5.7000395E-2,-1.8020427E-2,-2.7553383E-3,-1.6819852E-4,2.1984855E-2,3.077243E-2,1.06699895E-2,-1.2473307E-2,1.1384857E-2,7.1481937E-3,3.851376E-2,2.6294632E-2,5.0849017E-2,-1.472605E-2,1.1406015E-2,5.3941435E-4,2.298515E-2],"categories":[],"categories_nodes":[],"categories_segments":[],"categories_sizes":[],"default_left":[0,0,0,0,0,0,0,0,0,0,0,0,0,0,0,0,0,0,0,0,0,0,0,0,0,0,0,0,0,0,0,0,0,0,0,0,0,0,0,0,0,0,0,0,0,0,0,0,0,0,0,0,0,0,0,0,0,0,0,0,0,0,0],"id":9,"left_children":[1,3,5,7,9,11,13,15,17,19,21,23,25,27,29,31,33,35,37,39,41,43,45,47,49,51,53,55,57,59,61,-1,-1,-1,-1,-1,-1,-1,-1,-1,-1,-1,-1,-1,-1,-1,-1,-1,-1,-1,-1,-1,-1,-1,-1,-1,-1,-1,-1,-1,-1,-1,-1],"loss_changes":[2.9516147E2,8.803519E1,1.1239604E2,5.6613907E1,3.5265064E1,6.796954E1,7.1753296E1,3.4037567E1,2.5074926E1,2.653174E1,8.28689E0,4.79336E1,7.550286E1,5.3672577E1,1.090077E1,1.4446442E1,3.597003E1,1.918475E1,1.0324894E1,2.0590214E1,8.777921E0,4.340523E0,1.3669549E1,2.0192345E1,2.6185877E1,2.4618912E1,1.5288879E1,3.5255165E1,3.890979E1,9.138169E0,1.0689672E1,0E0,0E0,0E0,0E0,0E0,0E0,0E0,0E0,0E0,0E0,0E0,0E0,0E0,0E0,0E0,0E0,0E0,0E0,0E0,0E0,0E0,0E0,0E0,0E0,0E0,0E0,0E0,0E0,0E0,0E0,0E0,0E0],"parents":[2147483647,0,0,1,1,2,2,3,3,4,4,5,5,6,6,7,7,8,8,9,9,10,10,11,11,12,12,13,13,14,14,15,15,16,16,17,17,18,18,19,19,20,20,21,21,22,22,23,23,24,24,25,25,26,26,27,27,28,28,29,29,30,30],"right_children":[2,4,6,8,10,12,14,16,18,20,22,24,26,28,30,32,34,36,38,40,42,44,46,48,50,52,54,56,58,60,62,-1,-1,-1,-1,-1,-1,-1,-1,-1,-1,-1,-1,-1,-1,-1,-1,-1,-1,-1,-1,-1,-1,-1,-1,-1,-1,-1,-1,-1,-1,-1,-1],"split_conditions":[6E0,1E0,1E0,1E0,1E0,1E0,1E0,1E0,1E0,1E0,1E0,1E0,1E0,1E0,1E0,1E0,1E0,1E0,4.8055065E1,1E0,1E0,1E0,1E0,1E0,1E0,1E0,1E0,1E0,1E0,1E0,1E0,-3.186239E-2,-1.4076739E-2,-1.6394509E-2,-1.4263078E-3,-9.026644E-3,1.2465517E-2,-1.0887431E-2,2.3329807E-2,6.715947E-3,2.5187174E-2,-1.0572909E-2,1.269339E-2,-3.1973314E-2,-1.4677398E-2,-1.6011799E-2,5.7000395E-2,-1.8020427E-2,-2.7553383E-3,-1.6819852E-4,2.1984855E-2,3.077243E-2,1.06699895E-2,-1.2473307E-2,1.1384857E-2,7.1481937E-3,3.851376E-2,2.6294632E-2,5.0849017E-2,-1.472605E-2,1.1406015E-2,5.3941435E-4,2.298515E-2],"split_indices":[2,26,26,22,82,30,20,4,34,20,22,22,24,4,4,80,30,18,84,8,30,4,41,18,31,82,80,80,30,80,14,0,0,0,0,0,0,0,0,0,0,0,0,0,0,0,0,0,0,0,0,0,0,0,0,0,0,0,0,0,0,0,0],"split_type":[0,0,0,0,0,0,0,0,0,0,0,0,0,0,0,0,0,0,0,0,0,0,0,0,0,0,0,0,0,0,0,0,0,0,0,0,0,0,0,0,0,0,0,0,0,0,0,0,0,0,0,0,0,0,0,0,0,0,0,0,0,0,0],"sum_hessian":[3.6019E4,1.933E4,1.6689E4,1.4545E4,4.785E3,9.9E3,6.789E3,1.1236E4,3.309E3,4.004E3,7.81E2,5.956E3,3.944E3,5.16E3,1.629E3,2.229E3,9.007E3,2.694E3,6.15E2,2.929E3,1.075E3,6.69E2,1.12E2,3.513E3,2.443E3,2.589E3,1.355E3,2.198E3,2.962E3,7.01E2,9.28E2,1.584E3,6.45E2,6.916E3,2.091E3,2.182E3,5.12E2,1.06E2,5.09E2,2.079E3,8.5E2,8.77E2,1.98E2,2.15E2,4.54E2,7.4E1,3.8E1,1.959E3,1.554E3,1.657E3,7.86E2,1.605E3,9.84E2,9.87E2,3.68E2,1.748E3,4.5E2,2.008E3,9.54E2,5.22E2,1.79E2,6.01E2,3.27E2],"tree_param":{"num_deleted":"0","num_feature":"85","num_nodes":"63","size_leaf_vector":"1"}},{"base_weights":[6.133781E-5,-1.1599608E-1,5.919162E-2,-9.4981775E-2,-2.3207082E-1,4.644903E-4,1.5681896E-1,-1.2425905E-1,7.140962E-3,-3.9727348E-1,-1.8834479E-1,-5.7187896E-2,1.0521955E-1,2.0711623E-1,4.1523125E-4,-1.4893378E-1,-1.8936297E-2,2.4542246E-2,-4.4558117E-1,-4.6221638E-1,-2.4784136E-1,-2.1468623E-1,-1.1022547E-1,-1.14981964E-1,3.6581475E-2,5.7481706E-2,2.4339902E-1,2.6362953E-1,7.4322164E-2,-5.010853E-2,1.15248226E-1,-1.7378878E-2,-5.5353604E-3,6.2843785E-3,-2.160095E-2,4.497373E-3,-2.5648618E-2,-5.4788377E-2,-6.137827E-3,-5.353974E-2,-3.217735E-2,-3.501236E-2,3.1429704E-2,-2.2759505E-2,-1.2132224E-2,-1.5294822E-2,8.781678E-3,-1.5663674E-2,-1.862027E-3,1.1705126E-2,-1.1829107E-2,-5.738594E-3,1.2134502E-2,3.0636868E-2,6.7982147E-3,3.266084E-2,1.3248734E-2,1.3092837E-2,-1.1921347E-2,-1.0067756E-2,8.700783E-3,1.7322734E-2,-1.1884254E-2],"categories":[],"categories_nodes":[],"categories_segments":[],"categories_sizes":[],"default_left":[0,0,0,0,0,0,0,0,0,0,0,0,0,0,0,0,0,0,0,0,0,0,0,0,0,0,0,0,0,0,0,0,0,0,0,0,0,0,0,0,0,0,0,0,0,0,0,0,0,0,0,0,0,0,0,0,0,0,0,0,0,0,0],"id":10,"left_children":[1,3,5,7,9,11,13,15,17,19,21,23,25,27,29,31,33,35,37,39,41,43,45,47,49,51,53,55,57,59,61,-1,-1,-1,-1,-1,-1,-1,-1,-1,-1,-1,-1,-1,-1,-1,-1,-1,-1,-1,-1,-1,-1,-1,-1,-1,-1,-1,-1,-1,-1,-1,-1],"loss_changes":[2.4719441E2,2.963411E1,1.3681543E2,3.078463E1,1.3382851E1,8.999881E1,7.050894E1,2.0792862E1,1.8090824E1,3.6605148E0,3.0115585E0,5.2094643E1,3.4880913E1,5.08768E1,1.2665292E1,1.50694275E1,2.4510904E1,1.2706718E1,3.307293E0,2.6027184E0,7.0096555E0,1.3005409E0,3.1778116E0,2.3867897E1,4.570159E1,2.8858772E1,1.4979553E1,3.9245697E1,2.2211082E1,1.0520465E1,9.0733595E0,0E0,0E0,0E0,0E0,0E0,0E0,0E0,0E0,0E0,0E0,0E0,0E0,0E0,0E0,0E0,0E0,0E0,0E0,0E0,0E0,0E0,0E0,0E0,0E0,0E0,0E0,0E0,0E0,0E0,0E0,0E0,0E0],"parents":[2147483647,0,0,1,1,2,2,3,3,4,4,5,5,6,6,7,7,8,8,9,9,10,10,11,11,12,12,13,13,14,14,15,15,16,16,17,17,18,18,19,19,20,20,21,21,22,22,23,23,24,24,25,25,26,26,27,27,28,28,29,29,30,30],"right_children":[2,4,6,8,10,12,14,16,18,20,22,24,26,28,30,32,34,36,38,40,42,44,46,48,50,52,54,56,58,60,62,-1,-1,-1,-1,-1,-1,-1,-1,-1,-1,-1,-1,-1,-1,-1,-1,-1,-1,-1,-1,-1,-1,-1,-1,-1,-1,-1,-1,-1,-1,-1,-1],"split_conditions":[5E0,1E0,1E0,1E0,1E0,1E0,1E0,1E0,9E0,1E0,1E0,1E0,1E0,1E0,1E0,1E0,1E0,1E0,1E0,1E0,1E0,1E0,1E0,1E0,1E0,1E0,1E0,1E0,1E0,1E0,1E0,-1.7378878E-2,-5.5353604E-3,6.2843785E-3,-2.160095E-2,4.497373E-3,-2.5648618E-2,-5.4788377E-2,-6.137827E-3,-5.353974E-2,-3.217735E-2,-3.501236E-2,3.1429704E-2,-2.2759505E-2,-1.2132224E-2,-1.5294822E-2,8.781678E-3,-1.5663674E-2,-1.862027E-3,1.1705126E-2,-1.1829107E-2,-5.738594E-3,1.2134502E-2,3.0636868E-2,6.7982147E-3,3.266084E-2,1.3248734E-2,1.3092837E-2,-1.1921347E-2,-1.0067756E-2,8.700783E-3,1.7322734E-2,-1.1884254E-2],"split_indices":[2,82,26,26,4,22,20,18,3,73,11,30,80,21,18,22,12,6,44,44,42,50,14,31,24,4,16,82,28,80,43,0,0,0,0,0,0,0,0,0,0,0,0,0,0,0,0,0,0,0,0,0,0,0,0,0,0,0,0,0,0,0,0],"split_type":[0,0,0,0,0,0,0,0,0,0,0,0,0,0,0,0,0,0,0,0,0,0,0,0,0,0,0,0,0,0,0,0,0,0,0,0,0,0,0,0,0,0,0,0,0,0,0,0,0,0,0,0,0,0,0,0,0,0,0,0,0,0,0],"sum_hessian":[3.6019E4,1.2157E4,2.3862E4,1.0295E4,1.862E3,1.49E4,8.962E3,8.001E3,2.294E3,3.88E2,1.474E3,9.611E3,5.289E3,6.781E3,2.181E3,6.482E3,1.519E3,2.21E3,8.4E1,2.69E2,1.19E2,1.101E3,3.73E2,5.946E3,3.665E3,3.932E3,1.357E3,4.756E3,2.025E3,1.515E3,6.66E2,5.121E3,1.361E3,1.074E3,4.45E2,2.061E3,1.49E2,6.6E1,1.8E1,1.75E2,9.4E1,1.01E2,1.8E1,9.66E2,1.35E2,3.07E2,6.6E1,4.151E3,1.795E3,2.412E3,1.253E3,1.405E3,2.527E3,9.98E2,3.59E2,3.212E3,1.544E3,1.567E3,4.58E2,1.107E3,4.08E2,5.34E2,1.32E2],"tree_param":{"num_deleted":"0","num_feature":"85","num_nodes":"63","size_leaf_vector":"1"}},{"base_weights":[5.0380557E-5,-6.9811255E-2,8.096681E-2,-1.00854136E-1,2.4551379E-2,3.9856452E-2,2.1537246E-1,-1.315531E-1,6.183128E-3,4.534514E-2,-2.2893664E-1,-5.1769704E-2,1.0327627E-1,2.5498152E-1,-5.7693496E-2,-2.4500419E-1,-1.03065915E-1,8.387994E-2,-1.8714656E-1,9.028332E-2,-7.194897E-2,-1.7994456E-1,-5.800396E-1,-1.0208436E-1,1.3871841E-1,3.777878E-2,2.0720695E-1,1.9215749E-1,4.7081685E-1,-1.06907986E-1,4.2607668E-1,-2.021208E-2,-3.931787E-2,-1.3293566E-2,-6.1532766E-5,1.9268172E-2,-1.1015481E-2,-2.3509376E-2,-9.83754E-4,1.2090642E-2,-7.06643E-3,-1.0915539E-2,9.963105E-3,-2.4983702E-2,5.170196E-3,-6.838135E-2,-1.5882721E-2,-1.49425E-2,2.4485977E-3,2.2242643E-2,-9.825644E-3,-6.273783E-4,2.2035208E-2,2.6185993E-2,-1.517397E-3,1.4561065E-2,3.625725E-2,3.373739E-2,6.079566E-2,2.1751855E-2,-1.6708484E-2,1.1787652E-3,1.0698714E-1],"categories":[],"categories_nodes":[],"categories_segments":[],"categories_sizes":[],"default_left":[0,0,0,0,0,0,0,0,0,0,0,0,0,0,0,0,0,0,0,0,0,0,0,0,0,0,0,0,0,0,0,0,0,0,0,0,0,0,0,0,0,0,0,0,0,0,0,0,0,0,0,0,0,0,0,0,0,0,0,0,0,0,0],"id":11,"left_children":[1,3,5,7,9,11,13,15,17,19,21,23,25,27,29,31,33,35,37,39,41,43,45,47,49,51,53,55,57,59,61,-1,-1,-1,-1,-1,-1,-1,-1,-1,-1,-1,-1,-1,-1,-1,-1,-1,-1,-1,-1,-1,-1,-1,-1,-1,-1,-1,-1,-1,-1,-1,-1],"loss_changes":[2.0362506E2,5.6628548E1,9.221141E1,4.7797974E1,2.523724E1,7.428044E1,4.2294006E1,3.6508163E1,4.872913E1,2.3325327E1,6.1396866E0,5.013069E1,5.1413765E1,4.620215E1,1.18545685E1,1.4331909E1,2.7654694E1,4.8872833E1,7.9040604E0,1.5775507E1,7.837511E0,5.1938276E0,1.8146677E0,2.4792236E1,2.1703365E1,3.727986E1,3.549302E1,2.0936012E1,1.3867844E1,8.841201E0,1.2256377E1,0E0,0E0,0E0,0E0,0E0,0E0,0E0,0E0,0E0,0E0,0E0,0E0,0E0,0E0,0E0,0E0,0E0,0E0,0E0,0E0,0E0,0E0,0E0,0E0,0E0,0E0,0E0,0E0,0E0,0E0,0E0,0E0],"parents":[2147483647,0,0,1,1,2,2,3,3,4,4,5,5,6,6,7,7,8,8,9,9,10,10,11,11,12,12,13,13,14,14,15,15,16,16,17,17,18,18,19,19,20,20,21,21,22,22,23,23,24,24,25,25,26,26,27,27,28,28,29,29,30,30],"right_children":[2,4,6,8,10,12,14,16,18,20,22,24,26,28,30,32,34,36,38,40,42,44,46,48,50,52,54,56,58,60,62,-1,-1,-1,-1,-1,-1,-1,-1,-1,-1,-1,-1,-1,-1,-1,-1,-1,-1,-1,-1,-1,-1,-1,-1,-1,-1,-1,-1,-1,-1,-1,-1],"split_conditions":[6E0,1E0,1E0,1E0,8E0,1E0,6.2367706E1,1E0,1E0,1E0,1E0,9E0,1E0,8E0,1E0,1E0,1E0,1E0,1E0,1E0,1E0,1E0,1E0,1E0,5E0,1E0,1E0,1E0,1E0,7E0,1E0,-2.021208E-2,-3.931787E-2,-1.3293566E-2,-6.1532766E-5,1.9268172E-2,-1.1015481E-2,-2.3509376E-2,-9.83754E-4,1.2090642E-2,-7.06643E-3,-1.0915539E-2,9.963105E-3,-2.4983702E-2,5.170196E-3,-6.838135E-2,-1.5882721E-2,-1.49425E-2,2.4485977E-3,2.2242643E-2,-9.825644E-3,-6.273783E-4,2.2035208E-2,2.6185993E-2,-1.517397E-3,1.4561065E-2,3.625725E-2,3.373739E-2,6.079566E-2,2.1751855E-2,-1.6708484E-2,1.1787652E-3,1.0698714E-1],"split_indices":[2,26,80,34,3,4,84,4,28,20,6,2,26,2,19,82,22,29,22,82,30,68,72,81,0,11,29,44,74,0,52,0,0,0,0,0,0,0,0,0,0,0,0,0,0,0,0,0,0,0,0,0,0,0,0,0,0,0,0,0,0,0,0],"split_type":[0,0,0,0,0,0,0,0,0,0,0,0,0,0,0,0,0,0,0,0,0,0,0,0,0,0,0,0,0,0,0,0,0,0,0,0,0,0,0,0,0,0,0,0,0,0,0,0,0,0,0,0,0,0,0,0,0,0,0,0,0,0,0],"sum_hessian":[3.6019E4,1.933E4,1.6689E4,1.4545E4,4.785E3,1.2781E4,3.908E3,1.1303E4,3.242E3,4.423E3,3.62E2,5.228E3,7.553E3,3.413E3,4.95E2,2.267E3,9.036E3,2.313E3,9.29E2,3.198E3,1.225E3,3.19E2,4.3E1,4.136E3,1.092E3,4.634E3,2.919E3,2.645E3,7.68E2,4.5E2,4.5E1,1.76E3,5.07E2,6.996E3,2.04E3,1.482E3,8.31E2,7.31E2,1.98E2,2.687E3,5.11E2,1.007E3,2.18E2,2.45E2,7.4E1,3.4E1,9E0,3.01E3,1.126E3,8.07E2,2.85E2,3.734E3,9E2,2.343E3,5.76E2,2.079E3,5.66E2,3.91E2,3.77E2,7E1,3.8E2,2.8E1,1.7E1],"tree_param":{"num_deleted":"0","num_feature":"85","num_nodes":"63","size_leaf_vector":"1"}},{"base_weights":[4.854751E-5,-9.659619E-2,4.9288236E-2,-1.7860407E-1,-7.474754E-2,1.9247509E-3,1.435402E-1,-2.316817E-1,-6.6089466E-2,-9.396413E-2,2.0134544E-2,-4.9867712E-2,8.129771E-2,1.9422024E-1,-1.0884519E-2,-2.7475E-1,-1.338788E-1,-5.431162E-3,-2.3074809E-1,-1.1647319E-1,-2.64325E-3,8.779039E-2,-1.2872137E-1,-1.00303315E-1,3.1962734E-2,2.3484465E-2,1.989836E-1,8.400445E-2,2.5895894E-1,1.48788225E-2,-3.8235515E-1,-3.0906156E-2,-1.8545767E-2,-2.0033319E-2,7.1579157E-3,6.166973E-3,-1.6651845E-2,-3.3411797E-2,-3.695306E-3,-1.3561941E-2,-1.9454546E-3,-5.335079E-3,1.2323788E-2,1.6277982E-2,-1.4393936E-3,-1.6740376E-2,5.1937285E-3,-1.3183579E-2,1.8288573E-3,-3.5572343E-3,1.8953599E-2,6.468193E-3,-1.1461738E-2,1.3444065E-2,3.403314E-2,1.573411E-2,-1.5797043E-2,1.766529E-2,4.322783E-2,6.60694E-3,-1.2574375E-2,-4.3932535E-2,2.6353875E-2],"categories":[],"categories_nodes":[],"categories_segments":[],"categories_sizes":[],"default_left":[0,0,0,0,0,0,0,0,0,0,0,0,0,0,0,0,0,0,0,0,0,0,0,0,0,0,0,0,0,0,0,0,0,0,0,0,0,0,0,0,0,0,0,0,0,0,0,0,0,0,0,0,0,0,0,0,0,0,0,0,0,0,0],"id":12,"left_children":[1,3,5,7,9,11,13,15,17,19,21,23,25,27,29,31,33,35,37,39,41,43,45,47,49,51,53,55,57,59,61,-1,-1,-1,-1,-1,-1,-1,-1,-1,-1,-1,-1,-1,-1,-1,-1,-1,-1,-1,-1,-1,-1,-1,-1,-1,-1,-1,-1,-1,-1,-1,-1],"loss_changes":[1.7141516E2,2.177089E1,1.0652657E2,1.5255112E1,1.7509312E1,6.529782E1,6.246344E1,7.2798157E0,8.198823E0,1.6413246E1,1.6306135E1,3.9673546E1,4.2668777E1,4.2853836E1,1.888794E1,3.6345139E0,7.2916985E0,6.5065384E0,4.414853E0,1.1896759E1,1.0091908E1,8.530978E0,3.5447779E0,2.2241184E1,3.9019295E1,2.3942911E1,1.8802368E1,3.9508865E1,5.3917526E1,1.3296832E1,4.825754E0,0E0,0E0,0E0,0E0,0E0,0E0,0E0,0E0,0E0,0E0,0E0,0E0,0E0,0E0,0E0,0E0,0E0,0E0,0E0,0E0,0E0,0E0,0E0,0E0,0E0,0E0,0E0,0E0,0E0,0E0,0E0,0E0],"parents":[2147483647,0,0,1,1,2,2,3,3,4,4,5,5,6,6,7,7,8,8,9,9,10,10,11,11,12,12,13,13,14,14,15,15,16,16,17,17,18,18,19,19,20,20,21,21,22,22,23,23,24,24,25,25,26,26,27,27,28,28,29,29,30,30],"right_children":[2,4,6,8,10,12,14,16,18,20,22,24,26,28,30,32,34,36,38,40,42,44,46,48,50,52,54,56,58,60,62,-1,-1,-1,-1,-1,-1,-1,-1,-1,-1,-1,-1,-1,-1,-1,-1,-1,-1,-1,-1,-1,-1,-1,-1,-1,-1,-1,-1,-1,-1,-1,-1],"split_conditions":[5E0,1E0,1E0,1E0,1E0,1E0,1E0,1E0,1E0,1E0,1E0,1E0,1E0,1E0,6.582611E1,1E0,1E0,1E0,1E0,1E0,1E0,6E0,1E0,1E0,1E0,1E0,1E0,1E0,1E0,1E0,1E0,-3.0906156E-2,-1.8545767E-2,-2.0033319E-2,7.1579157E-3,6.166973E-3,-1.6651845E-2,-3.3411797E-2,-3.695306E-3,-1.3561941E-2,-1.9454546E-3,-5.335079E-3,1.2323788E-2,1.6277982E-2,-1.4393936E-3,-1.6740376E-2,5.1937285E-3,-1.3183579E-2,1.8288573E-3,-3.5572343E-3,1.8953599E-2,6.468193E-3,-1.1461738E-2,1.3444065E-2,3.403314E-2,1.573411E-2,-1.5797043E-2,1.766529E-2,4.322783E-2,6.60694E-3,-1.2574375E-2,-4.3932535E-2,2.6353875E-2],"split_indices":[2,4,22,80,18,26,16,76,75,26,12,30,23,4,84,23,31,20,76,14,61,1,26,11,27,28,30,71,26,28,61,0,0,0,0,0,0,0,0,0,0,0,0,0,0,0,0,0,0,0,0,0,0,0,0,0,0,0,0,0,0,0,0],"split_type":[0,0,0,0,0,0,0,0,0,0,0,0,0,0,0,0,0,0,0,0,0,0,0,0,0,0,0,0,0,0,0,0,0,0,0,0,0,0,0,0,0,0,0,0,0,0,0,0,0,0,0,0,0,0,0,0,0,0,0,0,0,0,0],"sum_hessian":[3.6019E4,1.2157E4,2.3862E4,2.556E3,9.601E3,1.5882E4,7.98E3,1.736E3,8.2E2,7.984E3,1.617E3,9.611E3,6.271E3,6.008E3,1.972E3,1.204E3,5.32E2,6E2,2.2E2,6.405E3,1.579E3,1.112E3,5.05E2,5.946E3,3.665E3,4.206E3,2.065E3,2.224E3,3.784E3,1.845E3,1.27E2,8.68E2,3.36E2,4.02E2,1.3E2,4.24E2,1.76E2,1.43E2,7.7E1,5.349E3,1.056E3,1.126E3,4.53E2,6.41E2,4.71E2,4.16E2,8.9E1,4.697E3,1.249E3,2.566E3,1.099E3,3.24E3,9.66E2,1.419E3,6.46E2,1.707E3,5.17E2,2.567E3,1.217E3,1.353E3,4.92E2,1.17E2,1E1],"tree_param":{"num_deleted":"0","num_feature":"85","num_nodes":"63","size_leaf_vector":"1"}},{"base_weights":[4.2823423E-5,-3.9751764E-2,1.026949E-1,-6.888689E-2,5.40183E-2,1.4270304E-1,-3.6135595E-2,-9.910385E-2,2.6010292E-2,8.365322E-3,2.05378E-1,7.7425085E-2,2.4749644E-1,-1.026559E-2,-4.1477242E-1,-7.393542E-2,-1.870094E-1,1.0095205E-1,-1.7726544E-1,2.3055224E-2,-2.4629207E-1,3.7973706E-2,2.8659928E-1,1.4739116E-1,-1.41783655E-2,3.2810554E-1,2.3710383E-2,-5.666198E-2,1.737066E-1,-4.3545672E-1,1.2715404E-1,-1.1132002E-2,1.0138102E-3,-2.8383529E-2,-1.4946249E-2,1.980724E-2,-8.669775E-3,-3.0025138E-2,-1.3916706E-2,-6.7495235E-4,1.2968199E-2,-1.6768966E-2,-4.071151E-2,-1.600649E-2,1.0846871E-2,1.7493533E-2,5.698521E-2,9.875337E-3,3.2287907E-2,-8.004796E-3,1.5781367E-2,2.7480165E-2,5.0597906E-2,-1.1549296E-2,1.4890358E-2,-9.705517E-4,-2.0504363E-2,-2.4596348E-3,4.055228E-2,-5.269865E-2,-2.838482E-2],"categories":[],"categories_nodes":[],"categories_segments":[],"categories_sizes":[],"default_left":[0,0,0,0,0,0,0,0,0,0,0,0,0,0,0,0,0,0,0,0,0,0,0,0,0,0,0,0,0,0,0,0,0,0,0,0,0,0,0,0,0,0,0,0,0,0,0,0,0,0,0,0,0,0,0,0,0,0,0,0,0],"id":13,"left_children":[1,3,5,7,9,11,13,15,17,19,21,23,25,27,29,31,33,35,37,39,41,43,45,47,49,51,53,55,57,59,-1,-1,-1,-1,-1,-1,-1,-1,-1,-1,-1,-1,-1,-1,-1,-1,-1,-1,-1,-1,-1,-1,-1,-1,-1,-1,-1,-1,-1,-1,-1],"loss_changes":[1.4714568E2,7.092105E1,5.5898567E1,5.6793503E1,4.2522552E1,5.3420364E1,2.2054842E1,3.3221527E1,7.289659E1,1.7696358E1,1.9378132E1,3.086207E1,5.4073715E1,1.8011518E1,5.5764446E0,3.6712E1,1.2111076E1,6.3730415E1,5.9979095E0,1.4212818E1,3.1931286E0,6.537024E0,3.0264275E1,2.3269608E1,2.3645021E1,2.0757843E1,1.387191E1,1.1738208E1,1.9547153E1,1.8347836E0,0E0,0E0,0E0,0E0,0E0,0E0,0E0,0E0,0E0,0E0,0E0,0E0,0E0,0E0,0E0,0E0,0E0,0E0,0E0,0E0,0E0,0E0,0E0,0E0,0E0,0E0,0E0,0E0,0E0,0E0,0E0],"parents":[2147483647,0,0,1,1,2,2,3,3,4,4,5,5,6,6,7,7,8,8,9,9,10,10,11,11,12,12,13,13,14,14,15,15,16,16,17,17,18,18,19,19,20,20,21,21,22,22,23,23,24,24,25,25,26,26,27,27,28,28,29,29],"right_children":[2,4,6,8,10,12,14,16,18,20,22,24,26,28,30,32,34,36,38,40,42,44,46,48,50,52,54,56,58,60,-1,-1,-1,-1,-1,-1,-1,-1,-1,-1,-1,-1,-1,-1,-1,-1,-1,-1,-1,-1,-1,-1,-1,-1,-1,-1,-1,-1,-1,-1,-1],"split_conditions":[7E0,1E0,1E0,1E0,1E0,1E0,6.677014E1,1E0,1E0,8E0,1E0,1E0,1E0,1E0,1E0,1E0,1E0,1E0,1E0,1E0,9E0,4E0,1E0,1E0,9E0,1E0,8E0,1E0,1E0,1E0,1.2715404E-1,-1.1132002E-2,1.0138102E-3,-2.8383529E-2,-1.4946249E-2,1.980724E-2,-8.669775E-3,-3.0025138E-2,-1.3916706E-2,-6.7495235E-4,1.2968199E-2,-1.6768966E-2,-4.071151E-2,-1.600649E-2,1.0846871E-2,1.7493533E-2,5.698521E-2,9.875337E-3,3.2287907E-2,-8.004796E-3,1.5781367E-2,2.7480165E-2,5.0597906E-2,-1.1549296E-2,1.4890358E-2,-9.705517E-4,-2.0504363E-2,-2.4596348E-3,4.055228E-2,-5.269865E-2,-2.838482E-2],"split_indices":[2,22,28,34,26,34,84,82,28,3,4,82,29,57,19,26,4,29,4,34,3,0,61,69,2,40,2,6,22,20,0,0,0,0,0,0,0,0,0,0,0,0,0,0,0,0,0,0,0,0,0,0,0,0,0,0,0,0,0,0,0],"split_type":[0,0,0,0,0,0,0,0,0,0,0,0,0,0,0,0,0,0,0,0,0,0,0,0,0,0,0,0,0,0,0,0,0,0,0,0,0,0,0,0,0,0,0,0,0,0,0,0,0,0,0,0,0,0,0,0,0,0,0,0,0],"sum_hessian":[3.6019E4,2.5957E4,1.0062E4,1.9804E4,6.153E3,7.811E3,2.251E3,1.5021E4,4.783E3,4.728E3,1.425E3,4.814E3,2.997E3,2.108E3,1.43E2,1.1679E4,3.342E3,3.495E3,1.288E3,4.471E3,2.57E2,4.66E2,9.59E2,2.729E3,2.085E3,2.203E3,7.94E2,1.684E3,4.24E2,1.42E2,1E0,8.084E3,3.595E3,9.32E2,2.41E3,2.303E3,1.192E3,3.03E2,9.85E2,3.495E3,9.76E2,1.74E2,8.3E1,1.22E2,3.44E2,6.89E2,2.7E2,2.138E3,5.91E2,1.508E3,5.77E2,1.697E3,5.06E2,3.76E2,4.18E2,1.28E3,4.04E2,2.29E2,1.95E2,8.7E1,5.5E1],"tree_param":{"num_deleted":"0","num_feature":"85","num_nodes":"61","size_leaf_vector":"1"}},{"base_weights":[4.220212E-5,-3.6913965E-2,9.214062E-2,-7.2224885E-2,4.9411826E-2,1.5026684E-1,-9.806535E-2,-1.0957843E-1,-2.7958452E-4,9.377224E-2,-7.8256615E-2,1.0209846E-1,2.8371006E-1,-1.4539334E-1,7.8094536E-3,-1.4163497E-1,-3.65289E-2,-3.8147755E-2,1.0319519E-1,1.5065828E-1,-2.6843093E-2,-1.3368544E-1,5.4072354E-2,4.0447388E-2,2.67584E-1,3.1444967E-1,-1.4047328E-2,-1.9916451E-1,5.7176026E-3,-8.779154E-2,3.508694E-1,-1.6463516E-2,-6.3196826E-3,-8.538648E-3,1.1361301E-2,-8.673694E-3,6.1226366E-3,1.5650852E-2,-6.062796E-3,8.746912E-3,2.965778E-2,-1.0661609E-2,5.824839E-3,-8.945002E-3,-2.8532593E-2,-6.0363687E-3,3.299026E-2,-1.7496821E-3,1.8928006E-2,1.8272772E-2,4.925903E-2,3.7336014E-2,1.48871485E-2,1.7072191E-2,-3.443522E-2,-2.4412027E-2,-9.266339E-3,-9.2390245E-3,2.5568826E-2,-3.4179904E-2,-2.2193491E-3,2.0187039E-2,7.254567E-2],"categories":[],"categories_nodes":[],"categories_segments":[],"categories_sizes":[],"default_left":[0,0,0,0,0,0,0,0,0,0,0,0,0,0,0,0,0,0,0,0,0,0,0,0,0,0,0,0,0,0,0,0,0,0,0,0,0,0,0,0,0,0,0,0,0,0,0,0,0,0,0,0,0,0,0,0,0,0,0,0,0,0,0],"id":14,"left_children":[1,3,5,7,9,11,13,15,17,19,21,23,25,27,29,31,33,35,37,39,41,43,45,47,49,51,53,55,57,59,61,-1,-1,-1,-1,-1,-1,-1,-1,-1,-1,-1,-1,-1,-1,-1,-1,-1,-1,-1,-1,-1,-1,-1,-1,-1,-1,-1,-1,-1,-1,-1,-1],"loss_changes":[1.2260124E2,7.836172E1,1.140569E2,4.902912E1,4.2273476E1,5.0756638E1,1.2102318E1,2.8116486E1,2.443908E1,3.800894E1,1.4126796E1,5.923428E1,1.9179855E1,1.356245E1,2.4530067E1,1.5046539E1,2.6887226E1,2.2052273E1,1.4603935E1,3.4680138E1,1.2061701E1,9.077072E0,1.7980354E1,3.6500042E1,3.0000862E1,1.8467789E1,1.2081733E1,5.871212E0,1.0789696E1,9.739915E0,8.95109E0,0E0,0E0,0E0,0E0,0E0,0E0,0E0,0E0,0E0,0E0,0E0,0E0,0E0,0E0,0E0,0E0,0E0,0E0,0E0,0E0,0E0,0E0,0E0,0E0,0E0,0E0,0E0,0E0,0E0,0E0,0E0,0E0],"parents":[2147483647,0,0,1,1,2,2,3,3,4,4,5,5,6,6,7,7,8,8,9,9,10,10,11,11,12,12,13,13,14,14,15,15,16,16,17,17,18,18,19,19,20,20,21,21,22,22,23,23,24,24,25,25,26,26,27,27,28,28,29,29,30,30],"right_children":[2,4,6,8,10,12,14,16,18,20,22,24,26,28,30,32,34,36,38,40,42,44,46,48,50,52,54,56,58,60,62,-1,-1,-1,-1,-1,-1,-1,-1,-1,-1,-1,-1,-1,-1,-1,-1,-1,-1,-1,-1,-1,-1,-1,-1,-1,-1,-1,-1,-1,-1,-1,-1],"split_conditions":[1E0,1E0,1E0,1E0,1E0,1E0,1E0,1E0,1E0,1E0,1E0,1E0,7E0,1E0,1E0,1E0,1E0,1E0,1E0,1E0,5.280676E1,1E0,1E0,1E0,1E0,1E0,1E0,1E0,1E0,5.4092808E1,1E0,-1.6463516E-2,-6.3196826E-3,-8.538648E-3,1.1361301E-2,-8.673694E-3,6.1226366E-3,1.5650852E-2,-6.062796E-3,8.746912E-3,2.965778E-2,-1.0661609E-2,5.824839E-3,-8.945002E-3,-2.8532593E-2,-6.0363687E-3,3.299026E-2,-1.7496821E-3,1.8928006E-2,1.8272772E-2,4.925903E-2,3.7336014E-2,1.48871485E-2,1.7072191E-2,-3.443522E-2,-2.4412027E-2,-9.266339E-3,-9.2390245E-3,2.5568826E-2,-3.4179904E-2,-2.2193491E-3,2.0187039E-2,7.254567E-2],"split_indices":[30,22,24,26,16,22,18,18,18,17,31,44,3,44,15,11,15,31,56,26,84,25,34,18,34,56,47,19,34,84,33,0,0,0,0,0,0,0,0,0,0,0,0,0,0,0,0,0,0,0,0,0,0,0,0,0,0,0,0,0,0,0,0],"split_type":[0,0,0,0,0,0,0,0,0,0,0,0,0,0,0,0,0,0,0,0,0,0,0,0,0,0,0,0,0,0,0,0,0,0,0,0,0,0,0,0,0,0,0,0,0,0,0,0,0,0,0,0,0,0,0,0,0,0,0,0,0,0,0],"sum_hessian":[3.6019E4,2.5705E4,1.0314E4,1.8243E4,7.462E3,7.9E3,2.414E3,1.2008E4,6.235E3,5.538E3,1.924E3,5.806E3,2.094E3,1.668E3,7.46E2,8.345E3,3.663E3,4.565E3,1.67E3,3.763E3,1.775E3,1.356E3,5.68E2,4.231E3,1.575E3,1.898E3,1.96E2,1.23E3,4.38E2,5.84E2,1.62E2,6.452E3,1.893E3,2.764E3,8.99E2,3.066E3,1.499E3,1.26E3,4.1E2,2.627E3,1.136E3,9.16E2,8.59E2,1.051E3,3.05E2,4.02E2,1.66E2,3.046E3,1.185E3,1.145E3,4.3E2,1.399E3,4.99E2,1.26E2,7E1,8.64E2,3.66E2,3.15E2,1.23E2,1.19E2,4.65E2,1.17E2,4.5E1],"tree_param":{"num_deleted":"0","num_feature":"85","num_nodes":"63","size_leaf_vector":"1"}},{"base_weights":[4.2665233E-5,-7.5824246E-2,3.8696226E-2,-1.6821943E-1,-5.870497E-2,2.8336567E-3,1.4627744E-1,-1.2759921E-1,-2.5753316E-1,-4.2610493E-2,-1.4917643E-1,-7.616293E-2,4.9948115E-2,1.9112624E-1,1.0207964E-2,-1.216768E-1,-6.6630733E-1,-3.470543E-1,-1.7955244E-1,-8.201384E-2,1.5201203E-3,-2.773894E-1,-1.2369599E-1,-1.09730266E-1,9.573592E-2,5.482864E-3,1.3201559E-1,1.14634916E-1,3.4568E-1,-3.0936882E-1,2.2294115E-2,-9.8342355E-3,-2.6660925E-2,-7.47936E-2,-2.752516E-2,-2.8780779E-2,-4.545264E-2,-1.2738541E-2,-3.150433E-2,-1.1452622E-2,-1.742083E-3,2.9486816E-3,-9.826052E-3,-3.212316E-2,8.620807E-4,-1.48732355E-2,-4.408355E-3,-1.5100444E-2,1.8160985E-3,1.641879E-2,-1.5624891E-2,-2.5899527E-3,1.2398231E-2,1.7492352E-2,-2.1858092E-3,1.3799642E-2,-2.243365E-2,4.3627344E-2,1.1944827E-2,-3.7522934E-2,1.8644176E-2,-1.3305357E-3,1.3747729E-2],"categories":[],"categories_nodes":[],"categories_segments":[],"categories_sizes":[],"default_left":[0,0,0,0,0,0,0,0,0,0,0,0,0,0,0,0,0,0,0,0,0,0,0,0,0,0,0,0,0,0,0,0,0,0,0,0,0,0,0,0,0,0,0,0,0,0,0,0,0,0,0,0,0,0,0,0,0,0,0,0,0,0,0],"id":15,"left_children":[1,3,5,7,9,11,13,15,17,19,21,23,25,27,29,31,33,35,37,39,41,43,45,47,49,51,53,55,57,59,61,-1,-1,-1,-1,-1,-1,-1,-1,-1,-1,-1,-1,-1,-1,-1,-1,-1,-1,-1,-1,-1,-1,-1,-1,-1,-1,-1,-1,-1,-1,-1,-1],"loss_changes":[1.0563253E2,1.9220901E1,9.206635E1,6.8602295E0,1.4931683E1,6.6618034E1,3.6405884E1,4.0920296E0,4.0773735E0,1.5147628E1,5.0261536E0,3.8595753E1,4.0913567E1,5.3005768E1,5.723328E0,4.353365E0,2.4102831E-1,1.6202049E0,2.2146091E0,9.66254E0,1.1471993E1,3.2128334E0,2.572651E0,2.9536537E1,1.8878662E1,2.7050013E1,2.6017273E1,2.381136E1,3.0383133E1,1.833293E0,5.853186E0,0E0,0E0,0E0,0E0,0E0,0E0,0E0,0E0,0E0,0E0,0E0,0E0,0E0,0E0,0E0,0E0,0E0,0E0,0E0,0E0,0E0,0E0,0E0,0E0,0E0,0E0,0E0,0E0,0E0,0E0,0E0,0E0],"parents":[2147483647,0,0,1,1,2,2,3,3,4,4,5,5,6,6,7,7,8,8,9,9,10,10,11,11,12,12,13,13,14,14,15,15,16,16,17,17,18,18,19,19,20,20,21,21,22,22,23,23,24,24,25,25,26,26,27,27,28,28,29,29,30,30],"right_children":[2,4,6,8,10,12,14,16,18,20,22,24,26,28,30,32,34,36,38,40,42,44,46,48,50,52,54,56,58,60,62,-1,-1,-1,-1,-1,-1,-1,-1,-1,-1,-1,-1,-1,-1,-1,-1,-1,-1,-1,-1,-1,-1,-1,-1,-1,-1,-1,-1,-1,-1,-1,-1],"split_conditions":[5E0,5E0,1E0,1E0,1E0,1E0,1E0,1.1E1,1E0,4E0,1E0,9E0,1E0,1E0,1E0,4.779564E1,1E0,1E0,1E0,1E0,1E0,1E0,1E0,1E0,1E0,1E0,1E0,6.2614677E1,1E0,1E0,1E0,-9.8342355E-3,-2.6660925E-2,-7.47936E-2,-2.752516E-2,-2.8780779E-2,-4.545264E-2,-1.2738541E-2,-3.150433E-2,-1.1452622E-2,-1.742083E-3,2.9486816E-3,-9.826052E-3,-3.212316E-2,8.620807E-4,-1.48732355E-2,-4.408355E-3,-1.5100444E-2,1.8160985E-3,1.641879E-2,-1.5624891E-2,-2.5899527E-3,1.2398231E-2,1.7492352E-2,-2.1858092E-3,1.3799642E-2,-2.243365E-2,4.3627344E-2,1.1944827E-2,-3.7522934E-2,1.8644176E-2,-1.3305357E-3,1.3747729E-2],"split_indices":[2,0,80,47,82,4,28,3,4,2,4,2,26,34,3,84,77,11,43,68,70,42,11,57,56,11,17,84,29,17,44,0,0,0,0,0,0,0,0,0,0,0,0,0,0,0,0,0,0,0,0,0,0,0,0,0,0,0,0,0,0,0,0],"split_type":[0,0,0,0,0,0,0,0,0,0,0,0,0,0,0,0,0,0,0,0,0,0,0,0,0,0,0,0,0,0,0,0,0,0,0,0,0,0,0,0,0,0,0,0,0,0,0,0,0,0,0,0,0,0,0,0,0,0,0,0,0,0,0],"sum_hessian":[3.6019E4,1.2157E4,2.3862E4,1.899E3,1.0258E4,1.7897E4,5.965E3,1.307E3,5.92E2,8.71E3,1.548E3,6.686E3,1.1211E4,4.486E3,1.479E3,1.294E3,1.3E1,2.74E2,3.18E2,4.601E3,4.109E3,2.55E2,1.293E3,5.594E3,1.092E3,7.272E3,3.939E3,3.002E3,1.484E3,5.3E1,1.426E3,1.116E3,1.78E2,1E1,3E0,1.79E2,9.5E1,2.31E2,8.7E1,3.06E3,1.541E3,3.21E3,8.99E2,2.21E2,3.4E1,9.83E2,3.1E2,4.229E3,1.365E3,8.59E2,2.33E2,5.75E3,1.522E3,3.08E3,8.59E2,2.809E3,1.93E2,1.059E3,4.25E2,4.7E1,6E0,1.09E3,3.36E2],"tree_param":{"num_deleted":"0","num_feature":"85","num_nodes":"63","size_leaf_vector":"1"}},{"base_weights":[3.0769064E-5,-2.1123571E-2,1.2530234E-1,5.769505E-3,-1.05579376E-1,1.525184E-1,-1.9499362E-1,-5.3423386E-2,5.23631E-2,-1.3736843E-1,-2.3604263E-2,1.1495628E-1,3.117547E-1,2.3302099E-1,-2.6516414E-1,-7.885696E-2,4.4582146E-3,1.9078618E-2,1.5398471E-1,-2.0287718E-1,-1.08253665E-1,-5.987994E-2,8.107074E-2,1.6679251E-1,-1.9215692E-2,2.502822E-1,5.9594315E-1,6.9441624E-2,7.939156E-1,-3.4116432E-1,-9.329983E-2,-1.6189432E-2,-5.7054344E-3,-3.305557E-3,1.625935E-2,5.9660464E-3,-7.277436E-3,9.093169E-3,2.8574128E-2,-1.6552543E-2,-3.2933217E-2,-8.225922E-3,-1.9604119E-2,-1.6156204E-2,-1.1835983E-3,4.411481E-4,2.5959754E-2,1.13809975E-2,3.7580695E-2,-7.59384E-3,1.8917637E-2,3.1717833E-2,-6.4452174E-3,4.400528E-2,1.5189305E-1,-7.269843E-2,2.0708011E-2,1.3134788E-1,1.6093604E-2,-3.6522415E-2,4.8893243E-3,8.531929E-3,-3.0577678E-2],"categories":[],"categories_nodes":[],"categories_segments":[],"categories_sizes":[],"default_left":[0,0,0,0,0,0,0,0,0,0,0,0,0,0,0,0,0,0,0,0,0,0,0,0,0,0,0,0,0,0,0,0,0,0,0,0,0,0,0,0,0,0,0,0,0,0,0,0,0,0,0,0,0,0,0,0,0,0,0,0,0,0,0],"id":16,"left_children":[1,3,5,7,9,11,13,15,17,19,21,23,25,27,29,31,33,35,37,39,41,43,45,47,49,51,53,55,57,59,61,-1,-1,-1,-1,-1,-1,-1,-1,-1,-1,-1,-1,-1,-1,-1,-1,-1,-1,-1,-1,-1,-1,-1,-1,-1,-1,-1,-1,-1,-1,-1,-1],"loss_changes":[9.545701E1,6.999454E1,4.539402E1,6.447127E1,1.9392548E1,2.8656242E1,1.2315664E1,1.5157463E1,4.4239155E1,1.0206734E1,7.9067383E0,2.700935E1,1.5835693E1,5.2664146E0,4.5528316E0,1.2940777E1,1.865638E1,3.673575E1,2.6782799E1,7.7342377E0,8.46146E0,7.5506234E0,7.334408E0,3.097583E1,1.2816033E1,1.5895546E1,2.2640942E1,5.1930113E0,4.063961E0,2.2983437E0,4.1629047E0,0E0,0E0,0E0,0E0,0E0,0E0,0E0,0E0,0E0,0E0,0E0,0E0,0E0,0E0,0E0,0E0,0E0,0E0,0E0,0E0,0E0,0E0,0E0,0E0,0E0,0E0,0E0,0E0,0E0,0E0,0E0,0E0],"parents":[2147483647,0,0,1,1,2,2,3,3,4,4,5,5,6,6,7,7,8,8,9,9,10,10,11,11,12,12,13,13,14,14,15,15,16,16,17,17,18,18,19,19,20,20,21,21,22,22,23,23,24,24,25,25,26,26,27,27,28,28,29,29,30,30],"right_children":[2,4,6,8,10,12,14,16,18,20,22,24,26,28,30,32,34,36,38,40,42,44,46,48,50,52,54,56,58,60,62,-1,-1,-1,-1,-1,-1,-1,-1,-1,-1,-1,-1,-1,-1,-1,-1,-1,-1,-1,-1,-1,-1,-1,-1,-1,-1,-1,-1,-1,-1,-1,-1],"split_conditions":[8E0,1E0,6.509712E1,5E0,1E0,1E0,6E0,1E0,1E0,1E0,1E0,1E0,1E0,1E0,1E0,1E0,1E0,1E0,1E0,1E0,1E0,1E0,7E0,1E0,1E0,6.2367706E1,6.12211E1,1E0,1E0,1E0,1E0,-1.6189432E-2,-5.7054344E-3,-3.305557E-3,1.625935E-2,5.9660464E-3,-7.277436E-3,9.093169E-3,2.8574128E-2,-1.6552543E-2,-3.2933217E-2,-8.225922E-3,-1.9604119E-2,-1.6156204E-2,-1.1835983E-3,4.411481E-4,2.5959754E-2,1.13809975E-2,3.7580695E-2,-7.59384E-3,1.8917637E-2,3.1717833E-2,-6.4452174E-3,4.400528E-2,1.5189305E-1,-7.269843E-2,2.0708011E-2,1.3134788E-1,1.6093604E-2,-3.6522415E-2,4.8893243E-3,8.531929E-3,-3.0577678E-2],"split_indices":[2,82,84,2,44,80,0,44,44,4,18,6,69,36,80,4,30,70,34,43,10,4,2,8,15,84,84,1,6,11,70,0,0,0,0,0,0,0,0,0,0,0,0,0,0,0,0,0,0,0,0,0,0,0,0,0,0,0,0,0,0,0,0],"split_type":[0,0,0,0,0,0,0,0,0,0,0,0,0,0,0,0,0,0,0,0,0,0,0,0,0,0,0,0,0,0,0,0,0,0,0,0,0,0,0,0,0,0,0,0,0,0,0,0,0,0,0,0,0,0,0,0,0,0,0,0,0,0,0],"sum_hessian":[3.6019E4,3.0816E4,5.203E3,2.3374E4,7.442E3,4.796E3,4.07E2,1.0295E4,1.3079E4,5.362E3,2.08E3,3.882E3,9.14E2,5.7E1,3.5E2,7.152E3,3.143E3,9.853E3,3.226E3,1.648E3,3.714E3,1.545E3,5.35E2,2.8E3,1.082E3,7.53E2,1.61E2,4.5E1,1.2E1,2.42E2,1.08E2,1.486E3,5.666E3,2.541E3,6.02E2,6.834E3,3.019E3,2.183E3,1.043E3,1.274E3,3.74E2,2.867E3,8.47E2,4.95E2,1.05E3,3.75E2,1.6E2,2.235E3,5.65E2,8.51E2,2.31E2,6.21E2,1.32E2,1.39E2,2.2E1,6E0,3.9E1,6E0,6E0,2.28E2,1.4E1,5.9E1,4.9E1],"tree_param":{"num_deleted":"0","num_feature":"85","num_nodes":"63","size_leaf_vector":"1"}},{"base_weights":[3.5531586E-5,-3.138283E-2,7.975541E-2,-6.254009E-2,4.4979118E-2,1.2033937E-1,-3.495243E-2,-9.6131355E-2,2.4660302E-3,8.9470245E-2,-8.089735E-2,1.6851978E-1,1.687545E-2,-2.0344237E-2,-3.216362E-1,-1.2307443E-1,-3.228732E-2,-4.576466E-2,9.746054E-2,1.3315302E-1,-4.272333E-2,-1.4052267E-1,5.1845793E-2,1.1964945E-1,2.8621617E-1,-1.891972E-1,5.373474E-2,-5.7819642E-2,7.929508E-2,-3.7086648E-1,2.4018547E-1,-1.552804E-2,-5.4706777E-3,2.352073E-3,-1.9727888E-2,-1.2025818E-3,-1.46969585E-2,1.4192024E-2,-4.790577E-3,8.0183195E-3,2.6218433E-2,-1.4085438E-3,-2.8186107E-2,-1.7790243E-2,-5.034432E-3,-2.257419E-3,3.0025084E-2,1.4733831E-2,-4.5386907E-3,9.739022E-3,4.0253058E-2,-2.6592169E-2,1.3574846E-2,5.1576574E-4,1.8666362E-2,-1.6620573E-2,-9.979483E-4,1.5946738E-2,-1.9770488E-2,-4.027926E-2,1.974936E-2,-9.703711E-3,6.6426E-2],"categories":[],"categories_nodes":[],"categories_segments":[],"categories_sizes":[],"default_left":[0,0,0,0,0,0,0,0,0,0,0,0,0,0,0,0,0,0,0,0,0,0,0,0,0,0,0,0,0,0,0,0,0,0,0,0,0,0,0,0,0,0,0,0,0,0,0,0,0,0,0,0,0,0,0,0,0,0,0,0,0,0,0],"id":17,"left_children":[1,3,5,7,9,11,13,15,17,19,21,23,25,27,29,31,33,35,37,39,41,43,45,47,49,51,53,55,57,59,61,-1,-1,-1,-1,-1,-1,-1,-1,-1,-1,-1,-1,-1,-1,-1,-1,-1,-1,-1,-1,-1,-1,-1,-1,-1,-1,-1,-1,-1,-1,-1,-1],"loss_changes":[9.022064E1,6.1477333E1,4.7409103E1,4.0072166E1,4.1942924E1,3.7493828E1,1.1141731E1,2.0808167E1,2.8653519E1,3.1956455E1,1.5488737E1,2.948433E1,1.8171465E1,9.4666E0,3.6570387E0,1.8724823E1,3.307926E1,1.4161732E1,1.3617758E1,2.840477E1,9.4125805E0,4.541685E0,1.1227962E1,1.6585445E1,3.301538E1,9.086157E0,1.3100893E1,9.549494E0,1.542148E1,2.2388687E0,1.6375403E0,0E0,0E0,0E0,0E0,0E0,0E0,0E0,0E0,0E0,0E0,0E0,0E0,0E0,0E0,0E0,0E0,0E0,0E0,0E0,0E0,0E0,0E0,0E0,0E0,0E0,0E0,0E0,0E0,0E0,0E0,0E0,0E0],"parents":[2147483647,0,0,1,1,2,2,3,3,4,4,5,5,6,6,7,7,8,8,9,9,10,10,11,11,12,12,13,13,14,14,15,15,16,16,17,17,18,18,19,19,20,20,21,21,22,22,23,23,24,24,25,25,26,26,27,27,28,28,29,29,30,30],"right_children":[2,4,6,8,10,12,14,16,18,20,22,24,26,28,30,32,34,36,38,40,42,44,46,48,50,52,54,56,58,60,62,-1,-1,-1,-1,-1,-1,-1,-1,-1,-1,-1,-1,-1,-1,-1,-1,-1,-1,-1,-1,-1,-1,-1,-1,-1,-1,-1,-1,-1,-1,-1,-1],"split_conditions":[1E0,1E0,1E0,1E0,1E0,1E0,6.582611E1,1E0,1E0,1E0,1E0,1E0,4.7974792E1,1E0,1E0,1E0,1E0,1E0,1E0,1E0,7E0,1E0,1E0,7E0,1E0,1E0,1E0,1E0,1E0,1E0,3E0,-1.552804E-2,-5.4706777E-3,2.352073E-3,-1.9727888E-2,-1.2025818E-3,-1.46969585E-2,1.4192024E-2,-4.790577E-3,8.0183195E-3,2.6218433E-2,-1.4085438E-3,-2.8186107E-2,-1.7790243E-2,-5.034432E-3,-2.257419E-3,3.0025084E-2,1.4733831E-2,-4.5386907E-3,9.739022E-3,4.0253058E-2,-2.6592169E-2,1.3574846E-2,5.1576574E-4,1.8666362E-2,-1.6620573E-2,-9.979483E-4,1.5946738E-2,-1.9770488E-2,-4.027926E-2,1.974936E-2,-9.703711E-3,6.6426E-2],"split_indices":[22,18,16,26,12,17,84,34,23,56,26,26,84,30,61,35,28,64,47,30,3,8,37,3,4,78,80,4,24,15,1,0,0,0,0,0,0,0,0,0,0,0,0,0,0,0,0,0,0,0,0,0,0,0,0,0,0,0,0,0,0,0,0],"split_type":[0,0,0,0,0,0,0,0,0,0,0,0,0,0,0,0,0,0,0,0,0,0,0,0,0,0,0,0,0,0,0,0,0,0,0,0,0,0,0,0,0,0,0,0,0,0,0,0,0,0,0,0,0,0,0,0,0,0,0,0,0,0,0],"sum_hessian":[3.6019E4,2.5837E4,1.0182E4,1.835E4,7.487E3,7.521E3,2.661E3,1.2098E4,6.252E3,5.532E3,1.955E3,5.131E3,2.39E3,2.533E3,1.28E2,8.507E3,3.591E3,4.147E3,2.105E3,4.158E3,1.374E3,1.349E3,6.06E2,3.627E3,1.504E3,3.62E2,2.028E3,1.841E3,6.92E2,1.18E2,1E1,5.782E3,2.725E3,2.684E3,9.07E2,3.111E3,1.036E3,1.612E3,4.93E2,2.949E3,1.209E3,1.228E3,1.46E2,9.53E2,3.96E2,4.67E2,1.39E2,3.106E3,5.21E2,5.74E2,9.3E2,2.93E2,6.9E1,1.486E3,5.42E2,5.63E2,1.278E3,5.37E2,1.55E2,1.12E2,6E0,6E0,4E0],"tree_param":{"num_deleted":"0","num_feature":"85","num_nodes":"63","size_leaf_vector":"1"}},{"base_weights":[3.3252574E-5,-2.9925404E-2,7.469318E-2,-5.699084E-2,3.6242593E-2,1.248602E-1,-8.946594E-2,-8.375894E-2,9.030012E-3,7.048713E-2,-6.2311545E-2,1.5035158E-1,-6.661054E-2,-5.0669376E-2,-2.1074294E-1,-1.1047848E-1,-3.4358077E-2,-1.0131876E-1,2.318104E-1,2.6716247E-2,1.6873159E-1,-1.1027693E-1,5.2189916E-2,2.0622854E-1,4.820817E-2,-2.4086316E-1,6.56048E-2,-9.898417E-2,5.8322E-2,-2.497934E-1,-5.572352E-2,-1.3389391E-2,-3.6129977E-3,-6.875047E-3,6.0646636E-3,-7.017245E-3,-1.9987186E-2,5.704034E-3,3.0260196E-2,6.050321E-3,-9.319302E-3,1.1195515E-2,3.582794E-2,-7.2152424E-3,-2.4098512E-2,-4.6725343E-3,2.9057711E-2,1.6202753E-2,3.3617623E-2,-3.672651E-4,1.867941E-2,-2.9784067E-2,1.472712E-2,-2.1146885E-3,1.6702028E-2,-1.5592215E-2,4.7477335E-3,-3.6842779E-3,4.137002E-2,-1.9578049E-2,-3.7080318E-2,-2.012649E-2,1.4227803E-2],"categories":[],"categories_nodes":[],"categories_segments":[],"categories_sizes":[],"default_left":[0,0,0,0,0,0,0,0,0,0,0,0,0,0,0,0,0,0,0,0,0,0,0,0,0,0,0,0,0,0,0,0,0,0,0,0,0,0,0,0,0,0,0,0,0,0,0,0,0,0,0,0,0,0,0,0,0,0,0,0,0,0,0],"id":18,"left_children":[1,3,5,7,9,11,13,15,17,19,21,23,25,27,29,31,33,35,37,39,41,43,45,47,49,51,53,55,57,59,61,-1,-1,-1,-1,-1,-1,-1,-1,-1,-1,-1,-1,-1,-1,-1,-1,-1,-1,-1,-1,-1,-1,-1,-1,-1,-1,-1,-1,-1,-1,-1,-1],"loss_changes":[8.056857E1,4.603806E1,8.4959045E1,3.2242516E1,2.5191574E1,3.8573654E1,1.1352211E1,1.7130722E1,1.2943127E2,2.3814556E1,1.057806E1,3.9788193E1,2.1418911E1,9.647628E0,3.5274258E0,1.4660507E1,1.4897161E1,1.0793911E1,2.1559937E1,1.5534536E1,1.833036E1,6.744795E0,1.3430672E1,2.5832901E1,1.7738297E1,8.911947E0,4.6576543E0,1.0589875E1,1.905561E1,2.9797573E0,3.4579082E0,0E0,0E0,0E0,0E0,0E0,0E0,0E0,0E0,0E0,0E0,0E0,0E0,0E0,0E0,0E0,0E0,0E0,0E0,0E0,0E0,0E0,0E0,0E0,0E0,0E0,0E0,0E0,0E0,0E0,0E0,0E0,0E0],"parents":[2147483647,0,0,1,1,2,2,3,3,4,4,5,5,6,6,7,7,8,8,9,9,10,10,11,11,12,12,13,13,14,14,15,15,16,16,17,17,18,18,19,19,20,20,21,21,22,22,23,23,24,24,25,25,26,26,27,27,28,28,29,29,30,30],"right_children":[2,4,6,8,10,12,14,16,18,20,22,24,26,28,30,32,34,36,38,40,42,44,46,48,50,52,54,56,58,60,62,-1,-1,-1,-1,-1,-1,-1,-1,-1,-1,-1,-1,-1,-1,-1,-1,-1,-1,-1,-1,-1,-1,-1,-1,-1,-1,-1,-1,-1,-1,-1,-1],"split_conditions":[1E0,1E0,1E0,1E0,1E0,7E0,1E0,1E0,1E0,1E0,1E0,1E0,4E0,1E0,1E0,1E0,1E0,1E0,4.971589E1,1E0,1E0,1E0,1E0,1E0,1E0,1E0,1E0,1E0,1E0,7E0,5.425552E1,-1.3389391E-2,-3.6129977E-3,-6.875047E-3,6.0646636E-3,-7.017245E-3,-1.9987186E-2,5.704034E-3,3.0260196E-2,6.050321E-3,-9.319302E-3,1.1195515E-2,3.582794E-2,-7.2152424E-3,-2.4098512E-2,-4.6725343E-3,2.9057711E-2,1.6202753E-2,3.3617623E-2,-3.672651E-4,1.867941E-2,-2.9784067E-2,1.472712E-2,-2.1146885E-3,1.6702028E-2,-1.5592215E-2,4.7477335E-3,-3.6842779E-3,4.137002E-2,-1.9578049E-2,-3.7080318E-2,-2.012649E-2,1.4227803E-2],"split_indices":[30,22,24,34,16,3,71,26,31,26,31,25,0,18,19,11,18,25,84,47,57,25,34,34,18,80,27,44,15,2,84,0,0,0,0,0,0,0,0,0,0,0,0,0,0,0,0,0,0,0,0,0,0,0,0,0,0,0,0,0,0,0,0],"split_type":[0,0,0,0,0,0,0,0,0,0,0,0,0,0,0,0,0,0,0,0,0,0,0,0,0,0,0,0,0,0,0,0,0,0,0,0,0,0,0,0,0,0,0,0,0,0,0,0,0,0,0,0,0,0,0,0,0,0,0,0,0,0,0],"sum_hessian":[3.6019E4,2.5705E4,1.0314E4,1.8243E4,7.462E3,7.9E3,2.414E3,1.298E4,5.263E3,5.538E3,1.924E3,6.972E3,9.28E2,1.83E3,5.84E2,8.423E3,4.557E3,3.52E3,1.743E3,3.832E3,1.706E3,1.356E3,5.68E2,4.506E3,2.466E3,4E2,5.28E2,1.268E3,5.62E2,4.66E2,1.18E2,6.405E3,2.018E3,3.346E3,1.211E3,2.676E3,8.44E2,5.03E2,1.24E3,2.99E3,8.42E2,1.314E3,3.92E2,1.051E3,3.05E2,4.02E2,1.66E2,3.364E3,1.142E3,1.795E3,6.71E2,3.49E2,5.1E1,2.85E2,2.43E2,9.13E2,3.55E2,4.44E2,1.18E2,3.24E2,1.42E2,6.8E1,5E1],"tree_param":{"num_deleted":"0","num_feature":"85","num_nodes":"63","size_leaf_vector":"1"}},{"base_weights":[3.1590036E-5,-2.6931776E-2,6.722696E-2,-5.4123722E-2,2.7885932E-2,1.1238274E-1,-8.053413E-2,-7.9646446E-2,7.557646E-3,6.254606E-2,-7.6777585E-2,7.269263E-2,2.1804214E-1,-4.5587778E-2,-1.8977557E-1,-1.0178387E-1,-2.1293413E-2,-4.079552E-2,1.564934E-1,2.6549993E-2,1.7535067E-1,-1.0898191E-1,9.382025E-3,2.2446865E-2,2.1309382E-1,1.5419912E-1,3.930102E-1,-9.172253E-2,6.634188E-2,-2.3580775E-1,-7.117363E-2,-1.6270703E-2,-8.515697E-3,-8.854709E-3,1.821928E-2,-8.607543E-3,7.825998E-3,1.547192E-3,2.1148546E-2,-1.3110813E-3,1.3493376E-2,-5.971437E-3,2.3444997E-2,-8.3167385E-3,-2.1357546E-2,-5.383215E-3,1.8072953E-2,-2.3862177E-3,1.3866164E-2,3.0430391E-2,5.8920262E-3,9.1085555E-3,3.2307293E-2,3.1456776E-2,9.3773834E-2,-1.2474671E-2,7.412877E-3,1.3547929E-2,-1.6881576E-2,-1.85514E-2,-4.3243345E-2,7.487037E-2,-9.619358E-3],"categories":[],"categories_nodes":[],"categories_segments":[],"categories_sizes":[],"default_left":[0,0,0,0,0,0,0,0,0,0,0,0,0,0,0,0,0,0,0,0,0,0,0,0,0,0,0,0,0,0,0,0,0,0,0,0,0,0,0,0,0,0,0,0,0,0,0,0,0,0,0,0,0,0,0,0,0,0,0,0,0,0,0],"id":19,"left_children":[1,3,5,7,9,11,13,15,17,19,21,23,25,27,29,31,33,35,37,39,41,43,45,47,49,51,53,55,57,59,61,-1,-1,-1,-1,-1,-1,-1,-1,-1,-1,-1,-1,-1,-1,-1,-1,-1,-1,-1,-1,-1,-1,-1,-1,-1,-1,-1,-1,-1,-1,-1,-1],"loss_changes":[6.526333E1,3.8318874E1,6.883349E1,2.7051388E1,3.0926893E1,3.311805E1,9.21083E0,1.5698212E1,3.6230003E1,2.5998928E1,5.8861856E0,4.0523697E1,2.403415E1,9.461089E0,3.1770287E0,8.911362E0,4.5779423E1,2.048108E1,9.55872E0,2.0875711E1,2.1532986E1,4.1510887E0,6.270389E0,2.2779066E1,2.127221E1,1.6831894E1,2.431739E1,7.1130495E0,8.721003E0,4.083063E0,3.456714E0,0E0,0E0,0E0,0E0,0E0,0E0,0E0,0E0,0E0,0E0,0E0,0E0,0E0,0E0,0E0,0E0,0E0,0E0,0E0,0E0,0E0,0E0,0E0,0E0,0E0,0E0,0E0,0E0,0E0,0E0,0E0,0E0],"parents":[2147483647,0,0,1,1,2,2,3,3,4,4,5,5,6,6,7,7,8,8,9,9,10,10,11,11,12,12,13,13,14,14,15,15,16,16,17,17,18,18,19,19,20,20,21,21,22,22,23,23,24,24,25,25,26,26,27,27,28,28,29,29,30,30],"right_children":[2,4,6,8,10,12,14,16,18,20,22,24,26,28,30,32,34,36,38,40,42,44,46,48,50,52,54,56,58,60,62,-1,-1,-1,-1,-1,-1,-1,-1,-1,-1,-1,-1,-1,-1,-1,-1,-1,-1,-1,-1,-1,-1,-1,-1,-1,-1,-1,-1,-1,-1,-1,-1],"split_conditions":[1E0,1E0,1E0,1E0,1E0,1E0,1E0,1E0,1E0,1E0,1E0,1E0,1E0,1E0,1E0,1E0,1E0,1E0,4.931898E1,1E0,4.8371113E1,1E0,1E0,1E0,1E0,1E0,8E0,8E0,1E0,7E0,4.6897957E1,-1.6270703E-2,-8.515697E-3,-8.854709E-3,1.821928E-2,-8.607543E-3,7.825998E-3,1.547192E-3,2.1148546E-2,-1.3110813E-3,1.3493376E-2,-5.971437E-3,2.3444997E-2,-8.3167385E-3,-2.1357546E-2,-5.383215E-3,1.8072953E-2,-2.3862177E-3,1.3866164E-2,3.0430391E-2,5.8920262E-3,9.1085555E-3,3.2307293E-2,3.1456776E-2,9.3773834E-2,-1.2474671E-2,7.412877E-3,1.3547929E-2,-1.6881576E-2,-1.85514E-2,-4.3243345E-2,7.487037E-2,-9.619358E-3],"split_indices":[30,26,24,18,20,44,71,14,15,57,40,22,34,54,38,4,11,34,84,80,84,83,34,54,25,80,0,2,21,2,84,0,0,0,0,0,0,0,0,0,0,0,0,0,0,0,0,0,0,0,0,0,0,0,0,0,0,0,0,0,0,0,0],"split_type":[0,0,0,0,0,0,0,0,0,0,0,0,0,0,0,0,0,0,0,0,0,0,0,0,0,0,0,0,0,0,0,0,0,0,0,0,0,0,0,0,0,0,0,0,0,0,0,0,0,0,0,0,0,0,0,0,0,0,0,0,0,0,0],"sum_hessian":[3.6019E4,2.5705E4,1.0314E4,1.7182E4,8.523E3,7.9E3,2.414E3,1.2153E4,5.029E3,6.403E3,2.12E3,5.744E3,2.156E3,1.83E3,5.84E2,8.81E3,3.343E3,3.797E3,1.232E3,4.855E3,1.548E3,1.543E3,5.77E2,4.231E3,1.513E3,1.581E3,5.75E2,1.296E3,5.34E2,4.2E2,1.64E2,1.887E3,6.923E3,2.513E3,8.3E2,2.751E3,1.046E3,3.46E2,8.86E2,3.555E3,1.3E3,3.11E2,1.237E3,1.239E3,3.04E2,4.22E2,1.55E2,3.026E3,1.205E3,9.5E2,5.63E2,1.152E3,4.29E2,5.04E2,7.1E1,1.081E3,2.15E2,4.13E2,1.21E2,3.36E2,8.4E1,4E0,1.6E2],"tree_param":{"num_deleted":"0","num_feature":"85","num_nodes":"63","size_leaf_vector":"1"}},{"base_weights":[3.477728E-5,-2.5468528E-2,6.4746E-2,-5.1470194E-2,3.8257703E-2,9.821021E-2,-2.9837979E-2,-7.553888E-2,9.1219125E-3,7.738733E-2,-7.24491E-2,1.4051045E-1,7.3766354E-3,5.9369486E-3,-1.3189054E-1,-9.683288E-2,-2.0098874E-2,6.565501E-2,-1.5804124E-1,1.1651604E-1,-4.10226E-2,-1.206912E-1,3.4963213E-2,1.499777E-1,-4.3021098E-1,-4.2483546E-2,1.4212663E-1,2.0569066E-2,-3.9193243E-1,-2.0892093E-1,5.4315135E-2,-1.22338E-2,-3.878365E-3,-7.612433E-3,1.380737E-2,1.2607269E-2,-7.0553683E-3,-2.4172207E-2,-1.2479107E-2,1.5861781E-2,-3.941597E-3,-9.498056E-3,8.0639245E-3,-1.5471669E-2,-3.8623177E-3,1.1532485E-2,-1.7922238E-2,1.7725443E-2,-1.8344907E-3,4.6334486E-2,-5.0488632E-2,-1.2570562E-2,4.846377E-3,6.685105E-3,3.475515E-2,-1.2547412E-3,1.2156579E-2,-4.7073558E-2,-7.1605085E-3,-1.4303709E-2,-3.5975438E-2,-1.0873218E-2,4.6380814E-2],"categories":[],"categories_nodes":[],"categories_segments":[],"categories_sizes":[],"default_left":[0,0,0,0,0,0,0,0,0,0,0,0,0,0,0,0,0,0,0,0,0,0,0,0,0,0,0,0,0,0,0,0,0,0,0,0,0,0,0,0,0,0,0,0,0,0,0,0,0,0,0,0,0,0,0,0,0,0,0,0,0,0,0],"id":20,"left_children":[1,3,5,7,9,11,13,15,17,19,21,23,25,27,29,31,33,35,37,39,41,43,45,47,49,51,53,55,57,59,61,-1,-1,-1,-1,-1,-1,-1,-1,-1,-1,-1,-1,-1,-1,-1,-1,-1,-1,-1,-1,-1,-1,-1,-1,-1,-1,-1,-1,-1,-1,-1,-1],"loss_changes":[5.9447258E1,4.281523E1,3.223395E1,2.6763287E1,3.2443E1,2.8900604E1,9.71954E0,1.5503258E1,4.932179E1,2.5640423E1,1.013981E1,2.7793526E1,1.6070353E1,1.1488398E1,9.922703E0,1.4044228E1,3.2320232E1,3.2103607E1,3.639824E0,2.731015E1,9.0340185E0,3.763771E0,1.0468537E1,2.3184692E1,5.838974E0,1.3221256E1,9.966172E0,6.3664045E0,1.7332888E0,4.807972E0,1.3604076E1,0E0,0E0,0E0,0E0,0E0,0E0,0E0,0E0,0E0,0E0,0E0,0E0,0E0,0E0,0E0,0E0,0E0,0E0,0E0,0E0,0E0,0E0,0E0,0E0,0E0,0E0,0E0,0E0,0E0,0E0,0E0,0E0],"parents":[2147483647,0,0,1,1,2,2,3,3,4,4,5,5,6,6,7,7,8,8,9,9,10,10,11,11,12,12,13,13,14,14,15,15,16,16,17,17,18,18,19,19,20,20,21,21,22,22,23,23,24,24,25,25,26,26,27,27,28,28,29,29,30,30],"right_children":[2,4,6,8,10,12,14,16,18,20,22,24,26,28,30,32,34,36,38,40,42,44,46,48,50,52,54,56,58,60,62,-1,-1,-1,-1,-1,-1,-1,-1,-1,-1,-1,-1,-1,-1,-1,-1,-1,-1,-1,-1,-1,-1,-1,-1,-1,-1,-1,-1,-1,-1,-1,-1],"split_conditions":[1E0,1E0,1E0,1E0,1E0,1E0,1E0,1E0,1E0,1E0,1E0,6.677014E1,1E0,8E0,1E0,1E0,1E0,1E0,1E0,1E0,1E0,1E0,1E0,7E0,1E0,5.280676E1,1E0,1E0,1E0,1E0,1E0,-1.22338E-2,-3.878365E-3,-7.612433E-3,1.380737E-2,1.2607269E-2,-7.0553683E-3,-2.4172207E-2,-1.2479107E-2,1.5861781E-2,-3.941597E-3,-9.498056E-3,8.0639245E-3,-1.5471669E-2,-3.8623177E-3,1.1532485E-2,-1.7922238E-2,1.7725443E-2,-1.8344907E-3,4.6334486E-2,-5.0488632E-2,-1.2570562E-2,4.846377E-3,6.685105E-3,3.475515E-2,-1.2547412E-3,1.2156579E-2,-4.7073558E-2,-7.1605085E-3,-1.4303709E-2,-3.5975438E-2,-1.0873218E-2,4.6380814E-2],"split_indices":[22,18,16,34,12,17,56,14,28,56,26,84,8,3,74,38,11,29,4,53,74,8,28,3,18,84,30,81,62,26,26,0,0,0,0,0,0,0,0,0,0,0,0,0,0,0,0,0,0,0,0,0,0,0,0,0,0,0,0,0,0,0,0],"split_type":[0,0,0,0,0,0,0,0,0,0,0,0,0,0,0,0,0,0,0,0,0,0,0,0,0,0,0,0,0,0,0,0,0,0,0,0,0,0,0,0,0,0,0,0,0,0,0,0,0,0,0,0,0,0,0,0,0,0,0,0,0,0,0],"sum_hessian":[3.6019E4,2.5837E4,1.0182E4,1.835E4,7.487E3,7.521E3,2.661E3,1.3133E4,5.217E3,5.532E3,1.955E3,5.131E3,2.39E3,1.971E3,6.9E2,9.488E3,3.645E3,3.899E3,1.318E3,4.158E3,1.374E3,1.349E3,6.06E2,5.048E3,8.3E1,1.745E3,6.45E2,1.902E3,6.9E1,4.88E2,2.02E2,6.591E3,2.897E3,2.692E3,9.53E2,2.701E3,1.198E3,3.73E2,9.45E2,3.274E3,8.84E2,9.52E2,4.22E2,9.53E2,3.96E2,4.41E2,1.65E2,4.344E3,7.04E2,6E0,7.7E1,9.11E2,8.34E2,4.73E2,1.72E2,1.433E3,4.69E2,5.5E1,1.4E1,3.41E2,1.47E2,1.45E2,5.7E1],"tree_param":{"num_deleted":"0","num_feature":"85","num_nodes":"63","size_leaf_vector":"1"}},{"base_weights":[2.9384883E-5,-2.4485817E-2,6.461337E-2,-8.865542E-2,6.0730386E-3,-3.387732E-3,1.09579474E-1,-5.5586416E-2,-2.0885257E-1,-2.2316383E-2,8.058821E-2,-2.4230521E-2,8.303138E-2,1.286745E-1,-8.773847E-2,-1.5349132E-2,-1.7587595E-1,-1.4641054E-1,-3.441606E-1,-4.517448E-2,4.0700752E-2,2.1221379E-2,1.8713714E-1,-5.1956005E-2,6.6617906E-2,5.5282465E-3,2.5527352E-1,1.1338872E-1,4.27939E-1,-1.935352E-1,6.790598E-2,-4.333031E-3,1.4524944E-2,-1.417533E-2,-2.7823111E-2,-8.582005E-3,-3.2502428E-2,-3.774855E-2,-1.7878497E-2,-1.8098105E-3,-1.0582642E-2,5.301623E-4,1.3143091E-2,-1.7698541E-3,1.2986089E-2,2.9024908E-2,1.5365382E-3,-3.0097454E-3,-1.2188917E-2,8.049154E-3,-4.974235E-2,-7.364499E-3,2.103784E-2,3.803022E-2,-3.8269002E-3,7.678494E-3,2.335904E-2,3.3702865E-2,8.010149E-2,-1.1510553E-2,-3.16022E-2,-3.7570316E-3,9.454513E-2],"categories":[],"categories_nodes":[],"categories_segments":[],"categories_sizes":[],"default_left":[0,0,0,0,0,0,0,0,0,0,0,0,0,0,0,0,0,0,0,0,0,0,0,0,0,0,0,0,0,0,0,0,0,0,0,0,0,0,0,0,0,0,0,0,0,0,0,0,0,0,0,0,0,0,0,0,0,0,0,0,0,0,0],"id":21,"left_children":[1,3,5,7,9,11,13,15,17,19,21,23,25,27,29,31,33,35,37,39,41,43,45,47,49,51,53,55,57,59,61,-1,-1,-1,-1,-1,-1,-1,-1,-1,-1,-1,-1,-1,-1,-1,-1,-1,-1,-1,-1,-1,-1,-1,-1,-1,-1,-1,-1,-1,-1,-1,-1],"loss_changes":[5.7031673E1,5.1200935E1,3.0305676E1,3.3468124E1,3.7419746E1,7.109608E0,2.2489937E1,3.1976002E1,1.530127E1,1.8452587E1,3.0864334E1,8.013298E0,1.0237505E1,2.4836716E1,8.691079E0,2.2259281E1,5.7443504E0,1.3445864E1,3.090393E0,1.5435091E1,1.0951433E1,1.3257834E1,3.09202E1,3.721621E0,5.862061E0,8.611378E0,8.749448E0,2.2760017E1,8.683979E0,2.9800968E0,1.984341E1,0E0,0E0,0E0,0E0,0E0,0E0,0E0,0E0,0E0,0E0,0E0,0E0,0E0,0E0,0E0,0E0,0E0,0E0,0E0,0E0,0E0,0E0,0E0,0E0,0E0,0E0,0E0,0E0,0E0,0E0,0E0,0E0],"parents":[2147483647,0,0,1,1,2,2,3,3,4,4,5,5,6,6,7,7,8,8,9,9,10,10,11,11,12,12,13,13,14,14,15,15,16,16,17,17,18,18,19,19,20,20,21,21,22,22,23,23,24,24,25,25,26,26,27,27,28,28,29,29,30,30],"right_children":[2,4,6,8,10,12,14,16,18,20,22,24,26,28,30,32,34,36,38,40,42,44,46,48,50,52,54,56,58,60,62,-1,-1,-1,-1,-1,-1,-1,-1,-1,-1,-1,-1,-1,-1,-1,-1,-1,-1,-1,-1,-1,-1,-1,-1,-1,-1,-1,-1,-1,-1,-1,-1],"split_conditions":[1E0,1E0,5E0,1E0,1E0,1E0,6.2614677E1,1E0,1E0,1E0,7E0,1E0,1E0,9E0,1E0,9E0,1E0,1E0,1E0,1E0,1E0,1E0,1E0,1E0,9E0,1E0,1E0,1E0,1E0,1E0,1E0,-4.333031E-3,1.4524944E-2,-1.417533E-2,-2.7823111E-2,-8.582005E-3,-3.2502428E-2,-3.774855E-2,-1.7878497E-2,-1.8098105E-3,-1.0582642E-2,5.301623E-4,1.3143091E-2,-1.7698541E-3,1.2986089E-2,2.9024908E-2,1.5365382E-3,-3.0097454E-3,-1.2188917E-2,8.049154E-3,-4.974235E-2,-7.364499E-3,2.103784E-2,3.803022E-2,-3.8269002E-3,7.678494E-3,2.335904E-2,3.3702865E-2,8.010149E-2,-1.1510553E-2,-3.16022E-2,-3.7570316E-3,9.454513E-2],"split_indices":[80,4,2,79,18,30,84,56,83,44,2,26,44,2,66,2,83,75,72,17,38,15,10,43,3,35,55,44,59,22,11,0,0,0,0,0,0,0,0,0,0,0,0,0,0,0,0,0,0,0,0,0,0,0,0,0,0,0,0,0,0,0,0],"split_type":[0,0,0,0,0,0,0,0,0,0,0,0,0,0,0,0,0,0,0,0,0,0,0,0,0,0,0,0,0,0,0,0,0,0,0,0,0,0,0,0,0,0,0,0,0,0,0,0,0,0,0,0,0,0,0,0,0,0,0,0,0,0,0],"sum_hessian":[3.6019E4,2.6109E4,9.91E3,8.422E3,1.7687E4,3.945E3,5.965E3,6.606E3,1.816E3,1.2808E4,4.879E3,3.179E3,7.66E2,5.439E3,5.26E2,4.951E3,1.655E3,1.244E3,5.72E2,9.399E3,3.409E3,3.134E3,1.745E3,2.436E3,7.43E2,5.29E2,2.37E2,5.176E3,2.63E2,3.13E2,2.13E2,4.217E3,7.34E2,1.243E3,4.12E2,9.3E2,3.14E2,4.75E2,9.7E1,6.499E3,2.9E3,2.453E3,9.56E2,2.308E3,8.26E2,1.09E3,6.55E2,1.857E3,5.79E2,7.26E2,1.7E1,3.82E2,1.47E2,1.66E2,7.1E1,3.969E3,1.207E3,2.13E2,5E1,1.92E2,1.21E2,1.91E2,2.2E1],"tree_param":{"num_deleted":"0","num_feature":"85","num_nodes":"63","size_leaf_vector":"1"}},{"base_weights":[2.9167397E-5,-2.2945259E-2,5.7283703E-2,-4.6942238E-2,2.5431452E-2,9.77078E-2,-7.499293E-2,-6.838612E-2,4.867436E-3,5.5748608E-2,-6.6118054E-2,1.309761E-1,-1.2966868E-2,-1.11522E-1,1.2015369E-2,-1.3905945E-1,-4.5523737E-2,-9.299138E-2,2.0293452E-1,2.371547E-2,1.5613413E-1,-9.533676E-2,1.204769E-2,1.5253861E-1,-7.396369E-2,4.1703496E-2,-2.2264694E-1,-2.5084305E-1,-5.8437567E-2,-3.2633472E-2,2.501679E-1,-1.900631E-2,-4.2523327E-3,-6.885017E-3,1.2787472E-3,-6.0279947E-3,-1.52733205E-2,1.2492516E-2,4.1899014E-2,-1.3468255E-3,1.2543762E-2,1.1072769E-2,4.160488E-2,-1.2638417E-2,-2.6042673E-3,-3.8952183E-3,1.8636752E-2,2.0102393E-2,6.3607767E-3,-2.404923E-2,5.3308792E-3,1.3843936E-2,-8.267156E-3,-1.4816512E-2,-4.2822473E-2,-2.738728E-2,5.780365E-2,-9.965388E-3,5.7021095E-3,-1.4158598E-3,-3.2321945E-2,1.6253183E-2,9.742271E-2],"categories":[],"categories_nodes":[],"categories_segments":[],"categories_sizes":[],"default_left":[0,0,0,0,0,0,0,0,0,0,0,0,0,0,0,0,0,0,0,0,0,0,0,0,0,0,0,0,0,0,0,0,0,0,0,0,0,0,0,0,0,0,0,0,0,0,0,0,0,0,0,0,0,0,0,0,0,0,0,0,0,0,0],"id":22,"left_children":[1,3,5,7,9,11,13,15,17,19,21,23,25,27,29,31,33,35,37,39,41,43,45,47,49,51,53,55,57,59,61,-1,-1,-1,-1,-1,-1,-1,-1,-1,-1,-1,-1,-1,-1,-1,-1,-1,-1,-1,-1,-1,-1,-1,-1,-1,-1,-1,-1,-1,-1,-1,-1],"loss_changes":[4.7381668E1,2.9843163E1,5.5163322E1,1.9090656E1,2.3662226E1,2.909285E1,7.6770086E0,1.9630013E1,9.753278E1,2.0589403E1,4.8453045E0,2.6856812E1,2.095271E1,1.2565565E1,7.6109266E0,1.4615288E1,1.2492889E1,6.5726776E0,2.7993317E1,1.8369064E1,1.8234917E1,3.318472E0,5.1458464E0,2.3689392E1,1.2284441E1,1.7457159E1,5.724415E0,9.110991E0,5.873257E0,3.2326531E0,7.011926E0,0E0,0E0,0E0,0E0,0E0,0E0,0E0,0E0,0E0,0E0,0E0,0E0,0E0,0E0,0E0,0E0,0E0,0E0,0E0,0E0,0E0,0E0,0E0,0E0,0E0,0E0,0E0,0E0,0E0,0E0,0E0,0E0],"parents":[2147483647,0,0,1,1,2,2,3,3,4,4,5,5,6,6,7,7,8,8,9,9,10,10,11,11,12,12,13,13,14,14,15,15,16,16,17,17,18,18,19,19,20,20,21,21,22,22,23,23,24,24,25,25,26,26,27,27,28,28,29,29,30,30],"right_children":[2,4,6,8,10,12,14,16,18,20,22,24,26,28,30,32,34,36,38,40,42,44,46,48,50,52,54,56,58,60,62,-1,-1,-1,-1,-1,-1,-1,-1,-1,-1,-1,-1,-1,-1,-1,-1,-1,-1,-1,-1,-1,-1,-1,-1,-1,-1,-1,-1,-1,-1,-1,-1],"split_conditions":[1E0,1E0,1E0,1E0,1E0,1E0,1E0,1E0,1E0,1E0,1E0,7E0,1E0,1E0,8E0,1E0,1E0,1E0,1E0,1E0,8E0,7E0,1E0,1E0,4E0,5E0,1E0,1.2E1,1E0,7E0,1E0,-1.900631E-2,-4.2523327E-3,-6.885017E-3,1.2787472E-3,-6.0279947E-3,-1.52733205E-2,1.2492516E-2,4.1899014E-2,-1.3468255E-3,1.2543762E-2,1.1072769E-2,4.160488E-2,-1.2638417E-2,-2.6042673E-3,-3.8952183E-3,1.8636752E-2,2.0102393E-2,6.3607767E-3,-2.404923E-2,5.3308792E-3,1.3843936E-2,-8.267156E-3,-1.4816512E-2,-4.2822473E-2,-2.738728E-2,5.780365E-2,-9.965388E-3,5.7021095E-3,-1.4158598E-3,-3.2321945E-2,1.6253183E-2,9.742271E-2],"split_indices":[30,26,24,34,20,43,80,4,31,57,40,3,47,4,2,42,22,25,18,8,2,2,45,25,0,1,70,2,44,3,47,0,0,0,0,0,0,0,0,0,0,0,0,0,0,0,0,0,0,0,0,0,0,0,0,0,0,0,0,0,0,0,0],"split_type":[0,0,0,0,0,0,0,0,0,0,0,0,0,0,0,0,0,0,0,0,0,0,0,0,0,0,0,0,0,0,0,0,0,0,0,0,0,0,0,0,0,0,0,0,0,0,0,0,0,0,0,0,0,0,0,0,0,0,0,0,0,0,0],"sum_hessian":[3.6019E4,2.5705E4,1.0314E4,1.7182E4,8.523E3,7.9E3,2.414E3,1.2152E4,5.03E3,6.403E3,2.12E3,6.074E3,1.826E3,1.7E3,7.14E2,2.969E3,9.183E3,3.367E3,1.663E3,4.855E3,1.548E3,1.543E3,5.77E2,5.496E3,5.78E2,1.449E3,3.77E2,4.68E2,1.232E3,6.02E2,1.12E2,1.942E3,1.027E3,6.559E3,2.624E3,2.177E3,1.19E3,1.223E3,4.4E2,3.556E3,1.299E3,1.319E3,2.29E2,1.065E3,4.78E2,4.47E2,1.3E2,3.556E3,1.94E3,2.5E2,3.28E2,8.15E2,6.34E2,2.78E2,9.9E1,4.56E2,1.2E1,9.08E2,3.24E2,5.67E2,3.5E1,1.01E2,1.1E1],"tree_param":{"num_deleted":"0","num_feature":"85","num_nodes":"63","size_leaf_vector":"1"}},{"base_weights":[2.9843797E-5,-2.1836678E-2,5.7636026E-2,-7.7730596E-2,4.7811586E-3,1.8961713E-2,1.1701291E-1,-4.8324257E-2,-1.8461554E-1,-2.0424219E-2,7.093913E-2,-4.846993E-3,1.03350215E-1,1.4317791E-1,-6.331839E-2,-1.24324905E-2,-1.556236E-1,-1.287969E-1,-3.055747E-1,-4.0660135E-2,3.5364058E-2,1.1344009E-1,-6.2125158E-2,-3.2112196E-2,6.0100842E-2,3.2683227E-2,2.6893234E-1,1.24507E-1,3.7301472E-1,-1.0225093E-1,3.197663E-1,-4.9438416E-3,1.0446821E-2,-1.9065699E-2,-6.52131E-3,-7.443029E-3,-2.890716E-2,-2.0586593E-2,-3.5450105E-2,-1.6507496E-3,-9.476269E-3,-1.8505976E-3,8.677501E-3,4.597449E-3,2.3011418E-2,-4.7776294E-3,-5.4520506E-2,-6.145152E-3,8.5071735E-3,1.9882675E-3,1.9665182E-2,-9.828167E-4,2.234138E-2,3.554123E-2,2.353746E-3,1.7273668E-2,4.1809413E-3,2.7871786E-2,7.75828E-2,-1.3753081E-2,2.6368806E-2,-1.7377902E-3,8.451783E-2],"categories":[],"categories_nodes":[],"categories_segments":[],"categories_sizes":[],"default_left":[0,0,0,0,0,0,0,0,0,0,0,0,0,0,0,0,0,0,0,0,0,0,0,0,0,0,0,0,0,0,0,0,0,0,0,0,0,0,0,0,0,0,0,0,0,0,0,0,0,0,0,0,0,0,0,0,0,0,0,0,0,0,0],"id":23,"left_children":[1,3,5,7,9,11,13,15,17,19,21,23,25,27,29,31,33,35,37,39,41,43,45,47,49,51,53,55,57,59,61,-1,-1,-1,-1,-1,-1,-1,-1,-1,-1,-1,-1,-1,-1,-1,-1,-1,-1,-1,-1,-1,-1,-1,-1,-1,-1,-1,-1,-1,-1,-1,-1],"loss_changes":[4.5373737E1,3.884618E1,2.2757011E1,2.6465366E1,2.9496838E1,1.2061615E1,1.8453167E1,2.5442696E1,1.2228615E1,1.4461861E1,2.7605202E1,8.294661E0,1.54484825E1,1.4603928E1,7.43027E0,2.142761E1,5.2327614E0,1.0826908E1,2.7223358E0,1.2281596E1,9.445633E0,2.9106056E1,8.167158E0,1.1347508E1,7.602275E0,7.5185175E0,8.37422E0,1.2592377E1,9.507675E0,5.8588023E0,8.16311E0,0E0,0E0,0E0,0E0,0E0,0E0,0E0,0E0,0E0,0E0,0E0,0E0,0E0,0E0,0E0,0E0,0E0,0E0,0E0,0E0,0E0,0E0,0E0,0E0,0E0,0E0,0E0,0E0,0E0,0E0,0E0,0E0],"parents":[2147483647,0,0,1,1,2,2,3,3,4,4,5,5,6,6,7,7,8,8,9,9,10,10,11,11,12,12,13,13,14,14,15,15,16,16,17,17,18,18,19,19,20,20,21,21,22,22,23,23,24,24,25,25,26,26,27,27,28,28,29,29,30,30],"right_children":[2,4,6,8,10,12,14,16,18,20,22,24,26,28,30,32,34,36,38,40,42,44,46,48,50,52,54,56,58,60,62,-1,-1,-1,-1,-1,-1,-1,-1,-1,-1,-1,-1,-1,-1,-1,-1,-1,-1,-1,-1,-1,-1,-1,-1,-1,-1,-1,-1,-1,-1,-1,-1],"split_conditions":[1E0,1E0,6E0,1E0,1E0,1E0,6.2367706E1,1E0,1E0,1E0,1E0,1E0,1E0,9E0,1E0,1E0,1E0,1E0,5E0,1E0,5E0,7E0,6.677014E1,1E0,1E0,1E0,1E0,1E0,1E0,1E0,1E0,-4.9438416E-3,1.0446821E-2,-1.9065699E-2,-6.52131E-3,-7.443029E-3,-2.890716E-2,-2.0586593E-2,-3.5450105E-2,-1.6507496E-3,-9.476269E-3,-1.8505976E-3,8.677501E-3,4.597449E-3,2.3011418E-2,-4.7776294E-3,-5.4520506E-2,-6.145152E-3,8.5071735E-3,1.9882675E-3,1.9665182E-2,-9.828167E-4,2.234138E-2,3.554123E-2,2.353746E-3,1.7273668E-2,4.1809413E-3,2.7871786E-2,7.75828E-2,-1.3753081E-2,2.6368806E-2,-1.7377902E-3,8.451783E-2],"split_indices":[80,4,2,79,18,30,84,56,83,44,64,8,44,2,19,68,74,75,2,17,2,2,84,14,22,74,24,70,59,11,52,0,0,0,0,0,0,0,0,0,0,0,0,0,0,0,0,0,0,0,0,0,0,0,0,0,0,0,0,0,0,0,0],"split_type":[0,0,0,0,0,0,0,0,0,0,0,0,0,0,0,0,0,0,0,0,0,0,0,0,0,0,0,0,0,0,0,0,0,0,0,0,0,0,0,0,0,0,0,0,0,0,0,0,0,0,0,0,0,0,0,0,0,0,0,0,0,0,0],"sum_hessian":[3.6019E4,2.6109E4,9.91E3,8.422E3,1.7687E4,6.002E3,3.908E3,6.606E3,1.816E3,1.2808E4,4.879E3,4.682E3,1.32E3,3.413E3,4.95E2,4.951E3,1.655E3,1.244E3,5.72E2,9.399E3,3.409E3,3.698E3,1.181E3,3.298E3,1.384E3,9.26E2,3.94E2,3.158E3,2.55E2,4.5E2,4.5E1,3.761E3,1.19E3,1.192E3,4.63E2,9.3E2,3.14E2,1.9E2,3.82E2,6.499E3,2.9E3,1.665E3,1.744E3,2.344E3,1.354E3,1.148E3,3.3E1,2.638E3,6.6E2,1.07E3,3.14E2,7.58E2,1.68E2,2.91E2,1.03E2,1.994E3,1.164E3,2.08E2,4.7E1,4.11E2,3.9E1,2.8E1,1.7E1],"tree_param":{"num_deleted":"0","num_feature":"85","num_nodes":"63","size_leaf_vector":"1"}},{"base_weights":[3.122158E-5,-2.1581234E-2,5.486993E-2,-4.2729806E-2,3.295988E-2,6.1672084E-2,-3.151105E-1,-5.300305E-2,6.4811334E-2,-1.5956512E-2,1.8656202E-1,2.9708546E-2,1.3724747E-1,-3.5849276E-1,3.365762E-1,-3.4044243E-2,-1.1181153E-1,2.3427373E-2,2.6596934E-1,-7.62509E-2,9.2532255E-2,3.641595E-2,2.4738961E-1,-1.1494532E-2,1.5807685E-1,8.9130454E-2,2.7188575E-1,-2.1601957E-1,-5.292483E-1,8.32553E-1,-2.9815948E-1,-5.8552767E-3,1.9266729E-3,-1.3594079E-2,-4.4186944E-3,-3.3593928E-3,1.4906238E-2,3.386227E-2,-1.2645922E-2,-5.2714106E-3,-1.5072636E-2,1.9734178E-3,2.7685711E-2,-6.976043E-3,1.9550024E-2,1.9949194E-2,4.023739E-2,9.372332E-4,-1.5713867E-2,1.0937646E-2,3.0763635E-2,4.352714E-3,2.2187239E-2,1.8849788E-2,5.6873668E-2,-3.685095E-2,1.1560478E-2,-7.113876E-2,-3.3843126E-2,4.0307804E-3,1.1413895E-1,-5.0643988E-2,-6.7409314E-3],"categories":[],"categories_nodes":[],"categories_segments":[],"categories_sizes":[],"default_left":[0,0,0,0,0,0,0,0,0,0,0,0,0,0,0,0,0,0,0,0,0,0,0,0,0,0,0,0,0,0,0,0,0,0,0,0,0,0,0,0,0,0,0,0,0,0,0,0,0,0,0,0,0,0,0,0,0,0,0,0,0,0,0],"id":24,"left_children":[1,3,5,7,9,11,13,15,17,19,21,23,25,27,29,31,33,35,37,39,41,43,45,47,49,51,53,55,57,59,61,-1,-1,-1,-1,-1,-1,-1,-1,-1,-1,-1,-1,-1,-1,-1,-1,-1,-1,-1,-1,-1,-1,-1,-1,-1,-1,-1,-1,-1,-1,-1,-1],"loss_changes":[4.269206E1,2.9804682E1,2.5646618E1,2.0573639E1,5.4251617E1,2.4152489E1,5.3226395E0,1.8945694E1,1.3513107E1,3.583356E1,1.5918987E1,3.717939E1,1.9229553E1,4.094433E0,4.026004E0,1.6795822E1,6.7542534E0,9.661906E0,7.9404373E0,6.1640625E0,2.6254532E1,8.526698E0,9.132149E0,1.6175756E1,1.240675E1,1.3253498E1,1.9250237E1,4.897261E0,2.4701538E0,1.6667128E0,2.5422567E-1,0E0,0E0,0E0,0E0,0E0,0E0,0E0,0E0,0E0,0E0,0E0,0E0,0E0,0E0,0E0,0E0,0E0,0E0,0E0,0E0,0E0,0E0,0E0,0E0,0E0,0E0,0E0,0E0,0E0,0E0,0E0,0E0],"parents":[2147483647,0,0,1,1,2,2,3,3,4,4,5,5,6,6,7,7,8,8,9,9,10,10,11,11,12,12,13,13,14,14,15,15,16,16,17,17,18,18,19,19,20,20,21,21,22,22,23,23,24,24,25,25,26,26,27,27,28,28,29,29,30,30],"right_children":[2,4,6,8,10,12,14,16,18,20,22,24,26,28,30,32,34,36,38,40,42,44,46,48,50,52,54,56,58,60,62,-1,-1,-1,-1,-1,-1,-1,-1,-1,-1,-1,-1,-1,-1,-1,-1,-1,-1,-1,-1,-1,-1,-1,-1,-1,-1,-1,-1,-1,-1,-1,-1],"split_conditions":[1E0,1E0,6.677014E1,8E0,1E0,1E0,1E0,1E0,1E0,1E0,4.971589E1,1E0,1E0,1E0,1E0,1E0,1E0,1E0,1E0,1E0,1E0,1E0,1E0,1E0,1E0,1E0,1E0,1E0,1E0,1E0,1E0,-5.8552767E-3,1.9266729E-3,-1.3594079E-2,-4.4186944E-3,-3.3593928E-3,1.4906238E-2,3.386227E-2,-1.2645922E-2,-5.2714106E-3,-1.5072636E-2,1.9734178E-3,2.7685711E-2,-6.976043E-3,1.9550024E-2,1.9949194E-2,4.023739E-2,9.372332E-4,-1.5713867E-2,1.0937646E-2,3.0763635E-2,4.352714E-3,2.2187239E-2,1.8849788E-2,5.6873668E-2,-3.685095E-2,1.1560478E-2,-7.113876E-2,-3.3843126E-2,4.0307804E-3,1.1413895E-1,-5.0643988E-2,-6.7409314E-3],"split_indices":[22,34,84,2,31,74,59,82,81,30,84,68,30,12,83,35,38,35,48,25,44,23,75,6,66,19,69,66,24,8,12,0,0,0,0,0,0,0,0,0,0,0,0,0,0,0,0,0,0,0,0,0,0,0,0,0,0,0,0,0,0,0,0],"split_type":[0,0,0,0,0,0,0,0,0,0,0,0,0,0,0,0,0,0,0,0,0,0,0,0,0,0,0,0,0,0,0,0,0,0,0,0,0,0,0,0,0,0,0,0,0,0,0,0,0,0,0,0,0,0,0,0,0,0,0,0,0,0,0],"sum_hessian":[3.6019E4,2.5837E4,1.0182E4,1.8618E4,7.219E3,9.999E3,1.83E2,1.6995E4,1.623E3,5.476E3,1.743E3,7.028E3,2.971E3,1.72E2,1.1E1,1.2853E4,4.142E3,1.347E3,2.76E2,3.52E3,1.956E3,5.03E2,1.24E3,5.321E3,1.707E3,2.19E3,7.81E2,9.5E1,7.7E1,6E0,5E0,8.805E3,4.048E3,3.052E3,1.09E3,9.27E2,4.2E2,2.33E2,4.3E1,2.676E3,8.44E2,1.403E3,5.53E2,3.02E2,2.01E2,9.49E2,2.91E2,4.655E3,6.66E2,1.289E3,4.18E2,1.631E3,5.59E2,6.11E2,1.7E2,6.5E1,3E1,3.8E1,3.9E1,2E0,4E0,2E0,3E0],"tree_param":{"num_deleted":"0","num_feature":"85","num_nodes":"63","size_leaf_vector":"1"}},{"base_weights":[3.2336106E-5,-2.2020092E-2,4.6606302E-2,-4.3454636E-2,3.0228194E-2,7.592781E-2,-3.9893538E-2,-6.38169E-2,4.8285676E-3,7.774593E-2,-1.0646326E-1,8.7792575E-2,-1.5663297E-1,-1.1007467E-1,6.359107E-4,-8.417803E-2,-1.1070142E-2,-3.944044E-2,1.1156416E-1,1.268199E-1,-2.1513952E-2,-1.425186E-1,-1.4022356E-2,5.5065915E-2,1.7658034E-1,-6.0303074E-1,-1.1448505E-1,-6.929732E-2,-2.323003E-1,-3.607966E-2,9.499583E-2,-1.0590447E-2,-3.263499E-3,-6.85246E-3,1.6784504E-2,-6.6916705E-3,2.522211E-3,-5.26878E-4,1.8770969E-2,8.576509E-3,2.5138775E-2,-8.320166E-3,1.4055689E-2,-1.8831357E-2,-3.3625604E-3,-1.4349758E-2,4.0529512E-2,8.72959E-3,-4.2112605E-3,1.2554491E-2,3.327338E-2,-8.271321E-2,-3.0390969E-2,-1.7864255E-2,1.2476332E-2,-1.0526514E-2,5.8191745E-3,-3.141E-2,-3.2626328E-3,-7.24424E-3,7.532168E-3,1.6657048E-3,3.566391E-2],"categories":[],"categories_nodes":[],"categories_segments":[],"categories_sizes":[],"default_left":[0,0,0,0,0,0,0,0,0,0,0,0,0,0,0,0,0,0,0,0,0,0,0,0,0,0,0,0,0,0,0,0,0,0,0,0,0,0,0,0,0,0,0,0,0,0,0,0,0,0,0,0,0,0,0,0,0,0,0,0,0,0,0],"id":25,"left_children":[1,3,5,7,9,11,13,15,17,19,21,23,25,27,29,31,33,35,37,39,41,43,45,47,49,51,53,55,57,59,61,-1,-1,-1,-1,-1,-1,-1,-1,-1,-1,-1,-1,-1,-1,-1,-1,-1,-1,-1,-1,-1,-1,-1,-1,-1,-1,-1,-1,-1,-1,-1,-1],"loss_changes":[3.699605E1,2.7378834E1,2.9360764E1,1.7043304E1,4.620262E1,2.386773E1,8.337013E0,1.3094151E1,2.4305481E1,2.5712265E1,6.1140366E0,2.3892796E1,7.8331537E0,5.3317747E0,6.443892E0,9.847839E0,3.493088E1,6.461716E0,1.3416618E1,1.8041477E1,1.7477812E1,6.5761757E0,2.8072428E1,1.8833635E1,1.7610352E1,2.161829E0,5.9318757E0,3.7020411E0,4.3670683E0,5.429555E0,1.0672899E1,0E0,0E0,0E0,0E0,0E0,0E0,0E0,0E0,0E0,0E0,0E0,0E0,0E0,0E0,0E0,0E0,0E0,0E0,0E0,0E0,0E0,0E0,0E0,0E0,0E0,0E0,0E0,0E0,0E0,0E0,0E0,0E0],"parents":[2147483647,0,0,1,1,2,2,3,3,4,4,5,5,6,6,7,7,8,8,9,9,10,10,11,11,12,12,13,13,14,14,15,15,16,16,17,17,18,18,19,19,20,20,21,21,22,22,23,23,24,24,25,25,26,26,27,27,28,28,29,29,30,30],"right_children":[2,4,6,8,10,12,14,16,18,20,22,24,26,28,30,32,34,36,38,40,42,44,46,48,50,52,54,56,58,60,62,-1,-1,-1,-1,-1,-1,-1,-1,-1,-1,-1,-1,-1,-1,-1,-1,-1,-1,-1,-1,-1,-1,-1,-1,-1,-1,-1,-1,-1,-1,-1,-1],"split_conditions":[1E0,1E0,1E0,1E0,1E0,8E0,1E0,1E0,1E0,1E0,1E0,1E0,2E0,1E0,1E0,1E0,1E0,1E0,5.1435646E1,1E0,1E0,1E0,1E0,1E0,1E0,1E0,1E0,1E0,1E0,1E0,1E0,-1.0590447E-2,-3.263499E-3,-6.85246E-3,1.6784504E-2,-6.6916705E-3,2.522211E-3,-5.26878E-4,1.8770969E-2,8.576509E-3,2.5138775E-2,-8.320166E-3,1.4055689E-2,-1.8831357E-2,-3.3625604E-3,-1.4349758E-2,4.0529512E-2,8.72959E-3,-4.2112605E-3,1.2554491E-2,3.327338E-2,-8.271321E-2,-3.0390969E-2,-1.7864255E-2,1.2476332E-2,-1.0526514E-2,5.8191745E-3,-3.141E-2,-3.2626328E-3,-7.24424E-3,7.532168E-3,1.6657048E-3,3.566391E-2],"split_indices":[26,18,20,27,12,3,4,14,30,13,34,8,0,64,40,34,11,38,84,11,8,35,31,56,61,23,74,15,52,69,65,0,0,0,0,0,0,0,0,0,0,0,0,0,0,0,0,0,0,0,0,0,0,0,0,0,0,0,0,0,0,0,0],"split_type":[0,0,0,0,0,0,0,0,0,0,0,0,0,0,0,0,0,0,0,0,0,0,0,0,0,0,0,0,0,0,0,0,0,0,0,0,0,0,0,0,0,0,0,0,0,0,0,0,0,0,0,0,0,0,0,0,0,0,0,0,0,0,0],"sum_hessian":[3.6019E4,2.4445E4,1.1574E4,1.7334E4,7.111E3,8.644E3,2.93E3,1.2192E4,5.142E3,5.277E3,1.834E3,8.225E3,4.19E2,1.072E3,1.858E3,8.796E3,3.396E3,3.635E3,1.507E3,3.531E3,1.746E3,1.319E3,5.15E2,6.011E3,2.214E3,3.5E1,3.84E2,8.05E2,2.67E2,1.338E3,5.2E2,6.187E3,2.609E3,2.571E3,8.25E2,2.551E3,1.084E3,5.95E2,9.12E2,2.657E3,8.74E2,1.265E3,4.81E2,9.28E2,3.91E2,3.94E2,1.21E2,4.514E3,1.497E3,1.67E3,5.44E2,1.9E1,1.6E1,3.03E2,8.1E1,6.28E2,1.77E2,1.89E2,7.8E1,1.009E3,3.29E2,4.01E2,1.19E2],"tree_param":{"num_deleted":"0","num_feature":"85","num_nodes":"63","size_leaf_vector":"1"}},{"base_weights":[2.864864E-5,1.9687196E-2,-5.1573806E-2,-3.346853E-3,7.781261E-2,-8.197088E-2,2.2394467E-2,-2.6867863E-2,4.407924E-2,1.14489295E-1,-4.3436278E-2,-1.0942141E-1,-1.3129864E-4,-2.8721275E-2,1.1250849E-1,-4.3800272E-2,2.885952E-2,7.150926E-2,-3.900636E-2,2.9240586E-2,1.6040583E-1,-8.401542E-2,7.266652E-2,-1.17964275E-1,8.280478E-2,-5.275302E-2,1.14860654E-1,-6.530123E-2,5.4672275E-2,5.872231E-2,3.4026828E-1,-6.568981E-3,8.346756E-4,-6.2247748E-3,2.581333E-2,1.0270688E-2,-2.4716456E-3,-6.908628E-4,-1.2759176E-2,8.739929E-3,-1.0967786E-2,2.0705348E-2,3.7580547E-3,-1.3189398E-2,1.9534368E-3,1.4365933E-2,-1.3053422E-2,-1.0560879E-2,-2.8774215E-2,2.3863707E-2,-8.228022E-3,-8.670827E-3,2.5330586E-3,1.4588523E-2,-4.753845E-2,-3.3553385E-3,-1.5170534E-2,-2.6006491E-3,2.9016597E-2,-1.6056861E-3,1.8239181E-2,2.4172189E-2,7.052352E-2],"categories":[],"categories_nodes":[],"categories_segments":[],"categories_sizes":[],"default_left":[0,0,0,0,0,0,0,0,0,0,0,0,0,0,0,0,0,0,0,0,0,0,0,0,0,0,0,0,0,0,0,0,0,0,0,0,0,0,0,0,0,0,0,0,0,0,0,0,0,0,0,0,0,0,0,0,0,0,0,0,0,0,0],"id":26,"left_children":[1,3,5,7,9,11,13,15,17,19,21,23,25,27,29,31,33,35,37,39,41,43,45,47,49,51,53,55,57,59,61,-1,-1,-1,-1,-1,-1,-1,-1,-1,-1,-1,-1,-1,-1,-1,-1,-1,-1,-1,-1,-1,-1,-1,-1,-1,-1,-1,-1,-1,-1,-1,-1],"loss_changes":[3.654076E1,3.492318E1,2.2344372E1,2.0841135E1,3.292617E1,1.5822365E1,1.3338311E1,1.1785871E1,1.4119159E1,2.2244331E1,8.109631E0,8.670536E0,1.0716461E1,5.640954E0,1.2818364E1,1.0934732E1,6.082251E1,1.3982912E1,4.3722534E0,1.6095503E1,2.1157028E1,6.3237906E0,6.4526553E0,1.0562935E1,5.8078885E0,3.2235844E0,1.0250883E1,3.5198507E0,1.0723174E1,7.8543973E0,7.0227623E0,0E0,0E0,0E0,0E0,0E0,0E0,0E0,0E0,0E0,0E0,0E0,0E0,0E0,0E0,0E0,0E0,0E0,0E0,0E0,0E0,0E0,0E0,0E0,0E0,0E0,0E0,0E0,0E0,0E0,0E0,0E0,0E0],"parents":[2147483647,0,0,1,1,2,2,3,3,4,4,5,5,6,6,7,7,8,8,9,9,10,10,11,11,12,12,13,13,14,14,15,15,16,16,17,17,18,18,19,19,20,20,21,21,22,22,23,23,24,24,25,25,26,26,27,27,28,28,29,29,30,30],"right_children":[2,4,6,8,10,12,14,16,18,20,22,24,26,28,30,32,34,36,38,40,42,44,46,48,50,52,54,56,58,60,62,-1,-1,-1,-1,-1,-1,-1,-1,-1,-1,-1,-1,-1,-1,-1,-1,-1,-1,-1,-1,-1,-1,-1,-1,-1,-1,-1,-1,-1,-1,-1,-1],"split_conditions":[1E0,1E0,1E0,1E0,1E0,1E0,8E0,1E0,1E0,1E0,1E0,1E1,7E0,1E0,1E0,1E0,1E0,1E0,1E0,1E0,1E0,1E0,9E0,6.0595467E1,1E0,1E0,6.799521E1,1E0,1E0,1E0,1E0,-6.568981E-3,8.346756E-4,-6.2247748E-3,2.581333E-2,1.0270688E-2,-2.4716456E-3,-6.908628E-4,-1.2759176E-2,8.739929E-3,-1.0967786E-2,2.0705348E-2,3.7580547E-3,-1.3189398E-2,1.9534368E-3,1.4365933E-2,-1.3053422E-2,-1.0560879E-2,-2.8774215E-2,2.3863707E-2,-8.228022E-3,-8.670827E-3,2.5330586E-3,1.4588523E-2,-4.753845E-2,-3.3553385E-3,-1.5170534E-2,-2.6006491E-3,2.9016597E-2,-1.6056861E-3,1.8239181E-2,2.4172189E-2,7.052352E-2],"split_indices":[82,30,74,26,24,68,2,11,20,4,68,2,2,8,65,34,14,56,83,83,70,69,0,84,6,44,84,13,22,14,40,0,0,0,0,0,0,0,0,0,0,0,0,0,0,0,0,0,0,0,0,0,0,0,0,0,0,0,0,0,0,0,0],"split_type":[0,0,0,0,0,0,0,0,0,0,0,0,0,0,0,0,0,0,0,0,0,0,0,0,0,0,0,0,0,0,0,0,0,0,0,0,0,0,0,0,0,0,0,0,0,0,0,0,0,0,